15 200
BaemyKlobaechar 0.117625 -0.209057 0.283214 -0.086365 0.702485 -0.069606 0.401969 0.099310 -0.092212 -0.463988 -0.149722 0.394323 0.053867 0.628014 -0.425134 0.114672 -0.217512 0.298215 -0.111242 0.543943 0.512567 0.095485 0.288020 -0.128694 0.008112 0.142509 -0.010370 -0.098261 -0.192828 -0.494115 -0.389374 0.096789 0.048850 0.172641 0.746635 0.258511 -0.049950 -0.191048 -0.118453 -0.097386 0.184544 -0.110772 0.409871 0.248038 -0.302808 -0.046721 0.064725 -0.228515 -0.131780 -0.238788 0.291135 0.086115 -0.204798 0.212241 0.121094 -0.323408 -0.452395 -0.354126 -0.198302 0.018161 -0.527260 0.377258 -0.455691 -0.093428 -0.201224 -0.030184 -0.066242 -0.176270 0.294554 -0.406766 0.178533 0.030089 -0.081167 0.181258 -0.059736 -0.240889 -0.014482 -0.102221 -0.186968 -0.004179 0.135034 0.329299 0.165877 0.047990 -0.133040 0.127770 -0.414895 0.208053 0.132925 0.077118 -0.445943 0.161094 -0.058305 -0.214016 0.039722 0.215421 0.220775 0.134525 -0.281878 -0.297620 0.058999 0.011144 0.255959 0.198861 -0.134522 -0.087132 -0.114031 0.358671 -0.542558 -0.214825 -0.053108 -0.116281 0.113040 0.149762 -0.100860 0.262225 0.379024 0.561005 0.023770 -0.051815 -0.116268 0.103527 0.012909 -0.092718 0.487520 -0.279420 0.516833 -0.281384 0.245442 -0.035760 -0.217197 0.219678 0.121988 -0.108789 0.246672 -0.239669 0.279374 -0.291449 -0.498888 -0.328093 -0.430139 -0.476122 -0.446630 0.164510 -0.548129 -0.093720 0.531101 0.000215 0.041224 0.161303 -0.138560 0.028218 0.068922 -0.086669 -0.201864 -0.282492 0.088895 0.343147 -0.417043 -0.255601 0.029321 -0.185844 0.358707 0.337692 -0.264299 0.375723 -0.266527 -0.044172 -0.046436 -0.022685 -0.072675 0.150345 0.194034 0.127376 0.041769 -0.022123 -0.043921 0.211320 -0.070358 -0.121367 -0.091617 -0.079950 -0.027304 0.124394 -0.066593 -0.044812 0.219408 -0.208515 -0.007041 0.071885 0.135207 0.027343 -0.157637 -0.004883 0.122529 -0.144665 0.027404 0.018955 -0.227696 0.174907 
politics 0.094476 -0.169418 0.211298 -0.054801 0.434564 -0.068462 0.346336 0.118192 -0.096728 -0.402492 -0.105466 0.362952 0.042910 0.509629 -0.350906 0.106775 -0.204929 0.309376 -0.115589 0.531910 0.507425 0.124660 0.272282 -0.137803 -0.018980 0.105354 -0.011895 -0.102021 -0.191841 -0.452915 -0.370338 0.085693 0.055113 0.167538 0.655847 0.232771 -0.052634 -0.161476 -0.126188 -0.111864 0.262482 -0.129585 0.532949 0.308709 -0.418956 -0.092219 0.053822 -0.280713 -0.182692 -0.291346 0.378269 0.125847 -0.244098 0.264623 0.152790 -0.425302 -0.516364 -0.416100 -0.251170 0.043097 -0.620985 0.434231 -0.537441 -0.117979 -0.239120 -0.033740 -0.073807 -0.198937 0.351838 -0.511740 0.236250 0.037952 -0.173448 0.297603 -0.077285 -0.425490 -0.016456 -0.172533 -0.314502 0.015896 0.221219 0.587018 0.263335 0.062099 -0.269248 0.225351 -0.698600 0.349237 0.224477 0.096447 -0.573978 0.231886 -0.058408 -0.292941 0.040712 0.284597 0.296337 0.210439 -0.357247 -0.418357 0.068207 0.018427 0.304853 0.270278 -0.124045 -0.067516 -0.090493 0.299829 -0.449133 -0.167309 -0.056571 -0.086367 0.123613 0.143007 -0.083184 0.245699 0.331399 0.489275 0.028909 -0.064419 -0.129904 0.150439 0.017918 -0.142523 0.653569 -0.339996 0.669572 -0.360050 0.314008 -0.060420 -0.246962 0.294860 0.120482 -0.123174 0.324677 -0.305530 0.292061 -0.301257 -0.503754 -0.353466 -0.431797 -0.482591 -0.475897 0.167012 -0.551368 -0.101708 0.540658 0.001722 0.033665 0.144753 -0.161788 0.038583 0.053066 -0.119343 -0.237504 -0.357102 0.134468 0.394804 -0.504500 -0.297776 0.027571 -0.231101 0.413001 0.416880 -0.290150 0.442665 -0.314444 -0.041934 -0.142554 -0.077024 -0.107805 0.355671 0.546467 0.351456 0.119055 -0.053084 -0.114545 0.542114 -0.202799 -0.293553 -0.175218 -0.228823 -0.028727 0.337667 -0.142494 -0.121134 0.453283 -0.456243 -0.014195 0.164148 0.283737 0.051349 -0.359265 0.006574 0.282741 -0.322873 0.073632 0.006512 -0.514598 0.351571 
YangForPresidentHQ 0.069304 -0.109637 0.153256 -0.009348 0.299833 -0.058591 0.220326 0.099216 -0.139237 -0.479421 -0.093704 0.429740 0.050221 0.580201 -0.403268 0.134229 -0.196037 0.315474 -0.119683 0.512506 0.484075 0.143997 0.264043 -0.146545 -0.021265 0.064208 0.010412 -0.102597 -0.194891 -0.412936 -0.353822 0.080022 0.069506 0.182029 0.608414 0.207549 -0.030539 -0.136426 -0.148961 -0.121426 0.315256 -0.143220 0.626721 0.342089 -0.476821 -0.115427 0.049237 -0.276814 -0.244021 -0.345435 0.467310 0.168021 -0.261754 0.299911 0.215152 -0.528427 -0.276315 -0.243264 -0.162969 0.017259 -0.347087 0.231660 -0.316827 -0.058605 -0.118386 -0.015458 -0.025138 -0.110854 0.235154 -0.313293 0.167994 0.036608 -0.156523 0.194454 -0.030433 -0.311773 -0.021496 -0.131428 -0.219303 0.037432 0.133809 0.441954 0.184988 0.003088 -0.213672 0.154326 -0.488488 0.237773 0.250313 0.104365 -0.536841 0.217602 -0.061680 -0.308967 0.016051 0.286737 0.293470 0.222967 -0.317985 -0.409275 0.065431 0.008161 0.269120 0.265402 -0.053386 -0.046055 -0.100283 0.191740 -0.285704 -0.098895 -0.078682 -0.076284 0.091658 0.110948 -0.022994 0.127456 0.170927 0.259688 -0.004105 -0.072261 -0.083963 0.090299 -0.005789 -0.120170 0.388308 -0.195121 0.397559 -0.217959 0.189970 -0.065801 -0.116012 0.206230 0.042384 -0.071960 0.218286 -0.198631 0.102828 -0.126327 -0.195445 -0.154968 -0.158869 -0.176183 -0.193482 0.041903 -0.185429 -0.041989 0.187480 0.010067 0.016411 0.026308 -0.085958 0.010004 -0.005495 -0.071932 -0.120627 -0.193583 0.101926 0.195357 -0.242482 -0.145675 0.016644 -0.108821 0.169848 0.224346 -0.125122 0.223687 -0.158716 -0.003487 -0.151045 -0.086316 -0.067025 0.354087 0.574150 0.366349 0.162296 -0.026159 -0.115790 0.608856 -0.257321 -0.357963 -0.170579 -0.298315 -0.022160 0.387392 -0.134515 -0.119071 0.487716 -0.484197 0.011363 0.167271 0.288081 0.057381 -0.383171 0.048798 0.333668 -0.380002 0.063745 -0.027854 -0.590598 0.371988 
SandersForPresident 0.052312 -0.093387 0.158844 -0.014595 0.422933 -0.073629 0.359965 0.138136 -0.119547 -0.360849 -0.048778 0.336675 0.039377 0.415490 -0.291041 0.103921 -0.146346 0.249712 -0.103534 0.402003 0.385380 0.122280 0.200444 -0.115051 -0.035737 0.049957 0.006749 -0.106342 -0.181148 -0.376470 -0.315795 0.065347 0.070486 0.174706 0.568581 0.201800 -0.032059 -0.119851 -0.148695 -0.121788 0.267962 -0.113211 0.499645 0.258632 -0.401642 -0.113104 0.022066 -0.208873 -0.204156 -0.275134 0.371477 0.155388 -0.207559 0.230133 0.168108 -0.427578 -0.440719 -0.376675 -0.244097 0.038319 -0.551609 0.374156 -0.496914 -0.095772 -0.180468 -0.024676 -0.036708 -0.159616 0.315532 -0.431352 0.227173 0.052847 -0.219445 0.302875 -0.051426 -0.478259 -0.026630 -0.193200 -0.342795 0.035920 0.198629 0.617068 0.253879 0.019682 -0.308015 0.225600 -0.686444 0.349627 0.266523 0.106031 -0.553487 0.230590 -0.058982 -0.314713 0.021105 0.292820 0.310129 0.253237 -0.336105 -0.442182 0.075107 0.018096 0.283454 0.287674 -0.127290 -0.091966 -0.153268 0.375976 -0.538076 -0.193440 -0.127657 -0.125541 0.161223 0.202816 -0.075622 0.256111 0.369238 0.551742 0.009411 -0.117778 -0.083836 0.103372 -0.003515 -0.132710 0.449445 -0.212702 0.438682 -0.240721 0.215814 -0.060089 -0.142487 0.230605 0.037025 -0.070886 0.256621 -0.228283 0.157473 -0.188753 -0.299315 -0.230292 -0.258020 -0.260624 -0.304132 0.075941 -0.290539 -0.062089 0.297341 0.007827 0.018209 0.033998 -0.123066 0.020715 -0.002267 -0.117578 -0.189658 -0.303549 0.156814 0.310019 -0.406872 -0.241463 0.018221 -0.176753 0.297998 0.346123 -0.207447 0.357846 -0.256389 -0.011455 -0.177821 -0.107807 -0.086830 0.423576 0.695643 0.445358 0.191811 -0.037848 -0.150016 0.712182 -0.296642 -0.412429 -0.186481 -0.339461 -0.010841 0.446296 -0.158339 -0.149093 0.554563 -0.554692 0.016735 0.194509 0.324921 0.057734 -0.467627 0.057098 0.400312 -0.441870 0.079906 -0.020183 -0.690897 0.429283 
centerleftpolitics 0.121241 -0.207024 0.263673 -0.075871 0.689258 -0.061807 0.405414 0.105701 -0.089662 -0.474538 -0.152489 0.410752 0.052631 0.644039 -0.433404 0.118415 -0.206692 0.282986 -0.105887 0.523096 0.495307 0.092192 0.273376 -0.124101 0.008309 0.123910 -0.013451 -0.091895 -0.181263 -0.458599 -0.359672 0.098232 0.048591 0.156781 0.697702 0.242793 -0.048792 -0.175074 -0.112343 -0.092941 0.187401 -0.106151 0.422137 0.249153 -0.310293 -0.048419 0.065022 -0.233325 -0.133678 -0.242299 0.298870 0.088470 -0.208268 0.210818 0.127356 -0.333094 -0.401988 -0.310495 -0.173593 0.015421 -0.460910 0.336121 -0.402284 -0.083171 -0.181124 -0.023755 -0.062986 -0.158093 0.262174 -0.364145 0.150207 0.033395 -0.084798 0.201640 -0.064909 -0.256739 -0.010341 -0.105354 -0.204094 -0.006738 0.145917 0.345302 0.168425 0.052234 -0.139318 0.136130 -0.435147 0.215977 0.155205 0.086651 -0.510881 0.180009 -0.062551 -0.249267 0.041330 0.251663 0.245441 0.153744 -0.320160 -0.340409 0.062014 0.019960 0.288048 0.227276 -0.131686 -0.083204 -0.109361 0.350179 -0.521330 -0.204563 -0.053857 -0.102169 0.105785 0.145716 -0.094649 0.255281 0.364392 0.544326 0.021786 -0.049749 -0.103792 0.101723 0.010806 -0.082250 0.462504 -0.266868 0.479210 -0.259514 0.231557 -0.032544 -0.207876 0.201812 0.108559 -0.106239 0.232732 -0.230391 0.250869 -0.265217 -0.462692 -0.297289 -0.399102 -0.434373 -0.412627 0.150779 -0.494417 -0.086721 0.482984 -0.001994 0.032838 0.147831 -0.125828 0.023774 0.076387 -0.093814 -0.210580 -0.289713 0.089250 0.358961 -0.435180 -0.267691 0.025567 -0.193061 0.374000 0.353154 -0.278181 0.399050 -0.281550 -0.046590 -0.081573 -0.048917 -0.102081 0.255240 0.351706 0.226869 0.077400 -0.035556 -0.076213 0.359455 -0.127150 -0.207436 -0.142209 -0.151369 -0.029642 0.218306 -0.085955 -0.070305 0.307191 -0.294376 -0.013141 0.106478 0.187608 0.043127 -0.231822 0.004068 0.184300 -0.211226 0.043974 0.015386 -0.322205 0.238901 
Pete_Buttigieg 0.147090 -0.260607 0.363460 -0.108498 0.969183 -0.100292 0.547864 0.118119 -0.100135 -0.500932 -0.158240 0.418093 0.061822 0.665653 -0.452263 0.117982 -0.245798 0.333069 -0.126106 0.610843 0.574768 0.103929 0.318176 -0.142478 0.003541 0.173747 -0.013141 -0.123585 -0.241345 -0.616774 -0.482522 0.121909 0.061666 0.223062 0.928966 0.324757 -0.067460 -0.236657 -0.147688 -0.125279 0.209676 -0.127889 0.462790 0.276046 -0.347661 -0.054574 0.070204 -0.253485 -0.150177 -0.267505 0.328572 0.095715 -0.225446 0.243073 0.136735 -0.358181 -0.602271 -0.475765 -0.271824 0.027437 -0.709408 0.506847 -0.614955 -0.122751 -0.268237 -0.044244 -0.089230 -0.229924 0.386126 -0.537878 0.237194 0.040109 -0.115556 0.231172 -0.065125 -0.316769 -0.018271 -0.134131 -0.245878 -0.002784 0.164561 0.420735 0.201959 0.051897 -0.177256 0.159938 -0.516594 0.265935 0.149417 0.085821 -0.499310 0.180148 -0.060073 -0.241722 0.043442 0.234399 0.254127 0.152351 -0.322384 -0.341021 0.068248 0.012273 0.291638 0.238128 -0.161247 -0.110550 -0.136380 0.420350 -0.636761 -0.251895 -0.062664 -0.131050 0.147076 0.189063 -0.125258 0.328109 0.472004 0.697471 0.033980 -0.069172 -0.129792 0.122410 0.018246 -0.109537 0.573371 -0.318292 0.601778 -0.329604 0.282222 -0.039259 -0.252616 0.264205 0.138265 -0.118970 0.292243 -0.274980 0.336249 -0.346945 -0.598443 -0.394741 -0.511669 -0.566082 -0.542978 0.192625 -0.661567 -0.113134 0.641209 -0.002840 0.047791 0.191642 -0.172926 0.031366 0.080988 -0.116188 -0.245642 -0.350645 0.116002 0.419947 -0.520879 -0.315757 0.038226 -0.235383 0.444937 0.423094 -0.327979 0.463821 -0.325130 -0.042859 -0.059706 -0.022496 -0.085708 0.175154 0.230388 0.152333 0.046657 -0.028044 -0.056634 0.249669 -0.082827 -0.140027 -0.105202 -0.094295 -0.029901 0.141087 -0.089117 -0.062285 0.278779 -0.269190 -0.009569 0.088904 0.168780 0.034008 -0.207847 -0.003586 0.154579 -0.191516 0.034822 0.023853 -0.291566 0.221997 
moderatepolitics 0.086565 -0.156025 0.220858 -0.065676 0.591566 -0.070675 0.387684 0.123020 -0.112205 -0.432166 -0.102682 0.395303 0.050014 0.538810 -0.374942 0.110365 -0.173260 0.256076 -0.102269 0.453531 0.430281 0.099539 0.231939 -0.113897 -0.018752 0.093396 -0.004117 -0.090773 -0.167031 -0.389393 -0.305491 0.068517 0.060874 0.143307 0.565129 0.201012 -0.042182 -0.131116 -0.104728 -0.101199 0.171546 -0.082984 0.341357 0.190821 -0.271496 -0.060184 0.030677 -0.161559 -0.136213 -0.200795 0.251126 0.098225 -0.163484 0.173090 0.092374 -0.294349 -0.411967 -0.332756 -0.204780 0.030926 -0.503303 0.354342 -0.443705 -0.090012 -0.189331 -0.034934 -0.055457 -0.154088 0.284429 -0.411412 0.196728 0.031217 -0.159267 0.291701 -0.075477 -0.423905 -0.019877 -0.171506 -0.309339 0.000505 0.193389 0.552611 0.249077 0.047246 -0.271803 0.216653 -0.641567 0.342947 0.236699 0.103076 -0.618093 0.248407 -0.072832 -0.308751 0.045289 0.304249 0.302614 0.229616 -0.369074 -0.441469 0.074517 0.022670 0.326840 0.284061 -0.187137 -0.123930 -0.159401 0.473483 -0.697692 -0.263846 -0.108155 -0.143901 0.164370 0.211697 -0.121787 0.322060 0.478384 0.701197 0.033842 -0.092657 -0.104753 0.114582 0.015550 -0.120300 0.545708 -0.282991 0.549077 -0.296296 0.245474 -0.035512 -0.208562 0.238061 0.096573 -0.091054 0.282956 -0.258019 0.230808 -0.248792 -0.420919 -0.297902 -0.369575 -0.377444 -0.404996 0.135514 -0.457515 -0.078191 0.460628 -0.008355 0.014851 0.108844 -0.136591 0.028181 0.033577 -0.108558 -0.212208 -0.309012 0.132898 0.341832 -0.446143 -0.274946 0.019672 -0.194978 0.364495 0.362841 -0.262227 0.394605 -0.280520 -0.033036 -0.098736 -0.044672 -0.078680 0.233114 0.369258 0.232249 0.080820 -0.034765 -0.077574 0.362370 -0.135472 -0.209319 -0.108494 -0.154070 -0.015465 0.216628 -0.116281 -0.100627 0.370954 -0.360908 -0.005361 0.136618 0.222300 0.039047 -0.321980 0.021475 0.253381 -0.287020 0.052903 0.011675 -0.466022 0.302223 
ElizabethWarren 0.112540 -0.196760 0.248691 -0.068279 0.572142 -0.040776 0.286597 0.077429 -0.067594 -0.420061 -0.155978 0.353676 0.049677 0.604237 -0.403971 0.103914 -0.197618 0.255356 -0.093232 0.497943 0.465579 0.067340 0.260026 -0.111502 0.029256 0.119060 -0.006378 -0.064872 -0.138296 -0.380374 -0.297024 0.086189 0.031902 0.116943 0.579556 0.195306 -0.032087 -0.147413 -0.071145 -0.055531 0.185030 -0.118557 0.439327 0.268124 -0.301204 -0.031485 0.086815 -0.260816 -0.128346 -0.255797 0.307026 0.081075 -0.219581 0.224372 0.133535 -0.336267 -0.421741 -0.322615 -0.160465 0.005832 -0.463771 0.347855 -0.398448 -0.088726 -0.198460 -0.019905 -0.072739 -0.181812 0.290422 -0.393898 0.154237 0.040077 -0.055349 0.169402 -0.067696 -0.188812 -0.007701 -0.091228 -0.154355 -0.012265 0.132410 0.278793 0.148678 0.056444 -0.094909 0.113294 -0.371952 0.178330 0.094438 0.070003 -0.421463 0.135984 -0.060333 -0.198553 0.039076 0.208538 0.193995 0.100678 -0.272534 -0.261720 0.055661 0.008502 0.249227 0.180227 -0.097659 -0.060498 -0.075450 0.264753 -0.396965 -0.155986 -0.018934 -0.086255 0.070040 0.094817 -0.083008 0.191075 0.284479 0.419641 0.013238 -0.017834 -0.111258 0.093095 0.011837 -0.066454 0.423382 -0.263051 0.457483 -0.242244 0.221956 -0.033933 -0.207366 0.183745 0.119106 -0.114266 0.201336 -0.219953 0.248748 -0.262667 -0.454779 -0.275317 -0.392707 -0.441036 -0.380962 0.155339 -0.487432 -0.083846 0.468317 0.003673 0.041153 0.157905 -0.113556 0.019945 0.088532 -0.079712 -0.204068 -0.271000 0.060482 0.360875 -0.407769 -0.256734 0.028641 -0.184242 0.365261 0.329827 -0.278014 0.386398 -0.276717 -0.057729 -0.047647 -0.032389 -0.095057 0.186681 0.226015 0.148243 0.042421 -0.025034 -0.042556 0.226438 -0.066831 -0.129703 -0.120182 -0.088329 -0.034654 0.146682 -0.050288 -0.032213 0.193095 -0.174822 -0.015811 0.060200 0.114659 0.035981 -0.125180 -0.011605 0.094623 -0.110560 0.017407 0.020875 -0.163305 0.156322 
progressive 0.096959 -0.186200 0.239839 -0.084802 0.599702 -0.066916 0.333987 0.077319 -0.080338 -0.416413 -0.139095 0.358752 0.047999 0.561158 -0.383715 0.104791 -0.194271 0.265028 -0.095307 0.474667 0.451931 0.084202 0.251780 -0.110281 0.002660 0.117866 -0.006305 -0.077444 -0.147747 -0.389804 -0.310821 0.071855 0.039072 0.140282 0.601084 0.205377 -0.041855 -0.156160 -0.087695 -0.076925 0.137845 -0.084609 0.306251 0.192308 -0.227653 -0.035132 0.046473 -0.178399 -0.099245 -0.184346 0.228614 0.063300 -0.163579 0.172564 0.087849 -0.248296 -0.319870 -0.253531 -0.144900 0.016347 -0.378957 0.271567 -0.319090 -0.071571 -0.145289 -0.026728 -0.051898 -0.123127 0.203690 -0.299868 0.129149 0.015304 -0.078547 0.169643 -0.055296 -0.230972 -0.010637 -0.099840 -0.169358 -0.003040 0.128515 0.322757 0.160976 0.051614 -0.134380 0.131231 -0.401888 0.203947 0.162059 0.081974 -0.505441 0.196731 -0.066313 -0.238713 0.044228 0.241806 0.252149 0.161853 -0.320975 -0.348204 0.065394 0.007896 0.286275 0.226038 -0.127251 -0.081208 -0.102033 0.326724 -0.495612 -0.197665 -0.048087 -0.108371 0.104779 0.130789 -0.092900 0.238891 0.345016 0.501815 0.029593 -0.044752 -0.101049 0.091860 0.016248 -0.088568 0.435880 -0.239688 0.467315 -0.248503 0.212455 -0.033363 -0.188045 0.196580 0.111309 -0.091667 0.214922 -0.205579 0.225618 -0.232139 -0.384716 -0.263010 -0.333638 -0.379146 -0.351834 0.133983 -0.433843 -0.065680 0.422368 -0.002557 0.030000 0.133310 -0.105558 0.023001 0.055150 -0.067842 -0.167125 -0.239227 0.072329 0.279488 -0.343327 -0.211844 0.028941 -0.162638 0.301809 0.281728 -0.222527 0.303530 -0.218055 -0.041929 -0.041607 -0.014868 -0.065009 0.121528 0.156044 0.104828 0.023177 -0.026450 -0.031414 0.179876 -0.053041 -0.091936 -0.077212 -0.060619 -0.024370 0.108655 -0.063156 -0.036931 0.183125 -0.172905 -0.010643 0.063758 0.116946 0.023197 -0.132451 -0.014708 0.095965 -0.119343 0.018751 0.022819 -0.198509 0.145223 
JoeBiden 0.176217 -0.311650 0.399339 -0.157857 1.092472 -0.080984 0.543481 0.080336 -0.070857 -0.530919 -0.217978 0.442556 0.062281 0.761916 -0.512577 0.116366 -0.249848 0.304203 -0.103689 0.604839 0.567675 0.065711 0.325268 -0.129682 0.035432 0.199292 -0.025256 -0.088863 -0.198612 -0.561718 -0.423932 0.119809 0.041354 0.157578 0.840760 0.291124 -0.067045 -0.227685 -0.088281 -0.084914 0.094605 -0.087178 0.282921 0.199674 -0.187135 0.011648 0.085480 -0.204026 -0.065042 -0.178039 0.189101 0.028535 -0.173745 0.166453 0.059551 -0.204676 -0.385729 -0.274560 -0.132453 0.006194 -0.422062 0.320674 -0.351120 -0.078087 -0.188906 -0.032433 -0.083470 -0.153602 0.225558 -0.330501 0.111558 0.004454 0.010758 0.133004 -0.079113 -0.115245 -0.003102 -0.051591 -0.107771 -0.042622 0.094170 0.145191 0.109497 0.070511 -0.033210 0.074090 -0.241234 0.129101 0.064366 0.059755 -0.435027 0.140432 -0.062768 -0.168597 0.056877 0.189423 0.181108 0.078477 -0.284567 -0.247349 0.047694 0.015674 0.271696 0.165565 -0.192575 -0.117204 -0.119648 0.461953 -0.713771 -0.289059 -0.027288 -0.130003 0.115225 0.164090 -0.150382 0.345753 0.502050 0.735355 0.048151 -0.024042 -0.119345 0.098669 0.030579 -0.054389 0.490823 -0.307289 0.531891 -0.284991 0.243635 -0.007021 -0.258380 0.189239 0.173336 -0.121433 0.229402 -0.235546 0.348788 -0.346263 -0.620526 -0.386158 -0.538008 -0.594706 -0.538431 0.224336 -0.703000 -0.108736 0.678273 -0.013385 0.040593 0.242260 -0.143416 0.032817 0.118369 -0.073349 -0.219810 -0.276048 0.049286 0.372853 -0.444778 -0.283701 0.029835 -0.199491 0.418980 0.346370 -0.322271 0.409340 -0.286085 -0.069963 0.041447 0.040279 -0.063030 -0.046224 -0.152138 -0.097132 -0.074989 -0.016922 0.031251 -0.153617 0.094785 0.090892 -0.016170 0.108483 -0.032041 -0.112814 0.008360 0.028853 -0.059806 0.080746 -0.028833 -0.019477 -0.023060 0.002481 0.082554 -0.044747 -0.098398 0.092824 -0.013739 0.048267 0.139458 -0.041310 
Kamala 0.168730 -0.313953 0.404958 -0.139750 1.040921 -0.074087 0.501780 0.086411 -0.058267 -0.489927 -0.209658 0.394682 0.060862 0.722575 -0.480688 0.110031 -0.248071 0.300057 -0.107904 0.597339 0.559603 0.060769 0.317585 -0.123377 0.042279 0.196188 -0.018656 -0.092283 -0.194640 -0.565711 -0.428172 0.123200 0.036006 0.171511 0.871309 0.296805 -0.059206 -0.234810 -0.092814 -0.075736 0.150645 -0.121143 0.405279 0.265272 -0.270980 -0.007411 0.102722 -0.270308 -0.097325 -0.242423 0.277564 0.049939 -0.223963 0.222211 0.111663 -0.292885 -0.549931 -0.412348 -0.203863 0.007620 -0.608663 0.459461 -0.514805 -0.110657 -0.248591 -0.032811 -0.098253 -0.218548 0.329878 -0.454155 0.166435 0.034223 -0.034567 0.179571 -0.083150 -0.184072 -0.006097 -0.088576 -0.162845 -0.028690 0.139435 0.252235 0.153158 0.079131 -0.063960 0.106484 -0.366841 0.178801 0.066606 0.071426 -0.459170 0.139835 -0.066287 -0.194395 0.054628 0.208718 0.201284 0.078279 -0.303758 -0.260671 0.059647 0.009454 0.287747 0.187158 -0.168297 -0.106141 -0.113845 0.430393 -0.654683 -0.267184 -0.020063 -0.131477 0.114680 0.155699 -0.142247 0.332817 0.490172 0.720633 0.036115 -0.027204 -0.135399 0.108950 0.022816 -0.065411 0.514658 -0.324523 0.566152 -0.305944 0.268379 -0.023422 -0.273927 0.214916 0.171132 -0.140466 0.237438 -0.252523 0.369293 -0.377444 -0.659478 -0.402194 -0.569582 -0.645768 -0.561619 0.229953 -0.743236 -0.118822 0.710555 -0.001785 0.059908 0.253273 -0.158221 0.028945 0.126767 -0.082690 -0.228191 -0.298957 0.047859 0.411922 -0.471915 -0.294565 0.038891 -0.217488 0.440190 0.371817 -0.335349 0.436450 -0.305922 -0.068983 0.017012 0.012796 -0.084202 0.045417 -0.030049 -0.014131 -0.033501 -0.018065 0.004220 -0.017904 0.042441 0.016678 -0.066723 0.039661 -0.038612 -0.019769 -0.017059 0.009124 0.052512 -0.032908 -0.025483 0.007004 0.035457 0.019730 -0.003711 -0.040642 -0.018682 0.007122 -0.002784 0.043215 0.022614 0.052136 
SocialDemocracy 0.101139 -0.183922 0.236669 -0.087271 0.581832 -0.053564 0.330128 0.085807 -0.076559 -0.397023 -0.135329 0.348444 0.049716 0.542807 -0.369632 0.096566 -0.176902 0.239781 -0.087534 0.446883 0.423012 0.070124 0.234259 -0.102248 0.005683 0.114931 -0.007677 -0.070007 -0.136464 -0.361777 -0.278746 0.067027 0.040815 0.109737 0.535220 0.187079 -0.038626 -0.137947 -0.067447 -0.068856 0.121416 -0.078290 0.282818 0.175852 -0.207040 -0.025759 0.051470 -0.168583 -0.091145 -0.168522 0.200195 0.059956 -0.151642 0.154792 0.065724 -0.228023 -0.390825 -0.304778 -0.163870 0.021926 -0.452029 0.331981 -0.386540 -0.086947 -0.185541 -0.031457 -0.063512 -0.151649 0.252353 -0.367088 0.157302 0.021793 -0.072952 0.189533 -0.070418 -0.244053 -0.006963 -0.104958 -0.182816 -0.015848 0.142843 0.347795 0.175985 0.060572 -0.152004 0.144028 -0.434896 0.229582 0.141906 0.074132 -0.482241 0.183063 -0.061846 -0.218665 0.047261 0.230633 0.228648 0.149324 -0.305014 -0.325940 0.059138 0.012469 0.278295 0.210020 -0.155163 -0.091975 -0.101047 0.371857 -0.553180 -0.215625 -0.051506 -0.113850 0.113236 0.144269 -0.111744 0.262292 0.395175 0.567394 0.033374 -0.042740 -0.105549 0.102699 0.024601 -0.087994 0.486159 -0.276314 0.515743 -0.272905 0.236664 -0.027729 -0.220646 0.204234 0.123796 -0.104262 0.239518 -0.233565 0.267433 -0.276738 -0.471656 -0.313322 -0.414868 -0.451231 -0.427974 0.166320 -0.522129 -0.083670 0.513071 -0.004992 0.026778 0.155765 -0.129439 0.030025 0.073302 -0.098579 -0.226232 -0.321848 0.099110 0.385965 -0.471645 -0.293618 0.025799 -0.213895 0.408825 0.377481 -0.304222 0.425186 -0.301951 -0.060326 -0.061802 -0.025832 -0.086877 0.174443 0.234652 0.147275 0.030321 -0.033574 -0.043852 0.229565 -0.065462 -0.120131 -0.102619 -0.077310 -0.026527 0.140862 -0.076916 -0.057756 0.225574 -0.218328 -0.019352 0.082009 0.145271 0.026955 -0.180214 -0.011706 0.128641 -0.149313 0.026496 0.026420 -0.252434 0.189183 
demsocialist 0.087469 -0.153649 0.210472 -0.058989 0.516390 -0.056887 0.313716 0.097042 -0.098626 -0.414262 -0.113762 0.370235 0.050945 0.546558 -0.375508 0.110289 -0.181404 0.262466 -0.100307 0.473294 0.448101 0.091903 0.238798 -0.113628 -0.002207 0.097544 0.001319 -0.089669 -0.161301 -0.393722 -0.312934 0.071570 0.053827 0.144432 0.590806 0.203374 -0.032398 -0.136237 -0.098908 -0.085502 0.195042 -0.104674 0.405287 0.230131 -0.302977 -0.059288 0.051388 -0.205969 -0.144509 -0.234284 0.293096 0.104663 -0.193169 0.199139 0.122338 -0.333195 -0.397524 -0.321775 -0.180887 0.022084 -0.467952 0.335111 -0.408736 -0.087955 -0.183556 -0.022121 -0.052027 -0.163340 0.283747 -0.395967 0.182601 0.043487 -0.133309 0.244646 -0.067528 -0.341330 -0.017563 -0.153193 -0.249885 0.003676 0.175875 0.469078 0.213577 0.048779 -0.217052 0.186462 -0.558723 0.285727 0.207814 0.101903 -0.594192 0.228614 -0.080295 -0.297404 0.040951 0.300377 0.298483 0.208915 -0.370602 -0.424131 0.081314 0.013648 0.327607 0.275180 -0.142102 -0.098547 -0.130779 0.388792 -0.563345 -0.213722 -0.083807 -0.132054 0.130718 0.168590 -0.103518 0.259747 0.397460 0.580161 0.017302 -0.071245 -0.115619 0.113702 0.007994 -0.114714 0.512694 -0.280583 0.533381 -0.286648 0.250809 -0.048576 -0.210753 0.235001 0.100515 -0.107447 0.261545 -0.257742 0.234725 -0.260379 -0.427705 -0.287682 -0.378451 -0.404024 -0.391889 0.142031 -0.461544 -0.079392 0.456116 0.004588 0.030715 0.117219 -0.130985 0.022688 0.051275 -0.104489 -0.221885 -0.325552 0.116769 0.377317 -0.459944 -0.285683 0.025847 -0.205537 0.381933 0.376097 -0.279087 0.416036 -0.301405 -0.048706 -0.106815 -0.062588 -0.100245 0.291877 0.432504 0.279915 0.098586 -0.034192 -0.085610 0.439808 -0.162235 -0.248534 -0.147773 -0.193182 -0.024333 0.279056 -0.110833 -0.094943 0.387610 -0.375053 -0.003551 0.131712 0.230036 0.047069 -0.311033 0.013471 0.251106 -0.280077 0.043536 0.013489 -0.444368 0.310847 
BetoORourke 0.109907 -0.200018 0.264577 -0.086426 0.685480 -0.064822 0.392039 0.103163 -0.105201 -0.526707 -0.172088 0.464662 0.061360 0.713421 -0.481084 0.131773 -0.231909 0.318557 -0.116543 0.586800 0.553187 0.101627 0.307345 -0.140276 0.004093 0.139211 -0.010811 -0.097131 -0.197257 -0.502559 -0.397411 0.100730 0.061451 0.169222 0.762833 0.265598 -0.056136 -0.192048 -0.114628 -0.104732 0.202492 -0.117180 0.451146 0.270225 -0.332268 -0.052652 0.068315 -0.250816 -0.152748 -0.263652 0.324732 0.099886 -0.223873 0.235651 0.125323 -0.367379 -0.438633 -0.341812 -0.189908 0.020842 -0.504957 0.370671 -0.440402 -0.096937 -0.196141 -0.029864 -0.069113 -0.168404 0.280493 -0.405583 0.172684 0.027767 -0.083086 0.204945 -0.069140 -0.261543 -0.007402 -0.110163 -0.197053 -0.011677 0.148997 0.364288 0.178815 0.056379 -0.157157 0.146358 -0.453986 0.233824 0.155580 0.082497 -0.507483 0.189426 -0.060913 -0.238630 0.043675 0.245690 0.240045 0.156710 -0.317441 -0.341795 0.059696 0.017230 0.283255 0.219781 -0.159094 -0.095636 -0.117225 0.392802 -0.588284 -0.226147 -0.057590 -0.116711 0.119918 0.152961 -0.110131 0.274048 0.400522 0.584357 0.030406 -0.050808 -0.111813 0.110283 0.019394 -0.092993 0.518330 -0.292931 0.540154 -0.286288 0.251761 -0.032992 -0.227024 0.223334 0.125590 -0.114723 0.259688 -0.254850 0.282437 -0.291971 -0.505093 -0.332818 -0.437707 -0.476260 -0.454239 0.171443 -0.545252 -0.091920 0.535650 -0.005093 0.029326 0.162173 -0.140079 0.029879 0.077042 -0.102205 -0.233380 -0.325080 0.100600 0.392922 -0.479239 -0.297499 0.028264 -0.217163 0.415481 0.389585 -0.308464 0.434976 -0.311073 -0.055193 -0.082130 -0.040468 -0.101984 0.239268 0.331249 0.212543 0.060226 -0.039520 -0.069607 0.334270 -0.110504 -0.187052 -0.134032 -0.132705 -0.032668 0.206687 -0.099243 -0.078625 0.321977 -0.309960 -0.020646 0.116497 0.198964 0.043744 -0.248385 -0.003045 0.193643 -0.223681 0.043791 0.018054 -0.358431 0.255811 
ConservativeDemocrat 0.088878 -0.153013 0.201387 -0.056092 0.505920 -0.052978 0.297892 0.088888 -0.088324 -0.395961 -0.115218 0.350379 0.043459 0.526808 -0.360716 0.100211 -0.176206 0.249002 -0.094626 0.454276 0.426569 0.090087 0.235012 -0.113392 0.002668 0.097524 -0.004246 -0.081974 -0.158450 -0.386286 -0.308153 0.078958 0.047988 0.140599 0.582812 0.202279 -0.035690 -0.139433 -0.097607 -0.086676 0.192182 -0.100202 0.409886 0.234376 -0.303305 -0.054146 0.055942 -0.214741 -0.138927 -0.232900 0.294930 0.093594 -0.191394 0.204815 0.123159 -0.330825 -0.353658 -0.283677 -0.161566 0.017546 -0.416876 0.298525 -0.361606 -0.078260 -0.158464 -0.020265 -0.049710 -0.136472 0.240908 -0.337066 0.149737 0.032578 -0.091943 0.183199 -0.055105 -0.251505 -0.011915 -0.106997 -0.189381 0.002607 0.133041 0.342270 0.163474 0.038167 -0.152298 0.136332 -0.416864 0.208252 0.157446 0.075808 -0.453691 0.170677 -0.056409 -0.229489 0.034457 0.225992 0.226071 0.152205 -0.278157 -0.316817 0.055657 0.012238 0.247508 0.208457 -0.116585 -0.074005 -0.102276 0.302494 -0.451566 -0.171077 -0.057593 -0.094406 0.102904 0.131246 -0.077263 0.214962 0.308204 0.460755 0.017033 -0.052244 -0.091418 0.092955 0.008218 -0.085826 0.418653 -0.231211 0.434004 -0.234561 0.205797 -0.037583 -0.174897 0.188863 0.087075 -0.086741 0.212201 -0.209144 0.206181 -0.219210 -0.371381 -0.248682 -0.323056 -0.348982 -0.338306 0.120034 -0.396127 -0.068678 0.390402 -0.001627 0.024124 0.110809 -0.109415 0.022879 0.049599 -0.080802 -0.176871 -0.247950 0.087046 0.294306 -0.360030 -0.223822 0.019932 -0.161154 0.305117 0.296834 -0.223199 0.331546 -0.235245 -0.035086 -0.081411 -0.046376 -0.080855 0.222803 0.328427 0.210471 0.075069 -0.030323 -0.066518 0.334099 -0.120689 -0.193786 -0.121819 -0.146648 -0.022311 0.208017 -0.088928 -0.070631 0.301260 -0.290547 -0.009011 0.103274 0.180054 0.040379 -0.233698 0.010082 0.186564 -0.214006 0.041974 0.007448 -0.333711 0.235807 
