15 200
BaemyKlobaechar 0.054839 -0.132355 0.049374 -0.068774 0.366291 0.004644 0.244993 0.050625 0.035522 -0.212248 -0.205349 0.207011 0.022477 0.408185 -0.217445 -0.005786 -0.099622 0.177769 0.022723 0.355352 0.306798 0.072128 0.198421 -0.158273 0.011382 0.032189 -0.087693 -0.003183 -0.106528 -0.184841 -0.161472 0.090157 0.016366 -0.021425 0.316081 0.175425 -0.086946 -0.121801 -0.037197 -0.099671 0.074939 -0.026488 0.320463 0.171236 -0.248052 0.002195 0.107884 -0.242100 -0.070683 -0.108784 0.182938 0.002127 -0.111584 0.174005 0.008503 -0.245769 -0.249286 -0.154223 -0.038109 0.060755 -0.220047 0.182386 -0.200845 -0.081026 -0.134741 -0.017461 -0.056161 -0.035311 0.037837 -0.126777 0.013053 -0.051317 0.067751 0.303458 -0.242291 -0.165855 0.078835 -0.002077 -0.220541 -0.068743 0.254369 0.227733 0.179751 0.175830 -0.113938 0.126675 -0.516550 0.204295 0.114958 0.013181 -0.409385 0.099828 0.076127 -0.153175 0.063996 0.204787 0.143535 0.068482 -0.208070 -0.230291 -0.086130 0.092127 0.184853 0.097645 -0.287679 0.039194 0.121419 0.250290 -0.435332 -0.093723 0.092081 0.147537 0.104040 0.106357 -0.077760 0.377045 0.249553 0.412441 0.052488 0.053566 0.046614 0.213128 0.108031 0.090959 0.473070 -0.368392 0.451654 -0.241640 0.311066 -0.015287 -0.259392 0.041321 0.153722 -0.138788 0.195236 -0.217556 0.230988 -0.003380 -0.325857 -0.153800 -0.255999 -0.293559 -0.307721 0.158372 -0.348581 -0.149285 0.340314 -0.055070 -0.095274 0.257378 -0.061284 0.127277 0.297720 -0.068746 -0.193057 -0.232028 -0.056046 0.294877 -0.435914 -0.252223 -0.127981 -0.156941 0.373420 0.293605 -0.323741 0.446159 -0.227566 -0.150412 -0.151450 -0.050067 -0.072446 0.265761 0.435892 0.205172 -0.115498 -0.130914 -0.114015 0.379888 -0.080542 -0.143144 -0.286984 -0.105647 -0.017629 0.235839 -0.136162 -0.273876 0.134573 -0.390421 -0.290745 0.137349 0.359646 0.013940 -0.295645 -0.083119 0.164506 -0.256206 0.308789 -0.053533 -0.379520 0.244309 
politics 0.233135 -0.105583 0.116676 -0.058274 0.524344 -0.032249 0.366019 0.132035 -0.057347 -0.282761 -0.169277 0.324842 0.028926 0.469059 -0.276915 0.016179 -0.092805 0.204114 0.014915 0.416412 0.376117 0.104242 0.228458 -0.204144 0.012385 0.018996 -0.085755 -0.025916 -0.241243 -0.385789 -0.405574 0.165128 0.110846 -0.001898 0.645493 0.341100 -0.119223 -0.187844 -0.127584 -0.255380 0.183973 -0.053795 0.501471 0.225656 -0.351158 -0.014986 0.122020 -0.303946 -0.183238 -0.195293 0.327049 0.134352 -0.132234 0.261506 0.060834 -0.415809 -0.185768 -0.182707 -0.070104 0.054672 -0.187681 0.122448 -0.164560 -0.082728 -0.108106 -0.000360 -0.020844 -0.047709 0.109076 -0.201533 0.085405 -0.015043 0.013370 0.180939 -0.122176 -0.141264 0.037215 -0.031830 -0.107970 -0.019398 0.125306 0.174006 0.107681 0.060707 -0.125938 0.109158 -0.310906 0.135649 0.218654 0.012440 -0.472281 0.152821 0.064512 -0.215002 0.058934 0.271463 0.212074 0.211520 -0.227701 -0.322538 -0.051936 0.057429 0.165840 0.148690 -0.331883 0.051352 0.076685 0.361400 -0.593912 -0.097242 0.013751 0.112297 0.192630 0.215129 -0.103989 0.420242 0.298222 0.464570 0.050454 -0.007730 0.014324 0.156026 0.080850 0.006898 0.360696 -0.243237 0.326393 -0.125260 0.240752 -0.068367 -0.150289 0.062588 0.065161 -0.081072 0.168453 -0.223811 0.171680 -0.040165 -0.261341 -0.151962 -0.211834 -0.208012 -0.231859 0.101485 -0.230084 -0.100445 0.238394 -0.017424 -0.047043 0.111314 -0.097922 0.111443 0.016259 -0.066665 -0.101163 -0.140985 0.061103 0.128205 -0.158325 -0.131680 -0.065471 -0.073770 0.137403 0.170440 -0.162660 0.250550 -0.176365 -0.079575 -0.220684 -0.118795 -0.026511 0.324516 0.684134 0.362673 -0.067572 -0.147809 -0.144896 0.520687 -0.157365 -0.216407 -0.277860 -0.200834 0.054552 0.390276 -0.149959 -0.261661 0.155641 -0.349733 -0.171791 0.146146 0.300614 0.027702 -0.345799 0.005924 0.240559 -0.312123 0.250177 -0.086088 -0.442856 0.247579 
YangForPresidentHQ 0.043438 -0.002238 0.110562 -0.012435 0.534917 -0.030555 0.358710 0.109457 -0.046042 -0.269031 -0.167570 0.295068 0.036118 0.463033 -0.264651 0.010761 -0.105085 0.219573 0.016617 0.464472 0.408835 0.102318 0.249995 -0.216540 0.018024 0.019071 -0.092378 -0.033909 -0.266318 -0.423574 -0.434501 0.183115 0.122746 -0.001863 0.742863 0.396534 -0.131499 -0.211796 -0.145366 -0.285052 0.125688 -0.044341 0.363177 0.157012 -0.252229 -0.005500 0.097630 -0.218542 -0.140653 -0.159937 0.260260 0.091886 -0.111032 0.213638 0.050730 -0.333292 -0.314330 -0.256435 -0.078680 0.075405 -0.290298 0.218829 -0.268732 -0.116708 -0.101745 -0.002385 -0.020422 -0.049696 0.093756 -0.156193 0.060858 -0.007692 0.022186 0.205421 -0.144368 -0.138767 0.044404 -0.027971 -0.138636 -0.032029 0.163040 0.194410 0.124315 0.083617 -0.125123 0.109765 -0.371402 0.157919 0.163035 0.018608 -0.442042 0.118750 0.065397 -0.193010 0.058286 0.244098 0.162074 0.124270 -0.199394 -0.250286 -0.058484 0.068926 0.166095 0.120311 -0.331415 0.042025 0.086749 0.349374 -0.567914 -0.100912 0.034735 0.122976 0.185185 0.207980 -0.110925 0.452179 0.326308 0.518609 0.046000 0.014148 0.022229 0.202280 0.098087 0.041156 0.460193 -0.337476 0.423194 -0.190309 0.259584 -0.051396 -0.188744 0.060744 0.082725 -0.100610 0.178915 -0.226571 0.225197 -0.030979 -0.343226 -0.170870 -0.275793 -0.286009 -0.307422 0.140234 -0.293594 -0.130172 0.297591 -0.032747 -0.066927 0.173157 -0.095131 0.117652 0.205818 -0.090562 -0.188358 -0.238439 -0.000088 0.281507 -0.383345 -0.248923 -0.106460 -0.125538 0.281219 0.252950 -0.272558 0.388415 -0.221789 -0.123814 -0.110126 -0.054085 -0.027269 0.179108 0.341905 0.176286 -0.042636 -0.075064 -0.090439 0.306047 -0.085305 -0.131904 -0.186486 -0.113967 0.017423 0.213128 -0.086636 -0.166546 0.091884 -0.232685 -0.139582 0.081519 0.198507 0.013380 -0.199663 -0.022083 0.125383 -0.180243 0.163848 -0.043450 -0.256460 0.165825 
SandersForPresident 0.162532 -0.073370 0.059938 -0.038323 0.296860 -0.018557 0.282196 0.109342 -0.024331 -0.309442 -0.216595 0.337271 0.025689 0.523223 -0.303202 0.014280 -0.115934 0.235131 0.024214 0.449865 0.405250 0.116330 0.255295 -0.218653 0.011787 0.022957 -0.100996 -0.024777 -0.241530 -0.383855 -0.399054 0.166983 0.094195 -0.002228 0.622084 0.327778 -0.124190 -0.190324 -0.125397 -0.242557 0.156666 -0.042860 0.465955 0.224375 -0.337640 -0.011075 0.119819 -0.292890 -0.161798 -0.184235 0.313323 0.093887 -0.143036 0.257825 0.052205 -0.402705 -0.565814 -0.439193 -0.151945 0.148788 -0.537186 0.399602 -0.476648 -0.215024 -0.271649 -0.028179 -0.090638 -0.083979 0.167934 -0.386473 0.118591 -0.083532 0.015852 0.161095 -0.112407 -0.117010 0.032071 -0.016985 -0.108950 -0.018053 0.116865 0.148811 0.097102 0.063303 -0.092033 0.085184 -0.281693 0.113637 0.134374 0.010508 -0.289969 0.093977 0.039150 -0.129433 0.031983 0.160985 0.124827 0.110488 -0.140076 -0.188974 -0.040391 0.042232 0.104674 0.080857 -0.335481 0.050806 0.075767 0.365814 -0.611041 -0.108858 0.017456 0.118474 0.204867 0.234278 -0.109543 0.483323 0.333290 0.529966 0.055586 -0.000780 0.002571 0.104867 0.045573 -0.008950 0.247554 -0.159791 0.216179 -0.083010 0.150194 -0.052509 -0.077353 0.051355 0.030370 -0.045303 0.114950 -0.150920 0.018374 -0.021059 -0.038154 -0.039612 -0.030004 -0.019598 -0.034883 0.007896 -0.043055 -0.017850 0.047380 0.004659 -0.001221 -0.002686 -0.034471 0.026504 0.001168 -0.027067 -0.049229 -0.067011 0.037540 0.050288 -0.073833 -0.058845 -0.027108 -0.035077 0.064647 0.089487 -0.073612 0.115737 -0.081414 -0.034509 -0.173038 -0.082387 -0.022458 0.255071 0.523680 0.275118 -0.056196 -0.116574 -0.111009 0.412307 -0.128697 -0.171852 -0.222730 -0.153924 0.029096 0.294725 -0.068708 -0.117436 0.079149 -0.160574 -0.069485 0.076874 0.145604 0.014111 -0.190667 0.005582 0.125749 -0.166058 0.132137 -0.048316 -0.237837 0.121530 
centerleftpolitics -0.044863 -0.147719 0.014079 -0.079738 0.280702 0.025625 0.146573 0.015637 0.086221 -0.232999 -0.270236 0.208643 0.028517 0.479459 -0.247948 -0.015773 -0.129480 0.211953 0.031376 0.429111 0.362328 0.074715 0.232147 -0.175952 0.011987 0.046520 -0.102183 0.003031 -0.064523 -0.128182 -0.077575 0.072379 -0.021190 -0.029642 0.235325 0.134004 -0.086802 -0.112052 0.003765 -0.046983 0.022777 -0.012148 0.228611 0.141675 -0.197567 0.008581 0.099068 -0.210744 -0.006089 -0.056251 0.093500 -0.068053 -0.093451 0.115861 -0.020016 -0.136307 -0.130294 -0.029468 0.012490 0.024967 -0.098149 0.107485 -0.093552 -0.026185 -0.106811 -0.022161 -0.061332 -0.014006 -0.025403 -0.036213 -0.041613 -0.050899 0.090767 0.350013 -0.289913 -0.167524 0.098010 0.009832 -0.265816 -0.094820 0.299935 0.233828 0.197522 0.227081 -0.098667 0.128038 -0.571794 0.224118 0.069292 0.009868 -0.413040 0.085886 0.084874 -0.131374 0.073406 0.187386 0.120568 0.006127 -0.219155 -0.212620 -0.106717 0.113831 0.212870 0.088265 -0.181752 0.013383 0.119917 0.105955 -0.202641 -0.065062 0.121912 0.132589 0.008288 -0.009274 -0.037765 0.227120 0.141322 0.250105 0.041469 0.082278 0.064655 0.231779 0.116489 0.132807 0.506691 -0.409697 0.496348 -0.295277 0.323995 0.020076 -0.305835 0.027833 0.194771 -0.159595 0.192235 -0.190578 0.230025 0.020275 -0.307173 -0.124006 -0.238220 -0.300865 -0.305014 0.172463 -0.383679 -0.159215 0.367077 -0.075106 -0.117552 0.322069 -0.028094 0.116483 0.501229 -0.089528 -0.288004 -0.339033 -0.124728 0.453007 -0.681121 -0.376850 -0.185891 -0.238389 0.577697 0.423384 -0.477596 0.646109 -0.309988 -0.219206 -0.144821 -0.028461 -0.104597 0.277906 0.396722 0.173919 -0.151612 -0.141035 -0.112584 0.366551 -0.055253 -0.128339 -0.322429 -0.080473 -0.048585 0.202371 -0.100683 -0.231515 0.109003 -0.349852 -0.303399 0.103799 0.323259 0.006355 -0.195579 -0.113646 0.080218 -0.159042 0.260994 -0.016257 -0.246016 0.190225 
Pete_Buttigieg -0.070666 -0.040772 -0.036522 -0.022428 -0.003789 0.026461 0.012742 0.000054 0.063366 -0.270969 -0.278989 0.255912 0.028713 0.523060 -0.281109 -0.012853 -0.133092 0.220435 0.033009 0.442748 0.382028 0.079835 0.245707 -0.193071 0.025881 0.057090 -0.147306 -0.001387 -0.197736 -0.343642 -0.307703 0.171563 0.043900 -0.034948 0.601850 0.324842 -0.156691 -0.223874 -0.066013 -0.192739 0.035355 -0.017666 0.246253 0.145326 -0.189866 0.015016 0.097842 -0.203480 -0.028900 -0.067847 0.117749 -0.038225 -0.084279 0.124360 -0.005804 -0.156657 -0.154815 -0.068808 -0.007390 0.032760 -0.124471 0.121135 -0.114052 -0.038881 -0.070815 -0.010575 -0.047401 -0.011610 -0.011065 -0.026927 -0.029478 -0.037828 0.071275 0.291292 -0.237449 -0.138433 0.080532 0.006535 -0.212811 -0.073146 0.269719 0.230860 0.188834 0.195988 -0.099916 0.122451 -0.536483 0.210670 0.075604 0.009751 -0.371325 0.081680 0.074814 -0.128636 0.057018 0.170286 0.114921 0.016106 -0.203140 -0.194157 -0.098358 0.095296 0.185989 0.083001 -0.283016 0.031244 0.145310 0.214739 -0.394413 -0.092481 0.131961 0.172341 0.070571 0.058463 -0.070780 0.363969 0.235287 0.387921 0.065279 0.080529 0.048119 0.156392 0.084700 0.097299 0.339522 -0.276945 0.331803 -0.199710 0.243555 0.014495 -0.228535 0.018688 0.154337 -0.123361 0.142311 -0.145472 0.285196 0.004164 -0.395955 -0.179895 -0.304000 -0.367833 -0.376720 0.201952 -0.406273 -0.167239 0.390954 -0.071576 -0.119525 0.328185 -0.050442 0.134464 0.430793 -0.090905 -0.259889 -0.310525 -0.097818 0.407212 -0.602945 -0.343606 -0.165268 -0.212828 0.501490 0.383961 -0.432517 0.580463 -0.281987 -0.194132 -0.154071 -0.039864 -0.084943 0.274619 0.427274 0.194923 -0.133575 -0.133801 -0.110858 0.363818 -0.070507 -0.132478 -0.295823 -0.095483 -0.033373 0.217043 -0.042163 -0.104574 0.051333 -0.160276 -0.151364 0.047345 0.149961 0.006348 -0.073112 -0.063720 0.024405 -0.065102 0.114472 0.000168 -0.088097 0.087524 
moderatepolitics 0.040490 -0.074769 0.047818 -0.025763 0.103497 -0.001530 0.017120 0.000277 0.005566 -0.157709 -0.135691 0.171830 0.014788 0.292814 -0.164144 0.003497 -0.069478 0.134322 0.014857 0.261317 0.232259 0.062296 0.149456 -0.120820 0.009184 0.021675 -0.063702 -0.017736 -0.145589 -0.236492 -0.241380 0.101981 0.057213 -0.006091 0.400577 0.210977 -0.075426 -0.123319 -0.070355 -0.148777 0.104497 -0.029880 0.328945 0.160772 -0.240755 -0.007431 0.091270 -0.223464 -0.093642 -0.116636 0.195699 0.048673 -0.098812 0.168615 0.024418 -0.255066 -0.112640 -0.095321 -0.031731 0.029153 -0.108813 0.077556 -0.094766 -0.047449 -0.084449 -0.006306 -0.023745 -0.029050 0.055040 -0.123111 0.038939 -0.017872 0.003369 0.054491 -0.036603 -0.044000 0.010161 -0.012119 -0.034156 -0.006664 0.067981 0.080294 0.051253 0.037729 -0.055201 0.052648 -0.152615 0.064479 0.103621 0.007418 -0.264262 0.078734 0.036300 -0.112129 0.038468 0.148882 0.100396 0.090596 -0.116587 -0.158053 -0.026969 0.035327 0.092396 0.071620 -0.115516 0.018024 0.027630 0.126382 -0.202612 -0.036029 0.006061 0.034684 0.074457 0.080662 -0.043130 0.177538 0.128242 0.203389 0.018632 0.004268 0.003509 0.069833 0.031348 0.007164 0.162081 -0.113185 0.150491 -0.063682 0.103617 -0.025275 -0.070144 0.026317 0.029163 -0.037946 0.068583 -0.092407 0.156505 -0.030311 -0.228538 -0.122615 -0.189178 -0.198867 -0.207142 0.099658 -0.225514 -0.096282 0.230240 -0.024029 -0.051198 0.131491 -0.071146 0.095132 0.196798 -0.076801 -0.183148 -0.232704 -0.002596 0.265736 -0.366055 -0.236079 -0.091536 -0.115340 0.252708 0.225056 -0.235894 0.338570 -0.198837 -0.117151 -0.076010 -0.044182 -0.015182 0.121102 0.245615 0.131895 -0.023406 -0.053191 -0.054204 0.198855 -0.055380 -0.082209 -0.110711 -0.073003 0.016760 0.148415 -0.070806 -0.129870 0.078600 -0.184020 -0.103185 0.069988 0.158660 0.011520 -0.165612 -0.012863 0.114578 -0.151495 0.132200 -0.035931 -0.218191 0.127690 
ElizabethWarren 0.018137 -0.132683 -0.013108 -0.090495 0.325014 0.027586 0.258310 0.046948 0.087701 -0.169376 -0.221663 0.133447 0.019359 0.357550 -0.179994 -0.019747 -0.109711 0.163545 0.029156 0.325667 0.273048 0.047747 0.180767 -0.133167 0.019461 0.056816 -0.121572 0.016337 -0.076892 -0.158393 -0.103792 0.094070 -0.019545 -0.042248 0.294993 0.165206 -0.112885 -0.148939 0.005997 -0.065231 0.023543 -0.015457 0.295909 0.185865 -0.237756 0.021209 0.126895 -0.261086 -0.018025 -0.072319 0.135135 -0.080564 -0.111759 0.157709 -0.022860 -0.184777 -0.288019 -0.133165 -0.019534 0.065007 -0.239078 0.230291 -0.216047 -0.079577 -0.171058 -0.039618 -0.102940 -0.019229 -0.020142 -0.093783 -0.046401 -0.095393 0.101016 0.303855 -0.266044 -0.117493 0.095857 0.033744 -0.234881 -0.094343 0.274668 0.187014 0.182985 0.227674 -0.047592 0.093364 -0.506696 0.190940 -0.028749 0.001598 -0.188533 0.017110 0.058132 -0.028381 0.040515 0.051320 0.019828 -0.094618 -0.110570 -0.050004 -0.088401 0.079838 0.126220 0.010514 -0.187526 0.016004 0.140858 0.088522 -0.198505 -0.069579 0.152302 0.158562 -0.013327 -0.036036 -0.030375 0.227835 0.129725 0.229207 0.055472 0.099898 0.076211 0.215418 0.121558 0.147596 0.464715 -0.389412 0.465932 -0.289080 0.305484 0.036494 -0.304125 0.008959 0.217460 -0.162410 0.174627 -0.157619 0.093092 0.056403 -0.098812 -0.015028 -0.058847 -0.127102 -0.117981 0.087450 -0.184131 -0.066136 0.160023 -0.058148 -0.076622 0.228085 0.049079 0.031550 0.465866 -0.059577 -0.226897 -0.258405 -0.140786 0.364935 -0.567433 -0.301830 -0.165237 -0.217661 0.526861 0.375453 -0.438596 0.566533 -0.248141 -0.195806 -0.162450 -0.022603 -0.115387 0.304145 0.423119 0.176416 -0.179222 -0.159401 -0.107167 0.353466 -0.047931 -0.117328 -0.333320 -0.068855 -0.062371 0.184927 -0.086866 -0.194701 0.084009 -0.291993 -0.278977 0.092322 0.284440 0.007511 -0.184710 -0.119768 0.068434 -0.159455 0.268254 -0.020408 -0.251141 0.198609 
progressive 0.016427 -0.146193 0.050763 -0.066308 0.358628 0.006329 0.196762 0.041402 0.039097 -0.317948 -0.290977 0.320198 0.039977 0.598783 -0.329959 -0.005894 -0.145822 0.257895 0.031236 0.535797 0.462611 0.100222 0.286941 -0.229710 0.019506 0.053443 -0.127134 -0.012003 -0.187525 -0.322027 -0.286172 0.151724 0.049426 -0.026517 0.568770 0.305355 -0.137873 -0.198276 -0.063192 -0.183417 0.081079 -0.030455 0.349699 0.187773 -0.268184 0.005882 0.121038 -0.264818 -0.081693 -0.125884 0.203836 0.002351 -0.126500 0.196465 0.006081 -0.274589 -0.108485 -0.046260 0.000271 0.021468 -0.086222 0.085123 -0.080781 -0.027097 -0.025894 -0.001123 -0.019257 -0.005702 -0.013871 0.007028 -0.021691 -0.008138 0.061311 0.301896 -0.239923 -0.161674 0.077858 -0.011065 -0.217136 -0.072583 0.266967 0.249508 0.190022 0.186613 -0.129819 0.139263 -0.544201 0.223890 0.099606 0.010721 -0.389396 0.097790 0.064732 -0.143243 0.058990 0.192127 0.119025 0.047363 -0.196368 -0.209654 -0.078335 0.086060 0.177670 0.093393 -0.225684 0.017102 0.109929 0.177195 -0.308775 -0.072177 0.093827 0.125967 0.064884 0.055464 -0.065980 0.297358 0.206515 0.334753 0.050579 0.063340 0.045900 0.182452 0.095512 0.088725 0.408300 -0.318148 0.394618 -0.220414 0.266556 0.003348 -0.241083 0.031476 0.148844 -0.124339 0.165006 -0.176427 0.303000 -0.015481 -0.430135 -0.203353 -0.342330 -0.389193 -0.407406 0.213843 -0.445411 -0.185928 0.438947 -0.071096 -0.125995 0.322266 -0.081283 0.154389 0.415884 -0.106771 -0.286032 -0.347921 -0.073751 0.439354 -0.638037 -0.376745 -0.159616 -0.200910 0.473867 0.367656 -0.409102 0.562283 -0.288831 -0.188221 -0.109049 -0.029258 -0.067224 0.196984 0.309896 0.144271 -0.093546 -0.093548 -0.072407 0.231811 -0.040262 -0.085649 -0.189692 -0.057457 -0.023078 0.135994 -0.027573 -0.079709 0.046860 -0.123309 -0.108776 0.033438 0.107082 0.003634 -0.088966 -0.052359 0.046707 -0.079812 0.116225 -0.000854 -0.130379 0.110258 
JoeBiden -0.008544 -0.108929 -0.015487 -0.081743 0.236360 0.028566 0.183818 0.020746 0.085388 -0.077125 -0.136403 0.035891 0.004523 0.176608 -0.077541 -0.018079 -0.053501 0.061200 0.015961 0.108326 0.087186 0.010857 0.062230 -0.036883 0.004143 0.033659 -0.081224 0.017629 0.004578 -0.018469 0.028867 0.030652 -0.052062 -0.028795 0.049114 0.038481 -0.064379 -0.067079 0.030255 0.015667 -0.003621 -0.001041 0.173213 0.120317 -0.159028 0.011990 0.080107 -0.174193 0.014483 -0.030787 0.067578 -0.086496 -0.077100 0.093059 -0.022099 -0.091809 -0.265309 -0.121648 -0.027227 0.064147 -0.227579 0.210003 -0.206452 -0.073628 -0.162655 -0.037378 -0.093147 -0.021274 -0.013680 -0.098119 -0.036620 -0.086888 0.098523 0.351674 -0.291688 -0.164201 0.102740 0.026638 -0.274034 -0.093329 0.295273 0.220383 0.195060 0.230187 -0.075288 0.114396 -0.561825 0.211156 0.016572 0.005316 -0.269796 0.043597 0.073562 -0.068110 0.050877 0.096632 0.066163 -0.053048 -0.154876 -0.116675 -0.102913 0.098592 0.158914 0.040981 -0.225461 0.024761 0.142190 0.135000 -0.275037 -0.084579 0.143943 0.173242 0.019376 0.005578 -0.040210 0.296330 0.165833 0.297216 0.061260 0.091535 0.067603 0.196927 0.102719 0.128854 0.425841 -0.346546 0.415132 -0.260358 0.289986 0.029304 -0.279278 0.018103 0.191176 -0.145233 0.172488 -0.155453 0.181887 0.040113 -0.232114 -0.090422 -0.166440 -0.234566 -0.244002 0.136780 -0.320214 -0.128678 0.300147 -0.073199 -0.105036 0.299558 -0.002154 0.092466 0.449801 -0.066804 -0.231356 -0.266052 -0.122189 0.359748 -0.568965 -0.303663 -0.164814 -0.216550 0.520315 0.381745 -0.432117 0.568829 -0.257311 -0.190564 -0.177819 -0.028818 -0.120662 0.330973 0.471366 0.202704 -0.189177 -0.179661 -0.135784 0.446640 -0.072104 -0.151350 -0.390183 -0.096729 -0.057901 0.239477 -0.166044 -0.343021 0.157858 -0.500496 -0.418350 0.170168 0.476263 0.015263 -0.362276 -0.147793 0.164643 -0.303206 0.424342 -0.054364 -0.452629 0.302934 
Kamala -0.056745 -0.148849 -0.035884 -0.088151 0.174185 0.044835 0.113169 0.007248 0.131780 -0.203729 -0.286810 0.153375 0.023249 0.439206 -0.217207 -0.028137 -0.120424 0.166891 0.034586 0.328101 0.271303 0.042451 0.181087 -0.123704 0.015054 0.066783 -0.136502 0.018932 -0.047723 -0.115684 -0.041158 0.080512 -0.049163 -0.049241 0.230390 0.135994 -0.116694 -0.142251 0.030178 -0.030275 -0.027315 0.001690 0.184872 0.144064 -0.176279 0.023275 0.104785 -0.209831 0.043380 -0.017228 0.040560 -0.137944 -0.088627 0.090531 -0.047673 -0.068444 -0.252571 -0.080489 0.000868 0.053829 -0.201026 0.208799 -0.185115 -0.058331 -0.155211 -0.043107 -0.103531 -0.008421 -0.054979 -0.042887 -0.074805 -0.094281 0.140070 0.499719 -0.420282 -0.229007 0.145066 0.028044 -0.380541 -0.139248 0.433788 0.334431 0.294243 0.339487 -0.126532 0.178063 -0.832044 0.323310 0.069250 0.009274 -0.518057 0.102496 0.115720 -0.151375 0.092804 0.218434 0.139241 -0.029752 -0.281239 -0.249934 -0.156375 0.153299 0.280341 0.097933 -0.237573 0.017428 0.180017 0.106401 -0.238040 -0.089582 0.192594 0.202288 -0.017493 -0.046311 -0.039199 0.298274 0.169009 0.302028 0.070876 0.132245 0.089514 0.246603 0.133701 0.177539 0.532642 -0.447076 0.531678 -0.341006 0.355503 0.053685 -0.363433 0.010379 0.255192 -0.188040 0.205209 -0.176830 0.299461 0.044356 -0.392484 -0.157531 -0.294073 -0.390246 -0.399468 0.227179 -0.502147 -0.202889 0.477933 -0.108307 -0.164381 0.449351 -0.019537 0.147666 0.653673 -0.099606 -0.347020 -0.401059 -0.178654 0.546124 -0.842374 -0.457015 -0.236013 -0.305977 0.742054 0.536279 -0.615883 0.812024 -0.371371 -0.277537 -0.196698 -0.024150 -0.150520 0.374673 0.514463 0.215465 -0.223932 -0.198845 -0.142625 0.468320 -0.062758 -0.156839 -0.434532 -0.090238 -0.077926 0.242001 -0.114284 -0.266416 0.115672 -0.402053 -0.380707 0.121647 0.387686 0.006413 -0.260192 -0.163984 0.094633 -0.215401 0.361685 -0.019954 -0.326569 0.248137 
SocialDemocracy 0.071112 -0.173404 0.031999 -0.079399 0.299856 0.008976 0.187545 0.021040 0.049728 -0.173178 -0.195437 0.166620 0.019149 0.347343 -0.183029 -0.010349 -0.093551 0.159064 0.024816 0.304093 0.265900 0.059793 0.172998 -0.134508 0.007409 0.031040 -0.071132 0.003342 -0.061787 -0.119017 -0.096129 0.063451 0.002966 -0.025653 0.221260 0.122495 -0.071095 -0.100551 -0.006897 -0.063167 0.053895 -0.017739 0.290976 0.161677 -0.224186 0.005393 0.101110 -0.231430 -0.049103 -0.084448 0.161512 -0.020680 -0.101162 0.160501 -0.004691 -0.210592 -0.338168 -0.220143 -0.058435 0.089262 -0.302989 0.258926 -0.266263 -0.119884 -0.214451 -0.037495 -0.095010 -0.042587 0.051075 -0.214382 0.021159 -0.086561 0.074154 0.287616 -0.239911 -0.147118 0.088050 0.008169 -0.205680 -0.070850 0.249144 0.211875 0.177449 0.191049 -0.093846 0.120828 -0.495528 0.193103 0.039645 -0.001186 -0.232580 0.054138 0.056135 -0.065006 0.043841 0.098356 0.061046 -0.006941 -0.116583 -0.106808 -0.069599 0.058621 0.114172 0.037198 -0.184542 0.025121 0.103599 0.129414 -0.236495 -0.059579 0.088599 0.112626 0.040996 0.026862 -0.039889 0.231915 0.146185 0.236776 0.046032 0.058104 0.046196 0.139404 0.080382 0.075964 0.298096 -0.238273 0.300195 -0.169600 0.189206 0.006031 -0.177151 0.008920 0.118011 -0.094435 0.105414 -0.104422 0.140378 0.012557 -0.175765 -0.080575 -0.134851 -0.182281 -0.178692 0.100527 -0.206966 -0.079729 0.199713 -0.041691 -0.067277 0.188873 -0.013006 0.070116 0.308907 -0.060607 -0.180543 -0.224634 -0.071442 0.283539 -0.422445 -0.241130 -0.127548 -0.169812 0.380145 0.295746 -0.333255 0.441524 -0.214163 -0.159200 -0.105489 -0.024710 -0.059094 0.185560 0.277790 0.119872 -0.108155 -0.101491 -0.069310 0.250347 -0.036422 -0.075274 -0.215191 -0.055022 -0.023794 0.148748 -0.099409 -0.195341 0.083071 -0.277743 -0.230850 0.095466 0.262631 0.008677 -0.201632 -0.080260 0.099602 -0.173295 0.225330 -0.034063 -0.260667 0.169428 
demsocialist 0.077528 -0.140535 0.076528 -0.068082 0.438639 -0.006154 0.261848 0.059326 0.015180 -0.247329 -0.219438 0.257691 0.030442 0.465087 -0.256514 -0.001312 -0.108898 0.202889 0.025507 0.408088 0.357304 0.083739 0.223249 -0.183855 0.013193 0.027152 -0.078528 -0.012364 -0.139105 -0.234979 -0.222315 0.106312 0.045463 -0.015073 0.397758 0.212917 -0.087267 -0.132512 -0.051896 -0.135327 0.093202 -0.032220 0.350562 0.174373 -0.257117 0.001097 0.110261 -0.245640 -0.093760 -0.123796 0.213751 0.030190 -0.112166 0.190115 0.018611 -0.279195 -0.222890 -0.158060 -0.040390 0.056997 -0.199727 0.164811 -0.179354 -0.080532 -0.115817 -0.011110 -0.041707 -0.034676 0.048744 -0.131824 0.027076 -0.032305 0.046025 0.235776 -0.185476 -0.134621 0.062354 -0.014515 -0.161396 -0.049491 0.200878 0.194780 0.145079 0.135397 -0.107864 0.114382 -0.419720 0.169086 0.111609 0.008675 -0.358812 0.095868 0.058805 -0.137875 0.051905 0.186049 0.131539 0.077799 -0.180917 -0.211911 -0.066587 0.067732 0.156373 0.091195 -0.229814 0.028062 0.090008 0.209737 -0.350665 -0.070049 0.059863 0.105686 0.093673 0.094909 -0.066641 0.297434 0.208452 0.331831 0.040071 0.035753 0.033269 0.164901 0.083350 0.057374 0.360050 -0.275699 0.346815 -0.176343 0.231472 -0.023920 -0.188595 0.034098 0.105477 -0.102843 0.143191 -0.169845 0.205840 -0.015556 -0.292062 -0.143252 -0.236080 -0.264771 -0.273034 0.138681 -0.290777 -0.120975 0.288952 -0.039971 -0.076781 0.206124 -0.063003 0.109006 0.241729 -0.067393 -0.171070 -0.217767 -0.036083 0.263273 -0.375938 -0.229186 -0.111880 -0.140091 0.313657 0.259297 -0.284929 0.392246 -0.208427 -0.137346 -0.104301 -0.039759 -0.043386 0.178854 0.302895 0.146243 -0.076653 -0.085793 -0.071896 0.255886 -0.054477 -0.092234 -0.185863 -0.078103 -0.002905 0.169047 -0.096808 -0.193052 0.095280 -0.271049 -0.195364 0.094114 0.245563 0.012095 -0.216644 -0.054428 0.126539 -0.191652 0.208474 -0.040194 -0.281944 0.182430 
BetoORourke 0.146885 -0.197298 0.087339 -0.087636 0.475370 -0.007544 0.280007 0.066253 0.022522 -0.293643 -0.263294 0.307559 0.031269 0.544264 -0.298546 0.000207 -0.134684 0.247916 0.031384 0.484213 0.423035 0.106222 0.274698 -0.221547 0.011197 0.037440 -0.102805 -0.009276 -0.175298 -0.292919 -0.284721 0.133491 0.059210 -0.020902 0.507054 0.271418 -0.118882 -0.177455 -0.070200 -0.180359 0.121994 -0.037881 0.449861 0.232135 -0.333481 -0.001901 0.135180 -0.316636 -0.124990 -0.159121 0.275224 0.037127 -0.143732 0.250386 0.019508 -0.362489 -0.422843 -0.304021 -0.092869 0.106677 -0.388091 0.310617 -0.348593 -0.157118 -0.244752 -0.036539 -0.095198 -0.063715 0.105815 -0.302242 0.069134 -0.088756 0.064566 0.313356 -0.247083 -0.184252 0.083812 -0.010221 -0.214019 -0.067186 0.251889 0.249893 0.191931 0.175481 -0.135442 0.143682 -0.535907 0.218061 0.128727 0.007509 -0.402301 0.112406 0.074136 -0.147707 0.062169 0.202524 0.143025 0.085495 -0.197519 -0.234146 -0.081361 0.077321 0.170906 0.093859 -0.279200 0.038503 0.106415 0.244922 -0.426891 -0.088285 0.074893 0.131387 0.113005 0.111637 -0.075731 0.361196 0.243103 0.387990 0.054244 0.044975 0.041700 0.178311 0.097740 0.067008 0.403676 -0.306675 0.391168 -0.196948 0.248065 -0.019550 -0.202239 0.036697 0.125224 -0.110912 0.161738 -0.178578 0.200714 -0.011175 -0.277022 -0.144720 -0.217755 -0.251552 -0.264303 0.132778 -0.285603 -0.117898 0.286706 -0.046581 -0.083275 0.209997 -0.060577 0.110508 0.249134 -0.066690 -0.182801 -0.225501 -0.034384 0.268501 -0.389577 -0.236816 -0.116047 -0.152359 0.339819 0.283889 -0.307428 0.418652 -0.223205 -0.145611 -0.131030 -0.044597 -0.048512 0.212740 0.372630 0.180746 -0.086616 -0.106226 -0.080727 0.291845 -0.063882 -0.109987 -0.206151 -0.087220 -0.007050 0.192819 -0.095992 -0.182011 0.091604 -0.256899 -0.189806 0.096550 0.236843 0.011899 -0.218290 -0.053559 0.122399 -0.191622 0.213578 -0.045652 -0.293552 0.181005 
ConservativeDemocrat 0.083449 -0.104751 0.068264 -0.048164 0.333574 -0.008173 0.204339 0.056641 0.003444 -0.195888 -0.161458 0.210612 0.020403 0.361081 -0.203245 0.000657 -0.083537 0.159899 0.017529 0.327998 0.284777 0.073820 0.179450 -0.150580 0.011500 0.020777 -0.066953 -0.014186 -0.133669 -0.216541 -0.211063 0.098724 0.046793 -0.007652 0.365711 0.195252 -0.074701 -0.114135 -0.057051 -0.132957 0.082373 -0.022327 0.279345 0.136118 -0.205390 -0.001638 0.084178 -0.192679 -0.077240 -0.099914 0.169510 0.028971 -0.085955 0.149601 0.016616 -0.222939 -0.258514 -0.190809 -0.056216 0.065454 -0.239469 0.187492 -0.212801 -0.097295 -0.137860 -0.013534 -0.047491 -0.038949 0.070610 -0.174906 0.044346 -0.038073 0.036541 0.197623 -0.154595 -0.120709 0.049531 -0.012698 -0.137784 -0.038515 0.158249 0.158675 0.118879 0.102477 -0.092735 0.095529 -0.335803 0.135454 0.106403 0.005838 -0.304049 0.084823 0.049413 -0.123224 0.045525 0.160956 0.112030 0.076960 -0.144919 -0.182627 -0.054094 0.055300 0.123940 0.079879 -0.187364 0.024625 0.062791 0.174025 -0.293485 -0.055285 0.037687 0.081934 0.085961 0.088901 -0.052422 0.244635 0.167367 0.273775 0.030523 0.021597 0.025391 0.138563 0.068074 0.041282 0.310345 -0.230570 0.293363 -0.144611 0.193470 -0.025230 -0.150935 0.034754 0.079805 -0.078687 0.125527 -0.150936 0.175468 -0.018601 -0.250793 -0.129284 -0.203362 -0.221132 -0.235104 0.115296 -0.248551 -0.105851 0.251334 -0.036570 -0.068469 0.168570 -0.062379 0.100058 0.193685 -0.060410 -0.153635 -0.188310 -0.018772 0.224814 -0.320600 -0.199496 -0.097470 -0.118494 0.269193 0.227207 -0.243100 0.345280 -0.188264 -0.115957 -0.114985 -0.048122 -0.037073 0.182880 0.338722 0.166903 -0.064903 -0.088966 -0.078705 0.285412 -0.067248 -0.113544 -0.192802 -0.094017 0.004894 0.194243 -0.086267 -0.164827 0.087739 -0.233111 -0.161948 0.084952 0.209062 0.012827 -0.191146 -0.035716 0.111902 -0.165194 0.179494 -0.039500 -0.244791 0.153026 
