15 200
BaemyKlobaechar 0.040552 -0.052554 0.177623 0.090466 0.402842 -0.032638 0.222846 0.094650 -0.104537 -0.310173 -0.034057 0.295897 0.023488 0.400214 -0.232762 0.101985 -0.101327 0.192503 -0.085484 0.352698 0.353423 0.103321 0.168333 -0.119704 -0.023369 -0.047869 0.005190 -0.067358 -0.128954 -0.253722 -0.257480 0.083029 0.053260 0.125958 0.384238 0.153258 -0.022827 -0.056468 -0.170973 -0.085962 0.195595 -0.076927 0.316437 0.119348 -0.246570 -0.094105 -0.013255 -0.125881 -0.134163 -0.179502 0.252483 0.158345 -0.102489 0.109995 0.188113 -0.258937 -0.265849 -0.245635 -0.155327 0.027448 -0.292942 0.190742 -0.299135 -0.060712 -0.092822 0.035240 -0.003770 -0.150378 0.229733 -0.257310 0.121878 0.092579 -0.120882 0.150865 0.023769 -0.209024 -0.000454 -0.064776 -0.158624 0.045658 0.123533 0.281469 0.056776 -0.018280 -0.130385 0.091993 -0.326344 0.126128 0.196634 0.094979 -0.373963 0.106317 -0.002721 -0.267054 -0.008238 0.239248 0.193215 0.184817 -0.197208 -0.241470 0.060625 0.038622 0.108719 0.181380 -0.056532 -0.015242 -0.125240 0.298192 -0.388946 -0.104389 -0.111090 -0.060365 0.133555 0.190108 -0.045168 0.193015 0.199823 0.351131 -0.025712 -0.128281 -0.073545 0.119969 -0.026690 -0.087341 0.378978 -0.181546 0.281086 -0.119275 0.176953 -0.084272 -0.066768 0.166928 -0.057995 -0.073374 0.167777 -0.218533 0.149169 -0.165195 -0.338662 -0.182470 -0.264620 -0.262764 -0.258977 0.053106 -0.272703 -0.105455 0.258605 0.043632 0.071394 0.008599 -0.153911 0.041539 0.014985 -0.125152 -0.137779 -0.211088 0.098841 0.245768 -0.278774 -0.162627 0.004196 -0.114156 0.173461 0.247453 -0.142940 0.274249 -0.227815 -0.003545 -0.010796 -0.105326 0.033206 0.163687 0.284126 0.227976 0.152685 0.007094 -0.125606 0.293246 -0.171246 -0.177778 -0.016626 -0.198216 0.064353 0.215338 -0.042006 -0.084491 0.231982 -0.246418 0.055556 0.092031 0.115204 0.054519 -0.223157 0.071946 0.271346 -0.252166 0.079364 -0.071109 -0.262893 0.146024 
politics 0.040356 -0.051686 0.206855 0.112896 0.486526 -0.053332 0.252865 0.116809 -0.134091 -0.374385 -0.025147 0.381053 0.021323 0.467105 -0.284001 0.131829 -0.115946 0.235097 -0.093963 0.429835 0.439915 0.138332 0.207115 -0.148899 -0.035050 -0.065437 0.014095 -0.093226 -0.179464 -0.324578 -0.354552 0.106443 0.081173 0.161784 0.489567 0.191593 -0.019760 -0.057700 -0.234656 -0.129713 0.240356 -0.077399 0.358331 0.135661 -0.283369 -0.114981 -0.030263 -0.137962 -0.168338 -0.214436 0.298584 0.208280 -0.125459 0.130768 0.220366 -0.312527 -0.313981 -0.301906 -0.198661 0.039204 -0.352251 0.212650 -0.349844 -0.086462 -0.091251 0.042008 0.003682 -0.162831 0.270700 -0.320534 0.156278 0.110154 -0.133666 0.175986 0.020282 -0.247742 -0.004038 -0.077471 -0.169124 0.053287 0.125889 0.313804 0.063060 -0.021750 -0.159525 0.120366 -0.357734 0.140381 0.230709 0.089533 -0.386617 0.127575 -0.011845 -0.274434 -0.008388 0.258848 0.207575 0.229809 -0.209802 -0.278183 0.064685 0.038265 0.109333 0.189899 -0.065945 -0.007893 -0.145751 0.337691 -0.443938 -0.116959 -0.144673 -0.071478 0.155188 0.228030 -0.051687 0.222108 0.214383 0.374784 -0.022719 -0.142102 -0.083833 0.138972 -0.024375 -0.113373 0.438773 -0.201418 0.322639 -0.115353 0.196447 -0.106618 -0.057347 0.185418 -0.071611 -0.068423 0.192017 -0.255330 0.169075 -0.191973 -0.379934 -0.219631 -0.300443 -0.293545 -0.296535 0.068643 -0.299295 -0.116845 0.295414 0.046946 0.071996 -0.003974 -0.181215 0.058228 -0.002606 -0.134869 -0.171852 -0.248725 0.124822 0.268480 -0.307726 -0.191337 -0.001753 -0.125919 0.190069 0.279114 -0.163619 0.311747 -0.270534 -0.025757 -0.018706 -0.119832 0.044645 0.164342 0.330139 0.264746 0.166739 -0.001296 -0.124826 0.317474 -0.188269 -0.186948 0.002605 -0.208727 0.083794 0.246492 -0.041690 -0.084254 0.230533 -0.232964 0.062223 0.109266 0.121758 0.058623 -0.239563 0.075892 0.276667 -0.255138 0.078625 -0.067618 -0.283474 0.146901 
YangForPresidentHQ 0.031178 -0.019515 0.168618 0.101220 0.387785 -0.042660 0.193019 0.084394 -0.102344 -0.269424 -0.010239 0.274477 0.014978 0.326136 -0.198180 0.093612 -0.082829 0.166757 -0.068962 0.304357 0.315093 0.099713 0.153576 -0.108046 -0.025650 -0.046184 0.017472 -0.061291 -0.121352 -0.218987 -0.245565 0.074038 0.061393 0.107994 0.320396 0.125576 -0.009734 -0.036990 -0.163113 -0.093081 0.167830 -0.053983 0.250669 0.091209 -0.191837 -0.078866 -0.025677 -0.089727 -0.122643 -0.150845 0.213574 0.154130 -0.083156 0.095194 0.158339 -0.218433 -0.201077 -0.204438 -0.139174 0.023025 -0.229884 0.137386 -0.229554 -0.056465 -0.054485 0.021743 0.003695 -0.105359 0.184362 -0.215179 0.106600 0.073496 -0.108685 0.136262 0.024565 -0.204757 -0.003321 -0.059745 -0.132468 0.044875 0.092193 0.256719 0.053258 -0.026434 -0.130003 0.096919 -0.282888 0.115089 0.186982 0.070557 -0.301447 0.099180 -0.007709 -0.218725 -0.005314 0.202642 0.172195 0.196587 -0.165197 -0.223543 0.054584 0.025571 0.086362 0.158546 -0.049497 -0.003745 -0.123730 0.269072 -0.356423 -0.094678 -0.122675 -0.059210 0.132267 0.195898 -0.040225 0.180667 0.172977 0.300325 -0.016579 -0.120665 -0.070703 0.111817 -0.015233 -0.099345 0.366251 -0.166109 0.267988 -0.085719 0.159465 -0.093700 -0.044274 0.156902 -0.066448 -0.051858 0.164257 -0.215959 0.141187 -0.161139 -0.323208 -0.190134 -0.251890 -0.242001 -0.249637 0.046871 -0.242424 -0.093891 0.243728 0.037439 0.061622 -0.008019 -0.159174 0.051537 -0.012108 -0.120598 -0.144170 -0.207867 0.114629 0.222706 -0.249171 -0.162074 0.000620 -0.104500 0.148196 0.234833 -0.142912 0.262293 -0.227957 -0.018293 -0.015065 -0.101808 0.041567 0.132834 0.275253 0.221345 0.149212 0.000133 -0.104738 0.266580 -0.159342 -0.161673 0.005876 -0.178890 0.076359 0.207345 -0.042192 -0.069978 0.192257 -0.192478 0.058300 0.093575 0.098839 0.051470 -0.205557 0.074671 0.232513 -0.220162 0.060497 -0.062714 -0.241407 0.118812 
SandersForPresident 0.020301 -0.022337 0.194329 0.109920 0.346260 -0.056373 0.186776 0.092884 -0.144105 -0.336650 0.005291 0.313389 0.032375 0.397360 -0.238449 0.120987 -0.099722 0.209092 -0.094215 0.365664 0.362818 0.125875 0.171168 -0.124521 -0.043821 -0.075799 0.033289 -0.101021 -0.176722 -0.314511 -0.350125 0.093065 0.074526 0.196262 0.466668 0.180205 -0.003529 -0.050626 -0.243197 -0.121510 0.250611 -0.092196 0.351992 0.113252 -0.280990 -0.128996 -0.043392 -0.100451 -0.182192 -0.216388 0.310431 0.213844 -0.100645 0.135823 0.254848 -0.307477 -0.281018 -0.300374 -0.201705 0.016784 -0.333342 0.189089 -0.346178 -0.067481 -0.074612 0.033613 0.025176 -0.169584 0.288532 -0.307883 0.177463 0.127091 -0.213956 0.179633 0.077309 -0.313719 -0.021960 -0.116880 -0.208104 0.096014 0.138594 0.420278 0.071178 -0.071197 -0.212130 0.135524 -0.442663 0.172703 0.239964 0.108481 -0.368898 0.115182 -0.016990 -0.297058 -0.020340 0.256091 0.229684 0.233557 -0.187825 -0.275153 0.088485 0.016403 0.096446 0.213485 -0.032218 -0.021158 -0.188836 0.317945 -0.414124 -0.113787 -0.168136 -0.108766 0.180545 0.250561 -0.038249 0.203322 0.205518 0.369881 -0.048939 -0.172158 -0.102160 0.126302 -0.045871 -0.139767 0.411209 -0.177480 0.311905 -0.121596 0.189290 -0.129029 -0.035627 0.230382 -0.096966 -0.058559 0.206392 -0.251148 0.165543 -0.203173 -0.372976 -0.221300 -0.287150 -0.288651 -0.293316 0.035283 -0.286473 -0.117537 0.279003 0.055175 0.093582 -0.030752 -0.202695 0.041702 -0.032241 -0.138865 -0.156849 -0.246782 0.148147 0.252513 -0.280397 -0.170421 0.019490 -0.116479 0.153067 0.272424 -0.133034 0.281896 -0.250528 0.010332 -0.017723 -0.106046 0.061959 0.135229 0.289462 0.248262 0.194742 0.024532 -0.110514 0.296492 -0.190655 -0.194378 0.022426 -0.220177 0.080235 0.225341 -0.042658 -0.073467 0.253494 -0.261765 0.093125 0.081873 0.109379 0.053154 -0.242571 0.100954 0.291537 -0.288854 0.058694 -0.086408 -0.306238 0.156797 
centerleftpolitics 0.042524 -0.064120 0.191551 0.091983 0.422238 -0.035544 0.239039 0.100204 -0.109051 -0.341457 -0.040651 0.321323 0.028160 0.442514 -0.258383 0.111391 -0.111616 0.209732 -0.091905 0.388981 0.386057 0.111580 0.178176 -0.127664 -0.025033 -0.050888 0.000909 -0.074007 -0.139568 -0.272798 -0.274150 0.091714 0.052474 0.140185 0.421609 0.167999 -0.027022 -0.062035 -0.180718 -0.090562 0.212506 -0.082581 0.343415 0.128939 -0.271904 -0.103400 -0.013248 -0.138513 -0.143074 -0.194848 0.274287 0.164207 -0.111994 0.121767 0.207265 -0.279010 -0.293730 -0.268156 -0.168298 0.028628 -0.321959 0.210400 -0.328919 -0.066889 -0.103303 0.038586 -0.005750 -0.163682 0.247210 -0.280506 0.129477 0.104140 -0.128027 0.155594 0.025091 -0.211409 -0.000839 -0.070074 -0.165889 0.047211 0.129154 0.288215 0.054305 -0.016801 -0.133192 0.094054 -0.334765 0.128229 0.196881 0.097153 -0.385254 0.107587 -0.003308 -0.274612 -0.009399 0.245051 0.195818 0.179496 -0.203448 -0.247927 0.062140 0.040902 0.113572 0.189498 -0.059315 -0.020405 -0.130030 0.304780 -0.396007 -0.107368 -0.111146 -0.060754 0.136216 0.190016 -0.045611 0.199797 0.204609 0.363136 -0.028244 -0.127832 -0.074512 0.124793 -0.030985 -0.087047 0.385658 -0.183802 0.288300 -0.128783 0.180575 -0.084573 -0.070321 0.175150 -0.057036 -0.075309 0.169878 -0.217808 0.152178 -0.168276 -0.342262 -0.180644 -0.266482 -0.270661 -0.264584 0.055746 -0.281937 -0.110189 0.265946 0.043317 0.072025 0.012139 -0.155866 0.036601 0.021247 -0.124949 -0.139218 -0.213223 0.094390 0.250451 -0.287027 -0.162203 0.006278 -0.118625 0.182772 0.252977 -0.142859 0.278306 -0.229483 0.000358 -0.012921 -0.105058 0.032112 0.168684 0.290793 0.235418 0.153241 0.007028 -0.128159 0.304605 -0.175669 -0.182600 -0.021051 -0.205892 0.063162 0.221560 -0.039159 -0.086767 0.245776 -0.262977 0.053382 0.090548 0.120547 0.057180 -0.232079 0.070239 0.279257 -0.264710 0.083883 -0.071617 -0.271196 0.155789 
Pete_Buttigieg 0.059537 -0.110319 0.221243 0.086998 0.564038 -0.021035 0.317123 0.112017 -0.083634 -0.373114 -0.088173 0.353217 0.021158 0.507755 -0.296050 0.113084 -0.135488 0.226998 -0.095509 0.423633 0.425691 0.104349 0.193562 -0.136810 -0.006703 -0.028433 -0.027819 -0.045645 -0.104844 -0.242651 -0.209414 0.089274 0.033221 0.096248 0.391578 0.153370 -0.053784 -0.076312 -0.126110 -0.058230 0.186479 -0.078784 0.351138 0.159701 -0.273446 -0.082942 0.011474 -0.174406 -0.116261 -0.184661 0.255896 0.124227 -0.129058 0.109104 0.172260 -0.268874 -0.331887 -0.255936 -0.158129 0.043620 -0.344974 0.250999 -0.344436 -0.067931 -0.136433 0.051250 -0.040433 -0.174012 0.234346 -0.287285 0.100826 0.084213 -0.068324 0.152949 -0.018049 -0.142833 0.014873 -0.037728 -0.144154 0.010522 0.131885 0.209104 0.048199 0.026287 -0.078806 0.065782 -0.278813 0.104057 0.191972 0.104197 -0.460630 0.124357 0.003980 -0.297159 -0.009630 0.268409 0.195388 0.154574 -0.257459 -0.263055 0.044542 0.068264 0.146554 0.192103 -0.082664 -0.028941 -0.096262 0.329253 -0.435704 -0.116730 -0.070240 -0.025990 0.109346 0.156417 -0.058975 0.221078 0.235661 0.407464 -0.007906 -0.110842 -0.060729 0.136261 -0.023500 -0.056687 0.412123 -0.207824 0.301962 -0.155169 0.193032 -0.053603 -0.102855 0.150680 -0.020468 -0.103708 0.160343 -0.217405 0.155719 -0.159185 -0.351171 -0.169563 -0.273386 -0.284524 -0.267276 0.086391 -0.310704 -0.108897 0.279935 0.040303 0.061047 0.056943 -0.121751 0.030310 0.067765 -0.124415 -0.136802 -0.207528 0.058393 0.273842 -0.325357 -0.172920 -0.000119 -0.135406 0.228438 0.268451 -0.165667 0.299230 -0.230732 -0.004490 -0.012643 -0.111863 0.008280 0.225167 0.327733 0.250311 0.131163 -0.005569 -0.157599 0.342537 -0.187867 -0.191240 -0.056927 -0.216372 0.044908 0.238364 -0.040011 -0.104627 0.276388 -0.289873 0.029653 0.117266 0.145679 0.070559 -0.236895 0.049447 0.297370 -0.267666 0.108971 -0.065233 -0.270501 0.172310 
moderatepolitics 0.036430 -0.061383 0.192497 0.099100 0.415859 -0.039692 0.222828 0.097657 -0.119901 -0.343541 -0.027854 0.329420 0.027456 0.434425 -0.257608 0.116552 -0.109614 0.210646 -0.093214 0.388647 0.389056 0.115248 0.179321 -0.128600 -0.027908 -0.057657 0.011615 -0.080130 -0.148968 -0.284417 -0.294381 0.092953 0.062840 0.150420 0.432623 0.168869 -0.019714 -0.055602 -0.195660 -0.098675 0.222759 -0.083887 0.346150 0.126512 -0.270817 -0.107831 -0.021059 -0.128963 -0.154369 -0.201676 0.282827 0.182051 -0.111111 0.121727 0.217095 -0.288025 -0.291254 -0.275977 -0.176617 0.027088 -0.323469 0.205668 -0.330951 -0.068467 -0.093825 0.040039 0.001022 -0.164438 0.257975 -0.289284 0.140390 0.110905 -0.135450 0.153332 0.032734 -0.220125 -0.004957 -0.076188 -0.160977 0.052331 0.120330 0.296423 0.053594 -0.027805 -0.143189 0.099487 -0.331885 0.129700 0.201372 0.094878 -0.370266 0.108360 -0.009145 -0.269602 -0.012273 0.241625 0.197069 0.192870 -0.198718 -0.251238 0.066735 0.034920 0.107915 0.189348 -0.049873 -0.019666 -0.136633 0.295923 -0.382359 -0.102391 -0.121534 -0.069049 0.137673 0.195496 -0.044342 0.187962 0.197018 0.346317 -0.029735 -0.131764 -0.077672 0.119399 -0.031333 -0.096598 0.377087 -0.175269 0.279694 -0.115724 0.172461 -0.090871 -0.057837 0.175434 -0.064941 -0.068192 0.169281 -0.219901 0.149490 -0.174530 -0.343696 -0.187234 -0.269001 -0.266954 -0.264422 0.052680 -0.274687 -0.107268 0.263343 0.045728 0.073696 -0.000874 -0.163009 0.037993 0.004210 -0.126641 -0.142692 -0.217368 0.106519 0.247434 -0.278688 -0.164614 0.007103 -0.114803 0.170964 0.251758 -0.140655 0.276067 -0.234355 -0.001999 -0.012769 -0.104845 0.038190 0.156931 0.286615 0.233908 0.158453 0.010433 -0.119913 0.292785 -0.174467 -0.179309 -0.006762 -0.203011 0.068085 0.218976 -0.038610 -0.082341 0.243549 -0.251974 0.064237 0.092382 0.114302 0.057883 -0.232651 0.078730 0.278845 -0.263328 0.073063 -0.072756 -0.274411 0.152504 
ElizabethWarren 0.043214 -0.089001 0.170506 0.079346 0.429487 -0.017210 0.237992 0.087391 -0.071422 -0.296206 -0.063752 0.274091 0.019609 0.401914 -0.229060 0.090592 -0.104739 0.178948 -0.078504 0.335478 0.334202 0.083626 0.149062 -0.109713 -0.008627 -0.037523 -0.017935 -0.039929 -0.088793 -0.199047 -0.178758 0.076252 0.028094 0.091141 0.322690 0.128254 -0.041027 -0.058391 -0.115722 -0.049305 0.164176 -0.070299 0.296043 0.123744 -0.230813 -0.076923 0.003096 -0.137288 -0.103618 -0.156787 0.222053 0.112872 -0.097981 0.091333 0.162679 -0.225842 -0.272061 -0.218818 -0.134912 0.032245 -0.282348 0.202927 -0.289685 -0.053953 -0.108355 0.045976 -0.026537 -0.151609 0.203912 -0.237148 0.088308 0.081566 -0.083500 0.134567 0.003738 -0.139675 0.010316 -0.041172 -0.134126 0.023774 0.119590 0.207707 0.036975 0.006659 -0.081632 0.059575 -0.261933 0.094100 0.178057 0.098881 -0.403580 0.103723 0.006894 -0.276582 -0.013876 0.242568 0.183807 0.147609 -0.223768 -0.236690 0.048212 0.056987 0.120263 0.182940 -0.062721 -0.023997 -0.099358 0.289073 -0.377987 -0.097553 -0.072742 -0.031129 0.109435 0.150747 -0.047518 0.192710 0.200518 0.354481 -0.017098 -0.111043 -0.058783 0.122595 -0.027941 -0.058516 0.363035 -0.178507 0.261397 -0.131814 0.171045 -0.060277 -0.079155 0.147552 -0.036393 -0.089385 0.144855 -0.196942 0.142912 -0.149646 -0.326291 -0.155869 -0.249022 -0.261028 -0.243901 0.066042 -0.277410 -0.105723 0.248579 0.043030 0.066514 0.036781 -0.127131 0.027085 0.050409 -0.120186 -0.121646 -0.190274 0.061875 0.246929 -0.286216 -0.150525 0.004275 -0.119866 0.191146 0.243420 -0.140691 0.266849 -0.210203 0.006434 -0.006695 -0.103220 0.022824 0.189114 0.283828 0.225071 0.132885 0.004408 -0.142538 0.301973 -0.173833 -0.173605 -0.038416 -0.203809 0.048358 0.214146 -0.033696 -0.092583 0.248746 -0.265789 0.038665 0.096341 0.122231 0.063848 -0.214770 0.056437 0.276918 -0.254193 0.095378 -0.071208 -0.245176 0.151753 
progressive 0.040009 -0.065711 0.195876 0.087925 0.436555 -0.039162 0.247046 0.100464 -0.113413 -0.345129 -0.041256 0.327914 0.027699 0.442361 -0.263164 0.113299 -0.115637 0.214607 -0.092908 0.389589 0.389619 0.112386 0.181150 -0.128494 -0.025259 -0.047814 0.006753 -0.075463 -0.141208 -0.281566 -0.282252 0.089253 0.057833 0.144082 0.432471 0.168038 -0.025564 -0.063881 -0.179934 -0.092326 0.210953 -0.083014 0.342669 0.132587 -0.267371 -0.100869 -0.013199 -0.136047 -0.144967 -0.194541 0.276461 0.164755 -0.113052 0.123161 0.201187 -0.282117 -0.285344 -0.263145 -0.166788 0.029960 -0.317732 0.208759 -0.319328 -0.066311 -0.100930 0.036677 -0.007062 -0.157917 0.242814 -0.280769 0.131625 0.097903 -0.131710 0.157114 0.024888 -0.218891 -0.001248 -0.075425 -0.164191 0.048854 0.128248 0.300499 0.061118 -0.017603 -0.141059 0.100359 -0.344206 0.134733 0.199887 0.094820 -0.384194 0.114934 -0.007469 -0.270854 -0.010362 0.241997 0.199048 0.184575 -0.207426 -0.254147 0.062165 0.035754 0.116399 0.189195 -0.060298 -0.023594 -0.131119 0.308726 -0.403072 -0.109360 -0.113532 -0.066098 0.137872 0.190385 -0.047784 0.198821 0.212291 0.366480 -0.024132 -0.130188 -0.076417 0.125341 -0.028279 -0.095194 0.394200 -0.184589 0.299689 -0.131737 0.182709 -0.088273 -0.069924 0.179251 -0.054684 -0.076167 0.173640 -0.223245 0.157566 -0.177312 -0.348917 -0.191778 -0.274227 -0.279259 -0.272412 0.060099 -0.288937 -0.105854 0.273877 0.044859 0.072206 0.013795 -0.157562 0.037677 0.014748 -0.127441 -0.142728 -0.223760 0.101746 0.256037 -0.292951 -0.169778 0.007737 -0.124540 0.185986 0.261701 -0.148699 0.283603 -0.234584 -0.002721 -0.017826 -0.105720 0.031799 0.173136 0.300145 0.239574 0.152640 0.006262 -0.124724 0.307863 -0.176963 -0.181850 -0.018917 -0.206946 0.062454 0.226221 -0.044400 -0.086930 0.249789 -0.262430 0.055348 0.095183 0.122666 0.057658 -0.233573 0.069850 0.278528 -0.263433 0.077227 -0.070097 -0.279504 0.158675 
JoeBiden 0.037501 -0.059167 0.153674 0.070676 0.360186 -0.016657 0.199683 0.072475 -0.060902 -0.245503 -0.051547 0.227949 0.017039 0.335497 -0.189806 0.077251 -0.086293 0.150729 -0.065793 0.280735 0.280100 0.072363 0.125187 -0.091534 -0.008966 -0.032358 -0.013500 -0.034869 -0.072832 -0.161388 -0.149451 0.061419 0.022469 0.076283 0.263937 0.105406 -0.031272 -0.047591 -0.097218 -0.041262 0.131906 -0.055752 0.234790 0.096431 -0.184572 -0.064039 0.000565 -0.110793 -0.081626 -0.124660 0.178606 0.090613 -0.078410 0.074752 0.131923 -0.179990 -0.217000 -0.178101 -0.108927 0.025692 -0.225595 0.161349 -0.231006 -0.045398 -0.085391 0.036365 -0.018832 -0.121707 0.162848 -0.190106 0.071435 0.067914 -0.066813 0.103473 0.004277 -0.109525 0.009115 -0.032263 -0.103791 0.020750 0.094986 0.161470 0.027836 0.007352 -0.061645 0.047061 -0.205100 0.070981 0.138289 0.076354 -0.310693 0.080103 0.006293 -0.213370 -0.009660 0.188445 0.139854 0.111918 -0.168004 -0.178768 0.037264 0.042726 0.089576 0.137698 -0.049311 -0.015497 -0.076230 0.224525 -0.291260 -0.075849 -0.056709 -0.025259 0.085188 0.115175 -0.035386 0.149578 0.152608 0.271115 -0.014191 -0.084608 -0.045833 0.095951 -0.022392 -0.045655 0.280258 -0.137388 0.203371 -0.101231 0.133153 -0.048945 -0.060697 0.114525 -0.030415 -0.069624 0.109846 -0.150580 0.108040 -0.111845 -0.242017 -0.114896 -0.185103 -0.197777 -0.180643 0.048841 -0.207520 -0.079701 0.185884 0.032936 0.051453 0.028667 -0.095310 0.021247 0.040394 -0.089321 -0.091074 -0.144088 0.044075 0.186178 -0.214645 -0.111448 0.003857 -0.091879 0.144580 0.182776 -0.104855 0.199475 -0.158341 0.003017 -0.003049 -0.080745 0.018721 0.143335 0.214330 0.172430 0.101632 0.002161 -0.108659 0.230797 -0.131242 -0.129815 -0.029139 -0.155272 0.039124 0.165493 -0.026771 -0.072847 0.194669 -0.211330 0.029926 0.074922 0.097125 0.050094 -0.172186 0.042512 0.220970 -0.202423 0.077102 -0.057139 -0.195216 0.119714 
Kamala 0.048166 -0.070724 0.206518 0.095457 0.480008 -0.025041 0.271921 0.100000 -0.089091 -0.334259 -0.060723 0.312185 0.021944 0.441214 -0.252673 0.105089 -0.116593 0.204846 -0.089732 0.371712 0.374445 0.101670 0.171199 -0.123636 -0.017792 -0.045820 -0.012750 -0.052844 -0.108669 -0.234036 -0.220412 0.085261 0.038655 0.112256 0.370169 0.146903 -0.041203 -0.065579 -0.144823 -0.066800 0.179566 -0.073761 0.317384 0.129246 -0.248903 -0.087676 -0.004641 -0.139936 -0.116344 -0.169037 0.245104 0.128691 -0.104612 0.102623 0.178585 -0.247074 -0.277303 -0.233014 -0.150268 0.032940 -0.296405 0.208863 -0.303468 -0.057118 -0.109343 0.041586 -0.023813 -0.155861 0.217162 -0.255248 0.100391 0.086024 -0.099923 0.145595 0.013054 -0.170372 0.009723 -0.047611 -0.149888 0.032713 0.127122 0.243424 0.044926 0.001039 -0.099634 0.073009 -0.296793 0.108523 0.192918 0.101150 -0.411570 0.110604 0.006383 -0.283607 -0.013225 0.248685 0.190357 0.160018 -0.220575 -0.242392 0.049990 0.053768 0.118986 0.184876 -0.066090 -0.022747 -0.113433 0.311347 -0.407599 -0.109170 -0.089081 -0.038075 0.123108 0.172272 -0.047035 0.209401 0.213498 0.377411 -0.017473 -0.124605 -0.064744 0.131436 -0.028858 -0.073378 0.397948 -0.190661 0.288400 -0.138304 0.183907 -0.071814 -0.080473 0.164775 -0.046650 -0.090445 0.163837 -0.215315 0.151394 -0.160096 -0.343320 -0.173111 -0.262886 -0.273568 -0.262383 0.063583 -0.288422 -0.107299 0.263917 0.043259 0.069670 0.034906 -0.138922 0.032049 0.044200 -0.126562 -0.128604 -0.202812 0.074943 0.251753 -0.294023 -0.158469 0.005782 -0.125866 0.193137 0.255966 -0.147705 0.276164 -0.219479 0.005005 -0.007602 -0.107710 0.026395 0.191842 0.294821 0.234893 0.142199 0.001924 -0.144103 0.313672 -0.180205 -0.180267 -0.033559 -0.211116 0.055752 0.221573 -0.039120 -0.094073 0.252986 -0.270813 0.042550 0.101496 0.127259 0.064529 -0.226530 0.060790 0.285595 -0.264430 0.096409 -0.074384 -0.260206 0.152779 
SocialDemocracy 0.044167 -0.077330 0.219169 0.104866 0.478447 -0.045506 0.265171 0.114905 -0.134027 -0.393388 -0.039886 0.375057 0.032968 0.502436 -0.297628 0.131307 -0.128991 0.243792 -0.107832 0.447140 0.448254 0.129761 0.205993 -0.146401 -0.032444 -0.060828 0.011366 -0.091697 -0.166668 -0.328171 -0.334320 0.104637 0.069284 0.171928 0.503211 0.196857 -0.026014 -0.069817 -0.217027 -0.110120 0.254287 -0.098969 0.401924 0.149421 -0.315479 -0.123732 -0.021066 -0.156836 -0.173890 -0.231932 0.328443 0.203747 -0.131787 0.145406 0.245250 -0.332082 -0.337022 -0.318291 -0.201522 0.034592 -0.376023 0.243280 -0.380005 -0.080003 -0.115172 0.044584 -0.002535 -0.190126 0.292825 -0.333469 0.159384 0.124789 -0.164898 0.187158 0.037701 -0.268242 -0.002663 -0.093035 -0.197339 0.062880 0.152793 0.364612 0.068656 -0.026333 -0.173327 0.122795 -0.412345 0.161279 0.245164 0.115228 -0.460629 0.137206 -0.008947 -0.329917 -0.012161 0.295043 0.240342 0.229368 -0.244718 -0.305068 0.079841 0.041154 0.134561 0.230577 -0.068707 -0.025531 -0.162130 0.370433 -0.478438 -0.128971 -0.143596 -0.083844 0.170977 0.235926 -0.057098 0.236804 0.250762 0.435286 -0.032387 -0.160567 -0.093683 0.149955 -0.035082 -0.117526 0.470290 -0.217122 0.354537 -0.149869 0.216297 -0.110245 -0.078308 0.216819 -0.075068 -0.086410 0.206431 -0.267655 0.186771 -0.212715 -0.415816 -0.227629 -0.326752 -0.330940 -0.322682 0.067094 -0.340146 -0.128217 0.324098 0.055289 0.089840 0.006961 -0.194834 0.046796 0.010598 -0.153430 -0.169425 -0.265746 0.124546 0.301858 -0.342137 -0.199172 0.009759 -0.145571 0.213864 0.306820 -0.172752 0.333593 -0.280437 -0.002945 -0.017630 -0.127534 0.042430 0.196129 0.349566 0.283937 0.186141 0.009215 -0.147164 0.360506 -0.208743 -0.213107 -0.015210 -0.244607 0.080727 0.268529 -0.051771 -0.102159 0.293369 -0.308993 0.071667 0.110217 0.140681 0.068280 -0.280885 0.087233 0.334462 -0.315679 0.089783 -0.084715 -0.330840 0.185304 
demsocialist 0.041803 -0.062926 0.218126 0.110514 0.480063 -0.043680 0.262187 0.111448 -0.131957 -0.383490 -0.037441 0.366595 0.031506 0.490144 -0.288888 0.129391 -0.125373 0.238214 -0.103309 0.434164 0.437135 0.127228 0.202065 -0.144047 -0.030802 -0.063783 0.013578 -0.088995 -0.162955 -0.318310 -0.328268 0.102533 0.069961 0.166567 0.486740 0.190036 -0.023200 -0.066101 -0.214530 -0.108150 0.245017 -0.095190 0.389258 0.142411 -0.301627 -0.118475 -0.020954 -0.147209 -0.169734 -0.223581 0.319119 0.200632 -0.125161 0.137873 0.241199 -0.321990 -0.322820 -0.307960 -0.195399 0.031816 -0.358803 0.231703 -0.365277 -0.076757 -0.108302 0.043672 -0.000672 -0.184501 0.284516 -0.322222 0.153823 0.122172 -0.159926 0.183424 0.038339 -0.262199 -0.003021 -0.091082 -0.191078 0.062452 0.148270 0.355496 0.065779 -0.028043 -0.168833 0.120734 -0.403516 0.155927 0.240964 0.113957 -0.450071 0.131806 -0.010354 -0.323650 -0.014322 0.291048 0.239099 0.229602 -0.240968 -0.300773 0.079724 0.039930 0.131510 0.225733 -0.063446 -0.023338 -0.162586 0.364645 -0.469870 -0.126619 -0.145248 -0.083019 0.167316 0.236902 -0.054920 0.232332 0.244518 0.425855 -0.034371 -0.159978 -0.093630 0.148422 -0.036165 -0.117353 0.461702 -0.215562 0.345583 -0.142978 0.212399 -0.112865 -0.073664 0.212160 -0.077778 -0.086615 0.203526 -0.267439 0.181832 -0.209195 -0.412548 -0.224508 -0.324361 -0.325232 -0.317254 0.063493 -0.333276 -0.126353 0.318614 0.056379 0.090631 0.005705 -0.193814 0.046583 0.009858 -0.151580 -0.167615 -0.262047 0.124385 0.296126 -0.332546 -0.197671 0.008739 -0.140769 0.204308 0.301960 -0.171942 0.329073 -0.278728 -0.005627 -0.013808 -0.127567 0.044081 0.192572 0.342580 0.280712 0.186585 0.010442 -0.144113 0.352727 -0.207898 -0.211084 -0.010690 -0.244324 0.083048 0.264314 -0.048714 -0.099049 0.283752 -0.297448 0.072837 0.108080 0.136965 0.068077 -0.273735 0.088485 0.327681 -0.309333 0.085756 -0.084880 -0.320905 0.178544 
BetoORourke 0.039552 -0.057538 0.199123 0.101693 0.448366 -0.040927 0.242597 0.102342 -0.118491 -0.347444 -0.037047 0.336466 0.026342 0.444700 -0.259389 0.117747 -0.115122 0.216494 -0.093761 0.394210 0.394744 0.116125 0.186194 -0.132559 -0.029470 -0.058143 0.009468 -0.074439 -0.144823 -0.283569 -0.294606 0.092240 0.064252 0.146762 0.432200 0.169136 -0.025743 -0.060626 -0.190929 -0.097266 0.220382 -0.085306 0.349874 0.132268 -0.272212 -0.107133 -0.019958 -0.135656 -0.154736 -0.201732 0.286290 0.178573 -0.111867 0.125963 0.212075 -0.292365 -0.293414 -0.275237 -0.177379 0.028686 -0.324373 0.211730 -0.333220 -0.070964 -0.096054 0.038776 -0.004024 -0.165630 0.253792 -0.293889 0.139189 0.103903 -0.143779 0.172281 0.032455 -0.241517 -0.000764 -0.080166 -0.174885 0.054661 0.135420 0.324332 0.060913 -0.025302 -0.154840 0.107987 -0.368288 0.143482 0.225264 0.106172 -0.417367 0.124306 -0.004752 -0.299171 -0.013287 0.267913 0.219983 0.213837 -0.224829 -0.280649 0.070145 0.041122 0.119182 0.206413 -0.062041 -0.019852 -0.148851 0.334112 -0.436750 -0.115456 -0.129152 -0.071479 0.155989 0.216488 -0.051746 0.217893 0.225590 0.393759 -0.028894 -0.147678 -0.084058 0.135224 -0.032498 -0.104654 0.430454 -0.199643 0.318458 -0.130548 0.195012 -0.100080 -0.066042 0.196012 -0.068850 -0.081664 0.191589 -0.249375 0.170261 -0.190623 -0.382508 -0.209873 -0.297385 -0.297615 -0.293367 0.059894 -0.305139 -0.117368 0.292059 0.049062 0.079665 0.006103 -0.178197 0.044476 0.010244 -0.140600 -0.158282 -0.241616 0.114456 0.274405 -0.310459 -0.183448 0.008691 -0.131743 0.194274 0.283084 -0.160339 0.305828 -0.260194 -0.002774 -0.013851 -0.116079 0.040270 0.180516 0.320428 0.261286 0.171731 0.007135 -0.137391 0.326423 -0.192047 -0.197681 -0.010040 -0.225303 0.072794 0.244293 -0.046784 -0.093095 0.264456 -0.276091 0.063184 0.105585 0.127292 0.064654 -0.252162 0.080723 0.304175 -0.286661 0.084101 -0.082677 -0.301382 0.164994 
ConservativeDemocrat 0.038379 -0.055462 0.182431 0.091763 0.411707 -0.036670 0.219533 0.096174 -0.109248 -0.315282 -0.029749 0.305312 0.021820 0.401850 -0.239196 0.104393 -0.103061 0.194922 -0.086639 0.358435 0.358257 0.109028 0.167685 -0.122630 -0.023792 -0.052962 0.009139 -0.071440 -0.134346 -0.260027 -0.266964 0.086718 0.057144 0.136683 0.396888 0.155519 -0.020061 -0.052876 -0.174225 -0.091441 0.202023 -0.073885 0.320504 0.117109 -0.248159 -0.096027 -0.015979 -0.123667 -0.136652 -0.181057 0.260566 0.159651 -0.099923 0.112890 0.193385 -0.263479 -0.263698 -0.250286 -0.160895 0.027949 -0.296951 0.191669 -0.298557 -0.064392 -0.089913 0.036967 -0.002868 -0.147041 0.232056 -0.265821 0.125383 0.097869 -0.130435 0.153406 0.028405 -0.219839 -0.001494 -0.072502 -0.162100 0.052382 0.123910 0.293647 0.057809 -0.023879 -0.140740 0.100880 -0.334894 0.127818 0.208461 0.093604 -0.380326 0.113283 -0.005397 -0.276321 -0.010501 0.243735 0.201025 0.193826 -0.200115 -0.255099 0.062055 0.035796 0.107455 0.191098 -0.058074 -0.018403 -0.135481 0.303454 -0.396930 -0.104089 -0.119400 -0.062781 0.142485 0.197555 -0.042831 0.198597 0.201719 0.359067 -0.026031 -0.134968 -0.075101 0.126544 -0.029808 -0.096964 0.394678 -0.181559 0.292859 -0.123414 0.181299 -0.093562 -0.063951 0.179115 -0.064686 -0.070879 0.173860 -0.228142 0.155969 -0.175410 -0.348406 -0.192647 -0.273599 -0.272595 -0.270922 0.054408 -0.277823 -0.105429 0.266477 0.043535 0.071741 0.006609 -0.161669 0.042398 0.009534 -0.128920 -0.143721 -0.218715 0.106310 0.248620 -0.283261 -0.168129 0.005101 -0.119526 0.177094 0.257365 -0.144281 0.282472 -0.235432 -0.001280 -0.014156 -0.108335 0.037295 0.161987 0.294290 0.236846 0.157412 0.006008 -0.123364 0.298961 -0.174587 -0.181691 -0.012571 -0.207515 0.069266 0.222443 -0.044359 -0.084523 0.243351 -0.253764 0.058155 0.094622 0.116293 0.059928 -0.232970 0.076330 0.277878 -0.262166 0.079601 -0.075003 -0.271978 0.151432 
