15 200
BaemyKlobaechar 0.104171 -0.110940 0.161041 0.048172 0.413620 -0.026465 0.236401 0.070752 -0.151391 -0.359983 -0.124830 0.351039 0.105539 0.615366 -0.311464 0.046316 -0.115555 0.270295 -0.093125 0.641049 0.564349 0.110663 0.276714 -0.242699 -0.021147 -0.055385 0.017822 -0.088272 -0.197283 -0.370436 -0.366413 0.134759 0.108985 0.096305 0.553206 0.292641 -0.029476 -0.099238 -0.148510 -0.164733 0.198857 -0.114084 0.415531 0.102129 -0.290394 -0.072286 0.066376 -0.221584 -0.160274 -0.189253 0.300049 0.169693 -0.073835 0.206103 0.145314 -0.316987 -0.234657 -0.242786 -0.052765 0.045828 -0.213845 0.189845 -0.218775 -0.078761 -0.127525 0.005762 -0.002660 -0.102619 0.134189 -0.149037 0.069539 0.058893 -0.070121 0.150566 -0.043621 -0.155682 0.056883 -0.059287 -0.126745 0.005340 0.164599 0.244329 0.080534 0.038265 -0.141417 0.093442 -0.337052 0.154136 0.201429 0.073904 -0.498872 0.116431 0.076928 -0.318603 0.057335 0.315626 0.243524 0.230132 -0.220176 -0.302761 0.046890 0.028592 0.152620 0.264701 -0.234753 0.018602 -0.016665 0.392795 -0.468418 -0.060666 -0.071234 -0.031232 0.263927 0.242630 -0.112372 0.297115 0.331987 0.487913 -0.025233 -0.104018 -0.030981 0.202273 0.068751 -0.036503 0.496457 -0.299142 0.441936 -0.154581 0.302699 -0.133002 -0.201460 0.170539 -0.079585 -0.110217 0.195631 -0.299316 0.263006 -0.165231 -0.463287 -0.204435 -0.389869 -0.381731 -0.340948 0.069468 -0.348327 -0.175787 0.351807 0.041961 0.047177 0.037588 -0.261299 0.130796 0.067364 -0.178945 -0.127203 -0.259250 0.064539 0.329912 -0.325915 -0.200506 -0.061278 -0.154576 0.215505 0.254350 -0.220461 0.382827 -0.267752 -0.052323 -0.115680 -0.229047 0.099086 0.276142 0.599066 0.389777 0.149273 -0.018599 -0.230309 0.558158 -0.199155 -0.236836 -0.181526 -0.326722 0.174954 0.491111 -0.217112 -0.369572 0.290029 -0.620112 -0.091863 0.096159 0.260106 0.047136 -0.594706 0.115734 0.557707 -0.566252 0.263662 -0.213313 -0.626479 0.347975 
politics 0.187052 -0.114719 0.378087 0.126361 0.855196 -0.098368 0.382150 0.182938 -0.245505 -0.528728 -0.102816 0.565189 0.119932 0.791055 -0.432928 0.089856 -0.150178 0.394422 -0.122117 0.926367 0.850936 0.200473 0.408822 -0.362152 -0.053472 -0.085083 0.028042 -0.136252 -0.305960 -0.501436 -0.543613 0.178990 0.198176 0.157887 0.826678 0.433618 -0.038089 -0.107910 -0.300218 -0.312336 0.466096 -0.195248 0.816371 0.204045 -0.604948 -0.179039 0.063445 -0.394006 -0.376322 -0.410963 0.614306 0.440175 -0.176925 0.401462 0.315106 -0.672714 -0.531189 -0.568402 -0.201196 0.124213 -0.526763 0.375926 -0.518732 -0.202777 -0.252023 0.017260 0.017442 -0.216012 0.362402 -0.449170 0.233815 0.145197 -0.132052 0.296392 -0.072540 -0.340402 0.070465 -0.111542 -0.236270 0.016444 0.240630 0.439966 0.128355 0.031504 -0.302598 0.205042 -0.567995 0.281171 0.315051 0.071515 -0.588013 0.179526 0.061888 -0.369721 0.068584 0.392820 0.200398 0.277937 -0.176212 -0.293625 0.051737 0.030599 0.116254 0.219012 -0.305918 0.023859 -0.070708 0.556104 -0.688905 -0.105313 -0.176851 -0.049395 0.350496 0.385412 -0.153164 0.400416 0.405004 0.601434 -0.013060 -0.152341 -0.054628 0.306628 0.110125 -0.105261 0.806917 -0.436361 0.666052 -0.188457 0.382856 -0.179427 -0.213726 0.233429 -0.120290 -0.081631 0.303997 -0.427908 0.385264 -0.262216 -0.708860 -0.362141 -0.595269 -0.538403 -0.558499 0.128549 -0.517182 -0.262791 0.551768 0.045935 0.043719 -0.001850 -0.410423 0.213852 0.010094 -0.232814 -0.228778 -0.370516 0.162117 0.399533 -0.444940 -0.300295 -0.093954 -0.185341 0.282261 0.356747 -0.300584 0.525299 -0.403497 -0.099323 -0.104894 -0.185261 0.074513 0.195994 0.539180 0.364732 0.149460 -0.032660 -0.186210 0.501548 -0.196886 -0.232974 -0.093221 -0.270541 0.186810 0.433979 -0.133561 -0.229403 0.183968 -0.345966 -0.020674 0.098411 0.171423 0.027929 -0.379420 0.090895 0.300617 -0.319134 0.129501 -0.083909 -0.389703 0.185409 
YangForPresidentHQ 0.229637 -0.176955 0.371619 0.152150 1.035246 -0.108796 0.483205 0.181022 -0.256524 -0.531203 -0.109400 0.575597 0.139631 0.815914 -0.446600 0.075017 -0.146202 0.363544 -0.111945 0.892747 0.820995 0.170305 0.400956 -0.339380 -0.039555 -0.047692 0.030430 -0.112595 -0.255218 -0.439202 -0.454531 0.158813 0.179005 0.103648 0.693244 0.372273 -0.031444 -0.098192 -0.218625 -0.262767 0.328526 -0.152339 0.624926 0.151609 -0.443903 -0.110180 0.069330 -0.309250 -0.285600 -0.318513 0.471707 0.336411 -0.143295 0.326192 0.220481 -0.513363 -0.367899 -0.403810 -0.130042 0.084356 -0.358848 0.272346 -0.352128 -0.143348 -0.203967 -0.008604 0.004163 -0.155262 0.261568 -0.331353 0.160898 0.103613 -0.083590 0.253838 -0.078525 -0.277092 0.065884 -0.087350 -0.190887 -0.006960 0.216700 0.388586 0.127175 0.047025 -0.269030 0.194182 -0.510924 0.266969 0.285799 0.060880 -0.597182 0.174825 0.065194 -0.353488 0.081554 0.384439 0.212032 0.278618 -0.199147 -0.306055 0.047109 0.027614 0.147421 0.237968 -0.237816 0.014571 -0.026651 0.398024 -0.494071 -0.077166 -0.107833 -0.017215 0.262188 0.283737 -0.127441 0.316655 0.327983 0.472824 0.004637 -0.097726 -0.029913 0.231600 0.100082 -0.064535 0.607966 -0.335601 0.507066 -0.140869 0.289006 -0.124233 -0.180978 0.158497 -0.073157 -0.064798 0.223216 -0.317628 0.370070 -0.237318 -0.671963 -0.334328 -0.564086 -0.519289 -0.524644 0.128150 -0.461218 -0.222811 0.491384 0.033356 0.028225 0.029855 -0.348068 0.190565 0.044639 -0.233786 -0.210742 -0.355997 0.129596 0.406116 -0.441443 -0.298591 -0.086999 -0.169164 0.252955 0.301445 -0.283342 0.458512 -0.336449 -0.093909 -0.117663 -0.204742 0.069139 0.233112 0.585593 0.382826 0.136425 -0.044274 -0.181016 0.484885 -0.169087 -0.211296 -0.126247 -0.255637 0.177089 0.421217 -0.170321 -0.274891 0.198566 -0.409702 -0.057399 0.102658 0.198198 0.036735 -0.456052 0.093216 0.356346 -0.384692 0.166523 -0.115131 -0.448220 0.228420 
SandersForPresident 0.109559 -0.066518 0.321378 0.126671 0.607017 -0.072934 0.291765 0.140393 -0.150127 -0.279805 -0.018091 0.317826 0.059263 0.383079 -0.217443 0.050884 -0.086911 0.233586 -0.075996 0.563417 0.529938 0.125066 0.258267 -0.220374 -0.041404 -0.063243 0.035412 -0.104647 -0.230944 -0.378516 -0.410764 0.133385 0.175084 0.120118 0.644688 0.338925 -0.021039 -0.073576 -0.244494 -0.257095 0.502815 -0.215086 0.891383 0.214533 -0.641495 -0.184169 0.070476 -0.417673 -0.405844 -0.442309 0.660622 0.486132 -0.184176 0.425354 0.340527 -0.716214 -0.508053 -0.560594 -0.205165 0.115735 -0.509691 0.363319 -0.503628 -0.194109 -0.230619 0.011595 0.020536 -0.205853 0.357025 -0.431298 0.225879 0.144603 -0.117167 0.272801 -0.061331 -0.325638 0.062546 -0.101847 -0.215228 0.014438 0.226420 0.432946 0.129315 0.022835 -0.297223 0.205825 -0.550736 0.275626 0.356437 0.084864 -0.669344 0.200641 0.069855 -0.427963 0.073557 0.446011 0.182305 0.256340 -0.154986 -0.259508 0.048738 0.022880 0.099616 0.193407 -0.190958 0.017537 -0.062885 0.373136 -0.461661 -0.074139 -0.139080 -0.039957 0.228417 0.269305 -0.097467 0.254413 0.258888 0.385722 -0.008217 -0.109422 -0.046609 0.230110 0.082267 -0.091970 0.621622 -0.331912 0.502571 -0.129028 0.275993 -0.137913 -0.148280 0.171103 -0.100914 -0.052736 0.231163 -0.328141 0.342814 -0.241157 -0.648404 -0.333885 -0.546899 -0.480472 -0.504864 0.107839 -0.496580 -0.248806 0.533322 0.047072 0.047327 -0.005292 -0.401962 0.209938 0.002488 -0.216295 -0.204940 -0.330328 0.154122 0.360727 -0.391521 -0.277035 -0.086585 -0.165368 0.246951 0.323667 -0.281054 0.484216 -0.372033 -0.089789 -0.083010 -0.158894 0.064209 0.162434 0.451771 0.305470 0.135480 -0.024456 -0.161694 0.432342 -0.175427 -0.208334 -0.073731 -0.241906 0.168468 0.376330 -0.132465 -0.217724 0.182482 -0.331798 -0.010295 0.097087 0.160063 0.033632 -0.380705 0.105324 0.336733 -0.332434 0.130687 -0.100018 -0.391858 0.187259 
centerleftpolitics 0.219007 -0.214089 0.288085 0.096672 0.869387 -0.049096 0.478369 0.073648 -0.101470 -0.275081 -0.152001 0.207856 0.112910 0.558788 -0.258599 0.005073 -0.096595 0.186369 -0.081677 0.507459 0.397433 0.041479 0.196255 -0.181743 0.005762 -0.055138 0.016098 -0.078072 -0.191522 -0.403815 -0.363650 0.160928 0.071837 0.097439 0.538864 0.291778 -0.030913 -0.115752 -0.086113 -0.111119 0.052727 -0.085145 0.211278 0.041665 -0.120592 -0.002271 0.093362 -0.143975 -0.039502 -0.075392 0.135690 0.001662 -0.000574 0.117680 0.065857 -0.117883 -0.251304 -0.247068 -0.005324 0.027179 -0.202981 0.223227 -0.219248 -0.067644 -0.174738 0.013303 -0.014960 -0.137979 0.147353 -0.128590 0.048373 0.075278 -0.043795 0.076352 -0.027002 -0.057181 0.053369 -0.048253 -0.082449 -0.008186 0.129238 0.139171 0.056510 0.029733 -0.061583 0.025557 -0.212767 0.099312 0.113932 0.081281 -0.466310 0.062306 0.095295 -0.312940 0.057369 0.276927 0.353948 0.264932 -0.320628 -0.409248 0.065243 0.035418 0.229712 0.407719 -0.410360 0.020807 -0.013786 0.649331 -0.777519 -0.079636 -0.066653 -0.044038 0.451815 0.370319 -0.189533 0.495832 0.565907 0.844790 -0.057182 -0.163952 -0.032673 0.224163 0.070053 0.005023 0.506120 -0.340367 0.488409 -0.211902 0.401340 -0.164692 -0.299642 0.230236 -0.081849 -0.175826 0.222073 -0.364157 0.266549 -0.147038 -0.444678 -0.146928 -0.368200 -0.392237 -0.295190 0.048740 -0.307890 -0.162384 0.284592 0.042575 0.059318 0.070095 -0.219910 0.093303 0.132731 -0.238039 -0.131674 -0.305895 0.033596 0.452142 -0.411837 -0.237282 -0.064291 -0.189497 0.265518 0.285470 -0.258494 0.455292 -0.293268 -0.025455 -0.179102 -0.350019 0.142797 0.437643 0.902768 0.580873 0.225616 -0.012903 -0.370508 0.870296 -0.291415 -0.379328 -0.337562 -0.528221 0.252262 0.766776 -0.249252 -0.411587 0.322452 -0.724101 -0.133203 0.052998 0.263265 0.051926 -0.721724 0.121841 0.614331 -0.650902 0.304305 -0.262455 -0.674646 0.416414 
Pete_Buttigieg 0.105444 -0.146069 0.135991 0.030445 0.496057 -0.024635 0.291970 0.047592 -0.096785 -0.306938 -0.143027 0.277265 0.091464 0.559235 -0.276073 0.041849 -0.085202 0.179701 -0.067005 0.421286 0.358017 0.058397 0.157792 -0.148413 -0.007569 -0.051254 -0.005871 -0.062754 -0.138748 -0.283325 -0.260893 0.111778 0.054157 0.082537 0.441635 0.225081 -0.037530 -0.090903 -0.091220 -0.090290 0.116495 -0.082718 0.279535 0.077603 -0.200682 -0.048970 0.062325 -0.174065 -0.091422 -0.127962 0.214932 0.075081 -0.050585 0.143719 0.111391 -0.219241 -0.394631 -0.374146 -0.082436 0.080177 -0.351224 0.314380 -0.355501 -0.126090 -0.232110 0.039023 -0.019439 -0.191158 0.240695 -0.282544 0.116460 0.109465 -0.139736 0.259461 -0.072360 -0.240727 0.091761 -0.098585 -0.216933 0.024286 0.271408 0.384985 0.110056 0.068633 -0.203632 0.133890 -0.530140 0.217755 0.169913 0.080318 -0.485988 0.103666 0.080475 -0.315162 0.039359 0.299940 0.273077 0.223313 -0.277725 -0.350152 0.043408 0.048633 0.179935 0.309867 -0.344720 0.019283 -0.019380 0.586190 -0.700182 -0.086414 -0.082140 -0.034211 0.389873 0.339133 -0.165445 0.461407 0.505508 0.755757 -0.038759 -0.158178 -0.039821 0.286249 0.075533 -0.041084 0.675576 -0.402312 0.598140 -0.236141 0.432462 -0.180962 -0.280367 0.249477 -0.102606 -0.176849 0.260946 -0.408871 0.239506 -0.153052 -0.412345 -0.160519 -0.341398 -0.369998 -0.297804 0.074758 -0.291831 -0.148766 0.274503 0.043766 0.046528 0.055064 -0.190872 0.080510 0.105380 -0.188867 -0.124438 -0.277309 0.033503 0.377379 -0.373042 -0.198944 -0.055043 -0.180164 0.252613 0.278691 -0.217549 0.400372 -0.271791 -0.039391 -0.104104 -0.217391 0.096550 0.287305 0.556200 0.361872 0.123745 -0.011002 -0.220031 0.502123 -0.176130 -0.196382 -0.190221 -0.301129 0.131610 0.439254 -0.152779 -0.296114 0.253149 -0.536143 -0.098174 0.060836 0.209166 0.042046 -0.454391 0.058461 0.438435 -0.445079 0.224683 -0.176228 -0.469976 0.285952 
moderatepolitics 0.108589 -0.096462 0.246000 0.080791 0.557906 -0.047069 0.265956 0.101302 -0.182245 -0.447851 -0.135580 0.452409 0.108128 0.734024 -0.382076 0.075578 -0.123145 0.290567 -0.098951 0.677997 0.609271 0.131963 0.287647 -0.258797 -0.022338 -0.071717 0.012062 -0.081955 -0.184595 -0.333968 -0.348052 0.129854 0.093679 0.101443 0.495827 0.253422 -0.028817 -0.076553 -0.154114 -0.147004 0.233171 -0.110275 0.435087 0.109273 -0.316062 -0.094141 0.045614 -0.227227 -0.173143 -0.204900 0.321790 0.194457 -0.083309 0.203368 0.176061 -0.336931 -0.525525 -0.543925 -0.170440 0.111762 -0.499889 0.394258 -0.498415 -0.189759 -0.271619 0.038405 0.000210 -0.242025 0.357866 -0.432695 0.203381 0.156309 -0.128305 0.252551 -0.055573 -0.269349 0.076193 -0.098658 -0.204926 0.025224 0.243905 0.387080 0.107399 0.042082 -0.231327 0.159263 -0.517790 0.226042 0.231067 0.074402 -0.499007 0.130665 0.066582 -0.327196 0.043958 0.325758 0.224016 0.232323 -0.210234 -0.296595 0.045893 0.035675 0.126237 0.241895 -0.225301 0.019398 -0.038478 0.413123 -0.505160 -0.066691 -0.087571 -0.027781 0.262055 0.251584 -0.106550 0.311800 0.315765 0.484542 -0.022475 -0.117895 -0.043038 0.250691 0.063009 -0.064251 0.613252 -0.340599 0.517385 -0.178987 0.334838 -0.155247 -0.188196 0.205244 -0.094457 -0.115675 0.222152 -0.341080 0.214600 -0.145910 -0.379197 -0.174179 -0.311119 -0.319330 -0.284115 0.070155 -0.302731 -0.155523 0.299881 0.041672 0.044749 0.025630 -0.220393 0.105243 0.056433 -0.166910 -0.139410 -0.259956 0.067754 0.316396 -0.327786 -0.192161 -0.061014 -0.172412 0.245208 0.298337 -0.226727 0.418761 -0.307493 -0.056422 -0.067136 -0.147564 0.071218 0.172858 0.385422 0.263232 0.103777 -0.011726 -0.150194 0.362735 -0.143251 -0.154684 -0.093770 -0.218366 0.115246 0.321848 -0.090263 -0.174446 0.159652 -0.311246 -0.041790 0.053033 0.129766 0.031441 -0.283773 0.049064 0.283449 -0.282289 0.135148 -0.105064 -0.305731 0.173029 
ElizabethWarren 0.072300 -0.042872 0.095973 -0.004121 0.095568 -0.012631 0.073501 0.067863 -0.182022 -0.415413 -0.122509 0.432900 0.097886 0.663423 -0.348466 0.059993 -0.127994 0.314642 -0.090273 0.710970 0.649956 0.150950 0.334404 -0.290600 -0.029486 -0.062662 0.024109 -0.086386 -0.214591 -0.374718 -0.409600 0.140685 0.127500 0.090564 0.549160 0.290484 -0.029016 -0.096874 -0.181034 -0.201385 0.165767 -0.079033 0.333957 0.084758 -0.228287 -0.058300 0.037851 -0.171607 -0.145059 -0.156735 0.261225 0.164799 -0.062906 0.181007 0.121176 -0.273814 -0.172177 -0.201599 -0.065353 0.040230 -0.168799 0.133343 -0.163359 -0.071619 -0.095119 -0.007581 0.000643 -0.072504 0.119382 -0.150556 0.073473 0.036781 -0.090276 0.228098 -0.068686 -0.253353 0.073857 -0.074431 -0.173458 0.019103 0.234461 0.389194 0.137136 0.048081 -0.237013 0.173246 -0.534806 0.239855 0.338957 0.089065 -0.688198 0.186275 0.102944 -0.443114 0.081736 0.449052 0.318325 0.351726 -0.264836 -0.398982 0.054585 0.027795 0.171747 0.322588 -0.267474 0.040852 -0.025645 0.449630 -0.575061 -0.075806 -0.093371 -0.017480 0.288068 0.284677 -0.113476 0.344913 0.327719 0.489231 -0.006282 -0.115616 -0.031257 0.235170 0.092400 -0.054386 0.578456 -0.332502 0.499913 -0.152066 0.292927 -0.140943 -0.170025 0.161016 -0.070785 -0.087960 0.196172 -0.297905 0.290113 -0.168216 -0.499346 -0.243968 -0.405251 -0.403305 -0.373478 0.077289 -0.389224 -0.194862 0.395343 0.041550 0.047750 0.047853 -0.297517 0.169079 0.082419 -0.280750 -0.232686 -0.423950 0.134444 0.496219 -0.515060 -0.332815 -0.101744 -0.239822 0.330407 0.422545 -0.361286 0.611687 -0.436064 -0.099972 -0.100015 -0.193353 0.091364 0.209192 0.509446 0.334802 0.135338 -0.027519 -0.191576 0.487123 -0.181412 -0.211406 -0.134050 -0.280904 0.173491 0.434448 -0.183026 -0.286648 0.210856 -0.456474 -0.059620 0.097018 0.212858 0.040385 -0.441744 0.101693 0.422311 -0.437884 0.202768 -0.166715 -0.497578 0.253258 
progressive 0.158744 -0.152395 0.427213 0.152776 0.872204 -0.076211 0.421890 0.150964 -0.108014 -0.203092 -0.046012 0.203131 0.058920 0.338532 -0.169205 0.027033 -0.075429 0.186624 -0.074397 0.460041 0.411287 0.084035 0.197567 -0.180686 -0.017734 -0.060692 0.027634 -0.068700 -0.144750 -0.265821 -0.274827 0.099033 0.086788 0.080182 0.378742 0.201835 -0.010159 -0.049660 -0.125804 -0.122631 0.317294 -0.159045 0.593829 0.128163 -0.410947 -0.115303 0.067455 -0.291207 -0.239777 -0.271127 0.424505 0.285164 -0.093492 0.271387 0.226521 -0.439523 -0.282529 -0.320691 -0.089886 0.059202 -0.270100 0.220288 -0.274204 -0.102549 -0.121246 0.015507 0.012711 -0.118624 0.170151 -0.173461 0.089899 0.088144 -0.083217 0.160593 -0.022571 -0.205212 0.058941 -0.074681 -0.139237 0.009227 0.171499 0.291067 0.086566 0.011989 -0.190788 0.124004 -0.374599 0.187384 0.202088 0.069628 -0.445644 0.102752 0.068374 -0.306155 0.049527 0.292183 0.166552 0.170325 -0.127934 -0.189031 0.045954 0.010432 0.078888 0.182713 -0.352772 0.034498 -0.054054 0.633168 -0.770241 -0.091797 -0.139954 -0.048585 0.399510 0.384088 -0.160246 0.439467 0.463774 0.699968 -0.033164 -0.179646 -0.048681 0.288728 0.090449 -0.069228 0.706260 -0.400900 0.599324 -0.193640 0.395742 -0.190937 -0.237924 0.234306 -0.126254 -0.127457 0.257957 -0.412072 0.228781 -0.147267 -0.406052 -0.177242 -0.338968 -0.328759 -0.289942 0.050899 -0.331584 -0.169583 0.331033 0.048048 0.059458 0.022799 -0.262764 0.132631 0.058745 -0.232534 -0.162551 -0.319526 0.100006 0.397806 -0.392352 -0.250880 -0.075262 -0.184995 0.249284 0.316204 -0.266549 0.473380 -0.341158 -0.057546 -0.054422 -0.149296 0.066856 0.153645 0.345536 0.233008 0.110265 -0.003997 -0.161469 0.368715 -0.135586 -0.163865 -0.107850 -0.230395 0.136510 0.331927 -0.108108 -0.173053 0.136385 -0.288851 -0.021767 0.038450 0.104300 0.026863 -0.340463 0.084337 0.322635 -0.318571 0.136934 -0.125609 -0.331691 0.179560 
JoeBiden 0.147880 -0.157511 0.188659 0.046251 0.612879 -0.035319 0.320273 0.058981 -0.112205 -0.339218 -0.175651 0.277800 0.106277 0.645762 -0.311920 0.032039 -0.117299 0.244557 -0.090752 0.577083 0.472634 0.084640 0.231634 -0.220911 0.002911 -0.070057 0.002584 -0.069471 -0.181908 -0.370877 -0.356420 0.153676 0.059864 0.113067 0.550447 0.283981 -0.040175 -0.122136 -0.113484 -0.113766 0.019025 -0.050250 0.124192 0.039859 -0.074469 -0.005737 0.064729 -0.109556 0.009456 -0.018992 0.067108 -0.059441 0.012518 0.059633 0.037389 -0.045935 -0.163496 -0.138550 0.010955 0.017167 -0.123610 0.149137 -0.129401 -0.037683 -0.119567 0.028206 -0.022025 -0.096008 0.083310 -0.065718 0.014314 0.040996 -0.063046 0.078815 -0.026505 -0.046474 0.055741 -0.040161 -0.085275 0.017015 0.153952 0.156958 0.057633 0.038001 -0.047707 0.019498 -0.250283 0.081842 0.113505 0.074261 -0.389600 0.058180 0.088715 -0.277546 0.034082 0.236100 0.381042 0.296314 -0.346827 -0.451546 0.056413 0.043710 0.224667 0.419681 -0.399396 0.033644 -0.016418 0.648919 -0.798770 -0.086273 -0.065147 -0.037574 0.447993 0.363508 -0.173580 0.518805 0.550592 0.833608 -0.048891 -0.172046 -0.031565 0.221892 0.056437 -0.009645 0.490602 -0.314387 0.468761 -0.210124 0.364329 -0.154445 -0.242184 0.212759 -0.066310 -0.165596 0.191673 -0.314908 0.257739 -0.146287 -0.410257 -0.150879 -0.326850 -0.388248 -0.279414 0.062268 -0.314208 -0.165873 0.280437 0.050148 0.061176 0.080438 -0.208936 0.094206 0.142317 -0.261201 -0.175418 -0.377484 0.053008 0.515701 -0.495592 -0.273068 -0.073251 -0.238319 0.329486 0.376927 -0.298734 0.547796 -0.363642 -0.046350 -0.179594 -0.341447 0.160808 0.426079 0.890029 0.573289 0.215758 -0.018147 -0.349870 0.836337 -0.296640 -0.349930 -0.305553 -0.501740 0.232183 0.740243 -0.184244 -0.317450 0.265678 -0.585574 -0.110583 0.049188 0.220084 0.044706 -0.489032 0.073715 0.468498 -0.486312 0.245340 -0.209964 -0.507906 0.315427 
Kamala 0.121639 -0.139578 0.082236 0.032424 0.368779 -0.002094 0.236973 0.019008 -0.043137 -0.155421 -0.117491 0.100267 0.064215 0.345137 -0.150105 -0.003260 -0.058669 0.091449 -0.047553 0.236057 0.173225 0.008564 0.098314 -0.088728 0.013526 -0.031854 0.010170 -0.027098 -0.081955 -0.210593 -0.180612 0.093552 0.011825 0.034591 0.216828 0.117287 -0.017405 -0.072939 -0.001956 -0.015718 -0.010361 -0.043168 0.098469 0.026866 -0.035919 0.014785 0.064774 -0.088270 0.018422 -0.005974 0.049868 -0.060763 0.019319 0.052117 0.016284 -0.022200 -0.082381 -0.075888 0.026846 -0.002373 -0.050099 0.103231 -0.059344 -0.011189 -0.095729 0.006957 -0.024081 -0.070978 0.056669 -0.032478 -0.004820 0.027399 -0.035666 0.061726 -0.020438 -0.052944 0.054911 -0.029082 -0.066158 -0.000857 0.115900 0.135027 0.061992 0.029084 -0.046412 0.023550 -0.200469 0.085388 0.153561 0.081473 -0.481923 0.082629 0.101843 -0.329378 0.051653 0.289717 0.377709 0.303196 -0.339266 -0.439217 0.054651 0.036164 0.228078 0.414628 -0.305117 0.028302 0.004461 0.477583 -0.588259 -0.058872 -0.023145 -0.014988 0.332110 0.254916 -0.127787 0.385850 0.417363 0.626041 -0.030766 -0.122748 -0.023818 0.218611 0.070952 -0.005380 0.492034 -0.315557 0.465887 -0.196971 0.367902 -0.155734 -0.253952 0.202969 -0.065958 -0.168031 0.193679 -0.325266 0.214912 -0.112859 -0.340189 -0.118686 -0.267482 -0.323797 -0.221208 0.041500 -0.247135 -0.122657 0.216270 0.039052 0.051848 0.088685 -0.159530 0.076925 0.154127 -0.301934 -0.192463 -0.415970 0.067141 0.568200 -0.543091 -0.313929 -0.083192 -0.260222 0.347867 0.407990 -0.343126 0.597880 -0.392879 -0.054582 -0.182048 -0.362724 0.162906 0.446746 0.927291 0.592721 0.228198 -0.024691 -0.374163 0.889083 -0.308719 -0.374672 -0.327386 -0.534878 0.261410 0.787325 -0.232209 -0.373910 0.296698 -0.660006 -0.121675 0.072012 0.253028 0.056575 -0.617997 0.106928 0.562730 -0.582195 0.281992 -0.250197 -0.609088 0.360591 
SocialDemocracy 0.193473 -0.176705 0.261169 0.076646 0.653536 -0.034897 0.332476 0.069342 -0.100766 -0.262073 -0.133977 0.223235 0.095035 0.518133 -0.243689 0.020171 -0.086169 0.178858 -0.070085 0.456913 0.376197 0.051601 0.183045 -0.168404 0.000457 -0.055178 0.016651 -0.064211 -0.148936 -0.313120 -0.298075 0.123454 0.052696 0.072029 0.391804 0.210247 -0.019854 -0.082700 -0.067595 -0.077917 0.091854 -0.085470 0.246097 0.051626 -0.152349 -0.025771 0.072319 -0.155325 -0.064544 -0.096015 0.171358 0.050797 -0.018549 0.126762 0.088305 -0.158218 -0.164164 -0.167489 -0.000595 0.020849 -0.127690 0.147134 -0.137132 -0.049631 -0.116194 0.017039 -0.007477 -0.099603 0.096029 -0.085583 0.029016 0.056711 -0.036912 0.060598 -0.015596 -0.053964 0.045608 -0.042004 -0.057809 -0.001665 0.104690 0.112674 0.040170 0.025398 -0.052776 0.029153 -0.172981 0.076265 0.051846 0.048721 -0.259809 0.027074 0.059740 -0.177693 0.030148 0.155156 0.231100 0.166569 -0.207310 -0.258958 0.044118 0.020215 0.140230 0.257876 -0.273741 0.021274 -0.003706 0.440576 -0.525082 -0.049736 -0.037870 -0.027621 0.310636 0.249851 -0.128843 0.346347 0.384512 0.576871 -0.039748 -0.116394 -0.032274 0.221102 0.062806 -0.012418 0.492360 -0.311776 0.457530 -0.184538 0.370084 -0.164243 -0.249277 0.210002 -0.082677 -0.158059 0.199691 -0.340773 0.268803 -0.154258 -0.441132 -0.164097 -0.364242 -0.397460 -0.299900 0.063453 -0.326780 -0.169325 0.304582 0.052214 0.064392 0.065276 -0.231827 0.110726 0.132374 -0.290604 -0.197492 -0.414808 0.077601 0.548087 -0.527105 -0.313698 -0.090316 -0.253719 0.348758 0.406312 -0.344112 0.607072 -0.419934 -0.070076 -0.129538 -0.276353 0.117854 0.330940 0.691312 0.454421 0.174692 -0.014665 -0.275334 0.647945 -0.221133 -0.272047 -0.235648 -0.394282 0.199231 0.581022 -0.195212 -0.326037 0.252190 -0.566247 -0.096364 0.053097 0.214099 0.044266 -0.549883 0.094329 0.500946 -0.514771 0.241733 -0.207520 -0.537628 0.322046 
demsocialist 0.194113 -0.159982 0.307417 0.091010 0.667925 -0.053916 0.326004 0.111230 -0.147066 -0.323426 -0.105195 0.319144 0.096165 0.553837 -0.281852 0.040188 -0.106662 0.248349 -0.087912 0.603969 0.534972 0.101452 0.261579 -0.229746 -0.019689 -0.059811 0.029301 -0.090995 -0.200593 -0.380242 -0.383841 0.138560 0.113999 0.099237 0.548608 0.289349 -0.021853 -0.091294 -0.149072 -0.165860 0.217153 -0.121961 0.437288 0.100905 -0.297767 -0.074652 0.065818 -0.229911 -0.175234 -0.206423 0.327291 0.196605 -0.076106 0.222694 0.162365 -0.337485 -0.244015 -0.269675 -0.062346 0.048223 -0.226824 0.196891 -0.226573 -0.089059 -0.134901 0.007228 0.002809 -0.115063 0.157094 -0.174078 0.083268 0.074593 -0.077370 0.171439 -0.042705 -0.196788 0.064987 -0.078204 -0.139939 0.002797 0.183598 0.293420 0.097572 0.032969 -0.185263 0.126558 -0.393569 0.194452 0.217887 0.073571 -0.521698 0.125045 0.076848 -0.337337 0.062711 0.332897 0.254848 0.250999 -0.222375 -0.312363 0.055913 0.020451 0.150707 0.277414 -0.322392 0.027141 -0.032094 0.549096 -0.665390 -0.081334 -0.105552 -0.043442 0.368899 0.342546 -0.155984 0.411657 0.446567 0.660211 -0.028390 -0.148955 -0.046553 0.285899 0.097596 -0.059488 0.696467 -0.407066 0.613381 -0.205242 0.414185 -0.192321 -0.262976 0.239525 -0.110014 -0.141168 0.264140 -0.417467 0.311327 -0.196434 -0.539524 -0.241900 -0.452592 -0.447712 -0.394177 0.083896 -0.400688 -0.198902 0.402903 0.050464 0.058612 0.041135 -0.303078 0.155205 0.076265 -0.251912 -0.189050 -0.367175 0.103841 0.453861 -0.450638 -0.287953 -0.082374 -0.207029 0.285729 0.345884 -0.301419 0.518535 -0.371413 -0.075299 -0.090839 -0.193408 0.077531 0.219674 0.489530 0.324075 0.129616 -0.016453 -0.179979 0.438643 -0.150702 -0.187585 -0.141244 -0.259686 0.148987 0.393075 -0.138573 -0.219657 0.168137 -0.364957 -0.049979 0.049530 0.145138 0.029915 -0.364679 0.075908 0.341712 -0.351644 0.154701 -0.131513 -0.380402 0.214646 
BetoORourke 0.136133 -0.123574 0.281810 0.102424 0.817729 -0.081342 0.399240 0.132546 -0.159921 -0.370185 -0.113296 0.378539 0.088395 0.600851 -0.320216 0.057412 -0.109941 0.262060 -0.082757 0.604333 0.539427 0.119440 0.263565 -0.240071 -0.022412 -0.075566 0.025094 -0.094715 -0.235008 -0.421535 -0.441808 0.156237 0.141769 0.129049 0.673289 0.344162 -0.035001 -0.106086 -0.204464 -0.215145 0.263155 -0.125582 0.495564 0.134649 -0.349932 -0.095184 0.059755 -0.255820 -0.217232 -0.243870 0.383642 0.234433 -0.093880 0.250602 0.190182 -0.411924 -0.434185 -0.449573 -0.137406 0.097225 -0.416398 0.323795 -0.406932 -0.158667 -0.221710 0.031650 -0.001142 -0.189419 0.293564 -0.356126 0.176699 0.110695 -0.110981 0.222513 -0.065034 -0.231299 0.064485 -0.088026 -0.170503 0.024811 0.226624 0.375156 0.120310 0.038806 -0.228996 0.152816 -0.500889 0.220358 0.216555 0.064440 -0.450316 0.125789 0.064088 -0.299319 0.039005 0.292485 0.272062 0.281270 -0.250182 -0.359035 0.044826 0.031854 0.150627 0.287669 -0.324110 0.028662 -0.040265 0.563309 -0.709834 -0.084155 -0.110830 -0.039465 0.367205 0.340385 -0.150197 0.425839 0.437483 0.652838 -0.021034 -0.157003 -0.036172 0.230002 0.070730 -0.056810 0.558988 -0.315423 0.484840 -0.169887 0.305440 -0.141027 -0.168708 0.181632 -0.068465 -0.105298 0.197499 -0.308050 0.228345 -0.147410 -0.386458 -0.186014 -0.315498 -0.328875 -0.287033 0.078756 -0.284943 -0.143798 0.278131 0.039982 0.036358 0.031590 -0.205860 0.107054 0.061353 -0.213566 -0.179453 -0.335677 0.096096 0.402368 -0.414658 -0.253274 -0.068637 -0.182130 0.256344 0.316785 -0.247332 0.447664 -0.321980 -0.063379 -0.121363 -0.217025 0.107776 0.255179 0.595663 0.388462 0.147713 -0.018550 -0.214766 0.538158 -0.207509 -0.230397 -0.149351 -0.316349 0.166772 0.483698 -0.160809 -0.276179 0.235518 -0.467847 -0.058614 0.090118 0.201226 0.042235 -0.463674 0.090551 0.430565 -0.436024 0.200399 -0.169633 -0.500312 0.271476 
ConservativeDemocrat 0.116994 -0.108248 0.203760 0.064737 0.571839 -0.052145 0.291235 0.103490 -0.171206 -0.401409 -0.121155 0.411419 0.102653 0.658576 -0.348857 0.058151 -0.119208 0.283017 -0.094246 0.670534 0.597980 0.128258 0.290066 -0.257592 -0.023614 -0.061890 0.019039 -0.097689 -0.222435 -0.400091 -0.405296 0.148142 0.134121 0.115929 0.640533 0.332423 -0.032145 -0.101581 -0.185447 -0.205706 0.205010 -0.098578 0.400234 0.102215 -0.285010 -0.074118 0.053904 -0.209322 -0.162949 -0.189447 0.295613 0.176683 -0.078426 0.197397 0.142393 -0.318229 -0.362249 -0.376255 -0.109749 0.078648 -0.347432 0.277951 -0.341430 -0.132192 -0.193604 0.016967 -0.001486 -0.155986 0.239060 -0.291789 0.139017 0.098779 -0.080427 0.179526 -0.055081 -0.185040 0.056918 -0.067816 -0.145793 0.011147 0.181862 0.281146 0.091467 0.039763 -0.170574 0.118613 -0.384276 0.171699 0.225056 0.066416 -0.501380 0.133229 0.067730 -0.319720 0.054556 0.320392 0.244735 0.252697 -0.226077 -0.326381 0.042883 0.033178 0.150856 0.266752 -0.230651 0.015159 -0.022412 0.385944 -0.474039 -0.061461 -0.076406 -0.022801 0.248696 0.233886 -0.104949 0.291698 0.309299 0.462994 -0.015572 -0.100002 -0.026361 0.190276 0.060659 -0.040851 0.470334 -0.270232 0.408475 -0.144682 0.262291 -0.113097 -0.165757 0.150338 -0.062868 -0.087399 0.175154 -0.264414 0.257928 -0.166970 -0.453182 -0.212678 -0.381209 -0.371399 -0.345292 0.082711 -0.345644 -0.171322 0.352309 0.036192 0.035521 0.034645 -0.253002 0.130063 0.062906 -0.199272 -0.164804 -0.303622 0.087955 0.370195 -0.384486 -0.239860 -0.075063 -0.178456 0.260730 0.307590 -0.255318 0.453448 -0.322572 -0.066917 -0.106940 -0.195311 0.082385 0.233502 0.535283 0.347363 0.128768 -0.023064 -0.192700 0.489117 -0.177196 -0.212213 -0.146457 -0.282175 0.155044 0.429843 -0.153565 -0.263275 0.215489 -0.439994 -0.066245 0.078948 0.190304 0.037166 -0.436215 0.083165 0.396026 -0.405027 0.189691 -0.147068 -0.458437 0.253719 
