15 200
BaemyKlobaechar 0.047669 -0.227855 0.185095 0.016679 0.686094 -0.024344 0.489683 0.238189 0.017969 -0.534219 -0.189785 0.584005 -0.065466 0.662722 -0.380913 0.209928 -0.147095 0.292931 -0.072943 0.344734 0.405121 0.209711 0.195492 -0.133246 -0.107330 -0.068151 -0.199537 -0.085264 -0.190976 -0.319715 -0.322037 0.129960 -0.010167 0.161158 0.700122 0.287235 -0.238510 -0.217511 -0.363064 -0.194047 0.177666 0.009487 0.313855 0.214009 -0.386844 -0.166293 -0.064292 -0.218440 -0.039459 -0.107024 0.177625 0.021809 -0.163257 0.058777 0.109746 -0.217711 -0.321530 -0.150286 -0.202582 0.098561 -0.361642 0.226029 -0.354327 -0.079554 -0.156805 0.036230 -0.091624 -0.117528 0.136785 -0.337820 0.077352 -0.015179 -0.029480 0.109767 -0.022739 -0.087961 0.023030 0.039020 -0.133386 0.010831 0.062591 0.008667 -0.003239 0.039008 0.049108 -0.026498 -0.060826 -0.008847 0.294488 0.099321 -0.488019 0.186937 0.062380 -0.265740 -0.018560 0.260123 0.237147 0.216559 -0.366517 -0.425452 -0.066309 0.234122 0.165778 0.144001 -0.082896 0.025860 -0.005385 0.197115 -0.308088 -0.118161 0.005176 0.093416 0.030922 0.089175 0.006456 0.302030 0.137351 0.336666 0.042851 -0.069857 0.000950 0.244867 -0.064236 -0.067614 0.723156 -0.298606 0.458545 -0.304434 0.284849 0.009283 -0.100102 0.168079 0.021757 -0.138312 0.276788 -0.221028 0.185772 -0.142150 -0.363815 -0.259926 -0.256246 -0.322075 -0.409780 0.155217 -0.459766 -0.162260 0.427926 0.003303 0.008384 0.154815 -0.082871 0.057802 0.121692 -0.062349 -0.127844 -0.172867 0.037512 0.165035 -0.334860 -0.113719 -0.001755 -0.128115 0.238286 0.254705 -0.093374 0.204509 -0.143730 -0.003582 0.004837 -0.057522 0.011338 0.161092 0.201574 0.156558 0.053776 -0.046813 -0.189851 0.386017 -0.238619 -0.169658 -0.015399 -0.175218 0.016881 0.184659 0.013531 -0.159791 0.408306 -0.437646 -0.029655 0.319561 0.374900 0.081936 -0.408839 -0.056610 0.542389 -0.463050 0.410489 -0.078878 -0.631778 0.241756 
politics 0.066679 -0.171114 0.172266 0.055778 0.430234 0.014276 0.245811 0.077785 -0.065509 -0.807544 -0.209396 0.879614 -0.066771 0.936631 -0.560226 0.309157 -0.246194 0.484737 -0.126443 0.580833 0.696664 0.320495 0.307840 -0.227319 -0.194332 -0.127446 -0.290641 -0.185202 -0.394116 -0.673787 -0.672834 0.231224 0.037562 0.202855 0.801415 0.311810 -0.235287 -0.206499 -0.391040 -0.216886 0.284327 -0.020382 0.479700 0.286470 -0.506970 -0.201480 -0.081299 -0.237934 -0.229283 -0.330338 0.513664 0.214363 -0.374644 0.181368 0.283833 -0.627446 -0.439352 -0.254249 -0.330072 0.136638 -0.535210 0.311641 -0.527994 -0.100928 -0.165041 0.070767 -0.084539 -0.180928 0.239666 -0.459101 0.146587 0.034140 -0.247846 0.549890 -0.059056 -0.644457 0.019749 -0.044196 -0.566077 0.083402 0.357439 0.704209 0.129990 0.112011 -0.349845 0.281004 -0.906817 0.308051 0.265006 0.100648 -0.460541 0.172674 0.013353 -0.258592 -0.036024 0.249219 0.131949 0.127148 -0.204990 -0.215945 0.005171 0.103317 0.090305 0.101184 -0.154284 -0.002794 -0.099943 0.486776 -0.711314 -0.265450 -0.114222 0.108077 0.072667 0.221678 -0.009520 0.483883 0.282952 0.602590 0.066121 -0.164114 -0.017966 0.182076 -0.032732 -0.105684 0.581925 -0.240169 0.405211 -0.239775 0.301780 -0.024920 -0.103223 0.210169 0.021142 -0.109788 0.343723 -0.279988 0.156915 -0.143580 -0.317003 -0.252699 -0.244518 -0.264409 -0.367925 0.123525 -0.611270 -0.186540 0.606369 -0.008755 -0.018989 0.177189 -0.143592 0.084168 0.079253 -0.096051 -0.195287 -0.277158 0.125020 0.229938 -0.448130 -0.201584 -0.022832 -0.224951 0.401735 0.474699 -0.205227 0.415956 -0.295202 -0.044043 -0.099617 -0.141649 0.009698 0.446593 0.732277 0.514821 0.142518 -0.138939 -0.223673 0.580909 -0.340980 -0.282738 -0.021185 -0.265400 0.034466 0.290913 -0.001594 -0.110308 0.281908 -0.289623 -0.020220 0.206513 0.242719 0.061211 -0.277116 -0.017942 0.283273 -0.249098 0.196960 -0.033178 -0.227110 0.096464 
YangForPresidentHQ 0.051286 -0.073865 0.071163 -0.012782 0.728254 -0.093742 0.348775 0.276979 -0.038632 -0.391996 -0.108225 0.491634 -0.033231 0.468830 -0.318516 0.147751 -0.168118 0.381886 -0.042678 0.509519 0.557888 0.284592 0.283190 -0.204454 -0.116397 -0.039255 -0.146320 -0.131410 -0.300376 -0.433033 -0.488126 0.127627 0.086823 0.168503 0.834634 0.338384 -0.199403 -0.209342 -0.387534 -0.314674 0.348515 0.016831 0.575528 0.350706 -0.612988 -0.231233 -0.077896 -0.312312 -0.179983 -0.205183 0.325039 0.157066 -0.227989 0.176144 0.115232 -0.439113 -0.384508 -0.277316 -0.247642 0.119149 -0.457410 0.254514 -0.411618 -0.149300 -0.174923 -0.010127 -0.056165 -0.077980 0.214581 -0.530476 0.221635 -0.029116 -0.107331 0.389440 -0.102283 -0.418026 0.030006 0.012247 -0.419806 0.026380 0.330824 0.472675 0.110371 0.161317 -0.201909 0.193809 -0.723238 0.223150 0.331548 0.075033 -0.509053 0.218763 0.025838 -0.250341 0.001404 0.282732 0.192087 0.209461 -0.248645 -0.348835 -0.032623 0.144721 0.141105 0.123081 -0.231428 0.020481 -0.077976 0.493827 -0.759303 -0.284165 -0.112718 0.133720 0.081597 0.199409 -0.013616 0.444598 0.222155 0.495175 0.053327 -0.076449 -0.008536 0.048853 -0.006874 -0.015828 0.132633 -0.068211 0.086135 -0.019131 0.027521 -0.021376 0.000213 0.012205 -0.006488 -0.000897 0.035856 -0.054560 0.338727 -0.284110 -0.662042 -0.508714 -0.516897 -0.562258 -0.752919 0.307838 -0.233821 -0.095946 0.253285 -0.009018 -0.021406 0.057391 -0.071523 0.050875 0.175723 -0.075794 -0.291871 -0.325653 0.081283 0.278057 -0.531792 -0.268452 -0.036498 -0.126670 0.287358 0.281071 -0.182269 0.289939 -0.248678 -0.091466 -0.018631 -0.115873 0.015111 0.272894 0.453245 0.361201 0.090509 -0.104019 -0.155089 0.374817 -0.229339 -0.168941 0.018289 -0.189825 0.062288 0.235528 -0.017845 -0.176284 0.393658 -0.406626 -0.014865 0.318251 0.373732 0.079411 -0.248361 -0.001040 0.364039 -0.359866 0.260940 -0.053320 -0.539971 0.212072 
SandersForPresident 0.063249 -0.292729 0.224781 0.017732 0.718663 -0.046125 0.510169 0.268719 -0.048852 -0.652779 -0.181545 0.742836 -0.051000 0.758535 -0.475649 0.253087 -0.233020 0.495905 -0.106595 0.577643 0.676028 0.347812 0.318602 -0.227182 -0.095249 -0.045297 -0.122229 -0.098862 -0.189418 -0.307635 -0.311767 0.094851 0.029529 0.094732 0.397725 0.156574 -0.101617 -0.103369 -0.186079 -0.126733 0.225733 0.006527 0.386363 0.235827 -0.426655 -0.173203 -0.063745 -0.212147 -0.131319 -0.181098 0.296445 0.109271 -0.224418 0.129957 0.130428 -0.380254 -0.454725 -0.286642 -0.327281 0.150236 -0.564102 0.332822 -0.527688 -0.140619 -0.183633 0.037111 -0.089123 -0.137976 0.213515 -0.485258 0.157974 0.004105 -0.161831 0.356104 -0.052650 -0.425267 0.025299 -0.026669 -0.358267 0.056363 0.225077 0.480614 0.109040 0.086184 -0.252580 0.203156 -0.601829 0.209662 0.380316 0.093593 -0.529436 0.259539 0.006712 -0.282835 -0.030276 0.301350 0.200562 0.231717 -0.271085 -0.376871 -0.024877 0.135232 0.140093 0.129480 -0.126108 -0.002428 -0.060587 0.326203 -0.475181 -0.180780 -0.101828 0.047734 0.071458 0.170388 -0.001269 0.361537 0.222563 0.437129 0.057824 -0.115873 -0.002138 0.162737 -0.038343 -0.089723 0.508637 -0.200097 0.353935 -0.226382 0.191552 -0.004470 -0.067559 0.127188 0.014699 -0.073809 0.213284 -0.153913 0.182327 -0.160850 -0.346871 -0.285521 -0.266498 -0.316484 -0.427510 0.159799 -0.599737 -0.186914 0.592935 -0.010090 -0.023377 0.189939 -0.121838 0.079975 0.126842 -0.084874 -0.212302 -0.299722 0.104179 0.246199 -0.507362 -0.203783 -0.016779 -0.220319 0.395742 0.439343 -0.172385 0.365615 -0.257729 -0.043074 -0.070301 -0.092421 0.003516 0.311157 0.495812 0.340607 0.069901 -0.118377 -0.157631 0.423546 -0.228129 -0.183039 -0.037653 -0.166118 0.012230 0.203753 0.010479 -0.159946 0.405389 -0.434004 -0.054908 0.325261 0.386573 0.077417 -0.372109 -0.059734 0.430396 -0.376765 0.340174 -0.050692 -0.527675 0.208836 
centerleftpolitics -0.019939 -0.212266 0.189445 0.049255 0.612174 0.005400 0.495304 0.230299 0.003792 -0.806425 -0.243201 0.853035 -0.107788 0.938054 -0.546432 0.331696 -0.162130 0.312021 -0.110783 0.299777 0.398921 0.223275 0.159583 -0.119430 -0.112664 -0.103721 -0.219735 -0.076375 -0.149420 -0.283095 -0.258673 0.121867 -0.055339 0.205121 0.663328 0.252626 -0.262779 -0.206926 -0.390162 -0.135463 0.040663 -0.001526 0.036064 0.054108 -0.120853 -0.088525 -0.063087 -0.041239 0.050280 -0.006385 0.017082 -0.043004 -0.049388 -0.076024 0.094581 0.011816 -0.518951 -0.223921 -0.390092 0.182004 -0.632374 0.361052 -0.621448 -0.097393 -0.213603 0.124527 -0.139844 -0.230671 0.242906 -0.503812 0.116486 0.015937 -0.115716 0.190161 0.029109 -0.172047 0.020176 0.048935 -0.240503 0.056399 0.125499 0.129052 -0.028909 0.032162 0.018089 -0.015603 -0.186593 0.001535 0.173055 0.106204 -0.332126 0.092641 0.063836 -0.218495 -0.049829 0.157683 0.198873 0.140224 -0.357131 -0.338939 -0.058536 0.248069 0.117718 0.123341 -0.077025 0.015497 -0.048729 0.352000 -0.536527 -0.206916 -0.016655 0.143237 0.034866 0.161500 0.020117 0.508687 0.237554 0.600046 0.074345 -0.181353 0.001965 0.136013 -0.081794 -0.007812 0.390594 -0.136095 0.180092 -0.188405 0.218218 0.041152 -0.066486 0.136583 0.007045 -0.137836 0.193996 -0.146195 0.083597 -0.075925 -0.203674 -0.115981 -0.113357 -0.182376 -0.212410 0.077731 -0.390145 -0.133254 0.317647 0.030930 0.055653 0.134230 -0.033705 0.011893 0.181608 -0.102183 -0.183330 -0.284988 0.077866 0.250469 -0.559096 -0.164638 0.017634 -0.281867 0.493977 0.562565 -0.160605 0.401793 -0.285792 0.021017 0.067843 -0.015732 0.012019 0.071424 -0.043683 0.000668 0.043862 0.016693 -0.232074 0.374811 -0.277438 -0.163709 0.012856 -0.191157 -0.009787 0.128528 0.052707 -0.204798 0.623697 -0.628447 0.009415 0.459980 0.516024 0.127999 -0.573008 -0.082655 0.848845 -0.682606 0.594732 -0.115292 -0.856403 0.333892 
Pete_Buttigieg 0.094594 -0.258420 0.204773 0.006268 0.551628 -0.037278 0.230485 0.096490 -0.014646 -0.277046 -0.090121 0.319209 -0.012545 0.351876 -0.209789 0.095509 -0.143175 0.297037 -0.059562 0.407609 0.446598 0.203124 0.216704 -0.154353 -0.092474 -0.051363 -0.126520 -0.093664 -0.212913 -0.338334 -0.351401 0.117020 0.036777 0.056050 0.307928 0.133236 -0.074116 -0.077502 -0.134346 -0.108467 0.179556 -0.000047 0.319184 0.187143 -0.339487 -0.132130 -0.041355 -0.184652 -0.119646 -0.161947 0.260002 0.101081 -0.186765 0.114725 0.118757 -0.335121 -0.405111 -0.264346 -0.258411 0.122032 -0.470249 0.289619 -0.443425 -0.132868 -0.166053 0.016653 -0.074366 -0.108487 0.194064 -0.437258 0.152277 -0.004747 -0.109177 0.326444 -0.073364 -0.345293 0.036995 0.002655 -0.332490 0.024838 0.206828 0.333525 0.080912 0.095849 -0.149329 0.128764 -0.469661 0.158834 0.335080 0.092039 -0.537202 0.222158 0.040539 -0.280593 -0.008825 0.296362 0.252684 0.259143 -0.361102 -0.467468 -0.052763 0.207164 0.195450 0.172618 -0.111850 0.006800 -0.013671 0.198572 -0.303310 -0.112464 -0.033646 0.056188 0.073724 0.153239 -0.007499 0.364957 0.210828 0.424866 0.053468 -0.080514 -0.005664 0.336115 -0.065156 -0.148950 1.009990 -0.418652 0.684295 -0.411708 0.447388 -0.030069 -0.142396 0.286451 0.021575 -0.181299 0.479421 -0.392713 0.264079 -0.226695 -0.518420 -0.400032 -0.394769 -0.444149 -0.597076 0.224692 -0.667857 -0.226781 0.659234 -0.001232 -0.018837 0.185401 -0.164040 0.098460 0.056597 -0.090572 -0.168074 -0.245926 0.106154 0.206787 -0.380210 -0.168029 -0.017703 -0.137828 0.236586 0.293480 -0.116244 0.259653 -0.195869 -0.028040 -0.047567 -0.092059 0.028296 0.243416 0.405921 0.285526 0.080844 -0.073965 -0.157376 0.367597 -0.218443 -0.167695 -0.010211 -0.172736 0.033258 0.198936 0.000221 -0.071922 0.175591 -0.187811 0.011718 0.124412 0.142936 0.025379 -0.345538 -0.010293 0.369912 -0.334475 0.256177 -0.057171 -0.448667 0.176630 
moderatepolitics 0.033143 -0.292373 0.131874 0.011719 0.413439 0.018996 0.514294 0.229521 0.037966 -0.561703 -0.235128 0.611756 -0.047936 0.732987 -0.419000 0.204117 -0.209853 0.403662 -0.087005 0.498091 0.555529 0.276386 0.274889 -0.177933 -0.088445 -0.063967 -0.180359 -0.068848 -0.148754 -0.266450 -0.252114 0.121101 -0.014417 0.136342 0.638406 0.267680 -0.223256 -0.203148 -0.310836 -0.163011 0.223884 0.008036 0.397687 0.255309 -0.470115 -0.198278 -0.071743 -0.267347 -0.066213 -0.147848 0.242757 0.049624 -0.208904 0.083896 0.139028 -0.297389 -0.585725 -0.315912 -0.387521 0.188405 -0.681301 0.422273 -0.655960 -0.162444 -0.228854 0.070053 -0.126554 -0.188119 0.228902 -0.527839 0.131898 0.008145 0.013795 0.009290 0.018876 0.057004 0.032158 0.058346 -0.028701 -0.008618 0.069924 -0.012264 -0.034636 0.035874 0.071996 -0.044597 -0.028858 -0.028106 0.412600 0.143170 -0.674419 0.260199 0.062642 -0.383631 -0.039174 0.367057 0.180564 0.158744 -0.300784 -0.325301 -0.043992 0.202613 0.124146 0.128185 -0.140339 0.020244 -0.047593 0.395593 -0.583724 -0.221198 -0.052417 0.132011 0.067305 0.192851 0.007418 0.522342 0.265870 0.617203 0.070852 -0.155882 0.013417 0.157064 -0.056602 -0.002345 0.441039 -0.182013 0.245817 -0.188053 0.221478 0.030862 -0.089111 0.112584 0.011350 -0.135044 0.190256 -0.153441 0.181907 -0.132230 -0.368803 -0.239452 -0.251766 -0.334531 -0.406931 0.164193 -0.319825 -0.122306 0.281210 0.003284 0.015295 0.141950 -0.028717 0.028547 0.172800 -0.046621 -0.104738 -0.125500 -0.020506 0.152193 -0.320833 -0.078183 0.002432 -0.112664 0.223089 0.194777 -0.062853 0.148559 -0.094131 0.008573 0.015435 -0.121530 0.003793 0.361367 0.442318 0.346367 0.086621 -0.122611 -0.288628 0.543153 -0.326060 -0.228728 -0.037845 -0.245782 0.018987 0.249889 0.026407 -0.163543 0.425491 -0.456553 -0.039399 0.329988 0.383974 0.087874 -0.367279 -0.060292 0.489250 -0.400669 0.375688 -0.067007 -0.511215 0.209169 
ElizabethWarren 0.040655 -0.155629 0.141876 0.010530 0.470436 -0.057631 0.240554 0.201896 -0.016674 -0.153155 0.004651 0.161233 -0.026944 0.135100 -0.099258 0.063788 0.009163 0.011449 -0.011389 0.024799 0.032513 0.035030 0.005619 -0.008774 -0.065690 -0.013736 -0.105387 -0.072314 -0.142199 -0.187479 -0.194570 0.059976 -0.005975 0.102518 0.359674 0.150856 -0.105687 -0.091075 -0.220295 -0.131657 0.276708 0.019150 0.412665 0.269446 -0.530274 -0.232765 -0.104549 -0.230385 -0.086724 -0.145457 0.210617 0.075521 -0.200163 0.068551 0.138030 -0.281054 -0.284235 -0.144751 -0.192326 0.083046 -0.343042 0.171924 -0.327630 -0.069812 -0.158093 0.021149 -0.079227 -0.104005 0.159111 -0.379024 0.115202 -0.019346 -0.108964 0.294385 -0.059337 -0.318816 0.013507 0.025147 -0.340904 0.035201 0.168333 0.238724 0.048054 0.081665 -0.083444 0.078505 -0.357583 0.099281 0.207251 0.053619 -0.303081 0.129789 0.023205 -0.155525 0.001609 0.168414 0.245823 0.254758 -0.344445 -0.458879 -0.052969 0.214633 0.185080 0.157122 -0.157072 0.008115 -0.073723 0.383659 -0.589598 -0.236033 -0.098648 0.090238 0.066465 0.180394 0.002312 0.400753 0.201629 0.458899 0.047547 -0.093673 -0.007228 0.212058 -0.059050 -0.068217 0.651513 -0.278476 0.431704 -0.283924 0.137571 0.018992 -0.060665 0.087718 0.022354 -0.046936 0.153189 -0.093130 0.111816 -0.090105 -0.226129 -0.170279 -0.164186 -0.194691 -0.279458 0.099563 -0.411096 -0.150684 0.403499 -0.015821 -0.014981 0.121392 -0.082844 0.047772 0.113144 -0.041778 -0.156246 -0.173362 0.048506 0.156044 -0.332889 -0.131005 -0.014508 -0.130731 0.286438 0.286255 -0.127467 0.257076 -0.185589 -0.031573 -0.055434 -0.088865 0.005973 0.281619 0.464724 0.335643 0.091009 -0.104662 -0.192317 0.500641 -0.288631 -0.233694 -0.023376 -0.205952 0.025563 0.247694 0.011950 -0.119004 0.327559 -0.349903 -0.032175 0.248137 0.315878 0.049563 -0.344973 -0.041802 0.399441 -0.377698 0.324619 -0.039674 -0.575488 0.220235 
progressive -0.026249 -0.009909 0.043633 0.022793 0.362561 -0.011321 0.284070 0.209171 -0.018958 -0.564156 -0.164028 0.652030 -0.078320 0.654626 -0.402208 0.239368 -0.192506 0.398985 -0.093104 0.447201 0.556315 0.288674 0.249601 -0.181680 -0.076209 -0.066946 -0.119572 -0.058442 -0.118647 -0.205232 -0.216497 0.075345 0.010547 0.163333 0.629641 0.241555 -0.207289 -0.172658 -0.342390 -0.177073 0.282914 0.011779 0.436828 0.291080 -0.525617 -0.240992 -0.118277 -0.251563 -0.104244 -0.167606 0.279543 0.107207 -0.226857 0.067972 0.163197 -0.346039 -0.518216 -0.286734 -0.377560 0.186002 -0.629296 0.361441 -0.588860 -0.150929 -0.188060 0.073467 -0.112236 -0.161697 0.212271 -0.509431 0.144964 -0.007407 -0.174312 0.450555 -0.060513 -0.469393 0.047039 0.018588 -0.456249 0.065909 0.420340 0.680173 0.121987 0.180396 -0.285853 0.257001 -0.945678 0.272962 0.429476 0.121191 -0.621773 0.286265 0.035429 -0.339067 -0.050717 0.339986 0.305438 0.323722 -0.452496 -0.556771 -0.056315 0.253207 0.186647 0.178638 -0.046141 0.009497 -0.020196 0.160513 -0.247562 -0.085344 -0.025150 0.051751 0.021930 0.070191 -0.000126 0.194884 0.092744 0.215413 0.038875 -0.069013 -0.000271 0.119774 -0.042549 -0.049032 0.347578 -0.118120 0.195103 -0.128570 0.061977 0.003083 0.005869 0.036385 -0.005185 -0.043825 0.051367 -0.054602 0.145281 -0.138941 -0.286207 -0.232140 -0.214965 -0.259135 -0.334579 0.144398 -0.329899 -0.099540 0.311556 0.016127 0.010348 0.090944 -0.057238 0.040484 0.101756 -0.065392 -0.168659 -0.244604 0.081688 0.183488 -0.400486 -0.159007 -0.000723 -0.171341 0.298332 0.345961 -0.118628 0.256939 -0.207277 -0.030425 0.016825 -0.043861 0.012285 0.111919 0.134278 0.120057 0.036613 -0.032943 -0.132873 0.260796 -0.184430 -0.103811 0.034530 -0.128008 0.016920 0.126536 0.023143 -0.146058 0.431969 -0.409802 0.018881 0.345128 0.368701 0.090129 -0.400036 -0.046483 0.583105 -0.471017 0.380568 -0.068538 -0.697966 0.254751 
JoeBiden 0.003470 -0.184533 0.132768 0.043991 0.186980 0.032954 0.322364 0.083720 0.068928 -0.219796 -0.081073 0.163943 -0.053845 0.274395 -0.110782 0.093993 0.038381 -0.108133 -0.032552 -0.162657 -0.162745 -0.063310 -0.108508 0.072818 -0.101658 -0.104658 -0.235715 -0.066342 -0.131890 -0.239539 -0.199040 0.129662 -0.075663 0.205226 0.703683 0.289136 -0.290807 -0.225951 -0.421570 -0.148812 0.171403 0.006344 0.260975 0.183606 -0.387693 -0.193511 -0.093935 -0.181305 0.029654 -0.051104 0.077781 -0.028502 -0.106072 -0.050765 0.139521 -0.072636 -0.432282 -0.144539 -0.299375 0.140894 -0.495608 0.291834 -0.516108 -0.057214 -0.218889 0.110522 -0.136380 -0.216643 0.212231 -0.445180 0.080591 0.018664 -0.074191 0.134976 0.034576 -0.072535 0.025881 0.101664 -0.236912 0.036165 0.059096 -0.139735 -0.105471 0.015759 0.201425 -0.157812 0.107392 -0.124152 0.431911 0.195965 -0.770733 0.245164 0.124258 -0.459413 -0.059080 0.397374 0.442938 0.364347 -0.730902 -0.796911 -0.131449 0.510271 0.303077 0.283538 -0.050305 0.037178 0.003368 0.233536 -0.363010 -0.165818 0.069045 0.193409 -0.016881 0.072601 0.048409 0.438194 0.143596 0.494714 0.049395 -0.118811 0.021494 0.225797 -0.113649 0.021925 0.636710 -0.257649 0.325885 -0.312787 0.172006 0.088630 -0.085667 0.074786 0.015972 -0.138377 0.112763 -0.051235 0.157538 -0.110937 -0.349897 -0.200533 -0.204044 -0.318117 -0.388935 0.147404 -0.535931 -0.211157 0.450087 0.014413 0.044517 0.210769 -0.042157 0.025423 0.248590 -0.081874 -0.142021 -0.185164 -0.007581 0.215761 -0.499061 -0.098036 0.020267 -0.217996 0.421452 0.427979 -0.098654 0.296282 -0.195626 0.053626 0.125395 -0.011487 0.004991 0.052102 -0.155373 -0.063216 0.028368 0.018147 -0.268051 0.339340 -0.255337 -0.146687 -0.019603 -0.175184 -0.018213 0.092548 0.077884 -0.296635 0.839393 -0.882422 -0.036113 0.633602 0.727925 0.174827 -0.779741 -0.127677 1.198657 -1.004854 0.920960 -0.176705 -1.258057 0.491603 
Kamala -0.004057 -0.054948 0.119073 0.060510 0.303568 0.047167 0.305275 0.135553 0.061306 -0.489184 -0.182094 0.494304 -0.090756 0.605151 -0.308196 0.203566 -0.037087 0.034971 -0.056775 0.007924 0.061022 0.028556 0.002073 -0.002718 -0.131779 -0.135899 -0.269093 -0.084763 -0.183414 -0.341232 -0.317282 0.164167 -0.043667 0.261967 0.999534 0.401140 -0.382388 -0.305849 -0.571320 -0.240312 0.187467 0.005741 0.303803 0.216015 -0.419804 -0.210221 -0.111177 -0.208775 0.028707 -0.058720 0.105142 -0.012840 -0.124430 -0.057910 0.152815 -0.094443 -0.328094 -0.085344 -0.227091 0.113645 -0.355892 0.223711 -0.380761 -0.034555 -0.176840 0.102968 -0.130804 -0.189030 0.156224 -0.343007 0.030107 0.008163 -0.078737 0.215405 0.009799 -0.147043 0.044378 0.097338 -0.272804 0.036335 0.135793 -0.001798 -0.068209 0.055619 0.129177 -0.083658 -0.088872 -0.055371 0.476371 0.193437 -0.811314 0.284233 0.114918 -0.470418 -0.069437 0.423740 0.545356 0.499912 -0.865100 -0.973664 -0.138593 0.552987 0.358107 0.331486 -0.074940 0.026766 -0.030489 0.351630 -0.519851 -0.197302 0.004330 0.175735 0.021957 0.149518 0.023212 0.498555 0.220257 0.586826 0.070038 -0.176604 0.011688 0.256746 -0.100131 -0.032384 0.733846 -0.287106 0.388467 -0.308776 0.176282 0.050376 -0.061827 0.085855 -0.011185 -0.130714 0.133215 -0.105428 0.090097 -0.086028 -0.246828 -0.134496 -0.145248 -0.202588 -0.247495 0.085200 -0.448731 -0.161885 0.377795 0.036949 0.059451 0.140896 -0.057294 0.025797 0.165024 -0.107692 -0.128798 -0.204433 0.046545 0.204642 -0.443518 -0.119619 0.019629 -0.192493 0.329490 0.393742 -0.096718 0.266522 -0.197727 0.044762 0.138158 0.026687 0.018697 -0.120877 -0.372833 -0.223556 0.009210 0.095012 -0.198539 0.216937 -0.206447 -0.099073 0.040279 -0.146393 0.008518 0.060228 0.059888 -0.283092 0.797894 -0.807055 0.014955 0.609054 0.668903 0.173678 -0.810299 -0.093379 1.226817 -1.009034 0.863394 -0.179493 -1.303655 0.480065 
SocialDemocracy 0.063858 -0.314033 0.246130 0.018697 0.871743 -0.026882 0.635470 0.351475 -0.003333 -0.817449 -0.267558 0.930299 -0.091969 0.997426 -0.593448 0.335938 -0.256879 0.520504 -0.116197 0.610435 0.727806 0.363649 0.332667 -0.230368 -0.200102 -0.127014 -0.314944 -0.184619 -0.374833 -0.621349 -0.634668 0.213931 0.031119 0.282002 1.192521 0.467743 -0.366235 -0.330846 -0.593395 -0.336654 0.321170 0.009026 0.526497 0.342513 -0.617179 -0.270427 -0.115214 -0.309013 -0.133905 -0.224425 0.362206 0.121587 -0.300187 0.107556 0.204834 -0.456588 -0.492034 -0.261246 -0.335885 0.159101 -0.574465 0.347192 -0.556111 -0.136049 -0.195091 0.066270 -0.108390 -0.169032 0.210913 -0.502622 0.136596 0.006882 -0.010308 0.049515 0.009883 -0.005718 0.019948 0.031322 -0.056432 0.002990 0.079394 0.030150 -0.028002 0.040011 0.035119 -0.012086 -0.081922 -0.009842 0.221840 0.086577 -0.376137 0.143408 0.030296 -0.207286 -0.034235 0.205754 0.175918 0.160929 -0.290815 -0.324164 -0.036968 0.183145 0.121334 0.103393 -0.066073 0.001674 -0.042570 0.256736 -0.360710 -0.138718 -0.039112 0.073710 0.026712 0.111692 0.000220 0.294878 0.164219 0.375252 0.034151 -0.104983 -0.001482 0.183869 -0.076791 -0.040115 0.527061 -0.210425 0.294907 -0.211926 0.207208 0.016223 -0.065810 0.121208 -0.004907 -0.134027 0.194086 -0.172792 0.251617 -0.226931 -0.532271 -0.374849 -0.394530 -0.465390 -0.593309 0.237982 -0.473288 -0.160162 0.437416 0.020082 0.024587 0.153528 -0.073746 0.038586 0.201626 -0.105484 -0.235449 -0.326489 0.074377 0.291591 -0.594407 -0.223646 -0.000306 -0.214061 0.389055 0.425913 -0.156342 0.329083 -0.261027 -0.023020 0.053453 -0.048910 0.001384 0.132106 0.090928 0.101991 0.035510 -0.029154 -0.167602 0.279252 -0.189470 -0.115080 0.009000 -0.149186 0.017943 0.127003 0.030678 -0.214472 0.559855 -0.580277 -0.032166 0.436238 0.501384 0.118815 -0.481644 -0.072105 0.671672 -0.563862 0.481842 -0.088670 -0.739014 0.281383 
demsocialist 0.052983 -0.240802 0.202321 0.038175 0.517818 -0.000554 0.377761 0.196060 -0.032271 -0.622333 -0.171238 0.680289 -0.059469 0.731182 -0.435838 0.248262 -0.176026 0.353422 -0.096956 0.408008 0.493585 0.239953 0.211595 -0.155625 -0.128840 -0.099607 -0.195999 -0.123714 -0.236468 -0.410174 -0.396735 0.137683 0.009927 0.175263 0.636128 0.246700 -0.198012 -0.165583 -0.331745 -0.159706 0.189480 -0.011607 0.294702 0.177338 -0.342842 -0.154991 -0.070370 -0.145173 -0.106388 -0.169337 0.263662 0.109426 -0.203362 0.057764 0.173310 -0.320178 -0.414435 -0.222244 -0.299889 0.136957 -0.500769 0.291262 -0.491623 -0.096408 -0.172099 0.073595 -0.083116 -0.170974 0.221291 -0.448695 0.142036 0.027782 -0.091856 0.172449 0.010344 -0.181758 0.007922 0.005462 -0.204148 0.033587 0.118721 0.163814 -0.006480 0.027958 -0.050666 0.038409 -0.223658 0.051110 0.261554 0.106880 -0.445065 0.165268 0.025380 -0.255369 -0.041578 0.239389 0.208700 0.188621 -0.322768 -0.363738 -0.024287 0.192887 0.139870 0.137883 -0.143574 -0.008558 -0.096230 0.487365 -0.700738 -0.266900 -0.110110 0.109427 0.067535 0.218178 -0.000907 0.500892 0.289337 0.636325 0.060705 -0.181653 -0.008231 0.198777 -0.073679 -0.074451 0.589520 -0.231974 0.358872 -0.252549 0.256416 0.004017 -0.081935 0.168373 0.000234 -0.130593 0.263629 -0.218058 0.127359 -0.123048 -0.281574 -0.194526 -0.207458 -0.244482 -0.315981 0.117565 -0.404607 -0.131304 0.373285 0.016077 0.020755 0.122212 -0.068645 0.031945 0.158759 -0.113612 -0.235590 -0.344195 0.113241 0.293272 -0.598777 -0.230764 -0.006637 -0.255354 0.455431 0.521258 -0.185982 0.413965 -0.312028 -0.026364 0.020163 -0.056121 0.006790 0.166388 0.179419 0.149464 0.058929 -0.031203 -0.147819 0.262736 -0.180415 -0.119392 0.006741 -0.139661 0.011870 0.111621 0.028116 -0.193433 0.528738 -0.540209 -0.010757 0.394398 0.453128 0.105335 -0.505382 -0.058302 0.674382 -0.566795 0.470745 -0.086397 -0.701131 0.278067 
BetoORourke 0.038320 -0.086156 0.080194 0.021817 0.190272 0.015910 0.206338 0.087730 0.013378 -0.422656 -0.147744 0.460538 -0.049866 0.527040 -0.295145 0.164804 -0.131507 0.247955 -0.060896 0.309188 0.359802 0.170986 0.165500 -0.114809 -0.110074 -0.076297 -0.199434 -0.086753 -0.199263 -0.338049 -0.336522 0.133140 0.002702 0.173791 0.738305 0.302045 -0.250223 -0.214465 -0.372521 -0.201983 0.290072 0.001741 0.485085 0.312067 -0.570232 -0.239736 -0.097364 -0.290143 -0.128994 -0.220108 0.345128 0.109225 -0.281016 0.114258 0.200393 -0.429206 -0.372469 -0.181851 -0.249243 0.114317 -0.426068 0.256802 -0.426610 -0.092086 -0.155141 0.050627 -0.091040 -0.138713 0.156668 -0.375731 0.092722 -0.002559 -0.080532 0.260292 -0.031486 -0.239798 0.031142 0.030755 -0.277936 0.021954 0.276187 0.364277 0.046513 0.119149 -0.123024 0.119176 -0.551151 0.146051 0.334635 0.119923 -0.565621 0.215628 0.051651 -0.305414 -0.034641 0.301641 0.223019 0.203781 -0.352068 -0.399666 -0.045022 0.223282 0.151020 0.139160 -0.118680 0.008079 -0.056215 0.341097 -0.511254 -0.190917 -0.047701 0.113080 0.044302 0.140424 -0.003517 0.369398 0.188109 0.443944 0.045120 -0.109493 0.000357 0.170798 -0.062060 -0.026741 0.504481 -0.209497 0.292451 -0.207301 0.179171 0.022628 -0.066860 0.108441 0.010613 -0.104889 0.177806 -0.147224 0.174325 -0.143341 -0.366658 -0.251911 -0.264452 -0.307114 -0.405374 0.155621 -0.319932 -0.115790 0.293797 0.005834 0.013980 0.101916 -0.053367 0.027487 0.161309 -0.085446 -0.196117 -0.252743 0.062475 0.229344 -0.473821 -0.180755 -0.003829 -0.176299 0.338704 0.365404 -0.142008 0.294084 -0.229763 -0.014434 0.009554 -0.091768 0.004818 0.271012 0.352962 0.287583 0.090515 -0.077058 -0.215616 0.409061 -0.266694 -0.193807 0.007083 -0.208620 0.024210 0.195659 0.022596 -0.207448 0.550114 -0.560641 -0.020016 0.418864 0.477543 0.116148 -0.462732 -0.053741 0.652487 -0.552414 0.462505 -0.087084 -0.692869 0.265719 
ConservativeDemocrat 0.016926 -0.148347 0.128917 0.024168 0.463505 -0.017537 0.372085 0.202033 -0.002325 -0.515924 -0.148373 0.574255 -0.069949 0.607855 -0.362196 0.214583 -0.141973 0.293952 -0.081654 0.334849 0.406465 0.221797 0.177801 -0.130216 -0.125781 -0.088012 -0.207482 -0.112191 -0.225436 -0.365494 -0.369137 0.135409 0.000449 0.200134 0.764490 0.301328 -0.247469 -0.212373 -0.408989 -0.216226 0.285193 0.015838 0.444928 0.291908 -0.545132 -0.244564 -0.109882 -0.263671 -0.102025 -0.180023 0.288784 0.089231 -0.243508 0.082042 0.175483 -0.363110 -0.491841 -0.257225 -0.348127 0.163199 -0.591264 0.341255 -0.566076 -0.131101 -0.210115 0.067843 -0.113729 -0.170520 0.233807 -0.541415 0.159157 0.001054 -0.109451 0.246269 -0.025381 -0.260307 0.022009 0.022785 -0.280651 0.044064 0.171281 0.235011 0.026692 0.069399 -0.072426 0.068334 -0.338705 0.076961 0.341919 0.106548 -0.515985 0.217784 0.044311 -0.290298 -0.034086 0.282072 0.264987 0.262733 -0.400473 -0.490725 -0.061017 0.249580 0.174596 0.165034 -0.101622 0.011613 -0.049862 0.297644 -0.449982 -0.171131 -0.051180 0.093284 0.044732 0.130632 0.010321 0.352932 0.171147 0.412727 0.047772 -0.108405 -0.000616 0.189042 -0.069779 -0.059357 0.561963 -0.216139 0.338770 -0.240680 0.181399 0.015339 -0.053670 0.115353 0.004918 -0.090493 0.178237 -0.137131 0.202053 -0.174544 -0.403176 -0.301908 -0.291575 -0.358015 -0.471222 0.184528 -0.495955 -0.171199 0.466266 0.004001 0.005216 0.153461 -0.086866 0.053954 0.139472 -0.068751 -0.168494 -0.220674 0.056894 0.196509 -0.423548 -0.145052 -0.001546 -0.174973 0.331970 0.354335 -0.116354 0.276968 -0.204350 -0.007490 0.013416 -0.058185 0.009586 0.169290 0.203712 0.165419 0.054468 -0.052989 -0.195652 0.387715 -0.244926 -0.169470 -0.006676 -0.179273 0.014573 0.176169 0.026688 -0.176422 0.479299 -0.500321 -0.033681 0.373406 0.431738 0.097399 -0.426784 -0.067375 0.594062 -0.505000 0.454896 -0.080527 -0.681057 0.263257 
