15 200
BaemyKlobaechar -0.192192 0.072395 -0.093800 0.047942 -0.319580 0.110585 -0.072156 0.029698 -0.158619 -0.758357 -0.204164 0.766280 0.021990 0.969970 -0.615842 0.221203 -0.286734 0.554554 -0.096860 0.840999 0.832808 0.329972 0.437827 -0.332270 -0.078041 -0.027443 -0.117502 -0.144981 -0.347902 -0.606107 -0.619768 0.171943 0.084822 0.257582 1.006404 0.422343 -0.160413 -0.237301 -0.363260 -0.288434 0.418790 -0.102538 0.753902 0.381166 -0.682043 -0.204808 0.006820 -0.365490 -0.272440 -0.356896 0.544848 0.221964 -0.292256 0.308893 0.272876 -0.631011 -0.180577 -0.130002 -0.093257 0.042171 -0.194089 0.136115 -0.176212 -0.045184 -0.084917 0.040913 -0.043134 -0.093805 0.102198 -0.160300 0.035429 0.015144 -0.128585 0.276093 -0.053397 -0.316218 -0.000080 -0.075667 -0.262225 0.062168 0.207475 0.372040 0.115893 0.035456 -0.174468 0.145960 -0.534298 0.172667 0.275741 0.098986 -0.546256 0.183693 0.029812 -0.320522 -0.011456 0.289882 0.274509 0.193787 -0.311976 -0.356790 0.006142 0.090941 0.158789 0.195589 -0.107916 -0.001789 -0.039741 0.267389 -0.410177 -0.102463 -0.006911 0.049739 0.142287 0.196611 -0.050645 0.357825 0.253667 0.482605 0.020494 -0.115203 -0.017053 0.135388 -0.012659 -0.004064 0.303873 -0.145333 0.206957 -0.121336 0.160949 -0.050003 -0.071219 0.095149 0.007850 -0.096686 0.080395 -0.149268 0.158385 -0.081157 -0.256038 -0.122475 -0.178576 -0.244955 -0.197099 0.078826 -0.281805 -0.093979 0.229267 0.031898 0.054318 0.125527 -0.071513 0.054145 0.138828 -0.085728 -0.101187 -0.168228 0.001887 0.189694 -0.267827 -0.128887 -0.026356 -0.242874 0.426336 0.499743 -0.287714 0.501332 -0.366998 -0.062351 -0.145712 -0.142077 -0.004622 0.404314 0.740385 0.529006 0.163981 -0.099719 -0.272516 0.970245 -0.500873 -0.528956 -0.130560 -0.473265 0.060357 0.591424 -0.184272 -0.359009 0.802762 -0.930529 -0.059071 0.438753 0.726501 0.082096 -0.751711 0.033148 0.695187 -0.779861 0.429884 -0.099005 -1.159317 0.616067 
politics 0.137066 -0.252668 0.290832 -0.090062 0.815487 -0.143731 0.446458 0.112688 -0.111838 -0.524273 -0.146533 0.537765 0.042215 0.638756 -0.426047 0.138419 -0.184456 0.423403 -0.056875 0.641015 0.603793 0.266663 0.340717 -0.224519 -0.083923 0.057302 -0.083661 -0.147078 -0.315795 -0.485098 -0.485332 0.093107 0.101139 0.161845 0.769186 0.330999 -0.100488 -0.187518 -0.258745 -0.283215 0.311378 -0.056540 0.558472 0.293479 -0.533677 -0.154198 0.011191 -0.243934 -0.287816 -0.320686 0.450354 0.213171 -0.288224 0.312220 0.149764 -0.609946 -0.535710 -0.445517 -0.287728 0.123629 -0.636998 0.389297 -0.576755 -0.184618 -0.250761 -0.039200 -0.046474 -0.143823 0.295031 -0.566184 0.267137 -0.015020 -0.110953 0.341484 -0.146750 -0.471957 -0.019155 -0.129844 -0.341678 0.000890 0.193713 0.515726 0.234305 0.074209 -0.357569 0.262157 -0.681270 0.339891 0.369010 0.065523 -0.551587 0.279583 -0.053797 -0.243190 0.045502 0.326612 0.326424 0.368426 -0.307237 -0.552543 0.025304 0.074526 0.279962 0.230698 -0.204675 -0.032261 -0.089882 0.349027 -0.544531 -0.194998 -0.144857 -0.043573 0.140778 0.227072 -0.059793 0.312901 0.274253 0.437487 0.019300 -0.054051 -0.058708 0.190130 0.019132 -0.148981 0.670794 -0.355394 0.626428 -0.326095 0.329007 -0.070364 -0.168068 0.249613 0.086785 -0.053445 0.418358 -0.325423 0.263019 -0.221595 -0.447997 -0.391780 -0.401491 -0.372227 -0.531982 0.180486 -0.484118 -0.148684 0.537257 -0.038050 -0.064183 0.080679 -0.187247 0.103520 0.036437 -0.095044 -0.337958 -0.449472 0.231709 0.349758 -0.587723 -0.355352 -0.054793 -0.224874 0.475485 0.537940 -0.315200 0.575317 -0.426859 -0.127877 -0.165667 -0.061628 -0.029821 0.256367 0.562540 0.358658 0.087444 -0.078827 -0.043998 0.324340 -0.138391 -0.182166 -0.058903 -0.122464 0.012485 0.196257 -0.095626 -0.180051 0.371039 -0.445958 -0.054684 0.203833 0.380567 -0.006899 -0.425494 0.014474 0.276648 -0.343339 0.166577 -0.003389 -0.626054 0.330545 
YangForPresidentHQ 0.126350 -0.057827 0.185943 -0.009771 0.689829 -0.184530 0.273539 0.257216 -0.118726 -0.355100 -0.016735 0.404635 -0.016645 0.376189 -0.290586 0.140290 -0.185712 0.361797 -0.049269 0.470755 0.495147 0.246096 0.268772 -0.222826 -0.086691 -0.017089 -0.091769 -0.119998 -0.300003 -0.465465 -0.544079 0.112429 0.050939 0.222222 0.694016 0.266644 -0.110807 -0.164038 -0.312288 -0.236448 0.357775 -0.048709 0.531938 0.312742 -0.524763 -0.192530 -0.055793 -0.247125 -0.293156 -0.345820 0.528450 0.238358 -0.292602 0.307995 0.253989 -0.633925 -0.379100 -0.323197 -0.317827 0.077878 -0.549898 0.208346 -0.481732 -0.134520 -0.078360 -0.044187 0.018692 -0.044598 0.283936 -0.498349 0.334345 -0.033776 -0.126914 0.221342 -0.051164 -0.307592 -0.012156 -0.074161 -0.224974 0.068054 0.162492 0.352012 0.124234 0.041813 -0.184090 0.154177 -0.482870 0.159874 0.390922 0.080384 -0.498140 0.264750 -0.005930 -0.297204 -0.011525 0.286650 0.312656 0.309527 -0.308142 -0.457359 0.003235 0.068764 0.150931 0.195877 -0.151590 -0.002132 -0.154918 0.393926 -0.669160 -0.205479 -0.148230 -0.042447 0.197467 0.269660 -0.037614 0.405858 0.258427 0.481184 0.035864 -0.147432 -0.086005 0.222810 -0.033501 -0.188407 0.696074 -0.296798 0.585032 -0.310026 0.348512 -0.134251 -0.074169 0.319998 0.040220 -0.077427 0.384418 -0.348622 0.440611 -0.376543 -0.727578 -0.619498 -0.584137 -0.641300 -0.808349 0.257544 -0.632016 -0.202047 0.632636 0.009027 0.016519 0.112018 -0.248949 0.124834 0.043844 -0.077629 -0.142982 -0.230281 0.092475 0.174470 -0.276369 -0.140155 0.009983 -0.174989 0.242479 0.345231 -0.162436 0.290565 -0.232125 -0.031304 -0.086603 -0.101546 0.039230 0.227177 0.453703 0.343049 0.125743 -0.061815 -0.156412 0.516335 -0.293970 -0.257954 -0.026153 -0.271039 0.044843 0.330047 -0.094655 -0.131298 0.290913 -0.334567 -0.002070 0.178906 0.250136 0.068448 -0.227714 -0.003914 0.258873 -0.273304 0.166573 -0.076106 -0.323291 0.144137 
SandersForPresident 0.068361 -0.141830 0.221911 -0.018812 0.639444 -0.120977 0.386302 0.304173 -0.073574 -0.417206 -0.127629 0.415068 -0.006811 0.525827 -0.338373 0.129941 -0.155917 0.312440 -0.046239 0.429831 0.424342 0.200698 0.223176 -0.182818 -0.075342 0.001728 -0.077665 -0.118488 -0.270450 -0.418622 -0.446435 0.092156 0.059247 0.191430 0.645608 0.259136 -0.095097 -0.148207 -0.257984 -0.215378 0.343828 -0.059860 0.553373 0.299418 -0.544147 -0.184590 -0.026587 -0.234509 -0.255294 -0.293537 0.432581 0.190934 -0.246256 0.260498 0.199284 -0.541924 -0.506281 -0.412057 -0.312874 0.101750 -0.635540 0.338835 -0.585990 -0.159791 -0.199900 -0.021182 -0.022162 -0.140999 0.321546 -0.565272 0.301079 0.002134 -0.142242 0.287660 -0.080759 -0.398321 -0.021744 -0.112883 -0.309649 0.042266 0.190327 0.453501 0.167079 0.044531 -0.280698 0.201921 -0.601473 0.254370 0.405158 0.093261 -0.530987 0.273482 -0.047000 -0.296235 0.000990 0.320376 0.348676 0.366686 -0.316082 -0.549710 0.033021 0.077673 0.227518 0.244439 -0.183002 -0.047722 -0.197524 0.439984 -0.710627 -0.249032 -0.219497 -0.085151 0.208295 0.330526 -0.047042 0.408865 0.313760 0.564129 0.000919 -0.145864 -0.093545 0.214594 -0.032413 -0.203319 0.743962 -0.352212 0.656579 -0.365360 0.344010 -0.102806 -0.111215 0.321911 0.055439 -0.056852 0.441507 -0.350647 0.225546 -0.204586 -0.388547 -0.339131 -0.324487 -0.327014 -0.452924 0.140298 -0.390313 -0.130884 0.411034 -0.012299 -0.018821 0.046906 -0.159073 0.066667 0.015254 -0.098714 -0.336194 -0.447327 0.248276 0.338859 -0.580262 -0.330753 -0.024037 -0.190618 0.387883 0.470957 -0.232990 0.468070 -0.357575 -0.073984 -0.167513 -0.074012 0.006431 0.273372 0.615853 0.419627 0.152067 -0.062098 -0.107502 0.535897 -0.288337 -0.319048 -0.037950 -0.251633 0.020573 0.314255 -0.064784 -0.142934 0.394828 -0.437770 -0.002112 0.193500 0.348736 0.008782 -0.360288 0.028481 0.327494 -0.389003 0.185179 -0.031859 -0.646923 0.325669 
centerleftpolitics -0.243224 0.052831 -0.066855 0.026993 -0.207806 0.061513 -0.058241 0.028340 -0.207525 -0.783842 -0.147286 0.823473 0.035338 0.930659 -0.635347 0.231689 -0.270882 0.564689 -0.099828 0.876058 0.846654 0.356317 0.460958 -0.327601 -0.038794 0.002941 -0.054706 -0.087305 -0.220702 -0.359434 -0.367259 0.094276 0.058548 0.140614 0.533625 0.217943 -0.070146 -0.105612 -0.195195 -0.164444 0.243290 -0.055249 0.399777 0.210307 -0.361399 -0.104332 0.005422 -0.180812 -0.218254 -0.263006 0.356948 0.178355 -0.205251 0.217601 0.164573 -0.451449 -0.347277 -0.271116 -0.190470 0.065094 -0.411150 0.229826 -0.374637 -0.106343 -0.126253 0.005429 -0.026147 -0.099845 0.211510 -0.352242 0.174747 0.003553 -0.164332 0.411689 -0.129084 -0.525759 -0.020568 -0.147694 -0.406369 0.034224 0.260198 0.594948 0.226918 0.059884 -0.369081 0.273439 -0.796589 0.348969 0.300370 0.083962 -0.526531 0.212169 -0.003516 -0.291887 0.005376 0.291384 0.275922 0.247672 -0.302015 -0.409208 0.014722 0.080499 0.187487 0.207136 -0.092633 -0.009559 -0.032284 0.200088 -0.317520 -0.074329 -0.007798 0.030863 0.121536 0.161321 -0.053600 0.282774 0.215249 0.389606 0.023153 -0.082082 -0.024474 0.147918 0.006119 -0.031977 0.398353 -0.197618 0.311498 -0.164740 0.181791 -0.045877 -0.090944 0.112795 0.032503 -0.080267 0.134857 -0.178785 0.234137 -0.148044 -0.385470 -0.242420 -0.295707 -0.342186 -0.355423 0.133967 -0.399817 -0.129653 0.367967 0.014447 0.025662 0.134138 -0.125204 0.080493 0.096544 -0.066690 -0.080735 -0.122894 0.000759 0.147060 -0.200071 -0.102984 -0.022360 -0.173006 0.310812 0.356229 -0.213389 0.367824 -0.268356 -0.044083 -0.095637 -0.100405 -0.008743 0.276258 0.496173 0.352290 0.095872 -0.072994 -0.206679 0.712042 -0.358951 -0.382601 -0.110305 -0.343314 0.041683 0.445080 -0.161218 -0.291237 0.621067 -0.716715 -0.057158 0.351280 0.558765 0.073697 -0.691562 0.030180 0.580242 -0.649231 0.356195 -0.083178 -0.972499 0.485043 
Pete_Buttigieg 0.121185 -0.081665 0.199599 -0.039845 0.514488 -0.126568 0.203798 0.104349 -0.175239 -0.639682 -0.085217 0.687553 0.032079 0.694558 -0.490791 0.188640 -0.220877 0.488948 -0.080628 0.720613 0.714645 0.323985 0.406258 -0.272437 -0.160379 0.104205 -0.085361 -0.250390 -0.509644 -0.736936 -0.746225 0.127391 0.168742 0.221677 0.922710 0.394854 -0.090325 -0.196036 -0.388176 -0.407349 0.319857 -0.045372 0.506807 0.265198 -0.506606 -0.163461 -0.032897 -0.168754 -0.315120 -0.318199 0.392955 0.264219 -0.273999 0.287851 0.132155 -0.568629 -0.386067 -0.340711 -0.277924 0.058035 -0.524946 0.242285 -0.498615 -0.121254 -0.133876 -0.106478 0.015409 -0.051803 0.287378 -0.485686 0.317365 -0.021669 -0.135053 0.283878 -0.100555 -0.496221 -0.069222 -0.118412 -0.304707 0.013211 0.070969 0.525719 0.238713 -0.016992 -0.402697 0.254372 -0.563465 0.343604 0.277393 0.043411 -0.359173 0.197489 -0.043706 -0.162161 0.036659 0.216305 0.208590 0.290060 -0.192046 -0.368609 0.022016 0.047926 0.187181 0.165415 -0.169233 -0.030354 -0.122645 0.332614 -0.533341 -0.200638 -0.179881 -0.050433 0.124820 0.231104 -0.046323 0.257871 0.219770 0.343161 0.033575 -0.062818 -0.031236 0.033856 0.024069 -0.095102 0.260645 -0.123730 0.239694 -0.094917 0.120217 -0.019555 -0.054162 0.128440 0.026674 0.031746 0.248191 -0.152556 0.217039 -0.214894 -0.413964 -0.387169 -0.352009 -0.303347 -0.500786 0.133696 -0.440907 -0.138588 0.505867 -0.042083 -0.055156 0.020606 -0.206022 0.091152 -0.034354 -0.082767 -0.248909 -0.313939 0.216803 0.224084 -0.401252 -0.248500 -0.023548 -0.120468 0.265887 0.340110 -0.184594 0.350075 -0.270751 -0.061174 -0.228546 -0.085719 -0.007056 0.323238 0.800796 0.524023 0.203864 -0.086687 -0.078897 0.513425 -0.272069 -0.330132 -0.010596 -0.209136 0.037655 0.294242 -0.088838 -0.149118 0.384194 -0.403300 0.011720 0.228348 0.355892 -0.006852 -0.460322 0.076042 0.336360 -0.401805 0.156563 -0.006249 -0.743194 0.322861 
moderatepolitics 0.044058 -0.205609 0.292673 -0.025994 0.871475 -0.190037 0.424482 0.214519 -0.205634 -0.627290 -0.044514 0.710819 0.024265 0.662460 -0.494101 0.215594 -0.174110 0.433480 -0.085990 0.645784 0.628254 0.313889 0.358305 -0.223002 -0.056109 0.028298 -0.018198 -0.091540 -0.184864 -0.246647 -0.275800 0.035414 0.074868 0.109015 0.380961 0.142840 -0.022980 -0.057138 -0.180661 -0.167881 0.265578 -0.025016 0.363144 0.211110 -0.367980 -0.138972 -0.042760 -0.140484 -0.226062 -0.240886 0.302707 0.196965 -0.204506 0.191603 0.120900 -0.431223 -0.399156 -0.325575 -0.248671 0.097074 -0.480716 0.275302 -0.425647 -0.141673 -0.143383 0.013562 -0.036640 -0.118592 0.247729 -0.453131 0.213350 0.003308 -0.112450 0.229377 -0.072573 -0.349821 -0.031314 -0.097191 -0.222626 0.022368 0.109112 0.404580 0.161467 0.014187 -0.283087 0.197879 -0.467901 0.237555 0.402412 0.076340 -0.530747 0.289521 -0.055194 -0.274161 0.021734 0.328028 0.327695 0.403594 -0.320983 -0.563411 0.036021 0.078641 0.241601 0.239938 -0.168982 -0.033708 -0.156649 0.392099 -0.605488 -0.206090 -0.196589 -0.076252 0.168740 0.266197 -0.057290 0.321382 0.276744 0.460489 0.017939 -0.109087 -0.046990 0.109801 0.001770 -0.111231 0.412482 -0.181726 0.346174 -0.152030 0.162964 -0.052674 -0.048928 0.143002 0.015154 -0.027161 0.206258 -0.192112 0.308487 -0.294712 -0.555085 -0.477931 -0.477013 -0.447178 -0.625478 0.203069 -0.553869 -0.174545 0.609055 -0.024979 -0.043946 0.051791 -0.242419 0.114484 -0.017610 -0.105798 -0.304491 -0.395550 0.228338 0.316189 -0.505020 -0.309090 -0.029925 -0.170661 0.342075 0.413562 -0.225851 0.434442 -0.346138 -0.083485 -0.152651 -0.092185 0.009312 0.254583 0.601608 0.398093 0.139170 -0.070595 -0.108480 0.540553 -0.275004 -0.311350 -0.028562 -0.236929 0.047664 0.350182 -0.059413 -0.099072 0.258512 -0.253621 0.011013 0.169436 0.214203 0.021709 -0.355352 0.049600 0.274270 -0.293565 0.120143 -0.026457 -0.532074 0.205654 
ElizabethWarren 0.083182 -0.352423 0.171172 -0.041549 0.579518 0.007833 0.467835 0.248944 0.030049 -0.512528 -0.346271 0.443132 -0.011268 0.815295 -0.424297 0.122018 -0.190577 0.304380 -0.030445 0.382204 0.394025 0.147180 0.194511 -0.168317 -0.069093 -0.034410 -0.157970 -0.085656 -0.192236 -0.388790 -0.370433 0.119075 -0.023402 0.166359 0.668020 0.303964 -0.177989 -0.228682 -0.186993 -0.137242 0.338229 -0.078138 0.667280 0.349568 -0.669386 -0.208820 0.007456 -0.350705 -0.158630 -0.241984 0.441132 0.070676 -0.243886 0.260165 0.215084 -0.480922 -0.309543 -0.213510 -0.163857 0.077899 -0.373365 0.239162 -0.354220 -0.081804 -0.188519 -0.004810 -0.053283 -0.122002 0.106149 -0.267376 0.080494 -0.010217 -0.115849 0.292927 -0.063771 -0.310198 0.038343 -0.056650 -0.343936 0.051678 0.324218 0.385600 0.109435 0.145847 -0.136730 0.145332 -0.679227 0.185902 0.306697 0.116204 -0.632354 0.219283 0.045976 -0.320768 -0.003427 0.305078 0.368681 0.199904 -0.375787 -0.476418 -0.007043 0.128769 0.237287 0.228101 -0.220340 -0.029410 -0.063056 0.413921 -0.643787 -0.242603 -0.038944 0.066656 0.201475 0.304306 -0.039834 0.599885 0.395165 0.775579 0.012502 -0.142934 -0.006300 0.212228 -0.040334 -0.023802 0.482872 -0.243908 0.405453 -0.307755 0.250454 -0.041943 -0.143722 0.170457 0.053785 -0.131007 0.186467 -0.145096 0.265617 -0.142061 -0.392751 -0.263763 -0.310643 -0.406024 -0.456176 0.134415 -0.498556 -0.155658 0.464356 -0.004054 0.021133 0.209078 -0.112724 0.054819 0.219783 -0.096987 -0.252181 -0.404646 0.107455 0.323855 -0.605424 -0.285500 -0.020248 -0.261689 0.474249 0.511977 -0.276256 0.471016 -0.313472 -0.059679 -0.124088 -0.085425 -0.048807 0.377716 0.580012 0.421879 0.078739 -0.115334 -0.217576 0.766034 -0.356255 -0.377413 -0.157409 -0.358630 0.028654 0.405173 -0.083241 -0.193740 0.340037 -0.498882 -0.108450 0.154194 0.375078 0.029071 -0.286490 -0.083052 0.324036 -0.404013 0.291988 -0.048384 -0.496682 0.305006 
progressive -0.012648 0.018818 0.055138 0.032507 0.432338 -0.100328 0.228405 0.112240 -0.134185 -0.385746 -0.002237 0.423876 0.016447 0.427171 -0.303949 0.151327 -0.130192 0.296814 -0.061984 0.441605 0.443455 0.200641 0.220955 -0.163653 -0.071421 -0.013635 -0.053521 -0.139627 -0.272483 -0.407847 -0.431465 0.085485 0.090872 0.212522 0.733075 0.294362 -0.073958 -0.132580 -0.322663 -0.246071 0.332130 -0.062566 0.511889 0.256792 -0.487574 -0.174480 -0.029662 -0.206201 -0.239769 -0.279402 0.378067 0.223353 -0.227882 0.198891 0.205126 -0.487026 -0.378154 -0.311328 -0.260979 0.069273 -0.481074 0.226310 -0.451357 -0.116376 -0.104988 -0.006237 0.007715 -0.101466 0.284320 -0.447513 0.265534 0.019929 -0.127349 0.150704 -0.009612 -0.248473 -0.055429 -0.080768 -0.146701 0.062946 0.063100 0.321598 0.098961 -0.047538 -0.214755 0.135246 -0.345545 0.146276 0.203803 0.064756 -0.317389 0.131258 -0.021765 -0.191329 -0.014634 0.200075 0.178168 0.188464 -0.190027 -0.268354 0.030858 0.049521 0.107427 0.128359 -0.166280 -0.035040 -0.163993 0.451682 -0.668354 -0.220260 -0.198295 -0.065710 0.163548 0.279333 -0.058002 0.339303 0.289216 0.503999 -0.002214 -0.132332 -0.082260 0.206517 -0.025454 -0.165370 0.675771 -0.323936 0.557577 -0.283804 0.322042 -0.101498 -0.110274 0.267320 0.023036 -0.081594 0.375702 -0.350362 0.230269 -0.214855 -0.430733 -0.324730 -0.357867 -0.363392 -0.438569 0.151796 -0.432635 -0.142083 0.440346 0.016173 0.012313 0.065666 -0.170002 0.081439 0.037412 -0.078683 -0.160982 -0.229540 0.092017 0.209934 -0.296166 -0.175246 -0.027013 -0.178398 0.329248 0.409822 -0.225886 0.422767 -0.339027 -0.082156 -0.095782 -0.100158 0.020585 0.236385 0.499441 0.356001 0.140142 -0.045860 -0.121521 0.497040 -0.281444 -0.286119 -0.012057 -0.247242 0.047725 0.326639 -0.103783 -0.224034 0.556683 -0.600942 0.004614 0.319572 0.488933 0.044841 -0.533884 0.055379 0.476711 -0.507592 0.237957 -0.051548 -0.826441 0.387341 
JoeBiden -0.195991 -0.158838 0.012475 0.017537 -0.127970 0.164384 0.168114 0.126512 -0.074096 -0.932497 -0.439182 0.875468 -0.003086 1.320396 -0.768836 0.236009 -0.383122 0.675249 -0.088010 0.982087 0.983286 0.367447 0.513197 -0.411785 -0.054413 -0.091501 -0.204632 -0.080699 -0.295896 -0.620933 -0.634022 0.236646 0.010183 0.263621 1.114758 0.478023 -0.271706 -0.335186 -0.335523 -0.233420 0.390180 -0.119367 0.848246 0.444417 -0.744966 -0.193994 0.048819 -0.494186 -0.178368 -0.313607 0.601913 0.095096 -0.276487 0.318488 0.318437 -0.589275 -0.079329 0.007949 0.031664 0.058127 0.001964 0.119482 0.016797 -0.000091 -0.126179 0.125777 -0.136424 -0.137861 -0.085958 0.071715 -0.223322 -0.002727 -0.133269 0.431424 -0.101730 -0.359625 0.076481 -0.057271 -0.411549 0.075709 0.426424 0.418058 0.108410 0.171521 -0.086488 0.143437 -0.802619 0.172317 0.373364 0.147886 -0.814748 0.251136 0.091570 -0.465579 -0.033398 0.393871 0.409039 0.184971 -0.478263 -0.491216 -0.037894 0.158826 0.220580 0.257469 -0.120266 0.019753 0.033698 0.243095 -0.422899 -0.093494 0.135023 0.169309 0.153315 0.180314 -0.037845 0.531412 0.291729 0.626331 0.041156 -0.130390 0.015860 0.223487 -0.028293 0.065044 0.382133 -0.188177 0.248329 -0.206790 0.212542 -0.050606 -0.101011 0.088014 0.049909 -0.183944 0.013866 -0.120398 0.199045 -0.013337 -0.244381 -0.053123 -0.121886 -0.306186 -0.161214 0.088095 -0.310929 -0.103009 0.179976 0.050109 0.095914 0.276707 0.004952 0.042235 0.300378 -0.066541 -0.014701 -0.088205 -0.140383 0.140682 -0.226571 -0.047880 -0.011380 -0.299375 0.481417 0.539215 -0.306255 0.484549 -0.315433 -0.032585 -0.050509 -0.109594 -0.021229 0.366515 0.454577 0.362987 0.046138 -0.105186 -0.324646 0.925901 -0.471440 -0.447031 -0.201528 -0.473412 0.021090 0.532074 -0.180903 -0.379289 0.797149 -0.987961 -0.125923 0.418010 0.756987 0.113190 -0.636167 -0.058187 0.667355 -0.777457 0.520445 -0.130615 -1.003361 0.609990 
Kamala -0.126807 -0.094959 0.037563 0.016425 -0.113558 0.100945 0.103076 0.186838 -0.098862 -0.844294 -0.345961 0.802193 0.002186 1.150889 -0.687120 0.220837 -0.298815 0.549135 -0.083421 0.803652 0.785156 0.317810 0.407696 -0.330539 -0.067543 -0.021136 -0.115371 -0.109758 -0.268022 -0.470144 -0.463487 0.133941 0.022779 0.184149 0.641852 0.276463 -0.129447 -0.169592 -0.211736 -0.164045 0.369609 -0.087465 0.664036 0.336425 -0.636970 -0.194978 0.002927 -0.302387 -0.222561 -0.289422 0.458679 0.143915 -0.237201 0.269811 0.232203 -0.524607 -0.189651 -0.130415 -0.087608 0.034065 -0.213516 0.150381 -0.210332 -0.038523 -0.111363 0.020843 -0.040062 -0.096499 0.081367 -0.145488 0.029922 0.015020 -0.164072 0.375140 -0.087134 -0.452425 0.003826 -0.120136 -0.415694 0.048855 0.297673 0.497952 0.158000 0.086003 -0.257672 0.201994 -0.742669 0.270333 0.341460 0.118086 -0.596258 0.223608 0.001456 -0.342974 -0.010032 0.319263 0.357904 0.264934 -0.347353 -0.495248 0.024545 0.104465 0.225705 0.260485 -0.095863 -0.035431 -0.076292 0.224277 -0.357977 -0.118684 -0.033592 0.023929 0.150211 0.220969 -0.031105 0.357373 0.246531 0.499879 -0.010288 -0.116971 -0.036292 0.170588 -0.038979 -0.052535 0.446207 -0.217451 0.361417 -0.250416 0.214491 -0.052020 -0.099624 0.182863 0.030542 -0.087304 0.194457 -0.180169 0.147085 -0.071617 -0.228712 -0.121281 -0.165195 -0.217038 -0.225585 0.061209 -0.338081 -0.118314 0.306067 0.001338 0.024061 0.118887 -0.096451 0.037099 0.133471 -0.118436 -0.302584 -0.423595 0.172001 0.358334 -0.615876 -0.320201 -0.030779 -0.269075 0.541088 0.613591 -0.322231 0.613472 -0.440297 -0.062142 -0.154306 -0.080105 -0.024078 0.338490 0.633884 0.449623 0.143573 -0.076480 -0.215058 0.835134 -0.425109 -0.481418 -0.124283 -0.406966 0.026315 0.464785 -0.113076 -0.253155 0.612486 -0.727420 -0.052001 0.282318 0.549661 0.037613 -0.566785 0.010120 0.533997 -0.642690 0.358130 -0.069342 -0.944440 0.545470 
SocialDemocracy -0.043364 -0.112516 0.098487 -0.001728 0.208620 0.010625 0.163040 0.098020 -0.150879 -0.664133 -0.170748 0.689670 0.033813 0.832081 -0.538402 0.192241 -0.201759 0.436175 -0.078708 0.672687 0.651937 0.271701 0.348776 -0.239761 -0.076306 0.024415 -0.062512 -0.146416 -0.289715 -0.466815 -0.457612 0.098338 0.095831 0.165300 0.700116 0.299633 -0.080284 -0.149170 -0.239055 -0.234738 0.334114 -0.073831 0.586621 0.284804 -0.541834 -0.165648 0.002739 -0.252593 -0.216130 -0.255886 0.365502 0.181292 -0.214578 0.225793 0.153756 -0.460817 -0.451560 -0.380630 -0.250946 0.094776 -0.537751 0.329672 -0.499125 -0.146601 -0.206331 -0.014684 -0.032370 -0.149029 0.272126 -0.480668 0.223153 0.025625 -0.099162 0.226210 -0.060716 -0.314595 -0.012940 -0.095328 -0.228448 0.019900 0.145025 0.366424 0.135710 0.029659 -0.238983 0.176893 -0.473203 0.219560 0.412587 0.099747 -0.653302 0.296892 -0.050232 -0.328809 0.026748 0.381395 0.401545 0.420889 -0.382395 -0.635014 0.051220 0.093202 0.307104 0.298667 -0.213618 -0.057350 -0.146469 0.447331 -0.653836 -0.232088 -0.194537 -0.061738 0.209987 0.347086 -0.076804 0.425315 0.382763 0.646938 0.000328 -0.129631 -0.034478 0.125461 0.009145 -0.080206 0.410352 -0.212153 0.360413 -0.180423 0.180164 -0.045072 -0.110450 0.136584 0.018068 -0.042925 0.212694 -0.191876 0.173765 -0.144485 -0.317998 -0.232501 -0.288700 -0.257964 -0.344522 0.102325 -0.408461 -0.123101 0.446253 -0.019911 -0.027630 0.070455 -0.165295 0.077613 0.040696 -0.130399 -0.357068 -0.485606 0.252486 0.395171 -0.640816 -0.393373 -0.057833 -0.244118 0.508327 0.581245 -0.346836 0.633856 -0.478181 -0.125360 -0.186942 -0.099616 -0.025798 0.330979 0.718486 0.476881 0.150518 -0.085938 -0.140401 0.707146 -0.337753 -0.408719 -0.083284 -0.317326 0.058741 0.429246 -0.078852 -0.159715 0.357243 -0.410645 -0.020450 0.184750 0.329132 0.007770 -0.393534 0.038696 0.327695 -0.379470 0.166537 -0.016555 -0.641557 0.330425 
demsocialist -0.064834 -0.083115 0.073668 -0.010373 0.244711 -0.011022 0.174926 0.154079 -0.113500 -0.527170 -0.133659 0.550435 0.013839 0.652297 -0.429570 0.160861 -0.189729 0.388738 -0.062391 0.565902 0.565022 0.241948 0.296556 -0.218941 -0.062149 -0.011503 -0.087713 -0.106413 -0.239476 -0.404498 -0.415720 0.103736 0.051353 0.166861 0.652792 0.271295 -0.108627 -0.156024 -0.233733 -0.192037 0.263999 -0.053857 0.463857 0.245903 -0.436871 -0.137677 -0.004583 -0.231409 -0.164861 -0.215531 0.337905 0.130969 -0.191562 0.189310 0.157811 -0.397721 -0.263851 -0.199924 -0.158046 0.067987 -0.323639 0.181918 -0.288390 -0.083888 -0.109328 0.010615 -0.028250 -0.079887 0.144211 -0.273951 0.122975 -0.001499 -0.125281 0.281307 -0.077393 -0.349541 -0.004899 -0.087278 -0.277997 0.048009 0.204598 0.409529 0.142923 0.058649 -0.228194 0.182796 -0.572076 0.212460 0.342965 0.088106 -0.563527 0.244529 -0.000773 -0.301234 -0.000212 0.309460 0.312550 0.276870 -0.332618 -0.465864 0.007064 0.094317 0.202906 0.212197 -0.144728 -0.012945 -0.062927 0.312752 -0.487814 -0.148590 -0.062609 0.019628 0.145718 0.211451 -0.047131 0.366775 0.263196 0.481584 0.026925 -0.106741 -0.028343 0.164390 -0.009221 -0.068409 0.448903 -0.208468 0.362352 -0.204933 0.228043 -0.061407 -0.092585 0.162616 0.035165 -0.081610 0.206011 -0.209208 0.237180 -0.170620 -0.383033 -0.281907 -0.308946 -0.353921 -0.403613 0.146842 -0.421421 -0.131086 0.408093 0.006714 0.009459 0.121026 -0.131693 0.078909 0.099584 -0.102721 -0.243033 -0.354247 0.131490 0.297200 -0.488236 -0.265449 -0.034874 -0.250767 0.461799 0.537168 -0.296715 0.535516 -0.397960 -0.092027 -0.199866 -0.136882 -0.009882 0.425380 0.848533 0.582887 0.164710 -0.119965 -0.219484 0.889371 -0.446698 -0.475320 -0.107679 -0.408796 0.057332 0.540500 -0.134692 -0.262568 0.570935 -0.667449 -0.051691 0.322123 0.534934 0.049074 -0.582949 0.010920 0.517664 -0.582192 0.321675 -0.060169 -0.901262 0.451593 
BetoORourke 0.038630 -0.148572 0.137930 -0.035171 0.336855 -0.037337 0.228670 0.101892 -0.104463 -0.530847 -0.160784 0.542562 0.022785 0.666660 -0.426218 0.146610 -0.178312 0.369938 -0.057493 0.543742 0.524883 0.230010 0.293057 -0.200972 -0.087836 0.033567 -0.087360 -0.133085 -0.283791 -0.452273 -0.455048 0.092740 0.068332 0.160107 0.646415 0.279917 -0.099530 -0.162192 -0.223654 -0.224526 0.313853 -0.059825 0.541459 0.284810 -0.532622 -0.166994 -0.007348 -0.242157 -0.238273 -0.277783 0.405357 0.171917 -0.244835 0.271283 0.157120 -0.516709 -0.347751 -0.283356 -0.199948 0.077074 -0.427987 0.254133 -0.393842 -0.115100 -0.165869 -0.026522 -0.031896 -0.103021 0.185878 -0.369811 0.173102 -0.009185 -0.133020 0.352289 -0.116521 -0.474008 -0.005680 -0.121914 -0.373494 0.020357 0.239487 0.512901 0.201929 0.088804 -0.319113 0.243422 -0.711892 0.313968 0.406185 0.093227 -0.620397 0.294899 -0.027183 -0.305555 0.026894 0.346953 0.377576 0.370766 -0.359070 -0.588428 0.024829 0.097438 0.274124 0.262117 -0.141924 -0.023581 -0.076558 0.265057 -0.423174 -0.151665 -0.085027 -0.009362 0.139390 0.208389 -0.040098 0.320956 0.239391 0.428948 0.015500 -0.082397 -0.034613 0.142866 -0.008526 -0.085560 0.450668 -0.217990 0.397134 -0.228774 0.214263 -0.048513 -0.101033 0.178326 0.044933 -0.051777 0.248690 -0.194887 0.225033 -0.169476 -0.364102 -0.299079 -0.307855 -0.317430 -0.426242 0.128352 -0.403718 -0.125285 0.422122 -0.021378 -0.020277 0.088700 -0.145562 0.071729 0.063737 -0.083361 -0.245735 -0.343748 0.162274 0.263755 -0.466516 -0.259337 -0.022650 -0.177521 0.347175 0.394326 -0.215221 0.389940 -0.287322 -0.061195 -0.178275 -0.087864 -0.028624 0.337835 0.685164 0.466399 0.131657 -0.100978 -0.150797 0.669367 -0.318514 -0.370279 -0.091648 -0.296785 0.037090 0.386476 -0.093623 -0.172363 0.361318 -0.442961 -0.049156 0.188847 0.352947 0.012564 -0.403440 0.001093 0.322584 -0.393076 0.211313 -0.028224 -0.623743 0.325229 
ConservativeDemocrat 0.022402 -0.141572 0.156309 -0.007917 0.388494 -0.042755 0.246875 0.129123 -0.109474 -0.554050 -0.156291 0.565645 0.012951 0.698496 -0.446762 0.159055 -0.185901 0.378455 -0.066077 0.565350 0.555476 0.238763 0.298115 -0.215152 -0.089475 0.016839 -0.090953 -0.151902 -0.321579 -0.512530 -0.519149 0.118299 0.084188 0.202754 0.781794 0.331114 -0.109542 -0.178665 -0.289729 -0.264507 0.372529 -0.069636 0.633139 0.324278 -0.606234 -0.192772 -0.012828 -0.280293 -0.272891 -0.326313 0.476620 0.214811 -0.278748 0.294263 0.211714 -0.592652 -0.396115 -0.322471 -0.236559 0.085775 -0.485037 0.281316 -0.445329 -0.124933 -0.174695 -0.007633 -0.034582 -0.126496 0.232446 -0.419605 0.192659 0.010720 -0.130940 0.296414 -0.079817 -0.402602 -0.013798 -0.103569 -0.314453 0.036202 0.199487 0.450659 0.165115 0.050906 -0.272504 0.207222 -0.606791 0.255754 0.373674 0.093394 -0.582503 0.260120 -0.022773 -0.308875 0.013668 0.329409 0.345974 0.334020 -0.335965 -0.527281 0.026694 0.092352 0.240066 0.249273 -0.152738 -0.030109 -0.107369 0.332760 -0.514162 -0.174969 -0.116531 -0.015858 0.159577 0.248810 -0.045535 0.355899 0.271893 0.494924 0.011718 -0.109579 -0.034175 0.132287 -0.011715 -0.075561 0.403731 -0.190923 0.335004 -0.187598 0.190017 -0.050580 -0.087890 0.157274 0.020245 -0.050365 0.208857 -0.186078 0.240476 -0.192357 -0.416524 -0.320147 -0.348311 -0.352315 -0.459643 0.136962 -0.443720 -0.140325 0.458193 -0.012527 -0.008069 0.091836 -0.166246 0.078759 0.063638 -0.109078 -0.274638 -0.379133 0.183509 0.307598 -0.517494 -0.294469 -0.030368 -0.208564 0.404475 0.473223 -0.262244 0.482709 -0.359259 -0.071166 -0.192199 -0.117116 -0.017840 0.384794 0.791647 0.542668 0.174653 -0.104311 -0.187029 0.798089 -0.397471 -0.450973 -0.093363 -0.369773 0.056223 0.471860 -0.107146 -0.208642 0.480841 -0.554730 -0.030092 0.253690 0.437538 0.031176 -0.512319 0.030790 0.436291 -0.508736 0.258851 -0.044649 -0.792167 0.396092 
