15 200
BaemyKlobaechar 0.243279 -0.388832 0.401701 0.125063 1.412172 0.022734 0.279636 0.146242 0.144694 0.000956 -0.120678 -0.017808 -0.019312 0.048110 -0.003306 -0.044229 -0.026452 -0.008013 0.035508 -0.003287 -0.000332 -0.014241 0.014364 0.016205 -0.063845 -0.031617 -0.197747 -0.027798 -0.141228 -0.291806 -0.270244 0.164991 0.001412 0.044914 0.583393 0.296808 -0.230608 -0.219403 -0.220435 -0.168564 0.172872 -0.011367 0.440456 0.250471 -0.441123 -0.113448 0.001471 -0.331466 -0.080533 -0.196083 0.336424 0.073716 -0.252622 0.186203 0.150591 -0.359001 -0.607603 -0.386829 -0.352661 0.197568 -0.655403 0.463446 -0.616720 -0.185030 -0.296922 0.002251 -0.176050 -0.174241 0.148173 -0.456756 0.024386 -0.050845 -0.109755 0.733697 -0.157069 -0.686356 0.157344 0.053413 -0.669907 0.029859 0.583380 0.697816 0.180545 0.268725 -0.244111 0.313690 -1.182092 0.369820 0.503703 0.151566 -1.042653 0.317578 0.154879 -0.536882 0.034656 0.532479 0.439032 0.390725 -0.591189 -0.606394 -0.061808 0.292843 0.279514 0.301418 -0.274864 0.057925 -0.009361 0.540699 -0.809267 -0.252428 -0.025733 0.211828 0.116358 0.226941 -0.052927 0.538674 0.277042 0.590621 0.090067 -0.095913 0.020485 0.253178 0.015318 0.013058 0.682077 -0.328452 0.439720 -0.227855 0.363424 -0.032263 -0.199660 0.170013 0.012826 -0.151663 0.303080 -0.324613 0.140822 -0.018450 -0.255090 -0.117452 -0.173761 -0.199979 -0.258874 0.085564 -0.203857 -0.084647 0.193107 -0.038598 -0.020872 0.131622 -0.016003 0.043030 0.156718 -0.024007 -0.050132 -0.028723 -0.048024 0.053216 -0.165703 -0.053569 -0.021183 -0.040399 0.130346 0.059597 -0.071884 0.071507 -0.016842 -0.004367 0.006652 -0.079346 -0.043765 0.217444 0.266106 0.217137 0.026730 -0.105407 -0.155435 0.263974 -0.102866 -0.106418 -0.104485 -0.095928 0.023984 0.102053 -0.030736 -0.114378 0.125566 -0.206470 -0.081798 0.112066 0.173939 0.044995 -0.326200 -0.037439 0.134648 -0.232288 0.240220 -0.037576 -0.205241 0.090126 
politics -0.081650 -0.094679 0.246313 0.127880 0.682951 -0.067872 0.617241 0.393663 -0.144974 -0.543422 -0.113631 0.592645 -0.021365 0.707317 -0.398538 0.201132 -0.157709 0.345445 -0.095711 0.501788 0.552440 0.232166 0.270519 -0.228679 -0.061140 -0.107892 -0.040519 -0.076449 -0.172333 -0.333441 -0.391325 0.122223 0.068404 0.168637 0.563811 0.229887 -0.093036 -0.117421 -0.292715 -0.160968 0.329207 -0.062902 0.542208 0.233784 -0.483160 -0.202523 -0.070835 -0.259904 -0.202476 -0.253572 0.458507 0.239341 -0.181123 0.177988 0.306793 -0.466782 -0.437706 -0.404291 -0.324278 0.124281 -0.515471 0.289300 -0.490041 -0.149542 -0.185225 0.109969 -0.033122 -0.266779 0.394154 -0.585862 0.241149 0.119202 -0.180745 0.245834 0.035504 -0.327636 0.020814 -0.058113 -0.232924 0.109335 0.231669 0.426085 0.074052 0.022235 -0.178415 0.160606 -0.566575 0.153697 0.418878 0.133322 -0.613249 0.222360 0.051190 -0.421735 -0.037184 0.380521 0.354452 0.353533 -0.359428 -0.455211 0.023527 0.118263 0.122723 0.245165 -0.144011 0.041659 -0.163035 0.541901 -0.782919 -0.208717 -0.163678 0.023802 0.226893 0.337711 -0.034791 0.480071 0.291330 0.585565 0.017103 -0.241134 -0.060379 0.335967 -0.042526 -0.151398 0.898910 -0.378768 0.590520 -0.253710 0.314284 -0.130792 -0.055256 0.218009 -0.064023 -0.144912 0.261740 -0.336770 0.204395 -0.171598 -0.389657 -0.284995 -0.284664 -0.343435 -0.381878 0.141886 -0.488925 -0.157081 0.457860 0.040169 0.059738 0.152477 -0.152065 0.111270 0.125248 -0.163118 -0.273426 -0.396730 0.139726 0.350014 -0.550999 -0.274975 -0.016967 -0.287661 0.428744 0.576849 -0.288355 0.517197 -0.419691 -0.077507 -0.014732 -0.239709 0.071738 0.429076 0.691316 0.551706 0.200622 -0.136666 -0.293277 0.610784 -0.373441 -0.265549 -0.007612 -0.339194 0.117482 0.394975 -0.122175 -0.266174 0.526116 -0.596198 0.031206 0.384574 0.454553 0.154475 -0.070644 0.022908 0.560794 -0.382136 0.255190 -0.106037 -0.468001 0.189658 
YangForPresidentHQ 0.089847 -0.143007 0.240989 0.094727 0.437395 -0.016329 0.283889 0.205093 -0.101942 -0.620307 -0.211552 0.684379 -0.033300 0.830160 -0.463447 0.192439 -0.260090 0.464785 -0.123256 0.697013 0.816706 0.259931 0.427343 -0.300720 -0.058188 -0.078547 -0.050083 -0.066623 -0.167281 -0.389450 -0.418591 0.144973 0.094148 0.134274 0.704662 0.307627 -0.144878 -0.181712 -0.304108 -0.194475 0.277344 -0.080833 0.510178 0.235813 -0.410361 -0.145569 -0.040026 -0.275516 -0.160336 -0.234426 0.392971 0.222126 -0.191115 0.174112 0.223387 -0.387748 -0.423193 -0.364908 -0.293666 0.131880 -0.493782 0.329147 -0.446547 -0.132363 -0.220136 0.053497 -0.087634 -0.229540 0.314275 -0.514628 0.164588 0.047728 -0.146213 0.280297 0.006030 -0.358508 0.035688 -0.046315 -0.253773 0.077828 0.027855 0.147914 0.040675 -0.028737 -0.073728 0.048626 -0.139980 0.059834 0.223518 0.073916 -0.349137 0.137661 0.007443 -0.228940 -0.019169 0.199363 0.256941 0.261571 -0.264583 -0.305969 0.034253 0.047570 0.106611 0.176991 -0.112434 0.027515 -0.122384 0.459819 -0.654818 -0.172253 -0.130151 -0.000889 0.175240 0.268540 -0.050919 0.360724 0.264727 0.470529 0.034951 -0.193369 -0.058395 0.157913 0.014408 -0.117926 0.463238 -0.191191 0.338292 -0.114079 0.174301 -0.105700 -0.044934 0.142491 -0.055025 -0.056627 0.146272 -0.215387 0.216429 -0.200236 -0.414819 -0.280216 -0.326437 -0.331275 -0.334337 0.073769 -0.382710 -0.107392 0.357373 0.069161 0.101131 0.046061 -0.201692 0.113404 0.057639 -0.188702 -0.205600 -0.353595 0.159232 0.318468 -0.441600 -0.276662 -0.026169 -0.310141 0.406415 0.592535 -0.383404 0.577262 -0.455333 -0.089452 -0.032087 -0.080811 0.001377 0.163196 0.265988 0.183169 0.076702 -0.036883 -0.129259 0.309885 -0.175908 -0.140130 -0.005216 -0.165229 0.067785 0.217887 -0.070547 -0.064806 0.154558 -0.129419 0.038484 0.127139 0.112350 0.041857 -0.240345 0.014932 0.031984 -0.043846 -0.008822 0.007950 -0.111250 0.046719 
SandersForPresident 0.007657 -0.049626 0.101243 0.055365 0.389850 -0.030160 0.328378 0.171253 -0.093760 -0.551102 -0.199299 0.572512 -0.018079 0.759805 -0.409532 0.152597 -0.173821 0.328475 -0.065252 0.501391 0.552518 0.190244 0.287413 -0.237200 -0.045032 -0.111758 -0.049839 -0.054778 -0.157913 -0.309507 -0.363837 0.131044 0.068227 0.161129 0.649446 0.303385 -0.130324 -0.154969 -0.305119 -0.192456 0.292644 -0.074951 0.518380 0.219387 -0.441632 -0.158442 -0.036172 -0.275041 -0.189721 -0.255978 0.461860 0.238642 -0.182862 0.199520 0.291694 -0.450383 -0.415083 -0.377376 -0.273304 0.128230 -0.470581 0.284621 -0.440702 -0.137716 -0.167247 0.074593 -0.035888 -0.200503 0.271601 -0.402580 0.151026 0.072266 -0.138083 0.320759 -0.014669 -0.359731 0.055556 -0.035280 -0.289731 0.082005 0.325682 0.494476 0.111350 0.071347 -0.206048 0.201431 -0.734011 0.219960 0.321150 0.103573 -0.560897 0.171122 0.073413 -0.360756 -0.006508 0.319517 0.313306 0.281609 -0.319195 -0.362535 0.012843 0.100729 0.120756 0.223956 -0.177831 0.045838 -0.083330 0.488909 -0.710393 -0.170746 -0.091710 0.070776 0.187979 0.260609 -0.049345 0.398453 0.240115 0.471943 0.027204 -0.166752 -0.033197 0.212944 -0.008189 -0.069381 0.517490 -0.229690 0.343411 -0.140670 0.301372 -0.129561 -0.084141 0.189781 -0.063326 -0.125323 0.218465 -0.312716 0.279586 -0.178230 -0.510673 -0.305064 -0.371223 -0.428484 -0.437388 0.130083 -0.487742 -0.175673 0.441403 0.053697 0.089256 0.149314 -0.189989 0.137086 0.173082 -0.202799 -0.237535 -0.375890 0.107373 0.355373 -0.530313 -0.283905 -0.027931 -0.217594 0.303732 0.415876 -0.253593 0.404850 -0.312571 -0.055456 0.000144 -0.188788 0.062769 0.290715 0.469225 0.389326 0.151668 -0.081883 -0.216992 0.406200 -0.242840 -0.170022 -0.021073 -0.245273 0.105161 0.280900 -0.070831 -0.132289 0.210764 -0.271571 0.029340 0.128109 0.173652 0.062297 -0.195042 0.037448 0.450379 -0.329757 0.204556 -0.100964 -0.350584 0.151874 
centerleftpolitics 0.098573 -0.257879 0.322802 0.097421 1.121684 0.024965 0.417264 0.221083 0.100589 -0.306949 -0.230977 0.308355 -0.044255 0.453916 -0.224354 0.056428 -0.200973 0.300860 -0.025188 0.422629 0.497786 0.162351 0.272455 -0.189347 -0.118656 -0.154379 -0.277854 -0.068992 -0.302688 -0.639404 -0.670458 0.327189 0.021132 0.096579 0.809694 0.391619 -0.297569 -0.290257 -0.322473 -0.225586 0.241111 -0.020431 0.504292 0.277557 -0.496591 -0.159678 -0.037792 -0.344654 -0.118545 -0.231046 0.417278 0.134612 -0.253477 0.180456 0.246064 -0.420853 -0.402393 -0.220969 -0.231427 0.133117 -0.420333 0.310399 -0.399524 -0.115022 -0.213227 0.009340 -0.151960 -0.116629 0.072222 -0.304518 -0.025458 -0.054784 -0.027294 0.419068 -0.096865 -0.337017 0.105487 0.060901 -0.376054 0.004540 0.523734 0.605499 0.146996 0.231781 -0.181303 0.261650 -1.047567 0.302072 0.589741 0.188134 -1.205871 0.360102 0.176444 -0.649338 0.008423 0.616302 0.419608 0.337297 -0.573533 -0.548831 -0.074192 0.272715 0.258541 0.275925 -0.308711 0.076609 -0.016466 0.659090 -1.007238 -0.303270 -0.012598 0.270608 0.196372 0.365781 -0.071656 0.824504 0.435225 0.898948 0.138905 -0.193160 0.031052 0.268152 0.006498 0.023099 0.682119 -0.330628 0.421211 -0.223920 0.278247 -0.009991 -0.153213 0.101818 0.041896 -0.152640 0.212711 -0.234845 0.229456 -0.076060 -0.424826 -0.249568 -0.279690 -0.356518 -0.424220 0.168673 -0.443472 -0.137654 0.404391 -0.023916 -0.001427 0.268027 -0.044555 0.092178 0.182537 0.030341 -0.028030 0.031415 -0.096113 -0.011779 -0.105926 -0.007906 -0.006566 -0.018638 0.103506 0.018055 -0.032269 -0.017761 0.061425 -0.003891 0.009883 -0.123031 -0.057302 0.371299 0.438040 0.343642 0.020082 -0.181302 -0.279396 0.498101 -0.248687 -0.185037 -0.132439 -0.208208 0.036066 0.226740 -0.079408 -0.216690 0.347597 -0.419398 -0.098841 0.322599 0.393124 0.135558 -0.314109 -0.078062 0.087077 -0.193344 0.261949 -0.016163 -0.197803 0.080411 
Pete_Buttigieg 0.213778 -0.283279 0.447440 0.139667 1.072989 -0.035936 0.271622 0.105563 -0.084534 -0.392374 -0.129838 0.391290 0.004937 0.549748 -0.297353 0.095491 -0.092395 0.183362 -0.047997 0.318393 0.315429 0.105596 0.160956 -0.145103 -0.068539 -0.095525 -0.104276 -0.080608 -0.223492 -0.458888 -0.476850 0.181723 0.088856 0.213746 0.961089 0.434504 -0.215534 -0.251702 -0.415575 -0.274934 0.301745 -0.089524 0.562151 0.226197 -0.470346 -0.155005 -0.012075 -0.288737 -0.180579 -0.242741 0.431455 0.205663 -0.165714 0.205976 0.255175 -0.429179 -0.404267 -0.356364 -0.248304 0.120479 -0.464149 0.286161 -0.436850 -0.125014 -0.168980 0.052146 -0.033397 -0.168894 0.236773 -0.345656 0.137869 0.055235 -0.185958 0.432461 -0.029435 -0.480981 0.070643 -0.045549 -0.407705 0.101766 0.446096 0.670620 0.156637 0.105798 -0.282978 0.266812 -0.998130 0.305843 0.318180 0.106643 -0.550590 0.165530 0.067844 -0.368265 -0.006821 0.319926 0.295215 0.261045 -0.290389 -0.349427 0.017328 0.092966 0.115279 0.226551 -0.151529 0.033250 -0.077577 0.403345 -0.575411 -0.130489 -0.082867 0.043608 0.146635 0.179720 -0.033580 0.246618 0.158842 0.320254 -0.005818 -0.117787 -0.014282 0.313746 0.024524 -0.054320 0.820589 -0.390782 0.564767 -0.261703 0.541911 -0.149675 -0.235195 0.294306 -0.041596 -0.221269 0.420854 -0.532492 0.225833 -0.102297 -0.397388 -0.224247 -0.288922 -0.332397 -0.363647 0.123390 -0.347929 -0.124124 0.314113 0.003780 0.023356 0.157040 -0.090042 0.096301 0.173879 -0.136690 -0.170292 -0.249202 0.047268 0.259662 -0.415487 -0.207206 -0.033931 -0.132867 0.231031 0.245193 -0.165377 0.261288 -0.165578 -0.031380 -0.011619 -0.175183 0.035831 0.298425 0.467473 0.366220 0.125403 -0.091418 -0.181040 0.338464 -0.180826 -0.146120 -0.060211 -0.187547 0.070561 0.217004 -0.048981 -0.107399 0.155675 -0.222793 -0.014866 0.086286 0.142028 0.038975 -0.045633 0.021593 0.401944 -0.295707 0.211649 -0.086728 -0.334707 0.154798 
moderatepolitics 0.076065 -0.176337 0.318790 0.175830 0.921659 -0.058536 0.209835 0.136493 -0.069998 -0.221980 -0.011157 0.261603 -0.008610 0.255719 -0.151443 0.110256 -0.150188 0.317956 -0.086287 0.439990 0.504793 0.209234 0.241967 -0.185197 -0.135175 -0.179850 -0.113294 -0.140554 -0.326066 -0.646498 -0.733673 0.238883 0.115262 0.222060 0.878893 0.364674 -0.176284 -0.201660 -0.435409 -0.256497 0.346199 -0.066718 0.574913 0.254971 -0.516584 -0.218072 -0.083469 -0.281698 -0.249830 -0.328960 0.570232 0.307226 -0.268235 0.233209 0.351472 -0.592870 -0.639567 -0.554640 -0.459177 0.189117 -0.733338 0.450606 -0.705725 -0.219144 -0.203537 0.092889 -0.055111 -0.270138 0.382743 -0.624038 0.229797 0.111893 -0.122037 0.226924 0.001378 -0.271399 0.033117 -0.027501 -0.205346 0.061600 0.215268 0.368664 0.051323 0.044441 -0.169285 0.152928 -0.490626 0.139905 0.331962 0.099395 -0.495883 0.183733 0.039708 -0.321344 -0.018315 0.321098 0.195253 0.241499 -0.217182 -0.290578 0.018772 0.087018 0.073200 0.139793 -0.191127 0.062036 -0.129671 0.594347 -0.807192 -0.208602 -0.175702 0.038140 0.245427 0.370773 -0.064275 0.531284 0.345179 0.656419 0.032169 -0.237366 -0.038485 0.233540 -0.028043 -0.105252 0.633202 -0.269117 0.404382 -0.144798 0.244198 -0.105644 -0.044085 0.162815 -0.087614 -0.108501 0.209629 -0.277082 0.144663 -0.136951 -0.306351 -0.194680 -0.229861 -0.255734 -0.271277 0.082416 -0.258124 -0.110662 0.259245 0.035607 0.044674 0.035798 -0.130758 0.066678 0.060003 -0.140982 -0.195137 -0.289417 0.107912 0.271754 -0.368054 -0.199862 -0.015067 -0.160265 0.219911 0.322418 -0.165498 0.313365 -0.284029 -0.058985 0.021506 -0.088733 0.073614 0.059011 0.157451 0.150377 0.096658 -0.005736 -0.054786 0.111765 -0.087144 -0.052580 0.060555 -0.097670 0.075634 0.123996 -0.035297 -0.132327 0.242056 -0.288317 0.058023 0.176617 0.175717 0.085458 -0.094758 0.066679 0.365597 -0.340223 0.171654 -0.127919 -0.327665 0.118087 
ElizabethWarren 0.215551 -0.242227 0.220348 -0.001196 0.792632 0.057963 0.350060 0.194047 0.127349 -0.309238 -0.282183 0.244928 -0.016824 0.488110 -0.223150 -0.002731 -0.138605 0.155265 0.019825 0.252719 0.276041 0.049759 0.172473 -0.114954 -0.036006 -0.011678 -0.204897 0.012888 -0.107474 -0.297748 -0.234076 0.181003 0.002180 0.064911 0.769471 0.398326 -0.304180 -0.311749 -0.252478 -0.203390 0.131903 -0.027419 0.501917 0.270954 -0.459215 -0.070680 0.049357 -0.356564 -0.074345 -0.185796 0.375097 0.029791 -0.224484 0.220555 0.170473 -0.355743 -0.580350 -0.352584 -0.320849 0.188543 -0.615370 0.450735 -0.582054 -0.155849 -0.293846 -0.022336 -0.193082 -0.131941 0.070574 -0.331912 -0.044431 -0.098882 0.003818 0.518414 -0.146764 -0.405231 0.133731 0.089550 -0.484707 -0.028190 0.376932 0.316307 0.104451 0.220576 -0.064758 0.142349 -0.687853 0.217170 0.305856 0.101403 -0.811316 0.196000 0.162922 -0.373909 0.045193 0.357452 0.309846 0.190352 -0.457393 -0.398670 -0.101412 0.257489 0.245264 0.212369 -0.318163 0.049629 0.017092 0.568855 -0.904204 -0.288556 0.032435 0.298782 0.117090 0.245820 -0.054220 0.653663 0.316331 0.686580 0.123115 -0.092185 0.056446 0.265368 0.041724 0.075562 0.680924 -0.356377 0.440323 -0.264473 0.320897 0.026307 -0.239398 0.109188 0.088915 -0.152717 0.262642 -0.242392 0.169002 0.025059 -0.298333 -0.132475 -0.180998 -0.229518 -0.316391 0.102927 -0.316599 -0.099890 0.284775 -0.062969 -0.033641 0.258540 0.005608 0.056337 0.295946 -0.071668 -0.107691 -0.104781 -0.058161 0.125889 -0.347486 -0.141934 -0.036201 -0.136898 0.288708 0.233681 -0.217349 0.225844 -0.091209 -0.019652 -0.005267 -0.173267 -0.083197 0.513674 0.616983 0.481425 0.049926 -0.231863 -0.418167 0.757227 -0.361519 -0.304441 -0.218027 -0.337979 0.082586 0.356403 -0.113396 -0.260751 0.331313 -0.470713 -0.168060 0.302293 0.441140 0.118941 -0.520404 -0.102422 0.253587 -0.275331 0.356073 -0.012473 -0.247158 0.114764 
progressive 0.145099 -0.120829 0.176632 0.015349 0.698731 0.021179 0.699999 0.397073 -0.000276 -0.327144 -0.156499 0.368764 -0.030670 0.443315 -0.252282 0.097397 -0.138837 0.204717 -0.042530 0.271568 0.350180 0.099254 0.193904 -0.105162 -0.067167 -0.010786 -0.151342 -0.045315 -0.157264 -0.402796 -0.373776 0.163518 0.057578 0.075806 0.743222 0.318407 -0.230913 -0.254606 -0.266885 -0.194039 0.202731 -0.040009 0.500568 0.289887 -0.427637 -0.110786 -0.007782 -0.319636 -0.115364 -0.218320 0.380295 0.137488 -0.255890 0.178739 0.163313 -0.397921 -0.346656 -0.237983 -0.228466 0.118413 -0.403544 0.288386 -0.353605 -0.105834 -0.253688 0.026710 -0.134910 -0.200806 0.241258 -0.510655 0.110807 -0.008081 -0.041300 0.312188 -0.065442 -0.315992 0.063818 0.008727 -0.270390 0.010882 0.318038 0.455471 0.136642 0.142159 -0.162437 0.208858 -0.711629 0.235176 0.295169 0.088045 -0.592846 0.211935 0.045496 -0.296578 0.004302 0.292458 0.157034 0.130818 -0.230023 -0.205946 -0.021955 0.076201 0.131669 0.084719 -0.216890 0.046659 -0.008615 0.499980 -0.748458 -0.235516 -0.029503 0.147983 0.094366 0.207030 -0.059056 0.463611 0.296088 0.539705 0.108953 -0.106826 0.014168 0.284273 0.052936 -0.024977 0.796462 -0.383978 0.545062 -0.244169 0.418298 -0.058807 -0.233935 0.156536 0.047098 -0.198308 0.323875 -0.398542 0.165409 -0.069103 -0.299746 -0.196565 -0.232271 -0.252640 -0.299680 0.129737 -0.354920 -0.070148 0.339835 -0.016702 -0.004740 0.207376 -0.034662 0.093920 0.247267 -0.166354 -0.241559 -0.339186 0.056640 0.334915 -0.559231 -0.308208 -0.035519 -0.155231 0.271911 0.256001 -0.227076 0.255889 -0.159285 -0.085244 -0.006633 -0.093043 -0.079259 0.290359 0.335888 0.233702 -0.008839 -0.142370 -0.134829 0.271548 -0.101190 -0.085420 -0.110786 -0.076104 0.009959 0.119221 -0.114854 -0.174275 0.252204 -0.293323 -0.087614 0.258442 0.308336 0.092485 -0.114528 -0.053869 0.307965 -0.197779 0.208906 0.000468 -0.258296 0.116702 
JoeBiden 0.178814 -0.360944 0.338825 0.116666 1.270789 0.011090 0.248828 0.069886 0.119107 -0.092676 -0.142888 0.072484 -0.032291 0.186332 -0.073697 -0.010058 -0.048914 0.071078 0.034513 0.116778 0.115473 0.057027 0.063486 -0.063816 -0.099462 -0.175851 -0.239652 -0.071211 -0.282275 -0.508820 -0.585911 0.279458 0.019967 0.154996 0.845271 0.415070 -0.270138 -0.253114 -0.404749 -0.258530 0.212770 -0.005540 0.457349 0.234360 -0.469814 -0.141486 -0.014721 -0.334817 -0.103445 -0.206426 0.388233 0.102098 -0.223823 0.188609 0.229199 -0.394442 -0.470332 -0.300279 -0.262893 0.154665 -0.484060 0.309332 -0.462854 -0.155326 -0.188199 0.051962 -0.108056 -0.130767 0.102190 -0.310186 0.005589 -0.011610 -0.124948 0.657436 -0.125013 -0.579625 0.138320 0.051751 -0.594865 0.068394 0.643412 0.722655 0.146784 0.258809 -0.235638 0.317550 -1.259343 0.329682 0.577577 0.170274 -1.084002 0.318800 0.184500 -0.617281 0.011386 0.593113 0.452640 0.399860 -0.580927 -0.617555 -0.071076 0.313445 0.221372 0.306725 -0.330928 0.106594 -0.072753 0.749282 -1.134888 -0.313817 -0.077028 0.254622 0.209140 0.343026 -0.047889 0.717287 0.315510 0.746696 0.073983 -0.181883 0.019369 0.253573 -0.011271 0.024831 0.605170 -0.289837 0.366641 -0.201553 0.327718 -0.046072 -0.140988 0.148574 0.007963 -0.142027 0.238289 -0.276259 0.071437 0.049813 -0.098169 -0.026537 -0.033425 -0.093292 -0.127169 0.073033 -0.138018 -0.077372 0.110304 -0.039128 -0.028076 0.138306 0.032916 0.029814 0.196251 -0.037414 -0.105949 -0.087857 -0.042338 0.099831 -0.249928 -0.081072 -0.024828 -0.078225 0.193542 0.149485 -0.092627 0.140547 -0.076580 -0.015950 0.014155 -0.233552 0.029573 0.440587 0.645105 0.543505 0.152483 -0.178949 -0.362298 0.640472 -0.351068 -0.262536 -0.106399 -0.328418 0.113598 0.361718 0.005219 -0.092315 0.129350 -0.198562 -0.067996 0.108438 0.173449 0.055087 -0.136222 -0.060529 0.027529 -0.035307 0.144041 -0.001509 0.016908 -0.000221 
Kamala 0.276829 -0.467834 0.331858 0.042810 1.217782 0.087863 0.093661 0.047228 0.242586 -0.131020 -0.302245 0.055113 -0.038382 0.299420 -0.113251 -0.079012 -0.023052 -0.083215 0.103939 -0.086392 -0.103676 -0.085510 -0.021656 0.029591 -0.045537 -0.044233 -0.319802 0.016673 -0.156569 -0.364571 -0.317530 0.269110 -0.037957 0.053543 0.915697 0.497589 -0.391216 -0.377600 -0.315488 -0.253274 0.171875 -0.019599 0.564258 0.301361 -0.549259 -0.095316 0.054367 -0.457947 -0.067058 -0.231081 0.449533 0.049770 -0.289872 0.256928 0.228611 -0.418965 -0.583022 -0.322120 -0.286134 0.203128 -0.594660 0.433775 -0.551720 -0.162022 -0.361368 -0.000348 -0.227229 -0.168107 0.069642 -0.382920 -0.078300 -0.100187 -0.074720 0.886603 -0.213157 -0.743078 0.206687 0.106838 -0.820493 0.022383 0.834330 0.860503 0.223212 0.392668 -0.252982 0.389792 -1.606818 0.465480 0.562768 0.179996 -1.261379 0.326404 0.232101 -0.663152 0.045096 0.620368 0.493223 0.345670 -0.663521 -0.618974 -0.103286 0.358259 0.304865 0.343081 -0.288818 0.061720 0.053882 0.456784 -0.747906 -0.237189 0.080035 0.319284 0.006778 0.063879 -0.012109 0.394214 0.095436 0.339796 0.075458 0.025867 0.057054 0.216501 0.025820 0.112399 0.483393 -0.263582 0.301431 -0.225075 0.406220 -0.016275 -0.257837 0.168442 0.063804 -0.163000 0.293030 -0.305961 0.202939 0.028522 -0.322291 -0.113877 -0.194297 -0.262527 -0.317108 0.097620 -0.321113 -0.134991 0.261552 -0.041496 0.007135 0.232233 -0.020630 0.074957 0.298355 -0.062455 -0.066004 -0.054445 -0.086669 0.086561 -0.278690 -0.090827 -0.027539 -0.025522 0.133449 0.019519 -0.078515 0.030947 0.070246 0.031482 0.010170 -0.189052 -0.072045 0.489256 0.590308 0.493483 0.081044 -0.210521 -0.387927 0.658602 -0.307137 -0.266184 -0.226696 -0.299073 0.074494 0.289093 0.015582 -0.026408 -0.072264 -0.017361 -0.149412 -0.056689 0.053074 -0.010786 -0.379261 -0.114619 -0.111547 0.100276 0.104085 0.080295 0.172869 -0.040162 
SocialDemocracy 0.227074 -0.214163 0.155800 0.044368 0.710055 0.022995 0.644431 0.206375 0.025184 -0.044756 -0.056429 0.072296 -0.001097 0.129138 -0.050104 0.009039 -0.064559 0.121824 -0.029101 0.227951 0.258529 0.068242 0.129587 -0.086289 -0.089416 -0.131292 -0.128080 -0.098711 -0.247334 -0.506086 -0.562253 0.215593 0.086301 0.130514 0.800069 0.363412 -0.182998 -0.206441 -0.351994 -0.228697 0.366241 -0.080050 0.841322 0.412799 -0.701259 -0.197508 -0.006077 -0.523535 -0.210889 -0.357439 0.641282 0.253036 -0.363492 0.318177 0.304924 -0.660444 -0.457971 -0.347085 -0.264917 0.148564 -0.487853 0.353597 -0.446465 -0.159308 -0.208815 0.031880 -0.100402 -0.164118 0.180536 -0.386602 0.062375 0.015176 -0.116380 0.589671 -0.114932 -0.581334 0.129520 0.013081 -0.510591 0.047862 0.486610 0.635511 0.166013 0.203118 -0.237261 0.291787 -1.018592 0.315425 0.342317 0.093677 -0.705027 0.224681 0.091684 -0.356576 0.031177 0.375341 0.290228 0.285471 -0.393121 -0.404179 -0.035634 0.175914 0.191239 0.188733 -0.301044 0.087133 -0.034200 0.681731 -0.984495 -0.282543 -0.079119 0.176010 0.180364 0.316062 -0.079195 0.622724 0.375647 0.718909 0.100289 -0.159060 -0.004295 0.381810 0.056996 -0.052389 1.037124 -0.501861 0.706592 -0.281444 0.564456 -0.133080 -0.277788 0.246889 -0.022425 -0.248446 0.429788 -0.561360 0.066866 0.005380 -0.118847 -0.052954 -0.102034 -0.097731 -0.113454 0.056560 -0.082601 -0.010560 0.094759 -0.033151 -0.036136 0.103016 0.025307 0.039475 0.195627 -0.155757 -0.204761 -0.289109 0.050404 0.301761 -0.459548 -0.260348 -0.052627 -0.185001 0.301115 0.319157 -0.263633 0.359993 -0.261996 -0.099460 0.001899 -0.111717 -0.022701 0.206101 0.288339 0.210273 0.029555 -0.098605 -0.101227 0.196120 -0.060336 -0.061219 -0.074316 -0.065982 0.049579 0.124123 -0.031148 -0.064370 0.038713 -0.072278 -0.075806 0.086009 0.103434 0.024101 -0.113827 -0.040111 0.201744 -0.080770 0.127304 0.003129 -0.078975 0.038006 
demsocialist 0.175305 -0.197334 0.295747 0.137429 0.817761 -0.031192 0.591432 0.256434 -0.056030 -0.162701 -0.038126 0.192443 0.009371 0.255187 -0.123714 0.061570 -0.058661 0.134557 -0.042391 0.244420 0.266541 0.078700 0.122618 -0.097463 -0.058185 -0.101657 -0.038287 -0.072240 -0.149513 -0.296951 -0.350766 0.117008 0.075607 0.124324 0.547096 0.249198 -0.094576 -0.114759 -0.262043 -0.159643 0.410072 -0.106573 0.764787 0.328198 -0.645022 -0.230256 -0.051789 -0.423851 -0.243195 -0.349111 0.610627 0.320508 -0.284153 0.277194 0.356020 -0.609811 -0.490693 -0.442327 -0.320322 0.150648 -0.543317 0.355150 -0.515115 -0.175593 -0.230980 0.075553 -0.063778 -0.265430 0.339387 -0.556172 0.180194 0.098511 -0.175950 0.508584 -0.042230 -0.554990 0.103679 -0.033532 -0.445708 0.087041 0.471192 0.688005 0.143623 0.140871 -0.287762 0.301636 -1.023499 0.318060 0.457223 0.140382 -0.802945 0.262277 0.091176 -0.487369 0.006759 0.473287 0.416179 0.432140 -0.452742 -0.530010 0.030267 0.156268 0.180180 0.300874 -0.180264 0.055651 -0.072364 0.483980 -0.649999 -0.162870 -0.111043 0.049763 0.162642 0.230192 -0.055253 0.330024 0.222346 0.413431 0.017131 -0.135242 -0.025239 0.272350 0.012722 -0.065782 0.710144 -0.328503 0.470214 -0.163492 0.414664 -0.142807 -0.162204 0.216764 -0.082553 -0.182289 0.308053 -0.434872 0.108940 -0.074153 -0.210982 -0.108544 -0.169642 -0.179826 -0.169894 0.056791 -0.226154 -0.088675 0.222833 0.026039 0.041556 0.057749 -0.101687 0.075934 0.129594 -0.168810 -0.199744 -0.307096 0.078597 0.307012 -0.419225 -0.236288 -0.027345 -0.136026 0.190454 0.236472 -0.165877 0.258966 -0.223617 -0.067848 0.025307 -0.102866 0.031920 0.103797 0.179640 0.163422 0.066935 -0.038045 0.010234 -0.038349 0.034877 0.033190 0.014714 0.017429 0.032452 0.010686 -0.034941 -0.076152 0.085604 -0.130525 0.009171 0.066057 0.075912 0.033818 -0.229197 0.028238 0.370786 -0.269383 0.165276 -0.079456 -0.257677 0.105067 
BetoORourke 0.134914 -0.236246 0.285609 0.049827 0.829775 0.022177 0.033463 0.077750 0.076022 -0.187439 -0.150780 0.169482 -0.020145 0.252801 -0.133601 0.013793 -0.099072 0.116071 -0.000500 0.159039 0.185709 0.047920 0.112424 -0.061119 -0.079249 -0.043271 -0.203336 -0.037023 -0.191707 -0.428003 -0.400493 0.203953 0.029800 0.094312 0.762127 0.364291 -0.272843 -0.273361 -0.283315 -0.214268 0.149355 -0.026123 0.366359 0.210564 -0.357173 -0.089235 -0.001993 -0.243906 -0.099531 -0.188005 0.320994 0.089604 -0.209052 0.168208 0.154602 -0.331527 -0.503148 -0.320716 -0.307759 0.162781 -0.563785 0.392953 -0.527198 -0.139548 -0.232303 -0.010870 -0.147573 -0.125482 0.110002 -0.349833 0.025112 -0.065415 -0.079267 0.488669 -0.097225 -0.463295 0.094535 0.028504 -0.455368 0.017727 0.371714 0.472394 0.126559 0.163615 -0.173623 0.202051 -0.783216 0.260570 0.394208 0.124941 -0.809864 0.254284 0.107995 -0.423010 0.012011 0.397729 0.347394 0.290661 -0.459772 -0.465524 -0.042208 0.207910 0.220741 0.241285 -0.244163 0.031570 -0.038844 0.529017 -0.812216 -0.248758 -0.035887 0.179515 0.143071 0.261146 -0.059716 0.558988 0.315473 0.635993 0.098131 -0.138068 0.000673 0.288009 0.018311 -0.034331 0.794389 -0.364596 0.525429 -0.261561 0.382941 -0.060551 -0.187763 0.209433 0.011860 -0.158953 0.330912 -0.365838 0.295385 -0.145290 -0.544697 -0.319526 -0.387586 -0.434402 -0.508498 0.156310 -0.464015 -0.152507 0.428433 -0.001991 0.031287 0.192956 -0.122783 0.106561 0.166704 -0.089389 -0.124896 -0.160057 0.019517 0.159007 -0.326245 -0.153796 -0.021241 -0.153176 0.273205 0.283002 -0.203417 0.267330 -0.169627 -0.022667 -0.015630 -0.127616 -0.035876 0.335977 0.451411 0.353540 0.077117 -0.131297 -0.275651 0.522139 -0.263906 -0.223873 -0.105415 -0.247542 0.069825 0.273614 -0.099434 -0.209285 0.327843 -0.411439 -0.047929 0.253415 0.326211 0.102978 -0.543447 -0.013091 0.325170 -0.390027 0.307494 -0.075476 -0.405265 0.173873 
ConservativeDemocrat 0.102937 -0.160208 0.210854 0.106633 0.761778 -0.018524 0.365546 0.177241 -0.040837 -0.315524 -0.115331 0.343619 -0.017255 0.440057 -0.233725 0.094425 -0.135975 0.257827 -0.057729 0.394047 0.442442 0.158387 0.228546 -0.177998 -0.076245 -0.134717 -0.097495 -0.076712 -0.216044 -0.420965 -0.484007 0.185598 0.068558 0.135465 0.629224 0.284328 -0.143455 -0.156987 -0.299354 -0.189112 0.303418 -0.059627 0.546354 0.249436 -0.477357 -0.175019 -0.048601 -0.304475 -0.188711 -0.271711 0.476846 0.238375 -0.226602 0.204261 0.285443 -0.484534 -0.512797 -0.416842 -0.333869 0.158475 -0.569707 0.376544 -0.536814 -0.171264 -0.206979 0.058156 -0.083788 -0.205215 0.262083 -0.467986 0.126804 0.047202 -0.102511 0.360625 -0.046018 -0.371854 0.076354 -0.004691 -0.314149 0.053750 0.365884 0.517188 0.120348 0.116762 -0.201189 0.223090 -0.789991 0.236853 0.432085 0.129608 -0.782467 0.252358 0.096799 -0.459404 0.002801 0.438568 0.343489 0.338775 -0.403093 -0.443916 -0.008961 0.155601 0.165409 0.236485 -0.245129 0.072923 -0.073908 0.619952 -0.895357 -0.237787 -0.099928 0.128604 0.222113 0.350383 -0.071401 0.608120 0.367167 0.710087 0.077225 -0.205913 -0.015847 0.267930 0.010703 -0.060112 0.710316 -0.327532 0.464711 -0.181907 0.335300 -0.103389 -0.129162 0.173921 -0.045138 -0.150386 0.260984 -0.349218 0.249157 -0.151197 -0.474209 -0.282561 -0.346156 -0.386906 -0.413658 0.129745 -0.392973 -0.137484 0.373458 0.021610 0.043855 0.146353 -0.136603 0.114486 0.106508 -0.089434 -0.122586 -0.164932 0.032727 0.168539 -0.258152 -0.139529 -0.023166 -0.121881 0.186983 0.229202 -0.154573 0.232944 -0.179212 -0.045902 0.005278 -0.100517 0.016353 0.170879 0.259626 0.205473 0.060449 -0.067998 -0.140584 0.260488 -0.138607 -0.106352 -0.033562 -0.140409 0.063057 0.170341 -0.069275 -0.151300 0.231816 -0.287485 -0.015505 0.195586 0.223001 0.086556 -0.192012 0.011666 0.261576 -0.276096 0.208192 -0.080269 -0.271365 0.109144 
