15 200
BaemyKlobaechar 0.109929 -0.168765 0.184164 0.076292 0.619193 -0.030304 0.455812 0.157732 -0.049550 -0.418084 -0.128367 0.379195 -0.004921 0.517569 -0.293368 0.109224 -0.163047 0.259326 -0.084743 0.384101 0.424392 0.131347 0.210528 -0.149690 -0.023462 -0.010054 -0.065791 -0.010315 -0.061126 -0.171290 -0.130865 0.074245 0.001957 0.092757 0.355756 0.153032 -0.112253 -0.114244 -0.144912 -0.067721 0.038122 -0.025861 0.127956 0.090631 -0.122501 -0.019233 0.007284 -0.082035 -0.024112 -0.068360 0.098718 0.006023 -0.073829 0.051036 0.058932 -0.088039 -0.243125 -0.151836 -0.154176 0.055784 -0.280859 0.190586 -0.274413 -0.031969 -0.120806 0.012554 -0.071007 -0.108761 0.124482 -0.196212 0.042149 -0.003825 -0.137524 0.280030 0.006486 -0.309982 0.028367 -0.018497 -0.301724 0.050108 0.242631 0.420352 0.087754 0.038140 -0.155568 0.121358 -0.567711 0.198377 0.301138 0.132690 -0.597009 0.177131 0.056135 -0.377561 -0.022360 0.307295 0.267806 0.202881 -0.328447 -0.325564 0.012812 0.116750 0.153501 0.224205 -0.092438 -0.016303 -0.076058 0.325394 -0.491598 -0.150784 -0.039188 0.053794 0.090194 0.153389 -0.033633 0.286770 0.200061 0.389229 0.039351 -0.119323 -0.064050 0.298636 -0.029172 -0.122025 0.870972 -0.374269 0.580802 -0.308152 0.351984 -0.087664 -0.134238 0.278692 -0.031196 -0.155742 0.327876 -0.361625 0.305990 -0.235689 -0.625703 -0.362052 -0.434271 -0.498118 -0.542271 0.141165 -0.559197 -0.188691 0.489581 0.051301 0.100685 0.155142 -0.195757 0.080734 0.149879 -0.217728 -0.217570 -0.351491 0.123269 0.374270 -0.567276 -0.269640 0.007776 -0.248877 0.371808 0.492722 -0.273333 0.453244 -0.324675 0.022139 -0.013843 -0.083866 -0.005991 0.243713 0.309259 0.239641 0.099873 -0.044522 -0.202038 0.374671 -0.220286 -0.188192 -0.060691 -0.207051 0.026499 0.193713 -0.081771 -0.171833 0.385957 -0.428260 0.032593 0.216886 0.269277 0.099457 -0.329938 0.049015 0.438979 -0.426346 0.242555 -0.106492 -0.408823 0.198687 
politics 0.049411 -0.083847 0.362600 0.064601 0.287198 -0.012029 0.089836 0.156594 -0.198307 -0.733439 -0.111495 0.749423 0.003960 0.870294 -0.495855 0.246125 -0.224129 0.502354 -0.160688 0.720776 0.787809 0.325756 0.344936 -0.314424 -0.092313 -0.152683 -0.028436 -0.102955 -0.196225 -0.311398 -0.366937 0.107261 0.084442 0.202402 0.544237 0.244879 -0.092441 -0.082810 -0.331670 -0.187697 0.547560 -0.138810 0.831104 0.326388 -0.766321 -0.340133 -0.132281 -0.315797 -0.300038 -0.336813 0.576524 0.348752 -0.206630 0.206392 0.414380 -0.591445 -0.409133 -0.341373 -0.300143 0.128241 -0.487666 0.280483 -0.493938 -0.102128 -0.209162 0.096367 -0.040461 -0.265503 0.385858 -0.551452 0.242702 0.114076 -0.022605 -0.015588 0.040375 0.001943 -0.005141 0.012698 -0.012057 0.001735 0.070235 0.158593 -0.010933 -0.019904 -0.092407 0.033393 -0.171193 0.073462 0.396262 0.152494 -0.614898 0.204299 0.061443 -0.439361 -0.049112 0.360275 0.334908 0.315549 -0.352533 -0.426738 0.042335 0.126911 0.121215 0.288377 -0.054538 -0.019693 -0.093721 0.272370 -0.374066 -0.090997 -0.086719 0.011747 0.207419 0.268348 -0.047194 0.299526 0.225499 0.426733 -0.019888 -0.206946 -0.026995 0.167825 -0.016682 -0.074837 0.481965 -0.194694 0.310003 -0.179397 0.096618 -0.007175 -0.036103 0.106888 -0.023042 -0.018047 0.123898 -0.089630 0.146045 -0.131778 -0.314421 -0.184380 -0.225065 -0.238711 -0.302678 0.067414 -0.465355 -0.198466 0.424546 0.058527 0.084326 0.042494 -0.229911 0.067113 0.028320 -0.218780 -0.233253 -0.409153 0.199429 0.371970 -0.531206 -0.255437 -0.015594 -0.224519 0.307494 0.482510 -0.195772 0.461058 -0.372044 0.003709 -0.015636 -0.022504 0.068266 -0.042608 0.044410 0.045062 0.049505 0.030325 -0.137213 0.288493 -0.219494 -0.144962 0.077159 -0.216963 0.102882 0.219444 -0.056932 -0.204466 0.412416 -0.500392 0.107159 0.210710 0.270873 0.090625 -0.243539 0.065728 0.330835 -0.332307 0.165506 -0.112040 -0.354880 0.120649 
YangForPresidentHQ 0.002322 -0.074243 0.093058 0.056311 0.406446 -0.038076 0.312165 0.145482 -0.057545 -0.260159 -0.072184 0.245367 0.001514 0.333835 -0.191469 0.080675 -0.102308 0.184449 -0.051354 0.265362 0.286911 0.102268 0.150100 -0.109242 -0.026765 -0.037567 -0.022811 -0.038273 -0.090119 -0.191124 -0.205327 0.064303 0.019111 0.077054 0.253226 0.099851 -0.039293 -0.066353 -0.103397 -0.057712 0.124519 -0.043722 0.245215 0.116316 -0.194406 -0.064356 -0.006690 -0.120885 -0.091539 -0.128320 0.224503 0.092684 -0.095453 0.108608 0.133307 -0.220781 -0.389462 -0.352960 -0.263724 0.092548 -0.456546 0.291881 -0.432435 -0.113085 -0.146798 0.042691 -0.036991 -0.175345 0.259342 -0.374771 0.152937 0.060897 -0.111957 0.117692 0.014831 -0.176738 0.014851 -0.056223 -0.108362 0.073267 0.134934 0.266213 0.060750 0.001006 -0.123932 0.101465 -0.344419 0.093580 0.191938 0.061310 -0.267799 0.098164 0.014765 -0.201929 -0.014472 0.183693 0.148091 0.152801 -0.108848 -0.169075 0.030488 0.004390 0.034439 0.099475 -0.155069 0.026229 -0.188393 0.598782 -0.824643 -0.199697 -0.195679 -0.034831 0.246982 0.336001 -0.046386 0.441655 0.320101 0.595800 0.000591 -0.248315 -0.042098 0.144913 -0.015801 -0.091894 0.388637 -0.165365 0.284593 -0.115130 0.144378 -0.086729 -0.025541 0.113179 -0.042916 -0.062770 0.113582 -0.158541 0.194785 -0.175027 -0.364632 -0.238067 -0.276811 -0.320015 -0.306463 0.073193 -0.276460 -0.096514 0.257902 0.052239 0.073035 0.046265 -0.144422 0.071196 0.044167 -0.121174 -0.137908 -0.240805 0.097495 0.224247 -0.291590 -0.161620 0.004285 -0.153323 0.186715 0.304080 -0.154340 0.281811 -0.232372 -0.020845 -0.022125 -0.169419 0.093760 0.255697 0.446010 0.360546 0.188575 -0.028341 -0.144292 0.338414 -0.208667 -0.161466 0.001047 -0.227225 0.083201 0.252832 -0.034294 -0.058239 0.118390 -0.146460 0.017193 0.066810 0.089120 0.032811 -0.153703 0.025450 0.181580 -0.166278 0.072430 -0.058724 -0.180805 0.079563 
SandersForPresident 0.073872 -0.158603 0.369179 0.148459 0.797015 -0.035021 0.238534 0.079557 -0.085161 -0.346114 -0.058071 0.360293 -0.001309 0.434686 -0.246207 0.121381 -0.096522 0.198297 -0.067198 0.305326 0.334841 0.125789 0.153549 -0.122256 -0.071657 -0.133496 -0.040211 -0.100607 -0.211568 -0.378642 -0.429096 0.141327 0.074907 0.185489 0.578462 0.239113 -0.086524 -0.102577 -0.304006 -0.164309 0.160045 -0.036190 0.241827 0.091365 -0.211325 -0.095363 -0.035937 -0.099738 -0.120082 -0.150453 0.244221 0.149548 -0.099659 0.088198 0.177009 -0.253071 -0.237713 -0.199094 -0.160582 0.056741 -0.267963 0.166663 -0.269330 -0.063628 -0.079714 0.035547 -0.019965 -0.108616 0.153297 -0.216222 0.080418 0.053253 -0.111793 0.185477 0.014989 -0.223214 0.016578 -0.033195 -0.185246 0.050298 0.145518 0.270664 0.042848 0.007688 -0.119847 0.094905 -0.347699 0.114112 0.232394 0.089935 -0.393667 0.123066 0.024156 -0.269499 -0.019970 0.238447 0.184994 0.182340 -0.201850 -0.238667 0.027292 0.066414 0.082001 0.153807 -0.078489 0.001281 -0.102330 0.330301 -0.461380 -0.123873 -0.092908 0.013510 0.142693 0.215988 -0.038614 0.282693 0.209358 0.398944 0.003839 -0.154099 -0.040809 0.160736 -0.018363 -0.074384 0.472935 -0.209256 0.311222 -0.142482 0.240812 -0.081456 -0.082425 0.186834 -0.050873 -0.105348 0.226463 -0.272750 0.136982 -0.115910 -0.307268 -0.172185 -0.223288 -0.230304 -0.257413 0.064842 -0.264632 -0.091968 0.246760 0.022449 0.043835 0.062470 -0.106319 0.045165 0.080783 -0.147185 -0.162298 -0.247154 0.095437 0.259659 -0.370803 -0.193513 -0.004852 -0.142885 0.215630 0.292590 -0.167506 0.287021 -0.222182 -0.007089 -0.013147 -0.149957 0.041514 0.282563 0.438208 0.345861 0.166906 -0.045961 -0.227444 0.453336 -0.278328 -0.230937 -0.019544 -0.283962 0.088878 0.292299 -0.052769 -0.126847 0.273160 -0.302435 0.044618 0.158490 0.182748 0.077766 -0.267209 0.060251 0.362687 -0.327538 0.168484 -0.098378 -0.324078 0.159834 
centerleftpolitics 0.101686 -0.131000 0.025374 0.013843 0.336247 -0.003787 0.393228 0.112798 -0.018454 -0.390080 -0.143378 0.351632 -0.014079 0.481103 -0.272178 0.094987 -0.149453 0.211931 -0.067360 0.304417 0.349001 0.097972 0.173797 -0.116092 -0.025718 -0.005518 -0.092545 0.000825 -0.056710 -0.190077 -0.130676 0.090973 -0.005117 0.093545 0.406757 0.173084 -0.149885 -0.143178 -0.151724 -0.069755 0.073781 -0.032287 0.221565 0.152904 -0.208522 -0.041443 0.002961 -0.141604 -0.043475 -0.110449 0.174359 0.018433 -0.123524 0.081331 0.095543 -0.162502 -0.115721 -0.019566 -0.068134 0.029270 -0.132962 0.109471 -0.124519 0.005987 -0.053757 -0.018143 -0.073941 -0.008756 -0.031881 -0.002060 -0.057186 -0.057827 -0.104632 0.290380 -0.013237 -0.290768 0.036458 0.009106 -0.309874 0.025151 0.228233 0.363519 0.081862 0.065006 -0.112012 0.099306 -0.510859 0.181838 0.322643 0.140775 -0.682364 0.208313 0.069046 -0.400824 -0.024186 0.324890 0.295115 0.208974 -0.411563 -0.383244 -0.013596 0.165874 0.198830 0.245359 -0.065851 -0.024768 0.001013 0.155331 -0.271678 -0.110591 0.044247 0.099595 -0.023278 0.012776 -0.013265 0.167433 0.100431 0.207277 0.069083 -0.017781 -0.059464 0.336226 -0.031286 -0.129153 0.972330 -0.410540 0.639220 -0.341792 0.395747 -0.092057 -0.149415 0.305363 -0.031934 -0.180302 0.363936 -0.403443 0.313668 -0.231685 -0.637079 -0.368568 -0.436587 -0.509430 -0.559210 0.153785 -0.542516 -0.174434 0.470743 0.040390 0.086946 0.176086 -0.166079 0.073195 0.167577 -0.207025 -0.199483 -0.320878 0.099195 0.348622 -0.549539 -0.254273 0.007901 -0.237960 0.360094 0.456500 -0.261807 0.411305 -0.282796 0.026199 -0.011229 -0.072074 -0.025419 0.257731 0.297408 0.225920 0.073224 -0.059581 -0.188783 0.325770 -0.182181 -0.155196 -0.078923 -0.160990 0.000512 0.140532 -0.075598 -0.157709 0.351281 -0.382175 0.005613 0.212043 0.254581 0.095770 -0.328364 0.034297 0.445951 -0.428679 0.261671 -0.098086 -0.399461 0.198045 
Pete_Buttigieg 0.018804 0.002254 -0.116827 -0.020025 0.028800 -0.010325 0.232315 0.090053 -0.059650 -0.337248 -0.093281 0.324666 -0.009452 0.405903 -0.235783 0.097717 -0.112513 0.197846 -0.060950 0.271062 0.303759 0.107842 0.135272 -0.120352 -0.031425 -0.045234 -0.055847 -0.012187 -0.064093 -0.157548 -0.137169 0.061004 0.008824 0.109722 0.331174 0.138218 -0.107981 -0.089320 -0.151314 -0.067747 0.185542 -0.055962 0.316635 0.163215 -0.299123 -0.112363 -0.036859 -0.143110 -0.108674 -0.143787 0.244903 0.104693 -0.107877 0.088429 0.157583 -0.244755 -0.221228 -0.147179 -0.152088 0.075540 -0.265795 0.164504 -0.254362 -0.039595 -0.065448 0.033053 -0.040651 -0.063306 0.070443 -0.121009 0.039503 -0.009277 -0.081895 0.173601 -0.000543 -0.168694 0.016372 0.004332 -0.187239 0.024840 0.130272 0.219547 0.036415 0.029115 -0.077479 0.047005 -0.293220 0.102124 0.110034 0.050454 -0.237948 0.086231 0.033388 -0.129211 -0.026080 0.084862 0.153957 0.098107 -0.241544 -0.217297 -0.023413 0.107419 0.097356 0.126334 -0.068056 -0.026882 -0.039346 0.226484 -0.357755 -0.104551 -0.010520 0.065801 0.069412 0.109153 -0.024487 0.239391 0.163058 0.314962 0.046247 -0.110856 -0.037740 0.221221 -0.032817 -0.110242 0.591632 -0.224292 0.381320 -0.210241 0.163149 -0.057383 -0.017406 0.147193 -0.037564 -0.067317 0.141263 -0.163984 0.219032 -0.179169 -0.418662 -0.258183 -0.289977 -0.350176 -0.372711 0.110234 -0.427765 -0.161014 0.362493 0.068740 0.090181 0.080208 -0.176652 0.068238 0.059427 -0.130617 -0.109857 -0.214070 0.080925 0.207180 -0.326200 -0.137925 0.004533 -0.160618 0.216870 0.317332 -0.134782 0.270309 -0.196711 0.030774 -0.015474 -0.012465 0.023747 0.056661 0.078710 0.058238 0.014177 0.002131 -0.118589 0.195674 -0.145522 -0.083955 0.005876 -0.125898 0.014065 0.112451 -0.017632 -0.072268 0.155772 -0.172952 0.024851 0.083386 0.094732 0.034770 -0.164361 0.024239 0.265276 -0.253241 0.149136 -0.077567 -0.235622 0.092869 
moderatepolitics 0.060232 -0.124994 0.324311 0.102698 0.586127 -0.026858 0.214997 0.098189 -0.112164 -0.427155 -0.082008 0.467089 0.000648 0.560233 -0.314071 0.160116 -0.148775 0.330967 -0.109983 0.525167 0.565750 0.213555 0.255173 -0.207359 -0.063601 -0.105366 -0.019376 -0.096718 -0.167042 -0.282275 -0.332499 0.103863 0.059567 0.125775 0.390248 0.173859 -0.036903 -0.054056 -0.216267 -0.123932 0.308809 -0.080371 0.479297 0.173840 -0.426531 -0.186668 -0.063063 -0.207502 -0.165332 -0.213133 0.345209 0.213713 -0.142365 0.140283 0.252155 -0.348169 -0.359977 -0.331612 -0.243872 0.088552 -0.408711 0.250647 -0.409707 -0.110945 -0.176918 0.067577 -0.023265 -0.232877 0.332931 -0.467780 0.190250 0.129235 -0.099947 0.084191 0.040694 -0.146507 0.011641 -0.048539 -0.086969 0.055821 0.121253 0.232077 0.014825 -0.013335 -0.129833 0.098215 -0.281799 0.087942 0.302241 0.105656 -0.435248 0.137092 0.029290 -0.339420 -0.015850 0.311987 0.196184 0.229657 -0.142117 -0.233248 0.068793 0.025919 0.037348 0.170586 -0.088408 0.021507 -0.144402 0.398515 -0.502091 -0.113968 -0.164100 -0.049667 0.201257 0.260528 -0.041294 0.260298 0.198796 0.379447 -0.042175 -0.178280 -0.049460 0.163647 -0.021307 -0.080760 0.471258 -0.208473 0.324361 -0.141435 0.153305 -0.056031 -0.064401 0.127820 -0.050408 -0.052908 0.145499 -0.166741 0.101213 -0.097187 -0.225007 -0.120722 -0.175042 -0.176049 -0.195786 0.038496 -0.204356 -0.083985 0.203599 0.017499 0.040991 0.016872 -0.106574 0.035586 0.031901 -0.109956 -0.138925 -0.213519 0.093171 0.208590 -0.279772 -0.146075 -0.005876 -0.117150 0.172728 0.239992 -0.118585 0.247620 -0.214152 -0.020965 -0.002965 -0.120291 0.049681 0.158301 0.299218 0.253926 0.142036 -0.024098 -0.142912 0.322709 -0.189026 -0.162865 0.009755 -0.205571 0.097860 0.231431 -0.043970 -0.119399 0.251647 -0.300316 0.047674 0.132815 0.171893 0.062666 -0.217889 0.039730 0.239997 -0.231431 0.117669 -0.061129 -0.253020 0.122242 
ElizabethWarren 0.103636 -0.140034 0.017257 0.055281 0.545243 -0.052686 0.682954 0.203955 -0.040641 -0.445517 -0.155760 0.355940 -0.009422 0.520285 -0.305598 0.095864 -0.180491 0.248156 -0.075021 0.340295 0.379156 0.103802 0.202404 -0.138665 0.027541 0.085264 -0.055848 0.071221 0.072276 0.029534 0.121954 -0.003454 -0.054315 0.023699 0.108973 0.037174 -0.101908 -0.094639 0.004396 0.029561 -0.002394 -0.031801 0.093343 0.109139 -0.082948 0.016194 0.025405 -0.062367 0.008569 -0.028615 0.037921 -0.060894 -0.045044 0.033046 0.008316 -0.014921 -0.181515 -0.087293 -0.118832 0.035318 -0.224364 0.150380 -0.207040 0.003754 -0.093014 0.002122 -0.081296 -0.072925 0.077709 -0.120178 0.019403 -0.055036 -0.116721 0.295767 -0.017670 -0.293471 0.017100 0.003802 -0.324656 0.031499 0.187884 0.334325 0.098666 0.050720 -0.084865 0.064959 -0.464871 0.169847 0.044486 0.048784 -0.236433 0.070618 0.024120 -0.089897 -0.016986 0.033634 0.210454 0.086763 -0.338613 -0.267876 -0.038777 0.132492 0.180611 0.164497 -0.058806 -0.045575 -0.011934 0.160067 -0.329293 -0.136016 0.060954 0.097765 -0.005118 0.039120 -0.017174 0.225044 0.151631 0.286680 0.083802 -0.046570 -0.068239 0.294531 -0.032151 -0.143197 0.832573 -0.345140 0.569357 -0.312412 0.398438 -0.134092 -0.110343 0.334971 -0.038449 -0.176467 0.358058 -0.408189 0.344353 -0.265231 -0.662506 -0.402854 -0.453332 -0.549146 -0.567972 0.150117 -0.578256 -0.192486 0.488788 0.076300 0.122470 0.156084 -0.214931 0.090066 0.098876 -0.120727 -0.088129 -0.166466 0.050667 0.187098 -0.296305 -0.134504 0.019245 -0.150670 0.211610 0.289313 -0.175194 0.244613 -0.148232 0.041345 -0.023550 -0.018099 -0.024984 0.163663 0.161016 0.113077 0.032940 -0.021421 -0.121550 0.199159 -0.126019 -0.100104 -0.062761 -0.101248 -0.033504 0.069122 -0.059715 -0.093666 0.242332 -0.248814 0.010476 0.129746 0.164024 0.059730 -0.145963 0.016415 0.243860 -0.267071 0.148462 -0.052837 -0.223857 0.111207 
progressive 0.087257 -0.110260 0.168141 0.064685 0.502965 -0.023573 0.341232 0.078612 -0.054714 -0.372704 -0.109370 0.368618 -0.004617 0.466802 -0.263616 0.108106 -0.141129 0.243622 -0.075744 0.352187 0.396795 0.130773 0.185882 -0.142257 -0.035077 -0.032256 -0.049526 -0.019820 -0.063055 -0.154471 -0.137219 0.062386 0.019697 0.089615 0.327297 0.143473 -0.097712 -0.091562 -0.146104 -0.077114 0.170746 -0.053865 0.315375 0.155342 -0.291518 -0.104126 -0.031619 -0.151914 -0.084206 -0.123091 0.205557 0.086015 -0.102975 0.085610 0.128265 -0.200163 -0.188428 -0.123268 -0.128826 0.059009 -0.220971 0.148214 -0.215846 -0.033700 -0.082147 0.014426 -0.048143 -0.073048 0.076938 -0.142435 0.032370 -0.001498 -0.070251 0.161846 0.004133 -0.170365 0.022779 0.000317 -0.170372 0.019133 0.145119 0.244989 0.041924 0.032357 -0.093520 0.071602 -0.329352 0.119939 0.272396 0.110062 -0.513116 0.166463 0.051999 -0.317688 -0.025367 0.262189 0.246844 0.203368 -0.313741 -0.319510 0.006045 0.117611 0.134025 0.203460 -0.129113 -0.013989 -0.108159 0.453508 -0.660670 -0.187941 -0.083988 0.060450 0.168178 0.255631 -0.051437 0.414325 0.294770 0.556467 0.043334 -0.198817 -0.048109 0.268501 -0.023222 -0.116674 0.763613 -0.315992 0.502579 -0.256013 0.233656 -0.062258 -0.076889 0.189106 -0.033638 -0.100777 0.219398 -0.242125 0.217086 -0.170897 -0.441612 -0.261032 -0.308719 -0.353212 -0.393048 0.107660 -0.403277 -0.140508 0.357114 0.040805 0.068488 0.099687 -0.149565 0.059338 0.080133 -0.125269 -0.120301 -0.205069 0.071088 0.207333 -0.329296 -0.149126 0.002591 -0.149392 0.217787 0.287803 -0.149230 0.254922 -0.185023 0.013943 -0.011565 -0.050222 0.003503 0.143535 0.190386 0.148310 0.050879 -0.030259 -0.169681 0.316012 -0.194071 -0.145880 -0.022547 -0.181585 0.039114 0.178466 -0.042537 -0.105788 0.223120 -0.250970 0.023597 0.131522 0.156290 0.056751 -0.226614 0.027878 0.293672 -0.283251 0.163722 -0.072921 -0.275410 0.122653 
JoeBiden 0.116182 -0.191153 0.135344 0.068659 0.653613 -0.043929 0.596270 0.193147 -0.022525 -0.342525 -0.121593 0.278834 -0.004591 0.413721 -0.238495 0.071816 -0.143836 0.191083 -0.064953 0.280858 0.313611 0.076135 0.154921 -0.106046 0.030703 0.085934 -0.043299 0.070732 0.098283 0.096752 0.185701 -0.021383 -0.054128 -0.001966 0.031187 0.016289 -0.080293 -0.061409 0.030080 0.040293 -0.061079 -0.011803 -0.026028 0.038633 0.009059 0.044252 0.028082 -0.013055 0.066942 0.039788 -0.085819 -0.108285 0.004147 -0.023073 -0.058451 0.115804 -0.088982 -0.004301 -0.052022 0.016274 -0.108914 0.080443 -0.103188 0.026356 -0.066717 -0.005534 -0.070236 -0.041066 0.014756 -0.032810 -0.027298 -0.047672 -0.085602 0.242401 -0.003936 -0.232277 0.019021 0.011463 -0.273886 0.012828 0.202320 0.336327 0.077776 0.044953 -0.096897 0.074471 -0.468587 0.177151 0.164793 0.096700 -0.443155 0.119789 0.048826 -0.248130 -0.019160 0.170336 0.212843 0.107083 -0.320445 -0.254543 -0.013672 0.126488 0.160119 0.187541 -0.068530 -0.043717 -0.038982 0.232178 -0.402451 -0.143581 0.031416 0.096089 0.030565 0.083202 -0.029890 0.252320 0.170341 0.337641 0.068578 -0.079732 -0.079872 0.360358 -0.041207 -0.154092 1.028830 -0.428447 0.680523 -0.371160 0.344192 -0.087633 -0.116866 0.292538 -0.025937 -0.150954 0.317889 -0.350166 0.338344 -0.257573 -0.677800 -0.389330 -0.458508 -0.545121 -0.583273 0.155155 -0.631907 -0.216447 0.535383 0.069545 0.126611 0.168978 -0.222416 0.082937 0.144939 -0.205518 -0.185431 -0.312248 0.105110 0.338456 -0.526337 -0.237484 0.018146 -0.246302 0.364118 0.485624 -0.261866 0.430944 -0.299094 0.048571 -0.016569 -0.054274 -0.013159 0.212696 0.246521 0.193623 0.076631 -0.029630 -0.218846 0.383734 -0.241055 -0.192659 -0.059490 -0.220088 0.011046 0.190138 -0.073627 -0.155964 0.376446 -0.406149 0.042955 0.194441 0.243613 0.095525 -0.300925 0.045664 0.414271 -0.416793 0.232632 -0.101964 -0.369710 0.181166 
Kamala 0.144721 -0.216291 0.102644 0.049586 0.614774 -0.032378 0.594311 0.128213 -0.006778 -0.399507 -0.154045 0.318450 -0.006196 0.474574 -0.274031 0.078626 -0.157703 0.194473 -0.067042 0.272337 0.308618 0.067880 0.148258 -0.097695 0.029622 0.100106 -0.066719 0.082655 0.112581 0.109403 0.225775 -0.021813 -0.072992 -0.007634 0.022644 0.013865 -0.105571 -0.077017 0.047382 0.053437 -0.132416 0.005926 -0.120668 0.013744 0.076347 0.079339 0.041711 0.020594 0.100411 0.072781 -0.140302 -0.162525 0.013426 -0.043475 -0.101110 0.172070 -0.066975 0.046857 -0.031668 0.013905 -0.083899 0.073320 -0.080607 0.049694 -0.036058 -0.033711 -0.082425 0.025123 -0.096334 0.109823 -0.101313 -0.095584 -0.113202 0.283027 0.002347 -0.271618 0.025449 0.012956 -0.326786 0.020158 0.214611 0.348795 0.075597 0.049525 -0.096428 0.065432 -0.485416 0.188572 0.095151 0.079151 -0.363094 0.083923 0.054031 -0.188287 -0.014310 0.105690 0.159915 0.036143 -0.278652 -0.180608 -0.026033 0.119522 0.147092 0.157129 -0.058036 -0.056649 -0.012901 0.179152 -0.333205 -0.128227 0.065998 0.113359 -0.009950 0.026752 -0.022600 0.210909 0.136328 0.277387 0.080985 -0.050597 -0.082026 0.426366 -0.045832 -0.170001 1.229627 -0.508105 0.805776 -0.457849 0.411445 -0.081832 -0.151907 0.346624 -0.016673 -0.184784 0.387223 -0.406022 0.378807 -0.280431 -0.763816 -0.436751 -0.505887 -0.612154 -0.667951 0.181370 -0.707779 -0.235236 0.591060 0.068286 0.131196 0.211807 -0.223366 0.078289 0.201199 -0.266160 -0.230579 -0.394012 0.126648 0.430411 -0.690720 -0.300338 0.024434 -0.312040 0.463911 0.608036 -0.324049 0.528007 -0.353774 0.073117 -0.020751 -0.039245 -0.033258 0.247174 0.251662 0.190379 0.059018 -0.039137 -0.257537 0.435953 -0.269362 -0.213480 -0.087740 -0.236360 -0.008839 0.190718 -0.090283 -0.190611 0.449097 -0.487228 0.033414 0.236806 0.298062 0.112090 -0.407864 0.054705 0.553473 -0.549888 0.315042 -0.132606 -0.492763 0.245725 
SocialDemocracy 0.136988 -0.188235 0.229699 0.099739 0.742653 -0.033581 0.479512 0.132416 -0.046133 -0.440890 -0.140553 0.415469 -0.004751 0.557333 -0.317133 0.118940 -0.164448 0.253191 -0.080627 0.379181 0.424327 0.122747 0.203850 -0.142049 -0.017772 -0.000713 -0.062309 -0.003253 -0.041850 -0.138501 -0.091228 0.063981 0.002171 0.078270 0.327727 0.140111 -0.109899 -0.105702 -0.121617 -0.057221 0.037577 -0.025017 0.134360 0.094158 -0.127410 -0.018171 0.007114 -0.085002 -0.020467 -0.066629 0.095097 0.002901 -0.077361 0.046602 0.054978 -0.082958 -0.162422 -0.074579 -0.097950 0.036460 -0.183268 0.136375 -0.180450 -0.008712 -0.078912 -0.005444 -0.067624 -0.052607 0.033945 -0.080900 -0.016141 -0.025372 -0.115733 0.262053 0.004201 -0.276621 0.028933 -0.015163 -0.276343 0.034390 0.222611 0.375942 0.072637 0.041500 -0.138733 0.112030 -0.511756 0.185000 0.276621 0.124265 -0.578321 0.169265 0.051436 -0.354943 -0.022260 0.290946 0.239433 0.175661 -0.312986 -0.296765 0.010473 0.113165 0.149277 0.206430 -0.099337 -0.023058 -0.078921 0.348567 -0.517406 -0.158102 -0.042937 0.061279 0.088313 0.158309 -0.039530 0.299618 0.213997 0.410746 0.044574 -0.122447 -0.061222 0.304738 -0.029381 -0.120121 0.885004 -0.379075 0.583853 -0.308316 0.342273 -0.080721 -0.134878 0.270268 -0.029388 -0.155828 0.321161 -0.356764 0.277036 -0.213750 -0.577988 -0.327430 -0.400983 -0.456768 -0.502042 0.136453 -0.520789 -0.171635 0.456313 0.044328 0.088338 0.151676 -0.172266 0.066823 0.147715 -0.193275 -0.190168 -0.303580 0.097461 0.329053 -0.510890 -0.241160 0.007356 -0.220070 0.335247 0.429545 -0.246241 0.392092 -0.277795 0.021881 -0.010525 -0.078622 -0.018681 0.249456 0.303355 0.236900 0.086655 -0.050296 -0.194833 0.355006 -0.204305 -0.174533 -0.064374 -0.191322 0.020322 0.174603 -0.064447 -0.143449 0.326604 -0.353070 0.020461 0.185140 0.226220 0.087425 -0.302817 0.038144 0.393636 -0.379257 0.216533 -0.085541 -0.354267 0.180548 
demsocialist 0.048981 -0.103644 0.136328 0.059901 0.464513 -0.024399 0.281992 0.141360 -0.088499 -0.430472 -0.106993 0.430064 -0.000344 0.547397 -0.313660 0.134995 -0.158348 0.290644 -0.090746 0.431054 0.473363 0.163215 0.224661 -0.174744 -0.052126 -0.078145 -0.052216 -0.063700 -0.149351 -0.305876 -0.309092 0.112235 0.048072 0.154009 0.517810 0.215822 -0.104917 -0.117907 -0.237595 -0.127854 0.265940 -0.079117 0.470568 0.212574 -0.409844 -0.152106 -0.040127 -0.210075 -0.162998 -0.219479 0.365809 0.177664 -0.162773 0.147026 0.238220 -0.369004 -0.383529 -0.310268 -0.256229 0.097665 -0.444382 0.286447 -0.433421 -0.091880 -0.169851 0.052941 -0.057593 -0.193820 0.267297 -0.392508 0.143494 0.061322 -0.168569 0.295685 0.012434 -0.346508 0.030459 -0.044901 -0.301934 0.072099 0.246468 0.451382 0.085392 0.030337 -0.190861 0.148964 -0.590329 0.197974 0.328401 0.127542 -0.585435 0.191638 0.041006 -0.377869 -0.029603 0.327145 0.282383 0.248635 -0.325616 -0.364862 0.023245 0.106649 0.143648 0.226866 -0.106346 -0.008622 -0.100523 0.384428 -0.545035 -0.153737 -0.089590 0.025943 0.133615 0.207581 -0.039344 0.317936 0.236523 0.442085 0.023670 -0.155282 -0.048211 0.214971 -0.025177 -0.104632 0.602885 -0.255774 0.407117 -0.200589 0.250874 -0.084640 -0.079450 0.199828 -0.047493 -0.109976 0.227677 -0.268757 0.206257 -0.173951 -0.422384 -0.249499 -0.306660 -0.342301 -0.366376 0.097195 -0.375018 -0.130006 0.336120 0.046988 0.073115 0.082969 -0.150769 0.060871 0.063936 -0.109832 -0.108602 -0.185173 0.067499 0.188790 -0.279087 -0.139001 0.000165 -0.132218 0.188443 0.259601 -0.142472 0.241156 -0.180235 0.001671 -0.012461 -0.092054 0.025968 0.191676 0.282409 0.222634 0.099085 -0.028277 -0.160227 0.319467 -0.195510 -0.154345 -0.019735 -0.196356 0.053008 0.197557 -0.053800 -0.126415 0.268300 -0.300998 0.032976 0.152194 0.184867 0.070886 -0.241731 0.040602 0.309181 -0.295885 0.152365 -0.081427 -0.295621 0.133252 
BetoORourke 0.087750 -0.144818 0.215734 0.090174 0.575717 -0.033262 0.362494 0.117173 -0.076375 -0.431858 -0.113425 0.413787 -0.003952 0.532692 -0.302308 0.128775 -0.156946 0.274186 -0.085667 0.403481 0.440576 0.151256 0.214364 -0.162766 -0.037520 -0.049657 -0.048387 -0.033704 -0.100009 -0.215744 -0.211423 0.083201 0.028295 0.118099 0.394347 0.164620 -0.095355 -0.100045 -0.178998 -0.091802 0.135653 -0.045537 0.254577 0.128866 -0.227068 -0.077530 -0.019233 -0.119939 -0.087264 -0.125012 0.201594 0.082955 -0.095949 0.085940 0.130986 -0.200647 -0.225488 -0.162299 -0.149710 0.052595 -0.260139 0.170633 -0.258784 -0.044453 -0.089362 0.020222 -0.044334 -0.097090 0.121466 -0.190242 0.059332 0.012911 -0.111529 0.198819 0.012165 -0.227647 0.018701 -0.025683 -0.205542 0.045152 0.171237 0.312216 0.057229 0.017228 -0.127535 0.093922 -0.410088 0.139760 0.283294 0.117243 -0.511593 0.162579 0.043060 -0.335026 -0.028682 0.279599 0.251237 0.211489 -0.290991 -0.316961 0.019763 0.098158 0.122869 0.203560 -0.091614 -0.010067 -0.100196 0.347057 -0.506779 -0.141291 -0.073838 0.028286 0.132884 0.198713 -0.037493 0.306831 0.220552 0.421369 0.021119 -0.153132 -0.048105 0.210692 -0.026384 -0.095418 0.611190 -0.259244 0.407046 -0.208944 0.230385 -0.067982 -0.075764 0.191740 -0.030716 -0.103857 0.219947 -0.247332 0.197658 -0.160012 -0.404292 -0.237703 -0.283903 -0.321786 -0.349144 0.090802 -0.358384 -0.126280 0.318345 0.038438 0.066597 0.085381 -0.139905 0.053336 0.101362 -0.184349 -0.194742 -0.317183 0.120682 0.322060 -0.472010 -0.232193 0.004334 -0.208890 0.300982 0.421509 -0.219334 0.387656 -0.295049 0.009497 -0.016652 -0.103761 0.028518 0.231784 0.339767 0.269521 0.123577 -0.035075 -0.195670 0.381425 -0.235873 -0.192891 -0.025520 -0.233886 0.051898 0.229365 -0.059895 -0.137604 0.308769 -0.342661 0.035776 0.172944 0.208915 0.081027 -0.289638 0.049413 0.381115 -0.364338 0.194990 -0.104098 -0.362508 0.170447 
ConservativeDemocrat 0.066601 -0.132227 0.213255 0.098362 0.610621 -0.037233 0.357919 0.177048 -0.092561 -0.421807 -0.096616 0.414266 -0.004957 0.523748 -0.300849 0.129616 -0.149293 0.276818 -0.089043 0.414516 0.449908 0.163315 0.217781 -0.173971 -0.045031 -0.079292 -0.043376 -0.057114 -0.140489 -0.280012 -0.291411 0.107068 0.045103 0.147320 0.472066 0.196496 -0.091741 -0.103508 -0.224171 -0.120937 0.209832 -0.060279 0.367617 0.164440 -0.316033 -0.116422 -0.030576 -0.163858 -0.135580 -0.182505 0.305903 0.146742 -0.128200 0.122995 0.202470 -0.305420 -0.316691 -0.256720 -0.214884 0.078755 -0.370300 0.236382 -0.359490 -0.076071 -0.132408 0.044379 -0.046718 -0.153267 0.215757 -0.312411 0.113919 0.048382 -0.140263 0.237047 0.013233 -0.283604 0.023272 -0.036739 -0.245057 0.065411 0.209259 0.385153 0.074822 0.016532 -0.163159 0.125836 -0.503796 0.163784 0.310152 0.118485 -0.532170 0.172905 0.040748 -0.358197 -0.028419 0.301455 0.261851 0.231007 -0.287681 -0.330648 0.022033 0.093008 0.119510 0.210718 -0.113379 -0.003222 -0.124332 0.423669 -0.608764 -0.162818 -0.106071 0.023077 0.167897 0.246650 -0.039413 0.360135 0.257729 0.495962 0.018486 -0.186567 -0.053814 0.227097 -0.029241 -0.112498 0.637952 -0.269878 0.429870 -0.211058 0.268402 -0.099766 -0.079422 0.217312 -0.055113 -0.113201 0.242239 -0.291973 0.227264 -0.190313 -0.459048 -0.274416 -0.332426 -0.369838 -0.393866 0.099353 -0.389988 -0.139271 0.351150 0.048558 0.078185 0.082558 -0.166994 0.071040 0.073048 -0.149354 -0.156740 -0.255515 0.102483 0.258542 -0.368496 -0.188750 -0.001260 -0.161598 0.228691 0.327697 -0.171548 0.310853 -0.237122 0.002446 -0.016263 -0.115618 0.041628 0.218310 0.343006 0.270301 0.132752 -0.030402 -0.180272 0.361714 -0.224200 -0.184052 -0.018908 -0.230669 0.064011 0.230700 -0.063013 -0.138322 0.303955 -0.340620 0.041892 0.169183 0.203477 0.082390 -0.284696 0.057116 0.375266 -0.353364 0.185262 -0.107763 -0.351434 0.164690 
