15 200
BaemyKlobaechar 0.135825 0.097385 0.018454 0.114170 0.021359 -0.010222 0.016465 -0.086535 0.060676 -0.688876 -0.271773 0.706939 -0.037325 0.886380 -0.539873 0.240342 -0.265799 0.499328 -0.051363 0.670258 0.683044 0.343173 0.365220 -0.204743 -0.090479 0.044501 -0.247277 -0.099596 -0.255062 -0.367496 -0.357501 0.147423 -0.047177 0.116878 0.614951 0.262739 -0.190377 -0.203141 -0.246394 -0.168879 0.098909 0.009889 0.136729 0.100345 -0.212525 -0.070651 -0.017083 -0.102413 -0.037654 -0.115448 0.068521 -0.000481 -0.128193 0.067203 0.112526 -0.108710 -0.726621 -0.369393 -0.414667 0.133011 -0.836172 0.481823 -0.799972 -0.204196 -0.319907 -0.061635 -0.174261 -0.148606 0.232194 -0.732295 0.202671 -0.110570 -0.027849 0.164560 -0.005970 -0.144516 -0.026747 0.012895 -0.215256 -0.019535 0.119558 0.114777 -0.013558 0.063627 -0.016645 0.045031 -0.225959 0.066722 0.242391 0.102900 -0.542140 0.174635 0.018737 -0.219494 0.017860 0.272801 0.208396 0.131672 -0.349784 -0.405867 -0.047609 0.249381 0.251708 0.132780 -0.249118 0.000528 -0.071971 0.464263 -0.788762 -0.397134 -0.036507 0.192670 0.018019 0.192882 0.006702 0.645375 0.284473 0.712619 0.070231 -0.030308 -0.054590 0.028665 -0.087721 0.016219 0.119016 -0.074409 0.039183 -0.059236 0.018251 0.017686 -0.007362 0.078949 -0.030164 -0.003535 0.063045 -0.032575 0.097799 -0.059951 -0.226417 -0.115218 -0.146743 -0.178797 -0.264492 0.083961 -0.220201 -0.121703 0.211143 -0.032055 0.007421 0.052373 -0.045456 -0.019332 0.089535 0.006284 -0.095572 -0.013680 -0.014172 0.060152 -0.140511 -0.029660 0.016558 -0.046662 0.217673 0.158804 -0.071056 0.157132 -0.129717 0.016665 -0.142479 -0.037447 -0.173955 0.544695 0.815241 0.575706 0.028360 -0.273026 -0.276264 0.922015 -0.415849 -0.451327 -0.234047 -0.280051 -0.097012 0.358320 -0.004352 -0.264655 0.739376 -0.848213 -0.318576 0.541806 0.879276 0.071658 -0.627357 -0.273510 0.540070 -0.634519 0.677427 0.058827 -1.020611 0.494441 
politics 0.142333 -0.452693 0.213964 -0.230035 1.082920 -0.079575 0.620236 0.365676 -0.008709 -0.746552 -0.324487 0.820888 -0.053273 0.903616 -0.579818 0.248600 -0.328246 0.655495 -0.074535 0.717322 0.799276 0.424083 0.431585 -0.301325 -0.142062 0.025565 -0.220823 -0.140604 -0.313306 -0.528580 -0.508045 0.101227 0.042033 0.140276 0.700743 0.278014 -0.196426 -0.237311 -0.231596 -0.225253 0.188321 -0.003129 0.387257 0.263232 -0.413625 -0.140649 -0.024633 -0.203060 -0.157885 -0.187533 0.366716 0.069198 -0.269072 0.194732 0.064346 -0.492800 -0.296432 -0.173474 -0.202973 0.164307 -0.412258 0.256498 -0.324308 -0.117266 -0.189505 -0.003094 -0.081922 -0.048628 0.101873 -0.397481 0.165537 -0.105960 -0.061763 0.289394 -0.126347 -0.321552 0.024148 -0.020304 -0.289168 0.009180 0.267181 0.452602 0.191545 0.181447 -0.224328 0.206873 -0.695863 0.248027 0.437677 0.074902 -0.682013 0.374921 0.021012 -0.244468 -0.000006 0.312608 0.284114 0.231392 -0.381917 -0.522250 -0.098349 0.172517 0.251671 0.112756 -0.128519 -0.019494 0.004873 0.188131 -0.326795 -0.125540 -0.024216 0.047751 0.054567 0.112983 -0.009262 0.373432 0.237039 0.424112 0.080552 -0.053097 0.048436 0.287024 -0.009437 -0.094882 0.840678 -0.377785 0.692950 -0.488200 0.392661 0.026659 -0.189281 0.197852 0.204251 -0.163421 0.411400 -0.240992 0.266861 -0.151081 -0.357807 -0.369348 -0.289002 -0.401055 -0.545086 0.249350 -0.507178 -0.116065 0.493927 -0.042941 -0.075584 0.259083 -0.018928 0.065826 0.295342 -0.021311 -0.304826 -0.443307 0.083899 0.294809 -0.749085 -0.303835 -0.036760 -0.362236 0.697968 0.672983 -0.318586 0.524600 -0.315591 -0.138608 -0.116105 -0.025077 -0.061207 0.323891 0.510101 0.322877 -0.050890 -0.172003 -0.187166 0.672934 -0.301602 -0.236086 -0.165829 -0.179486 -0.089017 0.270609 -0.039184 -0.154681 0.291261 -0.384488 -0.155648 0.253726 0.413212 0.005292 -0.180363 -0.159841 0.139862 -0.239790 0.293732 0.007286 -0.476462 0.191484 
YangForPresidentHQ 0.096775 -0.254481 0.077661 -0.159445 0.242299 -0.018012 0.111166 0.057952 0.039891 -0.511752 -0.283596 0.576669 -0.052547 0.635588 -0.425976 0.159622 -0.201011 0.390820 -0.026809 0.384836 0.433190 0.252170 0.260836 -0.174206 -0.151362 0.085356 -0.309426 -0.141689 -0.357151 -0.598037 -0.563542 0.136957 0.009913 0.137583 0.957964 0.379425 -0.299196 -0.373842 -0.284648 -0.300279 0.273540 0.033484 0.615247 0.475714 -0.684186 -0.210448 -0.017561 -0.402510 -0.183503 -0.262362 0.475685 0.019636 -0.418706 0.302759 0.054830 -0.672982 -0.321348 -0.159762 -0.189009 0.131951 -0.416361 0.262642 -0.333794 -0.112731 -0.218470 -0.033694 -0.120433 -0.032421 0.099539 -0.434216 0.150061 -0.143910 -0.016399 0.177880 -0.112266 -0.179325 0.029644 0.018625 -0.179808 -0.001629 0.170845 0.262695 0.139847 0.147216 -0.111073 0.115811 -0.425116 0.142246 0.269196 0.035477 -0.416555 0.239071 0.026129 -0.134414 0.006982 0.176421 0.163411 0.122486 -0.244381 -0.323752 -0.094062 0.124939 0.167208 0.051104 -0.161075 0.001085 0.047094 0.194440 -0.363459 -0.160005 0.019622 0.104633 -0.005717 0.011186 0.008128 0.200842 0.107840 0.192088 0.071760 0.001473 0.055715 0.187496 0.015835 -0.044923 0.569296 -0.260960 0.487077 -0.350974 0.251903 0.046826 -0.139070 0.098329 0.171258 -0.106961 0.258123 -0.123158 0.243942 -0.128193 -0.309588 -0.346286 -0.249542 -0.365541 -0.499533 0.242068 -0.408199 -0.080805 0.403692 -0.052153 -0.091355 0.246432 0.011766 0.062896 0.272743 -0.025628 -0.301513 -0.431630 0.089805 0.297238 -0.723840 -0.305502 -0.042560 -0.302403 0.578486 0.557841 -0.275609 0.450588 -0.259594 -0.129220 -0.118798 -0.033601 -0.043902 0.299666 0.446619 0.263277 -0.045554 -0.148151 -0.125993 0.476383 -0.212419 -0.160523 -0.117906 -0.126550 -0.055842 0.204178 -0.046496 -0.132965 0.248204 -0.321761 -0.142506 0.231734 0.355589 0.010694 -0.198732 -0.128717 0.176072 -0.219607 0.261374 -0.000523 -0.425796 0.170212 
SandersForPresident 0.110194 -0.345046 0.100237 -0.124215 0.410326 -0.039403 0.352372 0.127460 0.038167 -0.690070 -0.354068 0.747918 -0.050992 0.906941 -0.583420 0.227513 -0.301277 0.587168 -0.050792 0.667217 0.715879 0.375511 0.405023 -0.267220 -0.026952 0.017446 -0.070307 -0.039798 -0.107739 -0.180189 -0.176919 0.040335 0.005498 0.052537 0.308743 0.121026 -0.073232 -0.106432 -0.083227 -0.085629 0.218749 0.004385 0.478584 0.344900 -0.508543 -0.152854 0.001268 -0.311470 -0.147730 -0.209193 0.370089 0.036672 -0.294542 0.234096 0.073935 -0.504158 -0.587382 -0.347448 -0.332672 0.187131 -0.710805 0.438109 -0.611176 -0.190043 -0.244120 -0.010056 -0.114708 -0.091304 0.172920 -0.501915 0.177735 -0.102263 -0.081763 0.325069 -0.169296 -0.337211 0.033529 -0.025223 -0.320078 0.022418 0.262517 0.424847 0.193276 0.170595 -0.197585 0.179788 -0.654882 0.219544 0.249188 0.042885 -0.399461 0.205951 0.018013 -0.167610 -0.000463 0.197650 0.187425 0.144135 -0.249333 -0.334685 -0.067455 0.098537 0.164427 0.087608 -0.246912 -0.001421 0.022060 0.365936 -0.625373 -0.238949 -0.009475 0.105980 0.048502 0.086225 -0.015712 0.369896 0.233763 0.415484 0.076071 -0.019024 0.022327 0.249706 0.006036 -0.092166 0.737016 -0.358460 0.657546 -0.441232 0.411570 0.001048 -0.203430 0.207956 0.213520 -0.169385 0.407815 -0.265304 0.212322 -0.140801 -0.288547 -0.286383 -0.236807 -0.325884 -0.404114 0.190897 -0.523249 -0.126989 0.517857 -0.047162 -0.081392 0.255012 -0.040721 0.069491 0.152569 -0.026749 -0.256147 -0.361931 0.103672 0.272223 -0.542963 -0.253923 -0.022764 -0.198022 0.388655 0.402635 -0.189732 0.353756 -0.229143 -0.086103 -0.125851 -0.046470 -0.005569 0.242871 0.454230 0.273657 0.016414 -0.087228 -0.036092 0.239981 -0.125425 -0.108270 -0.036865 -0.101404 -0.018814 0.148160 -0.045838 -0.134492 0.299298 -0.361588 -0.110886 0.217256 0.352212 0.019807 -0.285577 -0.086991 0.220545 -0.262270 0.237151 -0.009483 -0.476460 0.231635 
centerleftpolitics 0.031967 0.167153 0.051499 0.205844 0.421997 -0.018055 0.368658 0.103552 0.030095 -0.316213 -0.044132 0.282679 0.002678 0.433972 -0.216976 0.134140 -0.096518 0.173005 -0.047300 0.363470 0.348909 0.136982 0.150134 -0.056565 -0.082768 -0.002128 -0.225846 -0.096360 -0.214020 -0.302712 -0.312655 0.168659 -0.063703 0.136633 0.671701 0.293494 -0.199822 -0.204520 -0.311484 -0.164038 0.294330 0.016267 0.522295 0.353957 -0.651967 -0.231394 -0.058695 -0.380726 -0.036098 -0.162850 0.117663 0.032050 -0.178383 0.078548 0.203565 -0.136450 -0.599472 -0.318749 -0.342735 0.035730 -0.630966 0.360708 -0.677338 -0.142714 -0.244469 -0.043890 -0.133625 -0.193909 0.246343 -0.606692 0.127312 0.007875 -0.092482 0.400569 -0.062405 -0.395696 0.003486 0.015355 -0.460082 -0.008454 0.239982 0.280747 0.015810 0.125159 -0.058131 0.111072 -0.470806 0.138503 0.096739 0.105224 -0.355698 0.023743 0.013699 -0.192323 0.018248 0.217425 0.161694 0.113135 -0.283802 -0.292134 0.014185 0.224360 0.197442 0.151039 -0.307106 0.015458 -0.130950 0.645447 -1.043213 -0.503459 -0.083562 0.216168 0.051731 0.280859 -0.005605 0.798074 0.368081 0.907119 0.070372 -0.056583 -0.089160 0.133046 -0.118715 0.004569 0.466703 -0.253450 0.268128 -0.166244 0.101877 0.005365 -0.060652 0.154370 -0.065250 -0.047568 0.158962 -0.139987 0.071160 -0.073019 -0.289069 -0.069520 -0.186805 -0.170471 -0.222890 0.023382 -0.075876 -0.118533 0.079796 0.001696 0.079580 -0.074144 -0.106152 -0.035684 0.100736 -0.053914 -0.140493 -0.035969 -0.003275 0.136599 -0.184907 -0.069986 0.020081 -0.052043 0.221839 0.186563 -0.119650 0.229315 -0.219508 0.021552 -0.150006 -0.106728 -0.205913 0.745246 1.074030 0.784862 0.086729 -0.353281 -0.345907 1.031222 -0.475962 -0.529124 -0.232204 -0.359852 -0.037710 0.437474 0.033634 -0.209300 0.662095 -0.730608 -0.233161 0.459607 0.719239 0.100478 -0.598104 -0.177842 0.582509 -0.569792 0.561599 0.039362 -0.775769 0.392190 
Pete_Buttigieg 0.136383 -0.179322 0.116256 -0.108061 0.728196 -0.067384 0.365413 0.160219 0.025897 -0.517988 -0.221469 0.553141 -0.032268 0.628313 -0.405055 0.165464 -0.198850 0.356342 -0.033151 0.445017 0.474331 0.229260 0.271765 -0.153792 -0.080477 0.049211 -0.151158 -0.083898 -0.219478 -0.358442 -0.345841 0.102819 0.022834 0.103360 0.544017 0.220394 -0.146802 -0.179917 -0.187454 -0.177309 0.109811 -0.007809 0.218763 0.139299 -0.219434 -0.055738 -0.008529 -0.098481 -0.150032 -0.220481 0.326945 0.060494 -0.273654 0.218319 0.111166 -0.426210 -0.325606 -0.204967 -0.219329 0.061222 -0.404450 0.234940 -0.377350 -0.096293 -0.152993 -0.051066 -0.081161 -0.067781 0.141767 -0.393283 0.133395 -0.058184 -0.052518 0.265104 -0.085734 -0.301928 0.003091 -0.021008 -0.279271 -0.005147 0.181578 0.338304 0.130536 0.110855 -0.158374 0.157055 -0.505533 0.196652 0.439045 0.101636 -0.761863 0.353415 0.012047 -0.301463 0.015566 0.361750 0.328157 0.265461 -0.438112 -0.575882 -0.069881 0.206138 0.309722 0.181527 -0.242073 -0.019114 -0.061786 0.417346 -0.721961 -0.325820 -0.059207 0.122257 0.062039 0.192780 -0.009429 0.558517 0.308998 0.627834 0.098121 -0.049405 -0.013932 0.115267 -0.022600 -0.035710 0.402744 -0.189449 0.299189 -0.186766 0.129228 0.009644 -0.077500 0.113994 0.048397 -0.038851 0.188656 -0.117123 0.154800 -0.090308 -0.282905 -0.214077 -0.202579 -0.236341 -0.352584 0.109101 -0.354110 -0.103498 0.361599 -0.055321 -0.035703 0.154180 -0.053448 0.025667 0.177765 -0.031408 -0.219683 -0.245262 0.064404 0.187433 -0.448486 -0.200899 -0.000836 -0.176513 0.378394 0.363897 -0.208025 0.308157 -0.208271 -0.048231 -0.084043 -0.019975 -0.100035 0.292437 0.385629 0.284434 0.036266 -0.126616 -0.143491 0.484831 -0.216205 -0.245071 -0.113919 -0.158305 -0.033377 0.186707 -0.031903 -0.108436 0.312205 -0.342714 -0.082252 0.209366 0.336655 0.033479 -0.282780 -0.065876 0.206225 -0.288865 0.229792 0.006714 -0.467927 0.217421 
moderatepolitics 0.073095 -0.253471 0.117831 -0.082693 0.352588 -0.024916 0.322329 0.173831 0.026497 -0.494602 -0.237927 0.531577 -0.037976 0.627143 -0.383025 0.154071 -0.178917 0.352354 -0.041492 0.375953 0.432540 0.230687 0.234875 -0.159586 -0.101175 0.009145 -0.186239 -0.090840 -0.200792 -0.338181 -0.317099 0.091149 -0.000738 0.086770 0.520608 0.225283 -0.172996 -0.196862 -0.185132 -0.164775 0.182794 0.010623 0.386813 0.264537 -0.440152 -0.147211 -0.020907 -0.244840 -0.109752 -0.159638 0.292310 0.034259 -0.240096 0.170281 0.064709 -0.393899 -0.474972 -0.246173 -0.284662 0.191460 -0.604990 0.376381 -0.503637 -0.165136 -0.267089 -0.028602 -0.134196 -0.060178 0.116195 -0.508121 0.166932 -0.142823 -0.051873 0.303831 -0.130068 -0.313719 0.034496 0.015629 -0.328393 -0.000551 0.286275 0.421899 0.170060 0.200031 -0.183357 0.184547 -0.674498 0.229875 0.312716 0.061358 -0.535218 0.257465 0.036391 -0.199563 0.016745 0.245338 0.245635 0.194207 -0.355887 -0.461771 -0.096118 0.195845 0.243445 0.117681 -0.245188 -0.000081 0.004538 0.384927 -0.639842 -0.269069 -0.026582 0.147131 0.044347 0.131334 -0.005738 0.448978 0.244992 0.494374 0.091282 -0.043772 0.018128 0.120542 -0.007881 -0.027177 0.358168 -0.162584 0.274069 -0.193259 0.159765 0.018151 -0.085899 0.082656 0.060349 -0.058428 0.170315 -0.102189 0.230272 -0.127023 -0.347719 -0.306775 -0.269382 -0.347271 -0.479454 0.197091 -0.475374 -0.130801 0.469032 -0.052634 -0.065587 0.229377 -0.040991 0.064000 0.227095 -0.044144 -0.262792 -0.346708 0.080618 0.264339 -0.609818 -0.258563 -0.033626 -0.262145 0.533710 0.510572 -0.258127 0.439543 -0.272145 -0.088890 -0.013062 -0.004309 -0.022649 0.061484 0.100241 0.068579 0.004258 -0.033115 -0.060933 0.163502 -0.073031 -0.079485 -0.047012 -0.051174 -0.014208 0.058149 -0.025474 -0.108922 0.223313 -0.282921 -0.110908 0.173524 0.286258 0.011262 -0.213612 -0.088571 0.169592 -0.213446 0.234332 0.008729 -0.356207 0.160750 
ElizabethWarren 0.104932 -0.278409 0.084937 -0.113626 0.476835 -0.038673 0.397347 0.191309 0.027296 -0.345824 -0.194888 0.364969 -0.035713 0.449019 -0.278130 0.109668 -0.154305 0.308430 -0.030354 0.363925 0.379905 0.199076 0.208546 -0.163984 -0.081109 0.001581 -0.173193 -0.084403 -0.239441 -0.384297 -0.385893 0.108576 0.013748 0.112128 0.529142 0.213081 -0.145149 -0.174149 -0.187361 -0.161772 0.182783 -0.011786 0.364652 0.234001 -0.366337 -0.110040 -0.003666 -0.190579 -0.212076 -0.287664 0.488839 0.076008 -0.359774 0.289265 0.153846 -0.643613 -0.560304 -0.322705 -0.328506 0.179687 -0.683301 0.412842 -0.595884 -0.178320 -0.239178 -0.007050 -0.118042 -0.091601 0.172336 -0.512538 0.182610 -0.110030 -0.054189 0.199776 -0.063071 -0.191256 0.005810 -0.008719 -0.209055 0.014311 0.189000 0.291662 0.100218 0.091685 -0.124927 0.110261 -0.460132 0.148140 0.306857 0.082922 -0.530348 0.223839 0.031281 -0.246173 -0.008722 0.263014 0.211849 0.150505 -0.283115 -0.352597 -0.052767 0.141270 0.171414 0.122863 -0.139795 0.000831 -0.039621 0.287699 -0.485060 -0.179904 -0.026757 0.091643 0.070129 0.150251 -0.005426 0.422063 0.215606 0.464942 0.053196 -0.071629 -0.006839 0.121343 -0.032605 -0.032022 0.315190 -0.142336 0.223549 -0.166267 0.163911 -0.020910 -0.046225 0.118676 0.028664 -0.067051 0.157720 -0.123215 0.086985 -0.049289 -0.148248 -0.095970 -0.089070 -0.137320 -0.164433 0.059183 -0.261208 -0.100435 0.230466 -0.005601 -0.002006 0.103816 -0.041123 0.021271 0.218660 -0.052536 -0.250917 -0.318002 0.067590 0.262445 -0.567072 -0.227323 -0.014610 -0.238113 0.487242 0.491085 -0.230379 0.415312 -0.268627 -0.052814 -0.179996 -0.062460 -0.111256 0.558864 0.824917 0.548350 0.008650 -0.246302 -0.250212 0.820170 -0.388784 -0.360571 -0.198765 -0.266483 -0.083410 0.345868 -0.014984 -0.145549 0.351306 -0.420085 -0.136916 0.254498 0.413509 0.035370 -0.247395 -0.105915 0.130827 -0.285361 0.297616 -0.006882 -0.449188 0.206458 
progressive 0.024399 -0.144760 0.122048 -0.041603 0.653673 -0.029965 0.443316 0.248028 0.051971 -0.356721 -0.145598 0.354716 -0.029023 0.479576 -0.263555 0.141976 -0.165855 0.291264 -0.053314 0.413179 0.452215 0.192646 0.215712 -0.111386 -0.073126 0.004355 -0.175374 -0.070331 -0.151409 -0.264543 -0.266839 0.115974 -0.046594 0.104815 0.506863 0.210690 -0.161760 -0.169528 -0.208703 -0.107643 0.245467 0.005231 0.478918 0.346594 -0.571411 -0.193888 -0.047856 -0.356219 -0.053228 -0.175804 0.225042 0.027781 -0.237917 0.132742 0.163969 -0.251175 -0.288809 -0.137659 -0.184481 0.032631 -0.311126 0.182694 -0.319090 -0.070911 -0.132276 -0.012578 -0.089353 -0.114659 0.099270 -0.312454 0.036415 -0.003145 -0.067666 0.341289 -0.070420 -0.337609 0.012446 0.011570 -0.374958 -0.001295 0.266427 0.329114 0.077851 0.169268 -0.074011 0.141334 -0.565238 0.166728 0.140101 0.082189 -0.375052 0.098448 0.018220 -0.165805 0.012597 0.187612 0.216910 0.136449 -0.347209 -0.367955 -0.030663 0.207087 0.226318 0.131912 -0.217326 0.011579 -0.063051 0.426935 -0.725035 -0.354123 -0.019813 0.156317 0.033571 0.180861 -0.006996 0.619993 0.293599 0.682377 0.086977 -0.035074 -0.035070 0.142477 -0.058253 -0.009330 0.462099 -0.217231 0.311165 -0.195439 0.164419 0.018201 -0.095215 0.128413 0.038949 -0.080837 0.180262 -0.130432 0.200628 -0.123111 -0.371029 -0.239927 -0.260459 -0.342993 -0.418953 0.150545 -0.305589 -0.112453 0.289199 -0.017873 0.033576 0.117948 -0.054042 0.015581 0.185857 -0.031429 -0.158431 -0.148056 -0.007743 0.154076 -0.328955 -0.117842 0.021749 -0.153121 0.327158 0.292361 -0.162489 0.238823 -0.189999 -0.029104 -0.070272 -0.064110 -0.150004 0.482442 0.628871 0.477264 0.020222 -0.248113 -0.214666 0.589535 -0.261061 -0.264711 -0.146421 -0.179760 -0.038796 0.228001 0.019215 -0.079168 0.301750 -0.322298 -0.099606 0.215420 0.328229 0.061016 -0.206704 -0.109135 0.196411 -0.229461 0.255909 0.034876 -0.284561 0.142785 
JoeBiden -0.077327 0.245471 -0.070819 0.223044 0.007742 0.045231 0.111757 0.004637 0.111244 -0.474788 -0.199463 0.442500 -0.036879 0.629071 -0.321969 0.167800 -0.194168 0.336095 -0.039797 0.479474 0.528910 0.231579 0.247674 -0.127906 -0.127812 -0.018687 -0.320919 -0.100298 -0.252476 -0.394109 -0.392554 0.204095 -0.082527 0.125499 0.678142 0.312128 -0.268372 -0.249478 -0.316411 -0.173810 0.266774 0.027038 0.530734 0.362237 -0.673125 -0.231733 -0.069282 -0.382637 -0.064263 -0.214209 0.281649 0.019852 -0.304851 0.157757 0.235561 -0.317354 -0.679267 -0.337008 -0.425892 0.135091 -0.763128 0.441228 -0.760726 -0.175922 -0.266864 -0.033438 -0.163999 -0.171990 0.173243 -0.573144 0.087994 -0.046746 -0.057138 0.277293 0.003052 -0.243731 0.000962 0.036624 -0.332970 -0.004876 0.212303 0.209681 -0.027488 0.099458 -0.030392 0.080019 -0.392624 0.102311 0.269695 0.126756 -0.633283 0.165718 0.046754 -0.288736 0.006014 0.320184 0.199153 0.119730 -0.335855 -0.337017 -0.024349 0.248956 0.208031 0.152006 -0.236676 0.013602 -0.107154 0.533820 -0.870843 -0.421982 -0.053300 0.236044 0.038916 0.279141 0.002032 0.829342 0.350039 0.891005 0.095919 -0.066787 -0.064682 0.065173 -0.110094 0.044211 0.188570 -0.097510 -0.003419 -0.005306 0.005172 0.009987 0.002667 0.083833 -0.102646 -0.007080 0.046801 -0.053031 0.027952 -0.001460 -0.197736 0.002485 -0.089839 -0.092752 -0.140720 -0.007134 -0.114190 -0.119068 0.093544 -0.007801 0.074978 -0.003474 -0.063277 -0.038504 0.104894 -0.015339 -0.024247 0.112184 -0.077353 -0.013525 0.007068 0.050945 0.038937 0.026147 0.059228 0.013358 -0.018870 0.024794 -0.062720 0.069614 -0.207899 -0.107113 -0.270180 0.966978 1.288195 0.931622 0.024960 -0.469205 -0.466663 1.401803 -0.646325 -0.638627 -0.335014 -0.444087 -0.099405 0.551311 0.043906 -0.191644 0.578311 -0.652343 -0.240057 0.424998 0.680210 0.094182 -0.519578 -0.225370 0.431020 -0.544757 0.598745 0.055114 -0.692559 0.335735 
Kamala 0.067710 0.127462 -0.000360 0.220827 0.032443 -0.016226 0.174082 -0.005795 0.066006 -0.563872 -0.198433 0.522352 -0.012716 0.749852 -0.413091 0.198125 -0.234338 0.435238 -0.054194 0.616141 0.634193 0.303110 0.313853 -0.166354 -0.095646 0.003004 -0.246976 -0.093064 -0.207812 -0.296675 -0.302923 0.157976 -0.090200 0.132247 0.590518 0.275526 -0.202346 -0.205822 -0.269877 -0.145587 0.186927 0.013718 0.312618 0.211704 -0.452254 -0.165392 -0.046118 -0.254835 0.050253 -0.034195 -0.063463 -0.029616 -0.015584 -0.011520 0.147615 0.124231 -0.529387 -0.278785 -0.306762 0.035880 -0.567887 0.307711 -0.608900 -0.119935 -0.217362 -0.046331 -0.112852 -0.166342 0.183229 -0.480554 0.088623 -0.000434 -0.074863 0.303661 -0.050999 -0.290400 -0.002702 0.019439 -0.382037 -0.000478 0.253274 0.275000 0.034549 0.152137 -0.056656 0.105636 -0.500556 0.136546 0.290281 0.127418 -0.656174 0.202750 0.042591 -0.280008 0.026424 0.330475 0.275922 0.151912 -0.427078 -0.495396 -0.056238 0.294973 0.302308 0.178191 -0.324114 0.009533 -0.073647 0.578631 -0.972112 -0.483498 -0.033103 0.234868 0.036272 0.215191 0.010123 0.752587 0.323851 0.815393 0.076837 -0.026707 -0.064235 0.098666 -0.103783 0.004552 0.298976 -0.159186 0.181000 -0.147533 0.089773 0.000125 -0.044576 0.142756 -0.035159 -0.027835 0.126119 -0.075756 0.084122 -0.051208 -0.226378 -0.070096 -0.135958 -0.164746 -0.226360 0.030524 -0.164549 -0.127977 0.153788 -0.015416 0.055162 -0.002069 -0.083958 -0.030421 -0.000916 -0.014984 0.012084 0.113667 -0.033687 -0.026851 0.099541 0.075056 0.039029 0.059153 -0.025145 -0.045561 0.034804 -0.010384 -0.039475 0.081434 -0.234239 -0.103672 -0.223205 0.873566 1.279449 0.907290 0.056193 -0.415588 -0.391622 1.277699 -0.582774 -0.604885 -0.300215 -0.424329 -0.081701 0.529934 -0.012332 -0.300296 0.815380 -0.961797 -0.346034 0.573302 0.962981 0.088956 -0.768900 -0.290516 0.603607 -0.753378 0.770573 0.057243 -1.128116 0.558206 
SocialDemocracy 0.094707 -0.144724 0.124386 -0.024282 0.722895 -0.061683 0.524677 0.217154 0.008055 -0.357649 -0.114335 0.365328 -0.007373 0.477137 -0.285121 0.139679 -0.146720 0.273080 -0.050046 0.419604 0.421010 0.181548 0.212456 -0.114413 -0.060262 0.019522 -0.138370 -0.092784 -0.204344 -0.319355 -0.323444 0.118421 -0.002303 0.128031 0.603204 0.238952 -0.131486 -0.170326 -0.227507 -0.155499 0.246864 -0.009633 0.450658 0.291863 -0.486979 -0.158798 -0.022749 -0.275216 -0.127316 -0.225615 0.275883 0.071721 -0.243542 0.177172 0.174207 -0.353014 -0.537458 -0.326912 -0.310105 0.065128 -0.606949 0.360639 -0.593184 -0.151337 -0.218464 -0.037818 -0.104821 -0.145348 0.238818 -0.569457 0.175602 -0.019034 -0.095653 0.340926 -0.084830 -0.369419 -0.005931 -0.039077 -0.369052 0.003302 0.208453 0.343328 0.094798 0.105499 -0.130933 0.148520 -0.511824 0.178650 0.305827 0.113011 -0.615431 0.224470 -0.008548 -0.281878 0.015435 0.333218 0.320329 0.252416 -0.445675 -0.563109 -0.027956 0.225200 0.321241 0.210836 -0.330471 -0.010494 -0.118607 0.646399 -1.056443 -0.472480 -0.101177 0.147302 0.089974 0.268871 -0.019078 0.731463 0.410437 0.868905 0.079866 -0.069600 -0.071768 0.104563 -0.068677 -0.042122 0.371472 -0.195953 0.268936 -0.152908 0.130428 -0.026740 -0.066735 0.152513 -0.016139 -0.051869 0.173561 -0.153491 0.160680 -0.139241 -0.349002 -0.208361 -0.260405 -0.287425 -0.362528 0.105909 -0.343378 -0.133868 0.351492 -0.027387 0.010788 0.088675 -0.101012 0.009751 0.072505 -0.048074 -0.154540 -0.126135 0.045617 0.161728 -0.238599 -0.121109 0.017197 -0.085132 0.224361 0.222271 -0.135678 0.237084 -0.205429 -0.005909 -0.078821 -0.050649 -0.117863 0.368745 0.553510 0.417524 0.087198 -0.156804 -0.146959 0.479320 -0.221130 -0.290019 -0.102606 -0.192662 -0.008512 0.212999 -0.004294 -0.144559 0.490512 -0.521195 -0.134421 0.311191 0.494459 0.069326 -0.442770 -0.092753 0.352498 -0.420000 0.344041 0.021624 -0.638119 0.330791 
demsocialist -0.006306 0.035067 0.028464 0.066294 0.246223 -0.016832 0.143918 0.053270 -0.001535 -0.370774 -0.121612 0.384204 -0.009457 0.464949 -0.282879 0.126644 -0.154297 0.287880 -0.040829 0.386826 0.420975 0.186183 0.210409 -0.122359 -0.109026 0.024841 -0.209353 -0.116239 -0.254264 -0.425069 -0.412423 0.133865 0.000269 0.128738 0.719534 0.299160 -0.204721 -0.238961 -0.257656 -0.206787 0.202841 0.002008 0.402246 0.268927 -0.454514 -0.149626 -0.029637 -0.262626 -0.105534 -0.194223 0.286127 0.055836 -0.259393 0.174170 0.125943 -0.358794 -0.441972 -0.260319 -0.273242 0.104706 -0.521862 0.315686 -0.484806 -0.133696 -0.156291 -0.023102 -0.077986 -0.091011 0.128727 -0.360019 0.097483 -0.021825 -0.063052 0.306048 -0.098102 -0.323369 0.017529 -0.014026 -0.320002 -0.004241 0.215409 0.330180 0.108951 0.138752 -0.137151 0.155296 -0.514786 0.184638 0.323902 0.081634 -0.616513 0.267135 0.013114 -0.239902 0.022634 0.301015 0.262441 0.210551 -0.383023 -0.479703 -0.057079 0.193180 0.271890 0.152696 -0.315979 -0.008836 -0.040159 0.533551 -0.883496 -0.387883 -0.056459 0.158536 0.070124 0.217810 -0.024560 0.695188 0.397880 0.790245 0.123763 -0.044501 -0.022069 0.084295 -0.023347 -0.019937 0.278543 -0.135570 0.198377 -0.110853 0.099363 0.001975 -0.065063 0.080938 0.014099 -0.036083 0.123343 -0.095516 0.169506 -0.112538 -0.303127 -0.223210 -0.236208 -0.276298 -0.368183 0.137289 -0.433022 -0.122949 0.441159 -0.048067 -0.040903 0.186428 -0.061250 0.046054 0.122170 -0.037705 -0.162056 -0.182173 0.042489 0.160825 -0.326839 -0.154370 -0.009479 -0.144028 0.304692 0.288687 -0.173915 0.268502 -0.194058 -0.053097 -0.101893 -0.050970 -0.107304 0.381066 0.531000 0.370294 0.008713 -0.178657 -0.151995 0.506355 -0.220968 -0.227957 -0.119149 -0.160940 -0.021532 0.220599 -0.024061 -0.146937 0.370920 -0.425291 -0.154916 0.282463 0.440985 0.047148 -0.381271 -0.140041 0.291484 -0.347070 0.345613 0.034773 -0.538774 0.256907 
BetoORourke 0.088113 -0.202013 0.111257 -0.054088 0.665354 -0.052885 0.482690 0.210123 0.033540 -0.493201 -0.219659 0.521261 -0.035713 0.638375 -0.388651 0.174355 -0.210705 0.398375 -0.046694 0.496630 0.528331 0.262425 0.284836 -0.176280 -0.121511 0.028417 -0.254955 -0.124148 -0.308048 -0.501404 -0.499317 0.155681 -0.003014 0.158764 0.855205 0.345944 -0.245527 -0.292257 -0.306759 -0.245581 0.281299 0.004865 0.557981 0.388111 -0.616400 -0.200332 -0.031577 -0.350875 -0.172566 -0.277652 0.425470 0.063451 -0.361038 0.260722 0.164712 -0.558335 -0.549577 -0.316786 -0.331331 0.125862 -0.647085 0.387695 -0.602273 -0.165201 -0.244800 -0.027968 -0.127042 -0.126437 0.205039 -0.578042 0.179395 -0.075224 -0.081062 0.331151 -0.105410 -0.344758 0.015118 -0.013360 -0.346670 0.010258 0.235969 0.365817 0.120541 0.137647 -0.145574 0.153705 -0.569141 0.187098 0.345698 0.097902 -0.616708 0.264277 0.019692 -0.266338 0.003609 0.311048 0.264864 0.203272 -0.370507 -0.468882 -0.055813 0.192252 0.243654 0.148281 -0.234979 -0.000701 -0.059466 0.438125 -0.734973 -0.318201 -0.050398 0.125583 0.064978 0.183627 -0.006851 0.566722 0.301652 0.638797 0.079022 -0.058259 -0.022641 0.157943 -0.048540 -0.043255 0.491637 -0.234473 0.366698 -0.242558 0.203298 -0.003030 -0.090291 0.153069 0.055044 -0.087569 0.229523 -0.162877 0.139436 -0.093850 -0.258178 -0.177271 -0.181464 -0.232603 -0.297522 0.104818 -0.279490 -0.103609 0.271398 -0.021776 -0.002602 0.103007 -0.053144 0.014992 0.162183 -0.035911 -0.204154 -0.226395 0.046748 0.202026 -0.412224 -0.171972 0.004110 -0.156392 0.339666 0.331824 -0.166816 0.288165 -0.210726 -0.034829 -0.139411 -0.062421 -0.115159 0.503523 0.729686 0.508277 0.031697 -0.226935 -0.211111 0.693303 -0.323000 -0.323925 -0.154683 -0.232938 -0.054113 0.297446 -0.007686 -0.135227 0.392914 -0.443645 -0.130893 0.275731 0.434031 0.048337 -0.327632 -0.114167 0.279560 -0.341838 0.325362 0.003311 -0.529835 0.252976 
ConservativeDemocrat 0.074788 -0.215590 0.123093 -0.056474 0.723418 -0.063432 0.529545 0.255232 0.022598 -0.487468 -0.206177 0.525424 -0.036759 0.617001 -0.383051 0.169206 -0.208438 0.406981 -0.046830 0.473248 0.518001 0.277475 0.281008 -0.177154 -0.119347 0.021347 -0.230868 -0.121253 -0.273788 -0.441070 -0.434664 0.129799 -0.003637 0.136592 0.730071 0.300605 -0.215486 -0.254415 -0.269042 -0.222245 0.218450 0.014915 0.420867 0.286177 -0.482444 -0.168211 -0.036083 -0.262819 -0.108957 -0.173434 0.281713 0.044447 -0.238086 0.162516 0.107525 -0.370261 -0.471761 -0.278115 -0.298450 0.129908 -0.575931 0.338919 -0.525843 -0.148340 -0.228641 -0.021187 -0.107030 -0.105354 0.184862 -0.526368 0.174367 -0.066064 -0.077801 0.243665 -0.078203 -0.277520 0.014484 -0.011994 -0.267356 0.024651 0.171176 0.279287 0.090608 0.094718 -0.126411 0.120268 -0.419323 0.132439 0.200652 0.051540 -0.309050 0.140035 0.009760 -0.148468 -0.004114 0.164791 0.141430 0.120550 -0.173083 -0.246141 -0.023696 0.093991 0.105895 0.081106 -0.128004 -0.001291 -0.041850 0.249269 -0.402325 -0.169271 -0.050667 0.060764 0.049626 0.119926 0.004312 0.324436 0.171823 0.370105 0.040108 -0.051866 0.000171 0.186460 -0.036318 -0.061146 0.561098 -0.258499 0.436121 -0.294480 0.255088 0.002307 -0.118610 0.160808 0.084937 -0.099855 0.277707 -0.180925 0.150660 -0.104014 -0.253519 -0.208798 -0.195138 -0.242462 -0.328913 0.119985 -0.291571 -0.094179 0.292636 -0.024455 -0.022363 0.112801 -0.050174 0.031321 0.156897 -0.036663 -0.212406 -0.268814 0.072793 0.208117 -0.453655 -0.195185 -0.014584 -0.178885 0.363293 0.365400 -0.171980 0.314697 -0.214550 -0.056688 -0.147875 -0.075419 -0.073830 0.460487 0.699234 0.469056 0.027757 -0.202850 -0.196372 0.688324 -0.322885 -0.301319 -0.138320 -0.236361 -0.034932 0.311264 -0.019462 -0.123650 0.306109 -0.361267 -0.104633 0.224001 0.351857 0.032362 -0.306783 -0.092317 0.270888 -0.300936 0.283455 -0.006530 -0.482543 0.218050 
