15 200
BaemyKlobaechar -0.017660 0.026706 0.003536 -0.034906 -0.035753 0.016906 0.019063 0.021568 0.050868 -0.085892 -0.094021 0.096066 -0.008502 0.169128 -0.099916 0.025220 -0.057575 0.118926 0.012291 0.166887 0.144069 0.079277 0.083431 -0.057713 -0.026881 0.041130 -0.156438 -0.049832 -0.159747 -0.216692 -0.217149 0.072703 -0.011778 0.032320 0.468889 0.193207 -0.124501 -0.155882 -0.114770 -0.132538 0.128141 0.030753 0.280838 0.228501 -0.323336 -0.086422 0.031494 -0.241961 -0.058417 -0.112223 0.157606 -0.028778 -0.186525 0.124878 0.001738 -0.282527 -0.380665 -0.179694 -0.129478 0.099048 -0.393516 0.249600 -0.341917 -0.142135 -0.135029 0.005106 -0.067308 -0.025137 0.050672 -0.261703 0.070980 -0.071109 0.031651 -0.056427 0.015250 0.083433 -0.007553 0.013015 0.037205 -0.018782 -0.016937 -0.081644 -0.024663 0.000361 0.051648 -0.042737 0.080400 -0.031011 0.174086 0.023151 -0.326106 0.163109 0.008981 -0.103457 0.015277 0.182618 0.109522 0.066502 -0.207716 -0.292004 -0.084304 0.129286 0.154721 0.030374 -0.186693 0.018596 0.039239 0.205365 -0.368014 -0.136145 0.026941 0.080611 0.032405 0.049724 -0.017034 0.327995 0.183444 0.368148 0.029450 0.030077 0.015815 0.216690 -0.023421 -0.003422 0.568688 -0.338833 0.519840 -0.367308 0.319400 0.019047 -0.164297 0.112473 0.190660 -0.157911 0.259709 -0.188849 0.242737 -0.127191 -0.307113 -0.277781 -0.264988 -0.385670 -0.439481 0.295349 -0.470768 -0.169044 0.472969 -0.060300 -0.133806 0.260681 -0.001361 0.075963 0.204828 0.038425 -0.220969 -0.239885 -0.016298 0.223939 -0.436312 -0.176534 -0.052031 -0.157018 0.405955 0.316410 -0.153496 0.322392 -0.207018 -0.122242 -0.053124 0.003626 -0.041121 0.112710 0.163549 0.089100 -0.048410 -0.057582 -0.027590 0.158492 -0.050150 -0.061943 -0.086353 -0.025006 -0.053396 0.074666 0.020025 -0.040586 0.085003 -0.125397 -0.098323 0.061101 0.135896 -0.001158 -0.042649 -0.084043 0.038405 -0.047794 0.107432 0.013099 -0.118982 0.068468 
politics 0.097865 -0.439572 0.128825 -0.152947 0.834333 -0.075133 0.451786 0.271772 0.020103 -0.441194 -0.240770 0.624755 -0.061495 0.643948 -0.430978 0.187618 -0.157771 0.379068 -0.014322 0.468334 0.498787 0.278714 0.284009 -0.203753 -0.054178 0.008374 -0.100501 -0.082575 -0.198443 -0.281206 -0.327637 0.076219 0.061166 0.028050 0.394398 0.147874 -0.067542 -0.105975 -0.133727 -0.153212 0.054675 0.022156 0.113518 0.078129 -0.099948 -0.038963 -0.012339 -0.076708 -0.070159 -0.082177 0.147448 0.048115 -0.129552 0.088025 -0.003849 -0.236466 -0.233766 -0.153292 -0.120331 0.086624 -0.263700 0.174684 -0.213704 -0.116716 -0.035802 -0.007440 -0.015495 0.007451 0.033960 -0.132044 0.051481 -0.017562 -0.037176 0.342150 -0.229992 -0.318098 0.050787 -0.025198 -0.261791 0.000145 0.242997 0.360660 0.193010 0.200304 -0.191871 0.207581 -0.579958 0.181411 0.202537 0.003846 -0.244445 0.161510 0.001655 -0.089859 0.015873 0.159492 0.105462 0.170398 -0.144311 -0.253677 -0.049192 0.064006 0.093821 0.033434 -0.098933 0.028969 0.013815 0.138017 -0.197536 -0.060062 -0.050010 0.014996 0.046304 0.075185 -0.013304 0.194147 0.133409 0.205221 0.044423 -0.009493 0.016040 0.047523 0.025424 -0.037970 0.158671 -0.073417 0.136435 -0.037178 0.102034 -0.013836 -0.039045 0.010773 0.033835 -0.040134 0.096267 -0.090052 -0.009394 -0.012800 0.005397 -0.028582 -0.013513 0.019747 0.005157 -0.014958 0.045780 0.033672 -0.016774 0.002878 -0.008074 -0.029694 -0.014895 0.025372 0.013013 -0.015874 -0.095711 -0.130939 0.053480 0.089827 -0.156466 -0.102137 -0.036796 -0.069013 0.119768 0.132417 -0.083915 0.143457 -0.106008 -0.080963 -0.103415 -0.062518 0.010823 0.181916 0.384453 0.212895 -0.022699 -0.102455 -0.018225 0.154737 -0.062745 -0.041445 -0.008802 -0.038376 0.023879 0.118241 -0.031444 -0.048139 0.036504 -0.043259 -0.025403 0.094627 0.080821 0.007399 -0.086478 0.015129 0.056009 -0.028961 0.023035 -0.011645 -0.110540 0.022512 
YangForPresidentHQ 0.035274 -0.204951 0.080795 -0.167111 0.586977 -0.060441 0.301618 0.185391 0.018467 -0.377557 -0.209655 0.498331 -0.049172 0.540372 -0.360487 0.144497 -0.140941 0.324212 -0.008786 0.405861 0.422612 0.231171 0.240902 -0.181527 -0.045951 0.005400 -0.104920 -0.061941 -0.180465 -0.259300 -0.296962 0.074089 0.048717 0.055924 0.514521 0.200228 -0.111558 -0.145479 -0.175862 -0.184048 0.314792 0.043021 0.573743 0.414917 -0.601942 -0.196660 -0.006001 -0.403257 -0.184305 -0.236146 0.377119 0.097171 -0.314799 0.233710 0.060177 -0.577820 -0.298147 -0.191040 -0.152561 0.103459 -0.339019 0.205025 -0.281067 -0.127366 -0.158796 0.013840 -0.071233 -0.041694 0.133090 -0.413537 0.155831 -0.073603 -0.037668 0.232819 -0.142179 -0.222144 0.026457 -0.019619 -0.185252 0.008443 0.174221 0.271325 0.137077 0.124571 -0.146204 0.141581 -0.429901 0.140239 0.114645 0.003456 -0.143245 0.090878 0.010577 -0.055939 0.005871 0.079292 0.087214 0.109153 -0.128420 -0.191844 -0.048456 0.059070 0.075215 0.029541 -0.321298 0.048389 0.036893 0.427692 -0.722982 -0.232846 -0.033903 0.111201 0.103050 0.151614 -0.035987 0.533570 0.318195 0.573122 0.086191 -0.012911 0.012981 0.127212 0.016258 -0.043218 0.358975 -0.179028 0.304622 -0.163639 0.110668 -0.016665 -0.034590 0.039761 0.038655 -0.038359 0.100142 -0.092423 0.209135 -0.128359 -0.285877 -0.273541 -0.240430 -0.314872 -0.374635 0.221696 -0.354889 -0.113468 0.362978 -0.026571 -0.082370 0.162605 -0.043138 0.089203 0.033340 -0.027517 -0.094826 -0.135209 0.047193 0.100835 -0.183745 -0.099536 -0.031212 -0.097591 0.178457 0.194496 -0.103262 0.189757 -0.135135 -0.067932 -0.145127 -0.074688 0.000323 0.280881 0.544136 0.319020 -0.024001 -0.137025 -0.066094 0.313931 -0.140379 -0.111011 -0.064036 -0.089538 -0.012981 0.200004 -0.027457 -0.104535 0.169892 -0.210224 -0.094240 0.185553 0.241605 0.021376 -0.114317 -0.024661 0.109804 -0.092528 0.099112 -0.016961 -0.198637 0.077515 
SandersForPresident 0.103563 -0.276995 0.123001 -0.139115 0.602870 -0.086277 0.462441 0.155618 -0.000190 -0.343032 -0.159250 0.434013 -0.027853 0.477371 -0.318717 0.135692 -0.057063 0.141457 -0.014262 0.182621 0.189648 0.101463 0.096363 -0.071350 -0.056072 0.026649 -0.147658 -0.084440 -0.216932 -0.300101 -0.327290 0.086191 0.028509 0.065668 0.587210 0.233027 -0.129791 -0.171582 -0.181295 -0.193341 0.078437 0.014367 0.159548 0.122927 -0.180563 -0.055750 0.001988 -0.118783 -0.014116 -0.019849 0.029228 -0.003813 -0.036809 0.028647 -0.005550 -0.050812 -0.319595 -0.183229 -0.144954 0.090921 -0.353802 0.212763 -0.305952 -0.124528 -0.187610 0.008249 -0.082252 -0.048265 0.137195 -0.461432 0.165265 -0.077932 -0.034649 0.196993 -0.118544 -0.183629 0.016480 -0.024244 -0.168884 0.000074 0.138769 0.206619 0.097583 0.103411 -0.113681 0.110041 -0.330978 0.111696 0.133785 0.012058 -0.197562 0.113937 -0.001275 -0.071073 0.010594 0.115439 0.099422 0.109239 -0.147960 -0.232734 -0.039366 0.074300 0.103401 0.047493 -0.083958 0.001784 0.002397 0.107965 -0.175689 -0.066204 -0.017947 0.018919 0.028857 0.045137 -0.012682 0.151276 0.094458 0.171059 0.020223 0.002505 0.004206 0.028822 0.008011 -0.012547 0.093729 -0.044756 0.084624 -0.047766 0.087486 0.002244 -0.045966 0.039807 0.041841 -0.025173 0.089409 -0.059208 0.142072 -0.072677 -0.178358 -0.172373 -0.155054 -0.217626 -0.272696 0.172559 -0.232842 -0.075562 0.238509 -0.038711 -0.075190 0.127731 -0.000185 0.033738 0.202559 0.013776 -0.288748 -0.342142 0.036075 0.290841 -0.563618 -0.246772 -0.070337 -0.224025 0.525891 0.450772 -0.220952 0.451650 -0.302942 -0.165278 -0.109369 -0.028654 -0.026959 0.200868 0.367847 0.212723 -0.039297 -0.101536 -0.032505 0.190607 -0.074778 -0.071394 -0.056358 -0.043070 -0.024704 0.103429 0.003195 -0.073008 0.134088 -0.179289 -0.104183 0.117366 0.196530 0.005004 -0.141811 -0.092911 0.127532 -0.132801 0.180606 0.006393 -0.284788 0.128694 
centerleftpolitics -0.034517 0.183448 -0.037913 -0.012859 -0.321453 0.051343 -0.136610 -0.080946 0.095966 -0.047221 -0.116018 0.022510 -0.001481 0.149897 -0.079105 0.002373 -0.060231 0.104395 0.026850 0.164814 0.115945 0.061967 0.063101 -0.041248 -0.021127 0.068439 -0.227107 -0.047892 -0.185796 -0.246429 -0.228579 0.097300 -0.050993 0.022764 0.507330 0.211578 -0.157019 -0.186716 -0.087925 -0.117494 0.001220 0.020627 0.064889 0.090520 -0.115869 -0.009029 0.049660 -0.114693 0.018918 -0.031744 0.018819 -0.107439 -0.093658 0.055740 -0.028434 -0.085418 -0.558377 -0.238136 -0.168978 0.131497 -0.562265 0.364303 -0.493076 -0.197756 -0.165124 0.004440 -0.095094 -0.023504 0.025905 -0.270225 0.046974 -0.093627 0.078108 -0.334696 0.183597 0.364804 -0.038889 0.041002 0.255490 -0.033268 -0.225231 -0.415396 -0.191438 -0.151792 0.236026 -0.227810 0.602961 -0.197912 0.061616 0.018077 -0.225083 0.088011 0.012462 -0.054380 0.011343 0.109824 0.034735 -0.058922 -0.137935 -0.156687 -0.075948 0.109815 0.118581 0.001426 -0.209557 0.009815 0.056392 0.199989 -0.383296 -0.150372 0.073856 0.108836 0.029519 0.035193 -0.020503 0.443959 0.241208 0.502253 0.033918 0.059714 0.016368 0.237082 -0.043248 0.025216 0.603667 -0.374068 0.563527 -0.434953 0.360746 0.041492 -0.200103 0.134760 0.242649 -0.192567 0.281798 -0.188580 0.320364 -0.160251 -0.397984 -0.343649 -0.334084 -0.516786 -0.575397 0.401559 -0.646231 -0.240552 0.637223 -0.087136 -0.184776 0.369175 0.012583 0.082259 0.301462 0.063946 -0.292282 -0.303672 -0.052699 0.304199 -0.592668 -0.218561 -0.060058 -0.206652 0.556039 0.412172 -0.187359 0.416597 -0.259736 -0.142724 -0.030347 0.033089 -0.057163 0.073009 0.058166 0.028366 -0.060147 -0.033897 -0.038923 0.206682 -0.064929 -0.085189 -0.127777 -0.035092 -0.089998 0.090140 0.047677 0.001784 0.043328 -0.073260 -0.083066 -0.015010 0.056214 -0.007342 -0.017477 -0.115228 0.006474 -0.031641 0.115669 0.024163 -0.079632 0.078842 
Pete_Buttigieg -0.030942 -0.072562 0.046958 -0.098065 0.165437 0.014974 0.122697 0.008552 0.070218 -0.104378 -0.123629 0.102902 -0.009429 0.219193 -0.123646 0.032471 -0.101892 0.216419 0.019190 0.297624 0.263122 0.145738 0.146487 -0.109247 -0.017758 0.033889 -0.162368 -0.038614 -0.147575 -0.192619 -0.197269 0.075468 -0.033893 0.025507 0.351522 0.146906 -0.103564 -0.124659 -0.076940 -0.082528 0.213752 0.039654 0.425155 0.332968 -0.484318 -0.141954 0.032553 -0.348355 -0.116904 -0.199020 0.288632 -0.013967 -0.297432 0.207946 0.046605 -0.481013 -0.555392 -0.278802 -0.198442 0.139797 -0.572632 0.356668 -0.501557 -0.207571 -0.164843 0.016135 -0.079508 -0.042970 0.077968 -0.336392 0.094735 -0.076543 0.000788 0.095646 -0.076797 -0.034813 0.005117 -0.005652 -0.088910 -0.009816 0.093356 0.053866 0.038132 0.076512 -0.005947 0.021619 -0.159896 0.029053 0.380408 0.051477 -0.659961 0.332928 0.020451 -0.237846 0.017680 0.380243 0.235723 0.167617 -0.415445 -0.584625 -0.156456 0.238701 0.287314 0.077497 -0.145978 0.015838 0.042197 0.140730 -0.270309 -0.102405 0.049615 0.079212 0.024193 0.033332 -0.013824 0.315877 0.165638 0.344849 0.024300 0.038734 0.017815 0.254338 -0.029958 0.000047 0.645572 -0.387717 0.590795 -0.419107 0.370964 0.012632 -0.182527 0.131403 0.219694 -0.191411 0.289478 -0.217428 0.182420 -0.083591 -0.221264 -0.188896 -0.182395 -0.295931 -0.315596 0.226202 -0.417783 -0.154734 0.409308 -0.051936 -0.115976 0.250805 0.011057 0.059378 0.131002 0.037221 -0.080429 -0.072993 -0.052238 0.087389 -0.174397 -0.050964 -0.014859 -0.055033 0.167297 0.105380 -0.048418 0.105028 -0.054742 -0.038337 -0.074214 -0.006243 -0.038809 0.162480 0.243511 0.138714 -0.059132 -0.079312 -0.056951 0.299118 -0.114010 -0.110208 -0.127982 -0.071029 -0.070815 0.163043 0.022955 -0.056094 0.117665 -0.170104 -0.115692 0.083771 0.175002 0.008190 -0.082877 -0.092968 0.077076 -0.089807 0.153200 -0.001947 -0.179614 0.102916 
moderatepolitics 0.026292 0.019452 -0.016967 -0.019981 -0.011708 0.011930 0.021002 0.003438 0.038883 -0.098509 -0.087559 0.132815 -0.012766 0.178623 -0.115711 0.036863 -0.071466 0.160702 0.008087 0.215430 0.202899 0.115672 0.118649 -0.080879 -0.009845 0.029823 -0.070877 -0.028677 -0.079059 -0.103141 -0.105427 0.034631 -0.006820 -0.006719 0.109522 0.046227 -0.024544 -0.042277 -0.009963 -0.031752 0.037351 0.020124 0.096630 0.080754 -0.110208 -0.025137 0.018031 -0.091934 -0.043304 -0.076640 0.111951 -0.011352 -0.128324 0.091256 -0.003069 -0.199388 -0.374688 -0.203117 -0.144982 0.099413 -0.397937 0.251292 -0.339048 -0.151837 -0.103160 -0.001295 -0.046697 -0.014381 0.055569 -0.230769 0.071621 -0.046317 -0.049636 0.405358 -0.275250 -0.342679 0.042068 -0.038895 -0.339087 -0.001912 0.288976 0.376176 0.202342 0.226609 -0.183488 0.203348 -0.650233 0.190095 0.310215 0.030221 -0.495434 0.265712 0.006129 -0.178871 0.024726 0.295380 0.195232 0.181723 -0.313373 -0.473187 -0.110455 0.168514 0.225088 0.070868 -0.142613 0.020923 0.019286 0.167238 -0.283008 -0.104328 -0.004149 0.046093 0.032555 0.050319 -0.009311 0.233859 0.133960 0.262002 0.019742 0.018231 0.007480 0.117928 -0.008726 -0.011965 0.316622 -0.188971 0.294980 -0.192916 0.145211 0.004953 -0.079787 0.045856 0.082182 -0.068299 0.119756 -0.086740 0.106699 -0.062772 -0.136237 -0.130065 -0.123797 -0.175224 -0.200312 0.130894 -0.230269 -0.078690 0.243690 -0.034881 -0.074730 0.129839 -0.003162 0.042386 0.139966 0.022390 -0.181755 -0.202376 0.007780 0.180436 -0.337415 -0.151994 -0.032927 -0.084476 0.210802 0.167485 -0.088984 0.179030 -0.116843 -0.079558 -0.039657 -0.006040 -0.021282 0.072551 0.125021 0.062815 -0.027469 -0.045951 -0.049075 0.361503 -0.135808 -0.135654 -0.116162 -0.086763 -0.045768 0.216015 0.012489 -0.084218 0.169024 -0.223706 -0.144645 0.159056 0.256464 0.010703 -0.265471 -0.149826 0.206709 -0.200865 0.285011 -0.006396 -0.508005 0.290083 
ElizabethWarren 0.028006 -0.106362 0.074746 -0.059600 0.248011 -0.033554 0.199772 0.046368 0.014500 -0.196154 -0.101407 0.222946 -0.011255 0.288309 -0.184115 0.071437 -0.100542 0.231906 -0.004535 0.319584 0.303644 0.162291 0.157945 -0.122661 -0.046582 0.016152 -0.160260 -0.076704 -0.218270 -0.295354 -0.320932 0.094895 0.006904 0.063533 0.471053 0.189586 -0.109761 -0.134588 -0.151226 -0.143561 0.141383 0.012442 0.245194 0.177426 -0.276415 -0.091607 0.000585 -0.172430 -0.109523 -0.154934 0.225614 0.036620 -0.202666 0.144635 0.057587 -0.353559 -0.377084 -0.211158 -0.160020 0.098941 -0.404138 0.238418 -0.358954 -0.137317 -0.136424 0.021538 -0.056257 -0.052310 0.113721 -0.331608 0.120925 -0.045323 -0.035328 0.097143 -0.044895 -0.082544 -0.002286 -0.019408 -0.093749 0.008210 0.017255 0.028040 -0.004652 -0.007028 -0.015514 -0.000064 -0.036855 0.010994 0.081745 0.022834 -0.135930 0.059930 0.002411 -0.068371 -0.005729 0.081971 0.071953 0.056280 -0.113215 -0.159134 -0.026420 0.062826 0.069200 0.040141 -0.225793 0.021992 0.002460 0.327356 -0.550343 -0.183107 -0.026034 0.075030 0.085966 0.128832 -0.027248 0.449101 0.263606 0.507675 0.043457 -0.019034 -0.003434 0.123949 -0.018619 -0.030786 0.337917 -0.177876 0.284735 -0.188369 0.184848 -0.007792 -0.070190 0.091218 0.079085 -0.082069 0.164363 -0.131603 0.145639 -0.097701 -0.212118 -0.179501 -0.171843 -0.233128 -0.270540 0.160202 -0.281623 -0.109189 0.277701 -0.017408 -0.054166 0.114023 -0.035140 0.044506 0.178585 0.003234 -0.264894 -0.311847 0.034081 0.276426 -0.510762 -0.220840 -0.053741 -0.182899 0.427915 0.380420 -0.173825 0.378491 -0.262189 -0.125192 -0.095034 -0.039607 -0.006019 0.195409 0.361494 0.220780 -0.012129 -0.082722 -0.072943 0.336173 -0.156264 -0.136456 -0.078704 -0.105547 -0.036001 0.203747 0.017086 -0.095449 0.204513 -0.257576 -0.113048 0.159263 0.256022 0.015797 -0.220073 -0.082436 0.189368 -0.185668 0.219315 -0.015905 -0.376493 0.205847 
progressive 0.049661 -0.139842 0.068669 -0.120715 0.462114 -0.051935 0.325429 0.127093 0.014270 -0.145715 -0.087732 0.206293 -0.019934 0.227538 -0.150459 0.066990 -0.023301 0.066644 0.000072 0.081745 0.083373 0.052104 0.042835 -0.034285 -0.035037 0.004036 -0.094310 -0.058498 -0.147443 -0.198112 -0.229137 0.057540 0.027031 0.042550 0.385258 0.147631 -0.076489 -0.103127 -0.124237 -0.127835 0.192015 0.033867 0.350820 0.255125 -0.375199 -0.126596 -0.000944 -0.258396 -0.102178 -0.139005 0.220151 0.044129 -0.197981 0.136969 0.031117 -0.351697 -0.189994 -0.115902 -0.086038 0.060799 -0.206612 0.129036 -0.174055 -0.085732 -0.113485 0.013870 -0.047931 -0.027328 0.088598 -0.302189 0.108594 -0.042977 -0.012003 0.022816 -0.011411 -0.028342 0.004616 -0.007385 -0.013957 0.006346 0.013947 0.028283 0.007465 0.009192 -0.020074 0.018882 -0.033235 0.007502 0.162084 0.014245 -0.223133 0.130584 0.001467 -0.090013 0.005098 0.142202 0.103973 0.121777 -0.155241 -0.245684 -0.047761 0.077039 0.096795 0.038896 -0.280335 0.042624 0.022237 0.385569 -0.629201 -0.207598 -0.041486 0.083968 0.084540 0.124202 -0.025679 0.441467 0.266588 0.491318 0.051964 -0.009970 0.006370 0.118623 -0.004916 -0.034523 0.316487 -0.168225 0.277736 -0.162065 0.145078 -0.015217 -0.054951 0.051947 0.054771 -0.066456 0.118009 -0.104124 0.121230 -0.092439 -0.169190 -0.157692 -0.151801 -0.201125 -0.221469 0.139141 -0.192713 -0.072009 0.201439 -0.007260 -0.040465 0.073549 -0.030404 0.042068 0.131111 0.000414 -0.225384 -0.276492 0.039420 0.237963 -0.417119 -0.192172 -0.051682 -0.165051 0.360448 0.332890 -0.153037 0.335373 -0.244035 -0.131322 -0.050590 -0.039720 0.015039 0.103733 0.215906 0.133075 0.002710 -0.046121 -0.012948 0.086724 -0.041555 -0.029702 -0.004152 -0.033558 0.007067 0.070784 0.008292 -0.050142 0.101044 -0.127238 -0.056248 0.093064 0.131852 0.011180 -0.104058 -0.038920 0.099953 -0.081746 0.091276 -0.015258 -0.176755 0.076386 
JoeBiden -0.040267 0.125184 -0.031619 -0.013485 -0.195505 0.028682 -0.035352 -0.002599 0.075804 -0.085572 -0.118388 0.085444 -0.007981 0.187163 -0.109123 0.019050 -0.050402 0.090331 0.022963 0.138463 0.104138 0.055482 0.059559 -0.039905 -0.035288 0.060837 -0.228497 -0.067859 -0.226052 -0.305071 -0.306334 0.107455 -0.020521 0.055350 0.736178 0.300903 -0.194790 -0.242767 -0.176367 -0.205968 0.127375 0.036311 0.297099 0.251308 -0.350670 -0.085903 0.045532 -0.272876 -0.034060 -0.093616 0.125384 -0.064719 -0.172167 0.117194 -0.010656 -0.238957 -0.487920 -0.223137 -0.158305 0.123573 -0.499564 0.318689 -0.432184 -0.180534 -0.189440 0.006628 -0.099447 -0.031274 0.061349 -0.360302 0.090232 -0.102157 0.074495 -0.303692 0.165911 0.317115 -0.032952 0.037420 0.238524 -0.027420 -0.162255 -0.306456 -0.133832 -0.103268 0.170581 -0.160594 0.433374 -0.141767 0.091258 0.013614 -0.234293 0.105689 0.010092 -0.058131 0.014310 0.119850 0.056444 -0.013048 -0.145776 -0.187805 -0.073541 0.104885 0.120112 0.008669 -0.263018 0.022430 0.056569 0.280470 -0.511080 -0.188579 0.047744 0.117757 0.041662 0.055969 -0.022411 0.437891 0.239794 0.487399 0.038549 0.047708 0.019850 0.284932 -0.033822 0.000333 0.738550 -0.440371 0.680206 -0.487541 0.413504 0.025762 -0.214717 0.153210 0.253548 -0.204205 0.333324 -0.237654 0.405310 -0.219290 -0.514066 -0.461329 -0.440639 -0.644094 -0.727881 0.484879 -0.763084 -0.278794 0.765734 -0.092922 -0.209271 0.409856 -0.016346 0.121371 0.311040 0.058896 -0.340998 -0.369403 -0.027282 0.346893 -0.667450 -0.265886 -0.077689 -0.250752 0.643359 0.504415 -0.238025 0.512650 -0.334286 -0.188383 -0.049238 0.018178 -0.051407 0.098565 0.129891 0.074804 -0.056142 -0.050463 -0.012526 0.085622 -0.014306 -0.037334 -0.083777 -0.002932 -0.062720 0.024864 0.035956 -0.006191 0.040394 -0.073044 -0.082728 -0.004214 0.067856 -0.008015 0.056539 -0.070294 -0.042798 0.016255 0.039983 0.027430 0.037220 -0.011831 
Kamala -0.056064 0.155927 -0.008914 -0.030905 -0.235483 0.033115 -0.074172 -0.050843 0.088035 -0.095041 -0.128063 0.072052 -0.003224 0.208889 -0.117960 0.021441 -0.080445 0.152525 0.023982 0.226680 0.177886 0.096434 0.095301 -0.066524 -0.047436 0.070416 -0.295140 -0.090274 -0.296425 -0.397499 -0.403179 0.140704 -0.035209 0.079361 0.879119 0.356643 -0.233487 -0.288578 -0.217187 -0.236889 0.155911 0.037993 0.341650 0.290689 -0.414367 -0.107997 0.048456 -0.310120 -0.067198 -0.150040 0.200651 -0.070491 -0.248603 0.169577 0.016240 -0.362160 -0.506366 -0.221861 -0.157363 0.114560 -0.512326 0.321965 -0.452933 -0.176146 -0.156687 0.008927 -0.084106 -0.032369 0.040556 -0.273043 0.059297 -0.082911 0.071898 -0.397192 0.234630 0.406476 -0.051808 0.038681 0.302828 -0.022225 -0.252797 -0.439497 -0.211973 -0.182323 0.246599 -0.244109 0.653586 -0.215718 0.008176 0.017150 -0.127608 0.034857 0.006429 -0.026778 0.003934 0.058778 0.026987 -0.067865 -0.106224 -0.118118 -0.055340 0.089202 0.093507 0.002613 -0.289401 0.020139 0.047401 0.323541 -0.591547 -0.221320 0.054194 0.125756 0.057609 0.075934 -0.024748 0.543089 0.295798 0.612912 0.035374 0.047582 0.010652 0.298305 -0.053735 0.005831 0.764202 -0.460897 0.708320 -0.527909 0.449253 0.028908 -0.230432 0.182674 0.277860 -0.227949 0.359742 -0.250250 0.355301 -0.183913 -0.444336 -0.385368 -0.371199 -0.571666 -0.635992 0.432452 -0.721183 -0.270849 0.710905 -0.090096 -0.193471 0.396694 -0.001018 0.093956 0.374818 0.071438 -0.399647 -0.430707 -0.039064 0.410605 -0.791797 -0.305178 -0.080496 -0.290050 0.748176 0.585852 -0.266493 0.584663 -0.378519 -0.202808 0.013491 0.054578 -0.053831 -0.014187 -0.104562 -0.059633 -0.043228 0.010805 -0.007661 0.037644 0.004102 -0.025835 -0.083280 0.008665 -0.076360 -0.015965 0.051327 -0.017798 0.092156 -0.138200 -0.115710 0.018941 0.124680 -0.004973 0.010227 -0.112695 0.003659 -0.037160 0.114413 0.025723 -0.073683 0.063386 
SocialDemocracy 0.022172 -0.007469 0.015209 -0.068032 0.088657 -0.004369 0.086409 0.020712 0.043073 -0.144431 -0.110471 0.179515 -0.012385 0.237462 -0.152753 0.055045 -0.091163 0.200924 0.005641 0.264883 0.250572 0.137858 0.134617 -0.094566 -0.048537 0.043706 -0.188185 -0.081450 -0.226464 -0.310518 -0.323704 0.094243 0.003213 0.047825 0.542542 0.214793 -0.132912 -0.170238 -0.139559 -0.159367 0.126656 0.029112 0.257358 0.207093 -0.297666 -0.088488 0.016797 -0.210088 -0.082260 -0.132891 0.193118 -0.005734 -0.208651 0.140754 0.013205 -0.331212 -0.289978 -0.140781 -0.106016 0.076131 -0.305790 0.194184 -0.265420 -0.110311 -0.084945 0.000286 -0.042643 -0.013568 0.031540 -0.174618 0.050177 -0.042633 -0.015088 0.142241 -0.100711 -0.107587 0.011889 -0.016119 -0.124320 -0.009232 0.113897 0.135168 0.071864 0.096402 -0.064537 0.070231 -0.244080 0.072839 0.227103 0.025817 -0.385715 0.208547 0.003135 -0.126827 0.012472 0.219875 0.134002 0.106351 -0.244636 -0.354547 -0.090641 0.139644 0.176922 0.043292 -0.297593 0.028021 0.042460 0.365627 -0.623548 -0.223775 -0.000500 0.108241 0.063742 0.097451 -0.026813 0.486913 0.289065 0.547458 0.055504 0.022165 0.012811 0.166092 -0.019794 -0.013918 0.443929 -0.256416 0.408185 -0.285472 0.253785 0.014279 -0.128096 0.094153 0.150917 -0.126236 0.213639 -0.150959 0.158795 -0.092138 -0.200675 -0.189061 -0.177372 -0.258045 -0.298818 0.200593 -0.336642 -0.115200 0.343425 -0.043738 -0.099614 0.182138 -0.001238 0.048181 0.233271 0.034365 -0.292800 -0.337490 0.008518 0.297470 -0.573064 -0.243337 -0.065973 -0.215968 0.518894 0.428086 -0.205519 0.425476 -0.281954 -0.164155 -0.054453 -0.000371 -0.030973 0.106708 0.166466 0.092180 -0.041810 -0.054399 -0.042571 0.278007 -0.105057 -0.101102 -0.095777 -0.063935 -0.052481 0.156382 0.015462 -0.027802 0.065722 -0.089160 -0.067133 0.048416 0.097194 -0.001931 -0.099122 -0.077457 0.075080 -0.077873 0.124625 0.009263 -0.201422 0.120118 
demsocialist 0.051299 -0.160884 0.070536 -0.110625 0.392516 -0.042634 0.294676 0.099881 0.028991 -0.296847 -0.172316 0.379402 -0.027099 0.450425 -0.295119 0.117497 -0.119347 0.277048 -0.002486 0.368456 0.362085 0.194371 0.192173 -0.142624 -0.050063 0.028440 -0.168271 -0.088272 -0.233406 -0.320763 -0.347094 0.095041 0.021708 0.063563 0.600815 0.237220 -0.131092 -0.172810 -0.174484 -0.186186 0.238809 0.036800 0.450538 0.332154 -0.491291 -0.154963 0.012642 -0.335853 -0.136035 -0.197965 0.297260 0.039937 -0.281393 0.197165 0.045252 -0.478693 -0.412300 -0.234273 -0.169697 0.115286 -0.442239 0.272377 -0.381502 -0.164051 -0.163011 0.015248 -0.067653 -0.045905 0.115507 -0.391515 0.136520 -0.059651 -0.035568 0.207502 -0.130881 -0.180247 0.017339 -0.031043 -0.173550 0.001409 0.151957 0.206613 0.098789 0.111973 -0.110078 0.111501 -0.345551 0.106242 0.200058 0.023440 -0.319449 0.171888 -0.001201 -0.118050 0.009706 0.191694 0.133995 0.127293 -0.213159 -0.320419 -0.063402 0.110512 0.147220 0.054004 -0.242806 0.025126 0.017251 0.328655 -0.538963 -0.184104 -0.028698 0.071190 0.073210 0.110781 -0.027826 0.403747 0.247933 0.462458 0.040029 -0.002112 0.005417 0.163578 -0.013825 -0.030772 0.436405 -0.244187 0.391541 -0.253229 0.231569 -0.005659 -0.106971 0.091606 0.111756 -0.105731 0.196078 -0.155512 0.172443 -0.109851 -0.232099 -0.212724 -0.206733 -0.278184 -0.322010 0.203555 -0.318882 -0.110866 0.328215 -0.031290 -0.081989 0.151924 -0.022751 0.055508 0.149833 0.011955 -0.214615 -0.256093 0.023271 0.222435 -0.412111 -0.184437 -0.049587 -0.153953 0.359715 0.310431 -0.150502 0.314919 -0.217645 -0.120683 -0.086201 -0.033299 -0.015972 0.170212 0.313420 0.187099 -0.024528 -0.079416 -0.040943 0.249952 -0.102005 -0.094625 -0.068185 -0.069837 -0.025780 0.152800 0.009619 -0.082706 0.162062 -0.211475 -0.111820 0.136776 0.224578 0.010014 -0.171012 -0.092113 0.151807 -0.147069 0.184193 -0.002969 -0.320453 0.161710 
BetoORourke 0.034652 -0.138254 0.061820 -0.101817 0.323713 -0.032143 0.245479 0.104535 0.037453 -0.288321 -0.176442 0.371285 -0.032542 0.436642 -0.281654 0.114483 -0.118819 0.265042 -0.001368 0.343850 0.338139 0.186020 0.186953 -0.135689 -0.047847 0.025681 -0.160631 -0.069852 -0.205697 -0.284713 -0.308716 0.087219 0.016401 0.049560 0.513793 0.201894 -0.125701 -0.156885 -0.148090 -0.159076 0.180025 0.032119 0.346669 0.266762 -0.382563 -0.120435 0.007475 -0.264804 -0.102946 -0.150852 0.226854 0.019668 -0.220327 0.152414 0.026678 -0.371641 -0.375925 -0.199665 -0.157590 0.105193 -0.402381 0.252509 -0.350381 -0.148396 -0.142028 0.011069 -0.070516 -0.036640 0.090965 -0.346462 0.113931 -0.067988 -0.010330 0.098057 -0.061323 -0.078113 0.009390 -0.008451 -0.080332 -0.004853 0.057242 0.070316 0.034650 0.045719 -0.034737 0.034812 -0.124786 0.038223 0.166033 0.021166 -0.267580 0.145829 0.005653 -0.094248 0.005513 0.153263 0.099120 0.089578 -0.172136 -0.249812 -0.060217 0.096755 0.114670 0.032039 -0.188496 0.020346 0.017983 0.244262 -0.416231 -0.143829 -0.007349 0.068602 0.052538 0.079450 -0.020441 0.339856 0.200982 0.380903 0.039887 0.002369 0.008006 0.125120 -0.013153 -0.017088 0.345259 -0.190921 0.303343 -0.201142 0.183690 0.003839 -0.082351 0.073383 0.098715 -0.090819 0.161133 -0.123684 0.126163 -0.074380 -0.167751 -0.155655 -0.142936 -0.198390 -0.233115 0.149549 -0.245739 -0.084780 0.250835 -0.028604 -0.067732 0.126411 -0.009935 0.041199 0.137091 0.013552 -0.184792 -0.212836 0.013377 0.185936 -0.354357 -0.154930 -0.040888 -0.139440 0.327125 0.280591 -0.135289 0.275702 -0.189219 -0.102420 -0.066371 -0.018278 -0.019350 0.139828 0.239977 0.141179 -0.028420 -0.068238 -0.034673 0.179431 -0.072462 -0.069256 -0.054440 -0.046227 -0.031418 0.102950 0.007707 -0.056008 0.114660 -0.145748 -0.085813 0.101540 0.158113 0.009439 -0.116345 -0.072537 0.101098 -0.098536 0.136273 -0.004198 -0.219333 0.111072 
ConservativeDemocrat 0.030277 -0.097867 0.039514 -0.063760 0.220450 -0.025433 0.187575 0.070339 0.023521 -0.192227 -0.115602 0.247877 -0.022367 0.297185 -0.195423 0.075600 -0.079872 0.182845 -0.001640 0.245888 0.236731 0.133237 0.127855 -0.097187 -0.033826 0.020243 -0.129019 -0.061986 -0.171289 -0.233092 -0.252086 0.073548 0.010969 0.046403 0.431195 0.169991 -0.096666 -0.124810 -0.123444 -0.133255 0.146987 0.027516 0.277677 0.207345 -0.304314 -0.094620 0.010042 -0.212900 -0.078800 -0.120514 0.182010 0.013717 -0.174749 0.121928 0.024191 -0.296218 -0.337820 -0.185754 -0.139052 0.094990 -0.364389 0.224573 -0.311106 -0.135380 -0.123060 0.014503 -0.055199 -0.030933 0.083579 -0.295950 0.099302 -0.048963 -0.021876 0.143084 -0.093672 -0.121577 0.011972 -0.017850 -0.122369 0.002246 0.093855 0.118286 0.060673 0.068620 -0.060989 0.064650 -0.206351 0.057979 0.163948 0.017793 -0.256570 0.138834 0.002719 -0.098203 0.007624 0.151772 0.103123 0.093255 -0.165337 -0.250991 -0.056937 0.091132 0.111559 0.039497 -0.160045 0.018265 0.012564 0.206609 -0.349489 -0.118091 -0.010888 0.054135 0.049762 0.070984 -0.014236 0.286141 0.166405 0.323971 0.028676 -0.000033 0.006398 0.123051 -0.013471 -0.018336 0.327350 -0.181856 0.291730 -0.194675 0.184373 -0.002287 -0.084357 0.072745 0.092266 -0.084332 0.153741 -0.122474 0.137726 -0.085022 -0.180841 -0.167609 -0.158834 -0.218101 -0.251714 0.160275 -0.255798 -0.089894 0.262017 -0.028427 -0.069154 0.127950 -0.014185 0.046921 0.131026 0.012813 -0.182552 -0.209607 0.016048 0.184524 -0.345977 -0.152748 -0.042540 -0.130945 0.311208 0.265301 -0.124900 0.269263 -0.183146 -0.098862 -0.072357 -0.026445 -0.014524 0.141498 0.260642 0.152651 -0.023253 -0.069830 -0.034203 0.202579 -0.081620 -0.079481 -0.060862 -0.056650 -0.026312 0.122080 0.008578 -0.067741 0.141456 -0.181444 -0.101416 0.119426 0.192719 0.011685 -0.151746 -0.083692 0.131946 -0.127922 0.173769 -0.006511 -0.283304 0.149175 
