15 200
BaemyKlobaechar 0.045983 -0.054876 0.014779 -0.025179 0.043496 0.018927 0.162114 0.036246 0.013315 -0.173492 -0.153881 0.130807 0.019490 0.351110 -0.145483 0.012791 -0.077017 0.140260 -0.015852 0.257611 0.232162 0.056367 0.130519 -0.126740 0.007430 -0.111372 -0.058919 0.001881 -0.103154 -0.210625 -0.248654 0.149328 0.026736 0.057264 0.434798 0.237312 -0.095049 -0.137381 -0.141567 -0.106318 0.146571 -0.075993 0.407280 0.131502 -0.278509 -0.060578 0.066957 -0.260226 -0.097255 -0.135901 0.313211 0.079480 -0.049387 0.176972 0.190806 -0.284833 -0.271433 -0.228466 -0.074897 0.063698 -0.225199 0.203662 -0.236066 -0.081550 -0.155079 0.039771 -0.048825 -0.126692 0.120896 -0.163799 0.018837 0.028175 -0.060880 0.200370 -0.060224 -0.115391 0.083983 0.001392 -0.162287 0.041061 0.255364 0.242199 0.068522 0.080667 -0.055692 0.059985 -0.449058 0.097488 0.185587 0.087094 -0.456898 0.064143 0.128683 -0.322051 0.004405 0.279811 0.189241 0.090052 -0.189098 -0.177552 -0.028324 0.069384 0.065488 0.155842 -0.178955 0.069574 0.026015 0.306985 -0.435321 -0.048516 0.039543 0.094403 0.186987 0.163915 -0.044276 0.358022 0.215359 0.407681 -0.009202 -0.091437 0.000240 0.248086 0.031535 0.021416 0.472891 -0.293528 0.362296 -0.164276 0.335003 -0.150175 -0.147490 0.146821 -0.054403 -0.190283 0.139187 -0.277937 0.150764 -0.034282 -0.240358 -0.071079 -0.151020 -0.232031 -0.155066 0.040733 -0.210124 -0.124017 0.157866 0.038687 0.051175 0.121649 -0.098179 0.069715 0.136574 -0.065675 -0.034426 -0.083094 -0.044774 0.135420 -0.153137 -0.054471 -0.021416 -0.077766 0.108919 0.122564 -0.092274 0.147382 -0.073592 -0.005774 -0.007830 -0.104700 0.067874 0.148757 0.197795 0.142293 0.033082 -0.021360 -0.132516 0.210059 -0.096949 -0.066786 -0.105753 -0.149886 0.045693 0.170928 -0.050720 -0.129287 0.085387 -0.235758 -0.073970 0.034779 0.120190 0.038557 -0.114023 -0.008231 0.145269 -0.152892 0.138567 -0.086175 -0.100083 0.068390 
politics 0.116113 -0.098328 0.387764 0.270365 0.825539 -0.020905 0.292276 0.099774 -0.057563 -0.115182 -0.034459 0.128998 0.015273 0.200949 -0.096228 0.025428 -0.041204 0.120850 -0.027721 0.254065 0.234311 0.070616 0.123586 -0.131581 0.004226 -0.102652 0.013845 -0.015730 -0.098190 -0.153265 -0.215822 0.094727 0.051507 0.039855 0.199233 0.104576 -0.008018 -0.026234 -0.096211 -0.076329 0.059222 -0.024997 0.117757 0.026533 -0.071771 -0.019526 0.016211 -0.055111 -0.066372 -0.062096 0.124939 0.070012 -0.002256 0.065127 0.081006 -0.127123 -0.084132 -0.090593 -0.021885 0.017426 -0.066847 0.050522 -0.072603 -0.031693 -0.045931 0.027412 0.002612 -0.052801 0.084696 -0.084011 0.040934 0.030676 -0.111882 0.255270 -0.058950 -0.186005 0.096968 -0.033362 -0.171418 0.074490 0.271472 0.330591 0.083090 0.040390 -0.134694 0.104294 -0.523199 0.129197 0.206863 0.074577 -0.393960 0.070219 0.099631 -0.307032 -0.001842 0.272957 0.167046 0.139554 -0.144722 -0.175726 -0.005656 0.038146 0.036246 0.147822 -0.141836 0.056450 -0.003004 0.266951 -0.368899 -0.024539 -0.008946 0.046315 0.196389 0.183717 -0.049085 0.300067 0.197051 0.351852 -0.017173 -0.102782 -0.008320 0.219615 0.037154 -0.004655 0.427956 -0.261634 0.324065 -0.117866 0.249452 -0.129487 -0.094134 0.113795 -0.059334 -0.128954 0.113182 -0.231108 -0.012808 0.026939 0.026920 0.019674 0.026492 0.028454 0.015057 -0.002723 0.030897 0.008431 -0.029216 -0.017992 -0.024320 0.003785 0.026919 -0.014444 0.121819 -0.147705 -0.098332 -0.189596 0.005537 0.258962 -0.248095 -0.133931 -0.054456 -0.130773 0.153238 0.241337 -0.179330 0.320930 -0.215100 -0.035743 -0.022771 -0.089648 0.080350 0.087232 0.182421 0.122604 0.052909 0.001272 -0.150488 0.262707 -0.139571 -0.099760 -0.078195 -0.206893 0.098593 0.259874 -0.108115 -0.240999 0.169424 -0.398576 -0.058217 0.095586 0.183846 0.085656 -0.318923 0.076066 0.409356 -0.407003 0.260224 -0.246306 -0.333661 0.166380 
YangForPresidentHQ 0.066511 -0.074083 0.165924 0.139534 0.310071 -0.023820 0.222270 0.028557 -0.105304 -0.379254 -0.174707 0.359410 0.039857 0.669768 -0.307216 0.083363 -0.111292 0.274826 -0.059332 0.524611 0.489282 0.151370 0.238874 -0.262083 -0.005797 -0.148347 -0.004358 -0.031533 -0.127140 -0.205231 -0.286158 0.126199 0.046410 0.099745 0.353345 0.178470 -0.032566 -0.060931 -0.166613 -0.103362 0.247891 -0.096711 0.470485 0.115189 -0.321949 -0.115569 0.027411 -0.247115 -0.169442 -0.186576 0.394028 0.191719 -0.034783 0.189145 0.280821 -0.365135 -0.202710 -0.204389 -0.078470 0.046717 -0.182655 0.130628 -0.191615 -0.067899 -0.097965 0.061360 -0.001212 -0.121282 0.157397 -0.171557 0.071832 0.072391 -0.143950 0.223777 -0.024440 -0.172393 0.082638 -0.038891 -0.175788 0.096575 0.290526 0.351783 0.066229 0.040465 -0.126502 0.095407 -0.549511 0.115037 0.251173 0.099700 -0.453374 0.085435 0.111365 -0.370306 -0.018320 0.315767 0.214723 0.157520 -0.179943 -0.219926 0.004356 0.047145 0.031931 0.186545 -0.143498 0.065547 -0.044027 0.342986 -0.455115 -0.033106 -0.044937 0.020685 0.208098 0.192630 -0.037269 0.283496 0.183584 0.344045 -0.036494 -0.131783 -0.021699 0.129523 -0.010071 -0.031932 0.240049 -0.127127 0.181938 -0.083046 0.267231 -0.163577 -0.065687 0.164816 -0.096376 -0.132679 0.122895 -0.246888 0.213059 -0.117727 -0.366576 -0.146066 -0.246863 -0.339229 -0.235073 0.051114 -0.307012 -0.198522 0.244986 0.094238 0.108415 0.076391 -0.226009 0.116915 0.200642 -0.287512 -0.197504 -0.403046 0.039329 0.508111 -0.495282 -0.251565 -0.068223 -0.244150 0.265302 0.446015 -0.273309 0.542047 -0.389469 -0.045862 -0.014365 -0.121499 0.114738 0.117628 0.228974 0.179524 0.088673 0.008343 -0.062943 0.118027 -0.079027 -0.047781 -0.015149 -0.102614 0.034476 0.107869 -0.030349 -0.102982 0.100531 -0.211167 -0.008141 0.028545 0.083433 0.035666 -0.073959 0.016796 0.077477 -0.076303 0.044984 -0.041449 -0.061266 0.039784 
SandersForPresident 0.047377 -0.034328 0.199411 0.169674 0.335305 -0.031411 0.123539 0.041247 -0.089582 -0.187899 -0.051356 0.191867 0.021969 0.309615 -0.147949 0.047441 -0.044229 0.137088 -0.032302 0.262882 0.245934 0.085074 0.121854 -0.140921 -0.004854 -0.059687 0.033416 -0.019775 -0.048535 -0.051893 -0.100616 0.023058 0.030160 0.041458 0.048979 0.020227 0.024918 0.018875 -0.057123 -0.034946 0.163122 -0.058468 0.275060 0.052636 -0.173061 -0.070936 0.004579 -0.118493 -0.127422 -0.118039 0.247912 0.155635 -0.004098 0.111594 0.179171 -0.234357 -0.264301 -0.298236 -0.113625 0.066930 -0.236419 0.171108 -0.245024 -0.102751 -0.121782 0.085986 0.006872 -0.165017 0.240573 -0.257965 0.115635 0.106846 -0.120623 0.178869 -0.016234 -0.153327 0.066062 -0.040461 -0.120560 0.085484 0.201120 0.280656 0.055781 0.005372 -0.123307 0.086206 -0.409280 0.091901 0.228219 0.074281 -0.348811 0.076506 0.081676 -0.302393 -0.017397 0.262635 0.185873 0.179866 -0.137878 -0.195865 0.011827 0.021707 0.011117 0.158558 -0.081591 0.045869 -0.046175 0.222605 -0.290583 -0.008195 -0.060998 -0.010529 0.166495 0.162950 -0.029494 0.184221 0.126954 0.222011 -0.028983 -0.109380 -0.023953 0.144801 0.008287 -0.048156 0.277118 -0.147814 0.205356 -0.057961 0.195371 -0.144749 -0.028090 0.122955 -0.093234 -0.088270 0.094518 -0.205241 0.137765 -0.085384 -0.246887 -0.108691 -0.168868 -0.215381 -0.153373 0.026426 -0.163201 -0.114263 0.133449 0.061369 0.065508 0.019214 -0.149525 0.074643 0.172655 -0.297445 -0.202654 -0.408192 0.060921 0.506363 -0.477626 -0.263631 -0.079232 -0.243822 0.250098 0.457566 -0.294243 0.570178 -0.415516 -0.058443 -0.017593 -0.106342 0.113514 0.075231 0.197860 0.150548 0.091707 0.018875 -0.081555 0.153180 -0.106186 -0.066648 -0.004170 -0.143708 0.072877 0.165369 -0.066302 -0.160852 0.135525 -0.284062 0.000419 0.062906 0.115726 0.061242 -0.212791 0.074990 0.286050 -0.287794 0.152637 -0.173345 -0.242546 0.115831 
centerleftpolitics 0.009151 -0.084791 -0.061605 -0.115288 -0.028532 0.037715 0.173634 0.032277 0.078237 -0.114444 -0.174195 0.049845 0.015287 0.267175 -0.106355 -0.019000 -0.066131 0.078327 0.012412 0.142305 0.113873 0.008137 0.075870 -0.058980 0.015602 -0.124129 -0.106041 0.009867 -0.140078 -0.295411 -0.324540 0.211516 0.023696 0.056210 0.600803 0.330955 -0.149521 -0.204599 -0.165569 -0.140435 0.096718 -0.063032 0.379625 0.149562 -0.274957 -0.032084 0.094240 -0.275246 -0.079485 -0.138848 0.315760 0.033360 -0.075174 0.200148 0.173263 -0.291538 -0.258152 -0.168633 -0.045147 0.055626 -0.206798 0.200724 -0.214975 -0.063855 -0.153121 0.001208 -0.074431 -0.076278 0.029834 -0.088003 -0.037006 -0.028435 -0.029447 0.250662 -0.104748 -0.117554 0.100500 0.016558 -0.209782 0.012768 0.293875 0.235055 0.084286 0.127578 -0.035749 0.058865 -0.497377 0.118631 0.129361 0.077574 -0.469032 0.049735 0.135967 -0.284243 0.020588 0.252605 0.156227 0.012888 -0.193394 -0.143111 -0.052901 0.089818 0.101276 0.130146 -0.178824 0.046540 0.068951 0.227280 -0.349967 -0.058933 0.098400 0.132626 0.110700 0.087050 -0.038026 0.323960 0.182851 0.358790 0.009909 -0.022170 0.027365 0.133672 0.026022 0.079889 0.241254 -0.185536 0.204074 -0.148189 0.217078 -0.035522 -0.155186 0.064806 0.041773 -0.138589 0.086479 -0.128846 0.071813 0.040397 -0.087101 0.008140 -0.038485 -0.105272 -0.073908 0.034781 -0.118136 -0.053161 0.078255 -0.019230 -0.010652 0.144939 0.026230 0.005480 0.190425 -0.030714 -0.016069 -0.036110 -0.091782 0.100295 -0.148268 -0.036011 -0.015771 -0.052406 0.118689 0.065661 -0.074156 0.080354 0.000751 0.003331 -0.013296 -0.035137 -0.012117 0.137218 0.110604 0.066198 -0.039554 -0.040699 -0.117275 0.188952 -0.061926 -0.055882 -0.152608 -0.102919 -0.001975 0.112194 -0.015759 -0.061880 0.025320 -0.122030 -0.104905 -0.002020 0.087431 0.003683 -0.035715 -0.055418 0.016725 -0.025730 0.088672 0.004479 0.009579 0.028504 
Pete_Buttigieg 0.006241 -0.037110 -0.017208 -0.019206 -0.036860 0.001206 0.164969 0.045070 -0.062993 -0.369027 -0.214842 0.326441 0.034627 0.668118 -0.297781 0.063739 -0.138001 0.292852 -0.055676 0.549617 0.513543 0.143801 0.259155 -0.277808 0.004588 -0.220577 -0.046673 -0.015790 -0.181618 -0.341516 -0.437338 0.230816 0.076327 0.138473 0.698690 0.363647 -0.115978 -0.169500 -0.274808 -0.185381 0.270564 -0.120876 0.615518 0.177500 -0.413977 -0.116590 0.066017 -0.354961 -0.172054 -0.210818 0.471928 0.172255 -0.053712 0.239098 0.313210 -0.425798 -0.347282 -0.313799 -0.118323 0.086015 -0.299141 0.251391 -0.311826 -0.107612 -0.174822 0.073508 -0.045203 -0.171625 0.186470 -0.230164 0.052984 0.063167 -0.109926 0.211110 -0.033857 -0.139679 0.082380 -0.017725 -0.171299 0.074234 0.272049 0.296398 0.061465 0.056299 -0.085252 0.070679 -0.495337 0.100906 0.247352 0.106459 -0.508899 0.085816 0.133818 -0.392604 -0.016036 0.329182 0.232500 0.140611 -0.218210 -0.226891 -0.014765 0.067488 0.049372 0.198315 -0.195719 0.082563 -0.018388 0.416288 -0.571933 -0.048514 -0.005390 0.074021 0.269270 0.243697 -0.055636 0.427787 0.268400 0.503721 -0.026392 -0.164108 -0.016255 0.266244 0.015553 -0.016836 0.508211 -0.287430 0.375649 -0.160779 0.354824 -0.190380 -0.116334 0.188849 -0.095355 -0.193334 0.152262 -0.317369 0.165482 -0.070360 -0.275011 -0.096503 -0.174043 -0.262144 -0.174054 0.042889 -0.261392 -0.160129 0.194991 0.072485 0.086800 0.104567 -0.158179 0.088695 0.087610 -0.064833 -0.030634 -0.084980 -0.018372 0.119796 -0.132525 -0.042656 -0.012571 -0.079292 0.091299 0.135696 -0.071660 0.145681 -0.087056 0.008031 -0.002589 -0.044578 0.042470 0.069448 0.083188 0.065619 0.019401 -0.000143 -0.041907 0.053674 -0.035174 -0.014557 -0.031195 -0.046678 -0.005978 0.030876 0.000648 -0.025017 0.029713 -0.072981 -0.022084 -0.006992 0.029439 0.006349 0.053201 -0.027365 -0.053265 0.038283 -0.003559 0.022236 0.053327 -0.007738 
moderatepolitics 0.062124 -0.096213 0.188917 0.141065 0.636711 -0.010772 0.308103 0.100478 -0.050533 -0.162430 -0.082175 0.192524 0.010092 0.317688 -0.145244 0.040416 -0.056410 0.136767 -0.032143 0.293269 0.290930 0.074118 0.146667 -0.143090 0.003748 -0.141128 0.002685 -0.024320 -0.125014 -0.228966 -0.310610 0.142991 0.083011 0.066981 0.423311 0.216750 -0.040128 -0.073748 -0.177965 -0.128779 0.117162 -0.045396 0.238718 0.063867 -0.147693 -0.043528 0.021544 -0.146008 -0.075334 -0.097230 0.185647 0.109458 -0.037035 0.089872 0.115575 -0.178104 -0.096774 -0.097379 -0.030729 0.026117 -0.077881 0.068367 -0.074510 -0.044372 -0.027100 0.015886 -0.003750 -0.032428 0.033119 -0.047498 0.004863 0.022744 -0.032859 0.132626 -0.037400 -0.094637 0.052166 -0.011441 -0.081970 0.021971 0.135553 0.136797 0.034941 0.042380 -0.047407 0.059864 -0.238812 0.057185 0.168877 0.057800 -0.355016 0.069557 0.078413 -0.250836 0.010201 0.241537 0.152376 0.139931 -0.153368 -0.168361 -0.000396 0.044025 0.044648 0.126511 -0.164948 0.081531 -0.008033 0.344394 -0.446712 -0.038028 -0.032708 0.040675 0.210537 0.210304 -0.062908 0.323111 0.223182 0.391566 -0.014082 -0.116486 -0.013845 0.124185 0.021081 -0.009923 0.258233 -0.151603 0.189530 -0.043300 0.135441 -0.076360 -0.055093 0.049405 -0.045906 -0.070778 0.052149 -0.141741 0.143701 -0.071407 -0.258282 -0.096465 -0.191172 -0.224875 -0.152537 0.044152 -0.129428 -0.075244 0.117379 0.032062 0.037242 0.039680 -0.089710 0.066870 0.078701 -0.093296 -0.073903 -0.129716 0.001093 0.176031 -0.163234 -0.098349 -0.029874 -0.074512 0.093338 0.125574 -0.105825 0.176000 -0.134060 -0.040742 0.000159 -0.213912 0.142711 0.196917 0.365526 0.278798 0.118919 -0.020256 -0.205076 0.344617 -0.176046 -0.119955 -0.085990 -0.266297 0.149609 0.348025 -0.069673 -0.156546 0.116575 -0.251467 -0.032069 0.079005 0.121080 0.066245 -0.267718 0.055769 0.342825 -0.307852 0.195593 -0.172904 -0.254666 0.125571 
ElizabethWarren 0.075445 -0.136690 0.241000 0.109804 0.519947 0.004523 0.273682 0.091101 0.029228 -0.089619 -0.109219 0.049654 0.018637 0.197751 -0.081276 -0.011643 -0.048868 0.074220 0.003962 0.149591 0.123881 0.018013 0.081386 -0.068630 0.012272 -0.079156 -0.053084 0.007447 -0.094876 -0.191726 -0.221255 0.136813 0.026720 0.033477 0.383435 0.214568 -0.085515 -0.129176 -0.106749 -0.100520 0.112030 -0.065711 0.356674 0.119893 -0.236053 -0.034538 0.074420 -0.233589 -0.090858 -0.125749 0.283946 0.066260 -0.047636 0.179181 0.158956 -0.260540 -0.385297 -0.344188 -0.109370 0.088070 -0.318582 0.287093 -0.328808 -0.125963 -0.217277 0.048711 -0.065097 -0.175887 0.187702 -0.254091 0.039680 0.044696 0.009294 0.110131 -0.063581 -0.040869 0.048229 0.014136 -0.089899 -0.009272 0.119757 0.082226 0.049544 0.066156 -0.003686 0.019650 -0.205609 0.058286 0.078815 0.041798 -0.282282 0.027900 0.086004 -0.170582 0.019458 0.154361 0.101334 0.020135 -0.112194 -0.088657 -0.032317 0.043898 0.063963 0.085384 -0.122250 0.035630 0.047949 0.140455 -0.221208 -0.031587 0.061602 0.081339 0.093770 0.075545 -0.031091 0.224551 0.130404 0.239414 0.007626 -0.015281 0.002790 0.257070 0.053070 0.028473 0.497447 -0.319704 0.392866 -0.162839 0.292901 -0.123998 -0.149048 0.116842 -0.027217 -0.162206 0.125488 -0.241500 0.102149 0.002769 -0.152816 -0.034847 -0.091807 -0.146735 -0.101800 0.028774 -0.109821 -0.059543 0.083412 -0.002620 0.003610 0.101896 -0.025443 0.031264 0.134374 -0.051993 -0.031474 -0.061456 -0.050608 0.113174 -0.127996 -0.053640 -0.027263 -0.067852 0.106042 0.104767 -0.108441 0.144641 -0.065810 -0.016649 -0.023801 -0.157992 0.100211 0.201864 0.314008 0.221453 0.058519 -0.031118 -0.242086 0.413363 -0.193280 -0.142322 -0.170946 -0.300274 0.127060 0.371647 -0.112865 -0.246444 0.160651 -0.416919 -0.112914 0.084071 0.213780 0.080986 -0.287075 0.028158 0.360496 -0.371447 0.275345 -0.207029 -0.282626 0.162397 
progressive 0.007202 -0.050432 -0.122794 -0.157625 -0.225812 0.043022 0.139799 0.028373 0.104718 -0.059467 -0.162997 -0.014367 0.012150 0.187302 -0.060416 -0.028948 -0.066031 0.078340 0.015011 0.133930 0.103470 0.006846 0.066206 -0.055406 0.015450 -0.124166 -0.119472 0.018803 -0.119455 -0.265525 -0.291364 0.206980 -0.000951 0.046455 0.547852 0.308029 -0.154906 -0.206234 -0.137616 -0.114284 0.134959 -0.081458 0.476197 0.172155 -0.338783 -0.054604 0.103568 -0.341223 -0.087665 -0.153744 0.373649 0.039019 -0.075036 0.230474 0.214893 -0.332798 -0.309165 -0.221147 -0.061072 0.070702 -0.243642 0.239977 -0.255672 -0.085136 -0.167484 0.012489 -0.079533 -0.093730 0.036293 -0.098436 -0.042770 -0.018811 0.003215 0.140783 -0.074228 -0.030507 0.065313 0.029628 -0.134272 -0.005481 0.206783 0.118821 0.047477 0.112662 0.017657 0.014546 -0.317154 0.061891 -0.016161 0.027243 -0.176537 -0.009364 0.075195 -0.073679 0.016466 0.059965 0.033063 -0.097343 -0.074725 -0.007353 -0.050741 0.059035 0.059274 0.024284 -0.116524 0.025029 0.082215 0.092491 -0.167197 -0.039914 0.122787 0.125252 0.025975 -0.006888 -0.010015 0.204481 0.088750 0.202395 0.013573 0.027436 0.019432 0.300658 0.040379 0.068937 0.553239 -0.359519 0.431780 -0.227274 0.424778 -0.158123 -0.218382 0.168484 -0.028606 -0.253252 0.164500 -0.318372 0.231849 -0.030769 -0.353703 -0.086495 -0.215652 -0.356696 -0.231322 0.072354 -0.318420 -0.182845 0.235250 0.043498 0.062509 0.219458 -0.116921 0.093939 0.238322 -0.065687 -0.030067 -0.079574 -0.109043 0.161521 -0.203175 -0.054862 -0.030406 -0.113480 0.176776 0.159215 -0.135881 0.190950 -0.076689 -0.009645 -0.012649 -0.190024 0.110333 0.279814 0.362181 0.263655 0.039945 -0.053642 -0.267584 0.425901 -0.188256 -0.126332 -0.216697 -0.297751 0.097960 0.351286 -0.060082 -0.171086 0.098337 -0.313234 -0.142669 0.034524 0.173334 0.047444 -0.105830 -0.058623 0.112839 -0.137052 0.181986 -0.069162 -0.056941 0.068659 
JoeBiden 0.013491 -0.067716 -0.225196 -0.262742 -0.308604 0.073660 0.301402 0.035726 0.153983 -0.214017 -0.338057 0.074064 0.030437 0.506163 -0.190905 -0.040760 -0.129493 0.155499 0.025300 0.269547 0.213874 0.018790 0.143030 -0.121145 0.028445 -0.219090 -0.200930 0.032210 -0.224142 -0.488734 -0.535744 0.371442 0.013236 0.091044 0.997650 0.558887 -0.273190 -0.367962 -0.260757 -0.221719 0.130344 -0.100647 0.615790 0.244543 -0.449087 -0.044355 0.164839 -0.459753 -0.099499 -0.199677 0.500138 -0.001032 -0.109669 0.329007 0.275611 -0.440639 -0.329967 -0.173980 -0.035052 0.066358 -0.253670 0.271479 -0.270210 -0.063202 -0.243406 -0.017715 -0.134520 -0.099369 -0.005843 -0.086723 -0.097053 -0.075121 0.021275 0.249126 -0.136941 -0.055477 0.111744 0.058447 -0.242953 -0.020116 0.325567 0.172700 0.086876 0.188870 0.042873 0.013474 -0.503356 0.107056 0.055865 0.079784 -0.495791 0.013036 0.176238 -0.261188 0.032493 0.217266 0.133971 -0.117913 -0.199804 -0.083430 -0.096239 0.120856 0.133528 0.107200 -0.297559 0.080097 0.131445 0.349162 -0.558148 -0.095919 0.198304 0.250292 0.163674 0.112517 -0.047884 0.537892 0.275694 0.565625 0.021609 -0.018482 0.053247 0.302856 0.052265 0.146366 0.533917 -0.388704 0.438551 -0.295786 0.430239 -0.092727 -0.287035 0.140609 0.060290 -0.274718 0.163779 -0.256491 0.096174 0.102744 -0.083295 0.051232 -0.003996 -0.136918 -0.082390 0.040001 -0.196955 -0.092711 0.116690 -0.033100 -0.011876 0.274418 0.054674 0.003516 0.294967 0.032889 0.047055 0.065668 -0.188694 0.013289 -0.102803 0.034475 -0.007588 -0.051793 0.149722 0.033388 -0.069458 0.024418 0.094513 0.030563 -0.010180 0.066096 -0.113412 0.127094 -0.052149 -0.062937 -0.158278 -0.071342 -0.110812 0.152792 -0.008917 -0.022295 -0.244145 -0.043684 -0.079886 0.011757 0.015338 -0.008028 -0.052834 -0.047212 -0.189269 -0.063778 0.079880 -0.034772 0.116006 -0.154698 -0.189856 0.122428 0.073895 0.097434 0.187763 -0.034456 
Kamala 0.027888 -0.119166 -0.201758 -0.253729 -0.355776 0.069270 0.285387 0.014578 0.123686 -0.297789 -0.358520 0.147151 0.038845 0.621685 -0.249260 -0.019862 -0.152072 0.209293 0.008275 0.353465 0.295622 0.048838 0.182882 -0.163713 0.021595 -0.190987 -0.191083 0.029096 -0.201910 -0.444045 -0.473660 0.332109 0.001493 0.094312 0.916632 0.510832 -0.258589 -0.347317 -0.239840 -0.198566 0.209780 -0.133149 0.765938 0.284748 -0.550312 -0.081898 0.167545 -0.523843 -0.158552 -0.258189 0.622664 0.063106 -0.119930 0.383201 0.362050 -0.555301 -0.367119 -0.217197 -0.061632 0.074358 -0.297100 0.297210 -0.316750 -0.069107 -0.270257 -0.000877 -0.133526 -0.138407 0.057175 -0.148434 -0.061789 -0.053131 -0.046964 0.349721 -0.142180 -0.144295 0.147725 0.040223 -0.319593 0.024129 0.444725 0.344942 0.122629 0.194517 -0.026209 0.060055 -0.748748 0.167497 0.239392 0.148182 -0.816516 0.080834 0.248277 -0.519280 0.019384 0.437119 0.298643 0.021146 -0.342794 -0.254376 -0.092849 0.152599 0.163834 0.249135 -0.373206 0.111114 0.101870 0.546859 -0.822928 -0.118879 0.165188 0.259006 0.299434 0.246342 -0.075453 0.720343 0.406037 0.793673 0.007416 -0.112481 0.050077 0.251939 0.038600 0.132312 0.439667 -0.325635 0.368755 -0.280136 0.396138 -0.080530 -0.262381 0.143352 0.062067 -0.253772 0.160321 -0.226770 0.011563 0.132337 0.057488 0.095971 0.096702 -0.010577 -0.004808 0.015516 -0.110819 -0.035254 0.042785 -0.054440 -0.036479 0.236903 0.116253 -0.046294 0.255825 0.066892 0.076073 0.111233 -0.178765 -0.053986 -0.046231 0.070477 0.010392 -0.015921 0.104702 -0.023544 -0.016965 -0.062334 0.161662 0.054222 -0.018194 0.057447 -0.095304 0.142443 -0.021735 -0.043808 -0.140740 -0.063166 -0.112833 0.163698 -0.025474 -0.031977 -0.235769 -0.055658 -0.083075 0.013779 -0.002857 -0.049451 -0.004212 -0.131164 -0.182999 -0.042909 0.114822 -0.019609 0.093298 -0.139626 -0.164621 0.104696 0.070237 0.088871 0.163072 -0.022284 
SocialDemocracy 0.065560 -0.111580 0.157273 0.078957 0.395132 0.002913 0.271419 0.090663 -0.032919 -0.241818 -0.156910 0.226785 0.023690 0.453382 -0.202971 0.037344 -0.097771 0.201755 -0.036245 0.388559 0.368740 0.093745 0.190177 -0.191436 0.004906 -0.152918 -0.033529 -0.013207 -0.138444 -0.268525 -0.333389 0.175479 0.068655 0.082410 0.531432 0.278308 -0.087533 -0.131693 -0.192284 -0.144607 0.182346 -0.083030 0.435498 0.129761 -0.287831 -0.073565 0.053965 -0.258693 -0.131854 -0.164020 0.356916 0.139172 -0.052614 0.185041 0.219928 -0.331086 -0.356746 -0.332144 -0.117110 0.092729 -0.302213 0.263620 -0.309652 -0.122973 -0.182521 0.070302 -0.045384 -0.172800 0.194282 -0.250293 0.055357 0.069311 -0.083257 0.232641 -0.058810 -0.152756 0.095232 -0.014745 -0.169797 0.053043 0.260925 0.277131 0.069367 0.070444 -0.088143 0.084141 -0.472405 0.110994 0.219207 0.087034 -0.488427 0.086032 0.124187 -0.347552 0.002009 0.309504 0.202844 0.134724 -0.205162 -0.208646 -0.019651 0.064584 0.063795 0.172288 -0.184972 0.070725 0.011675 0.347217 -0.471902 -0.044846 0.007230 0.076693 0.216204 0.199047 -0.058321 0.369126 0.243204 0.435472 -0.007831 -0.116485 -0.002155 0.221739 0.033897 0.002817 0.433714 -0.257023 0.326269 -0.128090 0.251258 -0.119203 -0.107869 0.107945 -0.050849 -0.140753 0.104204 -0.221748 0.135664 -0.048057 -0.227909 -0.078193 -0.154310 -0.210784 -0.145948 0.041641 -0.156183 -0.087063 0.123962 0.031751 0.036569 0.079397 -0.080398 0.055872 0.127412 -0.122818 -0.075072 -0.161818 -0.012328 0.221260 -0.223681 -0.111050 -0.038318 -0.120538 0.141850 0.201853 -0.147296 0.252134 -0.165646 -0.028211 -0.009048 -0.117180 0.079949 0.138913 0.217313 0.157154 0.047935 -0.016062 -0.157607 0.260564 -0.129465 -0.083081 -0.090768 -0.196301 0.086951 0.240579 -0.071872 -0.167843 0.119321 -0.283469 -0.060241 0.066664 0.138334 0.060310 -0.231194 0.031493 0.308277 -0.295508 0.204676 -0.167667 -0.227421 0.120022 
demsocialist 0.049865 -0.095291 0.168582 0.110047 0.488563 -0.005821 0.315345 0.106560 -0.066919 -0.297087 -0.162590 0.295159 0.027544 0.546821 -0.247764 0.058289 -0.111324 0.246481 -0.048947 0.483668 0.463838 0.122906 0.232865 -0.239737 0.003009 -0.157478 -0.015002 -0.021092 -0.135278 -0.252100 -0.325963 0.159968 0.074002 0.086274 0.481159 0.247775 -0.064294 -0.100565 -0.190634 -0.135010 0.196863 -0.084508 0.431369 0.118360 -0.280384 -0.080058 0.043168 -0.244087 -0.136754 -0.164112 0.347957 0.159053 -0.047564 0.169436 0.224889 -0.323276 -0.314225 -0.304134 -0.109805 0.081580 -0.267487 0.226530 -0.275204 -0.112343 -0.142582 0.067381 -0.027604 -0.150633 0.174661 -0.216630 0.055882 0.072733 -0.062685 0.158973 -0.033666 -0.108914 0.061956 -0.017718 -0.112639 0.040493 0.180260 0.195366 0.042274 0.043077 -0.067393 0.064146 -0.327669 0.075267 0.154825 0.061280 -0.333744 0.060387 0.077512 -0.241011 -0.002334 0.218189 0.143406 0.104689 -0.142859 -0.150385 -0.005026 0.042289 0.040883 0.120390 -0.135335 0.055115 -0.005570 0.282169 -0.373040 -0.033169 -0.013372 0.045031 0.170499 0.164821 -0.046625 0.274668 0.186345 0.333677 -0.013491 -0.099647 -0.008795 0.159158 0.016954 -0.007772 0.310626 -0.180853 0.229088 -0.084367 0.189193 -0.100065 -0.072244 0.086739 -0.051844 -0.104740 0.079098 -0.178079 0.107693 -0.048692 -0.190063 -0.066451 -0.134270 -0.172168 -0.118760 0.033229 -0.134825 -0.076977 0.109786 0.034371 0.039129 0.052316 -0.079646 0.049547 0.106725 -0.121643 -0.080350 -0.165854 0.000920 0.217808 -0.213951 -0.113499 -0.036375 -0.112226 0.127983 0.195344 -0.138138 0.245411 -0.173709 -0.031626 -0.002628 -0.118107 0.082111 0.124661 0.209612 0.159610 0.060370 -0.009599 -0.132251 0.219967 -0.115993 -0.074450 -0.060954 -0.173677 0.083659 0.210634 -0.049421 -0.124366 0.095710 -0.210917 -0.031759 0.051507 0.100109 0.047970 -0.166616 0.027835 0.220425 -0.206478 0.135678 -0.114853 -0.160260 0.085928 
BetoORourke 0.049637 -0.062818 0.106150 0.060079 0.306089 -0.000504 0.215159 0.068297 -0.037936 -0.229433 -0.142492 0.217435 0.022184 0.429070 -0.188195 0.039397 -0.089771 0.186498 -0.033961 0.361148 0.338663 0.088797 0.177190 -0.179012 0.001677 -0.145864 -0.025745 -0.010649 -0.126114 -0.239157 -0.307248 0.156260 0.065533 0.081993 0.474324 0.248192 -0.075809 -0.112484 -0.181261 -0.131352 0.190850 -0.086062 0.436779 0.126712 -0.287412 -0.078180 0.048509 -0.254375 -0.135840 -0.163730 0.351569 0.143351 -0.045734 0.181799 0.221988 -0.326474 -0.316076 -0.298002 -0.107949 0.077570 -0.267453 0.230477 -0.280379 -0.110390 -0.149274 0.061960 -0.034871 -0.152546 0.171871 -0.219750 0.054246 0.061827 -0.080474 0.204761 -0.044511 -0.139755 0.080952 -0.017507 -0.147426 0.051878 0.234654 0.256099 0.060120 0.054951 -0.084808 0.075692 -0.430483 0.099489 0.214763 0.086812 -0.458057 0.080979 0.117711 -0.334523 -0.001914 0.296062 0.198463 0.138804 -0.192759 -0.204050 -0.013408 0.060033 0.052386 0.165738 -0.169406 0.069276 -0.003075 0.329781 -0.450920 -0.039993 -0.001470 0.064721 0.210530 0.194567 -0.053877 0.343988 0.223420 0.405748 -0.013660 -0.117023 -0.008503 0.211357 0.025518 -0.003539 0.418787 -0.245073 0.310797 -0.117106 0.255587 -0.130803 -0.097170 0.122100 -0.062409 -0.142703 0.113351 -0.237507 0.166891 -0.067764 -0.285933 -0.103755 -0.192744 -0.255221 -0.177845 0.044510 -0.203637 -0.122859 0.164331 0.048441 0.057250 0.082824 -0.127922 0.079934 0.130850 -0.140088 -0.093193 -0.186942 -0.003376 0.250150 -0.247991 -0.126986 -0.038889 -0.130383 0.151859 0.227229 -0.159498 0.280335 -0.194366 -0.028334 -0.007059 -0.128372 0.093253 0.143223 0.237004 0.178241 0.066108 -0.013332 -0.152851 0.248451 -0.128480 -0.087539 -0.077062 -0.194899 0.085152 0.233798 -0.064614 -0.152459 0.114926 -0.262729 -0.048940 0.061900 0.123451 0.057833 -0.192071 0.030259 0.259020 -0.252203 0.172424 -0.147510 -0.196433 0.103172 
ConservativeDemocrat 0.036489 -0.054738 0.073566 0.044687 0.233253 -0.001143 0.170552 0.061789 -0.042550 -0.201915 -0.115230 0.201083 0.016084 0.379525 -0.172354 0.037976 -0.075593 0.164747 -0.034387 0.327087 0.308639 0.086026 0.158536 -0.163197 0.004338 -0.126771 -0.014722 -0.016174 -0.110775 -0.204965 -0.266085 0.133485 0.058534 0.074069 0.403339 0.207992 -0.053151 -0.085835 -0.157748 -0.114313 0.168471 -0.068972 0.370682 0.102621 -0.241058 -0.067674 0.039736 -0.216546 -0.105840 -0.131362 0.282764 0.118777 -0.037029 0.142940 0.179601 -0.261407 -0.266448 -0.258867 -0.093419 0.067524 -0.230194 0.194037 -0.232993 -0.097842 -0.119278 0.056068 -0.023517 -0.122930 0.146308 -0.182346 0.047054 0.060421 -0.077643 0.183035 -0.039560 -0.132426 0.072677 -0.019397 -0.133081 0.054020 0.216796 0.238954 0.057427 0.047640 -0.081173 0.077184 -0.397015 0.086863 0.194132 0.071282 -0.390293 0.073397 0.095608 -0.292989 -0.000284 0.259090 0.173839 0.131095 -0.161413 -0.181680 -0.008126 0.047236 0.040648 0.146847 -0.138160 0.060135 -0.007750 0.275784 -0.371685 -0.030445 -0.011412 0.046031 0.177876 0.164971 -0.041084 0.278989 0.180961 0.333843 -0.014269 -0.101118 -0.011165 0.189452 0.020134 -0.012113 0.373908 -0.214191 0.278131 -0.100467 0.242464 -0.132225 -0.088059 0.116376 -0.069305 -0.128286 0.103132 -0.229241 0.171221 -0.081028 -0.293967 -0.112383 -0.205425 -0.264876 -0.182893 0.045814 -0.207579 -0.125573 0.171096 0.054168 0.063037 0.073716 -0.140402 0.089632 0.109563 -0.129545 -0.089686 -0.175424 0.004608 0.232204 -0.225433 -0.119943 -0.038009 -0.118357 0.136228 0.206698 -0.142038 0.261812 -0.184334 -0.030137 -0.006398 -0.144140 0.104964 0.140401 0.254550 0.190962 0.079986 -0.011705 -0.126766 0.213045 -0.110370 -0.076055 -0.060737 -0.170450 0.081869 0.207580 -0.058135 -0.132549 0.106400 -0.232549 -0.035282 0.055788 0.105812 0.054192 -0.168202 0.031243 0.219241 -0.210613 0.141980 -0.122549 -0.164010 0.088611 
