15 200
BaemyKlobaechar -0.052842 0.024385 -0.456300 -0.212846 -0.249025 0.073125 -0.140321 0.028211 0.027708 -0.283317 -0.268039 0.207791 0.003143 0.535496 -0.272442 0.008542 -0.226852 0.245941 -0.086531 0.494499 0.492574 0.029830 0.296436 -0.205532 0.103238 -0.072059 0.009889 0.039415 -0.125028 -0.577566 -0.539206 0.294037 0.114137 0.174404 1.129194 0.467396 -0.148997 -0.322552 -0.206458 -0.123076 0.161296 -0.164295 0.610506 0.291555 -0.304358 0.014738 0.150235 -0.424344 -0.064532 -0.201532 0.397524 0.036688 -0.123669 0.236932 0.179555 -0.304606 -0.396158 -0.309683 -0.116367 0.068497 -0.367520 0.390369 -0.307999 -0.089140 -0.247766 0.051156 -0.151510 -0.209497 0.194559 -0.263941 -0.012388 0.008124 -0.060695 0.381687 -0.122988 -0.261033 0.141330 -0.032097 -0.278393 0.020943 0.400112 0.441809 0.215014 0.160255 -0.037983 0.130997 -0.758981 0.229494 -0.008205 0.029705 -0.297669 0.049209 0.084030 -0.129040 0.026415 0.064610 0.055233 -0.109966 -0.162479 -0.013276 -0.067198 0.044757 0.100097 0.048642 -0.178146 0.017220 0.089485 0.264552 -0.439180 -0.079182 0.176451 0.130072 0.174536 0.113593 -0.112180 0.439643 0.399916 0.637063 0.089157 -0.085181 0.017144 0.142876 0.073248 0.078064 0.346951 -0.210979 0.297197 -0.166562 0.250428 -0.037734 -0.223744 0.074851 0.098792 -0.195359 0.064148 -0.199078 0.241554 -0.085644 -0.364995 -0.126235 -0.241542 -0.369576 -0.197609 0.093790 -0.295004 -0.049592 0.204653 0.026244 0.063598 0.267146 -0.018719 0.066329 0.244539 -0.120815 -0.033742 -0.102418 -0.115344 0.253352 -0.244931 -0.125131 0.001519 -0.187193 0.244309 0.224916 -0.243768 0.256206 -0.114945 -0.002632 0.004900 -0.176207 -0.041978 0.375257 0.335471 0.220369 0.032607 -0.068622 -0.263521 0.433247 -0.142875 -0.146729 -0.298493 -0.272700 0.018516 0.349161 -0.255967 -0.264997 0.426479 -0.567293 -0.100042 0.217396 0.296366 0.195091 -0.385863 0.023153 0.533553 -0.522356 0.294213 -0.229807 -0.429688 0.343908 
politics 0.088536 -0.164780 0.340812 0.163083 1.164611 0.020676 0.374513 -0.071422 -0.042128 -0.247760 -0.132361 0.259560 0.007397 0.431975 -0.227985 0.057454 -0.160363 0.240424 -0.067977 0.491718 0.496453 0.077563 0.287505 -0.205900 0.039768 -0.025550 -0.002175 0.011507 -0.067768 -0.214305 -0.212375 0.109823 0.065830 0.023463 0.401270 0.162495 -0.050063 -0.108360 -0.084165 -0.064362 0.235419 -0.157536 0.651488 0.276388 -0.324531 -0.016772 0.118756 -0.384225 -0.169226 -0.269644 0.458225 0.200628 -0.142385 0.240643 0.244157 -0.427147 -0.665100 -0.621059 -0.252140 0.091587 -0.609165 0.542053 -0.562614 -0.197905 -0.282653 0.097272 -0.109098 -0.336228 0.436334 -0.514193 0.124609 0.121905 -0.065529 0.269104 -0.082200 -0.224983 0.059825 -0.062671 -0.159361 0.036710 0.254814 0.360354 0.143643 0.052278 -0.118475 0.147803 -0.553331 0.167498 0.267224 0.110856 -0.640469 0.157354 0.048449 -0.423938 0.013488 0.401785 0.292644 0.251587 -0.339172 -0.322934 0.032670 0.036746 0.162975 0.228606 -0.225410 0.080101 -0.108926 0.662656 -0.908195 -0.152178 -0.076811 -0.042588 0.333221 0.375616 -0.146843 0.522861 0.504444 0.797052 -0.003970 -0.210541 -0.114049 0.329058 0.076811 -0.073428 0.845332 -0.505400 0.689820 -0.197766 0.455388 -0.237305 -0.239042 0.224834 -0.043677 -0.272424 0.225379 -0.517346 0.337729 -0.238344 -0.639080 -0.284112 -0.482312 -0.563167 -0.368510 0.121147 -0.473749 -0.160478 0.418392 0.094913 0.136030 0.185829 -0.231029 0.156469 0.128809 -0.204725 -0.188272 -0.302211 0.042715 0.423693 -0.366649 -0.269367 -0.035318 -0.226662 0.281087 0.398490 -0.364611 0.519445 -0.397994 -0.103876 0.000866 -0.156068 0.035192 0.207050 0.300586 0.212460 0.095198 -0.025092 -0.156266 0.312000 -0.141276 -0.136332 -0.110610 -0.215253 0.087341 0.299554 -0.036440 -0.063257 0.083078 -0.107800 -0.026220 0.077920 0.082694 0.039276 -0.117979 0.009488 0.161706 -0.130440 0.085219 -0.056654 -0.136971 0.081256 
YangForPresidentHQ 0.084619 -0.056429 0.278870 0.161596 0.748057 -0.001496 0.253244 0.051793 -0.081370 -0.229926 -0.096519 0.205975 0.027299 0.389936 -0.201194 0.040249 -0.132816 0.201664 -0.067266 0.444891 0.434654 0.058664 0.246439 -0.191223 0.050348 -0.082182 0.064451 -0.005909 -0.112388 -0.325735 -0.364219 0.156521 0.114863 0.123115 0.627278 0.261932 -0.025827 -0.126756 -0.179360 -0.110207 0.144755 -0.108224 0.354530 0.120421 -0.160931 -0.011029 0.059553 -0.181316 -0.114186 -0.160937 0.278108 0.141190 -0.047712 0.146172 0.177607 -0.233082 -0.406875 -0.416551 -0.159956 0.046663 -0.372816 0.330354 -0.351746 -0.116202 -0.154430 0.057862 -0.048416 -0.207715 0.268409 -0.278955 0.078490 0.089678 -0.135908 0.325861 -0.046381 -0.307101 0.077836 -0.109418 -0.205371 0.077847 0.325137 0.497674 0.180066 0.032946 -0.158046 0.183527 -0.727458 0.229886 0.165095 0.076924 -0.396406 0.080417 0.036036 -0.289194 0.004362 0.252071 0.235805 0.197725 -0.231269 -0.218400 0.050452 -0.003120 0.098800 0.199005 -0.101677 0.034620 -0.069280 0.331959 -0.458059 -0.057599 -0.038607 -0.029328 0.240301 0.259900 -0.103952 0.324652 0.320701 0.500512 -0.008069 -0.152759 -0.064500 0.160012 0.044926 -0.037277 0.394227 -0.240015 0.315795 -0.070240 0.282606 -0.180625 -0.136224 0.165353 -0.056812 -0.161433 0.139530 -0.347175 0.223115 -0.150862 -0.432315 -0.173407 -0.314230 -0.358451 -0.221351 0.048316 -0.311007 -0.112816 0.257461 0.079941 0.121901 0.110919 -0.184197 0.107120 0.092162 -0.237933 -0.165629 -0.294945 0.061249 0.421562 -0.319102 -0.257427 -0.018621 -0.152580 0.150839 0.282242 -0.266820 0.379352 -0.298719 -0.048804 0.006144 -0.157003 0.059023 0.173597 0.264911 0.208529 0.134851 0.012298 -0.218878 0.419928 -0.210130 -0.207234 -0.126369 -0.339772 0.143794 0.422466 -0.171877 -0.197028 0.298602 -0.396019 0.024955 0.138605 0.179846 0.136910 -0.191805 0.071922 0.242502 -0.239932 0.078845 -0.114559 -0.200130 0.133976 
SandersForPresident 0.162630 -0.037930 0.300156 0.158452 0.532591 -0.056260 0.500578 0.222158 -0.173659 -0.479741 -0.150700 0.464796 0.039677 0.788330 -0.428022 0.136512 -0.106036 0.197323 -0.072688 0.406641 0.401692 0.094587 0.211189 -0.161332 -0.008251 -0.040174 0.036795 -0.043482 -0.057460 -0.069906 -0.123809 0.018644 0.008505 0.034968 -0.030327 -0.024978 0.048038 0.048750 -0.049994 -0.012532 0.148007 -0.050470 0.189751 0.046492 -0.117129 -0.065829 -0.018146 -0.074134 -0.110643 -0.141764 0.215488 0.158770 -0.052612 0.096741 0.179679 -0.202128 -0.279567 -0.325032 -0.144497 0.020438 -0.272799 0.190847 -0.262465 -0.099602 -0.098678 0.080064 0.011598 -0.216566 0.324117 -0.324666 0.142531 0.157269 -0.126663 0.165493 0.014691 -0.201985 0.030383 -0.084386 -0.116202 0.072143 0.149547 0.292400 0.077836 -0.012313 -0.099698 0.105955 -0.369008 0.109659 0.328947 0.156205 -0.725861 0.160529 0.040066 -0.541556 0.007110 0.486754 0.353160 0.306207 -0.329601 -0.351904 0.098798 -0.008486 0.159625 0.309460 -0.122332 0.054182 -0.152620 0.492990 -0.652844 -0.107783 -0.125595 -0.099741 0.211904 0.245593 -0.067352 0.251840 0.242695 0.400394 -0.040256 -0.148955 -0.125992 0.212672 0.006274 -0.120002 0.550367 -0.304045 0.457027 -0.112025 0.257345 -0.194316 -0.080039 0.197754 -0.090635 -0.127727 0.149769 -0.320218 0.207846 -0.210450 -0.420662 -0.206130 -0.329065 -0.359339 -0.242135 0.048235 -0.258954 -0.115644 0.243979 0.082962 0.116931 -0.005906 -0.208804 0.086496 0.021347 -0.155023 -0.162658 -0.257188 0.083370 0.325571 -0.258381 -0.194292 -0.002715 -0.154547 0.175553 0.298637 -0.224447 0.375790 -0.327425 -0.058959 0.007607 -0.149699 0.074004 0.132888 0.268802 0.231396 0.167615 0.018231 -0.071413 0.182465 -0.112968 -0.107075 0.007409 -0.156398 0.079280 0.199227 -0.077990 -0.097786 0.214519 -0.248721 0.057540 0.086299 0.103211 0.085197 -0.317269 0.108620 0.365736 -0.339778 0.094530 -0.148862 -0.296436 0.186105 
centerleftpolitics -0.003181 -0.079116 -0.344828 -0.213904 0.191552 0.093080 -0.050866 -0.000296 0.071160 -0.360391 -0.337810 0.267080 0.003815 0.674343 -0.348301 0.030580 -0.230674 0.217881 -0.086685 0.421750 0.420514 0.009404 0.250629 -0.141009 0.106206 -0.031044 -0.041670 0.040652 -0.118854 -0.621240 -0.529667 0.318446 0.073293 0.160589 1.172668 0.474551 -0.189557 -0.369800 -0.164989 -0.089616 0.173007 -0.177952 0.717668 0.375508 -0.390758 0.008248 0.180352 -0.533167 -0.038896 -0.227286 0.429010 -0.020997 -0.185747 0.268879 0.177689 -0.338238 -0.466160 -0.308797 -0.126078 0.065819 -0.431441 0.474260 -0.365972 -0.092057 -0.341796 0.055522 -0.214682 -0.285661 0.261137 -0.376621 -0.024318 0.022994 -0.033494 0.336404 -0.126568 -0.206529 0.128830 -0.002216 -0.274897 -0.009489 0.369370 0.369862 0.189142 0.188738 0.011470 0.095410 -0.656919 0.194369 -0.141782 -0.017372 -0.038573 -0.006098 0.049098 0.076336 0.026691 -0.104842 -0.108462 -0.263729 -0.031806 0.119400 -0.100845 0.066339 0.063555 -0.081267 -0.176731 -0.000876 0.101222 0.235992 -0.394351 -0.107820 0.206413 0.141575 0.055993 -0.018559 -0.069738 0.334836 0.308767 0.504530 0.094633 -0.002540 0.011604 0.148601 0.057880 0.091965 0.399357 -0.247299 0.352120 -0.221870 0.219034 0.023876 -0.247154 0.055594 0.140110 -0.200390 0.055623 -0.134268 0.289389 -0.134863 -0.460375 -0.163248 -0.314673 -0.479287 -0.272094 0.124663 -0.336853 -0.048292 0.247462 0.006517 0.048969 0.315229 0.013647 0.036317 0.304112 -0.128469 -0.060385 -0.127405 -0.145261 0.326402 -0.323302 -0.153219 0.013534 -0.248378 0.352498 0.311387 -0.316368 0.354675 -0.180020 -0.011258 0.010483 -0.186547 -0.078229 0.451270 0.377554 0.247070 0.028604 -0.090829 -0.267889 0.469524 -0.133659 -0.157707 -0.347348 -0.267830 -0.015376 0.346826 -0.219003 -0.227177 0.431361 -0.553648 -0.140402 0.214149 0.299434 0.188156 -0.423680 -0.008150 0.531610 -0.516786 0.311175 -0.209534 -0.417888 0.354361 
Pete_Buttigieg 0.028884 -0.010067 -0.079606 0.004749 0.277055 0.015053 0.260252 0.055338 -0.043331 -0.202210 -0.140089 0.184064 0.012342 0.382760 -0.195992 0.021789 -0.148706 0.204598 -0.059798 0.437899 0.430856 0.052612 0.250717 -0.196907 0.057505 -0.077681 0.047500 0.005436 -0.102194 -0.342245 -0.370245 0.167331 0.109487 0.119855 0.686914 0.289414 -0.050137 -0.157272 -0.164854 -0.110704 0.140490 -0.113165 0.412256 0.164250 -0.194990 -0.000912 0.087577 -0.256285 -0.093019 -0.164496 0.313473 0.103562 -0.071044 0.178112 0.160863 -0.257226 -0.430932 -0.424499 -0.156494 0.069863 -0.399263 0.368901 -0.353501 -0.132017 -0.175613 0.058264 -0.071282 -0.190968 0.225530 -0.267389 0.053227 0.058436 -0.033102 0.187160 -0.062499 -0.136513 0.064080 -0.036337 -0.110355 0.023990 0.189218 0.210668 0.099331 0.059239 -0.051536 0.085295 -0.370284 0.108072 0.121069 0.049446 -0.368392 0.086061 0.058733 -0.230890 0.015448 0.189873 0.140189 0.075041 -0.170279 -0.125360 -0.005854 0.013282 0.069052 0.106856 -0.148267 0.039781 -0.003869 0.325638 -0.473813 -0.057720 0.033310 0.031412 0.267754 0.256111 -0.125452 0.430236 0.399024 0.629220 0.028223 -0.156276 -0.024053 0.167111 0.063076 0.007792 0.389499 -0.229647 0.319890 -0.107450 0.265087 -0.124583 -0.162472 0.116318 0.003388 -0.163703 0.097443 -0.277823 0.331953 -0.196108 -0.576779 -0.239458 -0.422931 -0.517674 -0.314065 0.097379 -0.478252 -0.153734 0.395277 0.103869 0.160249 0.212387 -0.234169 0.165170 0.153684 -0.228662 -0.154967 -0.290668 0.017923 0.424226 -0.350855 -0.257319 -0.023675 -0.221988 0.246354 0.357643 -0.338690 0.459193 -0.336025 -0.063787 0.002859 -0.188829 0.035179 0.258942 0.332076 0.246107 0.106426 -0.022714 -0.225459 0.401166 -0.173485 -0.166091 -0.174995 -0.300595 0.105086 0.386329 -0.152656 -0.167421 0.226127 -0.318409 -0.024685 0.114185 0.155286 0.109023 -0.241604 0.050769 0.339862 -0.331759 0.157025 -0.155882 -0.280635 0.203445 
moderatepolitics -0.029750 -0.012686 0.094228 0.043144 0.302244 -0.001910 0.213985 0.143746 -0.103649 -0.445837 -0.199519 0.392929 0.039511 0.745374 -0.390262 0.098481 -0.158107 0.222744 -0.090152 0.460356 0.458519 0.067888 0.252272 -0.171241 0.028322 -0.058891 0.035646 -0.025019 -0.102839 -0.312917 -0.331608 0.146260 0.062574 0.107784 0.489252 0.197957 -0.027095 -0.110775 -0.140285 -0.069763 0.193967 -0.125731 0.454985 0.173041 -0.249429 -0.047967 0.055353 -0.259513 -0.131085 -0.224551 0.379467 0.160542 -0.108382 0.203775 0.247914 -0.319227 -0.214259 -0.207884 -0.092235 0.014868 -0.201289 0.182821 -0.195623 -0.052810 -0.157159 0.051360 -0.052259 -0.215641 0.267889 -0.284014 0.070542 0.107030 -0.134577 0.289513 -0.023580 -0.281441 0.078071 -0.081438 -0.216120 0.064668 0.304646 0.463108 0.155452 0.050151 -0.114979 0.153537 -0.658975 0.206732 0.225678 0.125795 -0.613323 0.121180 0.053669 -0.425428 0.016376 0.371404 0.301505 0.216815 -0.322935 -0.287227 0.063908 0.017599 0.170122 0.272704 -0.113394 0.032738 -0.084810 0.382404 -0.514610 -0.096289 -0.042446 -0.033649 0.157365 0.174617 -0.064459 0.236415 0.232310 0.377001 -0.009771 -0.104484 -0.097449 0.202626 0.029711 -0.067097 0.529943 -0.307868 0.431744 -0.118426 0.262615 -0.162462 -0.129614 0.176365 -0.062763 -0.150339 0.143747 -0.310713 0.232992 -0.193086 -0.467368 -0.200591 -0.347545 -0.398277 -0.263058 0.048775 -0.279738 -0.106779 0.247497 0.067199 0.110473 0.065770 -0.174699 0.077527 0.079617 -0.180978 -0.141367 -0.239859 0.046470 0.347147 -0.277864 -0.198517 -0.002649 -0.168803 0.190581 0.297778 -0.257582 0.380010 -0.302054 -0.042605 0.015449 -0.190132 0.052524 0.236295 0.335827 0.271908 0.171872 -0.000169 -0.180840 0.365697 -0.175490 -0.180910 -0.107272 -0.275679 0.108409 0.341891 -0.111642 -0.133467 0.250341 -0.316042 0.025663 0.104702 0.137611 0.105961 -0.266206 0.076937 0.290590 -0.278911 0.092063 -0.118435 -0.228523 0.153376 
ElizabethWarren 0.038163 -0.096237 0.112573 0.035083 0.496169 0.029428 0.157141 0.032480 -0.031408 -0.247404 -0.167942 0.202805 0.022114 0.440998 -0.223497 0.019336 -0.197622 0.260179 -0.087393 0.557627 0.550603 0.056881 0.316967 -0.233213 0.073569 -0.082091 0.044452 0.006626 -0.139031 -0.478557 -0.482333 0.234628 0.135222 0.150758 0.922043 0.390725 -0.083800 -0.226296 -0.213062 -0.140601 0.179879 -0.155353 0.560858 0.228900 -0.270746 0.004435 0.122070 -0.340258 -0.123101 -0.221924 0.402578 0.134106 -0.102722 0.227664 0.210674 -0.332978 -0.309420 -0.276757 -0.097782 0.049696 -0.279084 0.281865 -0.250495 -0.077717 -0.156468 0.029865 -0.080927 -0.141272 0.147981 -0.179570 0.008698 0.020817 -0.051462 0.251029 -0.071438 -0.192020 0.080153 -0.044040 -0.167375 0.022523 0.259912 0.323977 0.140469 0.074346 -0.077089 0.115745 -0.525995 0.169959 0.043395 0.025996 -0.225975 0.042683 0.043918 -0.121446 0.016428 0.096248 0.116370 0.048940 -0.160096 -0.102270 -0.008873 0.023051 0.083542 0.099545 -0.155026 0.030918 -0.003085 0.342553 -0.492597 -0.074122 0.038094 0.037555 0.244486 0.240916 -0.123662 0.416436 0.399686 0.625708 0.031511 -0.140740 -0.065227 0.263314 0.087299 -0.012646 0.652862 -0.393608 0.535486 -0.173011 0.384960 -0.182921 -0.240889 0.185410 -0.011593 -0.236723 0.168932 -0.417944 0.286696 -0.155184 -0.513691 -0.197577 -0.369735 -0.451533 -0.280066 0.084341 -0.385948 -0.114759 0.313121 0.068399 0.114726 0.206783 -0.158677 0.118986 0.142775 -0.122004 -0.051996 -0.115162 -0.038914 0.214740 -0.191367 -0.129488 -0.018487 -0.130673 0.158661 0.184108 -0.210956 0.242494 -0.143174 -0.024440 -0.000428 -0.069184 -0.021945 0.147939 0.130560 0.078360 -0.000412 -0.030664 -0.140081 0.228762 -0.076366 -0.083544 -0.147956 -0.149565 0.035703 0.191035 -0.159576 -0.179105 0.238647 -0.339084 -0.043562 0.126293 0.174624 0.112021 -0.203577 0.026961 0.258416 -0.258205 0.138601 -0.111510 -0.209609 0.157061 
progressive 0.086406 -0.101879 0.110197 0.018869 0.367350 0.018037 0.234563 0.082464 -0.041730 -0.289092 -0.182561 0.261704 0.015437 0.515334 -0.270732 0.044848 -0.159958 0.210507 -0.071043 0.438717 0.439945 0.052367 0.249586 -0.179998 0.050424 -0.052687 0.022517 0.001253 -0.095225 -0.341669 -0.342560 0.163932 0.086143 0.101066 0.639754 0.264848 -0.062176 -0.158493 -0.139719 -0.089942 0.139830 -0.105640 0.406949 0.176294 -0.209332 -0.009994 0.080456 -0.263623 -0.078948 -0.159780 0.287721 0.089092 -0.090773 0.161304 0.144187 -0.243531 -0.382388 -0.354590 -0.137677 0.061088 -0.355353 0.333377 -0.314424 -0.110706 -0.188046 0.059165 -0.082021 -0.205204 0.238973 -0.287716 0.049959 0.066823 -0.051606 0.222826 -0.061129 -0.175880 0.072440 -0.039075 -0.151535 0.022249 0.231849 0.287116 0.120130 0.074714 -0.062406 0.105186 -0.460942 0.143606 0.073974 0.038258 -0.292116 0.068343 0.043102 -0.162064 0.018872 0.137907 0.110668 0.045280 -0.163181 -0.110362 -0.008517 0.027072 0.087874 0.093884 -0.178958 0.040156 -0.014989 0.413322 -0.586261 -0.099328 0.028440 0.028170 0.223936 0.215530 -0.113697 0.403393 0.382109 0.604227 0.034529 -0.129113 -0.067599 0.253845 0.071220 -0.025251 0.641353 -0.372214 0.530299 -0.177746 0.339876 -0.153523 -0.211071 0.165492 -0.004314 -0.208161 0.147716 -0.357482 0.279377 -0.174499 -0.493835 -0.206851 -0.367235 -0.448225 -0.282572 0.093911 -0.398904 -0.121790 0.336565 0.073969 0.118623 0.181075 -0.174375 0.123617 0.128393 -0.113961 -0.075596 -0.142182 -0.025642 0.232224 -0.215140 -0.138340 -0.013595 -0.149510 0.191073 0.216887 -0.214886 0.272476 -0.183567 -0.040139 0.002832 -0.105448 -0.008131 0.181096 0.199437 0.139005 0.035408 -0.034007 -0.129203 0.227795 -0.079559 -0.080220 -0.124102 -0.143424 0.037111 0.197499 -0.101506 -0.114838 0.168875 -0.228278 -0.034604 0.093341 0.120924 0.077160 -0.173745 0.013429 0.225977 -0.212008 0.116949 -0.087154 -0.180342 0.134448 
JoeBiden -0.073791 -0.005894 -0.618665 -0.324946 -0.306861 0.093586 -0.163379 0.043857 0.075037 -0.336848 -0.341496 0.246209 -0.005309 0.636979 -0.332553 0.014447 -0.227758 0.212348 -0.072702 0.406285 0.409084 0.007675 0.248539 -0.150933 0.093618 -0.004037 -0.061312 0.058889 -0.066512 -0.475522 -0.378413 0.250395 0.038202 0.111688 0.937872 0.382953 -0.184838 -0.320576 -0.098029 -0.057354 0.118892 -0.144665 0.587522 0.326521 -0.314650 0.029330 0.166717 -0.460714 -0.010631 -0.175190 0.350661 -0.050944 -0.155153 0.226901 0.120568 -0.264536 -0.507389 -0.359378 -0.146053 0.088069 -0.475907 0.498937 -0.393437 -0.111728 -0.334031 0.062375 -0.212351 -0.269969 0.240952 -0.360802 -0.025213 0.001536 -0.040592 0.424492 -0.158843 -0.270683 0.154458 -0.015813 -0.326093 -0.000665 0.444570 0.450270 0.233408 0.214678 -0.011336 0.133236 -0.812624 0.243688 -0.112054 -0.012028 -0.144406 0.022938 0.073422 0.023224 0.033974 -0.067561 -0.067418 -0.250702 -0.089925 0.088153 -0.114972 0.073922 0.084309 -0.056938 -0.219279 0.010333 0.124018 0.293644 -0.501448 -0.115967 0.233765 0.174044 0.120502 0.043566 -0.106988 0.459386 0.404225 0.658307 0.118735 -0.037963 0.023725 0.173335 0.079243 0.107354 0.441191 -0.266525 0.380171 -0.233980 0.279265 0.001049 -0.279547 0.071439 0.155293 -0.226558 0.072901 -0.193454 0.298003 -0.105729 -0.442139 -0.154729 -0.295903 -0.465707 -0.263018 0.139438 -0.341645 -0.042806 0.239467 0.000940 0.040191 0.344223 0.035171 0.050837 0.314111 -0.064192 -0.003242 -0.033200 -0.185073 0.194582 -0.242626 -0.086473 0.007594 -0.205759 0.316908 0.220135 -0.251865 0.233337 -0.067588 0.002177 0.001468 -0.133676 -0.111211 0.407318 0.300420 0.179699 -0.041048 -0.107198 -0.255828 0.417148 -0.103828 -0.120769 -0.349812 -0.213966 -0.043441 0.285886 -0.254357 -0.263709 0.462504 -0.597328 -0.148944 0.241389 0.335399 0.203057 -0.444772 -0.013713 0.588973 -0.577743 0.356615 -0.227853 -0.469191 0.392399 
Kamala -0.013006 -0.052806 -0.379846 -0.173288 0.209737 0.105219 -0.032833 -0.045289 0.096362 -0.196834 -0.273540 0.109051 -0.006231 0.397481 -0.195317 -0.028494 -0.246473 0.232852 -0.080294 0.474489 0.475249 -0.002753 0.290995 -0.190112 0.114638 -0.037614 -0.023658 0.075756 -0.079078 -0.529081 -0.441422 0.289344 0.091942 0.131226 1.081187 0.446655 -0.184703 -0.345724 -0.140002 -0.088608 0.139560 -0.178982 0.674929 0.337858 -0.318864 0.047550 0.188963 -0.476437 -0.042271 -0.191755 0.392360 -0.011015 -0.128479 0.240366 0.154334 -0.290356 -0.279071 -0.155280 -0.048826 0.049649 -0.241685 0.320235 -0.193482 -0.038173 -0.242585 0.027490 -0.184928 -0.162995 0.108036 -0.185994 -0.076004 -0.042680 -0.067882 0.468927 -0.149526 -0.311337 0.166170 -0.044236 -0.332105 0.016876 0.488881 0.557853 0.263914 0.184561 -0.059348 0.168440 -0.943000 0.292625 -0.030157 0.032706 -0.329085 0.044374 0.087659 -0.135449 0.023135 0.065783 0.060702 -0.132466 -0.201247 -0.016047 -0.077602 0.054400 0.127984 0.060472 -0.185060 0.004197 0.109472 0.259018 -0.442264 -0.082436 0.216680 0.160693 0.160767 0.095892 -0.121477 0.458225 0.430797 0.675047 0.104533 -0.072676 0.014722 0.183972 0.095732 0.097376 0.453400 -0.287505 0.382560 -0.201415 0.308395 -0.051088 -0.283144 0.091508 0.122941 -0.255175 0.084074 -0.262914 0.250276 -0.072185 -0.390833 -0.115724 -0.246528 -0.391862 -0.197115 0.099198 -0.291437 -0.030151 0.189538 0.014412 0.051112 0.325454 0.021998 0.047150 0.289685 -0.117857 -0.005856 -0.063299 -0.160456 0.243191 -0.227869 -0.114703 0.003722 -0.204443 0.262270 0.233955 -0.284128 0.267311 -0.099230 0.003903 0.006331 -0.143429 -0.074308 0.383098 0.277951 0.163706 -0.022175 -0.078672 -0.229621 0.342556 -0.085647 -0.094166 -0.319017 -0.204133 -0.035399 0.248977 -0.284485 -0.292718 0.473028 -0.623574 -0.131609 0.245748 0.331122 0.225533 -0.404145 0.014887 0.545655 -0.543717 0.312947 -0.242525 -0.434255 0.364956 
SocialDemocracy 0.114731 -0.108364 0.096021 0.027785 0.664413 0.030412 0.335833 0.127581 -0.057390 -0.445144 -0.280532 0.388329 0.025704 0.790727 -0.417647 0.073299 -0.237754 0.301001 -0.107826 0.616525 0.615067 0.069126 0.348253 -0.244176 0.081352 -0.072444 0.030646 0.005742 -0.131059 -0.510231 -0.497613 0.246924 0.112146 0.156855 0.946743 0.383437 -0.095582 -0.244677 -0.190333 -0.112601 0.178846 -0.145076 0.551375 0.245738 -0.279041 -0.009977 0.114252 -0.359366 -0.095852 -0.215835 0.396852 0.095660 -0.124498 0.221905 0.203795 -0.325627 -0.407625 -0.360319 -0.139525 0.057982 -0.379955 0.374316 -0.330670 -0.108800 -0.223067 0.065863 -0.109273 -0.235595 0.264032 -0.322762 0.041493 0.070899 -0.106527 0.372600 -0.090889 -0.300112 0.121134 -0.075332 -0.263412 0.047343 0.365139 0.464029 0.196333 0.118327 -0.080473 0.155608 -0.731406 0.223209 0.100276 0.070936 -0.456635 0.093841 0.060485 -0.266502 0.021379 0.214109 0.160749 0.033399 -0.236132 -0.143087 -0.008589 0.027464 0.136730 0.141989 -0.162671 0.022362 0.017537 0.338101 -0.495624 -0.090396 0.080999 0.053681 0.171332 0.139466 -0.098612 0.365502 0.355352 0.559737 0.049763 -0.093794 -0.029654 0.168152 0.053020 0.014076 0.420664 -0.249525 0.359454 -0.150617 0.254821 -0.089552 -0.188409 0.109550 0.037770 -0.182633 0.088699 -0.245085 0.219288 -0.124633 -0.368479 -0.140831 -0.267156 -0.359257 -0.202036 0.080986 -0.295950 -0.067785 0.232644 0.047094 0.082139 0.190285 -0.080428 0.071576 0.173067 -0.112711 -0.059667 -0.128927 -0.064726 0.249689 -0.224141 -0.133859 0.000486 -0.146379 0.189640 0.186319 -0.192678 0.220457 -0.125535 -0.019812 0.008556 -0.155117 -0.012891 0.280055 0.285172 0.201545 0.059446 -0.040976 -0.188348 0.341794 -0.122300 -0.125518 -0.195660 -0.228784 0.041210 0.296833 -0.209848 -0.228815 0.393283 -0.503633 -0.046986 0.192968 0.253800 0.175530 -0.385760 0.053554 0.508195 -0.483820 0.228202 -0.207376 -0.407282 0.306662 
demsocialist 0.066962 -0.088698 0.110521 0.036385 0.524445 0.019151 0.243613 0.079957 -0.062396 -0.368902 -0.210712 0.333534 0.021707 0.642182 -0.340672 0.067286 -0.185634 0.248297 -0.084948 0.512012 0.513241 0.064176 0.286199 -0.205764 0.052445 -0.048769 0.016449 0.002706 -0.090363 -0.335427 -0.326415 0.160823 0.076524 0.096127 0.613259 0.249238 -0.064284 -0.154596 -0.127477 -0.076290 0.195261 -0.141450 0.533113 0.223773 -0.272219 -0.019631 0.097346 -0.324090 -0.123958 -0.227510 0.398184 0.144155 -0.119111 0.211708 0.221261 -0.341102 -0.397086 -0.363309 -0.144548 0.057900 -0.368535 0.342857 -0.330333 -0.110208 -0.203949 0.071270 -0.086808 -0.235965 0.280971 -0.329687 0.063738 0.084048 -0.068517 0.255295 -0.062886 -0.203924 0.076470 -0.052721 -0.174808 0.029781 0.258512 0.334474 0.134616 0.075358 -0.072433 0.118366 -0.524632 0.162436 0.081838 0.050201 -0.320972 0.069344 0.036619 -0.188085 0.011630 0.160015 0.128684 0.054199 -0.183690 -0.125735 0.000238 0.024674 0.099782 0.109711 -0.148756 0.027756 -0.016977 0.363650 -0.515369 -0.090034 0.028326 0.022847 0.180512 0.175370 -0.097443 0.340946 0.332917 0.526179 0.028763 -0.109545 -0.063343 0.216673 0.053095 -0.023509 0.547908 -0.321519 0.451008 -0.156651 0.302549 -0.137753 -0.185920 0.149824 -0.002201 -0.193958 0.131493 -0.324436 0.250801 -0.164754 -0.456300 -0.186219 -0.339200 -0.414088 -0.256938 0.088736 -0.311625 -0.088793 0.257612 0.057220 0.090646 0.153477 -0.118004 0.083594 0.118540 -0.092135 -0.061180 -0.115088 -0.031622 0.200514 -0.185287 -0.117349 -0.007802 -0.124723 0.164871 0.180951 -0.179028 0.223561 -0.147752 -0.030458 0.005813 -0.070314 -0.016904 0.141950 0.135334 0.092455 0.015276 -0.024367 -0.105017 0.183933 -0.067313 -0.066912 -0.104293 -0.119715 0.020441 0.156661 -0.151452 -0.175730 0.295031 -0.372858 -0.020350 0.149373 0.190203 0.129971 -0.294895 0.048893 0.372905 -0.349874 0.160026 -0.145452 -0.295206 0.215943 
BetoORourke 0.099423 -0.079867 0.188389 0.087397 0.590644 0.003146 0.315833 0.090561 -0.074366 -0.330389 -0.167795 0.297366 0.024683 0.566508 -0.296366 0.065582 -0.158433 0.218799 -0.078483 0.457401 0.451027 0.061355 0.255003 -0.184344 0.046437 -0.063896 0.034813 -0.003676 -0.102013 -0.336297 -0.350369 0.159747 0.083816 0.109502 0.587761 0.239360 -0.046725 -0.137004 -0.144925 -0.082773 0.187672 -0.131583 0.474167 0.189482 -0.241932 -0.027324 0.076392 -0.275172 -0.124182 -0.208398 0.358635 0.143668 -0.094982 0.192080 0.213708 -0.306893 -0.381141 -0.367157 -0.148604 0.043909 -0.354498 0.320854 -0.329442 -0.107744 -0.177247 0.065136 -0.066478 -0.229337 0.284788 -0.318612 0.078582 0.093805 -0.110953 0.297494 -0.050474 -0.265972 0.081253 -0.080261 -0.203179 0.055180 0.292416 0.420417 0.156616 0.057362 -0.108308 0.145052 -0.624945 0.194992 0.195423 0.105268 -0.556346 0.118303 0.055348 -0.373324 0.013497 0.320706 0.252315 0.165905 -0.286220 -0.242094 0.036724 0.017628 0.144163 0.217440 -0.143774 0.035106 -0.058115 0.400430 -0.561872 -0.094002 -0.007204 -0.008455 0.210770 0.212388 -0.096858 0.341108 0.331497 0.528249 0.009643 -0.132008 -0.072041 0.195438 0.041460 -0.037978 0.503369 -0.293359 0.414317 -0.130900 0.274412 -0.144004 -0.151882 0.157702 -0.022734 -0.170525 0.132240 -0.309124 0.229453 -0.159029 -0.424860 -0.177884 -0.311432 -0.375269 -0.234376 0.065439 -0.307805 -0.100469 0.258855 0.064975 0.104379 0.123514 -0.151241 0.088536 0.120755 -0.180197 -0.135677 -0.236984 0.017049 0.356316 -0.295830 -0.208903 -0.006888 -0.183367 0.216371 0.303918 -0.274115 0.380246 -0.286024 -0.045085 0.008036 -0.174304 0.033379 0.245102 0.320480 0.246435 0.128944 -0.013264 -0.185695 0.353887 -0.159532 -0.162878 -0.133882 -0.262379 0.083898 0.330481 -0.151444 -0.171638 0.295519 -0.375634 -0.002363 0.140362 0.179018 0.129458 -0.305031 0.071919 0.383714 -0.367208 0.149697 -0.162685 -0.311672 0.217248 
ConservativeDemocrat 0.062735 -0.055959 0.115724 0.053538 0.453977 0.004466 0.234220 0.091739 -0.082311 -0.347472 -0.170510 0.312861 0.025716 0.595450 -0.315687 0.066780 -0.167718 0.235416 -0.086185 0.497767 0.490040 0.071864 0.275707 -0.202137 0.048776 -0.065415 0.038193 -0.010946 -0.109880 -0.347609 -0.362388 0.166082 0.085916 0.116704 0.607884 0.248991 -0.041187 -0.137068 -0.152771 -0.091207 0.191021 -0.128269 0.477675 0.184619 -0.244339 -0.027466 0.077745 -0.276478 -0.122797 -0.210038 0.365449 0.145750 -0.095404 0.196126 0.219000 -0.309599 -0.367890 -0.360098 -0.145488 0.044336 -0.348121 0.310911 -0.317139 -0.105759 -0.170995 0.061009 -0.061097 -0.213595 0.271134 -0.300886 0.073903 0.093298 -0.105483 0.281338 -0.049719 -0.256260 0.077962 -0.076146 -0.198085 0.055106 0.286142 0.408932 0.156022 0.056976 -0.105204 0.145383 -0.610159 0.188402 0.194745 0.099114 -0.546302 0.116379 0.053513 -0.368185 0.017525 0.314691 0.253447 0.166972 -0.279990 -0.242262 0.035644 0.015358 0.144526 0.220844 -0.150457 0.037416 -0.059919 0.410158 -0.574280 -0.096592 -0.012288 -0.008492 0.218904 0.221969 -0.095170 0.351795 0.336392 0.542320 0.009229 -0.134964 -0.070571 0.195259 0.041246 -0.040296 0.496666 -0.288734 0.411493 -0.131021 0.278474 -0.149095 -0.155568 0.159094 -0.027294 -0.164735 0.132629 -0.310749 0.260750 -0.184779 -0.482458 -0.205873 -0.358731 -0.426753 -0.272037 0.071475 -0.343954 -0.113440 0.293601 0.071680 0.116590 0.131719 -0.175490 0.103567 0.129708 -0.195542 -0.148711 -0.257247 0.022692 0.384432 -0.321014 -0.228422 -0.011118 -0.194728 0.231140 0.322898 -0.292205 0.411040 -0.305323 -0.050072 0.006468 -0.195835 0.037196 0.265552 0.358386 0.273049 0.144642 -0.016899 -0.195277 0.383843 -0.169636 -0.177022 -0.147022 -0.281928 0.096169 0.355926 -0.167176 -0.186699 0.319978 -0.410042 -0.001871 0.149333 0.195837 0.140042 -0.337856 0.081056 0.415023 -0.399173 0.163867 -0.174250 -0.338602 0.236735 
