15 200
BaemyKlobaechar 0.026027 -0.191732 0.195518 0.046103 0.489307 0.029475 0.160282 0.032478 0.023840 -0.216357 -0.184537 0.134931 0.026089 0.496987 -0.211167 -0.000311 -0.143867 0.167906 -0.038545 0.338588 0.355517 0.028076 0.224727 -0.142491 -0.004720 -0.000326 -0.063538 0.037807 -0.004913 -0.132405 -0.106180 0.088814 -0.024916 0.014945 0.239756 0.147089 -0.111989 -0.137174 -0.044404 -0.026160 -0.066335 -0.017405 -0.059773 0.001392 -0.016415 0.013580 0.023324 -0.063279 0.067607 0.022388 -0.023299 -0.101874 0.006839 0.008958 0.016815 0.082781 0.062520 0.100806 0.046420 -0.030886 0.064311 -0.017849 0.049930 0.051450 -0.071767 -0.009953 -0.063706 -0.061960 -0.018997 0.022743 -0.072742 -0.032154 -0.021621 -0.159257 0.089054 0.193413 -0.015717 0.042752 0.050278 0.026375 -0.082344 -0.212107 -0.112093 -0.036113 0.196299 -0.177011 0.288675 -0.177753 0.296122 0.108059 -0.973728 0.194267 0.191685 -0.479680 0.131424 0.451805 0.429311 0.332508 -0.491548 -0.397019 -0.008663 0.122447 0.310033 0.344509 -0.532246 0.128605 0.085309 0.834341 -1.231848 -0.288811 0.050227 0.266206 0.327717 0.440404 -0.211498 0.801274 0.559346 0.912281 0.170740 -0.107079 -0.003298 0.297518 0.164941 0.065113 0.771870 -0.454722 0.586527 -0.167227 0.282643 -0.065203 -0.232822 0.099135 0.035062 -0.129883 0.156768 -0.258072 0.393430 -0.084887 -0.666379 -0.287012 -0.470150 -0.497154 -0.457155 0.083627 -0.571676 -0.189283 0.534711 -0.004703 0.080524 0.302576 -0.246009 0.248936 0.280763 -0.250911 -0.176374 -0.268334 0.000525 0.355849 -0.420647 -0.298476 -0.051653 -0.205228 0.285400 0.314256 -0.398122 0.417607 -0.268676 -0.074290 0.012290 -0.130196 -0.064004 0.256513 0.273305 0.226267 0.033767 -0.107647 -0.261687 0.422577 -0.133873 -0.157173 -0.215131 -0.206938 0.107168 0.278888 -0.334324 -0.389997 0.287548 -0.550166 -0.138419 0.251015 0.405467 0.137425 -0.376045 0.006677 0.244341 -0.308164 0.221417 -0.104776 -0.280988 0.159937 
politics -0.089910 0.026736 0.007756 0.013686 0.065595 0.009349 -0.101843 -0.065135 -0.035115 -0.141753 -0.089005 0.173126 0.041680 0.514610 -0.240639 0.009106 -0.063293 0.095578 -0.013493 0.342086 0.331419 0.016388 0.198412 -0.134751 -0.010073 -0.010821 0.003028 -0.018258 -0.082874 -0.190908 -0.200541 0.078866 0.122103 -0.000433 0.468891 0.265101 -0.075655 -0.126635 -0.131539 -0.180392 0.257612 -0.141224 0.699852 0.241584 -0.432889 -0.025827 0.110964 -0.406868 -0.203654 -0.264511 0.427717 0.275591 -0.167079 0.290983 0.154585 -0.431398 -0.491422 -0.512577 -0.211133 0.132154 -0.479596 0.386149 -0.440519 -0.195923 -0.320647 -0.044161 -0.085411 -0.219037 0.311177 -0.495859 0.135436 0.026313 0.054080 0.359804 -0.147760 -0.332546 0.108437 -0.006258 -0.238122 -0.060974 0.282902 0.365650 0.187772 0.135396 -0.189226 0.217861 -0.643011 0.305463 0.091830 0.018949 -0.261673 0.064605 0.044551 -0.122094 0.046523 0.132902 0.177420 0.185282 -0.182772 -0.186159 0.009636 0.028194 0.121241 0.137479 -0.345185 0.076440 0.036303 0.541110 -0.806534 -0.165557 -0.028135 0.112429 0.263978 0.360752 -0.174431 0.525525 0.415501 0.636386 0.095019 -0.083247 -0.024559 0.223212 0.130539 0.007965 0.614367 -0.401839 0.488434 -0.096162 0.242915 -0.096670 -0.181393 0.063028 -0.006713 -0.080033 0.165548 -0.296597 0.193009 -0.055209 -0.354241 -0.146638 -0.318012 -0.263651 -0.251828 0.062061 -0.471227 -0.167636 0.486834 -0.003033 0.033016 0.187399 -0.253704 0.243081 0.121090 -0.165305 -0.142559 -0.202271 0.042676 0.258064 -0.269462 -0.242433 -0.082289 -0.115894 0.179606 0.209332 -0.300951 0.352645 -0.255544 -0.115401 -0.034254 -0.165846 -0.037919 0.230009 0.408724 0.284580 0.063824 -0.100100 -0.196475 0.396900 -0.123298 -0.175114 -0.160699 -0.192211 0.151408 0.320987 -0.342590 -0.397534 0.271539 -0.499394 -0.108779 0.260375 0.378916 0.114912 -0.574036 0.075789 0.363903 -0.409897 0.236282 -0.089995 -0.369735 0.170355 
YangForPresidentHQ 0.295567 -0.045226 0.011507 0.032645 0.643341 0.006403 0.350498 0.207232 -0.105889 -0.435481 -0.162302 0.485042 0.017212 0.487457 -0.280175 0.046231 -0.159007 0.271104 -0.044055 0.536418 0.580539 0.121775 0.345749 -0.234792 -0.022400 0.001037 -0.036069 -0.048766 -0.195674 -0.419546 -0.397460 0.169941 0.129493 0.002251 0.507663 0.262627 -0.093994 -0.134925 -0.160620 -0.200693 0.220389 -0.093319 0.595320 0.240529 -0.372031 -0.034158 0.063165 -0.292711 -0.203859 -0.265726 0.427176 0.257960 -0.206039 0.266535 0.145452 -0.449113 -0.300167 -0.284822 -0.177059 0.098440 -0.322280 0.234661 -0.288957 -0.098650 -0.160690 -0.031418 -0.054599 -0.088619 0.164943 -0.286988 0.089897 -0.005455 0.065197 0.436026 -0.175143 -0.433565 0.104169 0.000526 -0.297532 -0.078086 0.322781 0.489731 0.244062 0.155672 -0.279406 0.303798 -0.799508 0.399692 0.202307 0.024516 -0.397506 0.141602 0.024913 -0.175791 0.046094 0.207026 0.130178 0.188555 -0.146945 -0.196531 -0.004508 0.040488 0.109291 0.095162 -0.280324 0.033954 0.006659 0.479053 -0.694392 -0.179383 -0.094433 0.095941 0.174660 0.314616 -0.125179 0.426074 0.356979 0.535101 0.106555 -0.079260 0.011553 0.162377 0.108885 -0.037070 0.501030 -0.270386 0.369647 -0.094386 0.300413 -0.069866 -0.236991 0.073049 0.007792 -0.078056 0.282130 -0.366727 0.244074 -0.114405 -0.504080 -0.303946 -0.392748 -0.298201 -0.410830 0.097387 -0.339687 -0.080444 0.379435 -0.021284 -0.018335 0.117704 -0.151987 0.149823 0.056156 -0.156696 -0.169799 -0.237823 0.127333 0.221030 -0.315857 -0.270519 -0.097896 -0.155133 0.243060 0.309814 -0.360240 0.434537 -0.301875 -0.134564 -0.075638 -0.145183 -0.051738 0.280985 0.511472 0.313750 0.068702 -0.119673 -0.170031 0.414184 -0.158666 -0.201154 -0.115788 -0.172864 0.122084 0.267153 -0.208172 -0.268136 0.219709 -0.318314 -0.051522 0.247371 0.283964 0.074846 -0.464668 0.097901 0.436276 -0.448923 0.244649 -0.069635 -0.479029 0.198411 
SandersForPresident 0.064844 -0.150735 0.230612 0.066414 0.981418 0.010940 0.520711 0.205540 -0.081405 -0.371489 -0.181912 0.397061 0.043119 0.689064 -0.348806 0.033725 -0.134708 0.221178 -0.031922 0.501954 0.511932 0.081978 0.306192 -0.218818 -0.020203 -0.015993 -0.036050 -0.013122 -0.138514 -0.350354 -0.344131 0.158127 0.100416 0.012442 0.506790 0.278208 -0.117822 -0.164531 -0.146913 -0.176507 0.142916 -0.082270 0.416844 0.161990 -0.291346 -0.027992 0.053340 -0.256918 -0.162421 -0.223938 0.392129 0.205897 -0.157765 0.256701 0.147922 -0.371913 -0.201899 -0.199784 -0.109641 0.070556 -0.211119 0.168450 -0.190246 -0.069607 -0.140131 -0.018612 -0.052304 -0.089786 0.116336 -0.201270 0.048567 -0.008779 0.016657 0.189485 -0.067719 -0.182958 0.063224 0.007917 -0.135722 -0.021743 0.179387 0.246891 0.116931 0.082500 -0.121139 0.134263 -0.414384 0.189115 0.223380 0.047736 -0.540842 0.148990 0.089905 -0.264382 0.067335 0.266422 0.291295 0.297995 -0.315825 -0.320544 -0.005241 0.068567 0.197943 0.224639 -0.304442 0.059928 0.032580 0.485220 -0.700049 -0.155375 -0.024276 0.112950 0.210278 0.293208 -0.132063 0.452947 0.345747 0.530581 0.099130 -0.080046 0.000919 0.173154 0.102154 -0.016171 0.483492 -0.278735 0.370743 -0.090697 0.252428 -0.080725 -0.177553 0.075701 -0.002375 -0.074773 0.200841 -0.290305 0.194433 -0.070671 -0.353240 -0.186192 -0.266817 -0.235384 -0.257515 0.061395 -0.294464 -0.100635 0.301194 0.000425 0.015218 0.111847 -0.153809 0.143758 0.154549 -0.233068 -0.197682 -0.303197 0.090713 0.323391 -0.402580 -0.314553 -0.089545 -0.180240 0.254360 0.320982 -0.374136 0.445956 -0.305928 -0.116960 -0.052374 -0.175462 -0.029369 0.285202 0.484212 0.331138 0.071186 -0.118659 -0.248485 0.508634 -0.181786 -0.215291 -0.179894 -0.242853 0.163713 0.370633 -0.273238 -0.327064 0.236596 -0.421784 -0.086596 0.227969 0.323386 0.090543 -0.296134 0.042487 0.229535 -0.259759 0.168532 -0.072765 -0.304167 0.135134 
centerleftpolitics -0.001657 -0.169133 0.139401 0.047750 0.522420 0.040575 0.202114 0.028712 0.022448 -0.246188 -0.192734 0.152852 0.025671 0.511941 -0.217793 -0.005051 -0.168465 0.193451 -0.047576 0.411273 0.437697 0.030063 0.269205 -0.171977 -0.002782 -0.004136 -0.071444 0.036130 -0.026115 -0.190636 -0.149856 0.121886 -0.003639 0.010814 0.330584 0.199347 -0.134530 -0.160882 -0.067237 -0.056333 0.043710 -0.078768 0.261472 0.116225 -0.208175 0.006407 0.072434 -0.238601 -0.008887 -0.087294 0.156402 0.001246 -0.067455 0.123814 0.087844 -0.089333 -0.196866 -0.149324 -0.072858 0.038473 -0.194284 0.194103 -0.190452 -0.036059 -0.224791 -0.028609 -0.117356 -0.163559 0.117875 -0.195819 -0.027833 -0.021875 -0.004808 -0.041931 0.053396 0.086292 0.027909 0.050979 -0.047575 0.003467 0.039565 -0.055603 -0.041195 0.020185 0.123274 -0.088670 0.019274 -0.049306 0.279620 0.108816 -0.959988 0.183770 0.202577 -0.474782 0.125722 0.426395 0.401636 0.287514 -0.468970 -0.349937 -0.013857 0.121810 0.287804 0.329663 -0.517105 0.117475 0.092252 0.809695 -1.206777 -0.286444 0.069295 0.282930 0.318450 0.433492 -0.213598 0.809613 0.561935 0.920803 0.184610 -0.108022 0.002792 0.187996 0.099988 0.076638 0.462228 -0.276312 0.335071 -0.110105 0.112280 -0.002594 -0.115421 0.042732 0.031540 -0.073746 0.031279 -0.071124 0.429890 -0.085312 -0.748715 -0.311369 -0.532975 -0.548505 -0.517305 0.092318 -0.681892 -0.218962 0.641738 -0.010054 0.089524 0.363563 -0.288496 0.295179 0.246062 -0.195411 -0.088568 -0.152027 -0.041990 0.235953 -0.279514 -0.184279 -0.034517 -0.173328 0.225810 0.241160 -0.329421 0.315847 -0.186917 -0.035947 0.047752 -0.060168 -0.056117 0.143891 0.046101 0.075630 -0.005056 -0.059306 -0.159478 0.166987 -0.042247 -0.038458 -0.136202 -0.091288 0.029512 0.085225 -0.187468 -0.200346 0.147044 -0.301639 -0.082048 0.108373 0.206017 0.085736 -0.112194 -0.040642 -0.000089 -0.039885 0.058606 -0.041194 0.025949 0.002424 
Pete_Buttigieg 0.350876 -0.130569 0.244528 0.054238 0.501692 -0.019099 0.182935 0.179648 -0.116243 -0.486905 -0.226462 0.484875 0.032074 0.646968 -0.340333 0.049249 -0.228786 0.376446 -0.063503 0.676037 0.732578 0.154760 0.446442 -0.316890 -0.020372 -0.033894 0.000120 0.001028 -0.061125 -0.226146 -0.254207 0.106675 0.031793 0.037456 0.240126 0.120129 -0.057993 -0.105632 -0.067017 -0.063563 0.012599 -0.016381 0.063460 0.026516 -0.046485 -0.025894 -0.021088 -0.048221 -0.089874 -0.130261 0.296790 0.110701 -0.090802 0.188734 0.126297 -0.235460 -0.108744 -0.126881 -0.100216 0.044709 -0.139091 0.126035 -0.117621 -0.038135 0.009227 -0.002444 -0.019532 -0.001600 -0.021472 0.014997 -0.018466 -0.011382 -0.022175 0.041844 0.003684 -0.056740 0.039402 0.005713 -0.049521 0.016749 0.109607 0.166640 0.073919 0.048754 -0.053152 0.078426 -0.257884 0.094827 0.279241 0.063748 -0.678170 0.181617 0.104907 -0.340402 0.081503 0.349669 0.321199 0.323981 -0.348987 -0.356890 -0.007360 0.071903 0.223918 0.245595 -0.288288 0.067745 0.016932 0.484714 -0.650859 -0.158470 -0.042072 0.100680 0.205705 0.293183 -0.112432 0.464424 0.351300 0.537348 0.102519 -0.083629 0.008611 0.221280 0.129226 -0.035187 0.604356 -0.324382 0.467448 -0.105388 0.308723 -0.109919 -0.218210 0.099563 -0.017844 -0.108112 0.241094 -0.342299 0.240895 -0.119312 -0.454071 -0.264019 -0.342662 -0.318430 -0.347034 0.068509 -0.200457 -0.058777 0.223667 0.002413 0.007802 0.074370 -0.118837 0.093343 0.085355 -0.131501 -0.104749 -0.182365 0.048308 0.160474 -0.195803 -0.139329 -0.032244 -0.140045 0.155383 0.226773 -0.226686 0.264423 -0.184170 -0.065309 -0.026740 -0.146078 -0.002393 0.227893 0.360777 0.256817 0.060221 -0.103123 -0.121203 0.259671 -0.094324 -0.085817 -0.075901 -0.134307 0.092934 0.191174 -0.241393 -0.285844 0.223657 -0.393924 -0.081986 0.224546 0.306822 0.094101 -0.428868 0.052019 0.346527 -0.385026 0.241085 -0.123063 -0.473339 0.185921 
moderatepolitics 0.059273 -0.109986 0.109487 0.028202 0.289806 0.009452 0.144756 0.119827 -0.031868 -0.260775 -0.139818 0.216989 0.007898 0.285986 -0.150770 0.011157 -0.176082 0.256526 -0.042745 0.470858 0.507753 0.088846 0.308940 -0.210006 -0.004700 0.000646 -0.053482 -0.006196 -0.124765 -0.342276 -0.313504 0.157691 0.050416 0.011989 0.398122 0.217767 -0.107140 -0.139228 -0.101179 -0.109867 0.012758 -0.035651 0.103316 0.059627 -0.098735 0.004785 0.029369 -0.099687 -0.035471 -0.089336 0.149252 0.037106 -0.073874 0.103194 0.070361 -0.114154 -0.279283 -0.247122 -0.135448 0.073611 -0.290739 0.242719 -0.265355 -0.076642 -0.183436 -0.023332 -0.089424 -0.130694 0.114735 -0.199864 0.002859 -0.016425 0.045318 0.265456 -0.086300 -0.226133 0.087217 0.019253 -0.215726 -0.049409 0.214336 0.234639 0.108712 0.099661 -0.087914 0.130283 -0.446428 0.194983 0.252246 0.068530 -0.717986 0.166236 0.116135 -0.343843 0.092159 0.343403 0.334184 0.318151 -0.382961 -0.351294 -0.002826 0.101135 0.246735 0.267619 -0.191245 0.043021 0.031630 0.318059 -0.434443 -0.112341 0.013834 0.110023 0.087919 0.142154 -0.064692 0.263311 0.175970 0.298326 0.065807 -0.037385 0.005289 0.135007 0.077540 0.036874 0.341305 -0.183745 0.239959 -0.063507 0.150935 -0.030512 -0.136482 0.044171 0.013344 -0.066064 0.080267 -0.142296 0.166378 -0.020609 -0.292689 -0.114047 -0.195848 -0.212154 -0.198815 0.025014 -0.295708 -0.079367 0.272902 -0.006724 0.048422 0.174833 -0.105066 0.122319 0.224763 -0.252388 -0.190014 -0.278160 0.051542 0.325016 -0.411517 -0.324281 -0.080824 -0.206350 0.295097 0.338990 -0.442180 0.471581 -0.316016 -0.114207 -0.008683 -0.169704 -0.082355 0.310684 0.420064 0.305440 0.054826 -0.141151 -0.232480 0.419972 -0.137674 -0.172589 -0.176070 -0.193386 0.133081 0.272562 -0.152852 -0.181575 0.132109 -0.233241 -0.050691 0.135774 0.187462 0.074372 -0.266794 0.026535 0.155067 -0.171153 0.097970 -0.033376 -0.106858 0.030884 
ElizabethWarren 0.080802 -0.024900 0.146247 0.037830 0.473866 0.019035 0.360049 0.087959 -0.046395 -0.383451 -0.240050 0.440087 0.048649 0.838692 -0.416499 0.038364 -0.153444 0.220613 -0.027278 0.496387 0.525204 0.062858 0.321589 -0.200450 -0.023355 -0.013261 -0.026954 -0.031753 -0.156366 -0.361010 -0.374073 0.166740 0.144686 -0.011134 0.605916 0.333660 -0.113903 -0.176914 -0.165370 -0.222579 0.209064 -0.120668 0.626166 0.232593 -0.421958 -0.029953 0.097175 -0.410478 -0.197729 -0.288426 0.475692 0.261084 -0.209166 0.331526 0.179869 -0.461398 -0.161572 -0.159532 -0.061924 0.032369 -0.145779 0.144410 -0.143629 -0.070219 -0.145547 -0.034956 -0.059087 -0.101734 0.106296 -0.202552 0.016376 0.006944 0.043720 0.132430 -0.054160 -0.089037 0.054985 0.009550 -0.065520 -0.037391 0.061207 0.026525 0.017624 0.047231 0.010013 0.031939 -0.090957 0.037255 0.305276 0.076111 -0.958417 0.213581 0.133730 -0.436364 0.150005 0.495146 0.368331 0.377742 -0.437356 -0.409548 0.008795 0.101366 0.309515 0.299175 -0.110081 0.041908 0.027461 0.161128 -0.243019 -0.054330 0.014370 0.053931 0.101343 0.143490 -0.082577 0.240161 0.181602 0.278979 0.044851 -0.010323 -0.018697 0.279056 0.162688 0.021432 0.773885 -0.480180 0.602598 -0.113054 0.329904 -0.113982 -0.264601 0.084387 -0.003096 -0.127917 0.220564 -0.379089 0.254105 -0.077604 -0.471925 -0.203739 -0.410830 -0.366455 -0.352005 0.078945 -0.506855 -0.174130 0.531497 -0.011585 0.037051 0.221129 -0.262258 0.248368 0.102692 -0.084788 -0.107056 -0.118290 0.004074 0.192387 -0.195695 -0.168372 -0.054213 -0.087819 0.159311 0.153241 -0.231098 0.263294 -0.200182 -0.099246 -0.028904 -0.138462 -0.048030 0.213728 0.373086 0.262099 0.049872 -0.100080 -0.161628 0.356649 -0.105226 -0.156206 -0.140086 -0.159229 0.123690 0.284458 -0.234683 -0.290028 0.199805 -0.368803 -0.097013 0.193132 0.279612 0.089920 -0.348720 0.043582 0.309483 -0.342040 0.206462 -0.068944 -0.328638 0.184464 
progressive 0.213078 -0.087725 0.172322 0.043823 0.560908 0.012346 0.374859 0.058239 -0.057084 -0.300709 -0.148095 0.322191 0.015692 0.426205 -0.221446 0.025645 -0.108495 0.175147 -0.030725 0.358105 0.388724 0.069363 0.230400 -0.161333 0.001963 -0.021914 -0.005643 -0.017208 -0.094959 -0.211244 -0.227719 0.106114 0.073273 -0.002796 0.302704 0.164229 -0.040661 -0.074760 -0.084236 -0.106662 0.085821 -0.044008 0.250192 0.083564 -0.135058 -0.005799 0.043017 -0.151135 -0.022759 -0.041672 0.065296 0.041488 -0.025967 0.042065 0.029803 -0.067279 -0.246271 -0.237201 -0.091883 0.053955 -0.226584 0.195229 -0.214528 -0.095189 -0.063035 0.000969 -0.017869 -0.049278 0.064799 -0.095733 0.010922 0.020260 0.031743 0.152849 -0.068965 -0.114921 0.037064 0.001932 -0.073920 -0.026351 0.111221 0.111004 0.059342 0.057783 -0.047563 0.074603 -0.219184 0.094868 0.307787 0.065071 -0.847049 0.203062 0.106247 -0.404516 0.122838 0.457394 0.318906 0.354542 -0.367480 -0.383430 0.004150 0.089462 0.258121 0.261077 -0.201538 0.053222 0.023904 0.324156 -0.503289 -0.107098 -0.030578 0.089551 0.179486 0.271003 -0.122610 0.404399 0.317147 0.497440 0.072135 -0.054274 0.001067 0.126322 0.067946 0.016338 0.329794 -0.204315 0.242091 -0.044370 0.154218 -0.046098 -0.128200 0.025614 -0.011008 -0.064731 0.098315 -0.177230 0.176547 -0.064049 -0.351392 -0.162212 -0.292704 -0.243144 -0.257401 0.059136 -0.243619 -0.085798 0.266269 -0.006543 0.008449 0.100793 -0.132653 0.128691 0.056871 -0.072614 -0.077045 -0.096610 0.023239 0.137278 -0.148783 -0.128562 -0.058358 -0.093679 0.143542 0.163236 -0.212339 0.257490 -0.187478 -0.088741 -0.053970 -0.202932 -0.041077 0.317151 0.560029 0.371359 0.076184 -0.144339 -0.245204 0.528371 -0.179141 -0.231154 -0.182331 -0.243039 0.184581 0.391683 0.047304 0.031992 -0.037182 0.057074 -0.001551 -0.010931 -0.034843 -0.003682 0.009884 0.016314 0.127433 -0.107054 0.074577 -0.026172 -0.084695 0.043121 
JoeBiden 0.055421 -0.146663 0.163686 0.045926 0.557871 0.034192 0.297986 0.115926 -0.023182 -0.365711 -0.219990 0.313624 0.025095 0.565843 -0.263677 0.009278 -0.162115 0.208029 -0.044596 0.420350 0.453098 0.053332 0.275667 -0.184197 -0.008356 -0.015275 -0.059332 0.017802 -0.067139 -0.237065 -0.209365 0.135483 0.029671 0.007356 0.354216 0.210279 -0.122176 -0.145469 -0.090089 -0.091550 0.026853 -0.053509 0.186269 0.077268 -0.154572 0.002405 0.047078 -0.174051 -0.032979 -0.100618 0.188506 0.040381 -0.074594 0.134652 0.095666 -0.128436 -0.217715 -0.182366 -0.097996 0.054932 -0.212763 0.199101 -0.207675 -0.051287 -0.160554 -0.020782 -0.087133 -0.115112 0.077119 -0.136024 -0.028703 -0.015306 -0.017008 -0.147089 0.084899 0.173831 -0.023187 0.039422 0.057529 0.022642 -0.075070 -0.181625 -0.103826 -0.036896 0.152489 -0.143257 0.253564 -0.147387 0.243020 0.082737 -0.782189 0.154974 0.151573 -0.385490 0.102521 0.363725 0.320898 0.259867 -0.372798 -0.302033 -0.009038 0.102027 0.232557 0.264747 -0.427629 0.097390 0.068304 0.674131 -0.998492 -0.235026 0.034210 0.231409 0.284941 0.401947 -0.187913 0.709219 0.495163 0.810505 0.156432 -0.099919 0.003057 0.225142 0.119001 0.054978 0.583511 -0.342028 0.423072 -0.119924 0.250591 -0.053045 -0.211950 0.080094 0.018249 -0.107477 0.155299 -0.248216 0.365387 -0.081725 -0.658373 -0.282615 -0.476757 -0.464245 -0.460993 0.083050 -0.548513 -0.180435 0.527954 -0.011393 0.064419 0.280959 -0.241655 0.242132 0.275435 -0.279998 -0.202297 -0.296749 0.031687 0.379289 -0.465212 -0.348332 -0.098314 -0.257684 0.368501 0.419819 -0.537781 0.584210 -0.386922 -0.129465 -0.002141 -0.166856 -0.073793 0.304874 0.393325 0.295395 0.049801 -0.134929 -0.270342 0.460064 -0.149493 -0.184364 -0.210132 -0.221503 0.138576 0.304526 -0.159511 -0.187325 0.133777 -0.263517 -0.071869 0.117005 0.194344 0.076844 -0.141748 -0.004227 0.102288 -0.139008 0.111273 -0.050567 -0.092363 0.053126 
Kamala -0.034792 -0.212720 0.190065 0.061365 0.781877 0.046611 0.346880 0.084583 -0.001895 -0.406162 -0.272842 0.334300 0.043465 0.819750 -0.375416 0.016842 -0.213938 0.269208 -0.058798 0.565460 0.596332 0.061123 0.363927 -0.234621 -0.016297 -0.001214 -0.085131 0.035041 -0.037306 -0.206031 -0.159671 0.125837 0.005793 0.009057 0.366900 0.219690 -0.155895 -0.178744 -0.084204 -0.077214 0.018299 -0.059775 0.192838 0.099762 -0.200702 -0.002261 0.055655 -0.213936 -0.025813 -0.102903 0.183119 0.012522 -0.085784 0.142066 0.091614 -0.123623 -0.066745 -0.015212 -0.024399 0.010346 -0.065466 0.092241 -0.077830 0.013428 -0.173720 -0.030248 -0.107605 -0.121856 0.061110 -0.122920 -0.046095 -0.034668 -0.043157 -0.284865 0.152812 0.308045 -0.044477 0.060720 0.122536 0.042204 -0.195034 -0.352414 -0.197162 -0.087989 0.271627 -0.275367 0.550953 -0.293044 0.400996 0.134389 -1.255540 0.267007 0.245742 -0.610926 0.162996 0.577078 0.540232 0.443316 -0.632263 -0.523127 -0.019572 0.167001 0.398454 0.442230 -0.624197 0.135833 0.100528 0.976373 -1.448853 -0.344331 0.052523 0.324349 0.377093 0.521165 -0.251691 0.943828 0.665822 1.077160 0.213820 -0.127641 0.005512 0.206332 0.109769 0.070127 0.535716 -0.318967 0.388993 -0.122316 0.169037 -0.018324 -0.152501 0.061175 0.028726 -0.090700 0.088955 -0.141336 0.341697 -0.059239 -0.590229 -0.237548 -0.409933 -0.434848 -0.404805 0.069773 -0.539069 -0.181101 0.499192 -0.008887 0.073249 0.294848 -0.225873 0.226142 0.249906 -0.208045 -0.111972 -0.179847 -0.028227 0.269864 -0.322501 -0.214937 -0.035607 -0.165032 0.221705 0.237054 -0.314467 0.310650 -0.185952 -0.035357 0.049086 -0.033523 -0.042098 0.097952 -0.014746 0.032046 -0.013237 -0.038015 -0.131887 0.119186 -0.027046 -0.020059 -0.114190 -0.069951 0.014739 0.056488 -0.249978 -0.286587 0.203535 -0.410454 -0.111054 0.167012 0.289387 0.107639 -0.195745 -0.025628 0.072548 -0.124463 0.111272 -0.062541 -0.067973 0.053123 
SocialDemocracy 0.067122 -0.128182 0.158687 0.035485 0.487544 0.000875 0.235122 0.046900 -0.050284 -0.339919 -0.190291 0.342919 0.032452 0.638867 -0.323039 0.035311 -0.182820 0.279814 -0.043660 0.580393 0.608824 0.098231 0.364339 -0.247589 -0.006457 -0.004833 -0.028979 -0.008151 -0.075906 -0.195927 -0.198734 0.088249 0.029596 0.013488 0.249588 0.132450 -0.056620 -0.083556 -0.061988 -0.066590 0.079613 -0.051931 0.235772 0.102881 -0.190410 -0.013734 0.048515 -0.183980 -0.053364 -0.092899 0.145078 0.057654 -0.070950 0.103304 0.061997 -0.140456 -0.333138 -0.310236 -0.145428 0.081231 -0.340763 0.278229 -0.313905 -0.117735 -0.260395 -0.032560 -0.098206 -0.183298 0.217380 -0.369757 0.070537 -0.001023 0.022550 0.204084 -0.074835 -0.171248 0.059540 0.002317 -0.144649 -0.029287 0.110240 0.112735 0.051650 0.057265 -0.031100 0.055394 -0.219949 0.085674 0.360927 0.089459 -0.992178 0.245145 0.145674 -0.473154 0.133573 0.504071 0.465523 0.462232 -0.527969 -0.519982 0.000985 0.124283 0.348235 0.366500 -0.371637 0.084949 0.040517 0.599215 -0.876261 -0.200351 -0.021414 0.151533 0.234858 0.336706 -0.156150 0.541659 0.406960 0.644472 0.102618 -0.077241 -0.010334 0.247037 0.133418 0.013346 0.662113 -0.396232 0.512204 -0.125077 0.269733 -0.083842 -0.204897 0.080041 0.008070 -0.104924 0.181412 -0.293998 0.346927 -0.117604 -0.633621 -0.308801 -0.489784 -0.445211 -0.458486 0.108434 -0.471020 -0.155532 0.482736 -0.005534 0.031490 0.200681 -0.229205 0.219646 0.126058 -0.136522 -0.135057 -0.189706 0.031490 0.229261 -0.265309 -0.208270 -0.053808 -0.121379 0.185423 0.208380 -0.255171 0.299717 -0.215075 -0.088146 -0.043548 -0.192109 -0.052361 0.324887 0.518063 0.364837 0.068467 -0.140550 -0.277763 0.574364 -0.194305 -0.239862 -0.214194 -0.269919 0.180356 0.418426 -0.260933 -0.328959 0.242019 -0.435015 -0.101259 0.234043 0.336508 0.102286 -0.465387 0.051845 0.386153 -0.428959 0.256632 -0.100457 -0.423256 0.216221 
demsocialist 0.037460 -0.061904 0.081899 0.035453 0.532948 0.015645 0.295151 0.081541 -0.067370 -0.377525 -0.186216 0.395256 0.038219 0.640242 -0.314690 0.032495 -0.136990 0.216867 -0.041606 0.488408 0.512224 0.077430 0.294487 -0.205796 -0.013112 -0.019587 -0.013098 -0.003494 -0.009833 -0.033872 -0.029653 0.024186 0.019533 0.000540 0.100140 0.065091 -0.032078 -0.030997 -0.031649 -0.034021 0.093135 -0.052744 0.270209 0.089752 -0.205767 -0.024349 0.039021 -0.185481 -0.073346 -0.109530 0.188778 0.101096 -0.076666 0.121603 0.079261 -0.176685 -0.365750 -0.354117 -0.170602 0.103596 -0.365387 0.306388 -0.347036 -0.130136 -0.206408 -0.026332 -0.072649 -0.140186 0.167892 -0.286295 0.052704 0.014605 0.001972 0.067138 -0.010907 -0.053046 0.030602 0.010953 -0.056351 -0.011334 0.073857 0.072783 0.017016 0.036025 -0.026644 0.032615 -0.130451 0.056227 0.338810 0.080402 -0.921025 0.226572 0.141926 -0.440034 0.124030 0.466292 0.391669 0.405095 -0.448843 -0.445814 -0.000849 0.115842 0.295865 0.322276 -0.341402 0.069880 0.043045 0.545467 -0.784089 -0.177931 -0.024106 0.151205 0.241776 0.349496 -0.160929 0.551957 0.420414 0.659896 0.114029 -0.086434 0.002665 0.206462 0.111826 0.014004 0.556077 -0.323791 0.413547 -0.102635 0.244403 -0.067202 -0.194491 0.071096 -0.004794 -0.089488 0.175894 -0.271165 0.225962 -0.070887 -0.421877 -0.194551 -0.331315 -0.293143 -0.311000 0.067103 -0.315890 -0.108053 0.321568 -0.004009 0.023165 0.133747 -0.156454 0.144547 0.130636 -0.160994 -0.124322 -0.191160 0.038398 0.231153 -0.280401 -0.215960 -0.070224 -0.151700 0.215972 0.252262 -0.312571 0.359380 -0.248968 -0.093830 -0.035613 -0.186916 -0.049611 0.310623 0.488125 0.343307 0.063392 -0.134982 -0.244742 0.476800 -0.159859 -0.193292 -0.177542 -0.227376 0.160230 0.342461 -0.109961 -0.150516 0.092273 -0.190888 -0.051675 0.095544 0.142300 0.049218 -0.255278 0.027787 0.213513 -0.232130 0.144843 -0.058081 -0.192451 0.092226 
BetoORourke 0.146927 -0.129609 0.145311 0.046968 0.602659 0.021726 0.246304 0.088702 -0.019565 -0.232550 -0.141037 0.205814 0.017478 0.341764 -0.158480 0.010807 -0.126364 0.172861 -0.036030 0.326917 0.353908 0.049931 0.216293 -0.142850 -0.018307 -0.011704 -0.039477 0.002191 -0.078119 -0.241075 -0.223340 0.117851 0.059241 0.008204 0.367450 0.206111 -0.105927 -0.136908 -0.093698 -0.110995 0.120396 -0.089097 0.410625 0.165843 -0.285517 -0.018531 0.063518 -0.273007 -0.120161 -0.193021 0.339342 0.144418 -0.141042 0.232302 0.132678 -0.302411 -0.294874 -0.268166 -0.144297 0.079487 -0.298789 0.264903 -0.283414 -0.089471 -0.217663 -0.037499 -0.100691 -0.146263 0.151655 -0.272877 0.029133 -0.014448 0.024950 0.177122 -0.050036 -0.148170 0.073941 0.024908 -0.154508 -0.035085 0.179594 0.204885 0.092151 0.089532 -0.066116 0.096634 -0.371371 0.163504 0.375649 0.096615 -1.052259 0.255502 0.172701 -0.501148 0.139965 0.511915 0.432782 0.417891 -0.499849 -0.467612 -0.009610 0.125110 0.326025 0.347727 -0.443090 0.091564 0.061694 0.701547 -1.008087 -0.239240 -0.003704 0.206686 0.287202 0.413237 -0.193073 0.694219 0.518247 0.812291 0.161914 -0.102239 0.013190 0.217616 0.132361 0.026190 0.599124 -0.336304 0.441845 -0.115188 0.229835 -0.047457 -0.195225 0.066768 0.013562 -0.093387 0.165311 -0.241266 0.316689 -0.091165 -0.576982 -0.279136 -0.432208 -0.405778 -0.429843 0.084243 -0.478501 -0.144057 0.480773 -0.014000 0.035206 0.230246 -0.216726 0.212766 0.176757 -0.201521 -0.148579 -0.227622 0.039041 0.268508 -0.333792 -0.253876 -0.062863 -0.176628 0.243002 0.284869 -0.354715 0.382414 -0.254176 -0.087188 -0.011001 -0.112015 -0.048578 0.220164 0.285055 0.205353 0.028339 -0.096608 -0.174657 0.306089 -0.097916 -0.115852 -0.133144 -0.143793 0.087125 0.200322 -0.220965 -0.265626 0.192079 -0.350487 -0.089247 0.192278 0.271202 0.091119 -0.341944 0.027545 0.241351 -0.273112 0.175114 -0.074951 -0.260276 0.112937 
ConservativeDemocrat 0.099972 -0.065801 0.100401 0.031615 0.348410 0.005118 0.175011 0.092475 -0.053375 -0.318675 -0.171994 0.323508 0.028995 0.556080 -0.276772 0.025240 -0.143339 0.216245 -0.038776 0.470993 0.490437 0.077936 0.293306 -0.202035 -0.008750 -0.015295 -0.025934 -0.013454 -0.097682 -0.252741 -0.254928 0.122044 0.061570 0.016995 0.367443 0.201508 -0.075604 -0.114123 -0.097860 -0.115936 0.121693 -0.072969 0.356229 0.131387 -0.247112 -0.018803 0.058596 -0.241731 -0.103669 -0.167616 0.287012 0.133737 -0.116253 0.197088 0.120543 -0.259929 -0.334110 -0.324343 -0.155420 0.085238 -0.346955 0.287058 -0.317319 -0.121849 -0.209977 -0.027349 -0.079639 -0.146065 0.171542 -0.289653 0.047383 0.008951 0.025364 0.204806 -0.072541 -0.181282 0.071683 0.003723 -0.159668 -0.029639 0.180707 0.204387 0.099519 0.086159 -0.080748 0.118589 -0.378487 0.160045 0.216175 0.053491 -0.609331 0.142867 0.096716 -0.297318 0.086969 0.306361 0.263554 0.253221 -0.293488 -0.282918 0.000954 0.070059 0.192317 0.213106 -0.246042 0.059964 0.028459 0.389584 -0.558868 -0.127854 -0.005131 0.107061 0.157792 0.217258 -0.097024 0.361038 0.259915 0.422764 0.071088 -0.051977 -0.004226 0.232574 0.128211 0.012819 0.626368 -0.362590 0.478384 -0.117341 0.258925 -0.078217 -0.203488 0.080743 0.002351 -0.092715 0.176987 -0.280023 0.285162 -0.093629 -0.515676 -0.248663 -0.401637 -0.371639 -0.382210 0.079945 -0.381820 -0.123226 0.388913 -0.008173 0.031361 0.169920 -0.184456 0.177672 0.132792 -0.153930 -0.139341 -0.195767 0.039452 0.232303 -0.276816 -0.217110 -0.060858 -0.143538 0.212993 0.243507 -0.297144 0.346909 -0.243081 -0.091097 -0.015254 -0.110381 -0.032865 0.177752 0.274425 0.199774 0.042309 -0.080697 -0.151611 0.300747 -0.097457 -0.126162 -0.119514 -0.145524 0.097332 0.217597 -0.192116 -0.232836 0.177459 -0.315172 -0.074991 0.167128 0.242073 0.081584 -0.396887 0.045432 0.296777 -0.330071 0.206069 -0.080977 -0.318096 0.161388 
