15 200
BaemyKlobaechar 0.081054 0.002475 0.036088 0.057188 0.037283 0.056138 -0.316519 -0.132324 -0.192129 -0.500281 -0.102331 0.400932 0.053157 0.700640 -0.343867 0.108156 -0.196498 0.331694 -0.115903 0.648881 0.645541 0.141190 0.339530 -0.282802 -0.017750 -0.143364 0.041597 -0.051410 -0.165733 -0.348513 -0.400317 0.146714 0.080652 0.192480 0.490641 0.238560 -0.038575 -0.070909 -0.258599 -0.123196 0.256058 -0.165423 0.475701 0.105777 -0.294474 -0.084687 0.014425 -0.156281 -0.181707 -0.221377 0.378818 0.235005 -0.040272 0.162202 0.326307 -0.294201 -0.735635 -0.817369 -0.465170 0.108595 -0.794438 0.507357 -0.823141 -0.196289 -0.256084 0.097384 -0.060743 -0.421029 0.481802 -0.480401 0.155227 0.169261 0.009364 -0.029012 0.069970 0.077956 0.012887 0.014001 0.006010 0.012926 0.060669 0.094985 -0.022498 -0.059566 -0.037060 0.000436 -0.136694 0.039715 0.061258 0.075659 -0.176711 -0.010186 0.023371 -0.164085 -0.026887 0.107641 0.097004 0.034899 -0.060954 -0.035201 0.052243 0.009864 0.002901 0.086027 -0.044044 0.003644 -0.165527 0.346242 -0.465970 -0.081569 -0.120899 -0.048896 0.226482 0.308764 -0.067261 0.270710 0.212607 0.421288 -0.060058 -0.208807 -0.040149 0.044967 -0.039503 -0.006543 0.082662 -0.049580 0.026643 -0.026893 0.148758 -0.109393 -0.025115 0.178305 -0.097885 -0.047308 0.148435 -0.215748 0.586472 -0.478599 -1.205295 -0.618267 -0.902298 -0.885899 -0.831983 0.110584 -0.862996 -0.398616 0.797258 0.190454 0.310775 -0.006202 -0.635090 0.272472 0.028101 -0.398300 -0.367581 -0.583547 0.301500 0.616014 -0.657055 -0.448172 -0.015783 -0.277844 0.340753 0.656669 -0.419528 0.748961 -0.651623 -0.014175 -0.002627 -0.136752 0.090092 0.143180 0.348698 0.327526 0.273773 0.051465 -0.195325 0.381264 -0.271933 -0.288238 0.041136 -0.321931 0.135061 0.289130 0.075463 0.071047 -0.011047 0.057345 0.048740 -0.082082 -0.084869 -0.029727 -0.175266 0.132091 0.069426 -0.270510 0.051963 -0.092750 -0.193777 0.079691 
politics 0.061602 -0.034812 0.217917 0.137724 0.506615 -0.072965 0.229622 0.174522 -0.117131 -0.326108 -0.016725 0.338437 0.020870 0.425650 -0.260947 0.108570 -0.113076 0.228849 -0.079084 0.484206 0.472305 0.144712 0.241564 -0.164128 -0.041221 -0.077516 0.025216 -0.116663 -0.250279 -0.432772 -0.510238 0.148303 0.122645 0.203731 0.672062 0.288189 -0.018301 -0.079763 -0.320995 -0.212597 0.338660 -0.108313 0.486287 0.166950 -0.380471 -0.144051 -0.030599 -0.198624 -0.248025 -0.309613 0.416883 0.311304 -0.164436 0.222772 0.300968 -0.434454 -0.467960 -0.473787 -0.274853 0.070147 -0.523585 0.255806 -0.507153 -0.181177 -0.117130 0.059994 0.103978 -0.226120 0.500526 -0.631580 0.393566 0.214021 -0.239638 0.396613 0.011223 -0.546449 0.010024 -0.161604 -0.350356 0.114141 0.259222 0.526055 0.144853 -0.008370 -0.248014 0.228072 -0.694924 0.255900 0.490088 0.175514 -0.854243 0.251402 0.025358 -0.603766 0.018813 0.555202 0.531794 0.546897 -0.461829 -0.603640 0.147479 0.048997 0.221516 0.446972 -0.129939 0.027826 -0.179417 0.479499 -0.673929 -0.162032 -0.151912 -0.069016 0.272565 0.360953 -0.088737 0.401348 0.320157 0.577147 -0.018306 -0.196569 -0.173878 0.363478 0.013858 -0.196297 0.997897 -0.490950 0.763430 -0.225578 0.454093 -0.281851 -0.158258 0.377171 -0.131946 -0.151384 0.361354 -0.559577 0.345899 -0.284699 -0.669629 -0.364823 -0.509566 -0.534341 -0.480395 0.084386 -0.526727 -0.203921 0.499842 0.085647 0.161804 0.056942 -0.333640 0.158472 0.085904 -0.263800 -0.283374 -0.441333 0.167078 0.476096 -0.501834 -0.352469 -0.014863 -0.251651 0.316435 0.488476 -0.367339 0.564069 -0.474507 -0.081361 0.008838 -0.222363 0.046169 0.274093 0.455865 0.397091 0.221898 -0.040542 -0.251221 0.531749 -0.279707 -0.264158 -0.071018 -0.366968 0.174561 0.444238 -0.175020 -0.192131 0.334720 -0.419001 0.049854 0.171568 0.238449 0.127840 -0.415875 0.091319 0.474260 -0.455610 0.189529 -0.154054 -0.419292 0.225897 
YangForPresidentHQ 0.083214 -0.050114 0.351176 0.159446 0.676776 -0.040248 0.065746 0.017358 -0.264097 -0.586590 -0.075272 0.599793 0.027107 0.774601 -0.421078 0.169147 -0.179538 0.404458 -0.108404 0.717941 0.747612 0.240328 0.371969 -0.349083 -0.047873 -0.197462 0.034958 -0.089198 -0.239135 -0.374913 -0.502852 0.149371 0.131352 0.195677 0.544158 0.253671 -0.033696 -0.036130 -0.345654 -0.211946 0.365264 -0.133301 0.566446 0.151206 -0.390910 -0.148631 -0.033220 -0.206133 -0.282216 -0.309124 0.543065 0.387716 -0.107762 0.216410 0.395638 -0.502199 -0.368349 -0.459851 -0.258024 0.113594 -0.385876 0.349949 -0.356402 -0.085353 -0.243662 0.130002 -0.092026 -0.374057 0.380660 -0.405728 0.089180 0.110111 -0.095783 0.118914 0.032356 -0.141394 -0.000679 -0.041541 -0.089571 0.068825 0.125517 0.238142 0.011480 -0.047693 -0.148025 0.093581 -0.316768 0.081110 0.339110 0.124838 -0.502289 0.137385 0.042670 -0.406096 -0.050586 0.335615 0.308554 0.319117 -0.258840 -0.327673 0.062451 0.043379 0.049264 0.230799 -0.036137 0.016881 -0.167737 0.320589 -0.449369 -0.070485 -0.169132 -0.036821 0.174054 0.261770 -0.029198 0.211652 0.130949 0.282198 -0.036436 -0.190220 -0.069772 0.181668 -0.042976 -0.139286 0.474323 -0.189931 0.273918 -0.076006 0.273292 -0.198607 0.001307 0.220408 -0.151877 -0.103334 0.218484 -0.374511 0.363525 -0.297553 -0.742142 -0.408794 -0.557135 -0.554743 -0.523718 0.102626 -0.417586 -0.197535 0.377869 0.119831 0.152287 -0.002188 -0.306631 0.157298 -0.019341 -0.136897 -0.137194 -0.213124 0.130994 0.191034 -0.232330 -0.152015 -0.023122 -0.092045 0.107185 0.260851 -0.116272 0.273684 -0.251587 -0.011777 -0.033193 -0.259281 0.188093 0.246473 0.638295 0.526095 0.345510 0.018149 -0.202204 0.422848 -0.316692 -0.269063 0.089702 -0.337260 0.170924 0.360259 -0.057493 -0.183914 0.344896 -0.382053 0.150835 0.180778 0.187750 0.089047 -0.414602 0.210795 0.687318 -0.544967 0.194689 -0.196527 -0.564741 0.271622 
SandersForPresident -0.053288 0.019166 -0.058372 0.080927 0.416287 -0.046408 0.340575 0.200762 -0.195016 -0.488979 -0.055928 0.506922 0.022480 0.627822 -0.369193 0.152689 -0.163550 0.318521 -0.112980 0.573466 0.590599 0.181005 0.322476 -0.233234 -0.019582 -0.078321 0.038726 -0.068621 -0.188043 -0.410244 -0.464564 0.145300 0.124823 0.181584 0.671817 0.274799 -0.042587 -0.126569 -0.287302 -0.175384 0.306198 -0.124481 0.527763 0.206340 -0.360106 -0.120125 -0.017171 -0.211762 -0.250301 -0.307432 0.463112 0.305295 -0.158085 0.225422 0.309502 -0.459124 -0.229125 -0.230464 -0.143136 0.038026 -0.266303 0.109730 -0.272652 -0.090727 -0.031533 0.019887 0.063035 -0.079834 0.223069 -0.277826 0.201612 0.091604 -0.142764 0.244578 0.010325 -0.349277 0.009480 -0.091289 -0.215386 0.064587 0.194081 0.504599 0.148888 -0.037037 -0.255091 0.202647 -0.602192 0.248532 0.450855 0.136842 -0.673635 0.245832 -0.006423 -0.473610 0.016344 0.464998 0.382755 0.474921 -0.340693 -0.509301 0.106604 0.047317 0.179748 0.325766 -0.153014 0.033488 -0.179355 0.549028 -0.763108 -0.172798 -0.180764 -0.079989 0.318662 0.422786 -0.110835 0.452326 0.394552 0.665276 -0.005983 -0.246862 -0.121712 0.245870 0.026870 -0.153195 0.729292 -0.360441 0.563704 -0.152573 0.307388 -0.181658 -0.119628 0.221761 -0.072021 -0.116240 0.237190 -0.385011 0.231615 -0.204752 -0.458819 -0.275687 -0.364630 -0.354260 -0.336570 0.074519 -0.384473 -0.144836 0.383090 0.063980 0.097415 0.019381 -0.256132 0.138285 -0.012142 -0.182584 -0.208751 -0.309573 0.165774 0.322168 -0.342207 -0.250042 -0.015481 -0.139861 0.184210 0.303609 -0.218447 0.359400 -0.308405 -0.050876 -0.002182 -0.166604 0.047993 0.207382 0.360211 0.292938 0.175019 -0.022540 -0.169297 0.360878 -0.197622 -0.187112 -0.029861 -0.249916 0.121592 0.307009 -0.080679 -0.080049 0.153056 -0.171100 0.026625 0.093223 0.100982 0.057937 -0.188774 0.052952 0.444639 -0.158887 0.047745 -0.048236 -0.198215 0.077487 
centerleftpolitics 0.056587 -0.017791 0.147649 0.130045 0.421381 0.012557 -0.002305 0.016810 -0.210283 -0.520561 -0.091598 0.465615 0.046144 0.711274 -0.370046 0.121533 -0.181961 0.314101 -0.109412 0.615898 0.622705 0.143945 0.335775 -0.268897 -0.014027 -0.171429 0.060179 -0.066921 -0.223986 -0.486751 -0.568358 0.204810 0.148603 0.243811 0.783238 0.358376 -0.055863 -0.126021 -0.366610 -0.209903 0.337775 -0.187171 0.636319 0.179351 -0.386442 -0.105011 0.015717 -0.238984 -0.249029 -0.308129 0.513476 0.323137 -0.096477 0.235676 0.392051 -0.433106 -0.501453 -0.569103 -0.316473 0.074436 -0.536160 0.345784 -0.559208 -0.139173 -0.182041 0.075038 -0.011697 -0.314211 0.421792 -0.435969 0.187131 0.157943 -0.047246 0.080305 0.046966 -0.087828 0.012177 -0.027757 -0.073673 0.029809 0.082679 0.171581 0.022426 -0.048363 -0.074894 0.046695 -0.222957 0.082817 0.125689 0.075801 -0.267642 0.036625 0.020719 -0.213865 -0.011970 0.168508 0.156889 0.133809 -0.126075 -0.132795 0.054964 0.012467 0.046612 0.140082 -0.059269 0.010618 -0.137478 0.318924 -0.436105 -0.079379 -0.108771 -0.037369 0.202463 0.277751 -0.065702 0.254029 0.210715 0.388055 -0.032438 -0.174863 -0.043752 0.063144 -0.011581 -0.030316 0.180667 -0.097483 0.110526 -0.026214 0.171475 -0.119767 -0.046222 0.168262 -0.088534 -0.056928 0.165717 -0.253693 0.498233 -0.412744 -1.031473 -0.546060 -0.779459 -0.751367 -0.717725 0.105854 -0.686800 -0.314483 0.654529 0.144121 0.226492 -0.008920 -0.519185 0.234039 0.002140 -0.350898 -0.344327 -0.523116 0.280284 0.550600 -0.582938 -0.414341 -0.027929 -0.234227 0.290617 0.552067 -0.369713 0.647752 -0.560714 -0.037905 -0.001936 -0.153600 0.077901 0.165333 0.355530 0.311499 0.232786 0.019283 -0.222029 0.446585 -0.284064 -0.288778 0.005626 -0.354447 0.167487 0.367071 -0.001447 -0.012348 0.071039 -0.059694 0.039742 0.005249 0.003170 0.020475 -0.474739 0.207446 0.453224 -0.563420 0.179966 -0.205869 -0.483760 0.207752 
Pete_Buttigieg -0.009378 -0.022329 0.144636 0.108155 0.409677 -0.030339 0.075859 0.096241 -0.193855 -0.500342 -0.078615 0.516138 0.024161 0.672346 -0.383586 0.148072 -0.184915 0.384652 -0.116741 0.701552 0.717633 0.222601 0.366534 -0.304110 -0.054166 -0.152986 0.038525 -0.127266 -0.298254 -0.506645 -0.613881 0.178547 0.176374 0.249316 0.824811 0.355835 -0.037676 -0.099718 -0.416529 -0.278601 0.350177 -0.126045 0.569305 0.187230 -0.409199 -0.148937 -0.021396 -0.231439 -0.277612 -0.325203 0.528726 0.351108 -0.151599 0.244575 0.355468 -0.518889 -0.402648 -0.421733 -0.238053 0.097905 -0.441063 0.282574 -0.412536 -0.141277 -0.140887 0.062380 -0.011967 -0.186590 0.271683 -0.346813 0.146407 0.095104 -0.061396 0.131222 -0.006633 -0.136843 0.042073 -0.023826 -0.105307 0.045273 0.175725 0.333674 0.091181 0.005173 -0.152203 0.129251 -0.439510 0.145172 0.457824 0.159784 -0.760418 0.226770 0.053668 -0.556647 -0.011415 0.489003 0.429242 0.431954 -0.375107 -0.479469 0.088628 0.042283 0.153303 0.353956 -0.114034 0.020843 -0.139087 0.399154 -0.541343 -0.105470 -0.158871 -0.050641 0.210255 0.268631 -0.054025 0.273663 0.226516 0.391146 -0.014840 -0.171430 -0.039579 0.122368 -0.003200 -0.091712 0.348405 -0.152807 0.248099 -0.079929 0.192870 -0.116178 -0.044473 0.134882 -0.077170 -0.074525 0.145232 -0.229578 0.294046 -0.257528 -0.586807 -0.353455 -0.454684 -0.451082 -0.453764 0.100081 -0.375726 -0.178828 0.371475 0.080943 0.087928 -0.005810 -0.285763 0.143441 -0.009721 -0.219815 -0.246977 -0.403760 0.195673 0.386601 -0.449560 -0.285713 -0.055856 -0.179009 0.226171 0.378746 -0.216676 0.440693 -0.368642 -0.078361 -0.037778 -0.223341 0.129540 0.236557 0.507487 0.384587 0.195722 -0.027285 -0.158202 0.362582 -0.202178 -0.154630 -0.015401 -0.244453 0.134845 0.324482 -0.108017 -0.186850 0.260940 -0.355499 0.034843 0.166781 0.203062 0.084477 -0.202937 0.041813 0.355911 -0.221713 0.119105 -0.091954 -0.269737 0.145560 
moderatepolitics 0.132165 -0.009089 0.194637 0.148535 0.682384 -0.071431 0.234599 0.095076 -0.184762 -0.436455 -0.051474 0.423698 0.044799 0.611934 -0.342510 0.113191 -0.123310 0.237398 -0.073746 0.533455 0.521272 0.123249 0.261949 -0.202943 -0.018526 -0.058407 0.027382 -0.081550 -0.180033 -0.324942 -0.372713 0.113480 0.089594 0.158976 0.501263 0.231692 -0.010356 -0.046871 -0.237090 -0.153053 0.366896 -0.159608 0.576711 0.159248 -0.404612 -0.127209 0.003988 -0.240462 -0.246107 -0.316992 0.456132 0.339058 -0.140872 0.236172 0.338684 -0.427435 -0.437541 -0.477885 -0.254647 0.066700 -0.476975 0.255219 -0.476053 -0.150117 -0.139585 0.063176 0.053295 -0.249162 0.415901 -0.473548 0.264315 0.176152 -0.148786 0.240296 0.007227 -0.342277 -0.023749 -0.132122 -0.213148 0.057765 0.144777 0.290269 0.055245 -0.028301 -0.195418 0.154727 -0.389969 0.164083 0.264282 0.087159 -0.443487 0.131704 -0.010405 -0.311451 0.020686 0.312659 0.290517 0.336555 -0.240784 -0.354995 0.109653 0.033134 0.116766 0.253297 -0.106151 0.018206 -0.159703 0.415042 -0.569386 -0.128460 -0.137962 -0.068964 0.267275 0.370678 -0.105347 0.371150 0.300014 0.554419 -0.036416 -0.189208 -0.094127 0.154856 0.003014 -0.055983 0.405449 -0.220335 0.318123 -0.091350 0.166049 -0.101408 -0.081640 0.159151 -0.039117 -0.031641 0.145896 -0.222474 0.210853 -0.172457 -0.421538 -0.205886 -0.335380 -0.314054 -0.292788 0.049205 -0.313455 -0.134340 0.304994 0.044012 0.099169 -0.004371 -0.211089 0.092810 0.034603 -0.158926 -0.192616 -0.255555 0.117977 0.285433 -0.296342 -0.225577 -0.001446 -0.126855 0.196502 0.289241 -0.230653 0.360877 -0.321849 -0.034270 -0.016498 -0.218721 0.062207 0.239031 0.542366 0.477311 0.309764 -0.003701 -0.280851 0.634383 -0.368022 -0.391560 -0.010121 -0.448345 0.222846 0.520984 -0.093856 -0.135625 0.300829 -0.329090 0.094621 0.110903 0.162505 0.081622 -0.458466 0.157263 0.410104 -0.520229 0.172667 -0.142807 -0.468646 0.269811 
ElizabethWarren 0.229710 -0.058018 0.386884 0.289889 1.123340 -0.042973 0.117804 0.141709 -0.206803 -0.602165 -0.157315 0.502352 0.052847 0.863806 -0.435457 0.130219 -0.242761 0.371291 -0.122306 0.744763 0.763414 0.142557 0.402715 -0.311626 -0.024381 -0.195752 0.065602 -0.076630 -0.236802 -0.521131 -0.622481 0.222438 0.134224 0.258403 0.761288 0.359673 -0.056938 -0.110243 -0.363553 -0.198038 0.246243 -0.148817 0.426466 0.092335 -0.262617 -0.078979 -0.000948 -0.139440 -0.197352 -0.242776 0.393970 0.260798 -0.056586 0.183217 0.336583 -0.305978 -0.677221 -0.757807 -0.435865 0.093050 -0.731815 0.440990 -0.754916 -0.202854 -0.226043 0.109630 0.046659 -0.437685 0.687735 -0.767369 0.398147 0.278399 -0.205519 0.270293 0.074881 -0.374301 -0.003872 -0.133190 -0.234782 0.097924 0.135024 0.251753 0.017977 -0.049350 -0.112510 0.088409 -0.339643 0.118132 0.232652 0.096702 -0.448647 0.102951 0.038759 -0.327200 -0.005350 0.290564 0.264920 0.257694 -0.231856 -0.263734 0.083840 0.027451 0.066915 0.216091 -0.108559 0.031348 -0.157534 0.430217 -0.567422 -0.095961 -0.163873 -0.058768 0.289278 0.379838 -0.102329 0.360523 0.278970 0.508700 -0.040453 -0.221334 -0.033336 0.046833 -0.018912 -0.016221 0.110116 -0.049605 0.057110 -0.002915 0.119644 -0.088504 -0.012310 0.144275 -0.082921 -0.014256 0.132623 -0.188361 0.389877 -0.318637 -0.782018 -0.402103 -0.593847 -0.586210 -0.539826 0.091248 -0.576974 -0.261672 0.546786 0.115167 0.194827 -0.005364 -0.418870 0.188172 0.010526 -0.293138 -0.297771 -0.434371 0.225938 0.467745 -0.490697 -0.342063 0.003976 -0.211238 0.267366 0.487000 -0.327440 0.554042 -0.491373 -0.010845 -0.019935 -0.054775 0.040952 0.053596 0.219119 0.209305 0.185457 0.035345 -0.112834 0.276959 -0.187857 -0.228011 0.041433 -0.212346 0.088499 0.208687 -0.042651 -0.073394 0.247517 -0.243661 0.103549 0.069007 0.086514 0.062876 -0.278860 0.143899 0.087631 -0.294484 0.050535 -0.090812 -0.255392 0.073188 
progressive 0.077823 -0.064976 0.308716 0.158220 0.730399 -0.081673 0.500866 0.164301 -0.156441 -0.427355 -0.149951 0.428777 0.037248 0.682642 -0.358092 0.101854 -0.139604 0.241480 -0.067949 0.463076 0.479130 0.098544 0.265356 -0.200583 0.011749 -0.057777 0.036800 -0.020250 -0.076295 -0.266027 -0.302293 0.109777 0.061320 0.090588 0.432970 0.195657 -0.033666 -0.111583 -0.120967 -0.078837 0.431656 -0.188579 0.750682 0.235342 -0.501783 -0.160953 0.010043 -0.346465 -0.308922 -0.387026 0.627711 0.406998 -0.181084 0.331308 0.402571 -0.592433 -0.427917 -0.479481 -0.242971 0.079622 -0.463690 0.280281 -0.449134 -0.165382 -0.114186 0.027082 0.015965 -0.158526 0.253110 -0.307562 0.154229 0.102370 -0.147262 0.267947 0.000253 -0.343846 0.049133 -0.104279 -0.207653 0.081386 0.284404 0.540229 0.143574 0.000736 -0.276324 0.238452 -0.722145 0.263894 0.308617 0.097028 -0.540778 0.168682 0.032728 -0.369895 0.027036 0.356543 0.317456 0.342220 -0.269965 -0.361953 0.082099 0.015353 0.129055 0.258583 -0.162251 0.052422 -0.100003 0.457739 -0.614778 -0.120931 -0.111898 -0.051662 0.253091 0.295756 -0.093166 0.349546 0.302925 0.490223 -0.000410 -0.158684 -0.051021 0.125499 0.038847 -0.044955 0.325554 -0.181027 0.288446 -0.068013 0.186294 -0.118490 -0.091991 0.135627 -0.045890 -0.062733 0.130577 -0.217185 0.351318 -0.275571 -0.651843 -0.352942 -0.508799 -0.529795 -0.452991 0.077600 -0.536104 -0.211330 0.519593 0.094767 0.166123 0.043310 -0.370698 0.192195 0.019205 -0.197914 -0.213864 -0.336619 0.147820 0.357584 -0.356700 -0.262471 -0.016823 -0.179768 0.222773 0.349870 -0.273289 0.429563 -0.367597 -0.070107 -0.017287 -0.132769 0.041777 0.130655 0.294380 0.243478 0.141998 -0.016127 -0.164622 0.393627 -0.196977 -0.200218 -0.025098 -0.256934 0.153648 0.352427 -0.029459 -0.014673 -0.003422 -0.023565 -0.013754 -0.008959 0.006207 -0.004746 -0.333644 0.085358 0.360142 -0.326554 0.112942 -0.113570 -0.316708 0.170613 
JoeBiden 0.175633 -0.003635 0.142538 0.110160 0.077478 0.047096 -0.343364 -0.139713 -0.265718 -0.635476 -0.130924 0.534481 0.071611 0.906264 -0.447640 0.133448 -0.232295 0.392207 -0.131164 0.798203 0.801252 0.157264 0.407671 -0.351756 -0.016806 -0.196519 0.064612 -0.064736 -0.204382 -0.444515 -0.516999 0.187135 0.103193 0.223748 0.571187 0.287008 -0.042091 -0.065503 -0.292309 -0.142386 0.314881 -0.195135 0.539985 0.097050 -0.334586 -0.099067 0.012196 -0.162843 -0.241903 -0.287159 0.470200 0.327679 -0.049675 0.200889 0.406563 -0.370870 -0.736356 -0.852709 -0.463608 0.115826 -0.785731 0.518608 -0.817386 -0.193867 -0.285664 0.133587 -0.004987 -0.510221 0.656146 -0.667429 0.295196 0.260412 -0.077584 0.053866 0.095258 -0.067950 -0.015595 -0.058151 -0.063060 0.040124 0.071433 0.128299 -0.044016 -0.090925 -0.092672 0.026717 -0.169943 0.064561 0.103406 0.079393 -0.224314 0.010031 0.017499 -0.200897 -0.028190 0.154477 0.130332 0.106987 -0.087802 -0.093574 0.077682 0.016108 -0.002201 0.119619 -0.029696 -0.005391 -0.149043 0.293720 -0.373639 -0.049012 -0.119015 -0.051117 0.222127 0.306783 -0.079656 0.238165 0.193812 0.388545 -0.067737 -0.201956 -0.033791 0.036890 -0.037269 0.012379 0.028184 -0.021665 -0.023760 0.000533 0.093315 -0.083955 -0.012396 0.129969 -0.089425 -0.024558 0.087481 -0.159896 0.552830 -0.442935 -1.134779 -0.556659 -0.858949 -0.827308 -0.762686 0.102268 -0.804992 -0.371942 0.737679 0.184922 0.305499 -0.016046 -0.596265 0.256467 0.027103 -0.475655 -0.430640 -0.680257 0.352357 0.723222 -0.756332 -0.535571 -0.018024 -0.321192 0.390987 0.757643 -0.505468 0.879047 -0.773538 -0.018936 -0.007776 -0.156958 0.098530 0.146563 0.419676 0.398982 0.330210 0.067390 -0.209871 0.418899 -0.303406 -0.336246 0.069326 -0.355980 0.160066 0.323980 0.119594 0.113205 -0.057535 0.141211 0.062015 -0.127259 -0.146859 -0.054550 -0.121706 0.140283 0.051424 -0.208867 0.002561 -0.054765 -0.125628 0.050009 
Kamala 0.094215 -0.079823 0.326228 0.178344 0.427403 0.048149 -0.125552 -0.039577 -0.227935 -0.685437 -0.159040 0.576769 0.057383 0.970381 -0.495123 0.166233 -0.294691 0.488992 -0.168096 0.943790 0.954736 0.219590 0.498907 -0.388859 -0.027026 -0.212305 0.050711 -0.097036 -0.276589 -0.603110 -0.696122 0.251373 0.145287 0.317152 0.951804 0.429113 -0.075093 -0.157177 -0.440625 -0.227136 0.339542 -0.202511 0.657717 0.194767 -0.412868 -0.116457 0.015963 -0.255890 -0.245026 -0.335910 0.562162 0.308355 -0.117937 0.253326 0.454375 -0.452464 -0.833683 -0.913149 -0.518851 0.124088 -0.896951 0.583843 -0.915509 -0.233462 -0.287400 0.117844 -0.036145 -0.483479 0.605296 -0.652332 0.250103 0.237911 0.006064 -0.009486 0.077454 0.065754 0.027817 0.020724 -0.015009 0.015057 0.071192 0.086260 -0.013864 -0.032583 0.026405 -0.016391 -0.136893 0.023333 0.135715 0.119116 -0.392716 0.039967 0.035599 -0.300368 -0.023109 0.218207 0.195219 0.088466 -0.176429 -0.124261 0.068264 0.017118 0.069741 0.167336 0.017726 -0.016208 -0.093115 0.122074 -0.155247 -0.039452 -0.034293 -0.017290 0.078584 0.116937 -0.021346 0.104347 0.084966 0.194776 -0.040011 -0.095783 -0.007551 -0.050532 -0.054424 0.035309 -0.129547 0.060183 -0.129415 0.013614 0.056351 -0.040731 -0.011188 0.106709 -0.060051 -0.031664 0.077189 -0.097049 0.675467 -0.551691 -1.372258 -0.705241 -1.025881 -1.039188 -0.944418 0.134673 -0.976334 -0.421629 0.901732 0.206519 0.347648 0.044785 -0.678988 0.295515 0.063754 -0.437560 -0.415687 -0.655462 0.309169 0.703844 -0.745893 -0.508806 -0.009243 -0.333948 0.406972 0.733205 -0.491084 0.827188 -0.717834 -0.036918 0.041590 -0.191940 0.060235 0.242026 0.378911 0.379875 0.282184 0.015734 -0.271630 0.502571 -0.313526 -0.314631 -0.021207 -0.408545 0.168883 0.390321 0.071772 0.114216 -0.064244 0.123293 -0.009349 -0.104172 -0.102118 -0.014967 -0.235028 0.104512 0.230476 -0.324848 0.089781 -0.105149 -0.190959 0.095874 
SocialDemocracy 0.030455 -0.032065 0.034461 0.035955 0.324276 0.026453 -0.008724 -0.005143 -0.146222 -0.383684 -0.127122 0.352858 0.031525 0.566229 -0.282108 0.085025 -0.151145 0.271147 -0.075352 0.460802 0.499026 0.109839 0.251768 -0.228130 -0.014177 -0.162695 0.046897 -0.044762 -0.147446 -0.357764 -0.427542 0.148575 0.120584 0.182495 0.622304 0.283465 -0.058963 -0.108520 -0.276125 -0.159267 0.256806 -0.151306 0.524137 0.144391 -0.312500 -0.088668 0.018146 -0.223964 -0.190113 -0.232548 0.466082 0.267059 -0.078590 0.194258 0.317078 -0.380763 -0.403133 -0.460990 -0.249979 0.106046 -0.429222 0.294478 -0.426553 -0.126817 -0.148443 0.066510 -0.064752 -0.195665 0.159917 -0.170385 0.005225 0.054890 -0.034477 0.097766 0.025686 -0.046013 0.070608 -0.010697 -0.048949 0.047811 0.226531 0.342946 0.052291 0.002082 -0.156774 0.133253 -0.496948 0.146823 0.264309 0.108295 -0.507215 0.123601 0.064910 -0.369412 -0.027962 0.309090 0.289041 0.246260 -0.256660 -0.264463 0.060641 0.019708 0.063393 0.218500 -0.090657 0.023773 -0.076490 0.349512 -0.444908 -0.056374 -0.092657 -0.013242 0.197260 0.237425 -0.066101 0.251863 0.209708 0.351607 -0.014174 -0.176657 -0.010278 0.103150 -0.004125 -0.044951 0.194850 -0.076975 0.114117 -0.034697 0.177292 -0.129295 -0.016633 0.142831 -0.110821 -0.064496 0.127811 -0.225854 0.531031 -0.436032 -1.048257 -0.567343 -0.804661 -0.808867 -0.747736 0.140721 -0.738125 -0.329044 0.689949 0.175004 0.244217 0.003753 -0.534804 0.254947 0.005694 -0.344137 -0.319342 -0.556941 0.267423 0.546095 -0.601947 -0.401317 -0.040916 -0.247666 0.280827 0.532974 -0.324508 0.601800 -0.524188 -0.060403 -0.032305 -0.227994 0.151302 0.219552 0.535832 0.449951 0.277197 0.018587 -0.248182 0.527886 -0.341277 -0.282946 0.046816 -0.400750 0.215799 0.457872 -0.062301 -0.147175 0.234993 -0.300301 0.094331 0.094791 0.128453 0.056109 -0.423115 0.164861 0.313949 -0.516277 0.174801 -0.192052 -0.469833 0.223512 
demsocialist 0.057293 -0.054787 0.207133 0.088502 0.379244 0.026742 -0.018397 -0.018440 -0.158190 -0.416484 -0.138018 0.381627 0.036772 0.640167 -0.319274 0.087033 -0.171395 0.315767 -0.087385 0.586697 0.610945 0.134008 0.299485 -0.278280 -0.005643 -0.134557 0.026290 -0.038951 -0.120131 -0.283381 -0.324074 0.120043 0.078833 0.140804 0.470919 0.226740 -0.048757 -0.074739 -0.202144 -0.110454 0.237057 -0.148031 0.489381 0.126011 -0.291762 -0.072397 0.035071 -0.215980 -0.166778 -0.217572 0.427168 0.239308 -0.069265 0.176434 0.299617 -0.342433 -0.518873 -0.585405 -0.303910 0.127471 -0.545232 0.402806 -0.530017 -0.147782 -0.232757 0.095576 -0.106256 -0.300692 0.236915 -0.239881 -0.011645 0.075682 0.002340 0.070979 0.020296 0.019805 0.074413 0.006437 -0.031034 0.034535 0.219742 0.275789 0.034636 0.007361 -0.119565 0.105543 -0.441083 0.119221 0.240862 0.125131 -0.533477 0.098542 0.071093 -0.398189 -0.033298 0.310022 0.273634 0.181184 -0.242437 -0.209341 0.061298 0.017718 0.060308 0.212751 -0.077124 0.010171 -0.103728 0.351000 -0.453867 -0.059253 -0.096536 -0.018357 0.178577 0.222725 -0.059604 0.219513 0.185483 0.333169 -0.028882 -0.167612 -0.019058 0.102556 -0.017013 -0.029252 0.180730 -0.080016 0.095825 -0.043691 0.189592 -0.134646 -0.032404 0.161412 -0.114574 -0.073004 0.132344 -0.242963 0.510730 -0.408551 -1.021328 -0.525566 -0.776349 -0.776513 -0.711976 0.119774 -0.724302 -0.326916 0.660900 0.174695 0.256523 0.015249 -0.519220 0.238862 0.031928 -0.367415 -0.330229 -0.575088 0.265825 0.579285 -0.635509 -0.423510 -0.051495 -0.280650 0.329290 0.609290 -0.381757 0.703762 -0.606251 -0.063586 -0.026241 -0.263738 0.158848 0.258002 0.600357 0.506786 0.312738 0.019583 -0.249974 0.505414 -0.326948 -0.277501 0.034469 -0.389399 0.206541 0.434800 -0.030795 -0.110283 0.175364 -0.226676 0.075219 0.054370 0.085077 0.034387 -0.211166 0.094063 0.181182 -0.263760 0.088970 -0.091907 -0.235389 0.127609 
BetoORourke 0.093118 -0.031455 0.244522 0.181851 0.659352 -0.058933 0.294250 0.149261 -0.209663 -0.516643 -0.119314 0.510546 0.036596 0.738975 -0.391325 0.133957 -0.179397 0.333571 -0.099809 0.618799 0.639311 0.159245 0.335183 -0.278608 -0.031064 -0.156714 0.054275 -0.078504 -0.218749 -0.445079 -0.537941 0.166247 0.141376 0.197139 0.662689 0.299895 -0.043085 -0.095479 -0.310405 -0.194836 0.407503 -0.180070 0.677138 0.199791 -0.454588 -0.156607 -0.012773 -0.267241 -0.313508 -0.361838 0.589963 0.409943 -0.141156 0.275997 0.406590 -0.554106 -0.446183 -0.497726 -0.274531 0.089633 -0.482901 0.309547 -0.477383 -0.149619 -0.162581 0.076704 0.018329 -0.272743 0.419126 -0.492864 0.249395 0.155363 -0.167869 0.263125 0.027929 -0.342666 0.029185 -0.105894 -0.205686 0.089123 0.224342 0.434669 0.092604 -0.026496 -0.226192 0.175752 -0.573415 0.204561 0.290710 0.100099 -0.476820 0.143987 0.036341 -0.347202 -0.006375 0.316227 0.277475 0.303264 -0.238003 -0.312494 0.071425 0.025898 0.080304 0.222293 -0.119153 0.031618 -0.125017 0.417075 -0.557732 -0.092746 -0.138161 -0.048950 0.266885 0.333305 -0.091136 0.336736 0.284660 0.481515 -0.018569 -0.208448 -0.044209 0.126234 0.010929 -0.059620 0.315546 -0.151333 0.226427 -0.054214 0.173094 -0.119997 -0.051602 0.121543 -0.070109 -0.076302 0.108530 -0.219842 0.305779 -0.232397 -0.585778 -0.306786 -0.448591 -0.457783 -0.395544 0.070959 -0.428934 -0.176272 0.395542 0.100824 0.151221 0.033542 -0.300113 0.157707 0.032312 -0.312768 -0.280998 -0.479415 0.218285 0.495548 -0.514993 -0.366777 -0.029646 -0.250222 0.279372 0.518832 -0.360972 0.595809 -0.512237 -0.063897 -0.012187 -0.203367 0.106096 0.209957 0.444333 0.373446 0.230483 0.001249 -0.211378 0.425802 -0.259586 -0.227938 0.009920 -0.321806 0.170023 0.376457 -0.101399 -0.145506 0.213722 -0.274384 0.066451 0.110462 0.129369 0.072324 -0.320596 0.122971 0.502256 -0.366103 0.120488 -0.140997 -0.360513 0.173407 
ConservativeDemocrat 0.053444 -0.039367 0.171606 0.130071 0.576468 0.000102 0.175012 0.091681 -0.127306 -0.378571 -0.133963 0.335331 0.019527 0.567507 -0.281696 0.079017 -0.168021 0.266335 -0.083977 0.473180 0.502532 0.106216 0.277573 -0.228741 -0.004357 -0.164540 0.047663 -0.041034 -0.165211 -0.412786 -0.485907 0.178719 0.127494 0.200094 0.709615 0.321203 -0.067317 -0.135652 -0.304930 -0.173043 0.296946 -0.170873 0.608897 0.187860 -0.356049 -0.091104 0.024453 -0.261076 -0.220800 -0.283785 0.524110 0.294030 -0.100170 0.232637 0.364116 -0.434481 -0.477913 -0.532620 -0.296463 0.098294 -0.512887 0.350966 -0.507029 -0.145692 -0.183327 0.076634 -0.052469 -0.269359 0.310355 -0.342170 0.099976 0.102705 -0.021996 0.087609 0.025403 -0.055335 0.053810 0.000041 -0.057583 0.036619 0.156036 0.240185 0.052009 -0.007742 -0.083513 0.078886 -0.351958 0.102375 0.174345 0.081585 -0.357321 0.075278 0.047330 -0.265126 -0.014225 0.209389 0.200906 0.160402 -0.177631 -0.170378 0.038829 0.015202 0.052253 0.153559 -0.105632 0.034916 -0.116115 0.409038 -0.559663 -0.091060 -0.105537 -0.018207 0.237324 0.298677 -0.075136 0.323543 0.259596 0.455373 -0.010410 -0.202888 -0.030499 0.112200 0.006450 -0.039725 0.265170 -0.128054 0.173533 -0.044842 0.214127 -0.144959 -0.057207 0.159260 -0.093096 -0.091584 0.148907 -0.277459 0.471101 -0.364259 -0.927378 -0.487167 -0.698185 -0.711505 -0.631876 0.103312 -0.641070 -0.267722 0.588398 0.146162 0.226596 0.050859 -0.446280 0.227154 0.043974 -0.331329 -0.290183 -0.488697 0.225694 0.513304 -0.536455 -0.379171 -0.025452 -0.239668 0.263943 0.504444 -0.349195 0.575040 -0.487561 -0.046342 0.003413 -0.233122 0.111361 0.251854 0.481254 0.414711 0.268535 0.000911 -0.272792 0.523521 -0.323197 -0.287012 -0.008881 -0.408733 0.202008 0.446787 -0.102282 -0.132028 0.224105 -0.275016 0.067150 0.103381 0.126642 0.085031 -0.450069 0.172944 0.503377 -0.547572 0.196468 -0.213388 -0.467849 0.233451 
