15 200
BaemyKlobaechar 0.418188 -0.199134 0.612236 0.208369 1.131772 -0.050128 0.475649 0.017717 0.158922 0.173794 -0.124075 -0.222812 -0.012510 -0.142263 0.173109 -0.119258 0.061524 -0.183750 0.063152 -0.237075 -0.244885 -0.136747 -0.119404 0.088982 0.029962 -0.034415 -0.017819 0.037634 0.004983 -0.115332 -0.117466 0.112708 -0.008104 -0.009909 0.208562 0.151299 -0.061282 -0.111728 -0.007823 -0.023198 0.080650 -0.127722 0.391881 0.089731 -0.194689 0.014729 0.101348 -0.246777 -0.056033 -0.137751 0.317464 0.069117 -0.040580 0.227890 0.195744 -0.182807 -0.077959 -0.100067 0.012285 0.005101 -0.023432 0.111194 -0.032158 -0.019749 -0.130732 -0.023575 -0.064989 -0.093466 0.008514 0.001095 -0.101881 0.018080 -0.064636 0.282325 -0.006486 -0.299219 0.109144 -0.046729 -0.254270 0.039936 0.347815 0.446516 0.165149 0.074443 -0.129858 0.175321 -0.754865 0.271692 0.314305 0.161591 -0.912498 0.137627 0.145551 -0.585432 0.083711 0.480029 0.509056 0.330842 -0.398427 -0.371816 0.099557 0.000388 0.241358 0.428671 -0.257337 0.060833 -0.069896 0.549290 -0.788422 -0.163726 -0.017426 0.054671 0.367799 0.426916 -0.130547 0.570388 0.436611 0.742964 0.016632 -0.195281 -0.156895 0.452677 0.128541 -0.143736 1.176793 -0.650956 0.984391 -0.306172 0.602025 -0.355225 -0.346352 0.444180 -0.119899 -0.200643 0.442378 -0.665227 0.368149 -0.154487 -0.617090 -0.262351 -0.445958 -0.508128 -0.405207 -0.000093 -0.414294 -0.157547 0.372055 0.042850 0.148509 0.165387 -0.256936 0.161588 0.183500 -0.317870 -0.212187 -0.393564 0.121264 0.455073 -0.448702 -0.347180 -0.026413 -0.263094 0.281990 0.461407 -0.468236 0.582118 -0.422988 -0.053637 -0.008014 -0.222593 0.003100 0.293527 0.451352 0.399604 0.226202 -0.055772 -0.306710 0.654800 -0.274058 -0.341423 -0.202198 -0.433391 0.220684 0.487955 -0.310061 -0.308299 0.365441 -0.604819 0.012726 0.118407 0.315183 0.116545 -0.600740 0.162782 0.524440 -0.661680 0.245110 -0.197143 -0.534450 0.308529 
politics 0.070964 -0.031256 0.439335 0.179655 0.906150 -0.194409 0.457522 0.172021 -0.248340 -0.557666 -0.044495 0.530109 0.100185 0.989104 -0.577193 0.190499 -0.160053 0.359484 -0.094471 0.682306 0.655895 0.213480 0.355382 -0.264579 -0.052157 -0.013557 0.026137 -0.120563 -0.266741 -0.422838 -0.485386 0.108597 0.098082 0.190738 0.601287 0.311108 -0.012262 -0.093738 -0.272516 -0.235040 0.289143 -0.134062 0.462156 0.138388 -0.356850 -0.109353 0.007667 -0.154465 -0.248408 -0.272301 0.403644 0.267467 -0.115305 0.258673 0.263454 -0.404235 -0.369159 -0.426910 -0.235994 0.044828 -0.463666 0.231949 -0.454191 -0.102406 -0.180594 -0.017587 0.044901 -0.224236 0.427596 -0.484654 0.326530 0.090605 -0.165028 0.278583 -0.000127 -0.403840 0.011026 -0.149273 -0.261902 0.078920 0.214827 0.455654 0.154403 -0.028768 -0.266998 0.185714 -0.629978 0.271181 0.223227 0.086236 -0.376160 0.111895 0.015289 -0.274531 -0.005192 0.236759 0.184438 0.164479 -0.135630 -0.204859 0.041633 0.006045 0.061894 0.140746 -0.099565 -0.027689 -0.166662 0.391660 -0.570811 -0.117006 -0.154236 -0.099533 0.291732 0.361682 -0.082565 0.342832 0.334628 0.554012 -0.034683 -0.242369 -0.152090 0.224825 -0.013485 -0.228626 0.694186 -0.326613 0.595239 -0.252245 0.298117 -0.186935 -0.065602 0.327497 -0.066182 -0.052386 0.331363 -0.367222 0.299275 -0.271125 -0.563052 -0.371072 -0.454870 -0.429903 -0.477861 0.071021 -0.470171 -0.170726 0.458836 0.066640 0.111112 -0.011721 -0.311332 0.113458 -0.032367 -0.188511 -0.255480 -0.401557 0.242512 0.349128 -0.433225 -0.297119 -0.012873 -0.187454 0.276744 0.447486 -0.291328 0.508534 -0.417496 -0.040517 -0.125222 -0.221721 0.067982 0.342137 0.730851 0.575160 0.350004 0.005029 -0.231307 0.663603 -0.354845 -0.403513 -0.072898 -0.437788 0.168393 0.484006 -0.168732 -0.194812 0.292611 -0.428972 0.050797 0.075731 0.223274 0.040493 -0.289343 0.079863 0.283940 -0.361242 0.105185 -0.095027 -0.363706 0.197600 
YangForPresidentHQ 0.251852 -0.022090 0.172800 0.059051 0.550313 -0.126977 0.309653 0.014443 -0.120510 -0.316525 -0.053065 0.261774 0.091946 0.736302 -0.413223 0.100398 -0.179470 0.330092 -0.083937 0.651290 0.623079 0.163000 0.368736 -0.249495 -0.044180 -0.004544 0.022675 -0.104131 -0.259535 -0.517828 -0.560462 0.164716 0.101641 0.218897 0.789724 0.413298 -0.056118 -0.187896 -0.286139 -0.254871 0.271852 -0.167374 0.539888 0.163198 -0.376437 -0.077954 0.044234 -0.228705 -0.232970 -0.291956 0.469687 0.248826 -0.127253 0.336489 0.285074 -0.408343 -0.428172 -0.524016 -0.281694 0.046741 -0.542980 0.309664 -0.516748 -0.118194 -0.239304 -0.053296 0.017393 -0.263947 0.475731 -0.545422 0.333642 0.084443 -0.093935 0.215746 0.001167 -0.302641 0.034127 -0.090232 -0.211134 0.044200 0.169834 0.287277 0.113421 0.015577 -0.132989 0.116656 -0.446459 0.191036 0.111295 0.057742 -0.323068 0.053734 0.050097 -0.197227 0.040557 0.159844 0.285897 0.216717 -0.201037 -0.254330 0.075899 -0.011717 0.143663 0.243694 -0.147727 -0.031754 -0.158842 0.418607 -0.610328 -0.145199 -0.133500 -0.075866 0.276961 0.343188 -0.097773 0.337785 0.326546 0.513824 -0.011206 -0.177035 -0.151770 0.273398 0.061209 -0.191625 0.816447 -0.424750 0.724479 -0.258291 0.384150 -0.238087 -0.185531 0.377117 -0.065950 -0.076106 0.385979 -0.451663 0.307942 -0.198611 -0.541111 -0.312209 -0.414500 -0.413438 -0.423930 0.022081 -0.493273 -0.166742 0.478346 0.048743 0.126443 0.067925 -0.335542 0.141070 0.032416 -0.112197 -0.087206 -0.162393 0.078562 0.159138 -0.170417 -0.137951 -0.010219 -0.092027 0.114388 0.190106 -0.182778 0.239575 -0.170254 -0.011710 -0.114798 -0.249135 0.038197 0.406228 0.764877 0.613844 0.365311 -0.021966 -0.286556 0.772661 -0.378533 -0.446860 -0.136943 -0.500686 0.196048 0.547836 -0.232203 -0.219390 0.338828 -0.502367 0.037368 0.088919 0.269708 0.055971 -0.380471 0.100805 0.332140 -0.404641 0.131091 -0.103927 -0.442251 0.240470 
SandersForPresident 0.126262 -0.050073 0.213821 0.066687 0.536796 -0.044114 0.195851 0.102657 -0.197277 -0.463862 -0.086369 0.409861 0.058248 0.612848 -0.343974 0.085659 -0.153991 0.273185 -0.080835 0.533842 0.527827 0.123668 0.300386 -0.223241 -0.019738 -0.049540 0.043660 -0.078146 -0.181566 -0.359186 -0.403738 0.103140 0.097576 0.163391 0.523603 0.232215 -0.015640 -0.084952 -0.229248 -0.160795 0.309043 -0.159756 0.556341 0.165619 -0.368802 -0.094990 0.016822 -0.192066 -0.268416 -0.318468 0.490490 0.328297 -0.137927 0.270244 0.322539 -0.455685 -0.545486 -0.643352 -0.351843 0.073162 -0.643135 0.413766 -0.620168 -0.151388 -0.271175 -0.001332 -0.005102 -0.342319 0.530622 -0.604715 0.300424 0.146840 -0.142782 0.249675 0.024386 -0.372248 0.013905 -0.114187 -0.244098 0.070379 0.238248 0.513114 0.166329 -0.024989 -0.254584 0.211907 -0.689320 0.283014 0.351885 0.140336 -0.667113 0.180562 0.017911 -0.457676 0.017167 0.397876 0.399550 0.372416 -0.315226 -0.405813 0.113122 0.003650 0.183347 0.326077 -0.099911 0.003361 -0.119544 0.340035 -0.465319 -0.093730 -0.122877 -0.049102 0.178457 0.253354 -0.072278 0.216411 0.209713 0.338697 -0.013839 -0.126100 -0.039171 0.118777 0.032932 -0.031772 0.291444 -0.173237 0.213209 -0.038012 0.146541 -0.099096 -0.077392 0.085000 -0.056436 -0.056829 0.097935 -0.199563 0.244467 -0.175331 -0.507657 -0.254612 -0.395477 -0.355924 -0.345071 0.027962 -0.340386 -0.127573 0.328398 0.059042 0.108039 0.037565 -0.245663 0.123089 0.032173 -0.186407 -0.140545 -0.242212 0.122196 0.261721 -0.257249 -0.220213 -0.024485 -0.105601 0.113883 0.230296 -0.222004 0.303894 -0.239566 -0.031820 -0.021570 -0.138166 0.025242 0.173984 0.354089 0.297295 0.191782 -0.012114 -0.183529 0.454543 -0.241599 -0.272592 -0.040797 -0.304535 0.148329 0.342272 -0.151918 -0.168904 0.292434 -0.362517 0.080823 0.116452 0.195034 0.070087 -0.394006 0.139909 0.382687 -0.432282 0.117167 -0.107054 -0.425521 0.222949 
centerleftpolitics 0.376410 -0.178015 0.660253 0.192130 1.001210 -0.038345 0.405599 -0.014542 0.072889 0.036927 -0.101237 -0.077652 0.018178 0.063545 0.037066 -0.075445 0.019769 -0.082541 0.034204 0.035328 -0.003237 -0.082814 0.010155 -0.004808 0.034143 -0.009224 0.003791 -0.013296 -0.099955 -0.225334 -0.261432 0.141018 0.039138 0.032759 0.373748 0.235787 -0.017405 -0.091541 -0.092704 -0.108814 0.224173 -0.192114 0.603470 0.140555 -0.332750 -0.017848 0.119837 -0.308104 -0.169098 -0.262826 0.460915 0.208884 -0.087050 0.323176 0.297461 -0.344786 -0.389525 -0.475283 -0.166799 0.033001 -0.391896 0.318124 -0.388932 -0.107260 -0.212157 -0.021933 -0.024925 -0.211577 0.269080 -0.258299 0.084805 0.093381 -0.067934 0.287802 -0.019975 -0.295279 0.102262 -0.074103 -0.255453 0.034334 0.391585 0.550063 0.211213 0.054559 -0.195497 0.216745 -0.890572 0.337126 0.360593 0.185185 -0.979016 0.165229 0.111515 -0.650733 0.062053 0.541237 0.427566 0.266702 -0.346739 -0.318645 0.087900 -0.003442 0.213258 0.365997 -0.200304 0.052751 -0.031028 0.410042 -0.562452 -0.094043 0.003743 0.045633 0.274043 0.311317 -0.108003 0.409760 0.337921 0.570923 -0.004535 -0.134254 -0.121312 0.344647 0.096367 -0.080270 0.858598 -0.508949 0.724808 -0.218780 0.431928 -0.252467 -0.269660 0.282207 -0.088698 -0.155853 0.277291 -0.475042 0.425298 -0.242254 -0.798763 -0.350847 -0.604408 -0.622846 -0.531220 0.015147 -0.501877 -0.183034 0.460465 0.068568 0.171603 0.156110 -0.318820 0.163456 0.140627 -0.320398 -0.218231 -0.398590 0.150088 0.472417 -0.460620 -0.360221 -0.026553 -0.256643 0.289336 0.480233 -0.471544 0.618556 -0.453276 -0.042758 -0.011581 -0.206777 0.005703 0.288636 0.431681 0.366003 0.221155 -0.025214 -0.279317 0.616192 -0.268248 -0.340534 -0.184886 -0.429548 0.202803 0.459399 -0.211698 -0.230042 0.239122 -0.426783 -0.011212 0.057732 0.196336 0.090989 -0.401519 0.116228 0.358036 -0.452079 0.159202 -0.144364 -0.301065 0.199001 
Pete_Buttigieg 0.267422 -0.117005 0.383365 0.178190 0.737262 -0.031262 0.471703 0.150357 -0.097931 -0.310653 -0.157399 0.248976 0.040118 0.342929 -0.135754 -0.027469 -0.144017 0.198476 -0.055422 0.448090 0.444042 0.044676 0.271937 -0.209486 0.019527 -0.116029 0.052869 -0.005785 -0.114906 -0.376987 -0.410391 0.189208 0.116880 0.103616 0.594822 0.293920 -0.070043 -0.165559 -0.171732 -0.144291 0.078348 -0.094042 0.342629 0.074810 -0.148780 0.017909 0.084172 -0.225842 -0.062048 -0.124375 0.281758 0.097214 -0.031371 0.188355 0.162701 -0.180508 -0.425487 -0.530571 -0.227044 0.064822 -0.452371 0.362953 -0.437338 -0.128801 -0.249936 -0.005187 -0.040403 -0.264264 0.391793 -0.431133 0.174594 0.095530 -0.038622 0.236940 -0.021524 -0.254865 0.082567 -0.038954 -0.184854 0.018411 0.234395 0.330847 0.125486 0.045509 -0.124128 0.155353 -0.534240 0.209758 0.222399 0.094248 -0.614779 0.095265 0.090269 -0.386271 0.075442 0.342050 0.344203 0.283204 -0.268825 -0.279786 0.078997 -0.000764 0.177762 0.314995 -0.206632 0.043396 -0.098523 0.477454 -0.656223 -0.139407 -0.088473 0.006934 0.273439 0.343300 -0.104257 0.396372 0.323555 0.528701 0.007899 -0.138131 -0.071315 0.272685 0.099749 -0.069024 0.703961 -0.399930 0.557668 -0.126787 0.387477 -0.241758 -0.229925 0.259915 -0.111847 -0.144193 0.285692 -0.473031 0.336251 -0.187594 -0.628403 -0.295566 -0.477130 -0.464477 -0.423501 0.022251 -0.386982 -0.167314 0.390955 0.035682 0.112109 0.069271 -0.297958 0.172088 0.110489 -0.255023 -0.203843 -0.314015 0.109190 0.373476 -0.341819 -0.297616 -0.049107 -0.160200 0.184447 0.295721 -0.344258 0.436231 -0.339099 -0.082458 -0.015273 -0.187591 0.014830 0.190658 0.398869 0.338006 0.191856 -0.048135 -0.270224 0.637254 -0.280040 -0.359971 -0.138857 -0.408880 0.241800 0.510763 -0.191548 -0.203407 0.209362 -0.340086 0.014449 0.096683 0.185640 0.081941 -0.367348 0.114507 0.294427 -0.364336 0.139065 -0.107514 -0.303959 0.175441 
moderatepolitics 0.149518 -0.075884 0.383602 0.188694 0.812271 -0.092146 0.407972 0.206102 -0.163188 -0.398117 -0.080608 0.361908 0.048085 0.514187 -0.278544 0.065881 -0.147916 0.256969 -0.081983 0.522374 0.509647 0.115979 0.287383 -0.219378 -0.015634 -0.052251 0.028808 -0.077023 -0.206776 -0.377861 -0.439176 0.138176 0.103141 0.142425 0.553348 0.275997 -0.019457 -0.081330 -0.232215 -0.189544 0.182924 -0.101919 0.371332 0.096194 -0.237176 -0.052865 0.026329 -0.153489 -0.154060 -0.193987 0.317647 0.188150 -0.075285 0.180997 0.206414 -0.279343 -0.340823 -0.405023 -0.214310 0.046879 -0.400759 0.258218 -0.393682 -0.097456 -0.168032 0.002907 0.006250 -0.211603 0.362529 -0.405260 0.220608 0.102343 -0.112948 0.245378 0.010725 -0.328258 0.038284 -0.097603 -0.214310 0.049012 0.202948 0.391664 0.115558 -0.009296 -0.202860 0.170922 -0.536640 0.226559 0.175902 0.066998 -0.413143 0.075531 0.046647 -0.265871 0.047649 0.244621 0.180549 0.168699 -0.135244 -0.165114 0.050930 0.015102 0.083863 0.173449 -0.086912 0.014249 -0.061182 0.210884 -0.280754 -0.062034 -0.061812 0.000042 0.165933 0.221997 -0.056024 0.223647 0.176165 0.317008 -0.014759 -0.104341 -0.158998 0.304204 0.039524 -0.202964 0.906774 -0.450619 0.736337 -0.231808 0.411306 -0.251554 -0.179268 0.383599 -0.122145 -0.078011 0.407381 -0.513728 0.331042 -0.255081 -0.619183 -0.362738 -0.492688 -0.459097 -0.495905 0.051650 -0.348015 -0.151864 0.368020 0.020959 0.078683 -0.022710 -0.261948 0.114854 0.003637 -0.232364 -0.265356 -0.393115 0.220020 0.383459 -0.435091 -0.327809 -0.025631 -0.197090 0.273769 0.441087 -0.341085 0.537466 -0.450747 -0.059447 -0.057085 -0.198686 0.036694 0.257532 0.561298 0.461442 0.286790 -0.016336 -0.238354 0.620115 -0.321016 -0.380762 -0.058110 -0.410772 0.198682 0.466738 -0.115927 -0.138195 0.231643 -0.296758 0.055700 0.079063 0.154577 0.048312 -0.314654 0.105359 0.282636 -0.329398 0.093531 -0.066730 -0.327586 0.181321 
ElizabethWarren 0.123171 -0.134476 0.174650 -0.010771 0.172789 -0.004863 0.009499 0.034523 -0.071867 -0.286976 -0.121567 0.183572 0.031560 0.333059 -0.177984 0.036097 -0.135138 0.186732 -0.059881 0.268026 0.277866 0.050847 0.161695 -0.106061 -0.011080 -0.040875 0.039637 -0.041572 -0.088619 -0.288194 -0.286408 0.075485 0.035087 0.139364 0.380285 0.134830 -0.037350 -0.117102 -0.116297 -0.049644 0.249633 -0.168647 0.547106 0.196614 -0.352547 -0.082312 0.031800 -0.198478 -0.210199 -0.271508 0.484284 0.215616 -0.128624 0.268088 0.310236 -0.407295 -0.343600 -0.384267 -0.230084 0.037141 -0.409480 0.291802 -0.384662 -0.078360 -0.163047 -0.010587 -0.037892 -0.192801 0.232062 -0.282429 0.097555 0.070948 -0.094881 0.100747 0.027623 -0.169618 0.004740 -0.057242 -0.117574 0.056347 0.144596 0.310109 0.100691 0.003358 -0.115213 0.110836 -0.414028 0.147887 0.446372 0.187969 -0.906622 0.239748 0.042474 -0.604903 0.038583 0.507574 0.577063 0.449946 -0.440304 -0.522700 0.144796 -0.025127 0.267359 0.455447 -0.208778 0.009889 -0.218844 0.645455 -0.947982 -0.242790 -0.168694 -0.093188 0.403642 0.510572 -0.127577 0.562227 0.476501 0.789135 -0.004067 -0.267125 -0.110348 0.229293 0.050895 -0.129083 0.626486 -0.324975 0.551170 -0.190460 0.367908 -0.236330 -0.172447 0.321659 -0.057398 -0.112982 0.301674 -0.412493 0.319420 -0.200222 -0.527547 -0.297615 -0.391600 -0.455361 -0.387393 0.031360 -0.456436 -0.141783 0.416534 0.060613 0.148840 0.107595 -0.268129 0.135583 0.071431 -0.252615 -0.219756 -0.414378 0.185401 0.406739 -0.439637 -0.321172 0.010070 -0.223793 0.240725 0.428252 -0.341207 0.462597 -0.353662 -0.032858 -0.020700 -0.078478 -0.000248 0.124382 0.199722 0.183217 0.104636 -0.021897 -0.059208 0.159449 -0.064103 -0.067813 -0.057129 -0.085980 0.027162 0.112426 -0.235456 -0.217262 0.410358 -0.530231 0.088079 0.140565 0.294687 0.087670 -0.494479 0.144940 0.466813 -0.565785 0.155084 -0.140908 -0.585951 0.319796 
progressive 0.297690 -0.118151 0.251034 0.104215 0.534718 0.012613 0.060142 0.084967 -0.083935 -0.372755 -0.197516 0.255211 0.062085 0.569900 -0.255620 0.016410 -0.161986 0.217264 -0.051228 0.402259 0.415972 0.052506 0.258906 -0.172259 -0.014383 -0.027303 0.008847 -0.056625 -0.173522 -0.394661 -0.457550 0.165389 0.060072 0.104381 0.554576 0.311330 -0.052727 -0.151054 -0.189423 -0.170835 0.135831 -0.142240 0.464206 0.121510 -0.263409 -0.018841 0.076426 -0.249139 -0.106552 -0.190341 0.394535 0.131277 -0.087053 0.267528 0.244061 -0.265311 -0.351493 -0.428556 -0.197427 0.045360 -0.365663 0.328261 -0.351703 -0.103906 -0.274789 -0.045988 -0.075728 -0.270252 0.264487 -0.334544 0.048477 0.087198 -0.047396 0.212151 0.002599 -0.265154 0.068157 -0.045182 -0.190627 0.031831 0.167205 0.168096 0.065754 0.067820 -0.023863 0.091181 -0.338092 0.114707 0.193086 0.092147 -0.578238 0.085575 0.095430 -0.352792 0.064571 0.295738 0.295511 0.188832 -0.227133 -0.196116 0.053036 -0.000839 0.139794 0.240270 -0.216973 0.044099 -0.103237 0.532552 -0.765048 -0.171008 -0.072704 0.017251 0.320422 0.399368 -0.111109 0.495132 0.384554 0.645572 0.018986 -0.191945 -0.041855 0.185275 0.070130 -0.018679 0.443697 -0.259154 0.368845 -0.098463 0.258002 -0.151137 -0.169706 0.165343 -0.047823 -0.089609 0.169680 -0.270462 0.269183 -0.110189 -0.454298 -0.199815 -0.335569 -0.367360 -0.303714 -0.005268 -0.342586 -0.121560 0.319812 0.032872 0.118273 0.125419 -0.215869 0.139709 0.154654 -0.277286 -0.213495 -0.376633 0.129112 0.404735 -0.409061 -0.329130 -0.026146 -0.234638 0.252724 0.416442 -0.432121 0.524924 -0.391647 -0.074740 -0.013387 -0.184172 -0.006743 0.228091 0.397962 0.361743 0.201519 -0.065563 -0.214866 0.509611 -0.203175 -0.259809 -0.141373 -0.307108 0.180932 0.379085 -0.251851 -0.236785 0.298772 -0.480702 0.021453 0.108968 0.276869 0.084518 -0.388211 0.086819 0.340846 -0.443970 0.173634 -0.109660 -0.385337 0.213666 
JoeBiden 0.532178 -0.185007 0.712737 0.253631 1.416206 -0.087265 0.682820 0.020600 0.169108 0.209761 -0.131720 -0.269712 -0.004812 -0.280630 0.272571 -0.178571 0.099302 -0.260721 0.103793 -0.298291 -0.324597 -0.193015 -0.164913 0.110424 0.037762 -0.049704 -0.013892 0.049928 -0.014936 -0.172725 -0.167886 0.168847 0.023501 -0.012616 0.326198 0.251013 -0.085875 -0.145311 -0.022178 -0.069008 0.088970 -0.158692 0.460800 0.079867 -0.213314 0.040093 0.138568 -0.286537 -0.072035 -0.159739 0.358389 0.094846 -0.025154 0.273108 0.230155 -0.195052 -0.155650 -0.209700 -0.010392 0.009649 -0.088812 0.160059 -0.112686 -0.041818 -0.193328 -0.031177 -0.061847 -0.160833 0.112694 -0.100080 -0.048342 0.043397 -0.055673 0.385087 -0.019306 -0.358462 0.151275 -0.063083 -0.323449 0.030478 0.440146 0.488446 0.177213 0.101044 -0.134730 0.197874 -0.903168 0.325671 0.150766 0.119125 -0.729647 0.034290 0.165041 -0.451134 0.083528 0.366374 0.468286 0.273964 -0.373769 -0.310414 0.099254 0.005747 0.233610 0.421079 -0.239486 0.048027 -0.005214 0.422860 -0.584925 -0.096354 0.050848 0.108802 0.301829 0.338694 -0.130764 0.478640 0.361883 0.610196 0.008202 -0.123025 -0.155708 0.478384 0.150339 -0.109340 1.199664 -0.697208 1.003220 -0.299316 0.594505 -0.352839 -0.375428 0.429806 -0.124458 -0.197594 0.428444 -0.661223 0.425355 -0.168231 -0.767239 -0.293698 -0.551988 -0.588104 -0.485626 -0.015866 -0.622271 -0.234663 0.563399 0.078955 0.211516 0.210513 -0.413812 0.210732 0.215135 -0.348585 -0.147702 -0.336904 0.078197 0.434780 -0.388519 -0.330525 -0.042067 -0.233967 0.211495 0.401786 -0.476406 0.545159 -0.366773 -0.024617 0.007914 -0.199112 -0.003157 0.284052 0.356674 0.322402 0.166893 -0.037143 -0.312271 0.590524 -0.236833 -0.302685 -0.238794 -0.432386 0.211781 0.438330 -0.298481 -0.325013 0.281517 -0.561486 -0.035743 0.064700 0.266527 0.118249 -0.569640 0.157222 0.491740 -0.655699 0.241536 -0.221157 -0.430848 0.269257 
Kamala 0.630798 -0.216086 0.821777 0.248429 1.372661 -0.044760 0.602828 -0.090396 0.230028 0.322385 -0.126949 -0.333756 -0.003070 -0.111725 0.185683 -0.153097 0.127382 -0.296216 0.118071 -0.290477 -0.323552 -0.191459 -0.155644 0.116761 0.043182 -0.037518 -0.018305 0.026021 -0.058543 -0.204003 -0.260438 0.189005 0.027868 -0.008906 0.395370 0.282878 -0.055769 -0.137765 -0.075767 -0.112841 0.118875 -0.152418 0.497379 0.089107 -0.241845 0.026209 0.142498 -0.358343 -0.058311 -0.175148 0.376647 0.104819 -0.050950 0.308562 0.235601 -0.210951 -0.210009 -0.288963 -0.029190 0.018349 -0.146896 0.199361 -0.150500 -0.078082 -0.192084 -0.032927 -0.050952 -0.151512 0.123291 -0.106109 -0.041494 0.052561 -0.078412 0.450745 -0.033412 -0.464299 0.164658 -0.086586 -0.375511 0.044384 0.554018 0.745137 0.277167 0.101236 -0.267597 0.326580 -1.241579 0.470017 0.272973 0.155209 -0.976642 0.097400 0.181672 -0.613771 0.117871 0.522216 0.435461 0.253945 -0.345635 -0.270598 0.085732 0.007509 0.223676 0.397251 -0.239730 0.106702 0.087944 0.320008 -0.420253 -0.053361 0.129288 0.167668 0.220564 0.215009 -0.096555 0.419160 0.263869 0.473083 0.020224 -0.036507 -0.103767 0.415453 0.148425 -0.016186 0.971680 -0.598789 0.818699 -0.212792 0.496438 -0.282281 -0.350562 0.278658 -0.100177 -0.186754 0.268660 -0.504234 0.428961 -0.158811 -0.757772 -0.270652 -0.547824 -0.610334 -0.455052 -0.018704 -0.452774 -0.178326 0.401593 0.057414 0.173564 0.230903 -0.295049 0.186394 0.239176 -0.312594 -0.137612 -0.290511 0.032617 0.409164 -0.345431 -0.293218 -0.044763 -0.248239 0.240514 0.399808 -0.492603 0.565447 -0.384002 -0.052730 0.009930 -0.249524 -0.002093 0.325645 0.442569 0.392122 0.213222 -0.058058 -0.371021 0.770277 -0.305352 -0.396525 -0.277063 -0.534568 0.278446 0.582610 -0.296325 -0.317519 0.266612 -0.551716 -0.050797 0.065934 0.262015 0.122214 -0.563956 0.150265 0.473666 -0.622275 0.243052 -0.209326 -0.397106 0.253735 
SocialDemocracy 0.152085 -0.074825 0.324029 0.135613 0.558164 0.000709 0.189654 0.098823 -0.026414 -0.147423 -0.085403 0.133492 0.002489 0.059272 0.013005 -0.021738 -0.016283 -0.008791 0.002178 0.068580 0.081497 -0.037483 0.027282 -0.022118 -0.004007 -0.082010 0.051193 -0.050000 -0.144732 -0.357104 -0.379965 0.150560 0.113462 0.105359 0.496257 0.238580 -0.034403 -0.093039 -0.170877 -0.131533 0.201608 -0.137163 0.474905 0.118642 -0.266422 -0.042455 0.047788 -0.197284 -0.174237 -0.233236 0.399824 0.232389 -0.092476 0.210929 0.268715 -0.328710 -0.365067 -0.434108 -0.201447 0.044835 -0.369891 0.305110 -0.376823 -0.105893 -0.198547 0.009123 -0.034287 -0.247359 0.307001 -0.348915 0.103093 0.126619 -0.105829 0.265081 0.016544 -0.342992 0.036440 -0.107023 -0.213652 0.039981 0.220825 0.435160 0.118404 -0.007538 -0.225042 0.211104 -0.595251 0.255914 0.234774 0.098779 -0.578916 0.108672 0.031413 -0.363893 0.056685 0.347693 0.297159 0.280229 -0.240898 -0.276042 0.102937 0.006995 0.159406 0.277130 -0.152407 0.036293 -0.093360 0.377441 -0.497667 -0.114408 -0.093721 -0.005499 0.257017 0.356918 -0.109853 0.367341 0.291411 0.499478 -0.014339 -0.132507 -0.120031 0.277934 0.068142 -0.108702 0.752209 -0.415735 0.598340 -0.139111 0.369271 -0.235677 -0.202302 0.284414 -0.118327 -0.096618 0.306028 -0.466388 0.356885 -0.232119 -0.690479 -0.333330 -0.536691 -0.513989 -0.482248 0.034608 -0.464825 -0.185854 0.462926 0.053967 0.142163 0.058576 -0.328832 0.166609 0.076536 -0.429849 -0.392241 -0.636181 0.312173 0.659825 -0.689087 -0.553120 -0.041945 -0.327909 0.391366 0.682909 -0.603308 0.845977 -0.690774 -0.103051 -0.022462 -0.237251 0.025798 0.280260 0.566717 0.489818 0.297037 -0.031088 -0.284369 0.686102 -0.341671 -0.403710 -0.086362 -0.463478 0.254394 0.537995 -0.186312 -0.219481 0.334069 -0.423805 0.087578 0.141321 0.229753 0.100643 -0.537368 0.191077 0.485979 -0.545364 0.149372 -0.132213 -0.507732 0.278322 
demsocialist 0.208252 -0.059346 0.363575 0.175625 0.844330 -0.069199 0.396806 0.175224 -0.089600 -0.244244 -0.073295 0.210269 0.036733 0.197869 -0.076710 -0.003620 -0.056264 0.077073 -0.017918 0.233941 0.230081 0.005335 0.119754 -0.086463 -0.020607 -0.069810 0.061498 -0.072618 -0.198609 -0.451509 -0.472059 0.168720 0.144256 0.151953 0.645847 0.325214 -0.043899 -0.130958 -0.224836 -0.196904 0.188835 -0.133166 0.436396 0.100385 -0.254759 -0.035992 0.050740 -0.175011 -0.175694 -0.221018 0.366346 0.222226 -0.081723 0.218963 0.236997 -0.307462 -0.544019 -0.668463 -0.325807 0.067633 -0.617727 0.433884 -0.614541 -0.147598 -0.303954 -0.017577 -0.012277 -0.358139 0.551938 -0.614933 0.301928 0.149928 -0.081961 0.236145 0.010125 -0.303922 0.038630 -0.095964 -0.201427 0.024302 0.176200 0.312482 0.093606 0.003992 -0.163370 0.151012 -0.457495 0.209068 0.043713 0.033631 -0.212292 0.014110 0.013928 -0.117834 0.026509 0.120931 0.155502 0.142970 -0.132429 -0.143432 0.063900 0.004711 0.101324 0.161975 -0.112331 -0.012048 -0.100504 0.317686 -0.406303 -0.098609 -0.100761 -0.029799 0.170029 0.245714 -0.082085 0.220767 0.221145 0.354188 -0.017222 -0.101192 -0.090649 0.204182 0.047212 -0.093005 0.572013 -0.316573 0.458654 -0.127511 0.266009 -0.164861 -0.159398 0.225181 -0.088772 -0.073900 0.247931 -0.346655 0.345149 -0.248930 -0.701705 -0.353915 -0.552800 -0.502939 -0.512878 0.029457 -0.549945 -0.195936 0.546690 0.066220 0.154210 0.059658 -0.380659 0.160119 0.062819 -0.331853 -0.275232 -0.469661 0.232985 0.487955 -0.508955 -0.414193 -0.034082 -0.250565 0.291505 0.518090 -0.472994 0.646500 -0.514085 -0.067463 -0.041241 -0.219426 0.022263 0.296372 0.557502 0.468071 0.277235 -0.022641 -0.267706 0.649363 -0.315586 -0.377735 -0.106604 -0.442110 0.224977 0.492427 -0.225187 -0.259259 0.344850 -0.485921 0.065510 0.126821 0.252288 0.097569 -0.509707 0.175643 0.478182 -0.565131 0.151173 -0.147791 -0.510772 0.279792 
BetoORourke 0.327930 -0.141186 0.489533 0.166865 0.988003 -0.075741 0.398515 0.091664 -0.046143 -0.222777 -0.114005 0.155415 0.040678 0.344852 -0.147847 0.009681 -0.075064 0.094836 -0.022409 0.222589 0.217014 0.014193 0.128319 -0.086308 -0.017251 -0.046034 0.017005 -0.050376 -0.147911 -0.348026 -0.381854 0.135266 0.067737 0.125364 0.511379 0.262718 -0.050931 -0.127319 -0.181129 -0.140039 0.263530 -0.187696 0.605777 0.172016 -0.381940 -0.069314 0.059457 -0.261991 -0.220990 -0.297104 0.513145 0.255816 -0.124206 0.319901 0.328969 -0.417643 -0.375047 -0.441334 -0.216728 0.044633 -0.412045 0.311320 -0.408427 -0.100998 -0.231245 -0.021989 -0.036725 -0.256705 0.321490 -0.374124 0.136991 0.094801 -0.127588 0.288211 0.020154 -0.383007 0.056916 -0.100642 -0.276641 0.061880 0.289690 0.490623 0.162797 0.024015 -0.201716 0.196485 -0.728520 0.287576 0.319454 0.152320 -0.763963 0.159151 0.072787 -0.498611 0.044354 0.417918 0.461817 0.350744 -0.366254 -0.402168 0.114143 0.002236 0.221969 0.384119 -0.216443 0.019989 -0.162028 0.585096 -0.832989 -0.197137 -0.123293 -0.035005 0.367562 0.463148 -0.130051 0.522621 0.438069 0.735694 -0.003790 -0.230975 -0.136534 0.334904 0.075476 -0.140760 0.907442 -0.486073 0.754646 -0.244147 0.438867 -0.260396 -0.235883 0.353107 -0.093535 -0.138941 0.353237 -0.500107 0.411765 -0.251849 -0.756553 -0.379692 -0.567772 -0.592691 -0.539492 0.026401 -0.584133 -0.195655 0.542497 0.077127 0.185915 0.141737 -0.362088 0.175874 0.112861 -0.287170 -0.208646 -0.391365 0.160378 0.418187 -0.440045 -0.330253 -0.010937 -0.241115 0.262258 0.452886 -0.404837 0.530181 -0.399157 -0.033831 -0.010596 -0.154123 0.009715 0.225251 0.342810 0.301141 0.172939 -0.030766 -0.205447 0.441460 -0.199737 -0.231841 -0.113923 -0.297264 0.137179 0.321266 -0.232431 -0.241741 0.333527 -0.498052 0.037247 0.114127 0.258490 0.093650 -0.459433 0.129375 0.443860 -0.538540 0.178351 -0.156023 -0.467451 0.256477 
ConservativeDemocrat 0.190765 -0.094305 0.318299 0.102988 0.570446 -0.038669 0.247239 0.067058 -0.078307 -0.245248 -0.096933 0.190159 0.039125 0.351212 -0.171590 0.013631 -0.092692 0.135745 -0.036319 0.299777 0.289285 0.041102 0.170678 -0.126521 -0.003349 -0.045203 0.032693 -0.046580 -0.141009 -0.339680 -0.356117 0.132178 0.079295 0.120738 0.501520 0.252085 -0.039655 -0.119650 -0.161265 -0.136032 0.196022 -0.137572 0.460067 0.124564 -0.274313 -0.038818 0.057801 -0.200762 -0.164625 -0.220685 0.384384 0.193402 -0.084359 0.239396 0.242044 -0.313415 -0.307353 -0.366031 -0.170811 0.038005 -0.337333 0.250820 -0.326463 -0.087158 -0.177428 -0.011302 -0.023369 -0.191963 0.258758 -0.293438 0.112788 0.078342 -0.108801 0.246163 0.005563 -0.331725 0.040084 -0.098015 -0.226939 0.053906 0.247890 0.460356 0.161485 0.002918 -0.214294 0.195182 -0.661220 0.268914 0.338412 0.142008 -0.744250 0.169685 0.052471 -0.495690 0.040413 0.421937 0.433881 0.355977 -0.337023 -0.396765 0.107775 -0.007368 0.205378 0.361839 -0.180399 0.013981 -0.148756 0.500656 -0.713309 -0.158581 -0.127233 -0.045254 0.321243 0.409645 -0.111666 0.434473 0.377337 0.627294 -0.006897 -0.205998 -0.113708 0.278248 0.065042 -0.128114 0.750175 -0.403857 0.622995 -0.195161 0.371199 -0.230603 -0.190628 0.291166 -0.084077 -0.114531 0.297783 -0.440268 0.346015 -0.221110 -0.638683 -0.329172 -0.489087 -0.495102 -0.454957 0.031744 -0.472712 -0.161754 0.446336 0.063458 0.145434 0.100085 -0.304779 0.155579 0.078176 -0.278798 -0.223798 -0.396736 0.183089 0.416494 -0.433933 -0.341353 -0.021621 -0.220186 0.248136 0.436627 -0.387157 0.529678 -0.403364 -0.045206 -0.032224 -0.171788 0.021830 0.234346 0.416158 0.343366 0.204559 -0.022057 -0.209226 0.496247 -0.237690 -0.280064 -0.104108 -0.339714 0.159322 0.374638 -0.202059 -0.208621 0.291450 -0.418247 0.042282 0.105027 0.219391 0.083536 -0.389620 0.125668 0.372714 -0.444713 0.140460 -0.130995 -0.395737 0.221551 
