15 200
BaemyKlobaechar 0.061407 -0.025367 -0.035901 0.070971 -0.103911 0.079646 -0.054837 -0.057244 0.050572 -0.366077 -0.168522 0.403861 -0.038136 0.568794 -0.278249 0.124974 -0.090938 0.146806 -0.045258 0.328198 0.332826 0.100330 0.177277 -0.107320 -0.000326 -0.054894 -0.144627 0.028915 -0.068518 -0.129249 -0.170049 0.175944 -0.022944 -0.029400 0.277150 0.143964 -0.120127 -0.102291 -0.134334 -0.058207 0.026302 0.021103 0.124787 0.092384 -0.141850 -0.028585 0.017447 -0.250469 -0.029123 -0.159913 0.218640 0.042091 -0.197702 0.124354 0.145394 -0.245811 -0.232253 -0.091982 -0.058981 0.021088 -0.136355 0.144029 -0.157745 -0.073057 0.036267 0.030963 -0.051435 0.002712 -0.093524 0.168971 -0.187145 0.010829 -0.063921 0.474337 -0.130398 -0.375570 0.091979 0.071885 -0.418798 0.001216 0.389080 0.428262 0.094905 0.197943 -0.092173 0.164914 -0.717071 0.187431 0.236699 0.088573 -0.558262 0.129332 0.114422 -0.318281 0.031971 0.335726 0.146100 0.147134 -0.314824 -0.283783 -0.074657 0.229020 0.141940 0.123934 -0.224328 0.114664 -0.005167 0.446046 -0.675318 -0.208037 0.015509 0.210790 0.094416 0.189649 -0.038435 0.554950 0.245855 0.587008 0.068922 -0.056813 -0.011466 0.321308 -0.016164 0.017075 0.947748 -0.478334 0.589506 -0.261350 0.428884 -0.007601 -0.213211 0.181231 0.019439 -0.223278 0.357295 -0.398645 0.331334 -0.198239 -0.693681 -0.379193 -0.475226 -0.553213 -0.624957 0.246699 -0.574881 -0.258303 0.560132 -0.025684 -0.002481 0.228554 -0.152244 0.132844 0.249127 -0.083573 -0.192308 -0.117238 -0.082069 0.263571 -0.366827 -0.136654 -0.040071 -0.206042 0.449505 0.390495 -0.269266 0.444046 -0.329564 -0.075459 0.042939 -0.139484 -0.024449 0.292710 0.376845 0.286947 0.062023 -0.149726 -0.307089 0.528106 -0.243902 -0.236992 -0.150542 -0.207434 0.050453 0.311856 -0.016468 -0.280698 0.584255 -0.658601 -0.149581 0.521564 0.570717 0.194432 -0.577545 -0.060945 0.635326 -0.575796 0.578799 -0.125742 -0.639618 0.272716 
politics 0.122430 -0.231527 0.155383 0.031920 0.634870 -0.011184 0.445297 0.281478 -0.049204 -0.471997 -0.127401 0.502598 -0.004167 0.601617 -0.342842 0.165210 -0.153164 0.315087 -0.079406 0.458757 0.487913 0.207142 0.227532 -0.156492 -0.136822 -0.080826 -0.192828 -0.143308 -0.296500 -0.490839 -0.507688 0.175887 0.056477 0.211756 0.936896 0.407190 -0.242233 -0.241652 -0.437140 -0.289601 0.398034 -0.024078 0.679809 0.369480 -0.732709 -0.285668 -0.089475 -0.401600 -0.224364 -0.337169 0.519399 0.218145 -0.365101 0.242934 0.282415 -0.624215 -0.732929 -0.500339 -0.491252 0.207191 -0.870702 0.508942 -0.845247 -0.224087 -0.281282 0.040104 -0.093174 -0.240116 0.356966 -0.731167 0.266795 0.044410 -0.157215 0.336127 -0.029977 -0.396948 0.020488 -0.045213 -0.350120 0.053680 0.261208 0.447560 0.076369 0.079342 -0.224427 0.183148 -0.611635 0.203916 0.398383 0.132589 -0.666952 0.251029 0.036343 -0.368780 -0.016273 0.374681 0.252510 0.252408 -0.330424 -0.418699 -0.000707 0.172968 0.163654 0.193168 -0.105524 -0.009305 -0.095233 0.317184 -0.443625 -0.151864 -0.097041 0.032266 0.088255 0.159563 -0.019612 0.258248 0.164323 0.351912 0.001079 -0.102952 -0.034848 0.202543 -0.060137 -0.080727 0.601965 -0.256144 0.388719 -0.217920 0.301363 -0.045464 -0.103554 0.228779 -0.031013 -0.123222 0.323568 -0.303146 0.163270 -0.152226 -0.333587 -0.230123 -0.261327 -0.269808 -0.360813 0.106660 -0.290822 -0.110518 0.282939 0.014977 0.022092 0.041282 -0.107721 0.031839 0.116729 -0.114468 -0.232927 -0.314014 0.116491 0.277435 -0.503011 -0.229663 -0.019906 -0.232226 0.436652 0.493360 -0.226919 0.454592 -0.361465 -0.042481 -0.063484 -0.162912 0.017707 0.421469 0.701216 0.543207 0.175785 -0.128739 -0.219417 0.548602 -0.321935 -0.275061 0.003852 -0.285360 0.068477 0.303249 -0.002333 -0.079748 0.213503 -0.232902 0.033442 0.096965 0.155198 0.018964 -0.281991 0.010952 0.307157 -0.328638 0.190183 -0.049645 -0.407126 0.180959 
YangForPresidentHQ 0.107118 -0.182839 0.181410 0.019328 0.473906 -0.017224 0.352729 0.182686 -0.042149 -0.516170 -0.143076 0.569966 -0.033343 0.628253 -0.374972 0.185295 -0.141937 0.281582 -0.060614 0.379412 0.426318 0.190647 0.208071 -0.142381 -0.086832 -0.040223 -0.119558 -0.090083 -0.189163 -0.314842 -0.319118 0.099868 0.034717 0.134011 0.558598 0.235893 -0.149033 -0.145356 -0.270072 -0.176753 0.339830 -0.020727 0.570277 0.325478 -0.588223 -0.227667 -0.081238 -0.284267 -0.166019 -0.234221 0.355629 0.157799 -0.256314 0.155824 0.188463 -0.434608 -0.295386 -0.196247 -0.212249 0.081268 -0.370988 0.201911 -0.359122 -0.082185 -0.186716 0.020312 -0.063634 -0.155567 0.242567 -0.501917 0.191563 0.013454 -0.110675 0.297741 -0.034112 -0.343664 0.010300 -0.022547 -0.309830 0.031934 0.224749 0.393002 0.075618 0.073563 -0.193620 0.164085 -0.546857 0.189102 0.390563 0.115403 -0.627102 0.256007 0.020288 -0.329290 -0.016072 0.347014 0.269970 0.281381 -0.351176 -0.451017 -0.012798 0.178167 0.184888 0.179886 -0.131479 0.001848 -0.085436 0.363901 -0.544812 -0.197377 -0.092900 0.070395 0.076118 0.186939 -0.021589 0.348850 0.201957 0.430999 0.036658 -0.104522 -0.025567 0.234820 -0.045023 -0.086725 0.721746 -0.316723 0.472463 -0.261017 0.322970 -0.029788 -0.121507 0.215513 0.005331 -0.128960 0.355705 -0.321996 0.239668 -0.199874 -0.488840 -0.352981 -0.376308 -0.389602 -0.531282 0.177715 -0.500188 -0.172041 0.495285 0.001273 0.006646 0.124802 -0.144153 0.078030 0.128704 -0.122783 -0.281973 -0.381498 0.157515 0.303918 -0.592456 -0.285513 -0.021947 -0.216462 0.401677 0.475772 -0.222325 0.422440 -0.330558 -0.053606 -0.051418 -0.087922 0.005529 0.264183 0.441876 0.337713 0.109421 -0.076482 -0.088095 0.243169 -0.157819 -0.134739 0.015439 -0.132835 0.018275 0.119976 -0.010255 -0.080373 0.198831 -0.209457 -0.003939 0.136241 0.173035 0.041525 -0.214938 -0.002914 0.250906 -0.263066 0.193085 -0.038784 -0.319794 0.151329 
SandersForPresident 0.052343 -0.169383 0.130027 -0.011461 0.615791 -0.077148 0.470191 0.258534 -0.037354 -0.408692 -0.152517 0.472615 -0.033740 0.495319 -0.316575 0.141238 -0.146187 0.317165 -0.027615 0.366317 0.428155 0.212553 0.229875 -0.173974 -0.102305 -0.052228 -0.184861 -0.083265 -0.253564 -0.422116 -0.479730 0.176810 0.054314 0.097836 0.750194 0.328995 -0.217502 -0.236431 -0.330464 -0.260641 0.283194 0.003628 0.568023 0.351633 -0.608029 -0.207622 -0.054209 -0.393337 -0.217333 -0.317976 0.542041 0.197265 -0.385744 0.278811 0.222035 -0.656146 -0.577138 -0.395405 -0.378321 0.198905 -0.678205 0.409130 -0.608840 -0.203395 -0.201899 0.013774 -0.096382 -0.113414 0.194768 -0.491591 0.159225 -0.044716 -0.092524 0.351261 -0.110620 -0.378316 0.048749 -0.013058 -0.318270 0.034569 0.245367 0.380277 0.129807 0.135280 -0.172149 0.179108 -0.584979 0.190629 0.339860 0.057695 -0.463730 0.235310 0.031423 -0.232676 -0.010262 0.263425 0.253904 0.270213 -0.302031 -0.420921 -0.046431 0.123208 0.151682 0.134198 -0.244318 0.037399 -0.055260 0.514070 -0.798235 -0.262998 -0.109229 0.109755 0.135737 0.243892 -0.030462 0.522428 0.292365 0.556570 0.086969 -0.121964 0.004938 0.197030 0.009256 -0.079126 0.555091 -0.242998 0.415712 -0.215506 0.233237 -0.042779 -0.071937 0.126248 0.044302 -0.091558 0.218338 -0.195099 0.240344 -0.124636 -0.408013 -0.285384 -0.279287 -0.372869 -0.409972 0.177052 -0.403688 -0.145936 0.392725 -0.010586 -0.020930 0.189056 -0.095391 0.111324 0.188629 -0.075924 -0.180931 -0.206206 -0.009910 0.230193 -0.371087 -0.161763 -0.044389 -0.233499 0.406378 0.425239 -0.270064 0.416261 -0.291129 -0.109737 -0.050973 -0.119264 0.019825 0.283334 0.456595 0.309842 0.028688 -0.143592 -0.213591 0.511642 -0.257883 -0.185426 -0.077692 -0.197867 0.051343 0.312356 -0.031975 -0.094428 0.141715 -0.185467 -0.050666 0.156294 0.185710 0.039715 -0.196812 -0.031606 0.194090 -0.194292 0.175352 -0.057553 -0.282907 0.098298 
centerleftpolitics 0.096798 -0.077152 -0.024458 0.078722 -0.191071 0.074486 -0.017041 0.034902 0.022739 -0.490451 -0.196426 0.548711 -0.031803 0.737604 -0.372174 0.170158 -0.139362 0.237124 -0.077212 0.484168 0.505140 0.151633 0.251959 -0.154915 -0.011453 -0.063062 -0.129204 0.004139 -0.090046 -0.184041 -0.217689 0.184819 0.018935 0.054427 0.617566 0.290068 -0.184032 -0.172704 -0.277825 -0.159946 0.123782 -0.005774 0.274439 0.143132 -0.245281 -0.072962 0.005842 -0.294203 -0.046017 -0.178107 0.235124 0.076098 -0.187158 0.133054 0.167005 -0.249600 -0.409308 -0.244372 -0.187047 0.066135 -0.362102 0.279827 -0.378041 -0.131434 -0.061059 0.038669 -0.067451 -0.092107 0.052806 -0.100937 -0.073686 0.054355 -0.112941 0.519347 -0.109547 -0.469570 0.085749 0.028864 -0.473351 0.015730 0.382899 0.467045 0.089753 0.172098 -0.138983 0.190120 -0.732564 0.210343 0.062890 0.049082 -0.272118 0.020344 0.066931 -0.169409 0.031343 0.169221 0.037993 0.024617 -0.127089 -0.072837 -0.017545 0.102783 0.053256 0.066354 -0.203179 0.091482 -0.032805 0.432140 -0.622953 -0.188539 -0.012261 0.159239 0.126340 0.232353 -0.050575 0.560033 0.287727 0.646903 0.053347 -0.089580 -0.027286 0.361754 -0.027399 -0.010717 1.073458 -0.528361 0.675745 -0.293294 0.504701 -0.031792 -0.248539 0.245984 -0.007675 -0.252612 0.439152 -0.491284 0.289624 -0.188583 -0.623334 -0.318426 -0.437274 -0.491103 -0.536899 0.198150 -0.494298 -0.224341 0.485345 -0.012232 0.017507 0.176829 -0.155741 0.112195 0.176464 -0.075745 -0.140942 -0.087481 -0.060862 0.207643 -0.259274 -0.105997 -0.038188 -0.229702 0.464609 0.439772 -0.285711 0.481176 -0.374511 -0.079312 0.024595 -0.153577 -0.013254 0.315543 0.447001 0.352643 0.101160 -0.136836 -0.271650 0.509053 -0.245889 -0.236615 -0.099879 -0.230194 0.070465 0.309907 -0.029299 -0.264309 0.548074 -0.615184 -0.106106 0.458274 0.510263 0.170181 -0.535188 -0.032661 0.564568 -0.530702 0.471925 -0.108570 -0.590635 0.269261 
Pete_Buttigieg 0.042578 -0.074322 0.090537 0.052643 0.208105 0.032000 0.080996 -0.003030 -0.016599 -0.600417 -0.166381 0.665046 -0.043501 0.757594 -0.426930 0.226979 -0.206418 0.409749 -0.111875 0.599413 0.668127 0.286942 0.313639 -0.203650 -0.106968 -0.071353 -0.182912 -0.102703 -0.227548 -0.376034 -0.385948 0.163909 0.009582 0.109239 0.507405 0.217732 -0.150788 -0.130294 -0.263111 -0.139798 0.270931 -0.005517 0.442507 0.259140 -0.475965 -0.195004 -0.073609 -0.267203 -0.129991 -0.229989 0.322155 0.133139 -0.262574 0.135589 0.202482 -0.394316 -0.468305 -0.269903 -0.291380 0.109772 -0.504841 0.317426 -0.512312 -0.130541 -0.136243 0.034135 -0.082276 -0.136124 0.160510 -0.340919 0.061959 0.033748 -0.101051 0.372618 -0.057644 -0.362687 0.044926 0.027618 -0.374317 0.012523 0.291719 0.416816 0.067087 0.123504 -0.151934 0.159474 -0.601289 0.189660 0.321549 0.119962 -0.640801 0.197297 0.068498 -0.343184 0.010504 0.358638 0.199112 0.215335 -0.350765 -0.371701 -0.033521 0.232043 0.177487 0.167808 -0.149361 0.033749 -0.063096 0.389050 -0.553360 -0.205344 -0.057165 0.120055 0.060079 0.168959 -0.025373 0.388914 0.206276 0.477113 0.040971 -0.081343 -0.021267 0.222777 -0.044093 -0.030531 0.702767 -0.323463 0.426984 -0.217707 0.285236 0.006067 -0.139997 0.163810 -0.011404 -0.132886 0.289867 -0.277093 0.199089 -0.154331 -0.449842 -0.263437 -0.327718 -0.343496 -0.444539 0.150604 -0.429445 -0.174254 0.426770 -0.016062 0.006418 0.121571 -0.118670 0.064464 0.170320 -0.101358 -0.216415 -0.222335 0.041722 0.264359 -0.461002 -0.192822 -0.014078 -0.161622 0.351339 0.331064 -0.183789 0.335462 -0.261924 -0.026876 0.003241 -0.134534 -0.029062 0.346912 0.495658 0.387759 0.118121 -0.133232 -0.237480 0.457848 -0.234579 -0.229401 -0.072792 -0.200688 0.045084 0.240127 0.000138 -0.182386 0.426282 -0.462256 -0.069123 0.337827 0.383685 0.119211 -0.433696 -0.033410 0.483875 -0.424113 0.386149 -0.064665 -0.468797 0.201002 
moderatepolitics -0.030742 -0.082749 0.154041 0.001717 0.525127 -0.090438 0.203365 0.119666 -0.091041 -0.342987 -0.026092 0.438976 -0.035983 0.352753 -0.259202 0.157510 -0.141222 0.357955 -0.075209 0.428605 0.494190 0.282705 0.225216 -0.180859 -0.074568 -0.034898 -0.045676 -0.104761 -0.165413 -0.223936 -0.249861 0.030173 0.049257 0.125228 0.349073 0.128292 -0.046648 -0.042901 -0.197809 -0.138519 0.260450 -0.001858 0.328735 0.181653 -0.352360 -0.168312 -0.079423 -0.114993 -0.118753 -0.120054 0.169596 0.126559 -0.115270 0.054525 0.083952 -0.244346 -0.271758 -0.199881 -0.203150 0.093030 -0.344371 0.177188 -0.310669 -0.101959 -0.089217 0.036308 -0.023520 -0.079714 0.168374 -0.336218 0.146691 0.021042 -0.093873 0.234401 -0.060099 -0.300591 0.008460 -0.033597 -0.233755 0.033118 0.141021 0.286820 0.078641 0.056294 -0.177662 0.149680 -0.373635 0.133787 0.309762 0.062649 -0.377114 0.204503 -0.015573 -0.203095 -0.014297 0.227503 0.189895 0.254627 -0.215285 -0.353114 0.004254 0.102347 0.105300 0.122884 -0.122629 -0.004962 -0.100455 0.348486 -0.496699 -0.173078 -0.150483 0.006683 0.099315 0.200827 -0.015913 0.303255 0.198057 0.399120 0.026980 -0.125885 -0.028300 0.163247 -0.048042 -0.133975 0.516424 -0.191276 0.361944 -0.203430 0.212455 -0.045552 -0.041356 0.167384 -0.020818 -0.045599 0.256460 -0.221707 0.194473 -0.200341 -0.376428 -0.319654 -0.325226 -0.313571 -0.450237 0.163712 -0.414360 -0.135995 0.433068 0.001896 -0.009222 0.057405 -0.134736 0.078346 0.049805 -0.104245 -0.269554 -0.371800 0.183974 0.276941 -0.529806 -0.266392 -0.029561 -0.182525 0.341136 0.406072 -0.163186 0.371897 -0.307661 -0.067250 -0.080124 -0.133492 0.032178 0.300903 0.593044 0.431287 0.139640 -0.101124 -0.187865 0.528311 -0.303659 -0.255219 0.016121 -0.244626 0.075965 0.312498 -0.026570 -0.210014 0.478402 -0.506650 -0.014869 0.371886 0.438753 0.086446 -0.517753 -0.008437 0.589480 -0.531547 0.396917 -0.069045 -0.757939 0.314853 
ElizabethWarren 0.108266 -0.132535 0.090431 0.050997 0.147786 0.014885 0.061828 0.024417 -0.020864 -0.644685 -0.197701 0.713765 -0.036566 0.852667 -0.477552 0.246129 -0.181355 0.346208 -0.100529 0.546324 0.592286 0.231594 0.286323 -0.173055 -0.089848 -0.066924 -0.205517 -0.085345 -0.228540 -0.411914 -0.437512 0.218963 0.010637 0.098070 0.655759 0.286674 -0.181228 -0.182811 -0.295935 -0.160289 0.220812 -0.010481 0.416373 0.247169 -0.391337 -0.142337 -0.028387 -0.334690 -0.079710 -0.222176 0.295764 0.095976 -0.256949 0.158595 0.189327 -0.338757 -0.381779 -0.214600 -0.173261 0.055393 -0.330249 0.259570 -0.343986 -0.119098 -0.068386 0.031130 -0.081309 -0.093377 0.052539 -0.121513 -0.073368 0.040537 -0.137785 0.501233 -0.090650 -0.491587 0.066328 0.014326 -0.484598 0.024052 0.447656 0.630551 0.127434 0.199468 -0.225152 0.254156 -0.932482 0.290087 0.123909 0.063646 -0.348246 0.071066 0.060891 -0.192573 0.035501 0.208559 0.146605 0.145627 -0.260965 -0.261824 -0.019575 0.167402 0.138963 0.129514 -0.151439 0.077945 -0.019843 0.313216 -0.449353 -0.151248 0.000953 0.109830 0.087487 0.156157 -0.037112 0.412019 0.206339 0.468273 0.035897 -0.046036 -0.032671 0.261578 -0.030304 -0.021093 0.805211 -0.391791 0.526560 -0.240571 0.311827 -0.009235 -0.165469 0.157630 0.002123 -0.157939 0.267221 -0.288267 0.210523 -0.150274 -0.451605 -0.230167 -0.321874 -0.367728 -0.397295 0.145327 -0.438116 -0.187540 0.433399 -0.016834 0.018937 0.141228 -0.126098 0.077601 0.183134 -0.048280 -0.103519 -0.016259 -0.105875 0.176887 -0.190994 -0.056430 -0.012581 -0.150802 0.345117 0.258405 -0.204462 0.317696 -0.247909 -0.047967 0.073373 -0.117976 -0.056550 0.235770 0.247168 0.210325 0.054440 -0.127150 -0.251470 0.392112 -0.141443 -0.172949 -0.161602 -0.135500 0.040543 0.237009 -0.010201 -0.178272 0.393080 -0.446522 -0.114849 0.340555 0.368306 0.142211 -0.337680 -0.051082 0.349411 -0.284554 0.313958 -0.060582 -0.277609 0.125573 
progressive 0.045052 -0.149104 0.140285 0.035694 0.565611 -0.006387 0.302067 0.148024 0.041558 -0.327432 -0.153543 0.412118 -0.048760 0.472457 -0.254470 0.118133 -0.173645 0.338729 -0.076456 0.518803 0.600795 0.236540 0.293925 -0.193939 -0.070236 -0.039761 -0.129965 -0.063832 -0.156248 -0.267989 -0.279625 0.128811 0.030603 0.055584 0.464160 0.206542 -0.136733 -0.127046 -0.212746 -0.146996 0.192562 0.001359 0.345207 0.202043 -0.335207 -0.125679 -0.038512 -0.225557 -0.055112 -0.113777 0.162028 0.068164 -0.142825 0.080292 0.075122 -0.199726 -0.477595 -0.291937 -0.287458 0.139800 -0.509092 0.348034 -0.485112 -0.155184 -0.158383 0.024244 -0.106249 -0.113002 0.138550 -0.350173 0.045239 0.005368 -0.019823 0.227685 -0.073846 -0.196861 0.055498 0.030066 -0.199625 -0.016827 0.145706 0.150154 0.041134 0.098822 -0.038431 0.076099 -0.251004 0.083023 0.327692 0.086586 -0.620700 0.224315 0.066059 -0.297050 0.024758 0.333118 0.176241 0.215561 -0.315517 -0.349390 -0.047516 0.193762 0.167476 0.139481 -0.244088 0.052331 -0.025775 0.508445 -0.729895 -0.252689 -0.068895 0.160295 0.079517 0.184184 -0.039540 0.464329 0.262216 0.534397 0.083934 -0.075308 0.004888 0.257334 -0.002414 -0.040045 0.780922 -0.357598 0.507811 -0.238237 0.338377 -0.001903 -0.172683 0.156185 0.008881 -0.145683 0.322188 -0.312044 0.279432 -0.188069 -0.563767 -0.358789 -0.422434 -0.458655 -0.573742 0.220275 -0.515819 -0.194677 0.524349 -0.026483 -0.023072 0.185863 -0.134421 0.117493 0.157335 -0.086553 -0.175153 -0.186062 0.011333 0.223126 -0.375648 -0.165665 -0.045892 -0.209791 0.407376 0.388796 -0.246189 0.406420 -0.302295 -0.087166 -0.012791 -0.112730 -0.014689 0.250518 0.384214 0.274196 0.042088 -0.126083 -0.198996 0.406140 -0.182950 -0.158587 -0.080098 -0.148701 0.058135 0.239680 -0.021718 -0.160634 0.268401 -0.322962 -0.089667 0.265899 0.288909 0.086714 -0.413915 -0.044588 0.482567 -0.420989 0.399750 -0.065572 -0.510835 0.220337 
JoeBiden 0.091006 0.018149 -0.087267 0.131979 -0.329343 0.107643 -0.209792 -0.110227 0.032269 -0.586295 -0.219465 0.634314 -0.034954 0.905903 -0.443591 0.222464 -0.113516 0.172942 -0.086212 0.467849 0.441401 0.114260 0.218557 -0.122119 0.016308 -0.095878 -0.174485 0.045491 -0.069762 -0.151774 -0.222138 0.253375 -0.035974 -0.007593 0.409148 0.201963 -0.142125 -0.118781 -0.193453 -0.050446 -0.087401 0.018915 -0.072854 -0.032247 0.096902 0.060266 0.062975 -0.253990 0.050916 -0.140347 0.137470 -0.006245 -0.148316 0.103716 0.171872 -0.110489 -0.200906 -0.058307 0.031031 -0.050016 0.005250 0.108551 -0.058311 -0.069758 0.201456 0.053539 -0.015335 0.059156 -0.263634 0.575687 -0.405561 0.074975 -0.068761 0.578096 -0.152859 -0.403678 0.139121 0.098896 -0.481464 -0.003724 0.559150 0.563332 0.108951 0.282820 -0.071112 0.209820 -0.962055 0.226182 0.183350 0.111224 -0.644251 0.074022 0.177027 -0.391952 0.067970 0.401385 0.135026 0.123438 -0.385771 -0.280260 -0.083087 0.304509 0.160444 0.162563 -0.269112 0.189412 0.002179 0.523087 -0.766491 -0.216783 0.076871 0.270449 0.154455 0.252786 -0.064825 0.776907 0.341435 0.839869 0.071484 -0.066019 -0.034005 0.371244 -0.023543 0.085404 1.099095 -0.580825 0.655125 -0.235082 0.488443 -0.007398 -0.269217 0.187015 -0.009706 -0.294607 0.341839 -0.464050 0.353865 -0.201035 -0.774846 -0.329775 -0.501412 -0.614382 -0.593584 0.241352 -0.563191 -0.305162 0.540504 -0.029110 0.028535 0.241355 -0.172072 0.140748 0.255903 -0.010245 -0.011453 0.237243 -0.312596 0.116930 0.065174 0.100085 -0.019370 -0.134050 0.366362 0.190946 -0.224087 0.332383 -0.262344 -0.046862 0.130615 -0.210345 -0.048728 0.370593 0.408889 0.346362 0.090948 -0.210470 -0.479254 0.742986 -0.309148 -0.332643 -0.259440 -0.290879 0.083723 0.470628 0.002592 -0.291632 0.655935 -0.735404 -0.202852 0.583408 0.597611 0.264816 -0.581959 -0.077507 0.606615 -0.524923 0.594441 -0.150719 -0.483934 0.217086 
Kamala 0.066221 -0.028102 -0.022521 0.091127 -0.166220 0.095660 -0.086575 -0.072633 0.060702 -0.552948 -0.233873 0.620108 -0.057374 0.815760 -0.413330 0.198392 -0.166924 0.285524 -0.086514 0.538938 0.579029 0.193342 0.294105 -0.175977 0.000552 -0.054752 -0.145833 0.031787 -0.059112 -0.128608 -0.163129 0.187699 -0.023648 -0.024693 0.312921 0.155132 -0.130178 -0.111355 -0.149954 -0.056121 0.045061 0.018404 0.160980 0.115367 -0.136521 -0.029236 0.014440 -0.266661 0.010349 -0.126849 0.151919 0.011431 -0.160749 0.094036 0.125984 -0.154477 -0.246017 -0.087234 -0.055815 0.006606 -0.120866 0.160481 -0.156207 -0.071292 0.039150 0.032543 -0.073051 -0.009303 -0.100521 0.184736 -0.230810 0.025783 -0.034664 0.425013 -0.113348 -0.293344 0.101326 0.095527 -0.361906 -0.018208 0.324044 0.290653 0.052715 0.176673 0.006461 0.094400 -0.519729 0.118117 0.170598 0.084327 -0.523862 0.087229 0.124756 -0.294095 0.045444 0.306630 0.090432 0.089128 -0.286052 -0.201808 -0.074043 0.226492 0.131259 0.107263 -0.252809 0.125179 -0.009214 0.520961 -0.773356 -0.249739 0.017570 0.240900 0.093681 0.203735 -0.045915 0.619789 0.286749 0.669740 0.085438 -0.058825 -0.010352 0.306587 -0.005836 0.048803 0.925760 -0.476907 0.559223 -0.223272 0.410091 0.009552 -0.229145 0.156055 0.014090 -0.233511 0.325427 -0.382951 0.334797 -0.194503 -0.730067 -0.364941 -0.485852 -0.574001 -0.622973 0.244036 -0.595306 -0.274920 0.580180 -0.033474 0.002465 0.254937 -0.157246 0.136179 0.257971 -0.073801 -0.146193 -0.030110 -0.139035 0.230388 -0.272645 -0.083785 -0.035268 -0.207458 0.456637 0.369595 -0.286257 0.440600 -0.326661 -0.073159 0.051350 -0.180771 -0.036411 0.393145 0.506232 0.388124 0.089268 -0.194156 -0.357690 0.606938 -0.273364 -0.269009 -0.177195 -0.235131 0.060837 0.356931 -0.016284 -0.303145 0.640588 -0.715258 -0.165579 0.574574 0.614765 0.221846 -0.668973 -0.067252 0.741911 -0.651385 0.646385 -0.138046 -0.709464 0.303911 
SocialDemocracy 0.082684 -0.193087 0.168997 0.046109 0.502674 -0.025729 0.288202 0.156625 -0.015775 -0.407886 -0.131069 0.470187 -0.024303 0.541283 -0.300280 0.155354 -0.130805 0.268261 -0.060799 0.405577 0.450513 0.181813 0.208523 -0.142859 -0.092269 -0.072888 -0.152679 -0.084989 -0.200978 -0.337936 -0.371291 0.153042 0.034200 0.100905 0.565820 0.247063 -0.156598 -0.146196 -0.265853 -0.168518 0.236926 -0.005814 0.415371 0.233226 -0.450494 -0.176515 -0.058969 -0.293309 -0.138108 -0.237343 0.361092 0.151623 -0.269916 0.168652 0.199038 -0.426604 -0.378145 -0.245196 -0.229497 0.101972 -0.396719 0.260247 -0.391249 -0.127490 -0.059937 0.029402 -0.043914 -0.071479 0.065914 -0.157175 0.007531 0.029214 -0.067597 0.268356 -0.053545 -0.246635 0.050032 0.006434 -0.233985 0.013742 0.198255 0.239963 0.036160 0.096413 -0.081504 0.107557 -0.374434 0.105734 0.265260 0.084731 -0.507164 0.164346 0.063242 -0.274719 0.008232 0.296445 0.162945 0.186855 -0.276147 -0.302239 -0.027141 0.168356 0.124091 0.132537 -0.174737 0.056225 -0.044004 0.402792 -0.566566 -0.180271 -0.055402 0.119489 0.094367 0.178841 -0.037596 0.402384 0.212406 0.458659 0.043530 -0.079914 -0.023572 0.368145 -0.041487 -0.087117 1.097624 -0.494362 0.705692 -0.335479 0.470487 -0.042197 -0.193752 0.267897 -0.017796 -0.208148 0.459134 -0.458839 0.256496 -0.181286 -0.537875 -0.311928 -0.387916 -0.432124 -0.507174 0.188174 -0.442309 -0.188545 0.440316 -0.006456 0.008748 0.136449 -0.139800 0.091004 0.164894 -0.084560 -0.165740 -0.150754 -0.019894 0.223454 -0.332002 -0.136007 -0.030251 -0.208341 0.409203 0.394304 -0.241598 0.410870 -0.324066 -0.069475 0.016828 -0.137283 -0.005595 0.284023 0.412283 0.326113 0.083033 -0.128304 -0.250980 0.474570 -0.231182 -0.204785 -0.078893 -0.204226 0.069965 0.288418 -0.013840 -0.218474 0.439958 -0.498831 -0.084139 0.378091 0.417349 0.135584 -0.514427 -0.038548 0.569250 -0.519450 0.457274 -0.099882 -0.600356 0.252082 
demsocialist 0.066879 -0.141635 0.150902 0.059587 0.413412 -0.015567 0.216579 0.115257 -0.021930 -0.495041 -0.162144 0.580881 -0.040805 0.659222 -0.369253 0.190761 -0.157101 0.332047 -0.066019 0.494532 0.551377 0.232454 0.263100 -0.189485 -0.063665 -0.079686 -0.138785 -0.048708 -0.162276 -0.263639 -0.323984 0.153037 0.027210 0.063601 0.481694 0.215368 -0.140781 -0.125758 -0.239099 -0.148427 0.172586 0.006815 0.313075 0.182923 -0.363514 -0.138212 -0.042667 -0.291883 -0.152224 -0.272000 0.417973 0.174400 -0.311523 0.197508 0.229705 -0.493990 -0.394130 -0.250249 -0.224810 0.107611 -0.393969 0.259548 -0.383704 -0.142159 0.005996 0.035979 -0.024247 -0.024529 -0.013114 0.002780 -0.060767 0.024365 -0.045801 0.261087 -0.063116 -0.205072 0.057618 0.029301 -0.205787 0.012352 0.199124 0.201611 0.027857 0.100901 -0.041963 0.088422 -0.344381 0.076314 0.161904 0.050154 -0.332438 0.090271 0.066986 -0.195050 0.012679 0.212589 0.088693 0.113244 -0.185453 -0.177126 -0.033791 0.127155 0.062447 0.073548 -0.166597 0.076474 -0.027860 0.372847 -0.536497 -0.158364 -0.035418 0.124943 0.092670 0.165295 -0.035616 0.395866 0.190812 0.426090 0.045616 -0.070309 -0.016605 0.285845 -0.021907 -0.040271 0.833118 -0.385784 0.522437 -0.222165 0.374082 -0.038089 -0.149734 0.188138 -0.015117 -0.177345 0.331216 -0.365952 0.267198 -0.174277 -0.548566 -0.311960 -0.384648 -0.445332 -0.496334 0.198182 -0.420878 -0.190846 0.414003 -0.004352 0.009364 0.145511 -0.132101 0.106031 0.177830 -0.083761 -0.175983 -0.150225 -0.034098 0.232892 -0.331274 -0.135813 -0.035155 -0.200275 0.392839 0.374478 -0.237409 0.400464 -0.318464 -0.081731 0.012671 -0.161365 0.008036 0.316506 0.481023 0.375037 0.094165 -0.147511 -0.305838 0.603548 -0.308128 -0.258704 -0.079958 -0.261092 0.088445 0.372331 -0.025234 -0.286729 0.591085 -0.659135 -0.090351 0.506475 0.565937 0.167575 -0.652104 -0.043984 0.707833 -0.640692 0.554381 -0.123402 -0.770844 0.308566 
BetoORourke 0.075125 -0.193962 0.095358 0.032768 0.471822 0.009507 0.301517 0.154586 0.013441 -0.455727 -0.185434 0.528378 -0.039357 0.624297 -0.340487 0.161487 -0.176729 0.342992 -0.068263 0.504146 0.570355 0.227957 0.288370 -0.189786 -0.072851 -0.057563 -0.164539 -0.051305 -0.173950 -0.307322 -0.339054 0.168548 0.028109 0.054012 0.556529 0.251744 -0.177270 -0.172777 -0.249139 -0.168816 0.198425 0.005582 0.407455 0.245231 -0.434385 -0.151427 -0.037668 -0.326880 -0.129309 -0.239203 0.378067 0.132082 -0.291915 0.191277 0.183274 -0.449992 -0.496634 -0.305612 -0.291455 0.140126 -0.521470 0.351658 -0.502624 -0.166808 -0.140609 0.021920 -0.095130 -0.102873 0.111619 -0.307456 0.031005 -0.001169 -0.067565 0.363611 -0.092525 -0.334159 0.067805 0.032422 -0.325213 0.008991 0.253921 0.316808 0.073842 0.137058 -0.101317 0.136233 -0.504421 0.148570 0.249472 0.067705 -0.487506 0.161503 0.075367 -0.247533 0.018865 0.276751 0.148535 0.164650 -0.262514 -0.276592 -0.053329 0.163271 0.125847 0.103144 -0.187719 0.068066 -0.002693 0.363784 -0.538649 -0.173482 -0.021426 0.142687 0.072209 0.144048 -0.030255 0.390048 0.192624 0.408533 0.063460 -0.048834 0.004537 0.233009 0.000903 -0.020430 0.678944 -0.324569 0.442176 -0.197029 0.298475 -0.015275 -0.141366 0.129299 0.013528 -0.142229 0.266009 -0.274871 0.177235 -0.100231 -0.351344 -0.206621 -0.249659 -0.289288 -0.332647 0.131716 -0.287310 -0.118110 0.288688 -0.015204 -0.009646 0.124522 -0.074981 0.075594 0.140058 -0.053701 -0.115115 -0.100405 -0.030309 0.151611 -0.229847 -0.098554 -0.032870 -0.154847 0.297695 0.281817 -0.193309 0.298664 -0.223023 -0.071395 0.015127 -0.075105 -0.011758 0.154266 0.203468 0.150382 0.010921 -0.091291 -0.192751 0.376158 -0.173829 -0.147684 -0.078810 -0.145034 0.051033 0.224673 -0.028015 -0.191345 0.341572 -0.402639 -0.093958 0.327650 0.366001 0.108258 -0.375253 -0.043996 0.419521 -0.376948 0.357402 -0.074390 -0.452130 0.183245 
ConservativeDemocrat 0.057209 -0.098121 0.077722 0.026897 0.269409 0.009936 0.141691 0.055716 0.004818 -0.449803 -0.160531 0.523377 -0.043773 0.598927 -0.338468 0.164283 -0.168962 0.334026 -0.076249 0.494708 0.555741 0.233956 0.273427 -0.182553 -0.086427 -0.052230 -0.160446 -0.086102 -0.206145 -0.344287 -0.358322 0.152852 0.031365 0.104268 0.612645 0.267093 -0.170787 -0.165063 -0.285245 -0.187319 0.284967 -0.002924 0.504308 0.292448 -0.522240 -0.196469 -0.058515 -0.321029 -0.141259 -0.241714 0.359206 0.141303 -0.281993 0.170526 0.185955 -0.441888 -0.475969 -0.291761 -0.285386 0.126240 -0.516525 0.333451 -0.500985 -0.150239 -0.165819 0.025992 -0.091538 -0.128414 0.168074 -0.388837 0.080391 0.015132 -0.089990 0.367233 -0.082496 -0.369034 0.048653 0.014345 -0.357098 0.013330 0.249067 0.350936 0.078707 0.118292 -0.138921 0.150041 -0.523065 0.168519 0.280207 0.082016 -0.520370 0.182577 0.051638 -0.268806 0.015290 0.293218 0.181543 0.199980 -0.287254 -0.335017 -0.034894 0.174645 0.152969 0.136393 -0.173718 0.033891 -0.045146 0.382762 -0.557313 -0.195762 -0.063797 0.106957 0.071876 0.160504 -0.025586 0.365531 0.201661 0.432958 0.046681 -0.070345 -0.009229 0.216409 -0.021865 -0.041224 0.658812 -0.305263 0.431788 -0.218633 0.271779 -0.007680 -0.131940 0.142698 0.007109 -0.116594 0.265924 -0.254714 0.211652 -0.153250 -0.432469 -0.277643 -0.327413 -0.348168 -0.444130 0.161150 -0.419081 -0.158304 0.423399 -0.017768 -0.009218 0.131911 -0.113389 0.081107 0.162708 -0.100412 -0.231341 -0.265112 0.063374 0.271577 -0.482756 -0.220263 -0.035830 -0.209119 0.416905 0.419008 -0.236665 0.419266 -0.317682 -0.071511 -0.026603 -0.128698 -0.018163 0.321907 0.499689 0.368907 0.089897 -0.134836 -0.227560 0.503633 -0.252050 -0.232050 -0.071104 -0.211519 0.057380 0.279649 -0.023954 -0.200627 0.412066 -0.463778 -0.073808 0.342499 0.402188 0.103231 -0.471150 -0.036804 0.526749 -0.466531 0.406762 -0.069970 -0.580348 0.244576 
