15 200
BaemyKlobaechar 0.031089 -0.191436 0.081019 -0.100410 -0.031151 -0.083583 0.349867 0.113718 -0.079100 -0.721799 -0.300440 0.701211 0.009473 0.425229 -0.286703 0.118530 -0.145015 0.459817 -0.002040 0.602996 0.475142 0.361342 0.252579 -0.234755 -0.121098 -0.007338 -0.244602 -0.260977 -0.411025 -0.448041 -0.580105 0.084645 -0.013774 0.240293 0.810354 0.319285 -0.085443 -0.191455 -0.296605 -0.266487 0.176032 0.019600 0.230804 0.178147 -0.339079 -0.143263 -0.009057 -0.171620 -0.053790 -0.076243 0.105829 -0.035993 -0.113540 0.104468 0.031948 -0.190357 -0.599643 -0.415063 -0.256820 0.123165 -0.674260 0.328624 -0.600609 -0.242830 -0.150357 0.022875 0.012071 -0.061078 0.208161 -0.486564 0.287342 -0.025463 -0.226452 0.281726 -0.171543 -0.343519 -0.034568 -0.143510 -0.306626 0.118446 0.241108 0.452828 0.186214 0.110521 -0.265538 0.178136 -0.650104 0.158449 0.305545 0.061464 -0.291622 0.208352 -0.019911 -0.188826 -0.016137 0.248784 0.233878 0.181936 -0.201992 -0.472553 -0.035652 0.097974 0.137691 0.118314 -0.140006 0.006490 -0.085379 0.204560 -0.373425 -0.146438 -0.077527 -0.056152 0.120833 0.108806 0.024078 0.302674 0.147020 0.341279 -0.046853 -0.037648 -0.065156 0.210208 -0.113512 -0.140342 0.527472 -0.273350 0.579204 -0.436178 0.340379 -0.099914 -0.048116 0.292051 0.101482 -0.109032 0.307437 -0.185441 0.190731 -0.160948 -0.190211 -0.225991 -0.162375 -0.315742 -0.329390 0.173368 -0.308690 -0.155412 0.298830 -0.006518 -0.038940 0.066937 -0.080073 0.024497 0.087546 0.024678 -0.264752 -0.351682 0.092294 0.274902 -0.475602 -0.163742 -0.008383 -0.167286 0.379498 0.378794 -0.060477 0.334312 -0.252063 -0.068199 -0.118468 -0.016538 0.041802 0.129904 0.337793 0.226447 0.046256 -0.038176 -0.016862 0.294326 -0.152205 -0.142999 -0.033837 -0.111685 -0.050376 0.185537 0.048515 -0.041501 0.196786 -0.281741 -0.086597 0.072008 0.234402 -0.031079 -0.150145 -0.086180 0.142246 -0.176671 0.182813 -0.036012 -0.416963 0.232848 
politics 0.010194 -0.328538 0.270709 -0.008144 0.874271 -0.072651 0.042217 0.062944 -0.120110 -0.241957 -0.029654 0.324730 0.005490 0.259596 -0.146683 0.062426 -0.006867 0.056153 -0.025712 0.159892 0.160477 0.033200 0.073973 -0.104538 0.001308 -0.057006 -0.011370 -0.073891 -0.191530 -0.285492 -0.342960 0.086812 0.125132 0.121123 0.687614 0.286902 -0.036623 -0.123473 -0.203828 -0.241581 0.192872 -0.040644 0.408226 0.169216 -0.277064 -0.063798 0.066357 -0.213177 -0.208568 -0.194583 0.366380 0.153710 -0.117423 0.217064 0.109042 -0.488497 -0.494463 -0.462027 -0.160851 0.140332 -0.495879 0.344687 -0.428269 -0.233771 -0.229667 0.078771 0.006468 -0.135253 0.325678 -0.571357 0.300668 0.033931 -0.134838 0.376648 -0.257032 -0.342992 0.067545 -0.162428 -0.231056 0.080360 0.222571 0.320589 0.173832 0.086094 -0.220169 0.185563 -0.522758 0.169994 0.577801 0.073051 -0.702359 0.376835 0.020960 -0.363353 0.004880 0.455106 0.375461 0.368307 -0.321164 -0.647780 -0.051950 0.058762 0.186770 0.208106 -0.338478 0.068827 -0.069324 0.514227 -0.784540 -0.140659 -0.146668 -0.071730 0.329327 0.297357 -0.051925 0.538505 0.382711 0.654801 -0.050380 -0.126639 -0.026540 0.248903 -0.003880 -0.105783 0.501561 -0.301095 0.531863 -0.288040 0.344351 -0.158129 -0.089417 0.193778 0.057383 -0.142981 0.232002 -0.267369 0.317712 -0.231595 -0.383927 -0.340666 -0.306473 -0.426498 -0.379040 0.209548 -0.290898 -0.126359 0.301026 0.021857 -0.037977 0.100963 -0.118167 0.100486 0.111442 -0.075409 -0.303786 -0.479543 0.085580 0.353486 -0.421683 -0.266215 -0.095488 -0.209878 0.346080 0.419923 -0.223427 0.495934 -0.360533 -0.183050 -0.223010 -0.169277 0.129036 0.294133 0.789912 0.458565 0.023844 -0.090220 -0.040008 0.367950 -0.149628 -0.119617 -0.093801 -0.196629 0.058226 0.359001 -0.101177 -0.224422 0.177188 -0.355175 -0.136685 0.132729 0.225450 0.034416 -0.181024 0.018904 0.204681 -0.221633 0.124592 -0.112293 -0.320241 0.225324 
YangForPresidentHQ 0.017476 0.031031 0.024471 -0.026639 0.157677 -0.139467 0.318424 0.141379 -0.028508 -0.215291 -0.086142 0.303314 0.008105 0.719059 -0.483705 0.213588 -0.107617 0.406794 -0.005079 0.558402 0.448263 0.335951 0.231059 -0.236843 -0.069294 -0.043556 -0.108397 -0.130664 -0.411895 -0.409115 -0.589289 0.093377 0.012950 0.188748 0.576193 0.239100 -0.045077 -0.098769 -0.278812 -0.227294 0.431134 0.010378 0.505157 0.296054 -0.655702 -0.302453 -0.042829 -0.317577 -0.271165 -0.270217 0.395885 0.142821 -0.229283 0.279228 0.183400 -0.625564 -0.589680 -0.445318 -0.253186 0.134595 -0.713252 0.324417 -0.645702 -0.276593 -0.119546 0.062730 0.041339 -0.075274 0.247723 -0.485248 0.312605 0.008315 -0.172299 0.160197 -0.074688 -0.210444 -0.034652 -0.093604 -0.170188 0.099776 0.165472 0.344597 0.115993 0.036298 -0.221897 0.129715 -0.463645 0.103404 0.307902 0.052979 -0.308887 0.175644 0.008148 -0.251272 -0.018824 0.297172 0.266776 0.269078 -0.216577 -0.492357 -0.026041 0.081254 0.103335 0.161644 -0.193737 0.042585 -0.075495 0.310066 -0.492998 -0.088643 -0.109101 -0.053809 0.268772 0.253081 -0.030515 0.426933 0.250044 0.489219 -0.067966 -0.110594 -0.058170 0.215666 -0.065767 -0.121964 0.471806 -0.250454 0.471091 -0.297974 0.370686 -0.164877 -0.033282 0.280574 0.029648 -0.111939 0.286948 -0.272195 0.354792 -0.259589 -0.429355 -0.366614 -0.362071 -0.556496 -0.521343 0.271040 -0.444303 -0.271848 0.423003 0.042975 -0.022802 0.053146 -0.217980 0.119223 0.065411 -0.038145 -0.297936 -0.410853 0.132958 0.393967 -0.563927 -0.232416 -0.037870 -0.164867 0.348261 0.398073 -0.089154 0.408984 -0.321292 -0.081709 -0.129422 -0.080665 0.133356 0.106006 0.418771 0.291020 0.111563 -0.001435 -0.043521 0.245528 -0.157174 -0.131382 0.005130 -0.142930 0.017423 0.221664 0.042836 -0.092751 0.245157 -0.385529 -0.069256 0.092034 0.309732 -0.025070 -0.313767 -0.057327 0.329995 -0.347043 0.275300 -0.128676 -0.640158 0.292449 
SandersForPresident 0.041938 -0.160970 0.272409 -0.065013 1.033761 -0.246559 0.284962 0.121199 -0.034025 -0.189004 -0.107975 0.313078 0.013008 0.690630 -0.449915 0.167783 -0.121072 0.383745 -0.003244 0.580671 0.486340 0.285001 0.253729 -0.250868 0.013621 -0.017669 0.011112 -0.000320 -0.115562 -0.143597 -0.190487 0.046739 0.041072 0.086884 0.377019 0.159986 -0.022054 -0.057353 -0.133777 -0.129217 0.407065 -0.013379 0.556955 0.294252 -0.518876 -0.208356 0.006673 -0.296806 -0.295784 -0.307481 0.475504 0.176061 -0.244257 0.320639 0.198300 -0.702698 -0.515999 -0.402113 -0.193776 0.115291 -0.517718 0.268573 -0.456739 -0.213221 -0.150696 0.049805 0.016693 -0.081325 0.216883 -0.442510 0.249301 0.008814 -0.150510 0.244375 -0.154337 -0.255738 -0.009023 -0.129182 -0.211923 0.079031 0.224963 0.377960 0.157829 0.089473 -0.245201 0.176208 -0.571008 0.149603 0.251529 0.038716 -0.314666 0.165189 -0.002808 -0.183601 -0.000228 0.236202 0.160962 0.144369 -0.140766 -0.291604 -0.010158 0.037962 0.085886 0.098423 -0.214403 0.031631 -0.079486 0.333499 -0.525373 -0.106357 -0.107010 -0.064012 0.242546 0.224246 -0.033773 0.406786 0.258081 0.491822 -0.063815 -0.088004 -0.057156 0.234493 -0.050164 -0.114302 0.498916 -0.280588 0.499922 -0.297504 0.313441 -0.145866 -0.052456 0.219867 0.027035 -0.108959 0.228161 -0.251447 0.156335 -0.116907 -0.199062 -0.152446 -0.172579 -0.237743 -0.211179 0.116808 -0.335409 -0.181285 0.325231 0.029198 -0.019738 0.056416 -0.149217 0.083227 0.079233 -0.022372 -0.254839 -0.351534 0.087244 0.305686 -0.447372 -0.196475 -0.046211 -0.192909 0.404224 0.431002 -0.132751 0.447908 -0.343360 -0.111321 -0.261672 -0.120960 0.151425 0.273784 0.785227 0.519895 0.112742 -0.056573 -0.066246 0.689249 -0.354985 -0.316796 -0.083799 -0.328190 -0.017433 0.553219 0.027075 -0.128243 0.304861 -0.466034 -0.111080 0.096450 0.288823 -0.013633 -0.276861 -0.075953 0.265563 -0.300740 0.240710 -0.087100 -0.571225 0.306271 
centerleftpolitics 0.035824 -0.242759 0.239691 -0.117824 0.398828 -0.162377 0.496191 0.137927 -0.152195 -1.038116 -0.377790 1.027073 0.019194 0.656432 -0.432031 0.192425 -0.170913 0.590606 -0.009932 0.808422 0.634835 0.470200 0.322664 -0.320335 -0.124929 -0.007225 -0.269791 -0.295661 -0.394146 -0.447631 -0.561795 0.084656 -0.012643 0.243421 0.857460 0.341639 -0.086286 -0.209779 -0.282044 -0.267427 0.118254 0.002418 0.196518 0.143268 -0.158703 -0.050257 0.022695 -0.092524 -0.004903 -0.027536 0.043342 -0.066606 -0.060102 0.067199 0.002023 -0.076106 -0.449562 -0.318057 -0.183204 0.082060 -0.494709 0.250901 -0.448039 -0.172360 -0.082885 0.007524 0.007504 -0.044064 0.109285 -0.238205 0.143499 -0.006415 -0.266748 0.315040 -0.180422 -0.377361 -0.031416 -0.174009 -0.326638 0.144629 0.261166 0.487759 0.187784 0.097102 -0.284689 0.185490 -0.692222 0.163692 0.281835 0.068746 -0.283268 0.181187 -0.012545 -0.217260 -0.022521 0.264726 0.197066 0.137865 -0.163099 -0.373582 -0.018907 0.072259 0.107102 0.106467 -0.051930 -0.006211 -0.052634 0.075805 -0.151433 -0.081027 -0.029364 -0.042969 0.057425 0.041769 0.023130 0.157494 0.074540 0.185703 -0.038843 -0.011391 -0.056817 0.165723 -0.095273 -0.108921 0.416767 -0.225467 0.476753 -0.366573 0.267765 -0.086143 -0.045474 0.234003 0.078603 -0.095642 0.231068 -0.139866 0.248421 -0.199418 -0.258388 -0.271392 -0.214823 -0.391336 -0.377780 0.199163 -0.347044 -0.176153 0.332818 0.006114 -0.033514 0.082888 -0.104900 0.037024 0.150908 -0.000469 -0.454884 -0.638766 0.156400 0.517498 -0.798978 -0.316722 -0.038730 -0.282447 0.597554 0.627020 -0.147185 0.600802 -0.449953 -0.139731 -0.145586 -0.039301 0.064635 0.153243 0.443263 0.290955 0.055511 -0.037349 -0.039976 0.547218 -0.275185 -0.252226 -0.080000 -0.247729 -0.041939 0.409786 0.028625 -0.094069 0.255963 -0.398620 -0.107610 0.064683 0.237455 -0.025535 -0.166952 -0.070317 0.137246 -0.191550 0.170626 -0.049799 -0.411959 0.280471 
Pete_Buttigieg 0.039726 -0.260691 0.072634 -0.108357 -0.085217 -0.010041 0.249035 0.115446 -0.048333 -0.591455 -0.289731 0.573425 0.002670 0.537815 -0.378612 0.139244 -0.162317 0.474967 0.003852 0.600053 0.483906 0.363862 0.268757 -0.245680 -0.113929 -0.019152 -0.211242 -0.223298 -0.412430 -0.425877 -0.580576 0.078558 -0.018831 0.244264 0.725295 0.272964 -0.077732 -0.158272 -0.311485 -0.252196 0.233471 0.036054 0.248128 0.206063 -0.499054 -0.233328 -0.048164 -0.229253 -0.102073 -0.114963 0.159888 0.000916 -0.147314 0.122231 0.067836 -0.284737 -0.669917 -0.451738 -0.312171 0.152111 -0.690544 0.311892 -0.606330 -0.238047 -0.130302 0.031429 0.009212 -0.043402 0.207916 -0.500775 0.305138 -0.041040 -0.236061 0.244751 -0.140330 -0.324681 -0.050199 -0.128170 -0.285481 0.128903 0.211572 0.448667 0.175715 0.087824 -0.262041 0.165081 -0.609418 0.139528 0.355333 0.065572 -0.287528 0.232143 -0.023209 -0.191126 -0.032063 0.233420 0.219184 0.189743 -0.188886 -0.458651 -0.038352 0.097880 0.108098 0.111267 -0.122688 0.006145 -0.075768 0.186233 -0.355980 -0.130551 -0.071230 -0.040006 0.143835 0.132858 0.019549 0.335350 0.159381 0.362716 -0.036317 -0.058973 -0.046549 0.149745 -0.095019 -0.116870 0.403490 -0.187946 0.438080 -0.351990 0.317197 -0.082347 -0.027603 0.281609 0.107449 -0.088095 0.299447 -0.163432 0.259609 -0.209147 -0.261416 -0.315296 -0.230516 -0.436449 -0.468695 0.253489 -0.488549 -0.242588 0.470769 -0.006445 -0.069671 0.109770 -0.131542 0.061201 0.069427 0.039826 -0.219042 -0.276529 0.088614 0.207256 -0.431646 -0.125171 0.003796 -0.144938 0.348799 0.338949 -0.026917 0.264918 -0.191126 -0.038143 -0.152307 -0.005160 0.056235 0.155075 0.391136 0.257945 0.056687 -0.045829 -0.000633 0.170688 -0.108239 -0.092853 0.004089 -0.036205 -0.076744 0.055470 0.080107 0.002467 0.198151 -0.236193 -0.064357 0.093200 0.252104 -0.040793 -0.159481 -0.105995 0.158478 -0.175128 0.218116 -0.029499 -0.493418 0.224227 
moderatepolitics 0.061100 -0.103583 0.048479 -0.079189 0.324145 -0.151418 0.265373 0.093181 -0.018612 -0.238883 -0.121260 0.318721 0.002042 0.459677 -0.302689 0.114749 -0.102062 0.290814 -0.004432 0.412517 0.352802 0.213906 0.182688 -0.170865 -0.018081 0.005175 -0.061554 -0.054581 -0.198281 -0.249716 -0.295591 0.062724 0.032706 0.111525 0.518651 0.212704 -0.059487 -0.113778 -0.160110 -0.171435 0.294339 -0.002634 0.456442 0.263849 -0.443250 -0.158632 0.019032 -0.260084 -0.220484 -0.239148 0.379135 0.099251 -0.222439 0.263935 0.124122 -0.568448 -0.526437 -0.382399 -0.203780 0.122551 -0.618075 0.339656 -0.540406 -0.239328 -0.189311 0.032176 -0.008520 -0.076630 0.218375 -0.501206 0.262569 -0.020858 -0.097215 0.227394 -0.155376 -0.226002 0.005174 -0.090963 -0.202781 0.041193 0.176532 0.279258 0.133975 0.098666 -0.173290 0.136198 -0.439946 0.131065 0.188807 0.026372 -0.248567 0.148811 -0.010466 -0.114124 0.004105 0.163604 0.132558 0.093976 -0.139645 -0.270326 -0.031426 0.055533 0.108465 0.067111 -0.165891 0.005058 -0.059351 0.230460 -0.397846 -0.129003 -0.068228 -0.033374 0.121421 0.113491 -0.000735 0.295356 0.172265 0.347975 -0.025207 -0.033566 -0.049350 0.203420 -0.080557 -0.119015 0.495813 -0.259893 0.523704 -0.371866 0.328886 -0.098855 -0.058503 0.261890 0.095367 -0.110325 0.289210 -0.204442 0.192718 -0.161080 -0.211494 -0.225774 -0.179694 -0.312527 -0.321808 0.176160 -0.343396 -0.164060 0.335831 -0.001652 -0.045184 0.082411 -0.095317 0.040922 0.113535 0.001797 -0.326810 -0.442045 0.106663 0.363374 -0.583440 -0.232304 -0.029846 -0.196368 0.424464 0.430190 -0.108733 0.411403 -0.308782 -0.098478 -0.184629 -0.069360 0.075801 0.213301 0.539752 0.347659 0.049223 -0.060529 -0.038820 0.430116 -0.208031 -0.191547 -0.070257 -0.184163 -0.029731 0.319458 0.024820 -0.142479 0.328849 -0.501289 -0.160963 0.141795 0.387246 -0.019421 -0.355447 -0.128034 0.352935 -0.409847 0.351695 -0.111727 -0.814492 0.440118 
ElizabethWarren 0.033145 -0.242697 0.190073 -0.075288 0.654769 -0.215563 0.365774 0.130526 -0.090093 -0.514914 -0.173003 0.549037 0.012670 0.541182 -0.351410 0.158594 -0.126735 0.450155 -0.019331 0.629213 0.510093 0.355160 0.250192 -0.261792 -0.056287 -0.024742 -0.117757 -0.136743 -0.281138 -0.327425 -0.410753 0.068889 0.024542 0.181794 0.659341 0.273696 -0.063120 -0.137071 -0.230987 -0.216307 0.351854 -0.009633 0.483022 0.272981 -0.467386 -0.193865 0.003831 -0.249004 -0.177135 -0.183031 0.285854 0.075969 -0.156931 0.200079 0.113668 -0.437408 -0.305352 -0.227089 -0.111808 0.067111 -0.292602 0.150761 -0.268868 -0.111643 -0.062465 0.022682 0.012701 -0.039150 0.087659 -0.176745 0.111889 0.004897 -0.203443 0.259380 -0.157502 -0.296578 -0.017850 -0.143416 -0.255520 0.106305 0.213957 0.382168 0.148980 0.083064 -0.241284 0.153786 -0.550690 0.139279 0.240742 0.047111 -0.272192 0.161197 -0.001575 -0.149066 -0.009541 0.185964 0.195279 0.156676 -0.165886 -0.363750 -0.020100 0.059251 0.099611 0.111567 -0.150784 0.011493 -0.092670 0.262174 -0.420768 -0.106111 -0.096146 -0.070394 0.177082 0.150057 0.000393 0.307642 0.182697 0.379716 -0.064942 -0.084213 -0.045707 0.126672 -0.082981 -0.092895 0.307054 -0.150039 0.325677 -0.254251 0.175752 -0.065335 -0.007790 0.167734 0.024683 -0.062563 0.151866 -0.104482 0.211414 -0.181196 -0.244363 -0.228918 -0.214661 -0.356642 -0.337409 0.178637 -0.368682 -0.210376 0.347069 0.033138 -0.017423 0.043571 -0.151663 0.059526 0.109651 -0.022330 -0.348094 -0.500969 0.130101 0.435028 -0.655839 -0.257259 -0.041768 -0.248835 0.514598 0.554392 -0.123974 0.539687 -0.411058 -0.112552 -0.181765 -0.091727 0.122791 0.206657 0.615902 0.406911 0.091444 -0.035521 -0.074333 0.575468 -0.303027 -0.262074 -0.068589 -0.287389 -0.011270 0.459364 0.033016 -0.165759 0.357328 -0.571408 -0.140434 0.118982 0.373833 -0.024622 -0.322787 -0.088078 0.341014 -0.379371 0.307146 -0.128263 -0.707658 0.373399 
progressive 0.006687 -0.205458 0.190117 -0.072881 0.534446 -0.231823 0.423435 0.217281 -0.113234 -0.546396 -0.157123 0.621877 -0.000928 0.570342 -0.392833 0.204014 -0.117438 0.426907 -0.032725 0.564583 0.473010 0.353847 0.222720 -0.228833 -0.091918 -0.035935 -0.140757 -0.187382 -0.396944 -0.442851 -0.576549 0.083931 0.039128 0.265416 0.863760 0.335209 -0.073859 -0.161362 -0.345663 -0.298357 0.337501 0.007881 0.414954 0.257817 -0.516995 -0.235197 -0.036699 -0.242047 -0.209817 -0.217046 0.323904 0.097829 -0.203686 0.213379 0.135849 -0.506733 -0.352086 -0.242805 -0.170869 0.081893 -0.421734 0.199266 -0.377383 -0.146293 -0.115429 0.038347 0.013128 -0.060199 0.191350 -0.419039 0.250573 -0.004232 -0.222811 0.253076 -0.124084 -0.315629 -0.029832 -0.132947 -0.264462 0.115076 0.226745 0.460994 0.158898 0.076406 -0.286790 0.179289 -0.620124 0.157213 0.263875 0.055530 -0.242920 0.174720 -0.018306 -0.170482 -0.028975 0.203250 0.200431 0.189117 -0.182311 -0.407044 -0.017931 0.082173 0.096915 0.116166 -0.227065 0.010323 -0.138832 0.395695 -0.646723 -0.186478 -0.158929 -0.089494 0.218359 0.207704 0.004503 0.429327 0.252490 0.517763 -0.059776 -0.110205 -0.034003 0.107451 -0.075418 -0.100607 0.305088 -0.127133 0.298689 -0.234749 0.146380 -0.035397 0.000347 0.153170 0.031834 -0.042085 0.164306 -0.090765 0.172678 -0.168675 -0.205398 -0.227955 -0.181631 -0.297503 -0.330889 0.167895 -0.322409 -0.157753 0.314191 0.009924 -0.033481 0.041602 -0.104800 0.030153 0.074042 -0.004360 -0.321081 -0.449000 0.138978 0.342471 -0.582971 -0.215574 -0.020471 -0.222628 0.473140 0.504120 -0.088984 0.450139 -0.346034 -0.083544 -0.103571 -0.018514 0.046884 0.119934 0.295440 0.202218 0.053920 -0.023314 -0.026262 0.265260 -0.154388 -0.132410 0.001370 -0.111483 -0.038260 0.164287 0.041714 -0.022510 0.149449 -0.182289 -0.037831 0.067243 0.176899 -0.020756 -0.154281 -0.057986 0.157129 -0.169540 0.148864 -0.037478 -0.387715 0.202655 
JoeBiden 0.051416 -0.280152 0.021924 -0.193619 -0.256783 -0.109966 0.538745 0.190238 -0.094101 -1.075437 -0.436213 1.065147 -0.003470 1.167749 -0.826454 0.386922 -0.318818 0.991182 -0.031478 1.223750 0.994543 0.794850 0.512093 -0.461308 -0.186548 0.039241 -0.342020 -0.344279 -0.608710 -0.660646 -0.825968 0.092683 -0.058278 0.392582 1.167199 0.424162 -0.144393 -0.285099 -0.445807 -0.367495 0.149041 0.061496 0.135748 0.211896 -0.425558 -0.205448 -0.064384 -0.159062 -0.031665 -0.080800 0.082119 -0.120115 -0.202562 0.096851 0.012496 -0.207370 -0.437605 -0.204367 -0.247508 0.078655 -0.539136 0.226335 -0.472536 -0.134152 -0.114945 -0.027025 -0.022414 -0.005642 0.111282 -0.409658 0.234577 -0.078459 -0.274016 0.276983 -0.155693 -0.398006 -0.078323 -0.140330 -0.386448 0.128193 0.229755 0.508728 0.198159 0.134752 -0.277175 0.178078 -0.681824 0.165898 0.331820 0.071835 -0.297627 0.262606 -0.056671 -0.169677 -0.031384 0.238624 0.196936 0.114821 -0.208819 -0.468599 -0.049328 0.131381 0.172281 0.084085 -0.147136 -0.044015 -0.096386 0.188560 -0.396050 -0.232881 -0.070412 -0.042119 0.050998 0.052930 0.058097 0.342304 0.160940 0.395313 -0.020334 -0.004247 -0.015979 0.041049 -0.108200 -0.072546 0.248885 -0.093783 0.310014 -0.350170 0.145708 0.056272 -0.043934 0.182125 0.162564 -0.039950 0.225013 0.011196 0.049943 -0.073479 -0.000004 -0.125014 -0.028863 -0.143797 -0.245807 0.128222 -0.291652 -0.081099 0.287176 -0.057071 -0.079155 0.117174 0.030925 -0.052511 0.127909 0.095566 -0.285021 -0.358914 0.098928 0.234199 -0.585353 -0.156635 0.032370 -0.200190 0.500128 0.436818 -0.029660 0.294826 -0.194010 -0.034362 -0.143687 0.075013 -0.056569 0.179661 0.261618 0.169178 -0.009064 -0.074200 0.016520 0.321586 -0.154253 -0.162148 -0.050520 -0.054370 -0.153895 0.082312 0.092074 0.110471 0.091995 -0.014606 -0.033689 0.017258 0.079313 -0.051426 0.015074 -0.135781 -0.089592 0.046680 0.069628 0.111617 -0.165793 0.080674 
Kamala 0.011411 -0.298457 0.027053 -0.176370 -0.366165 -0.208461 0.765187 0.314657 -0.129285 -1.346419 -0.517667 1.269774 -0.009746 0.873952 -0.642831 0.326402 -0.287890 0.901227 -0.028160 1.051605 0.831313 0.740480 0.423673 -0.379425 -0.230484 0.017956 -0.402991 -0.406775 -0.603023 -0.608864 -0.798942 0.071858 -0.106821 0.413604 1.024586 0.354516 -0.133985 -0.252306 -0.441858 -0.319397 0.056648 0.078609 -0.087568 0.111737 -0.247985 -0.172313 -0.111314 -0.016491 0.103525 0.064265 -0.163425 -0.206867 -0.076842 -0.069684 -0.045718 0.144444 -0.559963 -0.269702 -0.325311 0.093222 -0.673544 0.246821 -0.597862 -0.171845 -0.075350 -0.017362 -0.003040 0.007818 0.120091 -0.443349 0.284698 -0.082529 -0.401217 0.299158 -0.135056 -0.475692 -0.123296 -0.181019 -0.457147 0.204837 0.261774 0.644624 0.214423 0.115266 -0.349642 0.194283 -0.813068 0.167180 0.196321 0.070708 -0.045798 0.150174 -0.064132 -0.076738 -0.059234 0.089398 0.102607 0.026293 -0.107311 -0.308430 -0.025175 0.117632 0.083363 0.038135 0.007882 -0.063042 -0.148980 0.030516 -0.168920 -0.193672 -0.068552 -0.070024 -0.014086 -0.016406 0.102049 0.181507 0.013053 0.187594 -0.038710 -0.017024 -0.041508 -0.034336 -0.167647 -0.097638 0.134936 0.014971 0.187388 -0.315996 0.078002 0.070816 0.045271 0.221115 0.124340 0.001553 0.208063 0.076798 0.089155 -0.144841 -0.040045 -0.187324 -0.057265 -0.258807 -0.355733 0.177045 -0.399820 -0.180129 0.373098 -0.031712 -0.059305 0.066825 -0.042046 -0.057029 0.097127 0.110679 -0.355919 -0.437200 0.154357 0.306998 -0.728583 -0.157088 0.066489 -0.240131 0.604849 0.566462 0.033542 0.362348 -0.269515 0.003482 -0.106257 0.102055 -0.026006 0.108586 0.146624 0.126114 0.046405 -0.030876 0.010571 0.253056 -0.167465 -0.161122 0.017238 -0.039645 -0.172482 0.016788 0.156348 0.121152 0.208167 -0.156225 -0.031993 0.058734 0.235399 -0.068949 -0.134404 -0.170631 0.100961 -0.144448 0.217330 0.033286 -0.519302 0.261977 
SocialDemocracy 0.021515 -0.202467 0.144180 -0.102811 0.266219 -0.146419 0.400189 0.130083 -0.070528 -0.670650 -0.285894 0.712010 0.021310 0.858461 -0.576613 0.258113 -0.186380 0.652198 0.001242 0.873302 0.687854 0.519884 0.356514 -0.337371 -0.109628 -0.007348 -0.203300 -0.237506 -0.348053 -0.351137 -0.488401 0.057542 -0.018763 0.168134 0.561632 0.218041 -0.040732 -0.128038 -0.199505 -0.184234 0.415274 0.025775 0.512295 0.332935 -0.571503 -0.261331 -0.021709 -0.302959 -0.191018 -0.211261 0.308090 0.044607 -0.228664 0.255172 0.111972 -0.516190 -0.392522 -0.280550 -0.157416 0.069052 -0.458135 0.208530 -0.412045 -0.188663 -0.074186 0.021391 0.037613 -0.033538 0.138180 -0.336340 0.217340 0.004505 -0.193254 0.175751 -0.107616 -0.235391 -0.034224 -0.121810 -0.192198 0.104402 0.146828 0.292759 0.105501 0.068473 -0.176830 0.114853 -0.399587 0.077152 0.250571 0.049397 -0.194731 0.161973 -0.023152 -0.193998 -0.017884 0.271956 0.188696 0.168619 -0.146344 -0.403802 -0.014342 0.071249 0.093158 0.096624 -0.172860 0.031274 -0.126862 0.280577 -0.463695 -0.147296 -0.134660 -0.118970 0.234277 0.197815 0.014896 0.420815 0.223361 0.481564 -0.097341 -0.079765 -0.078403 0.181858 -0.117053 -0.148175 0.439507 -0.228061 0.515691 -0.369216 0.344206 -0.141859 -0.018974 0.308544 0.065888 -0.109076 0.290713 -0.196785 0.234059 -0.212659 -0.225056 -0.255253 -0.203083 -0.393894 -0.354466 0.201557 -0.356016 -0.211283 0.351921 0.018819 -0.030543 0.035459 -0.146055 0.050989 0.083154 0.031554 -0.348597 -0.469992 0.117090 0.384070 -0.584377 -0.210705 -0.014280 -0.210119 0.461050 0.469073 -0.069012 0.437537 -0.354840 -0.113531 -0.098339 -0.024678 0.055761 0.067458 0.249261 0.177606 0.042091 -0.017789 0.013754 0.231227 -0.106280 -0.103635 -0.023449 -0.093641 -0.023207 0.192839 0.048116 0.009116 0.075161 -0.126519 -0.035956 -0.012230 0.059740 -0.026400 -0.092425 -0.058666 0.052118 -0.072391 0.082410 -0.020892 -0.239258 0.144351 
demsocialist 0.011862 -0.186375 0.110251 -0.065950 0.090208 -0.020602 0.174491 0.039276 -0.069013 -0.553094 -0.236901 0.579053 0.015938 0.591948 -0.398190 0.169678 -0.159661 0.515061 -0.009296 0.696425 0.567632 0.396529 0.291675 -0.275181 -0.105641 -0.023436 -0.190203 -0.237128 -0.426377 -0.474547 -0.621081 0.092437 0.025477 0.246276 0.871036 0.341766 -0.071791 -0.182141 -0.313751 -0.290965 0.333348 0.010977 0.445324 0.276450 -0.506402 -0.218164 -0.012544 -0.266624 -0.172843 -0.187699 0.288616 0.057127 -0.192251 0.212647 0.105565 -0.454248 -0.552946 -0.404483 -0.235874 0.120213 -0.618482 0.313713 -0.552814 -0.237017 -0.157361 0.035666 0.020131 -0.074216 0.234151 -0.520724 0.304918 -0.000421 -0.179096 0.231185 -0.137033 -0.275675 -0.014693 -0.123834 -0.228969 0.088666 0.196699 0.370336 0.143459 0.089992 -0.228586 0.156867 -0.521265 0.135378 0.371270 0.064476 -0.387039 0.252830 -0.017298 -0.256223 -0.015517 0.341068 0.252053 0.226690 -0.224137 -0.508720 -0.030486 0.090881 0.145722 0.138078 -0.206245 0.017101 -0.086786 0.307302 -0.496721 -0.150717 -0.111461 -0.071044 0.178482 0.162178 -0.002497 0.362501 0.219142 0.430452 -0.051674 -0.057270 -0.071286 0.283985 -0.102975 -0.171692 0.669351 -0.358935 0.721770 -0.488614 0.449918 -0.165195 -0.073964 0.351756 0.096966 -0.152352 0.375319 -0.286860 0.255486 -0.214047 -0.284381 -0.291559 -0.246451 -0.404586 -0.402354 0.214123 -0.321084 -0.157438 0.322573 0.004387 -0.040069 0.065995 -0.106912 0.043592 0.079388 0.002922 -0.257628 -0.362707 0.097217 0.305631 -0.484944 -0.193743 -0.020442 -0.160307 0.335216 0.343350 -0.081619 0.322172 -0.246103 -0.083752 -0.126000 -0.042871 0.057813 0.142194 0.375278 0.246912 0.042907 -0.038878 -0.012774 0.289095 -0.140375 -0.125736 -0.029483 -0.121099 -0.020222 0.211113 0.028025 -0.026739 0.108729 -0.157360 -0.052823 0.045379 0.138555 -0.017058 -0.132571 -0.062033 0.135382 -0.159924 0.142483 -0.037302 -0.363076 0.185605 
BetoORourke 0.055460 -0.384220 0.236528 -0.134638 0.427930 -0.097122 0.321844 0.099224 -0.107149 -0.770945 -0.308201 0.769927 0.011907 0.557866 -0.375247 0.162085 -0.157700 0.501183 -0.011019 0.668902 0.533451 0.388954 0.278254 -0.265607 -0.100503 -0.007346 -0.200699 -0.223120 -0.354918 -0.403196 -0.509308 0.072705 0.010619 0.245219 0.856834 0.333580 -0.084462 -0.194441 -0.294229 -0.276681 0.271051 0.011316 0.373422 0.252623 -0.442289 -0.183038 -0.002888 -0.232075 -0.126682 -0.142865 0.217743 0.006463 -0.158677 0.172760 0.068020 -0.354721 -0.588038 -0.417907 -0.247583 0.122466 -0.575881 0.293277 -0.515816 -0.210053 -0.132499 0.023802 0.008522 -0.058557 0.189037 -0.434842 0.256551 -0.018506 -0.261700 0.326055 -0.195978 -0.391573 -0.030193 -0.176483 -0.330573 0.135250 0.241978 0.470954 0.190186 0.102406 -0.284910 0.185666 -0.659247 0.166801 0.396717 0.076019 -0.392836 0.269633 -0.020428 -0.233676 -0.022909 0.300166 0.255359 0.210587 -0.223411 -0.514613 -0.035240 0.094312 0.144325 0.134462 -0.147457 0.001388 -0.087863 0.221268 -0.388136 -0.135709 -0.082533 -0.064042 0.151434 0.128220 0.014251 0.329167 0.186337 0.391243 -0.050901 -0.054721 -0.055194 0.176937 -0.100821 -0.128011 0.458793 -0.234295 0.510355 -0.386768 0.305767 -0.092674 -0.041064 0.269677 0.093455 -0.105445 0.281527 -0.172650 0.259825 -0.221179 -0.274130 -0.305937 -0.239797 -0.422963 -0.430818 0.231337 -0.478042 -0.237696 0.468881 0.004840 -0.060951 0.100840 -0.149206 0.060234 0.122330 0.011210 -0.385816 -0.532479 0.132706 0.412507 -0.669425 -0.257984 -0.034479 -0.278217 0.594286 0.615169 -0.137791 0.573925 -0.431395 -0.132135 -0.206600 -0.057045 0.090154 0.228034 0.612593 0.395224 0.069419 -0.059439 -0.033052 0.509313 -0.258045 -0.236595 -0.062935 -0.220273 -0.054370 0.366234 0.047956 -0.093115 0.298193 -0.432182 -0.122002 0.109551 0.306556 -0.028953 -0.239235 -0.096859 0.223407 -0.262988 0.242995 -0.072155 -0.594856 0.328081 
ConservativeDemocrat 0.029243 -0.197111 0.198208 -0.083007 0.469281 -0.136838 0.348661 0.137075 -0.082773 -0.506239 -0.190650 0.527783 0.010383 0.465073 -0.310278 0.129224 -0.108487 0.365998 -0.009464 0.512929 0.410425 0.291130 0.210428 -0.210018 -0.058447 -0.014700 -0.115378 -0.139621 -0.262384 -0.292098 -0.379135 0.061145 0.013346 0.180049 0.613216 0.246563 -0.050589 -0.126083 -0.224325 -0.206963 0.259744 0.003805 0.345910 0.205283 -0.388148 -0.162111 -0.003373 -0.202883 -0.148103 -0.160706 0.247559 0.052085 -0.149493 0.182487 0.098500 -0.379276 -0.505239 -0.378931 -0.212004 0.109383 -0.535503 0.265343 -0.476419 -0.202301 -0.133309 0.037990 0.020539 -0.068404 0.207798 -0.432287 0.258366 0.002959 -0.198172 0.250203 -0.146909 -0.299716 -0.021431 -0.136780 -0.251521 0.108002 0.209006 0.389199 0.154838 0.077707 -0.241821 0.162571 -0.555851 0.138250 0.340454 0.060095 -0.353811 0.220137 -0.009606 -0.223558 -0.012697 0.275441 0.224400 0.191928 -0.184019 -0.423728 -0.023015 0.069289 0.113638 0.128219 -0.170467 0.015767 -0.076118 0.248309 -0.416284 -0.117762 -0.087595 -0.056288 0.177763 0.159784 -0.002028 0.338440 0.194765 0.398658 -0.050633 -0.060759 -0.049398 0.183882 -0.072621 -0.110937 0.425658 -0.225972 0.460372 -0.322708 0.291032 -0.106443 -0.048466 0.234999 0.064305 -0.091679 0.244227 -0.184482 0.245228 -0.191644 -0.269330 -0.268129 -0.230897 -0.377115 -0.371583 0.194422 -0.398553 -0.204981 0.390793 0.010510 -0.042477 0.081881 -0.143849 0.071855 0.098930 -0.005830 -0.321435 -0.444003 0.113757 0.347890 -0.544683 -0.222142 -0.039035 -0.222357 0.471889 0.496448 -0.123627 0.485645 -0.365191 -0.113708 -0.207306 -0.078535 0.104197 0.216012 0.614105 0.399864 0.079793 -0.054431 -0.032400 0.445560 -0.224487 -0.207488 -0.057764 -0.201775 -0.026194 0.335409 0.028222 -0.098777 0.266846 -0.403292 -0.112319 0.094295 0.291077 -0.024102 -0.258854 -0.084064 0.234650 -0.276554 0.240695 -0.076381 -0.574204 0.317936 
