15 200
BaemyKlobaechar 0.076504 -0.210902 0.219895 0.015806 0.640916 -0.065567 0.374471 0.107669 -0.013732 -0.323412 -0.256681 0.373482 0.011511 0.692383 -0.361286 0.104785 -0.131422 0.346739 -0.030139 0.619517 0.542889 0.212338 0.271296 -0.280667 0.007787 -0.114265 -0.088085 -0.056428 -0.209126 -0.313344 -0.426333 0.159958 0.040457 0.121484 0.726256 0.326286 -0.080769 -0.162316 -0.220055 -0.176951 0.287352 -0.056526 0.531479 0.241226 -0.436284 -0.148787 0.065996 -0.411189 -0.147958 -0.211184 0.400946 0.102403 -0.145912 0.249264 0.190343 -0.474912 -0.173039 -0.115944 -0.032915 0.045616 -0.148237 0.118696 -0.130271 -0.068226 -0.061907 0.026343 -0.024427 -0.038116 0.024057 -0.068550 0.003717 -0.001978 -0.065289 0.157119 -0.087186 -0.093724 0.049688 -0.025857 -0.116274 0.043321 0.227520 0.218812 0.080363 0.105348 -0.064702 0.076745 -0.398916 0.063524 0.174307 0.049722 -0.331760 0.104165 0.070200 -0.220085 0.004961 0.231087 0.138879 0.075195 -0.162091 -0.209671 -0.037812 0.061201 0.058901 0.089826 -0.170567 0.068220 0.031281 0.252324 -0.365053 -0.044200 0.028865 0.033325 0.162764 0.103056 -0.035782 0.321280 0.199893 0.371863 -0.018460 -0.053097 -0.012158 0.182523 -0.004336 -0.002781 0.340421 -0.207991 0.313980 -0.172185 0.246366 -0.095129 -0.087461 0.107265 0.014348 -0.140566 0.084780 -0.163004 0.066200 -0.019458 -0.066880 -0.022377 -0.043750 -0.110415 -0.052237 0.046204 -0.082589 -0.044060 0.056444 0.011646 0.008598 0.064979 -0.004239 0.018499 0.051662 0.016742 0.016320 0.020480 -0.043610 -0.004132 -0.008389 0.019700 0.005623 -0.004045 0.017501 -0.013681 0.009173 -0.026090 0.034774 0.006965 0.012941 0.016509 -0.025794 0.012155 -0.046923 -0.035021 -0.035155 -0.012029 -0.009322 -0.002305 0.013823 0.018004 -0.034338 0.016470 -0.024800 -0.018489 -0.017902 -0.106228 0.112566 -0.246369 -0.096890 0.057074 0.146511 0.029884 -0.144802 -0.056893 0.195225 -0.176707 0.187289 -0.101196 -0.221757 0.140736 
politics 0.005418 -0.042465 0.013922 0.015760 -0.115183 -0.001347 0.091133 0.124229 -0.017543 -0.188703 -0.137233 0.235174 0.001589 0.388880 -0.207228 0.066469 -0.038284 0.120419 -0.006410 0.209195 0.190639 0.083076 0.101086 -0.103110 0.001948 -0.067924 -0.011283 -0.031291 -0.118894 -0.147960 -0.231036 0.078665 0.056502 0.054558 0.350005 0.155041 -0.016926 -0.059058 -0.131024 -0.120606 0.314344 -0.049127 0.543852 0.225670 -0.417039 -0.152255 0.047354 -0.378788 -0.150528 -0.169420 0.321185 0.134276 -0.094105 0.190137 0.152785 -0.389318 -0.344096 -0.310374 -0.107527 0.086357 -0.308146 0.215482 -0.277014 -0.162662 -0.143893 0.097992 -0.003725 -0.128519 0.223851 -0.360132 0.154778 0.071493 -0.092100 0.179810 -0.090722 -0.141141 0.050993 -0.050254 -0.108026 0.059158 0.103776 0.136713 0.051800 0.042044 -0.056244 0.056054 -0.208477 0.039756 0.146130 0.026878 -0.209636 0.080046 0.033695 -0.150652 0.002423 0.170922 0.127281 0.131859 -0.128823 -0.211226 -0.020760 0.034535 0.044665 0.090694 -0.240524 0.104522 -0.011218 0.402647 -0.552704 -0.051797 -0.050534 -0.008394 0.259401 0.206755 -0.057211 0.395373 0.269592 0.463277 -0.034933 -0.098884 -0.010908 0.121352 0.014548 -0.025441 0.245221 -0.150063 0.224605 -0.074597 0.186753 -0.102629 -0.047645 0.078004 -0.018324 -0.099051 0.076147 -0.158120 0.290356 -0.168407 -0.393108 -0.203619 -0.293939 -0.465796 -0.290160 0.172338 -0.320295 -0.198725 0.279924 0.067061 0.032368 0.116689 -0.168525 0.127992 0.162950 -0.114958 -0.232102 -0.361346 0.001285 0.425098 -0.446570 -0.209684 -0.065742 -0.197672 0.309453 0.353877 -0.185090 0.437091 -0.327384 -0.120196 -0.130749 -0.251774 0.219417 0.275129 0.660169 0.437544 0.090840 -0.050704 -0.171758 0.518812 -0.238128 -0.155719 -0.137629 -0.316209 0.106373 0.553231 -0.002061 -0.027262 0.014905 -0.046465 -0.026961 0.019724 0.032789 0.008744 -0.052645 0.002128 0.022888 -0.041243 0.025653 -0.021440 -0.032773 0.015745 
YangForPresidentHQ 0.000901 0.023332 -0.001803 -0.001599 0.183286 -0.011888 0.080072 0.150515 -0.060615 -0.215193 -0.100598 0.236911 0.013133 0.375465 -0.209578 0.068706 -0.069470 0.190561 -0.023655 0.313509 0.276172 0.122301 0.136745 -0.152332 -0.008627 -0.063300 -0.034100 -0.026169 -0.096178 -0.148566 -0.205708 0.063936 -0.008668 0.052997 0.122179 0.052106 -0.026804 -0.037633 -0.052487 -0.025128 0.115826 -0.032547 0.168335 0.069002 -0.150406 -0.063668 0.001227 -0.097879 -0.093201 -0.106592 0.204782 0.073237 -0.050153 0.118201 0.117419 -0.225454 -0.106361 -0.090951 -0.048173 0.032657 -0.116150 0.065176 -0.102691 -0.036909 -0.070571 0.044873 -0.005361 -0.067946 0.097542 -0.149664 0.074424 0.016935 -0.210226 0.321157 -0.134973 -0.269294 0.072581 -0.114841 -0.228852 0.138136 0.331474 0.431656 0.135255 0.090660 -0.198560 0.158276 -0.671056 0.133340 0.122171 0.032733 -0.151001 0.060145 0.030959 -0.131365 -0.013569 0.109267 0.141921 0.109820 -0.118120 -0.184511 -0.007403 0.021971 0.020882 0.099523 -0.104775 0.041837 -0.023652 0.205417 -0.311462 -0.028307 -0.023936 -0.010554 0.115266 0.087185 -0.015405 0.159802 0.095506 0.178499 -0.012144 -0.068280 -0.037454 0.223728 -0.009641 -0.065488 0.432079 -0.226831 0.387903 -0.189832 0.267138 -0.148029 -0.044327 0.169584 -0.025989 -0.120661 0.120783 -0.211852 0.254262 -0.162330 -0.334494 -0.195541 -0.245712 -0.389748 -0.259369 0.130352 -0.316208 -0.189451 0.262318 0.080029 0.060041 0.076347 -0.182028 0.117952 0.134229 -0.128145 -0.227284 -0.385821 0.038522 0.416329 -0.460234 -0.207143 -0.048617 -0.216714 0.317611 0.394341 -0.167891 0.441261 -0.334562 -0.089141 -0.115718 -0.216620 0.202845 0.234742 0.576980 0.399766 0.113980 -0.026083 -0.124420 0.353471 -0.186788 -0.116896 -0.059769 -0.231918 0.071239 0.363537 -0.032866 -0.103643 0.137827 -0.245627 -0.033237 0.060432 0.128106 0.030653 -0.152053 -0.000270 0.202185 -0.188138 0.128426 -0.105754 -0.236212 0.124260 
SandersForPresident -0.007672 -0.031302 0.056078 0.028215 0.233008 -0.021987 0.063677 0.008556 -0.051974 -0.265155 -0.166458 0.317766 0.016476 0.543556 -0.291878 0.087943 -0.041633 0.132223 -0.007717 0.242819 0.200828 0.088842 0.103539 -0.117872 0.006120 -0.075473 -0.038877 -0.038343 -0.142721 -0.188324 -0.264754 0.092028 0.021367 0.053374 0.255842 0.116683 -0.019880 -0.046373 -0.091978 -0.076282 0.079990 -0.014185 0.122358 0.045121 -0.099009 -0.034992 0.013924 -0.068241 -0.125436 -0.145625 0.264099 0.098838 -0.075331 0.157255 0.137779 -0.322704 -0.419742 -0.355879 -0.116997 0.100804 -0.381490 0.256805 -0.346700 -0.182116 -0.126382 0.084372 -0.001880 -0.112269 0.178085 -0.279298 0.124476 0.051625 -0.043702 0.073384 -0.037901 -0.057027 0.007842 -0.030840 -0.054899 0.029261 0.156803 0.195379 0.067825 0.040899 -0.098468 0.075170 -0.317282 0.063537 0.148270 0.036956 -0.212046 0.070892 0.030054 -0.166774 -0.005076 0.172311 0.104441 0.091055 -0.085039 -0.154907 -0.003991 0.023604 0.026378 0.075299 -0.159324 0.059091 -0.028162 0.278962 -0.396305 -0.032157 -0.044067 -0.015597 0.110462 0.102530 -0.021739 0.142557 0.095238 0.182276 -0.033651 -0.052307 -0.025357 0.096495 -0.011774 -0.030161 0.184397 -0.114615 0.167011 -0.080845 0.140913 -0.082407 -0.024458 0.086821 -0.019682 -0.057440 0.076618 -0.130988 0.262690 -0.172832 -0.371028 -0.201725 -0.292704 -0.413353 -0.279897 0.151133 -0.293455 -0.192132 0.263969 0.067611 0.033569 0.061947 -0.181932 0.119309 0.124567 -0.113925 -0.237632 -0.365863 0.035944 0.410827 -0.433359 -0.215905 -0.077929 -0.211834 0.342708 0.407728 -0.194605 0.508114 -0.390363 -0.129645 -0.046941 -0.082433 0.081055 0.074175 0.222916 0.149897 0.050193 -0.002463 -0.079331 0.261014 -0.129982 -0.093299 -0.056202 -0.173316 0.058478 0.284285 -0.015985 -0.086392 0.095915 -0.184426 -0.030838 0.041231 0.096551 0.022649 -0.143775 0.012077 0.230515 -0.225248 0.158747 -0.128666 -0.296101 0.166530 
centerleftpolitics 0.088140 -0.253235 0.233808 0.000008 0.702428 -0.061252 0.398296 0.107327 0.003644 -0.386033 -0.331519 0.446381 0.014260 0.848404 -0.441631 0.121730 -0.170612 0.437713 -0.033594 0.790140 0.690689 0.261532 0.339384 -0.352295 0.013985 -0.124976 -0.116453 -0.060068 -0.234969 -0.360649 -0.479123 0.189863 0.040067 0.136587 0.878382 0.394836 -0.107093 -0.202525 -0.244071 -0.202590 0.342291 -0.066583 0.646577 0.297790 -0.532555 -0.175650 0.089442 -0.511932 -0.167280 -0.248814 0.472587 0.105211 -0.179095 0.299077 0.216017 -0.562901 -0.129758 -0.059241 -0.003900 0.036739 -0.099426 0.098728 -0.083071 -0.047085 -0.036801 0.002575 -0.036693 -0.001022 -0.050337 0.026368 -0.053680 -0.026704 -0.020424 0.100304 -0.068756 -0.029936 0.041390 -0.000709 -0.077283 0.011504 0.213874 0.173529 0.066819 0.116559 -0.035635 0.059786 -0.346965 0.050345 0.114114 0.035318 -0.272618 0.079613 0.064081 -0.164433 0.008275 0.176376 0.087783 0.015722 -0.130880 -0.143630 -0.043236 0.058347 0.053452 0.056183 -0.216819 0.078635 0.053711 0.300494 -0.433315 -0.050053 0.052163 0.051680 0.184784 0.103255 -0.045863 0.384059 0.242641 0.446654 -0.016605 -0.049464 0.006397 0.130829 -0.000728 0.028057 0.228354 -0.148634 0.217116 -0.140039 0.173650 -0.041990 -0.084954 0.055604 0.038087 -0.115542 0.039388 -0.087402 0.039163 0.008003 -0.017427 0.014519 -0.005395 -0.071389 -0.015344 0.042077 -0.039216 -0.014202 0.013831 -0.003195 -0.005537 0.074755 0.040346 -0.005481 0.054316 0.047926 0.066307 0.099319 -0.077049 -0.079095 0.067238 0.065840 0.015081 0.028160 -0.023766 -0.089384 0.041950 -0.114912 0.111497 0.025345 0.034479 0.066922 -0.077805 -0.024750 -0.171368 -0.125751 -0.084243 -0.015540 0.015213 -0.078573 0.063447 0.056712 -0.040490 0.075156 -0.053547 -0.102149 -0.000076 -0.054906 0.047432 -0.131974 -0.093315 0.025453 0.086896 0.014940 -0.067855 -0.074462 0.085233 -0.073042 0.128621 -0.043945 -0.085243 0.072944 
Pete_Buttigieg 0.007625 0.000449 -0.042984 -0.028942 0.036308 0.011672 0.009465 0.071316 -0.003288 -0.257362 -0.207132 0.282817 0.013404 0.543993 -0.283349 0.074339 -0.132897 0.339680 -0.023776 0.620786 0.539924 0.201810 0.261631 -0.276780 0.008159 -0.118670 -0.107202 -0.053795 -0.216388 -0.329453 -0.440411 0.172317 0.013048 0.105451 0.611132 0.280032 -0.087180 -0.146291 -0.173073 -0.136448 0.209116 -0.046664 0.388035 0.178859 -0.332364 -0.107783 0.054662 -0.310172 -0.099410 -0.153698 0.287100 0.058108 -0.108926 0.186183 0.140479 -0.333177 -0.124535 -0.069053 -0.015594 0.034776 -0.105268 0.081631 -0.091472 -0.042866 -0.029818 0.003919 -0.024815 -0.007627 -0.035396 0.020821 -0.036151 -0.020921 -0.121638 0.269606 -0.137854 -0.168909 0.074712 -0.063064 -0.195264 0.075892 0.376189 0.383199 0.128290 0.156260 -0.141602 0.143526 -0.678386 0.122117 0.269792 0.074663 -0.515214 0.160521 0.107549 -0.345028 0.005288 0.356523 0.255779 0.152069 -0.288969 -0.383521 -0.054777 0.099567 0.097673 0.178258 -0.209309 0.074775 0.035307 0.307380 -0.449064 -0.050172 0.039796 0.044175 0.225472 0.144719 -0.055352 0.433394 0.266319 0.499061 -0.024427 -0.074115 -0.011105 0.191466 -0.007393 0.006270 0.348338 -0.207214 0.316319 -0.186103 0.234754 -0.080093 -0.088989 0.108392 0.025294 -0.130917 0.077109 -0.144751 -0.033421 0.052748 0.074726 0.064150 0.070225 0.053909 0.053348 -0.009775 -0.026315 -0.010340 -0.001129 -0.004136 0.003723 0.049075 0.034851 -0.013334 0.089897 0.015155 0.010185 0.007949 -0.067172 0.016223 -0.045904 0.016671 0.017178 0.016546 -0.005250 -0.063711 0.033819 -0.094136 0.094084 0.030968 0.042757 0.084559 -0.091583 -0.042854 -0.208135 -0.138485 -0.077752 -0.009508 0.042844 -0.186098 0.104119 0.081736 -0.004385 0.138357 -0.076853 -0.227594 -0.006698 -0.074034 0.073111 -0.179805 -0.101492 0.032080 0.113771 0.021434 -0.097926 -0.085805 0.136629 -0.106032 0.155759 -0.054106 -0.099723 0.084417 
moderatepolitics 0.088091 -0.268384 0.287883 0.042648 0.673281 -0.083452 0.446300 0.113283 -0.012693 -0.239956 -0.188757 0.290101 0.010700 0.529708 -0.278712 0.082390 -0.084188 0.228721 -0.021809 0.430965 0.377770 0.142299 0.184250 -0.187162 0.006821 -0.059266 -0.040033 -0.039185 -0.120015 -0.175689 -0.238086 0.090129 0.041387 0.083762 0.516739 0.231392 -0.041184 -0.100220 -0.155820 -0.131485 0.234235 -0.043053 0.409687 0.171692 -0.327533 -0.114372 0.048542 -0.307000 -0.128817 -0.175597 0.314428 0.107806 -0.112641 0.195182 0.153774 -0.377810 -0.292010 -0.241841 -0.071336 0.069161 -0.256243 0.188082 -0.228215 -0.130978 -0.085937 0.051609 -0.008213 -0.071326 0.098472 -0.169205 0.058276 0.040366 -0.081842 0.174107 -0.090094 -0.126316 0.047842 -0.051005 -0.117254 0.049011 0.239448 0.262513 0.090941 0.097030 -0.107968 0.110379 -0.439844 0.083234 0.147784 0.035289 -0.263729 0.086738 0.041488 -0.179033 0.010432 0.200413 0.093697 0.077010 -0.105334 -0.156053 -0.012082 0.035947 0.044023 0.071181 -0.205797 0.080142 0.003181 0.331932 -0.453773 -0.046887 -0.018998 0.002126 0.207989 0.156644 -0.051336 0.340191 0.232613 0.417822 -0.035547 -0.073199 -0.015201 0.115371 -0.000867 -0.008366 0.224521 -0.141199 0.205812 -0.092829 0.150245 -0.066410 -0.057393 0.064006 -0.007051 -0.080496 0.054596 -0.116195 0.252957 -0.151286 -0.338791 -0.166542 -0.265111 -0.406799 -0.251324 0.153632 -0.272498 -0.167815 0.238715 0.054785 0.029919 0.090490 -0.137249 0.102138 0.158199 -0.088057 -0.193182 -0.301763 -0.017026 0.364232 -0.389420 -0.173151 -0.063012 -0.204485 0.334435 0.352072 -0.176091 0.434695 -0.323566 -0.116970 -0.042093 -0.096376 0.068443 0.112941 0.241225 0.161691 0.022934 -0.026016 -0.096927 0.284169 -0.117675 -0.076939 -0.094175 -0.164731 0.050514 0.296263 -0.015823 -0.096955 0.102618 -0.214808 -0.073682 0.051177 0.120099 0.029576 -0.199085 -0.032997 0.234878 -0.206806 0.194277 -0.119601 -0.276564 0.169230 
ElizabethWarren 0.046082 -0.124874 0.135150 -0.006390 0.559921 -0.048846 0.273184 0.106250 0.007649 -0.157189 -0.132290 0.165969 0.003318 0.322322 -0.169382 0.044837 -0.054657 0.132905 -0.004716 0.219996 0.192265 0.078805 0.097457 -0.101562 0.003396 -0.049721 -0.061095 -0.018643 -0.096038 -0.145013 -0.196343 0.080750 -0.009806 0.032983 0.218293 0.098371 -0.044706 -0.069313 -0.058731 -0.044561 0.164925 -0.031192 0.306436 0.145426 -0.259058 -0.086699 0.037710 -0.238126 -0.102172 -0.142121 0.274055 0.063339 -0.097057 0.173251 0.133330 -0.321757 -0.296583 -0.227425 -0.075904 0.077002 -0.264763 0.189038 -0.234627 -0.121790 -0.100120 0.052996 -0.024469 -0.071854 0.087696 -0.166648 0.051919 0.012979 -0.075556 0.157027 -0.082716 -0.099167 0.043630 -0.032359 -0.115498 0.050087 0.207325 0.216781 0.076501 0.087182 -0.073435 0.074861 -0.380474 0.064306 0.200687 0.051822 -0.351019 0.114049 0.073910 -0.243157 0.000066 0.249478 0.188498 0.122263 -0.203684 -0.282565 -0.042693 0.066988 0.067684 0.129389 -0.136831 0.054381 0.019839 0.204054 -0.307337 -0.035134 0.020388 0.026682 0.123480 0.079080 -0.024317 0.241369 0.141143 0.265255 -0.010867 -0.040630 -0.025056 0.242401 -0.003216 -0.029622 0.457619 -0.267528 0.420535 -0.215990 0.314577 -0.141793 -0.090060 0.158394 0.003807 -0.162053 0.123458 -0.224353 0.191907 -0.101759 -0.240506 -0.123680 -0.171999 -0.303160 -0.186470 0.113629 -0.257995 -0.155558 0.209539 0.052925 0.032848 0.101724 -0.115381 0.087532 0.103014 -0.039497 -0.090637 -0.150288 -0.021999 0.179268 -0.207799 -0.076187 -0.018823 -0.087011 0.142329 0.145647 -0.064554 0.160795 -0.107143 -0.034893 -0.039584 -0.062232 0.054564 0.092134 0.180321 0.119509 0.009371 -0.019916 -0.041403 0.106776 -0.047083 -0.022196 -0.048276 -0.055879 -0.000761 0.096528 -0.047371 -0.225860 0.248458 -0.508844 -0.158829 0.124468 0.293283 0.064773 -0.320877 -0.067189 0.426855 -0.401728 0.347273 -0.218586 -0.495482 0.294439 
progressive 0.050472 -0.153395 0.136166 0.006769 0.295824 -0.020743 0.208383 0.055534 -0.003923 -0.220106 -0.182991 0.265148 0.007445 0.484048 -0.252963 0.077212 -0.087386 0.224457 -0.020716 0.400129 0.355924 0.134714 0.173962 -0.176350 0.005726 -0.077661 -0.050005 -0.041316 -0.139794 -0.211884 -0.289240 0.106780 0.044311 0.092993 0.571312 0.251360 -0.054427 -0.118911 -0.168091 -0.140098 0.220622 -0.041373 0.404555 0.180927 -0.323861 -0.112788 0.047331 -0.308975 -0.101931 -0.144382 0.274470 0.074767 -0.100977 0.167148 0.126739 -0.325919 -0.099013 -0.067770 -0.018078 0.025824 -0.081658 0.074673 -0.069942 -0.043276 -0.039144 0.019362 -0.016629 -0.025859 0.019308 -0.057167 0.003961 0.007359 -0.061524 0.138568 -0.073892 -0.086892 0.047133 -0.030216 -0.093108 0.038059 0.187652 0.186892 0.066282 0.090942 -0.055932 0.070782 -0.327907 0.052881 0.137171 0.035494 -0.261498 0.088071 0.049409 -0.170243 0.003399 0.184197 0.092318 0.053784 -0.117566 -0.149716 -0.026488 0.039778 0.044537 0.061458 -0.202054 0.078757 0.024165 0.313598 -0.439044 -0.048630 0.010689 0.021565 0.202373 0.134130 -0.047777 0.366361 0.245293 0.434865 -0.021936 -0.069403 0.000133 0.087685 0.001709 0.005484 0.161068 -0.099920 0.152957 -0.081324 0.126164 -0.046902 -0.052237 0.045127 0.011523 -0.084049 0.031152 -0.078220 0.197349 -0.110008 -0.247117 -0.121169 -0.187159 -0.324290 -0.184724 0.124739 -0.176192 -0.096399 0.145203 0.034715 0.018481 0.092027 -0.061760 0.057085 0.138669 -0.058037 -0.132741 -0.218244 -0.033196 0.267298 -0.288644 -0.119718 -0.035118 -0.138830 0.219504 0.222381 -0.112147 0.262525 -0.190077 -0.075652 -0.049938 -0.109751 0.080871 0.144982 0.276476 0.182066 0.009354 -0.036945 -0.103293 0.300788 -0.122479 -0.067113 -0.106007 -0.171610 0.044048 0.313117 -0.018822 -0.101512 0.108852 -0.228380 -0.087721 0.060594 0.134837 0.032908 -0.165675 -0.045750 0.186973 -0.179220 0.173319 -0.102733 -0.234604 0.143654 
JoeBiden 0.065667 -0.121473 0.092508 -0.016529 0.259617 -0.017171 0.143493 0.051071 -0.010705 -0.396606 -0.317751 0.446580 0.017959 0.842301 -0.438129 0.121487 -0.168098 0.434687 -0.033368 0.782291 0.681335 0.262048 0.339667 -0.353281 0.011533 -0.161985 -0.121141 -0.077035 -0.297753 -0.441278 -0.599436 0.228440 0.062797 0.176201 1.038686 0.468427 -0.116221 -0.229798 -0.312574 -0.258375 0.334014 -0.067394 0.639855 0.292304 -0.524342 -0.172277 0.085207 -0.495232 -0.159964 -0.232632 0.450128 0.095972 -0.162526 0.284839 0.212341 -0.528035 -0.168647 -0.103141 -0.027366 0.040912 -0.140664 0.119622 -0.127594 -0.060429 -0.077728 0.025395 -0.034552 -0.044237 0.023730 -0.078670 -0.001740 -0.006001 -0.072001 0.183656 -0.100816 -0.102178 0.057901 -0.028653 -0.138955 0.045031 0.249117 0.233187 0.085387 0.118165 -0.063743 0.077717 -0.434444 0.071085 0.293350 0.081582 -0.547740 0.171113 0.110637 -0.368498 0.004727 0.383937 0.236676 0.137476 -0.266861 -0.357090 -0.056449 0.094265 0.098709 0.162469 -0.277609 0.102722 0.035305 0.415010 -0.601087 -0.069596 0.032635 0.048792 0.274908 0.184247 -0.061345 0.519093 0.326490 0.602078 -0.032551 -0.091702 -0.011875 0.225445 -0.004615 0.001636 0.418146 -0.257627 0.387057 -0.218033 0.306225 -0.116520 -0.113127 0.139241 0.023097 -0.175653 0.110782 -0.201290 -0.043851 0.057907 0.083010 0.065409 0.077684 0.062379 0.058823 -0.019082 0.035236 0.030097 -0.049256 -0.020561 -0.010100 0.045903 0.070024 -0.037121 0.036339 0.042187 0.070103 0.106038 -0.058510 -0.095698 0.085522 0.067945 0.020940 0.039080 -0.048379 -0.093456 0.043736 -0.124963 0.116927 0.038946 0.009319 0.020442 -0.029555 0.023810 -0.044419 -0.033522 -0.045763 -0.015573 -0.008104 -0.011470 0.021374 0.021261 -0.045851 0.021115 -0.035942 -0.037381 -0.026528 -0.147580 0.156608 -0.340947 -0.133379 0.071919 0.199479 0.041956 -0.201383 -0.069854 0.247847 -0.244284 0.241817 -0.134083 -0.288226 0.186748 
Kamala 0.080211 -0.212121 0.170215 -0.023484 0.496953 -0.041328 0.296708 0.091011 0.005727 -0.453951 -0.384099 0.515203 0.013515 0.975410 -0.508703 0.142784 -0.186445 0.470683 -0.034913 0.823972 0.724262 0.282062 0.361137 -0.372223 0.012797 -0.146658 -0.137006 -0.065960 -0.269630 -0.413679 -0.557577 0.220946 0.043883 0.164285 1.031848 0.459582 -0.130345 -0.248307 -0.293499 -0.240694 0.370647 -0.069361 0.728418 0.346944 -0.599971 -0.197410 0.097887 -0.582997 -0.174033 -0.266969 0.531925 0.094044 -0.201794 0.336344 0.241593 -0.622407 -0.026687 0.034984 0.018848 0.010990 -0.008546 0.039851 -0.000032 0.002758 -0.020184 -0.016379 -0.047068 0.020086 -0.087169 0.075202 -0.083346 -0.046920 -0.073818 0.197779 -0.116280 -0.098253 0.072241 -0.019069 -0.148990 0.049637 0.306419 0.277122 0.105853 0.158145 -0.059501 0.090019 -0.523184 0.075404 0.281743 0.078630 -0.555088 0.174702 0.121533 -0.360543 0.005811 0.376449 0.220545 0.098407 -0.271757 -0.337379 -0.076060 0.101958 0.102623 0.142419 -0.237226 0.090816 0.068093 0.320665 -0.474271 -0.062504 0.074915 0.072492 0.185186 0.093882 -0.037787 0.421732 0.252688 0.470123 -0.008819 -0.044843 -0.005017 0.267731 -0.000851 0.009190 0.488369 -0.301116 0.459579 -0.262860 0.363769 -0.131797 -0.139292 0.151128 0.039700 -0.218341 0.115575 -0.221399 -0.101159 0.101616 0.179504 0.118079 0.155937 0.143561 0.129020 -0.043269 0.118825 0.088488 -0.129081 -0.041129 -0.025060 0.054008 0.141285 -0.073893 -0.040183 0.133292 0.239975 0.370197 -0.096495 -0.386619 0.396087 0.225965 0.068089 0.175348 -0.265952 -0.359918 0.172659 -0.454498 0.376392 0.114809 0.099616 0.192951 -0.180825 -0.153691 -0.505538 -0.351458 -0.138123 0.003989 0.101798 -0.335878 0.182387 0.139719 0.018091 0.232743 -0.110593 -0.379495 -0.018410 -0.126388 0.128883 -0.302493 -0.148851 0.067153 0.188149 0.038584 -0.144850 -0.098382 0.201735 -0.194180 0.234122 -0.114139 -0.231420 0.158634 
SocialDemocracy 0.088088 -0.227976 0.235210 0.006866 0.654152 -0.060258 0.384237 0.099336 0.004120 -0.307712 -0.266668 0.357670 0.010725 0.676737 -0.350775 0.099835 -0.126224 0.317704 -0.025153 0.562621 0.497890 0.186847 0.243493 -0.250383 0.009313 -0.103854 -0.086374 -0.048737 -0.183668 -0.286059 -0.383033 0.149911 0.033994 0.103573 0.669883 0.298615 -0.080525 -0.155687 -0.185406 -0.152826 0.242967 -0.047768 0.465334 0.212693 -0.378375 -0.126181 0.062188 -0.366020 -0.118980 -0.176602 0.344100 0.076994 -0.128229 0.213629 0.157352 -0.404867 -0.116636 -0.065681 -0.010935 0.033785 -0.090637 0.091281 -0.076703 -0.045493 -0.042310 0.011499 -0.030058 -0.015814 -0.018449 -0.013054 -0.030266 -0.010280 -0.050865 0.139263 -0.079945 -0.068452 0.053614 -0.018112 -0.098658 0.032007 0.226523 0.205732 0.073356 0.114723 -0.052664 0.073203 -0.382568 0.058381 0.200862 0.055167 -0.398903 0.126044 0.082681 -0.258584 0.004924 0.275056 0.166169 0.089364 -0.203862 -0.258598 -0.047803 0.072412 0.075325 0.111482 -0.211045 0.079204 0.045081 0.308114 -0.435276 -0.049739 0.037914 0.042864 0.186347 0.111042 -0.045015 0.371904 0.241121 0.434450 -0.016909 -0.056331 0.003460 0.124368 0.000458 0.016025 0.219133 -0.138791 0.206660 -0.122726 0.154899 -0.046558 -0.071905 0.051413 0.024124 -0.105118 0.034625 -0.083446 0.055240 -0.011653 -0.048983 -0.006055 -0.031953 -0.100740 -0.036223 0.044980 -0.061598 -0.026496 0.037779 0.007566 0.003681 0.072117 0.014853 0.006038 0.081289 0.007208 0.001337 -0.011797 -0.059895 0.040063 -0.051473 0.001972 -0.000295 -0.027466 0.048082 0.012718 -0.009674 0.006215 0.013703 -0.007282 0.030539 0.044870 -0.055025 -0.012091 -0.130497 -0.093822 -0.065672 -0.013135 0.009707 -0.057737 0.048419 0.049464 -0.031516 0.052859 -0.036506 -0.072353 -0.020373 -0.127432 0.126626 -0.285664 -0.122760 0.067756 0.169792 0.038855 -0.190307 -0.074304 0.241078 -0.218893 0.225054 -0.124433 -0.266127 0.170783 
demsocialist 0.062464 -0.178524 0.202562 0.020568 0.603961 -0.061617 0.322586 0.105253 -0.023210 -0.281561 -0.212164 0.334644 0.013745 0.596594 -0.315442 0.095139 -0.116740 0.313991 -0.027823 0.566519 0.500835 0.191844 0.243781 -0.253190 0.004686 -0.116395 -0.070971 -0.063448 -0.210253 -0.313322 -0.428868 0.153201 0.054435 0.124090 0.715781 0.318296 -0.068427 -0.147264 -0.217797 -0.179551 0.297987 -0.059475 0.536230 0.233982 -0.433979 -0.152106 0.060210 -0.400953 -0.157277 -0.213633 0.402059 0.121790 -0.141910 0.244674 0.192532 -0.474590 -0.240770 -0.190763 -0.059655 0.064006 -0.213211 0.161616 -0.187961 -0.105135 -0.086689 0.047761 -0.017152 -0.067396 0.078201 -0.152747 0.046280 0.025036 -0.092261 0.192693 -0.098024 -0.132991 0.056723 -0.051746 -0.131149 0.057921 0.239556 0.254780 0.086440 0.103589 -0.095961 0.101298 -0.436753 0.078409 0.208119 0.051845 -0.367833 0.125672 0.065443 -0.246716 0.003163 0.265665 0.159428 0.112090 -0.177742 -0.247651 -0.028875 0.056070 0.063428 0.108201 -0.179173 0.067028 0.018510 0.281627 -0.393128 -0.044622 0.004911 0.017737 0.187048 0.129790 -0.044950 0.336385 0.222963 0.399050 -0.022731 -0.067028 -0.019748 0.205657 -0.003027 -0.023318 0.389485 -0.229094 0.357592 -0.178213 0.266966 -0.120346 -0.085422 0.125682 -0.002061 -0.145549 0.098151 -0.194304 0.112552 -0.060086 -0.135619 -0.064781 -0.104421 -0.185968 -0.105983 0.073101 -0.137957 -0.074065 0.113328 0.027097 0.016269 0.066951 -0.047359 0.041566 0.055116 -0.007509 -0.025227 -0.051222 -0.025821 0.064934 -0.076890 -0.023625 -0.006025 -0.041010 0.064353 0.052910 -0.025851 0.054801 -0.035732 -0.019932 -0.016677 -0.042177 0.025477 0.065554 0.104502 0.071613 -0.005515 -0.018879 -0.035426 0.097366 -0.034890 -0.012195 -0.041835 -0.051057 0.008715 0.095360 -0.020077 -0.104070 0.112073 -0.233179 -0.080201 0.057405 0.136002 0.030659 -0.163323 -0.043849 0.199139 -0.179257 0.165702 -0.097319 -0.228632 0.138789 
BetoORourke 0.041938 -0.103568 0.121882 0.019036 0.330421 -0.038907 0.188207 0.059332 -0.030996 -0.227555 -0.160268 0.273522 0.012700 0.475656 -0.249539 0.078035 -0.091430 0.250168 -0.025165 0.458169 0.399421 0.155050 0.198298 -0.206817 0.001791 -0.108635 -0.051097 -0.055307 -0.191182 -0.277084 -0.385843 0.133245 0.059943 0.115352 0.624888 0.279197 -0.053340 -0.119349 -0.200632 -0.166209 0.276743 -0.056376 0.482970 0.205933 -0.387102 -0.138643 0.050036 -0.350214 -0.150835 -0.191354 0.351906 0.120139 -0.114497 0.214586 0.170819 -0.419781 -0.428899 -0.360376 -0.118843 0.106360 -0.385321 0.277060 -0.349564 -0.189820 -0.152652 0.095958 -0.014246 -0.135772 0.193102 -0.326207 0.130144 0.059960 -0.112919 0.218987 -0.104935 -0.163262 0.058853 -0.065849 -0.145828 0.069219 0.236246 0.271832 0.090500 0.088476 -0.115329 0.105540 -0.446456 0.086652 0.223755 0.056377 -0.371158 0.128719 0.066685 -0.259641 0.001220 0.275181 0.164505 0.129866 -0.172641 -0.255508 -0.023862 0.053180 0.056638 0.114460 -0.177509 0.067211 0.001611 0.286825 -0.403296 -0.040174 -0.009777 0.007334 0.205096 0.149133 -0.048039 0.337197 0.226221 0.404624 -0.029221 -0.079800 -0.020870 0.172639 -0.003915 -0.025023 0.338106 -0.197252 0.305031 -0.144729 0.229278 -0.109145 -0.065497 0.117103 -0.010497 -0.122405 0.095742 -0.181594 0.161743 -0.093712 -0.211222 -0.108832 -0.160393 -0.254720 -0.158997 0.095119 -0.188839 -0.113336 0.161422 0.039484 0.022503 0.065830 -0.093503 0.067769 0.112751 -0.067236 -0.139838 -0.226697 -0.006865 0.263376 -0.287047 -0.126046 -0.037754 -0.143113 0.225714 0.247646 -0.117587 0.290038 -0.218343 -0.072091 -0.059735 -0.119519 0.099148 0.145673 0.315888 0.214482 0.037039 -0.028124 -0.091478 0.257051 -0.113872 -0.071256 -0.075187 -0.156134 0.041362 0.267411 -0.023118 -0.106760 0.116958 -0.235999 -0.072628 0.059323 0.130663 0.032024 -0.162697 -0.027254 0.198438 -0.181927 0.156133 -0.104317 -0.232997 0.135998 
ConservativeDemocrat 0.036846 -0.091057 0.084360 0.006155 0.259939 -0.029716 0.168426 0.061308 -0.020996 -0.213942 -0.159315 0.255150 0.007960 0.454173 -0.240670 0.069360 -0.085793 0.230491 -0.022018 0.421573 0.367884 0.144978 0.182361 -0.192946 0.005829 -0.086336 -0.049857 -0.043168 -0.151440 -0.223054 -0.305863 0.112724 0.037984 0.088740 0.494609 0.221409 -0.046741 -0.099936 -0.151639 -0.127079 0.186214 -0.034838 0.335958 0.144788 -0.270030 -0.092782 0.040237 -0.251862 -0.097237 -0.132815 0.253534 0.071608 -0.084456 0.155141 0.120404 -0.298353 -0.271512 -0.221530 -0.070819 0.070455 -0.244406 0.180045 -0.215589 -0.119631 -0.095018 0.056354 -0.015530 -0.075157 0.100145 -0.178603 0.061291 0.030694 -0.069446 0.145602 -0.075268 -0.101604 0.042862 -0.037498 -0.102073 0.045780 0.182439 0.193387 0.068465 0.073955 -0.074324 0.075943 -0.332734 0.058141 0.172797 0.041778 -0.298540 0.100126 0.057274 -0.206850 0.003414 0.215139 0.134443 0.093858 -0.143188 -0.206138 -0.027183 0.047131 0.048005 0.093376 -0.140857 0.053359 0.011784 0.214525 -0.305383 -0.030425 0.005058 0.017578 0.146894 0.100331 -0.030942 0.257452 0.164951 0.304286 -0.018077 -0.053664 -0.012960 0.152487 -0.002749 -0.014974 0.289673 -0.169775 0.262912 -0.132379 0.203528 -0.091893 -0.065088 0.096957 -0.003477 -0.107960 0.076803 -0.151588 0.105027 -0.054703 -0.129225 -0.063261 -0.097949 -0.166008 -0.099572 0.063143 -0.125361 -0.072597 0.103432 0.023581 0.013547 0.057022 -0.051081 0.044032 0.062672 -0.022140 -0.049555 -0.081522 -0.017111 0.101681 -0.115509 -0.044465 -0.013805 -0.054554 0.089250 0.085647 -0.039561 0.099466 -0.067417 -0.023037 -0.022691 -0.048919 0.035182 0.065822 0.124401 0.081970 0.003993 -0.017652 -0.040383 0.106488 -0.041169 -0.023754 -0.044990 -0.061996 0.011613 0.106179 -0.015017 -0.068033 0.073240 -0.153834 -0.057533 0.036475 0.087386 0.021881 -0.101262 -0.027886 0.127199 -0.114113 0.112790 -0.066340 -0.139807 0.087592 
