15 200
BaemyKlobaechar 0.166402 -0.315806 0.235860 -0.016475 0.496909 0.000374 0.314567 0.125279 0.032379 -0.531281 -0.154385 0.521625 -0.012815 0.550978 -0.334462 0.141473 -0.249211 0.395416 -0.083090 0.552309 0.613142 0.250046 0.353129 -0.131027 -0.117155 0.117651 -0.218313 -0.120048 -0.237590 -0.427363 -0.356651 0.140375 -0.030752 0.093863 0.574126 0.255067 -0.185118 -0.226908 -0.224089 -0.170676 0.162725 0.005543 0.378629 0.277382 -0.500163 -0.138358 -0.034608 -0.268547 -0.090993 -0.237243 0.271852 0.033593 -0.340643 0.213721 0.134168 -0.335965 -0.374241 -0.194533 -0.279934 0.025333 -0.475564 0.270985 -0.472151 -0.069230 -0.167774 -0.116590 -0.101779 -0.087285 0.128820 -0.358376 0.071288 -0.042320 -0.062182 0.425039 -0.087025 -0.547242 -0.016492 -0.004551 -0.519188 -0.044059 0.208964 0.410772 0.151772 0.133117 -0.163611 0.194961 -0.603019 0.280740 0.106655 0.062150 -0.351393 0.095745 -0.014659 -0.105384 0.051333 0.134420 0.148911 0.105342 -0.231557 -0.244042 0.003057 0.145526 0.230888 0.121246 -0.046282 -0.021981 -0.056184 0.106257 -0.208978 -0.190917 -0.009225 0.081048 -0.070641 0.044625 0.013155 0.170665 0.050486 0.198687 0.039087 0.041103 -0.015553 0.013783 -0.027588 0.039308 0.209258 -0.119395 0.132077 -0.107264 0.064119 0.098366 -0.126368 0.063139 0.081243 -0.010475 0.169643 -0.037802 0.223441 -0.159823 -0.493873 -0.357617 -0.375712 -0.355338 -0.599044 0.138693 -0.469716 -0.121524 0.508700 -0.105171 -0.041010 0.179003 -0.071646 0.023825 0.262722 -0.111254 -0.460966 -0.467655 0.198317 0.364420 -0.821700 -0.416675 0.007032 -0.294449 0.694303 0.658994 -0.438445 0.620821 -0.449756 -0.081529 -0.029606 -0.006110 -0.190737 0.303185 0.374068 0.300678 0.083839 -0.158347 -0.237938 0.741169 -0.324627 -0.441731 -0.157999 -0.246475 0.001003 0.264604 -0.065900 -0.157924 0.544367 -0.545789 -0.081949 0.332739 0.509681 0.064133 -0.530190 -0.051701 0.426341 -0.527010 0.362501 0.079341 -0.700939 0.367998 
politics 0.047331 0.029627 0.070742 -0.008797 0.439293 -0.064929 0.238201 0.141107 -0.129421 -0.501725 -0.103905 0.577592 -0.003313 0.608496 -0.410009 0.178459 -0.145630 0.331490 -0.065807 0.447333 0.477062 0.214519 0.236781 -0.188088 -0.104020 -0.017982 -0.083849 -0.148045 -0.291610 -0.488745 -0.492299 0.106479 0.094058 0.178916 0.700418 0.283469 -0.112971 -0.157976 -0.287995 -0.234144 0.368608 -0.068628 0.597958 0.298192 -0.545114 -0.201384 -0.044542 -0.230367 -0.274963 -0.305405 0.477192 0.257739 -0.262065 0.234891 0.216736 -0.589596 -0.552444 -0.452968 -0.364715 0.154992 -0.694004 0.390651 -0.635155 -0.177102 -0.230442 0.012467 -0.035618 -0.179021 0.354651 -0.624153 0.311314 0.020999 -0.097708 0.166973 -0.039427 -0.227926 0.009151 -0.073585 -0.143358 0.040791 0.098344 0.247037 0.075803 0.001305 -0.179530 0.112581 -0.298411 0.119990 0.557209 0.143454 -0.855410 0.388029 -0.025483 -0.441941 0.003543 0.481386 0.439858 0.457275 -0.458761 -0.683441 0.030082 0.144761 0.300404 0.302874 -0.237348 -0.044128 -0.156394 0.568067 -0.842936 -0.299045 -0.213350 -0.018374 0.176166 0.313403 -0.059962 0.439819 0.357644 0.617116 0.034361 -0.151502 -0.042360 0.207275 -0.016563 -0.140694 0.674793 -0.299520 0.521370 -0.279306 0.322192 -0.066991 -0.135325 0.255463 0.018122 -0.088412 0.391828 -0.333549 0.256296 -0.226083 -0.470554 -0.377463 -0.403578 -0.384106 -0.512474 0.156344 -0.580830 -0.164265 0.605425 0.003204 -0.005245 0.111808 -0.219784 0.115101 -0.018394 -0.113078 -0.152785 -0.295499 0.168468 0.246952 -0.362634 -0.226641 -0.035423 -0.140686 0.193603 0.305397 -0.151724 0.305926 -0.237733 -0.054522 -0.120605 -0.120209 0.052414 0.257365 0.541728 0.366085 0.124366 -0.046275 -0.076151 0.292300 -0.170543 -0.138117 0.011519 -0.178955 0.064076 0.227572 -0.101194 -0.191778 0.338125 -0.411463 0.020170 0.208983 0.320273 0.027927 -0.436018 0.053591 0.377583 -0.368123 0.143378 -0.081171 -0.566746 0.216815 
YangForPresidentHQ 0.065363 0.109619 0.062895 0.019168 0.103737 -0.007307 0.003469 -0.007995 -0.065192 -0.624454 -0.124086 0.629094 -0.014169 0.645029 -0.431135 0.194575 -0.206404 0.393071 -0.080919 0.531846 0.584591 0.262646 0.302959 -0.174043 -0.074593 0.006743 -0.099210 -0.085327 -0.185836 -0.300765 -0.288698 0.099208 0.023908 0.106044 0.405762 0.156771 -0.099072 -0.111013 -0.199402 -0.136833 0.207065 -0.009893 0.328976 0.199207 -0.386880 -0.135325 -0.046761 -0.151278 -0.148190 -0.187548 0.255649 0.122144 -0.190454 0.126786 0.144708 -0.326468 -0.513998 -0.350050 -0.364500 0.099154 -0.643523 0.339111 -0.602085 -0.132113 -0.188168 -0.037341 -0.071711 -0.125574 0.284572 -0.547093 0.223841 -0.008029 -0.088398 0.249290 -0.053092 -0.316077 -0.051955 -0.025319 -0.314185 -0.002083 0.186059 0.461812 0.147919 0.081345 -0.218839 0.195934 -0.602608 0.269281 0.200229 0.051839 -0.343161 0.148615 -0.037761 -0.154427 0.001606 0.180599 0.200596 0.217017 -0.296472 -0.380646 -0.011004 0.137290 0.223698 0.158949 -0.215585 -0.057986 -0.198850 0.576183 -0.929148 -0.414134 -0.211224 0.035117 0.086115 0.310292 -0.036793 0.518468 0.342506 0.667181 0.073419 -0.096005 -0.037207 0.116137 -0.030187 -0.065258 0.523713 -0.240534 0.363248 -0.218140 0.184489 0.040609 -0.115985 0.160533 0.078317 -0.044111 0.306777 -0.189714 0.195856 -0.175562 -0.442255 -0.340557 -0.329212 -0.321396 -0.509408 0.148137 -0.484432 -0.134880 0.510721 -0.057330 -0.036054 0.138787 -0.117965 0.044877 0.125643 -0.118449 -0.373547 -0.419177 0.213856 0.337743 -0.676191 -0.366106 -0.016689 -0.245116 0.532592 0.577641 -0.357414 0.555800 -0.406134 -0.082728 -0.108376 -0.070264 -0.062745 0.331750 0.579255 0.399098 0.123398 -0.117604 -0.222121 0.751773 -0.385619 -0.427012 -0.089147 -0.305652 0.035197 0.359727 -0.035362 -0.107963 0.359902 -0.327692 0.003968 0.236155 0.315589 0.045192 -0.256828 0.025903 0.254605 -0.284912 0.157118 0.007722 -0.497030 0.229327 
SandersForPresident 0.129764 -0.329824 0.149191 -0.019267 0.507196 -0.031025 0.216463 0.084330 -0.081927 -0.349587 -0.096095 0.321761 0.019661 0.396337 -0.247975 0.076539 -0.136641 0.262545 -0.041737 0.386113 0.405348 0.145937 0.241541 -0.155719 -0.093766 0.039092 -0.091571 -0.124464 -0.268226 -0.470121 -0.454140 0.116670 0.083461 0.124469 0.658165 0.296912 -0.121880 -0.191295 -0.240725 -0.236249 0.237212 -0.053301 0.493340 0.255219 -0.480194 -0.130606 -0.004340 -0.239321 -0.208403 -0.266893 0.395584 0.175878 -0.259141 0.253557 0.159407 -0.474772 -0.380255 -0.318663 -0.249929 0.083101 -0.474551 0.288856 -0.443696 -0.115755 -0.186464 -0.060971 -0.048915 -0.110715 0.219793 -0.419735 0.180673 -0.017304 -0.059200 0.314976 -0.096385 -0.409933 0.015588 -0.052966 -0.312670 -0.011658 0.178218 0.398465 0.171119 0.077283 -0.235273 0.199536 -0.557005 0.266109 0.442678 0.108965 -0.758577 0.319260 -0.004620 -0.348429 0.042027 0.398489 0.413561 0.423421 -0.431715 -0.612819 0.016772 0.132776 0.324774 0.279811 -0.199338 -0.012295 -0.082118 0.398483 -0.611737 -0.221538 -0.122042 0.018914 0.146025 0.275257 -0.058844 0.413219 0.308523 0.529505 0.054524 -0.099856 -0.015268 0.126423 0.036039 -0.061527 0.416076 -0.215256 0.346466 -0.152824 0.186492 -0.041941 -0.110901 0.117077 0.029759 -0.047853 0.219950 -0.193367 0.207794 -0.139327 -0.391000 -0.293583 -0.318502 -0.297408 -0.428935 0.108108 -0.414863 -0.111694 0.444094 -0.036794 -0.018827 0.124292 -0.134882 0.084733 0.120776 -0.116906 -0.272862 -0.350282 0.165888 0.283413 -0.533637 -0.309512 -0.024256 -0.200017 0.386132 0.430422 -0.298276 0.427842 -0.311280 -0.076862 -0.095034 -0.083244 -0.085274 0.345244 0.563634 0.404639 0.111269 -0.134193 -0.176375 0.554447 -0.256968 -0.299529 -0.090360 -0.224863 0.045450 0.273257 -0.090348 -0.159252 0.321825 -0.369133 -0.039939 0.223334 0.335723 0.037654 -0.404302 -0.005805 0.343481 -0.391207 0.232906 -0.003178 -0.544667 0.251983 
centerleftpolitics 0.218628 -0.427841 0.451552 -0.012427 0.789201 -0.082101 0.560471 0.259086 0.056074 -0.444899 -0.122262 0.458377 -0.001208 0.478614 -0.274572 0.130714 -0.197273 0.331961 -0.070286 0.472902 0.506157 0.229695 0.278998 -0.087904 -0.098525 0.099045 -0.197768 -0.083332 -0.137919 -0.211365 -0.163515 0.090291 -0.087006 0.042265 0.249239 0.132731 -0.125031 -0.135829 -0.121227 -0.072621 0.197512 0.012893 0.376608 0.269463 -0.423478 -0.140390 -0.048281 -0.217740 -0.056872 -0.191157 0.192489 -0.002208 -0.293719 0.187098 0.119465 -0.249012 -0.406564 -0.215787 -0.297814 0.025765 -0.512075 0.269548 -0.519303 -0.083878 -0.175035 -0.125974 -0.087673 -0.091660 0.137509 -0.387780 0.095569 -0.029633 -0.086271 0.355454 -0.054818 -0.474425 -0.034573 -0.001727 -0.479839 -0.024059 0.203448 0.391135 0.118600 0.125962 -0.150519 0.174068 -0.567570 0.250126 0.073195 0.054654 -0.252324 0.057976 -0.004511 -0.076048 0.047481 0.100880 0.086922 0.046828 -0.151629 -0.164810 0.005809 0.134770 0.165349 0.088489 -0.001362 -0.008469 -0.046869 0.009895 -0.049418 -0.124928 0.004897 0.056707 -0.061536 0.019638 0.028210 0.124107 -0.006480 0.123189 0.007546 0.045417 -0.036050 0.080428 -0.055872 -0.000373 0.416017 -0.204481 0.292340 -0.203890 0.124641 0.080522 -0.137447 0.138931 0.060144 -0.014770 0.245064 -0.077004 0.315402 -0.228200 -0.641198 -0.466701 -0.486477 -0.489852 -0.775720 0.174435 -0.554772 -0.178946 0.593721 -0.103154 -0.028565 0.169500 -0.130800 0.037000 0.263140 -0.121241 -0.491363 -0.512276 0.209260 0.378642 -0.846954 -0.408018 0.008606 -0.327697 0.760632 0.728402 -0.452670 0.685083 -0.505241 -0.080123 -0.041710 -0.013844 -0.164189 0.290495 0.402551 0.332904 0.109373 -0.155040 -0.248295 0.786870 -0.343406 -0.464045 -0.152834 -0.270694 0.019037 0.299404 -0.082831 -0.216854 0.670477 -0.721757 -0.097866 0.380438 0.621654 0.059332 -0.652314 -0.056429 0.569150 -0.706300 0.477876 0.069335 -0.975392 0.485554 
Pete_Buttigieg 0.095825 -0.351636 0.158354 -0.021731 0.287192 0.060668 0.070494 0.056998 0.022700 -0.654345 -0.179390 0.651060 -0.043781 0.624549 -0.417566 0.181966 -0.238063 0.350542 -0.074914 0.465681 0.553498 0.221806 0.318516 -0.106020 -0.091749 0.126191 -0.200623 -0.104286 -0.217255 -0.423341 -0.343903 0.141514 -0.019198 0.084318 0.577440 0.220328 -0.180707 -0.222952 -0.214921 -0.154797 0.192688 0.017086 0.439925 0.350069 -0.677735 -0.190116 -0.057317 -0.362666 -0.171506 -0.362385 0.454569 0.108644 -0.495408 0.286373 0.209443 -0.560422 -0.529520 -0.290326 -0.405904 0.067761 -0.679976 0.390623 -0.633791 -0.112550 -0.218843 -0.107316 -0.145562 -0.124920 0.224536 -0.557400 0.134733 -0.054461 -0.052817 0.430578 -0.101740 -0.535679 -0.011569 -0.005840 -0.483835 -0.039918 0.238194 0.504791 0.192731 0.148092 -0.209664 0.250720 -0.711591 0.318850 0.256162 0.089107 -0.575335 0.218823 -0.048911 -0.204548 0.040399 0.250564 0.283406 0.258558 -0.427930 -0.487041 -0.002958 0.211708 0.353590 0.202957 -0.140188 -0.048211 -0.152577 0.408608 -0.684973 -0.394600 -0.116962 0.095366 -0.045352 0.174196 -0.002861 0.394446 0.213381 0.496162 0.091142 -0.018457 -0.045616 0.125007 -0.037317 -0.052992 0.625894 -0.294925 0.443548 -0.266723 0.244334 0.076676 -0.205284 0.194932 0.129741 -0.067367 0.401274 -0.234953 0.171389 -0.155970 -0.425155 -0.324302 -0.318544 -0.307969 -0.526642 0.147328 -0.414069 -0.078759 0.446660 -0.098187 -0.040317 0.178435 -0.014963 -0.002119 0.190276 -0.033754 -0.291050 -0.236807 0.099493 0.199647 -0.520502 -0.250541 0.025630 -0.205147 0.511033 0.465103 -0.302233 0.408742 -0.300585 -0.054097 0.022359 0.020694 -0.173538 0.205752 0.182023 0.170695 0.044665 -0.123794 -0.175983 0.535338 -0.252934 -0.325114 -0.100271 -0.157893 -0.030632 0.153980 -0.000839 -0.049635 0.414621 -0.324096 -0.037413 0.275828 0.359759 0.072206 -0.266193 -0.057284 0.210102 -0.273593 0.234566 0.098784 -0.399147 0.222669 
moderatepolitics 0.087970 -0.186196 0.167205 -0.005665 0.411699 -0.022694 0.254583 0.150229 -0.053527 -0.608719 -0.140134 0.646284 -0.024335 0.724568 -0.471748 0.219450 -0.198344 0.356662 -0.082840 0.471852 0.530618 0.235787 0.268222 -0.141527 -0.103734 0.023798 -0.146304 -0.128860 -0.239032 -0.426394 -0.395474 0.110935 0.018286 0.163075 0.632895 0.248785 -0.149859 -0.176067 -0.268350 -0.176913 0.240770 -0.024515 0.398800 0.246304 -0.452533 -0.163613 -0.055089 -0.204594 -0.152119 -0.241812 0.333157 0.130550 -0.274549 0.167749 0.179514 -0.402475 -0.553274 -0.374516 -0.404813 0.115910 -0.710683 0.392623 -0.667070 -0.144312 -0.232937 -0.034288 -0.087850 -0.180171 0.301184 -0.614380 0.232552 -0.001000 -0.094165 0.207491 -0.011816 -0.277213 -0.013741 -0.035777 -0.242434 0.029413 0.148388 0.298081 0.068929 0.046813 -0.138616 0.128364 -0.399201 0.144591 0.367975 0.121419 -0.633996 0.266263 -0.031953 -0.309126 -0.000276 0.324592 0.275985 0.250329 -0.344137 -0.437356 0.022132 0.150854 0.226997 0.192117 -0.122943 -0.043211 -0.150485 0.402632 -0.623861 -0.286042 -0.139052 0.024359 0.057091 0.210181 -0.017043 0.367607 0.232401 0.498497 0.039352 -0.102214 -0.057705 0.176573 -0.061298 -0.110608 0.641064 -0.273073 0.465507 -0.288171 0.257282 -0.004783 -0.126407 0.224287 0.049452 -0.072975 0.339479 -0.247910 0.199227 -0.184041 -0.393815 -0.302996 -0.315565 -0.327097 -0.456130 0.142359 -0.557443 -0.152332 0.563497 -0.024978 0.007923 0.141004 -0.137191 0.058691 0.086844 -0.077103 -0.221513 -0.289510 0.141013 0.241932 -0.477521 -0.237873 0.004330 -0.177660 0.339454 0.385481 -0.183762 0.335235 -0.267130 -0.037232 -0.089784 -0.109326 -0.059086 0.391819 0.646552 0.493986 0.165058 -0.129446 -0.136721 0.409449 -0.233200 -0.217466 -0.008898 -0.191113 0.027586 0.211920 -0.040946 -0.112150 0.357646 -0.355494 0.014758 0.219506 0.310844 0.050204 -0.328292 -0.005322 0.320583 -0.341045 0.210639 -0.008184 -0.515824 0.199520 
ElizabethWarren 0.126017 -0.122766 0.122048 -0.038823 0.526575 0.030722 0.174964 0.052935 -0.063288 -0.539524 -0.121801 0.495095 0.009866 0.455424 -0.312750 0.101795 -0.146122 0.209487 -0.048339 0.337372 0.375614 0.107431 0.240984 -0.088559 -0.140861 0.132409 -0.159064 -0.188550 -0.388821 -0.708610 -0.618892 0.179981 0.125433 0.129589 0.910607 0.388978 -0.186689 -0.278223 -0.302632 -0.325454 0.094638 -0.011454 0.320685 0.192979 -0.456350 -0.088041 0.007780 -0.234424 -0.187387 -0.275788 0.357108 0.145440 -0.321974 0.247108 0.099468 -0.459561 -0.410306 -0.298634 -0.297850 0.056022 -0.529488 0.346708 -0.504683 -0.102395 -0.210083 -0.130495 -0.094677 -0.093950 0.223658 -0.483448 0.162851 -0.034653 -0.010484 0.380738 -0.122171 -0.503636 0.013302 -0.040595 -0.388631 -0.078198 0.091434 0.297116 0.161337 0.072341 -0.185292 0.179165 -0.381768 0.254556 0.228600 0.051341 -0.506366 0.203302 -0.043154 -0.165342 0.059205 0.229901 0.241500 0.277302 -0.309376 -0.409911 0.006595 0.107834 0.305836 0.185171 -0.190645 -0.051685 -0.089675 0.362322 -0.556263 -0.271299 -0.126113 0.045579 0.027274 0.182234 -0.045708 0.272900 0.243271 0.399899 0.074451 -0.015353 -0.005616 0.072228 0.048103 -0.031368 0.422935 -0.239087 0.341799 -0.149907 0.190226 0.043213 -0.209949 0.119771 0.091900 -0.036618 0.341147 -0.225011 0.151798 -0.124545 -0.382097 -0.297221 -0.335313 -0.228523 -0.453371 0.096225 -0.309382 -0.035343 0.391357 -0.093877 -0.080466 0.121134 -0.070077 0.040537 0.100072 -0.078684 -0.240987 -0.242963 0.149513 0.206542 -0.439129 -0.291754 -0.025362 -0.153373 0.356825 0.349666 -0.311499 0.376891 -0.261293 -0.081357 -0.067675 -0.018578 -0.164332 0.277632 0.398573 0.266674 0.054635 -0.136436 -0.153188 0.575899 -0.228491 -0.346844 -0.130113 -0.193628 0.026085 0.228624 -0.082851 -0.122191 0.314230 -0.299115 -0.065056 0.240632 0.327318 0.043183 -0.494309 0.003632 0.297380 -0.342185 0.160550 0.059033 -0.454865 0.236328 
progressive 0.196640 -0.235434 0.337454 -0.017197 1.047902 -0.122791 0.536619 0.235926 -0.072550 -0.442916 -0.075645 0.453985 0.018804 0.460501 -0.294733 0.135956 -0.147186 0.285952 -0.071104 0.404680 0.432134 0.187053 0.225808 -0.110900 -0.086480 0.036752 -0.063300 -0.107544 -0.160147 -0.272490 -0.253716 0.055027 0.029787 0.087119 0.321744 0.140708 -0.052670 -0.087416 -0.126850 -0.113816 0.216294 -0.030916 0.375460 0.194522 -0.395183 -0.142362 -0.042528 -0.168536 -0.141528 -0.200224 0.277672 0.121634 -0.214682 0.181522 0.129686 -0.333743 -0.446266 -0.348905 -0.340534 0.079398 -0.589315 0.331904 -0.564151 -0.130965 -0.196749 -0.084434 -0.050646 -0.132100 0.248315 -0.515130 0.214038 0.012670 -0.099750 0.246520 -0.025811 -0.387949 -0.011789 -0.058855 -0.301344 0.008340 0.109140 0.292651 0.088608 0.046266 -0.167010 0.147702 -0.363812 0.177403 0.088916 0.026788 -0.152694 0.068751 -0.021602 -0.063897 0.019125 0.080370 0.150527 0.161397 -0.148400 -0.236031 0.035105 0.052447 0.129931 0.120854 -0.135391 -0.038813 -0.134495 0.343975 -0.499884 -0.239274 -0.153771 -0.011682 0.072654 0.177284 -0.018125 0.239017 0.178558 0.342814 0.017249 -0.065905 -0.051242 0.156409 -0.028330 -0.113308 0.615564 -0.274651 0.482001 -0.256165 0.278509 -0.022784 -0.171980 0.260822 0.028653 -0.051348 0.411056 -0.278506 0.222385 -0.196764 -0.443452 -0.348321 -0.371065 -0.343443 -0.530494 0.110313 -0.481247 -0.126612 0.532981 -0.053192 -0.012336 0.104936 -0.163907 0.059630 0.110063 -0.130907 -0.348355 -0.439755 0.223784 0.316482 -0.625181 -0.348690 -0.003744 -0.221293 0.430279 0.472356 -0.295145 0.449711 -0.348308 -0.067121 -0.054998 -0.049961 -0.064048 0.202181 0.350962 0.271975 0.100863 -0.087566 -0.159478 0.584290 -0.258790 -0.325602 -0.067734 -0.236611 0.064848 0.281655 -0.088988 -0.160087 0.406644 -0.451532 -0.033400 0.232728 0.371168 0.032105 -0.479815 -0.001325 0.398617 -0.463963 0.238536 0.017170 -0.662751 0.299329 
JoeBiden 0.266305 -0.596588 0.553720 -0.044424 1.000054 -0.070559 0.694681 0.266407 0.084979 -0.573940 -0.176009 0.546921 0.011984 0.597587 -0.342220 0.138587 -0.303405 0.482744 -0.094526 0.695978 0.746011 0.307011 0.421041 -0.130259 -0.124971 0.173288 -0.271420 -0.124336 -0.203941 -0.345933 -0.246851 0.126575 -0.112667 0.062768 0.437785 0.226405 -0.183734 -0.222175 -0.160294 -0.117097 0.227184 0.005242 0.514090 0.364054 -0.596200 -0.167159 -0.037851 -0.314489 -0.052294 -0.246580 0.244667 -0.031844 -0.397402 0.255317 0.142045 -0.300026 -0.230685 -0.059792 -0.176788 -0.040935 -0.296326 0.157973 -0.330179 -0.010646 -0.125502 -0.161973 -0.087093 -0.039469 0.001251 -0.162099 -0.035805 -0.040235 -0.061738 0.414941 -0.065272 -0.549703 -0.033142 0.004121 -0.570966 -0.054978 0.193445 0.324790 0.106275 0.145020 -0.097886 0.155908 -0.518142 0.243038 -0.096989 0.032380 -0.087592 -0.052073 -0.006291 0.032158 0.061353 -0.018740 -0.008966 -0.104016 -0.046724 0.020552 0.016722 0.103779 0.129098 0.030852 0.061037 -0.020305 -0.009971 -0.142545 0.182074 -0.076241 0.074750 0.076290 -0.137569 -0.079362 0.045542 -0.008141 -0.107517 -0.034009 -0.007031 0.103994 -0.037207 0.043771 -0.061233 0.043420 0.317548 -0.182497 0.234112 -0.201724 0.095789 0.121856 -0.181970 0.122290 0.094003 0.000662 0.231782 -0.022736 0.349053 -0.243317 -0.724215 -0.513472 -0.559690 -0.551020 -0.900906 0.192930 -0.633787 -0.189085 0.680518 -0.139531 -0.037007 0.218910 -0.114784 0.016828 0.295256 -0.066299 -0.417003 -0.381206 0.139086 0.284816 -0.731155 -0.333459 0.026106 -0.244780 0.650175 0.549740 -0.370975 0.516261 -0.365487 -0.044812 0.009910 0.050201 -0.226317 0.196846 0.161701 0.177687 0.051253 -0.134970 -0.251855 0.815573 -0.331056 -0.495156 -0.202840 -0.255633 -0.004501 0.259178 -0.070825 -0.192039 0.651546 -0.701845 -0.128183 0.352233 0.627728 0.053941 -0.667541 -0.086598 0.519703 -0.686049 0.473781 0.122297 -0.837768 0.470961 
Kamala 0.082086 -0.443736 0.297008 -0.014219 0.197865 0.046775 0.307281 0.118999 0.112988 -0.779529 -0.239857 0.817964 -0.051178 0.868155 -0.528220 0.250316 -0.380070 0.591088 -0.129222 0.786259 0.895506 0.390944 0.486825 -0.163137 -0.146524 0.152096 -0.348471 -0.122857 -0.237060 -0.433411 -0.327909 0.175282 -0.135300 0.106565 0.587350 0.249056 -0.266272 -0.272611 -0.252880 -0.126824 0.204543 0.037981 0.434244 0.385656 -0.639797 -0.200497 -0.081186 -0.348784 -0.046262 -0.275948 0.283472 -0.038409 -0.464803 0.220600 0.179743 -0.348918 -0.419871 -0.123136 -0.332043 0.017511 -0.532566 0.286554 -0.537085 -0.047672 -0.177781 -0.115345 -0.158027 -0.102573 0.092952 -0.376835 0.011463 -0.061301 -0.097674 0.481439 -0.055942 -0.588828 -0.034205 0.033479 -0.632112 -0.031374 0.281054 0.479988 0.124643 0.173836 -0.131951 0.197515 -0.717154 0.285243 -0.033013 0.058649 -0.183769 -0.000112 -0.006776 -0.023378 0.028020 0.015888 -0.021341 -0.117915 -0.128093 -0.010998 -0.018381 0.173927 0.134381 0.013391 0.020955 -0.031189 -0.071342 0.052362 -0.161538 -0.232628 0.042590 0.142931 -0.167063 -0.034913 0.052507 0.172736 -0.027450 0.173420 0.050890 0.063556 -0.030466 0.055644 -0.090429 0.044910 0.405580 -0.181939 0.224422 -0.217146 0.102212 0.164887 -0.156625 0.120365 0.121057 -0.035005 0.245229 -0.041466 0.320638 -0.239404 -0.703609 -0.503883 -0.507006 -0.534032 -0.868766 0.226402 -0.608883 -0.168360 0.623693 -0.133865 -0.034327 0.248020 -0.041438 -0.011742 0.301563 -0.027845 -0.363493 -0.270283 0.073877 0.221308 -0.657519 -0.252814 0.050613 -0.259750 0.691820 0.580912 -0.342698 0.489699 -0.352239 -0.019034 0.033750 0.036425 -0.233619 0.285195 0.237441 0.245066 0.068507 -0.169944 -0.298153 0.816926 -0.376682 -0.489698 -0.171873 -0.251986 -0.046335 0.232722 -0.021858 -0.153190 0.733293 -0.692571 -0.101156 0.438420 0.653142 0.098437 -0.541934 -0.110461 0.454041 -0.584804 0.490106 0.124387 -0.785482 0.423658 
SocialDemocracy 0.127711 -0.260556 0.280247 -0.022052 0.559341 -0.034676 0.357538 0.159769 0.023227 -0.305635 -0.057418 0.335771 -0.005954 0.340140 -0.222716 0.109428 -0.154545 0.248698 -0.063537 0.356716 0.398860 0.163245 0.198684 -0.057981 -0.111294 0.089527 -0.178818 -0.133027 -0.220332 -0.387267 -0.315656 0.106432 -0.018279 0.111783 0.518082 0.217843 -0.145361 -0.168820 -0.205075 -0.143278 0.210253 -0.009221 0.380382 0.251962 -0.416214 -0.137335 -0.045501 -0.187805 -0.084966 -0.191811 0.207928 0.055550 -0.263694 0.137842 0.117452 -0.268504 -0.356639 -0.205996 -0.265192 0.042287 -0.461711 0.253354 -0.453339 -0.072336 -0.151583 -0.068941 -0.067127 -0.102606 0.159330 -0.365703 0.111417 0.000311 -0.056500 0.218423 -0.020986 -0.293790 -0.020435 -0.024607 -0.276733 -0.017339 0.098652 0.206388 0.046767 0.052347 -0.096844 0.103241 -0.277883 0.133785 0.212082 0.088362 -0.451842 0.166852 -0.038501 -0.187915 0.020847 0.215143 0.210828 0.183905 -0.283486 -0.350467 0.032331 0.143260 0.230799 0.168231 -0.075233 -0.053393 -0.121015 0.262576 -0.391919 -0.230204 -0.102959 0.022510 -0.000342 0.130391 -0.008143 0.223946 0.140431 0.332832 0.017830 -0.040667 -0.054294 0.131188 -0.062907 -0.070051 0.555312 -0.250202 0.398450 -0.257420 0.212552 0.039529 -0.159191 0.209411 0.052352 -0.045034 0.342378 -0.199965 0.324844 -0.280581 -0.676189 -0.503521 -0.547885 -0.522330 -0.804722 0.205038 -0.841736 -0.232314 0.888335 -0.085134 -0.018035 0.215925 -0.218377 0.077242 0.180842 -0.113578 -0.392559 -0.447107 0.212805 0.350642 -0.754103 -0.382490 0.009609 -0.241562 0.540649 0.536938 -0.317753 0.493945 -0.379489 -0.054653 -0.051956 -0.048834 -0.144541 0.341117 0.496335 0.401550 0.134951 -0.139358 -0.187317 0.589425 -0.278392 -0.348521 -0.079045 -0.223671 0.022221 0.231269 -0.064161 -0.183389 0.592096 -0.601106 -0.036783 0.341989 0.530444 0.061931 -0.562839 -0.029140 0.498649 -0.579757 0.354182 0.057902 -0.801185 0.374958 
demsocialist 0.161509 -0.242137 0.263171 -0.020132 0.809410 -0.080861 0.404445 0.172423 -0.078689 -0.490888 -0.096968 0.498406 0.014836 0.479122 -0.315405 0.132341 -0.188916 0.356358 -0.075188 0.503068 0.541337 0.222852 0.293689 -0.154109 -0.109510 0.057020 -0.107910 -0.152028 -0.270186 -0.459819 -0.430493 0.104272 0.058429 0.138461 0.616863 0.261806 -0.108836 -0.168613 -0.235842 -0.210199 0.233839 -0.033982 0.438407 0.237631 -0.481075 -0.152282 -0.032186 -0.213863 -0.174207 -0.242352 0.333226 0.147066 -0.260272 0.210565 0.147393 -0.410544 -0.409038 -0.320899 -0.299178 0.071830 -0.533632 0.303751 -0.504687 -0.116398 -0.178472 -0.072539 -0.045262 -0.115013 0.232924 -0.461119 0.195265 0.006932 -0.068810 0.239381 -0.048853 -0.353813 -0.009651 -0.057542 -0.271568 -0.007378 0.089757 0.255349 0.096490 0.040996 -0.156096 0.138130 -0.324222 0.169868 0.148266 0.039178 -0.262893 0.114030 -0.032185 -0.109778 0.020872 0.139616 0.181577 0.192710 -0.185272 -0.282321 0.030417 0.054727 0.165288 0.135679 -0.147546 -0.039640 -0.123534 0.354912 -0.522825 -0.236237 -0.152107 -0.011671 0.079711 0.195997 -0.028973 0.259739 0.207110 0.372984 0.021463 -0.066135 -0.049499 0.149891 -0.013625 -0.112241 0.563994 -0.267972 0.460668 -0.241523 0.266072 -0.033915 -0.159662 0.227964 0.039990 -0.052107 0.373887 -0.269206 0.232264 -0.207823 -0.463596 -0.367908 -0.395531 -0.363021 -0.546037 0.133659 -0.482672 -0.123181 0.530765 -0.044295 -0.019079 0.109157 -0.157590 0.065701 0.081034 -0.100252 -0.283989 -0.361767 0.188798 0.269947 -0.516508 -0.300214 -0.011014 -0.162844 0.324433 0.361496 -0.233453 0.356557 -0.272869 -0.066071 -0.077442 -0.056576 -0.068595 0.240694 0.423651 0.310503 0.102886 -0.091499 -0.156083 0.604717 -0.281021 -0.337295 -0.071264 -0.247109 0.056066 0.299958 -0.084626 -0.157629 0.397588 -0.432129 -0.027631 0.238876 0.376268 0.035058 -0.483058 0.002429 0.384694 -0.440317 0.220960 0.016779 -0.629680 0.295503 
BetoORourke 0.087134 -0.219875 0.204045 -0.006418 0.540077 -0.063948 0.408949 0.196462 -0.048892 -0.583070 -0.155530 0.626847 -0.006943 0.736766 -0.450129 0.204919 -0.227345 0.415683 -0.086531 0.560948 0.612784 0.265462 0.329133 -0.177200 -0.123828 0.025663 -0.156259 -0.124072 -0.246473 -0.428351 -0.413754 0.114641 0.022560 0.150200 0.626709 0.270654 -0.163526 -0.192835 -0.264154 -0.196020 0.273578 -0.034867 0.487202 0.291270 -0.489055 -0.173111 -0.054714 -0.236470 -0.167683 -0.253309 0.357684 0.130665 -0.283041 0.217389 0.172154 -0.429615 -0.438737 -0.305765 -0.321485 0.092441 -0.557571 0.318278 -0.538741 -0.121656 -0.193461 -0.047990 -0.073851 -0.143289 0.224320 -0.490984 0.184668 -0.014400 -0.116609 0.332538 -0.042761 -0.446544 -0.000265 -0.041811 -0.378303 0.016130 0.212596 0.436272 0.124478 0.086596 -0.220225 0.190956 -0.596985 0.249929 0.253548 0.085035 -0.449081 0.181774 0.006733 -0.210162 0.013943 0.222726 0.201825 0.188261 -0.236833 -0.310352 0.012123 0.109783 0.158003 0.141244 -0.116461 -0.019006 -0.092567 0.285937 -0.444913 -0.199185 -0.083920 0.038822 0.071362 0.177145 -0.021798 0.317446 0.192290 0.400199 0.038701 -0.077954 -0.037018 0.165409 -0.031844 -0.084318 0.601247 -0.262072 0.440999 -0.249036 0.226528 -0.004299 -0.120641 0.198507 0.034878 -0.063556 0.309512 -0.218108 0.270630 -0.206908 -0.512723 -0.389776 -0.402405 -0.406982 -0.589900 0.156773 -0.542454 -0.158431 0.563831 -0.044158 -0.007943 0.144233 -0.156781 0.072162 0.119817 -0.095452 -0.264594 -0.326727 0.145607 0.252448 -0.514973 -0.259075 0.000993 -0.221275 0.440477 0.470308 -0.268101 0.423715 -0.326276 -0.049879 -0.067385 -0.071757 -0.073026 0.316787 0.499719 0.386864 0.120144 -0.124486 -0.172836 0.495054 -0.241604 -0.268423 -0.054617 -0.204873 0.030021 0.231089 -0.076785 -0.169699 0.437398 -0.476826 -0.039663 0.276113 0.408357 0.052993 -0.455538 -0.022797 0.413042 -0.468692 0.298844 -0.001458 -0.643909 0.287617 
ConservativeDemocrat 0.132368 -0.230397 0.235571 -0.017205 0.631043 -0.050507 0.339777 0.153488 -0.037483 -0.443477 -0.116024 0.461427 -0.000548 0.488769 -0.304932 0.128116 -0.176209 0.314723 -0.065600 0.433019 0.468963 0.199939 0.264436 -0.134969 -0.108377 0.049810 -0.137228 -0.125098 -0.245081 -0.425473 -0.401079 0.114904 0.031154 0.127907 0.594427 0.256875 -0.138077 -0.187040 -0.233229 -0.195789 0.299697 -0.034373 0.577538 0.338918 -0.597816 -0.189802 -0.043448 -0.295666 -0.199197 -0.301906 0.427108 0.149039 -0.341248 0.274176 0.189733 -0.516800 -0.402658 -0.286274 -0.292951 0.071571 -0.516953 0.300360 -0.490789 -0.110402 -0.182101 -0.071461 -0.070086 -0.111004 0.203363 -0.443569 0.161886 -0.017472 -0.079713 0.301786 -0.061466 -0.410992 -0.002872 -0.034674 -0.348786 -0.003287 0.165110 0.359045 0.129530 0.081299 -0.179020 0.169779 -0.493864 0.221103 0.195910 0.057745 -0.367636 0.146729 -0.007436 -0.156988 0.028023 0.178801 0.200662 0.191322 -0.228919 -0.311605 0.008036 0.095650 0.186101 0.144156 -0.124756 -0.020991 -0.085194 0.271207 -0.427679 -0.204391 -0.087218 0.032180 0.049138 0.148848 -0.014989 0.261666 0.167164 0.335538 0.037336 -0.042361 -0.025796 0.110665 -0.009237 -0.056134 0.437316 -0.208413 0.342201 -0.188292 0.184594 0.003216 -0.127474 0.150906 0.047999 -0.042721 0.264752 -0.174650 0.210743 -0.162802 -0.411603 -0.319722 -0.331110 -0.320596 -0.485373 0.120265 -0.399352 -0.104664 0.432539 -0.053178 -0.024041 0.121715 -0.108322 0.052662 0.136208 -0.104706 -0.316103 -0.378174 0.172630 0.284328 -0.571514 -0.309582 -0.009106 -0.220004 0.451477 0.476312 -0.301685 0.454690 -0.334820 -0.070458 -0.072171 -0.055411 -0.086669 0.280406 0.447749 0.329855 0.097815 -0.118718 -0.177309 0.600313 -0.274450 -0.333386 -0.094520 -0.233628 0.034507 0.275898 -0.087160 -0.166550 0.438255 -0.473570 -0.053405 0.271585 0.413835 0.047863 -0.473888 -0.017592 0.386883 -0.452536 0.277299 0.015576 -0.636432 0.300334 
