15 200
BaemyKlobaechar 0.369734 -0.344182 0.314306 -0.141527 1.431571 0.014900 0.792776 0.282138 -0.044363 -0.736000 -0.400440 0.697811 0.062907 1.005562 -0.558733 0.055929 -0.282487 0.413913 -0.049997 0.759297 0.766347 0.153928 0.485898 -0.283818 -0.036659 0.106868 -0.132188 -0.065896 -0.245109 -0.555800 -0.459975 0.199827 0.083595 0.028255 0.801165 0.410443 -0.188138 -0.295987 -0.148706 -0.241925 0.146213 -0.083168 0.501951 0.246730 -0.388364 -0.030715 0.100139 -0.315998 -0.141921 -0.249881 0.390521 0.091292 -0.243384 0.310839 0.112331 -0.417624 -0.134706 -0.081488 -0.037307 0.003778 -0.138376 0.102029 -0.134998 -0.027982 -0.065737 -0.000615 -0.016473 -0.053704 0.037264 -0.066173 0.006917 0.019741 -0.033877 0.088217 -0.025155 -0.077419 -0.001495 -0.027918 -0.084072 0.019730 0.056661 0.025734 -0.013771 0.014120 0.034488 -0.019430 -0.060890 -0.022934 0.158129 0.055618 -0.597995 0.149395 0.054666 -0.226417 0.096078 0.259483 0.299007 0.201823 -0.367095 -0.374453 -0.025117 0.112396 0.340800 0.232141 -0.351723 -0.000323 0.056361 0.448830 -0.713185 -0.259596 0.033908 0.155126 0.103774 0.187457 -0.096381 0.440067 0.341330 0.565354 0.088741 0.017182 -0.009505 0.128321 0.035109 0.030617 0.373114 -0.243370 0.342004 -0.197922 0.217682 0.003656 -0.225228 0.093686 0.093343 -0.090919 0.186422 -0.161857 0.034181 -0.025155 -0.027301 0.014669 -0.018658 -0.079399 -0.033451 0.014268 -0.108557 -0.043871 0.080675 0.000614 0.026649 0.054461 -0.001439 -0.023898 -0.039897 0.120523 0.117572 0.148175 -0.103948 -0.114541 0.193900 0.224248 0.080221 0.054887 -0.073473 -0.123053 0.228529 -0.206350 0.125499 0.101564 -0.041141 -0.035450 -0.101084 0.206603 0.238660 0.162302 0.000419 -0.082902 -0.107723 0.307874 -0.084621 -0.148598 -0.166854 -0.111131 -0.000085 0.144794 -0.168895 -0.215123 0.241284 -0.382261 -0.153086 0.163634 0.331540 0.041910 -0.393736 -0.027952 0.285110 -0.409199 0.284077 0.000147 -0.469876 0.264275 
politics 0.416503 -0.319681 0.144848 -0.107138 0.555772 0.029996 0.553265 0.316821 -0.010343 -0.247483 -0.155558 0.323495 0.001304 0.393470 -0.215477 0.020971 -0.111312 0.179415 -0.003499 0.305134 0.352559 0.081073 0.237052 -0.138930 -0.058641 0.110188 -0.110284 -0.039083 -0.278002 -0.616836 -0.542947 0.229809 0.181827 -0.085809 0.700596 0.389931 -0.198399 -0.276321 -0.140974 -0.313376 0.094613 -0.024924 0.401719 0.196545 -0.287039 -0.006276 0.059256 -0.246086 -0.142788 -0.175314 0.297126 0.145466 -0.192512 0.237099 0.000651 -0.358542 -0.475128 -0.407944 -0.241654 0.146733 -0.520647 0.430608 -0.466914 -0.166770 -0.303968 -0.137144 -0.143727 -0.089750 0.162597 -0.427846 0.087632 -0.118115 0.110340 0.266516 -0.154221 -0.240695 0.085766 0.039891 -0.197622 -0.105956 0.182752 0.267431 0.190193 0.140395 -0.157440 0.177564 -0.482737 0.280751 0.226866 0.015363 -0.657563 0.205324 0.087409 -0.201685 0.126425 0.271827 0.247770 0.270598 -0.319040 -0.340026 -0.058458 0.102500 0.287594 0.174760 -0.275921 0.027673 0.088020 0.302971 -0.492647 -0.152703 0.019617 0.146847 0.108250 0.225091 -0.128541 0.458188 0.355415 0.508443 0.165551 0.033994 0.060892 0.201071 0.199855 0.044309 0.662600 -0.419870 0.543600 -0.161591 0.227644 0.016217 -0.262782 -0.006471 0.104517 -0.065670 0.239564 -0.239181 0.134467 -0.013862 -0.260812 -0.172391 -0.228018 -0.150712 -0.266167 0.073469 -0.385730 -0.075488 0.461071 -0.097691 -0.105110 0.234978 -0.111548 0.170210 0.176669 -0.132968 -0.195302 -0.230327 0.073558 0.224724 -0.378424 -0.315918 -0.122038 -0.172957 0.328310 0.320874 -0.450880 0.463495 -0.278770 -0.183704 -0.056044 -0.050447 -0.066350 0.159935 0.262980 0.140455 -0.028168 -0.105199 -0.108933 0.306410 -0.072341 -0.130608 -0.137891 -0.081121 0.068624 0.173999 -0.195224 -0.241313 0.133035 -0.261979 -0.153861 0.211183 0.300590 0.037235 -0.528641 0.017109 0.360549 -0.455261 0.350806 -0.013054 -0.611532 0.253382 
YangForPresidentHQ 0.095782 -0.015844 0.095227 -0.060997 0.327138 -0.002565 0.231690 -0.008299 -0.048013 -0.562748 -0.290809 0.490081 0.062990 0.739127 -0.407046 0.026159 -0.207704 0.290378 -0.038360 0.570547 0.562978 0.089004 0.355383 -0.214009 -0.017960 0.069210 -0.079254 -0.042174 -0.173880 -0.397857 -0.327465 0.145724 0.094565 0.027200 0.731632 0.388797 -0.169146 -0.263721 -0.142566 -0.236215 0.150077 -0.118453 0.530214 0.234004 -0.357066 0.003109 0.114228 -0.291851 -0.138734 -0.214397 0.338282 0.113334 -0.163310 0.264187 0.121127 -0.328702 -0.409070 -0.342740 -0.185390 0.084943 -0.446829 0.340938 -0.418091 -0.112437 -0.303340 -0.106758 -0.113720 -0.141312 0.197561 -0.392555 0.096160 -0.058039 0.148092 0.512292 -0.275835 -0.478632 0.117528 0.016090 -0.420291 -0.163902 0.328924 0.453882 0.297186 0.225392 -0.240417 0.276282 -0.826257 0.446239 0.132953 0.039757 -0.483387 0.115694 0.051719 -0.186455 0.080609 0.206931 0.247047 0.189816 -0.284976 -0.290302 -0.012688 0.073878 0.261831 0.197230 -0.240782 0.001247 0.035277 0.313938 -0.498144 -0.161976 0.014240 0.104419 0.071184 0.108918 -0.056111 0.208308 0.164947 0.270150 0.036090 -0.004724 0.002049 0.175600 0.116130 0.028931 0.529199 -0.334411 0.453272 -0.189933 0.266441 -0.019347 -0.270098 0.097280 0.093342 -0.081802 0.245191 -0.251219 0.202511 -0.055283 -0.346594 -0.170270 -0.266724 -0.257691 -0.296192 0.057606 -0.337743 -0.094955 0.331350 -0.029089 0.007405 0.161751 -0.114555 0.096934 0.049521 -0.030505 0.002673 -0.025023 -0.022154 0.057525 -0.053932 -0.003903 0.035899 -0.005405 0.000208 -0.008869 0.042407 -0.029217 0.020571 0.061755 -0.088937 -0.083011 -0.146142 0.331698 0.448617 0.283213 0.011132 -0.136186 -0.181328 0.439682 -0.128852 -0.214650 -0.229936 -0.166919 0.042291 0.226371 -0.161721 -0.188470 0.184351 -0.305401 -0.089732 0.113890 0.236159 0.038754 -0.310371 0.002351 0.156130 -0.231167 0.144632 -0.015919 -0.222425 0.159628 
SandersForPresident 0.056363 -0.102699 0.114157 0.006031 0.569663 0.000145 0.363322 0.230836 -0.063176 -0.421260 -0.197730 0.482920 0.028574 0.556001 -0.313947 0.025453 -0.159427 0.271340 -0.010801 0.470477 0.519870 0.124133 0.336839 -0.213004 -0.063525 0.045516 -0.071449 -0.050518 -0.206718 -0.411972 -0.388247 0.145433 0.128475 -0.026465 0.482310 0.275015 -0.127919 -0.172427 -0.129004 -0.235642 0.044486 -0.007723 0.098418 0.025401 -0.076895 -0.022083 -0.011072 -0.040751 -0.105467 -0.106560 0.197996 0.119494 -0.091213 0.145415 0.032973 -0.218218 -0.662256 -0.592691 -0.357424 0.196666 -0.746699 0.573683 -0.678327 -0.228336 -0.558606 -0.227228 -0.230253 -0.207933 0.352309 -0.815390 0.208238 -0.163555 0.086921 0.271768 -0.142730 -0.277106 0.071789 0.020917 -0.198319 -0.083716 0.090521 0.154747 0.090845 0.068470 -0.119816 0.115994 -0.263065 0.155562 0.142642 0.004007 -0.236549 0.099946 0.031107 -0.085733 0.034463 0.113999 0.189427 0.240492 -0.200290 -0.259091 -0.021290 0.055914 0.155541 0.126232 -0.254441 0.028599 0.037314 0.340414 -0.526611 -0.157861 -0.046672 0.118881 0.095399 0.186404 -0.069445 0.285539 0.202254 0.299534 0.088213 -0.023082 0.046400 0.208578 0.179900 -0.002849 0.656106 -0.382478 0.520305 -0.139071 0.301503 -0.032283 -0.285380 0.047864 0.084459 -0.064324 0.323490 -0.336069 0.097537 -0.022413 -0.184421 -0.136801 -0.157742 -0.102347 -0.192750 0.038304 -0.160429 -0.038093 0.204688 -0.035741 -0.043222 0.068056 -0.080129 0.092364 0.122655 -0.138879 -0.183343 -0.244595 0.108671 0.201636 -0.355236 -0.284849 -0.068427 -0.104566 0.173424 0.205364 -0.235570 0.266775 -0.177816 -0.097383 -0.056799 -0.056934 -0.030360 0.131908 0.263573 0.161549 0.008560 -0.082802 -0.072024 0.207003 -0.069535 -0.088390 -0.050577 -0.074005 0.069175 0.125942 -0.130146 -0.164287 0.071788 -0.164235 -0.072381 0.130776 0.186173 0.017144 -0.331954 0.026793 0.163997 -0.212327 0.137413 -0.018224 -0.303650 0.095826 
centerleftpolitics 0.147122 -0.163583 0.116778 -0.040626 0.695640 0.002902 0.465628 0.131388 -0.052590 -0.762362 -0.381920 0.749996 0.055399 0.990120 -0.552433 0.064643 -0.268541 0.411690 -0.049873 0.759281 0.780228 0.170725 0.465221 -0.282998 -0.053505 0.059955 -0.140979 -0.070224 -0.220505 -0.459275 -0.379173 0.175314 0.060892 0.036394 0.665309 0.350313 -0.177007 -0.227618 -0.154755 -0.210773 0.201949 -0.085328 0.605061 0.283989 -0.499682 -0.063033 0.088661 -0.365879 -0.157016 -0.260450 0.396145 0.124178 -0.255358 0.295743 0.131230 -0.432844 -0.110407 -0.043659 -0.037755 0.013699 -0.111470 0.062088 -0.124177 -0.022508 -0.059489 0.016195 -0.011909 -0.054046 0.028939 -0.074466 0.005141 0.037740 -0.021997 0.189802 -0.056525 -0.173275 0.014275 -0.017722 -0.160052 -0.002222 0.114896 0.111552 0.005180 0.047382 -0.034762 0.039339 -0.194361 0.055691 0.189891 0.062137 -0.613067 0.159586 0.058672 -0.249283 0.081086 0.274902 0.304557 0.232241 -0.388305 -0.403918 -0.024131 0.139988 0.330832 0.248502 -0.343567 -0.004509 0.039653 0.475711 -0.735011 -0.256792 0.005710 0.167911 0.114155 0.218145 -0.100294 0.462325 0.341771 0.584660 0.095072 -0.012726 0.001388 0.163437 0.043188 0.019120 0.480431 -0.276757 0.381864 -0.204882 0.211525 0.007720 -0.198035 0.099872 0.061322 -0.072971 0.199710 -0.177345 0.072779 -0.037266 -0.132202 -0.047307 -0.101874 -0.122495 -0.144530 0.047002 -0.136800 -0.064923 0.112450 -0.001753 0.018953 0.039431 -0.019099 -0.016101 0.014130 0.058619 0.048802 0.063745 -0.070402 -0.033935 0.032499 0.123685 0.048635 -0.002768 0.038685 -0.009786 0.119729 -0.065415 0.032138 0.076013 -0.045279 -0.062004 -0.109254 0.265969 0.336471 0.233364 0.011842 -0.108610 -0.190262 0.461402 -0.151578 -0.217642 -0.203058 -0.173296 0.035707 0.225522 -0.218580 -0.305828 0.319052 -0.494258 -0.183763 0.247405 0.433520 0.066104 -0.437564 -0.021889 0.305535 -0.405811 0.289200 -0.003411 -0.438611 0.244872 
Pete_Buttigieg 0.234993 -0.025746 0.074628 -0.008653 0.898980 0.020577 0.522775 0.175490 -0.028573 -0.673857 -0.358704 0.665116 0.051571 0.941290 -0.536491 0.045460 -0.352199 0.516014 -0.044364 0.944768 0.991946 0.193483 0.648957 -0.379930 -0.041209 0.111606 -0.112856 -0.056398 -0.245364 -0.533124 -0.448651 0.193654 0.097693 -0.013057 0.608796 0.323629 -0.150215 -0.225652 -0.115408 -0.225906 0.107628 -0.072368 0.421835 0.203056 -0.286809 0.008995 0.089377 -0.242530 -0.154312 -0.222785 0.359105 0.127906 -0.203337 0.292115 0.066840 -0.381311 -0.012241 0.007647 0.007947 -0.001069 -0.010676 0.004334 -0.007948 -0.005063 0.013520 -0.001063 0.007873 0.019962 -0.033121 0.038161 -0.018746 0.005436 0.033535 0.156565 -0.077206 -0.145550 0.032170 -0.002607 -0.131914 -0.041426 0.156643 0.229401 0.148408 0.093639 -0.110380 0.129966 -0.402462 0.212572 0.099787 0.016713 -0.319996 0.093172 0.024986 -0.109541 0.058642 0.132756 0.123921 0.105826 -0.159243 -0.175797 -0.013590 0.056831 0.153492 0.106188 -0.163376 -0.008680 0.026246 0.200160 -0.321354 -0.122853 0.011053 0.079966 0.031394 0.072044 -0.038426 0.173676 0.129418 0.226876 0.039544 0.011743 0.021755 0.167384 0.113191 0.037395 0.539466 -0.343170 0.452526 -0.192315 0.153066 0.019869 -0.174186 0.035308 0.076437 -0.051367 0.151680 -0.132433 0.140104 -0.036510 -0.259580 -0.145849 -0.219183 -0.189476 -0.263435 0.077516 -0.314988 -0.073858 0.343953 -0.064058 -0.052344 0.180583 -0.062775 0.085340 0.016088 0.057259 0.024390 0.056571 -0.047376 -0.038580 0.034625 0.062148 -0.009608 -0.024206 0.095511 0.044316 -0.044289 0.060353 -0.026568 -0.016846 -0.045453 -0.020346 -0.100806 0.170423 0.214904 0.124165 -0.029077 -0.089236 -0.103695 0.320486 -0.078135 -0.154840 -0.175271 -0.086894 0.015187 0.142529 -0.071047 -0.103184 0.100018 -0.159488 -0.091270 0.089778 0.164793 0.015839 -0.304501 -0.016989 0.142531 -0.193918 0.172466 0.017753 -0.283425 0.142537 
moderatepolitics 0.523643 -0.402687 0.217015 -0.183438 0.832469 0.025073 0.481620 0.288420 -0.002557 -0.397083 -0.236786 0.400591 0.016544 0.566399 -0.315970 0.042428 -0.201506 0.293409 -0.023987 0.495466 0.531979 0.109942 0.353748 -0.208077 -0.019760 0.069171 -0.070444 -0.020264 -0.143748 -0.343271 -0.289100 0.122670 0.074361 -0.022334 0.414012 0.205610 -0.111130 -0.170036 -0.067495 -0.144867 0.145584 -0.065037 0.606554 0.311188 -0.425318 -0.004506 0.108720 -0.357254 -0.261605 -0.361727 0.605178 0.214845 -0.366272 0.470148 0.084726 -0.683651 -0.530786 -0.445884 -0.264569 0.141854 -0.587133 0.479538 -0.521921 -0.172089 -0.293548 -0.123407 -0.140773 -0.096025 0.172268 -0.421231 0.092611 -0.110733 0.129773 0.427173 -0.237579 -0.395699 0.113214 0.028083 -0.337278 -0.136326 0.249168 0.363802 0.245159 0.185218 -0.190425 0.225715 -0.649830 0.344015 0.146661 0.018835 -0.427745 0.136320 0.041220 -0.137312 0.065913 0.180475 0.201395 0.184079 -0.263315 -0.272932 -0.046257 0.077083 0.232739 0.131735 -0.221250 0.010777 0.058771 0.262863 -0.438345 -0.153780 0.022133 0.119866 0.055443 0.138243 -0.073850 0.321697 0.249693 0.370189 0.108462 0.025140 0.018738 0.091891 0.075809 0.020854 0.299490 -0.199434 0.263033 -0.105414 0.158961 0.005288 -0.172355 0.017377 0.091420 -0.069665 0.152499 -0.149506 0.168602 -0.042912 -0.306259 -0.196075 -0.248496 -0.218317 -0.289313 0.078516 -0.344962 -0.057345 0.383615 -0.065485 -0.061742 0.224990 -0.081264 0.125522 0.130961 -0.069463 -0.112072 -0.140909 0.027207 0.144187 -0.235930 -0.183089 -0.072282 -0.147221 0.269057 0.266376 -0.345525 0.350874 -0.200123 -0.125306 -0.119563 -0.080768 -0.158110 0.361845 0.524026 0.288815 -0.042989 -0.191876 -0.192414 0.585217 -0.154160 -0.264799 -0.289615 -0.175357 0.069523 0.302485 -0.140620 -0.170799 0.142739 -0.227195 -0.125139 0.171416 0.256309 0.036971 -0.246902 -0.013086 0.177483 -0.263126 0.185493 -0.001679 -0.334901 0.153742 
ElizabethWarren 0.290688 -0.020982 -0.014425 0.028606 0.566582 -0.007419 0.391129 0.195223 -0.065143 -0.571194 -0.287369 0.541959 0.057270 0.724802 -0.413011 0.014989 -0.235109 0.351462 -0.040166 0.651066 0.672405 0.128791 0.408821 -0.259525 -0.030979 0.014823 -0.051643 -0.037477 -0.081724 -0.184553 -0.138730 0.060865 -0.027935 0.060427 0.103096 0.064532 -0.031506 -0.020581 -0.025811 -0.010199 0.049161 0.000922 0.043610 0.002917 -0.121760 -0.060495 -0.017474 -0.037161 -0.063941 -0.110732 0.173683 0.046735 -0.119824 0.131152 0.061412 -0.187228 -0.123170 -0.094095 -0.057589 0.039251 -0.157371 0.107777 -0.138140 -0.018271 -0.133472 -0.015195 -0.042486 -0.076192 0.066516 -0.124317 0.028060 -0.000843 0.049793 0.345468 -0.148746 -0.349475 0.067052 0.001116 -0.296834 -0.075505 0.169830 0.229811 0.092968 0.089862 -0.132791 0.115111 -0.382851 0.199649 0.258849 0.051258 -0.739618 0.220138 0.086347 -0.288068 0.108914 0.301393 0.311728 0.264592 -0.360016 -0.381785 -0.021436 0.100645 0.297538 0.252976 -0.307420 -0.012158 0.047758 0.421516 -0.649703 -0.203585 -0.003014 0.146482 0.107985 0.162892 -0.077022 0.300718 0.234127 0.378540 0.079366 -0.043653 0.006063 0.084471 0.013892 -0.010106 0.205587 -0.081636 0.154052 -0.093176 0.048671 -0.010739 -0.025108 0.056168 -0.021415 -0.004289 0.026175 -0.021237 0.165868 -0.043681 -0.288137 -0.168732 -0.237798 -0.199479 -0.298253 0.069324 -0.243732 -0.061895 0.246593 -0.028233 -0.013241 0.105012 -0.075047 0.069795 0.142311 -0.125644 -0.114304 -0.189292 0.052263 0.183723 -0.326853 -0.206661 -0.088404 -0.207276 0.360239 0.355025 -0.404521 0.457739 -0.263000 -0.099700 -0.043568 -0.048217 -0.056878 0.155349 0.219208 0.142986 -0.002356 -0.070788 -0.112867 0.236966 -0.073134 -0.091178 -0.100582 -0.092456 0.041562 0.118255 -0.170410 -0.219014 0.164548 -0.310650 -0.106810 0.135322 0.251344 0.031882 -0.217521 -0.008458 0.170352 -0.168394 0.130908 -0.012775 -0.152828 0.081596 
progressive 0.343034 -0.156654 0.150725 -0.047835 0.737958 0.014070 0.532434 0.182955 -0.026253 -0.331111 -0.165121 0.359655 0.020249 0.446307 -0.259288 0.034662 -0.087859 0.141064 -0.015080 0.239613 0.263572 0.063958 0.153776 -0.085956 -0.056380 0.100642 -0.107032 -0.065749 -0.257352 -0.562446 -0.481202 0.193822 0.139111 -0.016444 0.722751 0.377911 -0.179184 -0.261644 -0.147316 -0.275378 0.151500 -0.071950 0.531073 0.256718 -0.387103 -0.020190 0.083725 -0.299018 -0.166354 -0.230965 0.372294 0.149989 -0.227035 0.282062 0.067968 -0.414339 -0.258978 -0.210661 -0.136633 0.074663 -0.294037 0.228537 -0.265429 -0.088015 -0.188796 -0.074791 -0.080237 -0.067232 0.109591 -0.283394 0.065610 -0.047040 0.065451 0.292347 -0.142954 -0.289518 0.064575 0.001469 -0.228764 -0.080085 0.166805 0.257765 0.147485 0.113975 -0.143874 0.159355 -0.432567 0.232952 0.114318 0.015009 -0.316157 0.108220 0.017355 -0.100876 0.049810 0.137648 0.186332 0.189318 -0.241316 -0.269892 -0.021889 0.075796 0.216235 0.138233 -0.152255 -0.003601 0.024980 0.199006 -0.302151 -0.111289 -0.013594 0.066544 0.042958 0.106872 -0.054783 0.209414 0.171754 0.259189 0.066137 0.007379 0.014569 0.087205 0.058063 0.002486 0.291591 -0.172951 0.240586 -0.095216 0.052260 0.010089 -0.061213 0.010373 0.023878 -0.015235 0.064956 -0.052141 0.120685 -0.044027 -0.236688 -0.153806 -0.210427 -0.160899 -0.248014 0.072387 -0.235919 -0.044072 0.272653 -0.047091 -0.047222 0.123232 -0.057019 0.072639 0.114496 -0.071507 -0.131490 -0.158451 0.047128 0.151604 -0.265427 -0.198623 -0.063330 -0.122369 0.243549 0.226755 -0.275489 0.301875 -0.187275 -0.107682 -0.089754 -0.068661 -0.130269 0.287544 0.428737 0.252015 -0.020033 -0.150512 -0.174939 0.530569 -0.146892 -0.244236 -0.234921 -0.165391 0.074067 0.276600 -0.153445 -0.193884 0.171146 -0.263939 -0.120208 0.179889 0.276703 0.036013 -0.424216 0.001950 0.275210 -0.373253 0.249243 0.005819 -0.505994 0.226767 
JoeBiden 0.191226 -0.122030 0.120130 -0.023029 1.095802 -0.004964 0.526732 0.110525 -0.070284 -0.861991 -0.428576 0.782403 0.084944 1.098283 -0.619975 0.053313 -0.359194 0.523896 -0.064650 0.995956 1.000789 0.187965 0.614239 -0.374404 -0.048536 0.105896 -0.158482 -0.079405 -0.277896 -0.614164 -0.495043 0.222925 0.076114 0.066000 0.900938 0.470499 -0.222715 -0.312739 -0.179835 -0.266703 0.210112 -0.126541 0.635947 0.295567 -0.509790 -0.044021 0.120884 -0.377139 -0.159829 -0.278472 0.411739 0.106128 -0.242254 0.326328 0.155157 -0.418936 0.020206 0.065794 0.048245 -0.039223 0.028305 -0.053346 0.009760 0.038219 0.016177 0.052566 0.027572 -0.038580 -0.014807 0.076444 -0.021967 0.064671 -0.053753 0.156002 -0.032339 -0.148199 -0.006670 -0.050668 -0.139513 0.022244 0.155938 0.180787 0.052264 0.051028 -0.053949 0.055368 -0.307948 0.112021 0.238540 0.085431 -0.842820 0.212995 0.077050 -0.349613 0.118933 0.360231 0.382288 0.249844 -0.457305 -0.456753 -0.007271 0.124778 0.396166 0.320385 -0.447166 -0.018380 0.049942 0.611819 -0.971546 -0.330109 0.034855 0.193288 0.164000 0.260707 -0.134682 0.556316 0.436440 0.727788 0.110217 -0.020673 -0.042256 0.061868 -0.054025 0.002527 0.136580 -0.061572 0.127653 -0.147303 0.102123 -0.006602 -0.075842 0.128204 0.024157 -0.044116 0.063397 -0.044475 -0.069259 -0.012816 0.178365 0.159921 0.165782 0.046933 0.171840 -0.032877 0.139094 -0.008735 -0.236492 0.075839 0.110884 -0.124061 0.067379 -0.146488 -0.003845 0.071287 0.091360 0.093585 -0.092631 -0.048325 0.085379 0.179530 0.094048 0.023478 -0.025634 -0.075116 0.218784 -0.169668 0.101817 0.142403 -0.064995 -0.067083 -0.140797 0.319294 0.389794 0.273847 0.020305 -0.114399 -0.213292 0.513888 -0.166344 -0.246059 -0.249098 -0.202127 0.019153 0.251090 -0.281929 -0.355884 0.397127 -0.609937 -0.200212 0.257757 0.498592 0.076393 -0.440647 -0.023475 0.306969 -0.428022 0.275464 -0.005385 -0.423441 0.287631 
Kamala 0.062168 -0.097882 0.153384 -0.034654 0.902043 0.003386 0.427393 0.069981 -0.059539 -1.023380 -0.536729 0.954958 0.101620 1.388994 -0.777174 0.059618 -0.455496 0.664586 -0.072150 1.231962 1.256156 0.239793 0.802688 -0.469638 -0.053902 0.133160 -0.164924 -0.077363 -0.286526 -0.631477 -0.504914 0.230584 0.106569 0.027308 0.988829 0.523629 -0.251105 -0.372026 -0.183456 -0.319727 0.115942 -0.089144 0.410015 0.194449 -0.326946 -0.019762 0.093760 -0.251903 -0.037790 -0.102168 0.143143 -0.011286 -0.086123 0.137121 0.074131 -0.126979 0.014138 0.059311 0.048387 -0.042909 0.028991 -0.033303 0.005537 0.032713 -0.045865 -0.001982 -0.005609 -0.038395 0.004274 0.001733 -0.013428 0.028069 -0.045248 0.062823 -0.005666 -0.057519 -0.007551 -0.028784 -0.084686 0.016961 0.128660 0.146948 0.061267 0.061964 -0.034224 0.044632 -0.259949 0.103826 0.203524 0.064044 -0.765287 0.190726 0.077263 -0.285649 0.129980 0.321466 0.337567 0.230539 -0.411273 -0.419646 -0.027337 0.122853 0.393991 0.281663 -0.221392 -0.021995 0.026691 0.273659 -0.437155 -0.172183 0.042439 0.090436 0.046383 0.046373 -0.029633 0.171400 0.133381 0.255938 0.003110 0.010022 -0.004618 0.138496 0.058493 0.036766 0.420749 -0.269670 0.388372 -0.225599 0.188179 0.016206 -0.210363 0.105906 0.089784 -0.066582 0.172852 -0.122722 0.083927 -0.029394 -0.114135 -0.031810 -0.080741 -0.129660 -0.122299 0.025878 -0.176929 -0.063874 0.147812 -0.015684 0.017391 0.084058 -0.027395 -0.010744 -0.005427 0.085423 0.091592 0.111883 -0.087803 -0.073885 0.109139 0.173060 0.078148 0.048473 -0.052602 -0.113548 0.213565 -0.190458 0.131792 0.120210 -0.046534 -0.015037 -0.104797 0.188638 0.204276 0.137221 -0.005293 -0.069274 -0.111750 0.301319 -0.079726 -0.149090 -0.178314 -0.102805 -0.013306 0.123373 -0.166814 -0.209545 0.224858 -0.373985 -0.153176 0.133755 0.308686 0.028851 -0.354197 -0.029207 0.165300 -0.274277 0.199617 0.012016 -0.303351 0.209716 
SocialDemocracy 0.238516 -0.187653 0.161415 -0.035254 0.825098 0.004300 0.476580 0.169911 -0.053033 -0.596277 -0.306673 0.606154 0.047408 0.812184 -0.466268 0.049909 -0.252347 0.381260 -0.036915 0.673687 0.709867 0.147578 0.452770 -0.266299 -0.050528 0.101423 -0.103727 -0.067063 -0.253786 -0.556651 -0.475436 0.189217 0.133139 0.000780 0.762025 0.392228 -0.179446 -0.275014 -0.148879 -0.275030 0.169306 -0.076754 0.577874 0.280422 -0.430128 -0.029893 0.093148 -0.330054 -0.206290 -0.293595 0.474237 0.170767 -0.288855 0.364292 0.096257 -0.529665 -0.142096 -0.115439 -0.068906 0.029587 -0.162457 0.122457 -0.146140 -0.046778 -0.091100 -0.028378 -0.031807 -0.042808 0.062765 -0.146892 0.041664 -0.007244 0.050064 0.274807 -0.136946 -0.271224 0.057522 -0.009171 -0.220136 -0.067270 0.173319 0.258929 0.150422 0.117677 -0.133714 0.152732 -0.439991 0.224528 0.175919 0.033305 -0.522452 0.163357 0.035850 -0.183727 0.080090 0.229534 0.251447 0.222217 -0.309282 -0.340501 -0.023086 0.084127 0.278219 0.186199 -0.355594 0.002726 0.057627 0.461199 -0.724970 -0.252394 -0.003020 0.151957 0.112392 0.226140 -0.113077 0.456945 0.371070 0.565506 0.125818 0.010255 -0.001399 0.092226 0.037699 -0.002199 0.285678 -0.172761 0.255740 -0.122683 0.121427 -0.005423 -0.119841 0.050929 0.049332 -0.049708 0.115801 -0.104450 0.058015 -0.040209 -0.097685 -0.061746 -0.090005 -0.098552 -0.109290 0.037248 -0.112467 -0.023119 0.116572 -0.008706 -0.002960 0.052454 -0.018054 0.007116 0.030627 0.009320 -0.023177 -0.035310 -0.007804 0.036473 -0.058916 -0.017726 0.001052 -0.047416 0.092317 0.077548 -0.054526 0.077471 -0.053944 -0.020513 -0.012488 -0.011823 -0.029063 0.069848 0.082514 0.061932 0.001142 -0.025512 -0.040832 0.158442 -0.047258 -0.070259 -0.064403 -0.058373 0.006502 0.082242 -0.080786 -0.106102 0.132845 -0.191926 -0.072769 0.095147 0.173232 0.023959 -0.188639 -0.017618 0.121800 -0.164744 0.099089 0.004402 -0.212266 0.115323 
demsocialist 0.253004 -0.221319 0.179725 -0.093109 0.984241 0.017089 0.557852 0.192495 -0.046261 -0.667053 -0.359515 0.654670 0.057673 0.927408 -0.524533 0.045340 -0.306611 0.446915 -0.045022 0.806040 0.840659 0.159816 0.542561 -0.316259 -0.047964 0.130897 -0.131408 -0.067123 -0.290007 -0.659657 -0.546426 0.230572 0.158561 -0.008556 0.977795 0.508399 -0.239839 -0.365648 -0.176434 -0.339726 0.135574 -0.070872 0.514182 0.256553 -0.383784 -0.016247 0.098734 -0.305880 -0.142034 -0.222718 0.354242 0.101983 -0.229617 0.278679 0.067953 -0.396299 -0.279017 -0.217344 -0.122111 0.060079 -0.306878 0.248288 -0.278040 -0.078846 -0.194293 -0.069101 -0.082734 -0.079198 0.109394 -0.253166 0.053371 -0.045967 0.075162 0.288596 -0.156919 -0.266120 0.069684 0.003537 -0.241935 -0.090144 0.251561 0.347899 0.227712 0.181115 -0.170243 0.206748 -0.624744 0.328224 0.127725 0.029129 -0.464561 0.131564 0.037674 -0.154569 0.077428 0.192952 0.187983 0.141921 -0.241560 -0.245863 -0.022005 0.066617 0.228271 0.141350 -0.355830 0.001103 0.075893 0.441834 -0.700812 -0.246019 0.019740 0.163490 0.096490 0.203334 -0.113649 0.439319 0.363425 0.547796 0.128930 0.024415 0.019644 0.159241 0.113687 0.028324 0.507800 -0.323057 0.444559 -0.193649 0.233191 0.009015 -0.261104 0.057808 0.112121 -0.084390 0.226631 -0.211233 0.115621 -0.038653 -0.198692 -0.112077 -0.168549 -0.160373 -0.197673 0.055343 -0.167367 -0.031786 0.168350 -0.021150 -0.009944 0.096598 -0.025801 0.026962 0.041935 0.004071 -0.003126 -0.016135 -0.020291 0.028361 -0.046109 -0.010078 0.018452 -0.012971 0.028823 0.004017 0.015168 -0.013796 0.015664 0.017230 -0.019986 -0.008403 -0.052523 0.094012 0.092773 0.059505 -0.011492 -0.033209 -0.029987 0.097929 -0.021458 -0.042391 -0.062938 -0.033355 -0.012663 0.040273 -0.112065 -0.133315 0.140069 -0.218529 -0.089286 0.103120 0.195341 0.024728 -0.174832 -0.019455 0.089891 -0.131693 0.088124 0.007177 -0.162301 0.105109 
BetoORourke 0.165575 -0.129995 0.125004 -0.074973 0.646836 0.013319 0.394956 0.161990 -0.039444 -0.516066 -0.285641 0.507652 0.044985 0.727181 -0.403160 0.024601 -0.244666 0.352037 -0.031725 0.644984 0.670399 0.122325 0.445577 -0.262492 -0.028351 0.080102 -0.081094 -0.031465 -0.181340 -0.417967 -0.352215 0.151674 0.105671 -0.013302 0.614349 0.326972 -0.156413 -0.235557 -0.110959 -0.219716 0.110655 -0.059856 0.440586 0.215846 -0.320485 -0.006004 0.085465 -0.261612 -0.121205 -0.179033 0.287014 0.091291 -0.177419 0.231409 0.049075 -0.321484 -0.436415 -0.360736 -0.206888 0.105429 -0.478180 0.387176 -0.437235 -0.130888 -0.296030 -0.116734 -0.131645 -0.116604 0.173848 -0.395373 0.085233 -0.089737 0.100172 0.307783 -0.169928 -0.283722 0.080235 0.019531 -0.248880 -0.107106 0.220918 0.310243 0.211423 0.159355 -0.163726 0.189750 -0.563264 0.309194 0.159131 0.024903 -0.521857 0.149050 0.059426 -0.171053 0.093973 0.213980 0.194334 0.174967 -0.241618 -0.248857 -0.031668 0.068775 0.224247 0.141831 -0.275961 0.009570 0.063904 0.329831 -0.534209 -0.177017 0.016955 0.137128 0.073056 0.148542 -0.082919 0.303897 0.244049 0.362738 0.096451 0.015519 0.029926 0.165694 0.141906 0.033599 0.533889 -0.338120 0.449861 -0.163185 0.236721 0.001146 -0.259413 0.044631 0.103057 -0.075483 0.237344 -0.237011 0.167257 -0.034935 -0.299683 -0.174073 -0.244026 -0.200832 -0.278360 0.064596 -0.281044 -0.059781 0.306409 -0.050688 -0.038954 0.160913 -0.082559 0.101030 0.123618 -0.095587 -0.112013 -0.149397 0.040622 0.155899 -0.248152 -0.194444 -0.060912 -0.121485 0.220707 0.216413 -0.288319 0.297200 -0.172122 -0.086106 -0.084899 -0.062001 -0.121859 0.263872 0.378039 0.217026 -0.020197 -0.132934 -0.130902 0.349993 -0.087871 -0.163245 -0.182408 -0.112169 0.044349 0.181782 -0.200021 -0.229311 0.166971 -0.295928 -0.136534 0.179082 0.290822 0.039602 -0.353507 0.004804 0.196465 -0.268903 0.192336 -0.010496 -0.346569 0.172735 
ConservativeDemocrat 0.272410 -0.218436 0.182285 -0.076184 0.927471 0.013361 0.529197 0.196784 -0.043670 -0.565664 -0.302046 0.560254 0.045325 0.781487 -0.440093 0.034517 -0.251469 0.370375 -0.036560 0.681320 0.704383 0.139956 0.454471 -0.272128 -0.036927 0.091295 -0.105084 -0.052278 -0.226951 -0.505065 -0.424765 0.183438 0.109142 0.001124 0.706278 0.371506 -0.172810 -0.258925 -0.134314 -0.247692 0.143580 -0.074693 0.515656 0.245673 -0.377940 -0.014681 0.098042 -0.303982 -0.148450 -0.226065 0.363234 0.115062 -0.215206 0.285433 0.080216 -0.395394 -0.221054 -0.172909 -0.096931 0.047572 -0.243408 0.189528 -0.221987 -0.065145 -0.164377 -0.052279 -0.066107 -0.070053 0.095525 -0.215996 0.045146 -0.030701 0.045569 0.219689 -0.112529 -0.204824 0.047336 -0.001561 -0.182159 -0.053476 0.161638 0.210720 0.129998 0.104155 -0.098707 0.121542 -0.383528 0.187434 0.186090 0.034603 -0.598885 0.169568 0.058529 -0.211687 0.101148 0.254989 0.258897 0.217909 -0.318127 -0.336725 -0.034251 0.094522 0.290905 0.195171 -0.340978 0.008026 0.064923 0.423489 -0.675817 -0.229695 0.012664 0.162093 0.098876 0.195938 -0.098418 0.406945 0.317309 0.498093 0.110664 0.013342 0.022796 0.177273 0.118141 0.029291 0.553228 -0.345354 0.468890 -0.197151 0.252189 0.002602 -0.268577 0.064248 0.104612 -0.081158 0.245989 -0.236085 0.205022 -0.056513 -0.369341 -0.215904 -0.307060 -0.261658 -0.360235 0.091465 -0.337957 -0.076961 0.364976 -0.058926 -0.044335 0.185367 -0.088237 0.103296 0.113452 -0.059852 -0.094921 -0.118732 0.019936 0.129480 -0.215672 -0.143884 -0.045895 -0.110208 0.218498 0.197595 -0.228291 0.260873 -0.152715 -0.066661 -0.080518 -0.062198 -0.122682 0.266767 0.380760 0.226760 -0.013299 -0.131741 -0.139912 0.396332 -0.106565 -0.187974 -0.197237 -0.132434 0.042513 0.200822 -0.206533 -0.250497 0.218957 -0.359716 -0.158145 0.202357 0.343890 0.046971 -0.409720 -0.003882 0.239904 -0.333430 0.237531 -0.003559 -0.410009 0.210262 
