15 200
BaemyKlobaechar 0.009832 -0.262151 0.245634 -0.094075 0.500013 -0.181924 0.277294 0.085264 -0.033984 -0.399168 -0.157241 0.415771 0.002425 0.586946 -0.399128 0.185532 -0.121628 0.436038 -0.005522 0.553939 0.395146 0.361937 0.205958 -0.229633 -0.066442 -0.008545 -0.164287 -0.127263 -0.297991 -0.281444 -0.385483 0.051865 -0.045848 0.215129 0.590566 0.224962 -0.075921 -0.141809 -0.241850 -0.191695 0.083441 0.051088 0.082369 0.133433 -0.223432 -0.101892 -0.023394 -0.083009 -0.031773 -0.044339 0.051966 -0.094186 -0.105652 0.066344 0.007053 -0.157886 -0.381060 -0.201791 -0.159060 0.066220 -0.439853 0.186934 -0.403894 -0.136923 -0.096988 0.022681 -0.001028 -0.020014 0.121126 -0.338825 0.209119 -0.060875 -0.108475 0.116685 -0.081858 -0.125608 -0.045004 -0.050611 -0.190161 0.070534 0.101000 0.178377 0.072918 0.055486 -0.085526 0.033595 -0.278308 0.035857 0.313968 0.071149 -0.270234 0.195882 -0.009356 -0.193833 -0.040991 0.229379 0.203710 0.109686 -0.165255 -0.419010 -0.056575 0.097565 0.102322 0.092125 -0.040649 -0.012097 -0.027772 -0.001150 -0.106333 -0.087167 0.019373 0.025971 0.079980 0.055739 0.045042 0.267146 0.084347 0.268465 -0.047879 -0.019198 -0.064561 0.192652 -0.141085 -0.122577 0.417693 -0.225046 0.489900 -0.435077 0.406245 -0.144071 -0.019395 0.378430 0.118938 -0.142489 0.351068 -0.217008 0.269250 -0.206687 -0.257036 -0.288813 -0.187915 -0.419718 -0.407206 0.226193 -0.407508 -0.236966 0.366854 0.009017 -0.046474 0.095020 -0.115270 0.027941 0.163366 -0.006225 -0.579861 -0.823540 0.215234 0.689987 -1.024439 -0.375992 -0.020673 -0.292819 0.637930 0.694597 -0.096654 0.635203 -0.469509 -0.093957 -0.256316 -0.053119 0.148781 0.236988 0.669188 0.437893 0.106031 -0.026270 -0.032561 0.597077 -0.341976 -0.305805 -0.068724 -0.303184 -0.090406 0.446656 0.077330 -0.052932 0.272194 -0.399704 -0.111693 0.060323 0.285562 -0.040125 -0.148233 -0.103059 0.172752 -0.235517 0.226878 -0.071351 -0.495726 0.279438 
politics -0.004734 -0.080037 0.122256 0.005907 0.337562 -0.112578 0.162155 0.080072 -0.142518 -0.363823 -0.097514 0.399355 0.039313 0.573934 -0.375531 0.151978 -0.099452 0.375124 -0.038759 0.584950 0.456229 0.283336 0.221366 -0.256363 -0.035603 -0.083086 -0.020569 -0.140054 -0.298887 -0.342434 -0.482119 0.075716 0.058758 0.240947 0.660184 0.260653 0.007194 -0.084480 -0.267466 -0.216579 0.390537 -0.053708 0.486659 0.211014 -0.473345 -0.218772 -0.002311 -0.237210 -0.268597 -0.254239 0.414777 0.174126 -0.129205 0.265348 0.224855 -0.560024 -0.468137 -0.435639 -0.185065 0.094529 -0.509716 0.261035 -0.455376 -0.203733 -0.128778 0.085419 0.065146 -0.125127 0.310407 -0.459113 0.317474 0.078426 -0.249380 0.200189 -0.094774 -0.261941 -0.026785 -0.169733 -0.203201 0.150543 0.190276 0.399150 0.137989 0.019080 -0.243279 0.138174 -0.523922 0.118641 0.469033 0.099730 -0.468790 0.262561 -0.002495 -0.401444 -0.037160 0.422867 0.386020 0.348448 -0.252976 -0.617831 0.022433 0.018979 0.111056 0.264685 -0.269549 0.044295 -0.199022 0.519914 -0.786914 -0.114801 -0.216939 -0.213170 0.438094 0.359390 -0.038963 0.520961 0.372493 0.679245 -0.140342 -0.208177 -0.089553 0.227881 -0.068004 -0.168037 0.464243 -0.244873 0.514002 -0.303817 0.364981 -0.227577 -0.021413 0.319719 -0.016162 -0.119052 0.252910 -0.287025 0.256437 -0.224327 -0.312791 -0.252767 -0.260027 -0.398023 -0.312700 0.145635 -0.338097 -0.199695 0.312544 0.072272 0.031194 0.007629 -0.216374 0.089439 0.026090 -0.065378 -0.252037 -0.405099 0.124503 0.360031 -0.438594 -0.199793 -0.027970 -0.172030 0.290051 0.375265 -0.093466 0.392000 -0.308380 -0.071613 -0.161352 -0.108187 0.155440 0.135243 0.482716 0.317607 0.113422 0.008551 -0.030591 0.339714 -0.186380 -0.156651 -0.023154 -0.208619 0.027786 0.331566 -0.008037 -0.143953 0.291527 -0.484428 -0.066248 0.064471 0.269331 -0.010215 -0.305615 -0.011745 0.342496 -0.369607 0.215524 -0.172032 -0.644238 0.354023 
YangForPresidentHQ 0.001772 -0.170767 0.229453 -0.024808 0.339271 -0.138903 0.231730 0.127324 -0.141108 -0.391324 -0.104615 0.455919 0.031804 0.619459 -0.425049 0.178005 -0.081529 0.346834 -0.031081 0.537251 0.410359 0.281707 0.199627 -0.227465 -0.047565 -0.054966 -0.057093 -0.158657 -0.334696 -0.355125 -0.507432 0.069129 0.050924 0.272057 0.771856 0.298969 0.002679 -0.103330 -0.314900 -0.265895 0.411950 -0.028086 0.477924 0.240186 -0.509939 -0.244565 -0.014794 -0.261473 -0.264759 -0.258022 0.397063 0.148597 -0.167593 0.272249 0.193556 -0.584976 -0.780198 -0.685425 -0.300735 0.159191 -0.855350 0.415715 -0.751054 -0.350392 -0.190544 0.127854 0.105240 -0.158322 0.463584 -0.744668 0.520360 0.089675 -0.438819 0.364039 -0.204963 -0.481306 -0.053118 -0.307429 -0.352236 0.264428 0.313466 0.666121 0.250894 0.044548 -0.422533 0.247285 -0.876719 0.196073 0.498938 0.092560 -0.427527 0.288366 -0.023295 -0.370484 -0.038384 0.411035 0.320504 0.315563 -0.200401 -0.543902 0.015770 0.019676 0.087264 0.199876 -0.200085 0.043195 -0.171696 0.402858 -0.616866 -0.108053 -0.200363 -0.193468 0.327495 0.274409 -0.011944 0.396251 0.265714 0.498803 -0.108713 -0.160446 -0.117463 0.257325 -0.096588 -0.232090 0.539698 -0.269843 0.614015 -0.363796 0.412793 -0.265599 0.004769 0.371128 -0.019367 -0.119819 0.295505 -0.316759 0.245039 -0.240831 -0.276579 -0.274417 -0.239348 -0.388391 -0.314448 0.157372 -0.316743 -0.182765 0.302779 0.066726 0.021177 -0.011258 -0.196283 0.086012 0.016525 -0.018566 -0.238230 -0.345393 0.107128 0.293586 -0.383627 -0.163912 -0.024926 -0.138711 0.270855 0.312515 -0.056942 0.321633 -0.259508 -0.079372 -0.204436 -0.112779 0.171402 0.153057 0.583224 0.377567 0.125145 -0.003492 -0.010527 0.344022 -0.181919 -0.161219 -0.021858 -0.183593 0.009979 0.330071 0.014084 -0.080410 0.204814 -0.331393 -0.064000 0.055190 0.207147 -0.021355 -0.201572 -0.037941 0.214903 -0.232089 0.167427 -0.099887 -0.479432 0.258178 
SandersForPresident 0.011286 -0.203642 0.377577 0.002822 0.823066 -0.246259 0.383428 0.187830 -0.209227 -0.330055 -0.086879 0.389567 0.078120 0.604142 -0.394658 0.115640 -0.063846 0.305992 -0.023776 0.591373 0.440381 0.208732 0.211151 -0.269239 0.024286 -0.084106 0.077857 -0.094924 -0.217191 -0.266110 -0.377092 0.060900 0.122593 0.165011 0.545206 0.231644 0.071465 -0.019410 -0.175453 -0.189190 0.353250 -0.097869 0.474772 0.128806 -0.337680 -0.132761 0.059829 -0.203529 -0.270275 -0.232187 0.383519 0.243318 -0.042879 0.240816 0.196013 -0.490394 -0.382046 -0.433807 -0.095381 0.082505 -0.378131 0.217251 -0.325916 -0.191035 -0.091426 0.081144 0.079427 -0.105481 0.247761 -0.276985 0.219564 0.107045 -0.182139 0.148137 -0.095111 -0.180028 0.001529 -0.175790 -0.065005 0.107306 0.178227 0.367978 0.147034 -0.010041 -0.273619 0.164560 -0.484845 0.129771 0.328671 0.056044 -0.359526 0.173761 -0.009266 -0.331151 -0.011648 0.355274 0.282740 0.300057 -0.156157 -0.410767 0.057856 -0.054709 0.060526 0.222846 -0.202537 0.038104 -0.114902 0.392079 -0.517648 -0.001872 -0.172534 -0.189500 0.369466 0.301885 -0.084064 0.303505 0.307044 0.470193 -0.118709 -0.164016 -0.092661 0.219242 -0.012152 -0.156736 0.393675 -0.239844 0.456456 -0.192863 0.276046 -0.236906 -0.029385 0.202980 -0.074864 -0.086319 0.133947 -0.281208 0.373967 -0.328093 -0.478897 -0.339061 -0.430396 -0.570930 -0.404982 0.199913 -0.414215 -0.264553 0.390889 0.126303 0.057066 -0.038699 -0.337402 0.156419 -0.035816 -0.122877 -0.223602 -0.405763 0.141385 0.393855 -0.358925 -0.234609 -0.070769 -0.165353 0.236336 0.362452 -0.145564 0.475795 -0.387240 -0.117745 -0.208323 -0.186148 0.233931 0.146492 0.635910 0.411770 0.164533 0.051839 -0.023100 0.295325 -0.157961 -0.132177 -0.016052 -0.234774 0.094205 0.377819 -0.069144 -0.181994 0.228160 -0.424466 -0.017263 0.022673 0.182311 0.004082 -0.295539 0.069913 0.316423 -0.316596 0.104876 -0.171479 -0.490637 0.291028 
centerleftpolitics 0.039912 -0.341300 0.399414 -0.112867 0.766984 -0.280658 0.417089 0.135818 -0.039024 -0.446829 -0.189671 0.469407 0.020398 0.702226 -0.464958 0.189773 -0.116308 0.422653 0.008311 0.596679 0.403675 0.350832 0.219754 -0.236596 -0.064163 -0.007848 -0.192855 -0.163622 -0.406572 -0.394272 -0.527857 0.092521 -0.024513 0.262581 0.822496 0.335808 -0.078761 -0.175545 -0.307175 -0.276269 0.120542 0.044548 0.157735 0.161148 -0.288220 -0.105203 0.011676 -0.140194 -0.058895 -0.078730 0.078666 -0.092217 -0.122379 0.115353 0.009027 -0.217262 -0.464101 -0.261865 -0.154580 0.063719 -0.501304 0.230893 -0.472321 -0.170576 -0.114499 0.005408 -0.004528 -0.016059 0.112339 -0.329882 0.193884 -0.064064 -0.263119 0.305596 -0.208533 -0.324804 -0.065820 -0.182090 -0.372003 0.157832 0.271108 0.489213 0.207778 0.092721 -0.290066 0.150726 -0.731528 0.149023 0.304622 0.069435 -0.304168 0.189163 -0.006030 -0.203834 -0.023331 0.254726 0.158804 0.057784 -0.138448 -0.360179 -0.062546 0.105958 0.112757 0.073936 -0.054714 -0.017365 -0.008721 -0.043085 -0.065006 -0.087388 0.051969 0.060076 0.051895 0.033362 0.043333 0.267718 0.067608 0.262527 -0.048035 0.023738 -0.069883 0.219294 -0.148277 -0.104547 0.475597 -0.285939 0.560666 -0.492307 0.447646 -0.139302 -0.056856 0.401640 0.148644 -0.157266 0.391182 -0.243561 0.334667 -0.235998 -0.334455 -0.336490 -0.248068 -0.509398 -0.500991 0.274535 -0.508606 -0.309306 0.465819 -0.002938 -0.070748 0.122181 -0.154476 0.040462 0.227184 -0.005239 -0.709724 -0.973578 0.235965 0.844586 -1.241866 -0.464657 -0.042922 -0.351015 0.810223 0.846770 -0.148249 0.820480 -0.597094 -0.122643 -0.285525 -0.038617 0.127105 0.263667 0.722892 0.465298 0.094455 -0.036994 -0.037829 0.643980 -0.346551 -0.348462 -0.119836 -0.315825 -0.117218 0.462441 0.094321 -0.101426 0.387552 -0.596228 -0.185971 0.072293 0.409423 -0.052237 -0.285073 -0.136241 0.296329 -0.404602 0.363524 -0.137423 -0.808738 0.478287 
Pete_Buttigieg 0.007928 -0.201782 0.300177 -0.029992 0.508333 -0.150834 0.254914 0.091911 -0.109454 -0.352678 -0.114728 0.365035 0.034137 0.554962 -0.357603 0.139519 -0.098053 0.320201 -0.030310 0.491379 0.376471 0.234336 0.188365 -0.212326 -0.025432 -0.072567 -0.037717 -0.125872 -0.296020 -0.346075 -0.472804 0.081230 0.044598 0.230907 0.648091 0.252252 -0.007772 -0.095939 -0.247752 -0.194869 0.236658 -0.040601 0.316193 0.152279 -0.301949 -0.129122 0.008814 -0.159317 -0.161214 -0.161517 0.259733 0.089592 -0.081647 0.163415 0.144987 -0.344882 -0.429141 -0.367240 -0.162680 0.075568 -0.461132 0.244742 -0.418464 -0.168108 -0.143083 0.087385 0.048134 -0.136549 0.319407 -0.476388 0.316610 0.064204 -0.233884 0.202149 -0.088789 -0.249483 -0.025127 -0.165930 -0.200601 0.138644 0.207164 0.422244 0.147783 0.012958 -0.249632 0.141020 -0.558759 0.133718 0.323465 0.086581 -0.361345 0.181460 -0.001461 -0.307073 -0.034477 0.302762 0.275420 0.217823 -0.198977 -0.428438 0.016938 0.022679 0.090859 0.197341 -0.218349 0.021355 -0.182155 0.445315 -0.686793 -0.108728 -0.169904 -0.175500 0.317987 0.262664 -0.032274 0.392400 0.287339 0.534029 -0.105472 -0.161032 -0.086441 0.204367 -0.077974 -0.139440 0.431846 -0.231022 0.469160 -0.308160 0.284035 -0.154198 -0.024861 0.261681 0.012972 -0.106959 0.206365 -0.216675 0.371686 -0.315871 -0.450648 -0.367087 -0.354383 -0.582657 -0.473975 0.230813 -0.477108 -0.274543 0.425762 0.080198 0.029582 0.047915 -0.248913 0.088217 0.079410 -0.084387 -0.414240 -0.639295 0.182414 0.576953 -0.739530 -0.312454 -0.037126 -0.341553 0.621902 0.768828 -0.176591 0.773470 -0.598267 -0.114642 -0.212416 -0.119987 0.188982 0.215607 0.637506 0.430470 0.155461 0.016037 -0.056549 0.456293 -0.269869 -0.228569 -0.038871 -0.287368 -0.010585 0.402492 0.005173 -0.103984 0.282242 -0.418722 -0.049176 0.056030 0.231910 0.000108 -0.222012 -0.023574 0.274847 -0.310804 0.188710 -0.138754 -0.518559 0.300620 
moderatepolitics -0.012305 -0.309170 0.455506 -0.023941 0.851877 -0.304462 0.480712 0.118205 -0.109091 -0.351821 -0.122579 0.412523 0.008110 0.577971 -0.372744 0.183796 -0.108748 0.418004 -0.024377 0.563099 0.450423 0.332215 0.242771 -0.268800 -0.019521 -0.085330 -0.016067 -0.115229 -0.263820 -0.286368 -0.444098 0.058425 0.045375 0.153618 0.453919 0.160061 0.017412 -0.063958 -0.205295 -0.143414 0.316273 -0.034564 0.402610 0.193303 -0.372165 -0.180212 -0.003129 -0.199156 -0.233685 -0.213471 0.359242 0.170690 -0.107795 0.204635 0.197881 -0.499078 -0.416634 -0.377702 -0.164389 0.077160 -0.438815 0.227125 -0.396254 -0.179953 -0.087736 0.082842 0.053326 -0.109175 0.263291 -0.378770 0.258181 0.058222 -0.254296 0.215980 -0.102611 -0.286873 0.013426 -0.197796 -0.097056 0.151563 0.216630 0.444529 0.166988 -0.008639 -0.288583 0.194093 -0.571593 0.141280 0.402406 0.093286 -0.401067 0.226376 -0.004928 -0.341473 -0.043078 0.373733 0.424313 0.368713 -0.302235 -0.706743 -0.001039 0.044935 0.133602 0.260545 -0.237417 0.059096 -0.163845 0.471618 -0.716692 -0.098914 -0.176664 -0.189079 0.375169 0.305865 -0.037045 0.466786 0.341901 0.619082 -0.132177 -0.177147 -0.043517 0.102817 -0.042416 -0.063164 0.203419 -0.127659 0.230517 -0.148724 0.159697 -0.085189 -0.004406 0.110710 0.021261 -0.086960 0.090130 -0.117722 0.197528 -0.173562 -0.243714 -0.192734 -0.195721 -0.322863 -0.227827 0.131243 -0.233386 -0.140219 0.202651 0.057898 0.022788 0.028880 -0.122017 0.057705 0.019267 -0.051590 -0.201229 -0.340805 0.104462 0.302779 -0.351397 -0.157987 -0.016835 -0.210056 0.338752 0.472793 -0.098171 0.460215 -0.372910 -0.087121 -0.190361 -0.143386 0.221957 0.199624 0.615986 0.416565 0.166261 0.025702 -0.037176 0.435263 -0.279361 -0.205621 -0.000986 -0.289421 0.007585 0.419163 0.004204 -0.096579 0.254826 -0.375685 -0.010129 0.065379 0.209302 0.006081 -0.173801 0.005865 0.241269 -0.227392 0.118363 -0.128175 -0.388184 0.211169 
ElizabethWarren 0.002660 0.053869 -0.038876 -0.009870 0.585873 -0.170629 0.193079 0.116066 -0.168195 -0.418044 -0.113790 0.449138 0.061568 0.661268 -0.432023 0.168014 -0.084464 0.352152 -0.015607 0.539240 0.397380 0.272474 0.196142 -0.238573 -0.044566 -0.071190 -0.025496 -0.141935 -0.293600 -0.316202 -0.449471 0.053852 0.052589 0.230250 0.595594 0.249752 0.009217 -0.075249 -0.238714 -0.213452 0.367067 -0.048472 0.446977 0.180568 -0.460606 -0.211756 -0.001200 -0.196495 -0.254431 -0.222978 0.370890 0.151784 -0.106030 0.252867 0.197074 -0.510367 -0.313072 -0.299106 -0.134033 0.065251 -0.362828 0.163486 -0.331618 -0.142329 -0.078303 0.029284 0.053877 -0.063357 0.169905 -0.270739 0.205189 0.037450 -0.105942 0.065775 -0.031032 -0.106692 -0.040628 -0.080918 -0.129296 0.069863 0.102827 0.229152 0.074449 0.009664 -0.160519 0.076191 -0.318842 0.073636 0.470064 0.101244 -0.439972 0.251588 -0.012515 -0.385197 -0.040751 0.407924 0.376391 0.332455 -0.206867 -0.573350 0.040027 0.003087 0.097109 0.253545 -0.146537 0.008396 -0.144608 0.289106 -0.436981 -0.071986 -0.156090 -0.139872 0.233356 0.208628 -0.010054 0.252506 0.168991 0.325540 -0.088677 -0.120191 -0.073092 0.176522 -0.064809 -0.146314 0.341000 -0.175571 0.386971 -0.239243 0.198683 -0.148548 0.002506 0.208389 -0.034991 -0.044209 0.161958 -0.161854 0.358772 -0.306182 -0.424746 -0.362491 -0.358655 -0.543025 -0.464235 0.191609 -0.449641 -0.269010 0.423022 0.086578 0.038140 -0.002335 -0.292452 0.108561 0.024321 -0.073867 -0.312889 -0.506638 0.177065 0.416167 -0.535262 -0.248639 -0.044359 -0.251893 0.445460 0.580225 -0.134327 0.598199 -0.471672 -0.103115 -0.259004 -0.135044 0.226794 0.207716 0.733823 0.497866 0.174429 0.014219 -0.045178 0.623712 -0.357120 -0.308713 -0.030120 -0.388939 0.025329 0.562402 0.004086 -0.057890 0.125331 -0.222748 -0.026244 0.003899 0.127868 -0.022793 -0.224630 -0.019792 0.245457 -0.301426 0.171989 -0.123577 -0.511587 0.276905 
progressive 0.010464 -0.291152 0.493334 -0.044825 1.128110 -0.362571 0.478516 0.228825 -0.151269 -0.414137 -0.149150 0.480176 0.050320 0.695044 -0.450943 0.176932 -0.103068 0.410759 -0.009491 0.630485 0.471916 0.307146 0.242265 -0.284845 -0.025959 -0.075183 -0.022064 -0.124370 -0.299844 -0.322736 -0.473530 0.068897 0.071316 0.178930 0.571026 0.230016 0.008977 -0.075300 -0.207602 -0.201772 0.389667 -0.045458 0.508079 0.227991 -0.482546 -0.211145 0.019265 -0.252594 -0.275458 -0.239987 0.399986 0.159914 -0.119082 0.272012 0.185929 -0.573837 -0.436474 -0.384866 -0.150181 0.087735 -0.455199 0.239169 -0.412665 -0.200567 -0.108959 0.061958 0.048765 -0.082126 0.233135 -0.394990 0.267692 0.034208 -0.276691 0.266545 -0.163409 -0.309924 -0.015704 -0.215463 -0.203503 0.158519 0.260829 0.526894 0.206245 0.039005 -0.351642 0.206488 -0.718908 0.172918 0.385216 0.072452 -0.379526 0.223150 -0.002215 -0.307784 -0.033469 0.353281 0.311311 0.276522 -0.208533 -0.531078 -0.003166 0.020832 0.099668 0.195662 -0.134825 0.020989 -0.063599 0.207626 -0.319231 -0.034275 -0.078623 -0.080107 0.235182 0.183864 -0.027339 0.286737 0.207171 0.359712 -0.077519 -0.090441 -0.046695 0.150907 -0.037009 -0.095880 0.283563 -0.169793 0.334024 -0.196832 0.212481 -0.135346 -0.010122 0.171623 0.007261 -0.082095 0.144607 -0.167796 0.172532 -0.137453 -0.197747 -0.164083 -0.169491 -0.262320 -0.204000 0.108652 -0.190561 -0.120180 0.182138 0.040502 -0.000170 0.013898 -0.125658 0.054424 0.026250 -0.049071 -0.220128 -0.358571 0.102203 0.311135 -0.369278 -0.181133 -0.035312 -0.140800 0.236673 0.313324 -0.089846 0.336525 -0.265841 -0.079806 -0.176666 -0.093716 0.158387 0.140012 0.490004 0.317718 0.088266 0.007743 -0.017078 0.397946 -0.223216 -0.182655 -0.026961 -0.251186 0.014247 0.392074 0.002714 -0.120857 0.223887 -0.389591 -0.075239 0.048796 0.228783 -0.014019 -0.293469 -0.025007 0.323856 -0.363138 0.212336 -0.176424 -0.658282 0.363151 
JoeBiden 0.028587 -0.352239 0.344919 -0.125824 0.470716 -0.178123 0.290823 0.078537 0.046304 -0.339086 -0.148376 0.335493 -0.015561 0.460588 -0.324493 0.163126 -0.103829 0.351457 0.008389 0.404883 0.268632 0.313527 0.142457 -0.138936 -0.094572 0.028645 -0.240920 -0.154877 -0.355968 -0.324028 -0.429470 0.062457 -0.083856 0.255194 0.714218 0.274606 -0.113688 -0.186008 -0.290799 -0.233092 -0.064122 0.102447 -0.122697 0.090659 -0.106285 -0.047347 -0.039510 -0.019847 0.089256 0.046100 -0.129664 -0.222010 -0.111335 -0.017742 -0.098789 0.049684 -0.601754 -0.322202 -0.245163 0.096556 -0.686820 0.293871 -0.629835 -0.221694 -0.142871 0.019532 -0.002519 -0.018641 0.171008 -0.507537 0.306890 -0.088731 -0.234676 0.256636 -0.171080 -0.289815 -0.080260 -0.130733 -0.371408 0.138910 0.198369 0.366582 0.149673 0.101508 -0.193223 0.092969 -0.548574 0.094966 0.304690 0.068632 -0.252322 0.203698 -0.016712 -0.154035 -0.033130 0.203698 0.114841 0.012121 -0.123077 -0.324162 -0.079335 0.130979 0.105955 0.027461 0.021059 -0.032649 0.009132 -0.148499 0.082850 -0.100953 0.078206 0.090884 -0.094965 -0.086240 0.077987 0.122558 -0.057743 0.054250 0.004733 0.075163 -0.048793 0.142717 -0.154268 -0.087822 0.355439 -0.182166 0.421608 -0.434325 0.354537 -0.068629 -0.026058 0.356030 0.161442 -0.115117 0.352522 -0.141599 0.239027 -0.178272 -0.197420 -0.273804 -0.128270 -0.376018 -0.413793 0.235789 -0.402682 -0.227373 0.368937 -0.035829 -0.084314 0.121513 -0.056242 -0.009660 0.221883 0.025677 -0.714489 -0.966799 0.239283 0.813224 -1.255813 -0.439996 -0.023287 -0.375194 0.866374 0.890885 -0.123105 0.818205 -0.600184 -0.120161 -0.318222 -0.038476 0.143373 0.295341 0.813173 0.531890 0.115648 -0.052483 -0.037846 0.724029 -0.396661 -0.379161 -0.104747 -0.331709 -0.136944 0.503067 0.116467 -0.092952 0.452492 -0.663883 -0.184923 0.098560 0.463765 -0.062091 -0.253311 -0.159615 0.269573 -0.371698 0.354301 -0.099508 -0.780052 0.445502 
Kamala 0.031135 -0.363276 0.334419 -0.118997 0.367190 -0.138259 0.280673 0.068644 0.017491 -0.358889 -0.156392 0.352316 -0.001750 0.513246 -0.356935 0.154820 -0.110091 0.365712 0.000458 0.471284 0.310865 0.306929 0.158054 -0.168950 -0.075114 0.018989 -0.220561 -0.146020 -0.350168 -0.336251 -0.425913 0.075356 -0.064018 0.272679 0.790257 0.309763 -0.106984 -0.188823 -0.294732 -0.248384 0.049858 0.065702 0.052010 0.142487 -0.226828 -0.086589 -0.010709 -0.096022 0.003969 -0.031278 0.004744 -0.157550 -0.123346 0.063537 -0.028387 -0.113459 -0.548539 -0.308053 -0.205049 0.086767 -0.615200 0.281745 -0.564059 -0.195601 -0.144215 0.021882 -0.008910 -0.028716 0.160251 -0.434869 0.258657 -0.068743 -0.311579 0.314753 -0.201281 -0.352077 -0.081273 -0.186423 -0.420269 0.186235 0.272683 0.513417 0.204422 0.101485 -0.280465 0.137699 -0.742837 0.138267 0.349833 0.079744 -0.339445 0.226277 -0.008903 -0.233761 -0.033649 0.272440 0.175407 0.062684 -0.164359 -0.400911 -0.068052 0.115445 0.121879 0.090107 -0.063617 -0.026313 -0.029926 -0.005734 -0.130890 -0.113727 0.039084 0.043498 0.120877 0.079060 0.049082 0.372501 0.134851 0.395004 -0.062898 -0.019544 -0.083925 0.251005 -0.171276 -0.146556 0.558561 -0.303391 0.650668 -0.566953 0.528874 -0.176414 -0.053884 0.492171 0.157249 -0.180041 0.455036 -0.285623 0.340699 -0.258109 -0.330128 -0.355195 -0.239641 -0.529402 -0.520675 0.288722 -0.534773 -0.307849 0.483816 -0.000983 -0.067958 0.128497 -0.147680 0.029171 0.244062 -0.030402 -0.863571 -1.218882 0.310857 1.055153 -1.530793 -0.573136 -0.034836 -0.411102 0.909336 0.960546 -0.155946 0.909532 -0.663184 -0.126590 -0.334500 -0.070788 0.170919 0.310525 0.868908 0.562130 0.134039 -0.034755 -0.045212 0.668994 -0.359005 -0.348985 -0.116376 -0.321772 -0.115579 0.478750 0.082769 -0.095950 0.393744 -0.585398 -0.161742 0.074589 0.388196 -0.046844 -0.213467 -0.121376 0.220284 -0.308235 0.286504 -0.084512 -0.623731 0.372050 
SocialDemocracy 0.006618 -0.352524 0.428918 -0.095755 0.800896 -0.271816 0.379225 0.148127 -0.098700 -0.464754 -0.167425 0.514186 0.031643 0.727137 -0.494217 0.212790 -0.127302 0.489239 -0.017620 0.687444 0.503585 0.391178 0.245682 -0.283576 -0.055387 -0.029569 -0.116053 -0.149846 -0.322693 -0.320556 -0.442498 0.060155 -0.003050 0.215017 0.626646 0.237045 -0.037804 -0.118508 -0.232342 -0.203693 0.138815 0.031653 0.162668 0.135188 -0.252025 -0.116684 -0.009842 -0.115312 -0.071271 -0.074301 0.113615 -0.039087 -0.101702 0.098675 0.030618 -0.226948 -0.524985 -0.378192 -0.194866 0.101555 -0.580762 0.278712 -0.518285 -0.220202 -0.132100 0.058103 0.035869 -0.058367 0.225650 -0.465831 0.304258 0.001119 -0.230906 0.209625 -0.144267 -0.242059 -0.049780 -0.145400 -0.260537 0.136663 0.195613 0.382896 0.149815 0.073859 -0.223628 0.118648 -0.537571 0.096091 0.429450 0.082993 -0.388001 0.265258 -0.020872 -0.299720 -0.045311 0.354024 0.307223 0.230819 -0.224920 -0.587556 -0.034395 0.070483 0.129896 0.176566 -0.162174 0.006646 -0.097676 0.234385 -0.406813 -0.104786 -0.091868 -0.090719 0.231484 0.173109 0.013783 0.383054 0.222167 0.460559 -0.094816 -0.084622 -0.063872 0.195941 -0.112115 -0.138383 0.399198 -0.217587 0.485147 -0.383772 0.356700 -0.156910 -0.021575 0.321031 0.074177 -0.125452 0.283758 -0.204679 0.282369 -0.242205 -0.283849 -0.297301 -0.236162 -0.453067 -0.402788 0.226330 -0.416725 -0.240922 0.389784 0.036188 -0.033776 0.067116 -0.167344 0.052506 0.127343 -0.019304 -0.529336 -0.775516 0.200342 0.659929 -0.927438 -0.360894 -0.041081 -0.309133 0.634709 0.705432 -0.120348 0.685855 -0.514705 -0.130009 -0.285514 -0.090507 0.188443 0.241848 0.748974 0.479111 0.111803 -0.018530 -0.012386 0.574366 -0.312361 -0.274408 -0.067521 -0.300582 -0.056587 0.474297 0.060617 -0.115889 0.342778 -0.545965 -0.134974 0.069586 0.350136 -0.040744 -0.266210 -0.091300 0.287358 -0.343291 0.262502 -0.132036 -0.692609 0.392086 
demsocialist -0.002710 -0.226367 0.295331 -0.031067 0.667042 -0.222787 0.299093 0.127728 -0.124597 -0.392814 -0.109934 0.443254 0.032494 0.609283 -0.412560 0.181324 -0.101444 0.419808 -0.023558 0.617633 0.467026 0.336828 0.224449 -0.262274 -0.051889 -0.056788 -0.068622 -0.151417 -0.315318 -0.324034 -0.464030 0.060610 0.028846 0.234070 0.639502 0.248343 -0.009648 -0.091626 -0.265530 -0.219357 0.215762 -0.000773 0.235641 0.129278 -0.289242 -0.143429 -0.019515 -0.124821 -0.137600 -0.131181 0.200442 0.063607 -0.097740 0.136851 0.102846 -0.309825 -0.433447 -0.353117 -0.175550 0.087634 -0.483723 0.221197 -0.431992 -0.189396 -0.095576 0.059878 0.051284 -0.068186 0.217604 -0.388218 0.267697 0.032294 -0.174328 0.140619 -0.077854 -0.187187 -0.037174 -0.120258 -0.167588 0.105734 0.126361 0.270247 0.091576 0.025493 -0.175378 0.097936 -0.359793 0.074266 0.397307 0.078478 -0.353536 0.229674 -0.020149 -0.295573 -0.036872 0.334202 0.290514 0.259449 -0.191802 -0.509109 0.005318 0.037716 0.093933 0.182938 -0.130523 0.014675 -0.113476 0.245682 -0.386520 -0.079770 -0.123362 -0.111678 0.219808 0.187117 -0.002864 0.295512 0.183794 0.367754 -0.084620 -0.102492 -0.088973 0.215855 -0.096661 -0.172015 0.444329 -0.230764 0.503939 -0.334438 0.354858 -0.202409 -0.007924 0.325502 0.007943 -0.107585 0.271435 -0.255127 0.347952 -0.309341 -0.397901 -0.362819 -0.334249 -0.546016 -0.466051 0.233295 -0.470998 -0.280199 0.442634 0.073910 0.009011 0.019564 -0.258361 0.096925 0.056236 -0.048758 -0.406652 -0.612072 0.185691 0.519112 -0.695393 -0.292255 -0.037066 -0.248539 0.478400 0.570486 -0.109406 0.571856 -0.449446 -0.110001 -0.282615 -0.146584 0.237140 0.236587 0.813541 0.539971 0.177620 0.004087 -0.034714 0.575511 -0.324847 -0.277972 -0.032423 -0.331707 0.005646 0.515862 0.029294 -0.150531 0.376233 -0.598024 -0.089607 0.077124 0.355131 -0.029771 -0.339928 -0.043299 0.375966 -0.420965 0.265545 -0.171901 -0.769977 0.424810 
BetoORourke 0.014859 -0.145549 0.192304 -0.023916 0.570266 -0.167245 0.254881 0.115190 -0.130923 -0.402522 -0.130897 0.433588 0.046008 0.640315 -0.420354 0.163639 -0.109905 0.402857 -0.024333 0.620993 0.460810 0.303042 0.230156 -0.264918 -0.046816 -0.073742 -0.067458 -0.172559 -0.395132 -0.435581 -0.599357 0.092108 0.059151 0.309293 0.889795 0.355864 -0.013626 -0.133577 -0.334383 -0.291808 0.329373 -0.036249 0.419298 0.206953 -0.437121 -0.189537 0.010129 -0.215371 -0.232216 -0.218980 0.343595 0.111516 -0.124348 0.241056 0.169575 -0.496337 -0.545812 -0.458540 -0.199460 0.099527 -0.589143 0.298730 -0.536523 -0.228119 -0.146600 0.073196 0.054018 -0.112063 0.299189 -0.496486 0.336528 0.041707 -0.205144 0.182455 -0.097944 -0.222928 -0.026362 -0.155775 -0.184687 0.119570 0.181977 0.374435 0.137081 0.022137 -0.240067 0.131184 -0.502967 0.123608 0.349809 0.079162 -0.364377 0.202879 -0.004315 -0.298729 -0.029142 0.319844 0.267434 0.218459 -0.183614 -0.445778 0.007412 0.025756 0.094143 0.183595 -0.149927 0.007415 -0.105868 0.258145 -0.410065 -0.068513 -0.099081 -0.104460 0.278600 0.222148 -0.024707 0.354060 0.247744 0.464172 -0.096815 -0.120969 -0.104473 0.265032 -0.096979 -0.182494 0.547030 -0.301620 0.619828 -0.403929 0.439762 -0.244256 -0.037141 0.394644 0.020368 -0.149724 0.326638 -0.328620 0.409101 -0.340391 -0.480720 -0.401558 -0.392433 -0.628593 -0.525272 0.256432 -0.524030 -0.310932 0.482355 0.081070 0.015180 0.038844 -0.289160 0.105826 0.074420 -0.087628 -0.457050 -0.706303 0.207775 0.625649 -0.801973 -0.349798 -0.040940 -0.281751 0.522244 0.636314 -0.150701 0.653350 -0.504632 -0.105341 -0.261102 -0.141551 0.217888 0.232347 0.752574 0.499444 0.170951 0.017034 -0.050910 0.536318 -0.297769 -0.264996 -0.050849 -0.328602 0.007789 0.486325 -0.004131 -0.114519 0.252482 -0.405957 -0.057158 0.038982 0.219489 -0.012078 -0.241045 -0.014483 0.267262 -0.308177 0.172706 -0.131729 -0.522158 0.300106 
ConservativeDemocrat 0.011914 -0.261547 0.346752 -0.054531 0.634626 -0.220651 0.308794 0.117585 -0.088377 -0.355561 -0.118880 0.403717 0.021391 0.565869 -0.380130 0.161412 -0.090319 0.367643 -0.013284 0.539623 0.394936 0.304310 0.202871 -0.229833 -0.045577 -0.038310 -0.093083 -0.139320 -0.312796 -0.313859 -0.441788 0.067226 0.017863 0.214874 0.635928 0.252109 -0.022395 -0.105386 -0.253685 -0.221314 0.238364 0.009040 0.284107 0.168404 -0.345486 -0.155368 -0.003737 -0.169717 -0.151471 -0.149801 0.222599 0.044018 -0.119767 0.168540 0.098839 -0.366314 -0.541521 -0.418290 -0.202147 0.099754 -0.591924 0.281698 -0.533084 -0.231477 -0.128546 0.062456 0.048312 -0.074352 0.254422 -0.471129 0.313412 0.017545 -0.218836 0.214233 -0.137108 -0.259447 -0.034730 -0.156129 -0.224717 0.131818 0.190175 0.370956 0.149654 0.044457 -0.236614 0.136948 -0.518002 0.110529 0.361330 0.069296 -0.329002 0.212044 -0.011109 -0.261247 -0.026860 0.304094 0.253787 0.208012 -0.175222 -0.471698 -0.021777 0.057642 0.098828 0.149313 -0.132103 0.017999 -0.082360 0.188346 -0.334178 -0.080699 -0.077445 -0.067134 0.189386 0.152944 0.008379 0.306600 0.165557 0.362192 -0.076543 -0.068754 -0.060877 0.170207 -0.088717 -0.112672 0.359137 -0.201395 0.416572 -0.308926 0.316300 -0.143507 -0.023686 0.275453 0.050832 -0.103554 0.251330 -0.203828 0.246745 -0.201430 -0.262763 -0.256460 -0.215670 -0.381353 -0.344708 0.185159 -0.342346 -0.208525 0.323191 0.026409 -0.026153 0.045294 -0.151349 0.059276 0.096085 -0.023615 -0.422665 -0.600553 0.163802 0.519128 -0.721842 -0.289804 -0.038917 -0.235684 0.497862 0.554155 -0.103866 0.557219 -0.422008 -0.103758 -0.236026 -0.092449 0.165209 0.199663 0.648747 0.418726 0.118786 -0.012492 -0.022721 0.480730 -0.261953 -0.243898 -0.056285 -0.257698 -0.031334 0.403818 0.041837 -0.135720 0.364812 -0.580219 -0.121591 0.078193 0.361261 -0.033222 -0.308350 -0.063699 0.333257 -0.386564 0.281867 -0.158504 -0.737800 0.415943 
