15 200
BaemyKlobaechar 0.005365 -0.107633 0.159645 0.062840 0.568759 -0.046979 0.350118 0.220453 -0.041688 -0.530278 -0.152707 0.550503 -0.068004 0.767422 -0.434420 0.263340 -0.166446 0.352844 -0.098044 0.428782 0.479528 0.256267 0.217423 -0.183877 -0.076859 -0.128022 -0.123247 -0.062564 -0.125710 -0.200488 -0.256418 0.096627 -0.003158 0.210838 0.585426 0.215336 -0.150909 -0.140239 -0.345275 -0.134880 0.321465 -0.023235 0.453826 0.269261 -0.423554 -0.214351 -0.097278 -0.226673 -0.112800 -0.175699 0.302556 0.097686 -0.171863 0.096941 0.224760 -0.338127 -0.325029 -0.185556 -0.222644 0.082917 -0.366280 0.210200 -0.361055 -0.085896 -0.092312 0.089924 -0.056662 -0.141320 0.181515 -0.329623 0.109497 0.033338 -0.235817 0.316346 0.016369 -0.360549 0.021864 -0.027218 -0.332706 0.133761 0.255714 0.419151 0.045692 0.045356 -0.139818 0.110007 -0.554730 0.105464 0.223351 0.091106 -0.309882 0.120034 0.038212 -0.209176 -0.041766 0.177698 0.112873 0.076808 -0.156327 -0.183457 -0.021136 0.095913 0.034664 0.070318 -0.088421 0.036122 -0.121101 0.390361 -0.589673 -0.171072 -0.079954 0.043905 0.145237 0.197423 0.006239 0.420002 0.210275 0.496007 0.008163 -0.191512 -0.056669 0.266916 -0.108303 -0.129112 0.718289 -0.267356 0.458092 -0.278645 0.341245 -0.105986 -0.017520 0.283025 -0.050201 -0.179520 0.278887 -0.306429 0.330241 -0.293665 -0.602369 -0.404321 -0.384890 -0.553147 -0.539488 0.197519 -0.536375 -0.225060 0.454186 0.082528 0.108935 0.126287 -0.179976 0.077911 0.133177 -0.137832 -0.238693 -0.356533 0.097651 0.347874 -0.545158 -0.195639 0.027056 -0.257950 0.390499 0.516806 -0.153880 0.407287 -0.339537 0.005352 -0.001671 -0.148496 0.104518 0.279701 0.434445 0.366003 0.170963 -0.050726 -0.248515 0.476650 -0.335572 -0.214924 0.033076 -0.295554 0.050755 0.309097 0.011600 -0.112965 0.372618 -0.395946 0.030577 0.212118 0.233868 0.093283 -0.228599 -0.012928 0.415450 -0.354695 0.260701 -0.130377 -0.377163 0.154985 
politics 0.023063 -0.049738 0.080504 0.102944 0.350066 -0.036771 0.240817 0.161808 -0.110920 -0.347909 -0.038714 0.478757 -0.035340 0.611444 -0.361300 0.205600 -0.149267 0.348531 -0.092625 0.477093 0.560947 0.248447 0.255046 -0.221110 -0.094342 -0.159838 -0.045525 -0.115610 -0.240947 -0.403190 -0.497649 0.137263 0.088869 0.192103 0.578582 0.238910 -0.093239 -0.087242 -0.351433 -0.197363 0.376853 -0.053797 0.534279 0.229962 -0.528572 -0.252646 -0.123679 -0.236172 -0.233884 -0.282071 0.492775 0.308983 -0.219501 0.155180 0.331738 -0.520635 -0.441764 -0.382277 -0.354184 0.155430 -0.540026 0.291770 -0.507646 -0.153252 -0.144800 0.111513 -0.026994 -0.217101 0.329886 -0.528791 0.222236 0.097780 -0.223450 0.327155 0.030668 -0.397644 0.046598 -0.025710 -0.314331 0.140060 0.275972 0.493976 0.070672 0.031049 -0.192780 0.167723 -0.643856 0.152303 0.707753 0.217099 -0.960937 0.381313 0.083305 -0.673463 -0.091241 0.593909 0.518197 0.543548 -0.559051 -0.709483 0.019181 0.212442 0.143549 0.354430 -0.173279 0.060274 -0.219270 0.743166 -1.057211 -0.273260 -0.234346 0.044385 0.305709 0.457097 -0.031347 0.678840 0.391130 0.812963 0.036635 -0.370858 -0.083664 0.361146 -0.078876 -0.239958 0.974967 -0.356888 0.608948 -0.254355 0.356647 -0.183706 -0.014850 0.288062 -0.148398 -0.122059 0.329080 -0.425571 0.181475 -0.174479 -0.374055 -0.258433 -0.303097 -0.296039 -0.344706 0.088172 -0.315631 -0.119455 0.311126 0.057983 0.071876 0.009633 -0.176755 0.095362 0.026049 -0.174782 -0.231086 -0.373600 0.185549 0.294561 -0.441864 -0.251243 -0.019635 -0.196998 0.252861 0.424652 -0.190987 0.389384 -0.350930 -0.055606 -0.010100 -0.205968 0.120360 0.268177 0.531399 0.444651 0.218509 -0.054431 -0.215518 0.460770 -0.318302 -0.214139 0.082910 -0.307137 0.151414 0.339722 -0.051269 -0.180880 0.387113 -0.415252 0.100427 0.276043 0.289351 0.112739 -0.403805 0.079144 0.576624 -0.499729 0.267154 -0.151642 -0.518452 0.186851 
YangForPresidentHQ 0.017699 -0.099101 0.160114 0.077501 0.229669 -0.030770 0.182773 0.096883 -0.057451 -0.281953 -0.057879 0.326558 -0.022306 0.266094 -0.156607 0.096041 -0.096959 0.212588 -0.056865 0.285331 0.331318 0.148854 0.143687 -0.119043 -0.071303 -0.116599 -0.068300 -0.084726 -0.170382 -0.296632 -0.361060 0.098244 0.030325 0.137272 0.400970 0.152658 -0.076547 -0.065848 -0.229459 -0.102305 0.286289 -0.038515 0.391376 0.200646 -0.407671 -0.198820 -0.091938 -0.205194 -0.156509 -0.219114 0.357889 0.199200 -0.192783 0.111815 0.249880 -0.388433 -0.500749 -0.403196 -0.363257 0.158012 -0.592922 0.327400 -0.558061 -0.167457 -0.178497 0.130602 -0.043386 -0.263309 0.361442 -0.594275 0.234551 0.106181 -0.177060 0.310730 -0.000068 -0.365903 0.028898 -0.055899 -0.283651 0.102480 0.278453 0.450479 0.062963 0.056526 -0.203715 0.186453 -0.626900 0.159626 0.604382 0.184551 -0.814210 0.354692 0.018906 -0.556842 -0.079912 0.529774 0.425811 0.472668 -0.466092 -0.621859 0.055697 0.177107 0.135660 0.274477 -0.086242 0.005216 -0.153591 0.442115 -0.594145 -0.165861 -0.186862 -0.027227 0.144056 0.254738 -0.041739 0.297759 0.206940 0.420459 -0.006658 -0.193295 -0.071998 0.293826 -0.092507 -0.170530 0.789935 -0.288511 0.498266 -0.253141 0.386087 -0.153475 -0.022719 0.310481 -0.098100 -0.170405 0.324422 -0.405382 0.173952 -0.164177 -0.322217 -0.220847 -0.252533 -0.305929 -0.307927 0.118514 -0.320320 -0.118128 0.283047 0.057750 0.069575 0.054012 -0.114578 0.063176 0.057965 -0.108410 -0.175900 -0.279946 0.092394 0.221862 -0.341156 -0.162343 -0.000376 -0.161655 0.234449 0.324679 -0.121469 0.275040 -0.249873 -0.036207 -0.002202 -0.188489 0.100193 0.300252 0.507073 0.427985 0.184964 -0.060634 -0.230967 0.463403 -0.320095 -0.197249 0.059214 -0.289209 0.096713 0.329238 -0.014835 -0.091472 0.229091 -0.234856 0.047474 0.169620 0.179636 0.068739 -0.190798 0.004984 0.293980 -0.238545 0.165931 -0.075173 -0.298043 0.122301 
SandersForPresident 0.002588 -0.088309 0.093790 0.044689 0.437150 -0.029429 0.269787 0.171747 -0.046327 -0.428704 -0.123236 0.439933 -0.051988 0.654712 -0.376358 0.217972 -0.160900 0.333107 -0.084772 0.394582 0.460024 0.230141 0.209585 -0.179690 -0.069016 -0.112951 -0.085240 -0.053625 -0.130353 -0.226356 -0.282567 0.096404 0.019298 0.193344 0.547648 0.205628 -0.138579 -0.132481 -0.312435 -0.139943 0.331766 -0.033863 0.496313 0.272496 -0.457727 -0.221140 -0.103816 -0.230704 -0.164147 -0.222849 0.416138 0.165568 -0.202830 0.138400 0.281832 -0.438528 -0.366804 -0.240313 -0.279724 0.118935 -0.437262 0.256631 -0.413576 -0.102658 -0.118433 0.091765 -0.069466 -0.154674 0.207047 -0.386294 0.130577 0.029609 -0.192929 0.250368 0.024738 -0.294354 0.026452 -0.017544 -0.262587 0.113743 0.223433 0.388946 0.047115 0.037573 -0.133948 0.108533 -0.506783 0.106026 0.346079 0.119040 -0.486980 0.191746 0.059943 -0.318477 -0.054633 0.263017 0.229824 0.190691 -0.273907 -0.319491 -0.021786 0.119308 0.068285 0.151721 -0.096459 0.033742 -0.100323 0.378730 -0.573147 -0.160994 -0.071915 0.058187 0.146158 0.195663 0.004351 0.406617 0.207740 0.457021 0.032170 -0.185612 -0.038002 0.230324 -0.060514 -0.124258 0.609701 -0.222931 0.395076 -0.209460 0.203799 -0.079381 -0.013876 0.167897 -0.039263 -0.097465 0.172980 -0.191522 0.217955 -0.184001 -0.392779 -0.272315 -0.258502 -0.354691 -0.360275 0.116138 -0.369110 -0.140294 0.324295 0.054506 0.072959 0.091555 -0.137207 0.065990 0.090886 -0.125612 -0.180220 -0.294148 0.100876 0.262583 -0.417865 -0.175288 0.012623 -0.197024 0.266712 0.387115 -0.141688 0.307527 -0.252394 -0.007071 -0.012446 -0.158318 0.104334 0.277305 0.455348 0.380347 0.168650 -0.058915 -0.235151 0.476413 -0.327575 -0.203645 0.040928 -0.299738 0.082421 0.313402 -0.033704 -0.167360 0.432647 -0.472028 0.058736 0.272141 0.303294 0.117270 -0.347344 0.023266 0.535067 -0.476766 0.301345 -0.161300 -0.498944 0.190805 
centerleftpolitics 0.004781 -0.139907 0.182727 0.067745 0.726610 -0.037763 0.405571 0.269076 -0.022442 -0.635852 -0.216137 0.567961 -0.080038 0.916096 -0.505995 0.300054 -0.188671 0.378690 -0.109277 0.456133 0.499043 0.267386 0.228730 -0.195883 -0.045098 -0.102404 -0.123098 -0.015279 -0.030687 -0.048268 -0.071818 0.067219 -0.028241 0.182088 0.519146 0.182181 -0.155409 -0.150551 -0.286101 -0.092973 0.269024 -0.010342 0.416449 0.271130 -0.299870 -0.153422 -0.059453 -0.196619 -0.053248 -0.110696 0.217831 -0.004855 -0.122812 0.069800 0.164819 -0.244479 -0.201290 -0.034791 -0.110285 0.033654 -0.194671 0.144267 -0.206906 -0.030701 -0.037266 0.070188 -0.076760 -0.059071 0.045312 -0.128349 0.000332 -0.014302 -0.181847 0.229599 0.002120 -0.220557 0.029873 0.001160 -0.245874 0.101882 0.218558 0.322805 0.033750 0.050911 -0.066165 0.047596 -0.430880 0.054625 -0.029711 0.023624 0.002694 -0.023152 0.039173 0.034380 -0.012710 -0.054336 -0.109670 -0.190044 0.062328 0.124492 -0.062331 0.023043 -0.030861 -0.077323 -0.085575 0.040658 -0.074326 0.308887 -0.488091 -0.136392 -0.006187 0.073418 0.119898 0.125114 0.020032 0.403861 0.192156 0.464682 0.012215 -0.154748 -0.042483 0.269928 -0.113020 -0.100057 0.708887 -0.272212 0.456100 -0.302233 0.348462 -0.091887 -0.027136 0.279680 -0.028954 -0.214660 0.262037 -0.285147 0.377186 -0.327702 -0.683690 -0.444537 -0.398073 -0.617693 -0.574333 0.218531 -0.581648 -0.249941 0.477106 0.089923 0.115671 0.171801 -0.177735 0.069821 0.178908 -0.138703 -0.229053 -0.342676 0.047940 0.357301 -0.544114 -0.163033 0.037989 -0.253982 0.385928 0.486845 -0.127468 0.368416 -0.287186 0.032647 0.001307 -0.166654 0.130477 0.336145 0.481821 0.398410 0.179938 -0.056556 -0.307524 0.565117 -0.397453 -0.246124 0.017562 -0.357878 0.042270 0.365083 0.028079 -0.097594 0.351744 -0.384180 -0.007328 0.174461 0.189857 0.088838 -0.135957 -0.034106 0.324032 -0.277576 0.224075 -0.127442 -0.263837 0.114545 
Pete_Buttigieg -0.000231 -0.100071 0.200986 0.102708 0.922580 -0.056470 0.471244 0.290725 -0.055140 -0.550381 -0.138019 0.541990 -0.065873 0.846901 -0.483573 0.285027 -0.174042 0.347683 -0.110851 0.418742 0.490107 0.242992 0.222430 -0.177991 -0.117809 -0.181534 -0.135606 -0.102104 -0.202724 -0.359523 -0.433464 0.159145 0.022620 0.303376 0.828943 0.311128 -0.201987 -0.194072 -0.496443 -0.207346 0.258992 -0.024570 0.394939 0.229124 -0.365608 -0.181765 -0.090908 -0.195313 -0.102614 -0.166746 0.310171 0.094075 -0.158692 0.104636 0.236489 -0.307478 -0.304514 -0.169865 -0.239836 0.078770 -0.357454 0.215546 -0.350254 -0.060021 -0.093664 0.079267 -0.075387 -0.140644 0.182403 -0.308502 0.086842 0.034848 -0.155999 0.186024 0.034378 -0.205962 0.036003 0.020745 -0.215381 0.090041 0.186195 0.319671 0.041852 0.031628 -0.057792 0.052482 -0.401883 0.075333 0.296129 0.121405 -0.443685 0.153583 0.064858 -0.323782 -0.048344 0.251866 0.203703 0.155099 -0.258752 -0.274763 -0.017667 0.123882 0.069939 0.157066 -0.114169 0.043029 -0.171168 0.554694 -0.820896 -0.244525 -0.125286 0.063376 0.205450 0.294530 0.006456 0.569403 0.297553 0.667817 0.038466 -0.278442 -0.027301 0.132629 -0.050555 -0.065925 0.380212 -0.133688 0.237313 -0.143659 0.071677 -0.008212 -0.007621 0.078076 -0.005130 -0.051775 0.061794 -0.035305 0.272593 -0.250389 -0.527748 -0.351331 -0.330667 -0.461418 -0.469845 0.136082 -0.474830 -0.185745 0.409331 0.070027 0.108868 0.105374 -0.179567 0.068945 0.106575 -0.162184 -0.210096 -0.333042 0.128740 0.342956 -0.540372 -0.207195 0.032653 -0.256082 0.351634 0.505288 -0.174694 0.397015 -0.322485 0.021788 0.004436 -0.161425 0.107513 0.283135 0.442131 0.378157 0.201692 -0.050153 -0.294807 0.567745 -0.395324 -0.257708 0.045338 -0.355880 0.096297 0.357514 -0.018382 -0.128022 0.404849 -0.425463 0.063892 0.227370 0.240426 0.107160 -0.265846 0.035632 0.433846 -0.386676 0.239086 -0.133066 -0.373709 0.137901 
moderatepolitics 0.021572 -0.174581 0.228140 0.112100 0.801664 -0.068768 0.433545 0.255436 -0.075387 -0.585982 -0.154646 0.641828 -0.066126 0.802867 -0.465218 0.272539 -0.188657 0.404829 -0.110622 0.499456 0.572446 0.290462 0.257788 -0.217365 -0.104954 -0.158077 -0.125934 -0.103627 -0.194844 -0.329431 -0.404643 0.126807 0.023590 0.255149 0.722192 0.273249 -0.164824 -0.158808 -0.412336 -0.184694 0.376836 -0.036366 0.537027 0.292879 -0.499731 -0.245380 -0.111189 -0.259874 -0.158234 -0.229445 0.402565 0.168644 -0.215186 0.138055 0.276041 -0.435140 -0.367366 -0.249295 -0.268158 0.111928 -0.437167 0.247157 -0.410799 -0.110709 -0.113774 0.089315 -0.052145 -0.154880 0.209687 -0.377796 0.135475 0.045220 -0.193562 0.281059 0.007563 -0.337400 0.026372 -0.034847 -0.287595 0.112994 0.264178 0.436750 0.061337 0.055056 -0.171515 0.149127 -0.590004 0.132391 0.320553 0.101128 -0.425112 0.186626 0.023524 -0.272393 -0.039237 0.250990 0.202942 0.201005 -0.226613 -0.306259 0.006818 0.102752 0.065410 0.128001 -0.066784 0.016046 -0.086080 0.270315 -0.390715 -0.118161 -0.083202 0.009752 0.102309 0.150706 -0.003215 0.267422 0.145462 0.330353 0.003535 -0.131246 -0.046846 0.237051 -0.083944 -0.124808 0.634496 -0.229941 0.413164 -0.240004 0.290956 -0.098514 -0.019279 0.239648 -0.049066 -0.138220 0.239774 -0.264149 0.277380 -0.247179 -0.494991 -0.346774 -0.339701 -0.462333 -0.467246 0.165016 -0.457272 -0.177355 0.398765 0.067648 0.089250 0.099933 -0.159303 0.078343 0.100223 -0.130297 -0.214681 -0.338255 0.104886 0.287451 -0.464292 -0.184753 0.013770 -0.215039 0.315847 0.423027 -0.135736 0.337957 -0.283161 -0.010619 -0.009010 -0.138775 0.084706 0.245585 0.401924 0.335216 0.146844 -0.053480 -0.205293 0.415875 -0.282074 -0.178023 0.033068 -0.250546 0.062202 0.271950 -0.017255 -0.128808 0.358037 -0.385463 0.046753 0.226820 0.254377 0.092226 -0.283045 0.004896 0.425164 -0.367529 0.249108 -0.114617 -0.404146 0.160241 
ElizabethWarren -0.010692 -0.011700 0.077320 0.044639 0.417848 -0.038282 0.330401 0.211985 -0.035187 -0.441052 -0.118353 0.463091 -0.065784 0.845308 -0.478661 0.288187 -0.155968 0.329352 -0.101496 0.426102 0.476666 0.237245 0.212125 -0.175684 -0.062405 -0.113824 -0.093947 -0.054201 -0.105609 -0.169157 -0.217137 0.089562 0.013265 0.227268 0.626717 0.232252 -0.146583 -0.134517 -0.378587 -0.149340 0.261682 -0.021237 0.364715 0.211011 -0.375301 -0.193410 -0.091741 -0.201141 -0.101978 -0.161334 0.267249 0.101278 -0.147182 0.080138 0.215261 -0.289706 -0.326011 -0.206331 -0.225519 0.075556 -0.360552 0.210239 -0.363046 -0.084030 -0.082973 0.086252 -0.047917 -0.146130 0.190477 -0.307660 0.099951 0.055643 -0.164668 0.208930 0.018221 -0.219010 0.022278 -0.003209 -0.221581 0.091711 0.160472 0.253191 0.021857 0.025156 -0.049678 0.040183 -0.324382 0.046411 0.164850 0.081154 -0.255456 0.078131 0.045908 -0.224753 -0.038264 0.181415 0.105808 0.069570 -0.157882 -0.161334 -0.017174 0.093572 0.032722 0.083974 -0.113410 0.050019 -0.170197 0.545356 -0.802494 -0.224206 -0.121122 0.051418 0.204662 0.282323 -0.002111 0.546956 0.289068 0.658328 0.014972 -0.264916 -0.051875 0.204709 -0.089198 -0.096081 0.560049 -0.210887 0.348977 -0.206911 0.238062 -0.071816 -0.011450 0.201381 -0.040887 -0.137331 0.185672 -0.212353 0.377855 -0.351396 -0.720334 -0.469107 -0.465238 -0.636046 -0.621031 0.216864 -0.589146 -0.248642 0.502644 0.098143 0.132571 0.117715 -0.217722 0.089177 0.130741 -0.173758 -0.265891 -0.396400 0.132313 0.428136 -0.644017 -0.246594 0.028547 -0.302151 0.446232 0.607006 -0.196667 0.496867 -0.421039 0.004553 0.013440 -0.124302 0.089720 0.217098 0.329416 0.285312 0.153458 -0.030399 -0.218463 0.398131 -0.285729 -0.186403 0.031153 -0.255499 0.049810 0.263007 0.017925 -0.074160 0.286305 -0.291648 0.031122 0.139758 0.138571 0.072436 -0.130595 0.001221 0.276154 -0.231813 0.168987 -0.096663 -0.237455 0.098169 
progressive 0.003667 -0.124676 0.234313 0.109124 0.616731 -0.055731 0.395436 0.231749 -0.110291 -0.664426 -0.149123 0.703961 -0.057936 0.717666 -0.417403 0.246384 -0.163406 0.347887 -0.103341 0.449110 0.516176 0.244066 0.214934 -0.191043 -0.032000 -0.062036 -0.057418 -0.028935 -0.049600 -0.089179 -0.100017 0.038898 -0.008936 0.095577 0.239031 0.086320 -0.067047 -0.044824 -0.144660 -0.040755 0.159127 -0.019458 0.204357 0.121044 -0.234991 -0.119780 -0.056240 -0.119288 -0.061648 -0.103317 0.160041 0.071638 -0.097148 0.033002 0.130455 -0.175403 -0.310208 -0.205242 -0.216709 0.098086 -0.361215 0.197836 -0.346729 -0.084829 -0.091708 0.091226 -0.037292 -0.143090 0.175306 -0.291053 0.104567 0.049151 -0.165304 0.218884 0.021816 -0.237848 0.014894 -0.019949 -0.228815 0.091313 0.193526 0.303586 0.019435 0.027432 -0.101682 0.077970 -0.400937 0.077617 0.221171 0.090614 -0.329451 0.122484 0.033490 -0.236379 -0.045414 0.192983 0.136710 0.110451 -0.186811 -0.201136 -0.001571 0.093970 0.037017 0.099182 -0.099113 0.024421 -0.152521 0.501000 -0.724844 -0.195860 -0.122411 0.039790 0.182011 0.262344 -0.017213 0.468629 0.264285 0.587859 0.016644 -0.252293 -0.057637 0.240737 -0.093637 -0.127746 0.648634 -0.228470 0.393329 -0.229355 0.350631 -0.120324 -0.018485 0.295397 -0.083907 -0.164532 0.292938 -0.351706 0.272599 -0.255943 -0.518421 -0.338893 -0.357435 -0.466358 -0.469408 0.173798 -0.486273 -0.194292 0.411882 0.085625 0.110379 0.082762 -0.171585 0.073480 0.101940 -0.161189 -0.232286 -0.367441 0.124244 0.347379 -0.546819 -0.218704 0.016749 -0.259290 0.383099 0.520311 -0.166437 0.423174 -0.364110 0.000382 0.005696 -0.154085 0.092024 0.264944 0.421418 0.360272 0.170256 -0.040417 -0.223073 0.401963 -0.291327 -0.179052 0.047231 -0.254302 0.060614 0.264130 0.006223 -0.095667 0.299115 -0.299160 0.056399 0.177187 0.180773 0.078422 -0.213981 0.009019 0.342010 -0.280446 0.193283 -0.092084 -0.298049 0.125483 
JoeBiden -0.035531 0.015736 0.011050 -0.023366 0.168501 -0.020011 0.226482 0.183423 0.029348 -0.460015 -0.155877 0.415787 -0.084546 0.883885 -0.485784 0.317818 -0.155378 0.316892 -0.097737 0.368553 0.397619 0.240066 0.177928 -0.139530 -0.052334 -0.099852 -0.136458 -0.018331 -0.019462 0.000283 -0.038023 0.058264 -0.048063 0.205933 0.522028 0.170939 -0.155696 -0.145880 -0.330257 -0.088646 0.238712 0.008355 0.321417 0.238621 -0.289543 -0.171609 -0.086683 -0.174253 -0.017995 -0.075559 0.125043 -0.045367 -0.101481 0.033072 0.142643 -0.152806 -0.184878 -0.032894 -0.108511 -0.002942 -0.166927 0.108477 -0.201094 -0.025216 -0.012856 0.060402 -0.056758 -0.072937 0.072951 -0.147653 0.015863 0.015601 -0.253947 0.298146 0.026184 -0.318914 0.015567 -0.014047 -0.326901 0.139546 0.214759 0.344422 0.018606 0.039186 -0.063521 0.045731 -0.436707 0.044827 0.106300 0.078275 -0.150698 0.043264 0.036033 -0.145010 -0.046336 0.115037 0.009369 -0.050920 -0.072806 -0.061749 -0.035495 0.089079 0.004794 0.007737 -0.088176 0.052034 -0.173854 0.479202 -0.732289 -0.224983 -0.089886 0.053587 0.173296 0.230334 0.023918 0.542532 0.253110 0.633183 -0.003306 -0.236376 -0.062439 0.247065 -0.143293 -0.102128 0.673810 -0.253057 0.426295 -0.294808 0.337233 -0.084946 -0.001121 0.298513 -0.025686 -0.217563 0.262307 -0.264890 0.598945 -0.548225 -1.112531 -0.734976 -0.695096 -1.015014 -0.971295 0.351074 -0.943844 -0.403991 0.796932 0.149756 0.203534 0.218902 -0.325116 0.126298 0.211253 -0.193279 -0.351260 -0.501848 0.124099 0.543551 -0.826851 -0.272498 0.062451 -0.389519 0.592493 0.776374 -0.214143 0.597412 -0.501981 0.027647 0.018427 -0.167302 0.141092 0.336273 0.479188 0.419875 0.217347 -0.052166 -0.329229 0.610794 -0.442374 -0.281360 0.037971 -0.385885 0.036631 0.393552 0.065430 -0.066279 0.396370 -0.403666 0.003514 0.177492 0.185480 0.096131 -0.106832 -0.049269 0.343475 -0.288678 0.244445 -0.131946 -0.268976 0.118851 
Kamala -0.020767 -0.078340 0.109921 0.033915 0.726830 -0.044455 0.447724 0.287735 0.015911 -0.626721 -0.225827 0.573533 -0.099543 1.070246 -0.591024 0.364980 -0.207014 0.414358 -0.117000 0.471903 0.517532 0.300319 0.238922 -0.197833 -0.045599 -0.093949 -0.144045 0.001854 0.004239 0.030368 0.003071 0.055134 -0.054114 0.207416 0.555267 0.183415 -0.181321 -0.176055 -0.328585 -0.092989 0.218887 0.015132 0.336628 0.262594 -0.243178 -0.139502 -0.062275 -0.173172 0.003227 -0.047575 0.115293 -0.097765 -0.086023 0.037460 0.111913 -0.139457 -0.147868 0.052743 -0.075038 -0.002236 -0.120342 0.102020 -0.148603 -0.001178 0.002682 0.060524 -0.089393 -0.023188 -0.009373 -0.061972 -0.039873 -0.039386 -0.175853 0.189565 0.003289 -0.149057 0.034167 0.034107 -0.217724 0.102028 0.161439 0.214244 0.019132 0.051876 0.036051 -0.032581 -0.281622 -0.013830 -0.070069 0.026303 0.063268 -0.055842 0.056057 0.050324 -0.021256 -0.084116 -0.146178 -0.259375 0.080664 0.169249 -0.088681 0.035808 -0.044682 -0.102433 -0.099282 0.064946 -0.115503 0.412210 -0.672100 -0.201310 -0.006276 0.103398 0.155597 0.163988 0.043331 0.560828 0.241567 0.611721 0.021307 -0.207312 -0.044682 0.260832 -0.134729 -0.092461 0.694800 -0.263478 0.448795 -0.320100 0.313209 -0.066205 -0.007048 0.267435 0.001316 -0.219586 0.232283 -0.218701 0.513936 -0.453251 -0.933403 -0.618483 -0.551767 -0.865092 -0.811076 0.299522 -0.799912 -0.344745 0.661267 0.121471 0.162669 0.228411 -0.251906 0.094420 0.213667 -0.139711 -0.263850 -0.376431 0.053756 0.427956 -0.657431 -0.181530 0.061762 -0.321350 0.487846 0.622350 -0.154925 0.455547 -0.360707 0.045999 0.007548 -0.142613 0.135138 0.321648 0.433590 0.368163 0.176199 -0.053950 -0.308310 0.566037 -0.407625 -0.250271 0.016533 -0.356610 0.015426 0.353481 0.052984 -0.086488 0.414929 -0.441903 -0.013520 0.196481 0.212176 0.103563 -0.115582 -0.054852 0.359300 -0.311945 0.269477 -0.152396 -0.292927 0.123267 
SocialDemocracy 0.008369 -0.190112 0.309450 0.108998 0.820267 -0.052460 0.366544 0.176167 -0.040176 -0.398862 -0.112327 0.471426 -0.053888 0.440503 -0.256070 0.168118 -0.122502 0.244517 -0.081569 0.267603 0.323493 0.173118 0.136849 -0.113607 -0.059703 -0.107069 -0.084839 -0.052752 -0.070152 -0.147216 -0.179539 0.058683 -0.012835 0.128206 0.327333 0.098155 -0.085983 -0.081617 -0.180939 -0.044123 0.236731 -0.020334 0.329313 0.209086 -0.321275 -0.171898 -0.084583 -0.180988 -0.072910 -0.130095 0.236269 0.073698 -0.139577 0.054940 0.167254 -0.253874 -0.366405 -0.233718 -0.274215 0.117542 -0.438864 0.257342 -0.406782 -0.104215 -0.106148 0.115807 -0.061221 -0.170809 0.215625 -0.382219 0.131362 0.051004 -0.306550 0.392803 0.042341 -0.483532 0.025176 -0.057125 -0.404265 0.177027 0.361049 0.624893 0.065631 0.055687 -0.238953 0.199007 -0.806097 0.171274 0.379501 0.135644 -0.521559 0.225548 0.036163 -0.358054 -0.068438 0.307248 0.236620 0.213846 -0.297120 -0.350228 0.000684 0.128303 0.068513 0.148539 -0.082225 0.024725 -0.137016 0.449762 -0.645985 -0.183757 -0.112101 0.021097 0.147396 0.208039 -0.004748 0.401400 0.235117 0.512878 0.019244 -0.222768 -0.066231 0.285135 -0.109988 -0.165565 0.776075 -0.266119 0.489066 -0.280397 0.423535 -0.154336 -0.018536 0.353060 -0.094248 -0.213313 0.342511 -0.414105 0.399432 -0.381861 -0.736980 -0.507075 -0.524518 -0.701737 -0.688468 0.250106 -0.676743 -0.249212 0.580226 0.120215 0.154855 0.137938 -0.232335 0.108267 0.132643 -0.204222 -0.298608 -0.488847 0.154278 0.438470 -0.678380 -0.271938 0.032349 -0.319640 0.447358 0.617006 -0.192603 0.480664 -0.414104 -0.005144 0.008839 -0.234464 0.141731 0.396640 0.619088 0.525760 0.247870 -0.069299 -0.323446 0.616479 -0.436443 -0.260938 0.072852 -0.391054 0.100033 0.416331 -0.010680 -0.143499 0.455382 -0.460390 0.080701 0.295961 0.300493 0.130159 -0.357866 0.007000 0.561716 -0.460416 0.306934 -0.163483 -0.515189 0.204973 
demsocialist -0.002042 -0.049170 0.160157 0.075358 0.466319 -0.043251 0.310666 0.195854 -0.069840 -0.410376 -0.079435 0.421972 -0.037876 0.552552 -0.319642 0.194616 -0.128287 0.269428 -0.086902 0.345932 0.406991 0.187460 0.173359 -0.140548 -0.072164 -0.110748 -0.069002 -0.072394 -0.121661 -0.217686 -0.259950 0.084379 0.023698 0.182139 0.486838 0.181413 -0.106427 -0.096594 -0.291889 -0.119262 0.246865 -0.034705 0.342204 0.174043 -0.353106 -0.178515 -0.090654 -0.165655 -0.133438 -0.189613 0.318910 0.164329 -0.165044 0.095542 0.237854 -0.330203 -0.358282 -0.265230 -0.281127 0.107425 -0.431120 0.240846 -0.415778 -0.100322 -0.109394 0.090702 -0.041266 -0.176970 0.239778 -0.386607 0.144936 0.074841 -0.192625 0.240837 0.042144 -0.299312 0.018516 -0.028436 -0.255516 0.106339 0.209393 0.378358 0.032715 0.023457 -0.136855 0.112761 -0.473761 0.107781 0.315273 0.115249 -0.446871 0.174046 0.032814 -0.328249 -0.051529 0.282458 0.223568 0.218286 -0.263500 -0.314854 0.017045 0.110148 0.071033 0.162955 -0.109606 0.028532 -0.185112 0.570169 -0.808156 -0.230297 -0.169980 0.025311 0.207823 0.315563 -0.017697 0.509146 0.296446 0.637389 0.021314 -0.281419 -0.057424 0.219319 -0.076400 -0.135492 0.608052 -0.213146 0.376839 -0.195108 0.261025 -0.101960 -0.013582 0.229706 -0.079371 -0.117893 0.228774 -0.269668 0.352686 -0.339111 -0.683722 -0.458412 -0.478963 -0.596995 -0.616906 0.199078 -0.614254 -0.234230 0.544108 0.103329 0.140716 0.095205 -0.244669 0.106022 0.095760 -0.200441 -0.275066 -0.441099 0.175361 0.410094 -0.633496 -0.274779 0.020361 -0.295650 0.412399 0.592654 -0.210667 0.486668 -0.422677 -0.010825 0.007344 -0.195614 0.115626 0.314288 0.517903 0.446171 0.225482 -0.052837 -0.272945 0.530364 -0.372515 -0.238905 0.066805 -0.337022 0.106569 0.355022 -0.015131 -0.127075 0.376413 -0.383412 0.080462 0.227661 0.234221 0.101677 -0.296953 0.031695 0.449154 -0.382438 0.228971 -0.118432 -0.392493 0.152905 
BetoORourke 0.015367 -0.201299 0.277563 0.122890 0.889574 -0.064798 0.435512 0.245155 -0.057822 -0.544012 -0.162154 0.603834 -0.067600 0.707070 -0.403543 0.247198 -0.183790 0.383299 -0.104104 0.454311 0.518603 0.270491 0.236592 -0.201771 -0.079284 -0.138998 -0.109981 -0.064957 -0.133422 -0.233471 -0.297729 0.096154 0.007822 0.189563 0.533019 0.187206 -0.134098 -0.127347 -0.296736 -0.115334 0.349717 -0.031942 0.501273 0.296168 -0.460384 -0.232490 -0.106095 -0.251185 -0.135556 -0.198564 0.355926 0.126180 -0.189736 0.110665 0.241816 -0.394145 -0.328624 -0.195925 -0.229156 0.095143 -0.375934 0.226360 -0.359956 -0.095952 -0.090379 0.096600 -0.060222 -0.139948 0.176068 -0.336617 0.113033 0.026323 -0.264658 0.357049 0.020155 -0.412393 0.032830 -0.038998 -0.356468 0.153865 0.316205 0.532077 0.065439 0.054737 -0.190366 0.154387 -0.699606 0.142139 0.312117 0.115579 -0.432947 0.180163 0.049245 -0.278732 -0.056232 0.235632 0.176963 0.138318 -0.231467 -0.269057 -0.023666 0.111700 0.048096 0.104455 -0.108805 0.039702 -0.132311 0.459917 -0.687074 -0.187815 -0.092856 0.044465 0.173896 0.224798 -0.002270 0.469340 0.255203 0.562509 0.020229 -0.225750 -0.071355 0.332712 -0.116767 -0.181366 0.898986 -0.326740 0.575997 -0.320229 0.416602 -0.152795 -0.018552 0.345410 -0.082221 -0.211397 0.345738 -0.407809 0.291382 -0.264208 -0.523957 -0.360177 -0.347787 -0.490075 -0.472331 0.176917 -0.461316 -0.181359 0.392600 0.077255 0.096377 0.108977 -0.155009 0.070288 0.114276 -0.136006 -0.224312 -0.352244 0.095050 0.318361 -0.490361 -0.187687 0.025232 -0.229525 0.331461 0.448135 -0.135511 0.345263 -0.294598 -0.001423 -0.003745 -0.160311 0.108388 0.292481 0.457974 0.384812 0.171413 -0.053716 -0.236563 0.456991 -0.321777 -0.197670 0.044330 -0.291348 0.057419 0.308645 0.001203 -0.097426 0.312298 -0.326954 0.028170 0.189903 0.200003 0.083690 -0.201715 -0.011547 0.361005 -0.303248 0.211687 -0.118080 -0.338396 0.136590 
ConservativeDemocrat 0.026433 -0.161038 0.282910 0.136563 0.795203 -0.062647 0.432839 0.262454 -0.103787 -0.540101 -0.110955 0.585921 -0.046907 0.631657 -0.369374 0.211852 -0.166395 0.354898 -0.106353 0.464999 0.538012 0.250913 0.240039 -0.203522 -0.095889 -0.160089 -0.093143 -0.105050 -0.203969 -0.357748 -0.426873 0.134284 0.041426 0.212528 0.603244 0.232399 -0.125178 -0.116065 -0.348280 -0.160964 0.310405 -0.041221 0.442722 0.218557 -0.439400 -0.210929 -0.097893 -0.216123 -0.162778 -0.224534 0.384640 0.199387 -0.190114 0.120347 0.269297 -0.404804 -0.406954 -0.313842 -0.307824 0.128804 -0.489834 0.275727 -0.462368 -0.124218 -0.135777 0.102028 -0.044208 -0.195428 0.275703 -0.446425 0.170727 0.078722 -0.217916 0.305011 0.031693 -0.382233 0.021081 -0.043410 -0.313781 0.123950 0.266693 0.474415 0.055221 0.029670 -0.200425 0.165227 -0.613758 0.150708 0.397598 0.130051 -0.552259 0.220832 0.037568 -0.390000 -0.053778 0.342586 0.283640 0.288908 -0.316900 -0.400320 0.017355 0.128994 0.087576 0.198603 -0.103388 0.024434 -0.152307 0.480620 -0.680842 -0.186883 -0.149918 0.022015 0.179817 0.274055 -0.017897 0.422370 0.248916 0.534640 0.016393 -0.234882 -0.053395 0.234251 -0.068813 -0.137008 0.638813 -0.231702 0.400053 -0.201856 0.286069 -0.114632 -0.024742 0.235767 -0.084073 -0.121082 0.247253 -0.302016 0.260210 -0.243825 -0.501382 -0.336403 -0.359557 -0.435392 -0.455427 0.146040 -0.454864 -0.172897 0.406039 0.073781 0.099459 0.073241 -0.183054 0.088015 0.084535 -0.176537 -0.242749 -0.385421 0.151791 0.344255 -0.531891 -0.241731 0.005660 -0.244247 0.344457 0.494581 -0.184500 0.420422 -0.359187 -0.016664 -0.001754 -0.188570 0.106155 0.294867 0.503953 0.422839 0.205733 -0.054833 -0.248963 0.491558 -0.338170 -0.224135 0.052989 -0.313468 0.105596 0.333181 -0.029240 -0.141975 0.373682 -0.391294 0.071861 0.238919 0.252042 0.104419 -0.326028 0.038899 0.475480 -0.406716 0.250374 -0.128880 -0.425239 0.168308 
