15 200
BaemyKlobaechar 0.044076 -0.228391 0.148699 -0.175002 0.114969 0.017621 0.158637 0.017285 0.011757 -0.324138 -0.235001 0.096727 0.077752 0.466254 -0.279105 0.000596 -0.242626 0.250279 -0.063747 0.315678 0.251888 0.017492 0.227364 -0.065307 0.011957 0.206692 -0.043007 -0.026769 -0.065008 -0.346892 -0.188363 0.040776 -0.066522 0.147663 0.543662 0.208508 -0.096445 -0.294917 0.042130 -0.013262 0.079678 -0.202793 0.575016 0.358853 -0.390255 0.024972 0.188232 -0.302256 -0.080260 -0.211465 0.387166 -0.140828 -0.191700 0.388138 0.116147 -0.310776 -0.397326 -0.345959 -0.199756 -0.043159 -0.561691 0.451482 -0.472119 -0.010970 -0.439238 -0.246293 -0.173291 -0.248060 0.357294 -0.508685 0.223589 -0.123654 -0.145366 0.155960 -0.049077 -0.369718 -0.020026 -0.175647 -0.366912 0.032497 0.258295 0.641252 0.448825 0.120359 -0.121653 0.143257 -0.908335 0.420602 0.048385 0.125259 -0.593982 0.155870 -0.022947 -0.247240 0.081145 0.134507 0.440554 -0.025936 -0.376021 -0.325757 0.060193 -0.092477 0.463688 0.329801 -0.181457 -0.183798 -0.102201 0.253963 -0.600599 -0.363554 0.154576 -0.123314 0.085544 0.029432 -0.033173 0.302322 0.377386 0.552600 0.056689 0.024989 -0.061023 0.042836 0.036336 -0.013984 0.241284 -0.187211 0.437220 -0.353774 0.215513 -0.010612 -0.289187 0.246025 0.250128 -0.117199 0.215633 -0.058927 0.158966 -0.067811 -0.166871 -0.121559 -0.115928 -0.240124 -0.202248 0.016582 -0.256365 0.000859 0.213438 -0.036926 0.020285 0.220586 0.016240 -0.030353 0.197644 -0.040114 -0.062649 -0.187693 0.012869 0.205709 -0.301007 -0.152519 0.094752 -0.196952 0.292254 0.285141 -0.250893 0.213367 -0.039312 0.055546 -0.137911 0.067590 -0.220052 0.328904 0.217116 0.119599 0.000003 -0.056571 -0.039969 0.395895 -0.075518 -0.217396 -0.325568 -0.147393 -0.159239 0.107413 -0.267640 -0.086877 0.428333 -0.562611 -0.131290 0.003484 0.352969 -0.001312 -0.305865 -0.113532 0.084546 -0.438774 0.043836 0.039747 -0.590439 0.482218 
politics 0.180685 -0.294577 0.356490 -0.166540 0.678683 -0.128884 0.513177 0.138350 -0.124657 -0.481950 -0.184639 0.248608 0.099015 0.614682 -0.400541 0.059854 -0.270589 0.321646 -0.119953 0.462914 0.400382 0.063371 0.301372 -0.123907 0.013322 0.255177 0.055806 -0.083330 -0.167661 -0.630512 -0.460978 0.072901 -0.002822 0.319056 0.929720 0.325388 -0.063510 -0.374683 -0.056948 -0.078642 0.166851 -0.215480 0.572525 0.319409 -0.359370 -0.009714 0.132071 -0.249950 -0.173703 -0.293157 0.485331 0.004173 -0.191382 0.415614 0.203416 -0.405970 -0.461095 -0.467519 -0.269877 -0.042887 -0.652132 0.489340 -0.550670 -0.035968 -0.347704 -0.174807 -0.113737 -0.258311 0.425317 -0.523873 0.277375 -0.042116 -0.199069 0.144806 0.002702 -0.389475 -0.034146 -0.198022 -0.301294 0.067896 0.206970 0.659797 0.400140 0.032593 -0.183736 0.160592 -0.828247 0.396857 0.144957 0.135314 -0.580675 0.182588 -0.042977 -0.316299 0.053952 0.195995 0.416237 0.106759 -0.337971 -0.343075 0.098046 -0.102659 0.360235 0.335686 -0.127388 -0.150584 -0.165588 0.300188 -0.597145 -0.292583 0.035261 -0.183399 0.204095 0.153896 -0.068024 0.351745 0.498058 0.703058 0.044604 -0.072495 -0.183190 0.093333 0.058966 -0.167169 0.548951 -0.330686 0.830938 -0.535615 0.360607 -0.125003 -0.357628 0.465164 0.263347 -0.151839 0.381815 -0.234608 0.460281 -0.360892 -0.619823 -0.472245 -0.466092 -0.701824 -0.591054 0.050148 -0.724299 -0.039596 0.640900 -0.006146 0.142981 0.361073 -0.179701 -0.002025 0.127644 -0.152546 -0.177309 -0.409063 0.160943 0.425644 -0.499946 -0.311067 0.144182 -0.314556 0.410567 0.513350 -0.401957 0.436498 -0.215636 0.071376 -0.175122 0.005531 -0.171866 0.375880 0.390389 0.250757 0.134019 -0.018585 -0.071728 0.572061 -0.178693 -0.341539 -0.318644 -0.277470 -0.123902 0.269020 -0.284629 -0.095279 0.500478 -0.584707 -0.020049 0.041544 0.321455 0.025715 -0.262485 0.005035 0.157462 -0.363930 -0.002183 -0.016075 -0.503004 0.370151 
YangForPresidentHQ 0.383318 -0.372511 0.420958 -0.239535 0.499423 -0.125893 0.520465 0.150752 -0.113065 -0.726510 -0.373925 0.336172 0.153397 0.959758 -0.613730 0.063554 -0.348218 0.393860 -0.127999 0.519695 0.447497 0.065361 0.362743 -0.131729 0.003917 0.207515 0.020832 -0.046592 -0.103843 -0.456100 -0.319657 0.052700 -0.013157 0.174347 0.541143 0.188042 -0.060989 -0.247195 -0.004639 -0.037275 0.121220 -0.166108 0.464338 0.277674 -0.300626 -0.010642 0.104271 -0.221696 -0.126692 -0.221230 0.390874 -0.027000 -0.158926 0.346573 0.140469 -0.325000 -0.270475 -0.270598 -0.168853 -0.019917 -0.394819 0.308640 -0.323780 -0.025696 -0.358591 -0.202750 -0.138368 -0.232235 0.369467 -0.500684 0.243505 -0.081018 -0.097239 0.070904 0.001096 -0.206832 -0.007964 -0.094598 -0.177125 0.034764 0.113228 0.360088 0.225902 0.036619 -0.090402 0.086252 -0.449177 0.214779 0.142682 0.127193 -0.592835 0.200105 -0.029434 -0.299308 0.064463 0.177854 0.472288 0.093437 -0.387647 -0.388624 0.086647 -0.118005 0.426703 0.368554 -0.082655 -0.076952 -0.064182 0.139192 -0.304995 -0.160433 0.047251 -0.075117 0.105267 0.058997 -0.030502 0.205166 0.276167 0.379106 0.045764 -0.024594 -0.075134 0.041865 0.045732 -0.073286 0.275509 -0.164945 0.449754 -0.303212 0.132850 -0.028717 -0.159413 0.171362 0.140798 -0.064512 0.144942 -0.054430 0.253437 -0.179902 -0.307177 -0.257308 -0.225300 -0.379874 -0.321540 0.025611 -0.468466 -0.003581 0.417696 -0.022801 0.075105 0.280062 -0.088391 -0.007216 0.136804 -0.114318 -0.140147 -0.346439 0.122343 0.345306 -0.426361 -0.259218 0.133844 -0.291181 0.370960 0.447289 -0.358486 0.354117 -0.148984 0.058827 -0.167139 0.026301 -0.170384 0.339650 0.325062 0.195908 0.075919 -0.042020 -0.040341 0.442801 -0.117678 -0.244588 -0.268111 -0.194055 -0.114126 0.194285 -0.226028 -0.067648 0.352691 -0.433538 -0.061856 0.031358 0.260683 0.011148 -0.168653 -0.038756 0.061378 -0.225759 0.006134 0.002849 -0.322870 0.224601 
SandersForPresident 0.254934 -0.503172 0.387454 -0.228492 0.759026 -0.082222 0.379235 0.059935 -0.049149 -0.318012 -0.164690 0.132430 0.072810 0.428807 -0.277446 0.019547 -0.195863 0.211859 -0.063599 0.287572 0.245347 0.023201 0.209880 -0.068855 0.026290 0.298946 0.033505 -0.076537 -0.151660 -0.618599 -0.422414 0.069872 -0.026879 0.298883 0.973781 0.346009 -0.078222 -0.434887 -0.009044 -0.072489 0.142736 -0.239912 0.674039 0.390953 -0.415514 0.021724 0.191421 -0.310988 -0.184795 -0.351748 0.610424 -0.068558 -0.264546 0.556553 0.221904 -0.504783 -0.513886 -0.516677 -0.289731 -0.056701 -0.733066 0.561896 -0.606869 -0.035838 -0.117184 -0.058300 -0.029751 -0.084152 0.171985 -0.210267 0.120640 -0.005800 -0.121232 0.107787 -0.032768 -0.278475 -0.019466 -0.138433 -0.177752 0.034344 0.163208 0.507211 0.347762 0.051701 -0.125652 0.135641 -0.669997 0.320059 0.077967 0.096075 -0.458969 0.134211 -0.049251 -0.216715 0.060952 0.139247 0.319772 0.054783 -0.252901 -0.248645 0.068362 -0.089964 0.311265 0.241904 -0.098136 -0.108045 -0.105532 0.199106 -0.413265 -0.227040 0.034818 -0.134140 0.101959 0.085969 -0.037280 0.209370 0.303956 0.422853 0.026941 -0.012943 -0.104432 0.043815 0.045975 -0.081580 0.281198 -0.203095 0.479642 -0.309720 0.224550 -0.074779 -0.254142 0.267014 0.191583 -0.096987 0.230589 -0.132177 0.142159 -0.111934 -0.197111 -0.146866 -0.160438 -0.225043 -0.184465 0.009069 -0.225500 -0.000682 0.207902 -0.007896 0.042159 0.127704 -0.047717 0.001249 0.103168 -0.089316 -0.121991 -0.275960 0.104399 0.288137 -0.327964 -0.224436 0.102384 -0.227912 0.303852 0.371417 -0.323038 0.332245 -0.156261 0.028558 -0.227749 0.026974 -0.257991 0.482905 0.464521 0.283544 0.130459 -0.041580 -0.050107 0.649180 -0.173387 -0.384424 -0.413265 -0.294580 -0.160503 0.281969 -0.255060 -0.074940 0.403505 -0.490940 -0.053364 0.018907 0.298328 0.009994 -0.204949 -0.019292 0.077667 -0.266886 -0.010261 0.014057 -0.388235 0.312537 
centerleftpolitics 0.115030 -0.467237 0.229928 -0.253638 -0.002053 0.046566 0.110518 -0.025045 0.090546 -0.164759 -0.211587 -0.020261 0.056421 0.277683 -0.151810 -0.041322 -0.214838 0.182841 -0.032815 0.218865 0.162083 -0.026960 0.173382 -0.018385 0.022756 0.281609 -0.069646 -0.022540 -0.055769 -0.396114 -0.175245 0.048325 -0.097324 0.151055 0.649444 0.252441 -0.128943 -0.379595 0.098417 0.000857 -0.014865 -0.139983 0.405347 0.276376 -0.276034 0.059238 0.181323 -0.247771 -0.001798 -0.122597 0.242451 -0.199326 -0.157007 0.294210 0.034194 -0.175201 -0.492827 -0.419485 -0.234916 -0.065478 -0.695935 0.579121 -0.579543 -0.003644 -0.525459 -0.309688 -0.219472 -0.272204 0.378924 -0.561771 0.224074 -0.160376 -0.126738 0.174112 -0.075373 -0.392532 -0.015660 -0.185527 -0.414665 0.007766 0.293765 0.694341 0.517473 0.165800 -0.106082 0.155904 -1.017381 0.482256 -0.004965 0.130523 -0.672072 0.158212 -0.029421 -0.241481 0.109396 0.122335 0.466780 -0.090648 -0.414974 -0.324240 0.054715 -0.102328 0.549853 0.351708 -0.200697 -0.205647 -0.067158 0.219425 -0.572585 -0.391660 0.211463 -0.096447 0.033817 -0.024131 -0.030150 0.297111 0.375987 0.544446 0.073213 0.084378 -0.050505 0.030532 0.053347 0.023731 0.218134 -0.206349 0.463812 -0.399255 0.216725 0.024078 -0.358705 0.236302 0.318306 -0.130096 0.218167 -0.018824 0.171195 -0.050015 -0.164354 -0.112668 -0.114653 -0.263910 -0.221703 0.012433 -0.301349 0.021432 0.254013 -0.066032 0.006897 0.306586 0.055824 -0.053339 0.226751 0.009084 -0.006503 -0.074639 -0.057798 0.107340 -0.196473 -0.087397 0.075218 -0.141407 0.237441 0.172184 -0.205253 0.118009 0.040393 0.045140 -0.109420 0.098793 -0.249086 0.281381 0.105488 0.035425 -0.070488 -0.071244 -0.013718 0.298665 -0.011434 -0.156150 -0.333973 -0.075546 -0.170891 0.024636 -0.209238 -0.059218 0.301669 -0.426043 -0.166534 -0.024805 0.292927 -0.014643 -0.225841 -0.143356 -0.010622 -0.321037 0.036281 0.077961 -0.430827 0.396684 
Pete_Buttigieg 0.123067 -0.180619 0.229366 -0.124812 0.519117 -0.084813 0.376417 0.083476 -0.062277 -0.356997 -0.168515 0.160774 0.078021 0.462316 -0.297786 0.029120 -0.210829 0.245233 -0.074838 0.334756 0.276307 0.045176 0.222778 -0.087245 0.004498 0.142777 0.003978 -0.036734 -0.084245 -0.309978 -0.213139 0.037858 -0.019053 0.152673 0.462234 0.169898 -0.049551 -0.206720 -0.013024 -0.040904 0.093045 -0.138946 0.390276 0.227557 -0.260105 0.000404 0.103655 -0.177248 -0.098622 -0.173269 0.300062 -0.038702 -0.123200 0.278247 0.112225 -0.251862 -0.254892 -0.246410 -0.144572 -0.024335 -0.364150 0.271239 -0.307942 -0.016513 -0.166217 -0.090249 -0.055691 -0.105975 0.183659 -0.240457 0.128934 -0.034785 -0.154619 0.119183 -0.016939 -0.312945 -0.026810 -0.156247 -0.247397 0.049148 0.169383 0.524036 0.333612 0.041949 -0.143612 0.125855 -0.677320 0.323588 0.091698 0.095394 -0.430312 0.131248 -0.023918 -0.217068 0.046800 0.127580 0.304758 0.044931 -0.244346 -0.247940 0.055361 -0.070714 0.281106 0.242210 -0.092890 -0.101248 -0.095749 0.171297 -0.372368 -0.193544 0.039985 -0.100134 0.124083 0.085761 -0.034671 0.240469 0.311090 0.448419 0.032471 -0.030226 -0.092778 0.053116 0.035212 -0.082886 0.302182 -0.188317 0.478010 -0.329092 0.213831 -0.061699 -0.219315 0.275353 0.176631 -0.086307 0.231825 -0.117253 0.338339 -0.245474 -0.433037 -0.340924 -0.319536 -0.507504 -0.439211 0.037762 -0.536209 -0.029972 0.473467 -0.019004 0.088632 0.290816 -0.116709 -0.007644 0.104863 -0.087381 -0.113491 -0.264298 0.097222 0.264965 -0.336891 -0.197270 0.089815 -0.198754 0.268899 0.324383 -0.248526 0.266572 -0.114203 0.051033 -0.142973 0.024978 -0.137492 0.278199 0.279554 0.172078 0.072862 -0.024348 -0.047126 0.437507 -0.129780 -0.256659 -0.262006 -0.199735 -0.113999 0.184631 -0.245938 -0.082955 0.420282 -0.514345 -0.050656 0.024051 0.297319 0.010287 -0.231534 -0.025119 0.108419 -0.338076 0.015445 -0.001915 -0.471943 0.346648 
moderatepolitics 0.266999 -0.491728 0.472071 -0.159897 0.812436 -0.130626 0.536601 0.077133 -0.088550 -0.251483 -0.062102 0.131057 0.058634 0.308399 -0.213451 0.037505 -0.188043 0.228785 -0.083867 0.331040 0.281620 0.052512 0.219748 -0.081704 0.007320 0.171114 0.051896 -0.074678 -0.123009 -0.407122 -0.307661 0.039454 0.004004 0.219975 0.612975 0.212616 -0.014657 -0.236676 -0.046214 -0.064557 0.136126 -0.157264 0.426931 0.223338 -0.266627 -0.011544 0.093864 -0.165076 -0.145153 -0.235863 0.383548 0.019139 -0.152770 0.331873 0.170501 -0.324666 -0.479400 -0.511118 -0.292772 -0.058422 -0.696462 0.506532 -0.585223 -0.042283 -0.292749 -0.164266 -0.071740 -0.222922 0.406296 -0.490229 0.282850 -0.013975 -0.123374 0.065549 0.007643 -0.239757 -0.034382 -0.131335 -0.152109 0.046427 0.091613 0.373347 0.230960 0.001769 -0.119931 0.107615 -0.448580 0.222150 0.138126 0.121293 -0.530433 0.172810 -0.067593 -0.281539 0.062113 0.186762 0.401986 0.124080 -0.299413 -0.339956 0.107449 -0.111793 0.353197 0.318710 -0.093789 -0.122640 -0.165451 0.246550 -0.474206 -0.248627 -0.016978 -0.187797 0.154050 0.140581 -0.042373 0.234900 0.349786 0.495692 0.011565 -0.053492 -0.134983 0.051828 0.030602 -0.131422 0.341930 -0.213951 0.544880 -0.338358 0.236506 -0.102329 -0.232709 0.317872 0.158599 -0.082574 0.265101 -0.163592 0.208365 -0.188159 -0.294629 -0.234163 -0.238504 -0.325585 -0.286747 0.012689 -0.341656 -0.019004 0.322030 -0.003674 0.069918 0.140769 -0.109413 0.003175 0.114646 -0.140581 -0.198318 -0.433730 0.187594 0.430276 -0.504702 -0.330310 0.141502 -0.305164 0.403995 0.510510 -0.403664 0.444700 -0.226869 0.050965 -0.210824 0.013690 -0.212563 0.424853 0.451294 0.289876 0.158121 -0.025925 -0.050972 0.673703 -0.199475 -0.411074 -0.378528 -0.321178 -0.139657 0.310468 -0.318206 -0.092845 0.548125 -0.650396 -0.036001 0.025720 0.373545 0.015241 -0.300023 -0.002934 0.142597 -0.397256 -0.015339 0.003434 -0.573026 0.426861 
ElizabethWarren 0.206359 -0.300852 0.266134 -0.190169 0.330860 -0.041966 0.356583 0.056820 -0.001852 -0.345132 -0.231683 0.122056 0.082075 0.484895 -0.295150 0.006593 -0.228379 0.235346 -0.063870 0.313232 0.256327 0.014722 0.218732 -0.065407 0.010689 0.174227 -0.028863 -0.019442 -0.056547 -0.300387 -0.168845 0.041985 -0.044700 0.113944 0.441218 0.168082 -0.078568 -0.234896 0.036600 -0.013288 0.068797 -0.162925 0.462021 0.288201 -0.308268 0.019516 0.145932 -0.243933 -0.074362 -0.178085 0.321215 -0.100772 -0.154588 0.320112 0.097100 -0.258452 -0.399011 -0.360851 -0.207215 -0.041038 -0.558051 0.448199 -0.468790 -0.019194 -0.446567 -0.252251 -0.177015 -0.262328 0.392074 -0.546609 0.245435 -0.115644 -0.114951 0.126378 -0.035336 -0.291541 -0.012177 -0.138095 -0.291123 0.022593 0.202374 0.520543 0.357631 0.093422 -0.102752 0.117119 -0.721895 0.342158 0.091972 0.145634 -0.696164 0.196851 -0.029997 -0.312658 0.088448 0.180454 0.503368 0.017334 -0.430478 -0.389645 0.079476 -0.113851 0.511061 0.391896 -0.152074 -0.148511 -0.083211 0.213472 -0.495323 -0.291575 0.123146 -0.100079 0.100811 0.044534 -0.041010 0.293145 0.376514 0.536082 0.059093 0.014473 -0.075642 0.050305 0.051769 -0.037006 0.296243 -0.212227 0.509724 -0.378827 0.217136 -0.020223 -0.286097 0.254710 0.244506 -0.114097 0.222888 -0.072370 0.322175 -0.198491 -0.387401 -0.294155 -0.279951 -0.488160 -0.410712 0.036390 -0.536383 -0.011083 0.468075 -0.042160 0.069650 0.361090 -0.061863 -0.027169 0.164543 -0.052205 -0.068170 -0.190141 0.025023 0.209628 -0.287066 -0.153878 0.090869 -0.196002 0.277979 0.283564 -0.252315 0.219333 -0.055095 0.049017 -0.104384 0.050953 -0.157145 0.235328 0.158465 0.082942 -0.009575 -0.045125 -0.028962 0.291835 -0.051447 -0.153393 -0.241122 -0.104033 -0.116098 0.085226 -0.179485 -0.060227 0.276048 -0.368028 -0.101769 0.005606 0.233999 0.000569 -0.176259 -0.079582 0.032927 -0.251188 0.027603 0.028752 -0.337543 0.275631 
progressive 0.327911 -0.440564 0.387651 -0.264840 0.523716 -0.086858 0.513877 0.118418 -0.034992 -0.506586 -0.315163 0.205421 0.113637 0.701569 -0.439052 0.027381 -0.298589 0.315303 -0.089743 0.407966 0.350352 0.026034 0.292075 -0.088722 0.016789 0.264237 -0.008026 -0.043733 -0.093334 -0.488758 -0.304240 0.055274 -0.046445 0.202569 0.732719 0.263430 -0.097373 -0.361981 0.037121 -0.029477 0.025878 -0.107836 0.306950 0.203633 -0.196986 0.024268 0.106435 -0.180673 -0.035653 -0.119293 0.227785 -0.087818 -0.121984 0.230664 0.052220 -0.176061 -0.306746 -0.279125 -0.159720 -0.027338 -0.433878 0.359664 -0.350940 -0.016788 -0.278503 -0.155324 -0.119446 -0.155978 0.222190 -0.331093 0.136016 -0.079219 -0.059312 0.081979 -0.032889 -0.178195 0.002451 -0.081560 -0.170819 0.006283 0.149829 0.360542 0.259569 0.087112 -0.056123 0.086667 -0.514685 0.241481 0.044291 0.092243 -0.476528 0.137832 -0.021256 -0.194532 0.065792 0.109855 0.335896 -0.007031 -0.298881 -0.250495 0.048099 -0.081589 0.356136 0.252060 -0.095340 -0.086302 -0.018781 0.109236 -0.270577 -0.176160 0.102124 -0.042173 0.050035 0.004627 -0.029053 0.203325 0.266997 0.367138 0.056566 0.028649 -0.091287 0.055412 0.063637 -0.057569 0.333866 -0.232288 0.582016 -0.415542 0.232756 -0.033467 -0.303709 0.270038 0.260296 -0.122416 0.229582 -0.081205 0.431468 -0.286046 -0.518853 -0.406788 -0.387019 -0.658816 -0.541019 0.050307 -0.721949 -0.003147 0.633143 -0.042048 0.110034 0.468982 -0.094213 -0.025016 0.165440 -0.057325 -0.073054 -0.216558 0.033802 0.229158 -0.301161 -0.172959 0.099207 -0.214220 0.288008 0.301411 -0.274713 0.230957 -0.065517 0.037727 -0.111103 0.044203 -0.172649 0.262167 0.179730 0.099387 -0.002852 -0.050022 -0.025652 0.329067 -0.057210 -0.164463 -0.261533 -0.118620 -0.119677 0.109065 -0.172884 -0.052724 0.251263 -0.328014 -0.084324 0.010675 0.213738 0.002935 -0.115329 -0.069051 0.010861 -0.147469 0.011049 0.031011 -0.211968 0.178634 
JoeBiden 0.079362 -0.420948 0.181116 -0.314351 -0.136586 0.082166 0.079742 -0.033725 0.122955 -0.287984 -0.331368 0.001168 0.077695 0.455850 -0.249156 -0.047022 -0.283269 0.241661 -0.038343 0.256693 0.190551 -0.029341 0.215915 -0.025253 0.019739 0.301133 -0.114631 -0.000146 -0.029089 -0.385208 -0.136133 0.049691 -0.138666 0.138893 0.636398 0.254338 -0.175213 -0.422961 0.130526 0.025475 -0.023454 -0.188848 0.549032 0.385814 -0.387335 0.071236 0.236016 -0.340243 0.002264 -0.160933 0.343050 -0.289591 -0.210689 0.403605 0.055205 -0.240059 -0.489040 -0.379606 -0.230329 -0.062810 -0.697432 0.595904 -0.581398 0.013343 -0.600844 -0.353404 -0.272313 -0.294764 0.371447 -0.594205 0.209388 -0.216024 -0.116550 0.188063 -0.084977 -0.395391 -0.006153 -0.171338 -0.467577 0.001545 0.337329 0.719139 0.548247 0.206833 -0.073427 0.142281 -1.102143 0.505075 -0.045927 0.128068 -0.655942 0.137706 -0.002666 -0.210534 0.106370 0.079498 0.429999 -0.169558 -0.399197 -0.266136 0.021173 -0.077754 0.532858 0.309001 -0.219963 -0.223502 -0.040140 0.200802 -0.596417 -0.428546 0.284004 -0.052386 -0.013738 -0.084516 -0.011336 0.299746 0.330101 0.498878 0.090816 0.112715 0.001583 0.018382 0.039788 0.086998 0.116242 -0.144717 0.310565 -0.340872 0.170803 0.070932 -0.333567 0.172698 0.323068 -0.128207 0.162475 0.048973 0.074227 0.060045 -0.009122 0.009782 0.021999 -0.109211 -0.088736 -0.000905 -0.136526 0.035547 0.088284 -0.074335 -0.028561 0.271966 0.136717 -0.068674 0.274978 0.042839 0.045652 0.007434 -0.120838 0.023986 -0.137633 -0.021971 0.074018 -0.120379 0.212831 0.116982 -0.158948 0.033700 0.117930 0.065050 -0.100720 0.129379 -0.281544 0.302214 0.051723 -0.000743 -0.117455 -0.091113 -0.023860 0.264148 0.009573 -0.123042 -0.355326 -0.045930 -0.203653 -0.035385 -0.223013 -0.063417 0.316403 -0.463394 -0.207238 -0.028997 0.327124 -0.015709 -0.251616 -0.195700 -0.019431 -0.391776 0.067981 0.089379 -0.499663 0.464935 
Kamala -0.003192 -0.279130 0.131511 -0.282032 -0.134711 0.093713 0.096666 0.002996 0.067459 -0.549397 -0.449668 0.125621 0.133648 0.800112 -0.460175 -0.023179 -0.378192 0.352741 -0.082020 0.421363 0.335007 -0.010906 0.317365 -0.075767 0.017119 0.235842 -0.107609 0.014641 -0.006505 -0.304969 -0.086982 0.053342 -0.124680 0.100253 0.490632 0.206680 -0.162752 -0.349841 0.121162 0.034199 0.003551 -0.222204 0.632790 0.415512 -0.432438 0.066058 0.248528 -0.370336 -0.008137 -0.165911 0.364802 -0.272411 -0.194504 0.406143 0.080277 -0.246422 -0.355114 -0.258810 -0.157441 -0.047099 -0.499595 0.454836 -0.423046 0.024826 -0.601858 -0.346350 -0.276154 -0.303275 0.367249 -0.573769 0.189332 -0.204808 -0.149247 0.203242 -0.066575 -0.434767 -0.002285 -0.192786 -0.512152 0.018195 0.360990 0.783231 0.566966 0.196776 -0.093446 0.151438 -1.171897 0.534025 -0.051377 0.113654 -0.575999 0.103380 0.021975 -0.194095 0.086912 0.066276 0.376082 -0.172087 -0.354944 -0.215859 0.010885 -0.062512 0.461905 0.280491 -0.225536 -0.224301 -0.049584 0.229791 -0.631490 -0.425054 0.282854 -0.049484 0.019060 -0.062189 -0.018090 0.331791 0.366442 0.551812 0.093108 0.088528 0.004242 0.033953 0.042575 0.082807 0.143324 -0.148287 0.314381 -0.331174 0.191151 0.052717 -0.339941 0.199572 0.307803 -0.141028 0.174130 0.024975 0.014163 0.105961 0.055682 0.077806 0.080267 -0.019760 -0.004877 -0.013830 -0.028061 0.032145 -0.014447 -0.060716 -0.035888 0.208596 0.143673 -0.064608 0.272326 0.021581 0.058333 0.015013 -0.126660 0.027332 -0.127552 -0.012302 0.071669 -0.122505 0.194455 0.114175 -0.154006 0.031930 0.116751 0.077014 -0.119800 0.119266 -0.290591 0.362251 0.108147 0.039874 -0.093100 -0.091213 -0.051368 0.340400 -0.019998 -0.158692 -0.391553 -0.096594 -0.206076 0.009969 -0.348199 -0.115353 0.520887 -0.721097 -0.227767 -0.011883 0.462191 0.002035 -0.380676 -0.201309 0.062533 -0.585725 0.080941 0.069045 -0.728004 0.633502 
SocialDemocracy 0.117263 -0.364856 0.298656 -0.289148 0.207352 -0.009578 0.340362 0.058615 0.008004 -0.570432 -0.403125 0.176256 0.137544 0.803323 -0.486620 0.007500 -0.401241 0.407615 -0.105721 0.499273 0.416452 0.017990 0.363103 -0.097834 0.016035 0.319094 -0.051460 -0.039603 -0.082129 -0.532722 -0.286180 0.057552 -0.098763 0.232452 0.841556 0.315221 -0.148394 -0.459595 0.077599 -0.009825 0.052217 -0.228860 0.631620 0.403599 -0.424755 0.043274 0.219535 -0.343045 -0.054177 -0.205001 0.407730 -0.194064 -0.209804 0.418040 0.110523 -0.299834 -0.470307 -0.413132 -0.245561 -0.051925 -0.679508 0.562600 -0.562318 -0.002514 -0.571187 -0.324628 -0.236580 -0.317203 0.432613 -0.635310 0.261320 -0.165270 -0.105201 0.131073 -0.043026 -0.306518 -0.005937 -0.145195 -0.344008 0.014318 0.247593 0.549047 0.400628 0.144567 -0.065681 0.115915 -0.821985 0.376431 0.012324 0.130849 -0.641662 0.157219 -0.018649 -0.242649 0.088760 0.114741 0.465139 -0.078171 -0.407732 -0.313638 0.057466 -0.104048 0.508604 0.342656 -0.176717 -0.191561 -0.064206 0.212954 -0.544450 -0.365294 0.201298 -0.084606 0.048981 -0.015002 -0.027846 0.306473 0.376423 0.543141 0.078268 0.054720 -0.047645 0.042648 0.046548 0.007082 0.224190 -0.181932 0.444296 -0.380023 0.200691 0.009201 -0.314577 0.230727 0.280785 -0.125613 0.192288 -0.013382 0.141621 -0.032096 -0.119839 -0.083167 -0.074284 -0.220167 -0.173411 0.004867 -0.248220 0.026314 0.196272 -0.045621 0.020268 0.269687 0.058185 -0.050478 0.214459 -0.002134 0.011193 -0.077753 -0.055013 0.090720 -0.179389 -0.070812 0.081347 -0.145808 0.205919 0.167542 -0.181887 0.084658 0.052267 0.053457 -0.078562 0.084431 -0.208688 0.245640 0.060219 0.024247 -0.070704 -0.064817 -0.024718 0.266624 -0.018446 -0.119550 -0.285722 -0.075929 -0.149045 0.018543 -0.243872 -0.073908 0.357894 -0.492005 -0.149461 -0.013407 0.323513 -0.003977 -0.241867 -0.144147 0.023288 -0.366743 0.037290 0.063453 -0.468608 0.410302 
demsocialist 0.197532 -0.377455 0.366665 -0.242644 0.565851 -0.073771 0.443808 0.081156 -0.055027 -0.527448 -0.300718 0.209128 0.123026 0.716323 -0.452340 0.032599 -0.328095 0.355921 -0.103965 0.466207 0.390688 0.038419 0.321225 -0.103250 0.015104 0.266705 -0.002878 -0.057545 -0.110328 -0.513251 -0.322768 0.052984 -0.051324 0.244785 0.799463 0.288777 -0.094227 -0.381328 0.022806 -0.037635 0.090049 -0.197444 0.539819 0.326435 -0.353071 0.019996 0.165597 -0.265303 -0.098402 -0.221932 0.401830 -0.100935 -0.185484 0.383219 0.135241 -0.318702 -0.441474 -0.418722 -0.241554 -0.048434 -0.634905 0.499819 -0.528033 -0.019292 -0.372120 -0.205981 -0.138502 -0.226303 0.341998 -0.471279 0.221748 -0.085230 -0.103931 0.097661 -0.024487 -0.248871 -0.015117 -0.129118 -0.231339 0.023943 0.170965 0.443526 0.306499 0.078850 -0.085275 0.104495 -0.621014 0.290982 0.047153 0.105678 -0.498888 0.136703 -0.032623 -0.213713 0.063031 0.117424 0.369021 -0.005335 -0.310256 -0.272383 0.063847 -0.090917 0.377396 0.279458 -0.120589 -0.140179 -0.082303 0.184352 -0.425949 -0.262677 0.102726 -0.102704 0.074827 0.032941 -0.030700 0.233717 0.312198 0.444472 0.044524 0.012408 -0.078988 0.044780 0.037752 -0.046996 0.257021 -0.183733 0.458718 -0.344011 0.204197 -0.035124 -0.262879 0.252751 0.219722 -0.104493 0.208139 -0.073600 0.227235 -0.141910 -0.266500 -0.203069 -0.198115 -0.350969 -0.289780 0.020127 -0.384012 0.001505 0.331905 -0.027169 0.058100 0.265073 -0.033775 -0.028838 0.151732 -0.048729 -0.061698 -0.191210 0.032973 0.198108 -0.269299 -0.151013 0.094064 -0.188571 0.257149 0.274033 -0.240786 0.205416 -0.054435 0.047209 -0.119889 0.050478 -0.183963 0.281478 0.195698 0.116623 0.015307 -0.041436 -0.027924 0.356839 -0.074150 -0.193886 -0.272589 -0.143905 -0.127266 0.112421 -0.220251 -0.066657 0.351266 -0.449433 -0.087573 0.000384 0.277568 0.002364 -0.206358 -0.075022 0.051703 -0.298318 0.010952 0.033852 -0.404397 0.332747 
BetoORourke 0.186666 -0.345078 0.327868 -0.190524 0.498721 -0.077632 0.410679 0.066556 -0.028985 -0.282398 -0.163112 0.116586 0.065475 0.385585 -0.242462 0.019592 -0.212702 0.234446 -0.067353 0.307573 0.254787 0.030783 0.214068 -0.070190 0.008421 0.210972 0.003446 -0.048150 -0.099306 -0.422175 -0.280874 0.042897 -0.031309 0.200400 0.643697 0.230791 -0.070981 -0.299724 0.006607 -0.039595 0.093475 -0.166097 0.460430 0.278010 -0.302389 0.007634 0.130635 -0.222324 -0.105552 -0.207964 0.364791 -0.066600 -0.163523 0.343394 0.124521 -0.302770 -0.449593 -0.434440 -0.252548 -0.047374 -0.643190 0.495899 -0.539113 -0.031305 -0.364230 -0.203727 -0.130000 -0.232387 0.370600 -0.504184 0.251453 -0.080051 -0.107992 0.095514 -0.020370 -0.247654 -0.017482 -0.125464 -0.209469 0.029714 0.150706 0.428191 0.287542 0.058975 -0.099502 0.104406 -0.577354 0.272746 0.100372 0.129026 -0.592938 0.180501 -0.041967 -0.275342 0.070539 0.163797 0.432383 0.046087 -0.354065 -0.343808 0.080251 -0.105225 0.415547 0.327827 -0.124236 -0.135052 -0.106210 0.208244 -0.463330 -0.264514 0.076195 -0.125128 0.103625 0.061927 -0.035332 0.246939 0.329394 0.468576 0.039509 -0.006807 -0.091187 0.047138 0.037277 -0.067278 0.289434 -0.195853 0.491629 -0.349265 0.210152 -0.047893 -0.246907 0.264978 0.207173 -0.100550 0.223846 -0.096497 0.263456 -0.179231 -0.321216 -0.253826 -0.240455 -0.398918 -0.337543 0.026555 -0.414036 -0.008287 0.366110 -0.024694 0.062975 0.256618 -0.062928 -0.017292 0.136781 -0.068347 -0.100620 -0.249702 0.071956 0.250657 -0.325034 -0.191795 0.102762 -0.214625 0.293010 0.332227 -0.272840 0.261298 -0.100079 0.046557 -0.138687 0.039856 -0.174941 0.299478 0.254617 0.155876 0.047826 -0.037955 -0.036021 0.433093 -0.107694 -0.248533 -0.290062 -0.186934 -0.131726 0.166265 -0.227583 -0.069470 0.373379 -0.464360 -0.072200 0.014389 0.281334 0.006123 -0.224054 -0.055211 0.077679 -0.313705 0.010635 0.016967 -0.447180 0.346475 
ConservativeDemocrat 0.150145 -0.295035 0.244996 -0.178399 0.364239 -0.038579 0.275970 0.063700 -0.053742 -0.484168 -0.271821 0.198912 0.108977 0.658116 -0.414825 0.027017 -0.299851 0.325441 -0.098972 0.438030 0.362919 0.040822 0.303117 -0.103382 0.015553 0.248080 -0.003129 -0.052711 -0.111632 -0.491184 -0.312994 0.058363 -0.042248 0.224625 0.741026 0.271347 -0.087450 -0.349716 0.014969 -0.043650 0.116552 -0.217244 0.611976 0.363495 -0.397924 0.017666 0.180863 -0.300443 -0.124602 -0.261804 0.464404 -0.096273 -0.206729 0.438437 0.157677 -0.377897 -0.444518 -0.421993 -0.242442 -0.046883 -0.635137 0.498260 -0.529834 -0.024776 -0.380167 -0.208628 -0.141198 -0.231574 0.361313 -0.490946 0.232722 -0.085226 -0.145436 0.138453 -0.033352 -0.347134 -0.020391 -0.169055 -0.307499 0.038213 0.219701 0.597394 0.406213 0.085565 -0.133025 0.143878 -0.813969 0.383610 0.076977 0.118507 -0.567112 0.160555 -0.031489 -0.257575 0.073482 0.146713 0.415775 0.020335 -0.344876 -0.319465 0.069493 -0.097622 0.414251 0.320443 -0.146968 -0.152401 -0.105378 0.228805 -0.515550 -0.296038 0.102097 -0.122497 0.112035 0.062595 -0.039219 0.284835 0.376021 0.541060 0.050099 -0.001294 -0.093264 0.054923 0.046729 -0.060927 0.322316 -0.221679 0.541272 -0.390466 0.243689 -0.046150 -0.298057 0.294378 0.241015 -0.116859 0.251435 -0.107970 0.247434 -0.157291 -0.299849 -0.228526 -0.223456 -0.373469 -0.316589 0.023996 -0.399626 -0.005045 0.350272 -0.030666 0.055618 0.265081 -0.047848 -0.018315 0.161832 -0.073407 -0.095774 -0.245620 0.061135 0.260403 -0.340319 -0.197843 0.105570 -0.228192 0.317637 0.346494 -0.295611 0.280231 -0.096156 0.055095 -0.147486 0.044735 -0.199881 0.329215 0.266219 0.156048 0.040517 -0.046031 -0.041102 0.425167 -0.095926 -0.241783 -0.307722 -0.178097 -0.135677 0.151372 -0.243193 -0.077188 0.387599 -0.490601 -0.091032 0.011842 0.297999 0.006969 -0.240302 -0.065886 0.075976 -0.334866 0.021636 0.022904 -0.454772 0.366309 
