15 200
BaemyKlobaechar 0.049169 -0.190648 0.024222 -0.086223 0.274263 -0.028207 0.174029 0.093072 0.075444 -0.203279 -0.206476 0.255719 -0.026953 0.426667 -0.267660 0.099431 -0.087846 0.217075 0.016869 0.285268 0.231203 0.158113 0.138241 -0.108091 -0.007007 0.034654 -0.180703 -0.074596 -0.223739 -0.270169 -0.349736 0.085937 -0.035773 0.083764 0.637542 0.232820 -0.099079 -0.190486 -0.147478 -0.148576 0.205194 0.043198 0.377308 0.318992 -0.422362 -0.137417 0.052815 -0.369674 -0.066670 -0.140018 0.218575 -0.066490 -0.222480 0.186866 0.019912 -0.383134 -0.552845 -0.306958 -0.148326 0.122601 -0.547991 0.339503 -0.447071 -0.240858 -0.181215 0.059026 -0.064361 -0.044818 0.118167 -0.444191 0.164252 -0.077880 -0.074412 0.258073 -0.219500 -0.180347 0.021999 -0.061996 -0.207213 0.045086 0.232803 0.232792 0.150958 0.177549 -0.072787 0.108285 -0.465350 0.069769 0.086150 0.014389 -0.157480 0.087305 0.002813 -0.055112 0.011128 0.105047 0.055252 -0.007246 -0.089452 -0.137471 -0.043951 0.051819 0.074631 0.001848 -0.166800 0.045749 0.033415 0.164122 -0.314197 -0.103736 0.043629 0.022985 0.061254 0.020069 -0.000505 0.294676 0.155011 0.322671 -0.009945 0.033011 -0.013890 0.125981 -0.041608 -0.001838 0.267828 -0.187043 0.319872 -0.248605 0.255786 -0.035347 -0.094590 0.110256 0.150720 -0.146015 0.138154 -0.112228 0.146255 -0.080399 -0.111956 -0.113766 -0.095623 -0.247197 -0.171775 0.166066 -0.241506 -0.110386 0.215699 -0.009103 -0.050228 0.153805 0.011499 0.033273 0.146048 0.058701 -0.136414 -0.153203 -0.048410 0.161048 -0.253793 -0.074474 -0.013904 -0.100378 0.257123 0.185884 -0.053109 0.181226 -0.118672 -0.076114 -0.073230 -0.009327 -0.009548 0.122376 0.202249 0.115775 -0.043912 -0.056445 -0.002386 0.192453 -0.061559 -0.058930 -0.104037 -0.040769 -0.078419 0.136430 0.028912 -0.009960 0.072035 -0.117429 -0.093685 0.029775 0.113393 -0.006487 -0.002736 -0.068548 -0.001335 -0.006267 0.072112 0.012149 -0.055342 0.057492 
politics -0.004286 0.067694 -0.040451 -0.037310 0.164845 -0.046286 0.171359 0.173384 0.052200 -0.165814 -0.144974 0.236099 -0.031758 0.306426 -0.211977 0.092340 -0.072121 0.199545 0.018440 0.233993 0.204870 0.159232 0.119559 -0.094429 -0.012842 0.020926 -0.065811 -0.034715 -0.082820 -0.082912 -0.119273 0.020742 -0.008906 0.028136 0.180407 0.056921 -0.023570 -0.050347 -0.056765 -0.056773 0.142679 0.047984 0.239800 0.215102 -0.285270 -0.101942 0.011654 -0.219672 -0.033842 -0.050491 0.074994 -0.019982 -0.101037 0.067735 -0.010862 -0.155648 -0.298271 -0.181471 -0.118004 0.077571 -0.324212 0.176236 -0.264032 -0.140982 -0.107424 0.030999 -0.028844 -0.011699 0.106988 -0.360125 0.162979 -0.051543 -0.056236 0.013719 -0.001367 -0.041898 -0.013273 -0.036449 -0.003041 0.043184 0.011721 0.063987 0.008850 -0.017070 -0.056886 0.034331 -0.060478 -0.005332 0.408003 0.034774 -0.458709 0.316579 -0.011180 -0.227759 -0.011665 0.360459 0.104459 0.118360 -0.107154 -0.243702 -0.031331 0.038823 0.057645 0.034605 -0.208350 0.056135 -0.008351 0.270190 -0.458539 -0.118039 -0.043979 -0.014103 0.177586 0.133904 -0.013829 0.507279 0.291535 0.547484 -0.012078 -0.017549 -0.017450 0.216877 -0.044339 -0.070142 0.493500 -0.296433 0.539797 -0.355031 0.268293 -0.069562 -0.061435 0.126258 0.119414 -0.129111 0.174986 -0.158427 0.206889 -0.140481 -0.187293 -0.212571 -0.169568 -0.344023 -0.280752 0.238454 -0.375527 -0.164286 0.362245 -0.005160 -0.089553 0.197668 -0.026015 0.077893 0.274863 0.084551 -0.396171 -0.491668 -0.019680 0.454006 -0.690411 -0.266585 -0.062637 -0.276449 0.615607 0.534523 -0.177022 0.529577 -0.378047 -0.228560 -0.183333 -0.057291 0.034293 0.264494 0.538037 0.309643 -0.067202 -0.123667 -0.007813 0.509926 -0.197451 -0.149857 -0.185516 -0.143195 -0.124885 0.406658 0.061496 -0.114219 0.297304 -0.445225 -0.274225 0.212123 0.435874 0.010907 -0.219320 -0.186811 0.190094 -0.178862 0.295196 -0.043133 -0.443656 0.261517 
YangForPresidentHQ -0.030746 -0.079639 0.146405 -0.140649 0.494071 -0.111230 0.289051 0.080111 -0.022296 -0.267522 -0.160135 0.387413 -0.029124 0.473739 -0.314500 0.137516 -0.074251 0.237580 0.000123 0.329954 0.293535 0.182112 0.151649 -0.159924 -0.007588 -0.049618 -0.014866 -0.037952 -0.108282 -0.118542 -0.191827 0.034068 0.041006 0.068472 0.277643 0.097223 -0.010301 -0.034674 -0.112074 -0.096631 0.229361 0.017780 0.322018 0.211399 -0.318291 -0.134794 -0.000141 -0.226616 -0.166879 -0.185604 0.315640 0.076290 -0.192160 0.191227 0.088845 -0.495391 -0.451293 -0.310548 -0.157181 0.125060 -0.457923 0.268955 -0.376474 -0.214757 -0.082851 0.073662 -0.009178 -0.046349 0.132787 -0.312721 0.153146 -0.006373 -0.129691 0.324935 -0.240750 -0.266994 0.029816 -0.098604 -0.226555 0.075870 0.315750 0.429890 0.223254 0.206776 -0.212122 0.205139 -0.708841 0.141141 0.328256 0.035775 -0.393799 0.245743 0.010340 -0.218041 -0.018210 0.308871 0.186506 0.161617 -0.236222 -0.421832 -0.086725 0.093342 0.110160 0.058136 -0.283320 0.088971 0.013719 0.367954 -0.627179 -0.135099 -0.010079 0.008773 0.197095 0.130600 -0.019725 0.535582 0.309482 0.585377 -0.017374 -0.032822 -0.020948 0.204600 -0.042355 -0.056738 0.419320 -0.252277 0.443764 -0.283435 0.271865 -0.089685 -0.051259 0.128212 0.097877 -0.146518 0.148209 -0.172690 0.200709 -0.141396 -0.201806 -0.191573 -0.171379 -0.330208 -0.236892 0.203474 -0.246149 -0.121309 0.228267 0.021893 -0.037303 0.112317 -0.046948 0.065704 0.004534 -0.012774 -0.043178 -0.073801 0.016169 0.064084 -0.069216 -0.037959 -0.015518 -0.050914 0.079914 0.101399 -0.030835 0.102901 -0.084759 -0.040367 -0.097558 -0.060513 0.066409 0.129076 0.313775 0.187030 -0.009789 -0.046433 -0.007551 0.133712 -0.068606 -0.033239 -0.021491 -0.063775 -0.010038 0.141091 0.017958 -0.079486 0.158349 -0.238327 -0.108156 0.116123 0.208801 0.017456 -0.160342 -0.108958 0.199986 -0.180662 0.208730 -0.081887 -0.381418 0.208555 
SandersForPresident 0.020589 -0.319701 0.090833 -0.117868 0.529792 -0.086524 0.268647 0.148715 0.013531 -0.245819 -0.166085 0.344009 -0.031594 0.446741 -0.296783 0.134179 -0.106641 0.321712 0.002430 0.426474 0.380654 0.251537 0.199820 -0.186568 -0.015382 -0.031938 0.011561 -0.031509 -0.047183 -0.040142 -0.084212 0.002183 0.009762 0.066187 0.260605 0.083736 -0.015219 -0.045584 -0.098117 -0.075084 0.301229 0.050798 0.471290 0.365463 -0.510981 -0.197017 0.019356 -0.405153 -0.136555 -0.193229 0.316304 0.011952 -0.255503 0.219748 0.066757 -0.517248 -0.526145 -0.343602 -0.190631 0.138469 -0.545756 0.316411 -0.444151 -0.248100 -0.120254 0.072512 -0.024953 -0.044817 0.154980 -0.428879 0.196051 -0.024771 -0.133649 0.229126 -0.156623 -0.211346 0.010997 -0.090977 -0.166208 0.083972 0.191001 0.285925 0.123610 0.107210 -0.146013 0.136331 -0.437312 0.068782 0.184233 0.017757 -0.180221 0.140787 -0.014819 -0.099073 -0.011142 0.150967 0.003227 0.039850 0.019024 -0.009370 0.026701 -0.017202 -0.022116 0.012293 -0.108835 0.029801 -0.024745 0.171382 -0.270503 -0.067618 -0.046401 -0.029944 0.116973 0.087538 -0.007124 0.289847 0.175523 0.328156 -0.015422 -0.030118 -0.032606 0.271361 -0.063524 -0.095066 0.602981 -0.349086 0.640987 -0.411236 0.364263 -0.117885 -0.067417 0.184446 0.123342 -0.186476 0.212330 -0.230580 0.168223 -0.141905 -0.178618 -0.173261 -0.154181 -0.285138 -0.207777 0.166682 -0.206292 -0.105955 0.195030 0.028779 -0.016390 0.064366 -0.061498 0.054954 0.052761 0.001579 -0.140019 -0.195534 0.020260 0.179061 -0.231816 -0.094781 -0.017002 -0.109137 0.202922 0.210423 -0.051541 0.204462 -0.167759 -0.076943 -0.060259 -0.051412 0.059905 0.086661 0.219783 0.143256 0.013649 -0.026357 -0.011823 0.215851 -0.103779 -0.060611 -0.039210 -0.091087 -0.024601 0.205886 0.050064 -0.113082 0.286283 -0.413450 -0.199004 0.195154 0.366751 0.025033 -0.171556 -0.119111 0.213354 -0.177822 0.230474 -0.073366 -0.413593 0.232876 
centerleftpolitics 0.105295 -0.297917 0.032193 -0.183296 0.497574 -0.053430 0.325302 0.112542 0.115813 -0.181203 -0.227961 0.209516 -0.025312 0.399003 -0.245959 0.074407 -0.086400 0.173451 0.021182 0.219613 0.167703 0.115641 0.109127 -0.070329 -0.006873 0.071026 -0.289537 -0.102873 -0.329672 -0.409999 -0.497354 0.136006 -0.055364 0.115507 1.043092 0.383220 -0.181239 -0.325294 -0.215053 -0.243731 0.112624 0.044744 0.282518 0.267113 -0.329300 -0.083769 0.068071 -0.309125 -0.005650 -0.077881 0.119506 -0.123649 -0.175392 0.131729 -0.027961 -0.240911 -0.559136 -0.275277 -0.129640 0.118148 -0.546832 0.359220 -0.445258 -0.231705 -0.219012 0.048344 -0.095479 -0.036662 0.096197 -0.462611 0.144928 -0.108555 -0.080477 0.431478 -0.381090 -0.279930 0.048644 -0.077117 -0.347022 0.039682 0.368617 0.351323 0.250690 0.306564 -0.100940 0.168178 -0.728479 0.124634 0.040659 0.005198 -0.174339 0.079465 0.010222 -0.025118 0.025714 0.085325 0.055488 -0.059741 -0.139157 -0.181620 -0.093351 0.093121 0.135232 -0.014824 -0.073005 0.006060 0.065899 -0.009951 -0.045320 -0.057778 0.100214 0.061898 -0.060870 -0.085343 0.015640 0.081847 0.025192 0.086015 0.011992 0.086509 0.010678 0.028185 -0.022798 0.053757 0.052295 -0.072629 0.103460 -0.138706 0.090421 0.045460 -0.087460 0.017321 0.125751 -0.072524 0.042661 0.016066 0.107066 -0.036813 -0.058361 -0.066642 -0.050937 -0.188489 -0.135628 0.145795 -0.234659 -0.095178 0.208698 -0.033498 -0.074570 0.193707 0.055037 0.011513 0.212824 0.087950 -0.165967 -0.174900 -0.079922 0.190509 -0.331596 -0.093814 -0.023042 -0.124150 0.338401 0.224599 -0.073099 0.220285 -0.122545 -0.092580 -0.081244 0.016303 -0.045195 0.137312 0.185896 0.087684 -0.081847 -0.071032 0.007467 0.138808 -0.021617 -0.042683 -0.123285 -0.003910 -0.095640 0.062561 0.015609 0.040952 -0.046905 0.053481 -0.032420 -0.054151 -0.034806 -0.018860 0.073463 -0.039803 -0.114780 0.088907 -0.024086 0.053555 0.136900 -0.041940 
Pete_Buttigieg 0.110563 -0.376269 -0.008741 -0.104592 0.308164 0.016345 0.126634 0.111495 0.134800 -0.192819 -0.253405 0.211056 -0.028796 0.463473 -0.272922 0.090409 -0.108285 0.244864 0.028343 0.331104 0.254819 0.177220 0.157058 -0.112434 0.002325 0.061367 -0.231754 -0.067294 -0.216505 -0.264599 -0.331293 0.100873 -0.092027 0.075803 0.691093 0.257684 -0.131867 -0.238978 -0.127385 -0.126099 0.032750 0.032792 0.145172 0.175426 -0.204789 -0.041428 0.063850 -0.235036 0.072758 -0.011685 0.000063 -0.165470 -0.104876 0.067992 -0.034419 -0.038080 -0.622406 -0.311873 -0.145222 0.119186 -0.602736 0.385795 -0.493106 -0.258931 -0.228150 0.054802 -0.097212 -0.048495 0.100602 -0.489841 0.146690 -0.105880 -0.086830 0.359788 -0.308448 -0.232758 0.032839 -0.071672 -0.307362 0.049755 0.285255 0.234535 0.168674 0.232988 -0.034922 0.104628 -0.532004 0.068618 -0.153407 -0.001704 0.091336 -0.089181 0.004840 0.082502 0.025323 -0.097300 -0.047606 -0.144428 0.027783 0.095920 -0.006984 0.017741 0.029290 -0.032487 -0.224749 0.059955 0.056674 0.196246 -0.398645 -0.151916 0.093085 0.053283 0.056335 -0.000782 0.007868 0.388086 0.185019 0.419616 -0.015708 0.067050 -0.021617 0.231984 -0.075870 0.012577 0.490906 -0.344677 0.578195 -0.454938 0.552101 -0.082522 -0.205426 0.237096 0.310388 -0.316869 0.289591 -0.248953 0.262495 -0.134174 -0.207461 -0.186548 -0.166346 -0.446913 -0.299177 0.289542 -0.416329 -0.196056 0.364307 -0.017170 -0.079563 0.280609 0.023790 0.053182 0.251542 0.097604 -0.176928 -0.177771 -0.112461 0.213932 -0.343491 -0.078991 -0.011880 -0.141686 0.380949 0.249146 -0.072023 0.241951 -0.146219 -0.096320 -0.117511 -0.012888 -0.029816 0.220190 0.334218 0.194954 -0.089993 -0.108318 -0.012012 0.329365 -0.096477 -0.097310 -0.202949 -0.065896 -0.144118 0.222391 0.058012 -0.012698 0.126011 -0.210659 -0.186150 0.046242 0.203888 -0.004154 0.139666 -0.033996 -0.157548 0.125498 -0.024893 0.076808 0.197293 -0.046288 
moderatepolitics -0.005087 -0.045178 0.051428 -0.062286 0.218436 -0.067745 0.130458 0.050995 -0.009719 -0.207571 -0.109917 0.305879 -0.024495 0.347110 -0.240174 0.111003 -0.077023 0.245556 -0.002680 0.332519 0.300341 0.196496 0.156066 -0.145900 -0.013582 -0.015390 0.020994 -0.022857 -0.026174 -0.022413 -0.032371 -0.006097 0.022599 0.038227 0.196956 0.066543 -0.012500 -0.031084 -0.071907 -0.068462 0.161648 0.028381 0.244522 0.182530 -0.264951 -0.103703 0.003145 -0.190311 -0.092269 -0.116661 0.180330 0.030257 -0.149170 0.116042 0.033866 -0.307536 -0.169347 -0.113156 -0.069416 0.046550 -0.182309 0.101300 -0.151670 -0.081602 -0.051005 0.034471 -0.004985 -0.019419 0.080977 -0.206998 0.100723 -0.003372 -0.075246 0.214698 -0.162841 -0.186228 0.014414 -0.062020 -0.159470 0.038585 0.169618 0.239113 0.126492 0.120748 -0.124027 0.124812 -0.387873 0.082713 0.330272 0.027980 -0.418195 0.268676 -0.007484 -0.192300 -0.000461 0.312569 0.169151 0.152781 -0.235621 -0.422058 -0.087593 0.106552 0.144421 0.048872 -0.096819 0.020734 -0.002795 0.129861 -0.207683 -0.060860 -0.026068 -0.003532 0.062729 0.054616 -0.007652 0.209677 0.131146 0.242276 -0.001449 -0.002529 -0.017440 0.171073 -0.038790 -0.058460 0.389824 -0.229399 0.407609 -0.261939 0.175692 -0.049712 -0.037166 0.084694 0.059318 -0.085689 0.116352 -0.119204 0.105537 -0.092049 -0.118764 -0.123241 -0.112360 -0.180328 -0.156656 0.122207 -0.171832 -0.077417 0.174331 0.005034 -0.038205 0.062630 -0.032224 0.040317 0.131934 0.028593 -0.252426 -0.321442 0.020780 0.293341 -0.434034 -0.184555 -0.048221 -0.173081 0.375691 0.345734 -0.114451 0.354516 -0.265325 -0.145977 -0.128813 -0.068415 0.055993 0.180285 0.418812 0.246780 -0.014384 -0.071946 -0.011002 0.277448 -0.120562 -0.088268 -0.066380 -0.097853 -0.035315 0.240507 0.027782 -0.068459 0.164733 -0.231199 -0.113341 0.119035 0.212205 0.012337 -0.143065 -0.095095 0.148221 -0.121959 0.157542 -0.042442 -0.307350 0.169263 
ElizabethWarren 0.037172 -0.100032 0.001229 -0.081252 0.158647 -0.006497 0.107634 0.114460 0.104639 -0.271817 -0.280687 0.331446 -0.033151 0.565503 -0.352315 0.127341 -0.125443 0.300107 0.029980 0.388540 0.315491 0.213677 0.189530 -0.149869 -0.005064 0.035717 -0.180910 -0.066369 -0.211920 -0.253966 -0.332353 0.083509 -0.047315 0.094961 0.698151 0.254969 -0.114850 -0.217024 -0.154987 -0.158561 0.084063 0.025048 0.182793 0.173697 -0.219353 -0.063385 0.039598 -0.201581 -0.016542 -0.068165 0.109658 -0.081665 -0.126631 0.112540 0.008139 -0.194416 -0.507742 -0.277899 -0.134250 0.103389 -0.500758 0.312042 -0.410580 -0.217657 -0.170457 0.048980 -0.065742 -0.041566 0.101660 -0.409446 0.144502 -0.080460 -0.037841 0.168530 -0.151969 -0.106762 0.013041 -0.036081 -0.144505 0.023424 0.158820 0.142980 0.106733 0.132040 -0.026980 0.062594 -0.316176 0.044241 -0.019957 0.005919 -0.036942 0.004049 0.004869 0.005934 0.010459 0.010168 0.024254 -0.057405 -0.046755 -0.051661 -0.033543 0.031107 0.054039 -0.011553 -0.200919 0.058245 0.038181 0.190513 -0.384971 -0.125473 0.064447 0.035923 0.078379 0.024951 0.004197 0.371165 0.183497 0.390869 -0.013143 0.041365 -0.012974 0.088161 -0.039670 0.011366 0.169122 -0.132144 0.225225 -0.194704 0.192270 -0.025940 -0.073849 0.091534 0.129931 -0.117889 0.098501 -0.068841 0.186495 -0.099782 -0.145826 -0.142544 -0.116513 -0.313855 -0.212280 0.199777 -0.267328 -0.124092 0.234394 -0.008081 -0.050801 0.179169 0.010319 0.033041 0.094031 0.047237 -0.044072 -0.036521 -0.049475 0.046858 -0.090040 -0.008638 0.009129 -0.026164 0.089798 0.044030 -0.006367 0.029442 -0.005641 -0.009944 -0.067650 0.003376 -0.014682 0.109213 0.166992 0.095808 -0.047966 -0.052088 0.006150 0.118431 -0.031612 -0.037408 -0.086083 -0.019304 -0.072403 0.068444 0.031173 -0.005044 0.070684 -0.120303 -0.102247 0.021540 0.117675 -0.006066 -0.003095 -0.085403 -0.019411 -0.007541 0.075420 0.011153 -0.068614 0.061555 
progressive 0.050251 -0.265682 0.044909 -0.134835 0.420805 -0.047111 0.225613 0.121593 0.087863 -0.144455 -0.184395 0.187436 -0.027988 0.339501 -0.211617 0.076735 -0.066379 0.148411 0.020049 0.193538 0.151726 0.106167 0.090354 -0.066394 0.001729 0.034122 -0.151025 -0.049721 -0.159077 -0.192018 -0.247712 0.066057 -0.040518 0.058535 0.499220 0.176415 -0.084158 -0.154183 -0.098777 -0.102624 0.103583 0.036428 0.212564 0.205945 -0.250342 -0.074616 0.042394 -0.242613 -0.006517 -0.064637 0.096339 -0.084107 -0.136711 0.098546 -0.011245 -0.189998 -0.402134 -0.202978 -0.096868 0.085374 -0.391759 0.250755 -0.313953 -0.175569 -0.133831 0.042516 -0.060073 -0.023943 0.062432 -0.316010 0.099161 -0.067479 -0.093076 0.364213 -0.308283 -0.248316 0.035473 -0.083220 -0.278976 0.052950 0.325166 0.333001 0.214085 0.256251 -0.111764 0.163515 -0.654872 0.103884 0.107114 0.011938 -0.199041 0.114487 0.002043 -0.065793 0.009639 0.132495 0.066681 -0.009032 -0.129648 -0.192935 -0.068736 0.073466 0.097940 -0.003981 -0.203925 0.057137 0.047785 0.194613 -0.377291 -0.121261 0.063785 0.038801 0.058188 0.005358 0.000954 0.338156 0.173791 0.365060 -0.005785 0.047669 -0.002795 0.055972 -0.029684 0.026102 0.111115 -0.094300 0.154948 -0.145679 0.165490 -0.004058 -0.077124 0.060108 0.129073 -0.110086 0.075610 -0.051613 0.110748 -0.054118 -0.067830 -0.067877 -0.056689 -0.195962 -0.113376 0.138484 -0.187781 -0.085635 0.161700 -0.011023 -0.043664 0.144579 0.031811 0.017109 0.088129 0.051791 -0.027495 -0.005313 -0.065199 0.029625 -0.056683 0.006710 0.004181 -0.028287 0.103885 0.038501 -0.003796 0.032131 -0.011693 -0.022409 -0.073688 -0.006492 -0.018386 0.130715 0.203960 0.113273 -0.065797 -0.068814 0.004274 0.172478 -0.046646 -0.043872 -0.109080 -0.028270 -0.084650 0.123678 0.031582 0.000925 0.053234 -0.081010 -0.088087 0.025379 0.087927 0.001031 -0.009701 -0.081395 0.004851 -0.008584 0.086235 0.008184 -0.071979 0.078335 
JoeBiden 0.109534 -0.379753 0.030722 -0.190543 0.525581 -0.041409 0.347857 0.156511 0.163156 -0.310738 -0.358820 0.380998 -0.045707 0.676055 -0.420109 0.144591 -0.150955 0.335321 0.040453 0.437940 0.350953 0.234889 0.215051 -0.154001 -0.004360 0.088324 -0.359788 -0.122027 -0.395498 -0.488324 -0.612283 0.166452 -0.081813 0.115512 1.073109 0.392944 -0.190599 -0.344924 -0.212062 -0.233183 0.085676 0.047101 0.252417 0.267528 -0.312061 -0.070971 0.078363 -0.323297 0.024606 -0.071167 0.099733 -0.165714 -0.191899 0.139490 -0.038238 -0.215499 -0.684393 -0.335200 -0.154398 0.137633 -0.661930 0.430493 -0.535926 -0.288022 -0.259911 0.058639 -0.117115 -0.045040 0.102163 -0.554606 0.163908 -0.135188 -0.087393 0.468245 -0.414157 -0.294417 0.048903 -0.087842 -0.376608 0.046931 0.388784 0.336939 0.251096 0.330184 -0.072803 0.163380 -0.746362 0.112764 -0.059172 -0.000513 -0.060499 0.006951 0.005865 0.036264 0.029457 0.002669 0.017991 -0.110423 -0.091754 -0.088908 -0.069794 0.073411 0.110545 -0.032966 -0.122574 0.025538 0.071826 0.041719 -0.148246 -0.095355 0.117997 0.062706 -0.045954 -0.081384 0.014436 0.152463 0.053497 0.158130 0.001651 0.097257 0.002089 0.055913 -0.036978 0.063654 0.108819 -0.119277 0.180800 -0.201338 0.234585 0.017584 -0.134640 0.079832 0.208940 -0.156621 0.112061 -0.051253 0.088414 -0.013192 -0.020902 -0.024518 -0.014341 -0.160264 -0.087418 0.125487 -0.192560 -0.079507 0.159069 -0.035299 -0.056995 0.186441 0.075242 -0.005538 0.139130 0.084788 -0.009726 0.036956 -0.107940 0.001767 -0.049027 0.032877 0.016730 -0.005579 0.095673 -0.013701 0.012008 -0.026176 0.050757 0.001122 0.007867 0.059972 -0.090538 0.028676 -0.082921 -0.058846 -0.075118 -0.032414 0.016062 -0.018572 0.051769 0.008721 -0.093184 0.057906 -0.086639 -0.073146 0.012201 0.098515 -0.143207 0.196010 0.029036 -0.132335 -0.160622 -0.024968 0.258266 0.048783 -0.285696 0.237230 -0.193471 0.119526 0.483987 -0.226445 
Kamala 0.152045 -0.371898 -0.021521 -0.157211 0.395341 0.007170 0.314783 0.138677 0.168673 -0.154156 -0.269229 0.148563 -0.023218 0.401043 -0.229017 0.054495 -0.096175 0.149116 0.032374 0.184716 0.132726 0.081522 0.102750 -0.039620 -0.002539 0.117099 -0.434150 -0.135814 -0.456847 -0.583718 -0.713732 0.205177 -0.099624 0.115007 1.250253 0.462833 -0.235343 -0.422528 -0.225902 -0.264550 0.188986 0.069176 0.493486 0.461367 -0.556449 -0.137275 0.121160 -0.556617 -0.009178 -0.151007 0.242112 -0.210560 -0.324813 0.259965 -0.033361 -0.444497 -1.018143 -0.524975 -0.243368 0.218754 -0.988045 0.652948 -0.799859 -0.431176 -0.365379 0.078651 -0.164641 -0.068859 0.152596 -0.763111 0.223954 -0.178688 -0.113177 0.585612 -0.511061 -0.368226 0.073308 -0.104654 -0.465719 0.062974 0.489570 0.428471 0.311933 0.407989 -0.089938 0.202742 -0.934212 0.142846 -0.131749 -0.006514 -0.008681 -0.040822 0.016498 0.072972 0.039557 -0.053845 -0.014427 -0.158833 -0.061183 -0.008347 -0.065411 0.061898 0.104072 -0.043052 -0.114763 0.021211 0.095190 0.013151 -0.099339 -0.088884 0.145538 0.082168 -0.076086 -0.113729 0.015851 0.106995 0.031020 0.107316 0.014095 0.114205 0.011190 0.062256 -0.026766 0.083074 0.120399 -0.136089 0.199657 -0.217717 0.269925 0.026688 -0.172204 0.079771 0.242479 -0.184063 0.124099 -0.053479 0.132696 -0.028866 -0.059338 -0.057776 -0.046023 -0.235068 -0.143838 0.171011 -0.263446 -0.101727 0.225095 -0.044126 -0.076055 0.249223 0.084374 0.005782 0.269048 0.114600 -0.138445 -0.125661 -0.140637 0.168363 -0.298909 -0.057505 -0.009374 -0.124098 0.353557 0.195813 -0.072815 0.186590 -0.086703 -0.089457 0.007777 0.066419 -0.109965 0.047241 -0.092014 -0.071456 -0.096699 -0.044740 0.010886 0.030518 0.047726 0.002040 -0.139140 0.054226 -0.107931 -0.046150 0.007659 0.093431 -0.143198 0.179453 -0.001017 -0.131973 -0.142343 -0.026476 0.259717 0.035499 -0.294014 0.239022 -0.179072 0.123927 0.486719 -0.201936 
SocialDemocracy 0.081492 -0.313780 0.050976 -0.185313 0.587493 -0.073103 0.424704 0.137031 0.092109 -0.229378 -0.242321 0.302685 -0.033159 0.471784 -0.302971 0.106799 -0.105018 0.241635 0.020500 0.313151 0.268036 0.166539 0.154496 -0.117830 -0.007970 0.052906 -0.226645 -0.088496 -0.274041 -0.347284 -0.429105 0.109004 -0.030359 0.083127 0.797934 0.288571 -0.134717 -0.242647 -0.161195 -0.186314 0.180531 0.047345 0.376714 0.329283 -0.412439 -0.120162 0.063677 -0.379365 -0.055769 -0.135663 0.218403 -0.083366 -0.240147 0.188772 -0.008298 -0.388249 -0.688340 -0.377452 -0.181596 0.166783 -0.679111 0.437669 -0.545059 -0.303872 -0.230146 0.071199 -0.093984 -0.048098 0.128692 -0.540142 0.184076 -0.102706 -0.110154 0.463440 -0.391428 -0.317789 0.054576 -0.101162 -0.347407 0.059889 0.391773 0.404782 0.260744 0.311941 -0.141775 0.202122 -0.789070 0.138178 0.139885 0.009886 -0.261960 0.152702 0.005373 -0.079977 0.015730 0.164159 0.090101 0.011708 -0.175079 -0.254848 -0.088620 0.090904 0.131857 0.001557 -0.165448 0.035323 0.062326 0.142483 -0.271655 -0.095463 0.064286 0.044124 0.021202 -0.017916 -0.005188 0.232775 0.132502 0.257149 0.010931 0.051371 0.002469 0.118385 -0.025684 0.011148 0.253691 -0.177649 0.302546 -0.235965 0.252863 -0.021234 -0.108338 0.086727 0.166425 -0.153777 0.126637 -0.105386 0.151260 -0.080209 -0.110893 -0.118974 -0.102596 -0.259125 -0.182257 0.190951 -0.275284 -0.110941 0.251216 -0.015182 -0.073090 0.192386 0.029090 0.039179 0.184224 0.069250 -0.163476 -0.192125 -0.067399 0.200039 -0.316469 -0.101516 -0.029084 -0.139970 0.336568 0.243318 -0.084764 0.241547 -0.155819 -0.115916 -0.067555 -0.006324 -0.020818 0.120067 0.179683 0.093962 -0.068633 -0.061909 0.000781 0.173967 -0.044443 -0.035328 -0.107429 -0.025722 -0.076542 0.126050 0.026984 -0.028365 0.088752 -0.141914 -0.125544 0.057886 0.148660 -0.001327 0.021050 -0.057786 -0.036480 0.034600 0.034101 0.034339 0.021445 0.012711 
demsocialist 0.030912 -0.153593 0.032028 -0.085947 0.249019 -0.036448 0.164263 0.065420 0.042045 -0.140833 -0.133812 0.192376 -0.018492 0.282768 -0.182724 0.070447 -0.066785 0.167008 0.010825 0.217932 0.190052 0.118653 0.103472 -0.084476 -0.008012 0.019125 -0.105398 -0.049810 -0.137514 -0.172325 -0.214329 0.049406 -0.009078 0.047171 0.394650 0.141688 -0.061831 -0.112715 -0.085808 -0.094673 0.166477 0.033867 0.304318 0.247114 -0.329881 -0.108970 0.035047 -0.279532 -0.072631 -0.124592 0.202227 -0.028283 -0.190106 0.153364 0.018268 -0.345847 -0.349786 -0.198769 -0.098747 0.087459 -0.349142 0.221079 -0.282643 -0.156957 -0.120007 0.043145 -0.042327 -0.030187 0.080712 -0.303711 0.112184 -0.045131 -0.082196 0.283083 -0.228471 -0.208338 0.029456 -0.072424 -0.209975 0.045712 0.245585 0.278647 0.162076 0.184218 -0.116016 0.140787 -0.511460 0.092715 0.168232 0.015199 -0.246773 0.151430 -0.001033 -0.099098 0.002727 0.172993 0.107542 0.064943 -0.165899 -0.271847 -0.068228 0.077670 0.107855 0.020867 -0.122943 0.027361 0.025719 0.133770 -0.231859 -0.070188 0.016828 0.017023 0.047350 0.022764 -0.007211 0.216922 0.128711 0.244366 0.000580 0.016795 -0.006635 0.125600 -0.029694 -0.017862 0.268917 -0.171712 0.298092 -0.212015 0.193640 -0.032431 -0.067116 0.077885 0.103660 -0.110075 0.107836 -0.098547 0.132248 -0.085495 -0.117050 -0.121677 -0.109437 -0.226004 -0.173371 0.158836 -0.211607 -0.087991 0.200099 -0.004145 -0.050139 0.123379 0.000236 0.035339 0.161112 0.050623 -0.203800 -0.253592 -0.025214 0.240015 -0.370371 -0.140901 -0.035019 -0.145569 0.330630 0.272993 -0.093198 0.272722 -0.192272 -0.122120 -0.090097 -0.030943 0.010075 0.142577 0.273702 0.157171 -0.043018 -0.064261 -0.002629 0.182832 -0.064928 -0.048653 -0.072632 -0.047812 -0.048329 0.142897 0.022215 -0.033101 0.089301 -0.132979 -0.090039 0.060150 0.131927 0.002008 -0.085801 -0.096954 0.083552 -0.076627 0.131455 -0.015096 -0.218671 0.135148 
BetoORourke 0.042989 -0.244688 0.071672 -0.146608 0.498080 -0.081288 0.335959 0.133198 0.070317 -0.279994 -0.251147 0.379123 -0.038225 0.548830 -0.350174 0.136622 -0.121061 0.303578 0.018552 0.404012 0.347222 0.220250 0.198879 -0.164664 -0.011716 0.020196 -0.159278 -0.067820 -0.215464 -0.264527 -0.343349 0.084256 -0.008680 0.068782 0.555798 0.200981 -0.089067 -0.158970 -0.131545 -0.140271 0.180140 0.036957 0.329532 0.271486 -0.356427 -0.117366 0.036446 -0.304226 -0.082383 -0.136972 0.219534 -0.032388 -0.202603 0.171028 0.020380 -0.376354 -0.437579 -0.249402 -0.127872 0.103826 -0.434650 0.274185 -0.358351 -0.195605 -0.138475 0.049517 -0.053053 -0.035993 0.099622 -0.367785 0.136718 -0.059624 -0.095002 0.327224 -0.259289 -0.242476 0.033459 -0.078803 -0.242014 0.052155 0.273231 0.317437 0.184482 0.200982 -0.131687 0.153547 -0.576123 0.106198 0.209068 0.022491 -0.297964 0.180021 0.006963 -0.128682 0.001597 0.210913 0.129086 0.080480 -0.195567 -0.322708 -0.084050 0.094747 0.120895 0.025949 -0.202723 0.053398 0.029581 0.224914 -0.403516 -0.111635 0.024135 0.027960 0.095416 0.052356 -0.010397 0.360898 0.203883 0.395113 -0.001747 0.014038 -0.003838 0.112492 -0.026809 -0.006836 0.251052 -0.163919 0.277314 -0.199524 0.195770 -0.025057 -0.070631 0.078655 0.115550 -0.115128 0.114985 -0.098949 0.128595 -0.075026 -0.112942 -0.115951 -0.098068 -0.213441 -0.164275 0.150223 -0.207384 -0.089036 0.195488 -0.010570 -0.054117 0.129662 0.003909 0.034562 0.130844 0.044522 -0.147928 -0.171542 -0.030364 0.168630 -0.266384 -0.096368 -0.023875 -0.112006 0.265047 0.210201 -0.074023 0.206904 -0.143080 -0.090500 -0.070610 -0.015654 -0.001511 0.116442 0.208479 0.117590 -0.040830 -0.056504 -0.004209 0.148081 -0.048788 -0.043390 -0.068985 -0.033625 -0.051700 0.109261 0.019650 -0.026529 0.078354 -0.115854 -0.089405 0.056903 0.118867 0.002934 -0.060630 -0.079790 0.057978 -0.057213 0.111398 -0.012934 -0.166097 0.104424 
ConservativeDemocrat 0.039277 -0.176113 0.041280 -0.102035 0.293740 -0.042292 0.188546 0.079086 0.045554 -0.161769 -0.150434 0.219951 -0.024333 0.324911 -0.210651 0.076831 -0.073512 0.181904 0.011377 0.245736 0.208477 0.134946 0.120595 -0.099988 -0.004416 0.019355 -0.128052 -0.058245 -0.176112 -0.216141 -0.276883 0.070497 -0.009449 0.061124 0.488307 0.177061 -0.072163 -0.136780 -0.111604 -0.123439 0.163705 0.035307 0.300175 0.240568 -0.319213 -0.102220 0.038120 -0.277087 -0.066452 -0.117534 0.191661 -0.031669 -0.174654 0.149167 0.018375 -0.324990 -0.459782 -0.267837 -0.132313 0.110611 -0.459961 0.288447 -0.371465 -0.207413 -0.143698 0.052843 -0.051494 -0.034729 0.104394 -0.370598 0.137178 -0.054761 -0.068831 0.252853 -0.208254 -0.184917 0.026574 -0.061245 -0.190183 0.041722 0.214366 0.235088 0.145636 0.159337 -0.092785 0.119576 -0.443007 0.075724 0.173253 0.014264 -0.254459 0.151423 0.003876 -0.107943 0.006755 0.177568 0.108899 0.060796 -0.162099 -0.269828 -0.073624 0.078212 0.106851 0.022743 -0.148266 0.038052 0.027329 0.152873 -0.278953 -0.080216 0.023530 0.025231 0.062986 0.031594 -0.004412 0.260731 0.144450 0.286968 0.000073 0.018726 -0.005291 0.113335 -0.026058 -0.010372 0.244333 -0.159184 0.272521 -0.195068 0.179168 -0.028855 -0.066313 0.071536 0.098437 -0.099116 0.099640 -0.091814 0.121340 -0.073219 -0.105726 -0.108325 -0.095997 -0.201324 -0.153794 0.138944 -0.188251 -0.080920 0.177736 -0.008408 -0.047902 0.116095 0.001105 0.035086 0.135534 0.042893 -0.166078 -0.196566 -0.024109 0.192013 -0.294968 -0.111740 -0.030719 -0.122632 0.286593 0.233163 -0.080066 0.238453 -0.164514 -0.100766 -0.069746 -0.022315 0.004720 0.106811 0.207120 0.116430 -0.032745 -0.051252 -0.001979 0.156191 -0.052432 -0.047443 -0.071371 -0.042194 -0.044765 0.121505 0.015010 -0.022675 0.069851 -0.104089 -0.074911 0.044152 0.100921 0.003699 -0.044284 -0.054258 0.034643 -0.034583 0.073979 -0.006889 -0.103249 0.075473 
