15 200
BaemyKlobaechar 0.109175 -0.135540 0.023438 -0.105151 0.383803 0.035653 0.236416 0.041984 0.075532 0.003505 -0.073914 -0.028407 0.004886 0.050412 -0.011188 -0.019743 -0.012974 -0.019747 0.018761 -0.022587 -0.025012 -0.035605 -0.009932 0.034663 -0.042240 0.056689 -0.130106 -0.039542 -0.112818 -0.232981 -0.174952 0.089706 -0.002860 -0.001796 0.340751 0.171429 -0.124808 -0.149199 -0.072861 -0.094811 0.316414 -0.032738 0.832211 0.495148 -0.801832 -0.183700 0.022846 -0.499450 -0.222501 -0.365794 0.570138 0.153398 -0.475275 0.358754 0.160317 -0.706675 -0.394950 -0.221584 -0.211798 0.102331 -0.447220 0.325887 -0.419529 -0.108939 -0.215849 -0.072856 -0.118629 -0.075041 0.062256 -0.294163 0.020534 -0.074073 0.030050 0.537713 -0.215575 -0.536406 0.081836 0.027746 -0.522184 -0.097115 0.359992 0.509652 0.228595 0.255236 -0.232295 0.272875 -0.858808 0.378646 0.255012 0.066836 -0.654798 0.226178 0.033598 -0.214029 0.059906 0.290102 0.259302 0.216614 -0.377951 -0.426066 -0.051192 0.185025 0.304276 0.156817 -0.156580 -0.005835 0.046061 0.190932 -0.297549 -0.154010 0.029247 0.118811 -0.022995 0.049123 -0.024652 0.234341 0.152257 0.283980 0.056321 0.039631 0.030290 0.274474 0.050763 -0.012392 0.884873 -0.474116 0.668052 -0.369281 0.330996 0.053209 -0.286610 0.118800 0.136710 -0.134318 0.376611 -0.279737 0.252653 -0.103392 -0.488359 -0.332207 -0.402874 -0.377133 -0.573470 0.189638 -0.568970 -0.132104 0.604222 -0.092969 -0.085444 0.301757 -0.067815 0.100049 0.245704 -0.043017 -0.164764 -0.176914 0.001399 0.165213 -0.398203 -0.214437 -0.051504 -0.161750 0.363424 0.295260 -0.282073 0.316815 -0.180025 -0.098556 -0.054102 -0.037812 -0.148736 0.318771 0.378404 0.245567 -0.038576 -0.164288 -0.162988 0.456361 -0.157176 -0.205633 -0.174213 -0.132419 0.006389 0.173271 -0.099660 -0.222860 0.324214 -0.414719 -0.154241 0.287028 0.433225 0.050755 -0.465979 -0.074191 0.354178 -0.399269 0.347992 0.027715 -0.541398 0.246812 
politics 0.189540 -0.210299 0.163610 0.039008 0.848831 -0.015373 0.303311 0.127994 -0.043779 -0.661973 -0.223467 0.714989 -0.018260 0.806812 -0.487921 0.190506 -0.268348 0.469231 -0.094226 0.664731 0.752923 0.271950 0.411619 -0.238313 -0.112512 0.029415 -0.181541 -0.119707 -0.275977 -0.525816 -0.471658 0.165569 0.065020 0.119383 0.806690 0.351491 -0.212829 -0.249540 -0.290627 -0.238446 0.257352 -0.042061 0.544163 0.317265 -0.529549 -0.157496 -0.025128 -0.298997 -0.164345 -0.257470 0.379037 0.142223 -0.301552 0.213532 0.143141 -0.459516 -0.484356 -0.316251 -0.307611 0.115369 -0.568032 0.388317 -0.543670 -0.130051 -0.243998 -0.059241 -0.124343 -0.143674 0.208130 -0.491510 0.130283 -0.040337 -0.057748 0.459502 -0.121911 -0.518558 0.045778 0.000735 -0.450968 -0.042860 0.300875 0.559918 0.199576 0.161891 -0.270275 0.261017 -0.793133 0.363945 0.332992 0.088228 -0.716698 0.270090 0.032975 -0.284561 0.049544 0.332927 0.228798 0.223631 -0.353948 -0.382083 -0.036253 0.164300 0.257301 0.160442 -0.200611 -0.014603 -0.051923 0.424720 -0.649466 -0.268463 -0.076237 0.098262 0.060886 0.213652 -0.057626 0.439360 0.305153 0.556361 0.098086 -0.066614 -0.009815 0.206361 0.024493 -0.055939 0.717211 -0.347716 0.522685 -0.266283 0.319125 0.019247 -0.218153 0.165077 0.091163 -0.116118 0.375839 -0.308510 0.212413 -0.144788 -0.431472 -0.296692 -0.347703 -0.340048 -0.466483 0.145218 -0.538002 -0.125715 0.556725 -0.042749 -0.022575 0.211683 -0.109033 0.082441 0.139053 -0.109324 -0.232650 -0.321574 0.120858 0.272713 -0.514604 -0.278742 -0.027278 -0.232734 0.433275 0.463624 -0.310687 0.443965 -0.323100 -0.086853 -0.043404 -0.065731 -0.085031 0.295397 0.392125 0.283779 0.039916 -0.118170 -0.155825 0.417805 -0.187706 -0.194353 -0.082901 -0.154784 0.018712 0.193767 -0.080601 -0.167455 0.338365 -0.368794 -0.041104 0.252409 0.338412 0.056877 -0.268346 -0.007800 0.260932 -0.265981 0.138894 -0.007849 -0.404180 0.188154 
YangForPresidentHQ 0.181054 -0.287070 0.244174 -0.025922 0.948612 -0.063358 0.589239 0.340896 -0.075317 -0.615772 -0.185642 0.681913 -0.014681 0.729846 -0.452852 0.181879 -0.160808 0.316314 -0.056867 0.436831 0.494345 0.193431 0.254453 -0.164832 -0.107666 -0.000045 -0.138526 -0.118966 -0.267849 -0.458799 -0.444557 0.132228 0.073189 0.122302 0.720649 0.326252 -0.183737 -0.207701 -0.293231 -0.259211 0.252537 -0.030426 0.524352 0.298639 -0.524720 -0.156990 -0.026716 -0.276184 -0.192178 -0.257583 0.403101 0.173358 -0.296309 0.219789 0.142797 -0.499138 -0.164545 -0.113016 -0.110306 0.058102 -0.203309 0.127695 -0.189965 -0.053645 -0.109709 -0.021745 -0.045023 -0.056142 0.082640 -0.223042 0.071753 -0.026303 -0.050745 0.196048 -0.014145 -0.259335 0.017222 -0.015486 -0.229181 -0.023767 0.154623 0.321783 0.085605 0.072153 -0.164533 0.139212 -0.418904 0.210073 0.201703 0.069030 -0.451958 0.168432 0.004157 -0.164767 0.033542 0.215186 0.159068 0.161360 -0.227911 -0.265519 0.004752 0.108374 0.182402 0.110209 -0.235060 -0.004202 -0.024382 0.426468 -0.660241 -0.296730 -0.069398 0.137775 0.020503 0.185378 -0.053444 0.433722 0.286111 0.510646 0.124031 -0.021622 0.000802 0.175996 0.034831 -0.055623 0.630109 -0.305373 0.461558 -0.211717 0.269168 0.000991 -0.182950 0.142968 0.056671 -0.096088 0.340104 -0.276988 0.224544 -0.119018 -0.436501 -0.325472 -0.353678 -0.318401 -0.495136 0.157288 -0.437706 -0.104177 0.473475 -0.060434 -0.056947 0.185446 -0.091605 0.099824 0.184828 -0.108556 -0.263127 -0.324710 0.118917 0.258319 -0.551180 -0.320052 -0.051780 -0.183707 0.366820 0.362704 -0.296543 0.368766 -0.249241 -0.105831 -0.077195 -0.070465 -0.101493 0.330632 0.490490 0.321991 0.010248 -0.169325 -0.179130 0.478198 -0.201809 -0.215992 -0.103571 -0.150676 0.033807 0.218411 -0.122897 -0.225986 0.313325 -0.371044 -0.126807 0.338069 0.422726 0.062353 -0.396051 -0.057261 0.352297 -0.382418 0.344844 0.011232 -0.542984 0.206814 
SandersForPresident -0.011435 -0.060728 0.050193 -0.051322 0.197026 -0.006659 0.147413 0.142879 -0.031407 -0.469872 -0.168890 0.519557 -0.014393 0.566492 -0.350478 0.111794 -0.235787 0.431390 -0.060667 0.605448 0.676518 0.262603 0.393196 -0.249235 -0.053695 0.031166 -0.088711 -0.044811 -0.142202 -0.264460 -0.241216 0.091368 0.052382 0.001173 0.301542 0.142290 -0.091428 -0.111124 -0.090604 -0.123135 0.272310 -0.023300 0.599874 0.339420 -0.553394 -0.139165 -0.007994 -0.321690 -0.234527 -0.308179 0.474750 0.202153 -0.334653 0.287840 0.152936 -0.588152 -0.375481 -0.281302 -0.242227 0.113592 -0.453152 0.276356 -0.411770 -0.118284 -0.160252 -0.024440 -0.061250 -0.077472 0.168700 -0.348179 0.128585 -0.025801 -0.029152 0.360849 -0.139198 -0.393386 0.043437 -0.006236 -0.320597 -0.016481 0.228638 0.418115 0.177040 0.120099 -0.237790 0.219092 -0.625068 0.269573 0.344856 0.054442 -0.543813 0.238793 0.028968 -0.259183 0.020353 0.283840 0.282526 0.330118 -0.334648 -0.454719 -0.038865 0.126531 0.212020 0.190254 -0.172921 -0.002008 -0.043726 0.335577 -0.513178 -0.155616 -0.096830 0.051745 0.113110 0.201181 -0.041561 0.301088 0.213764 0.364601 0.054402 -0.087584 0.001941 0.209254 0.042814 -0.082682 0.674845 -0.320237 0.495851 -0.230916 0.245996 -0.022472 -0.134268 0.130547 0.037224 -0.062449 0.289489 -0.253588 0.157683 -0.136107 -0.312435 -0.233550 -0.258391 -0.240687 -0.332957 0.098190 -0.305202 -0.100933 0.319023 0.001801 -0.007796 0.052650 -0.128096 0.070448 0.080565 -0.126049 -0.224503 -0.320884 0.150916 0.261511 -0.465786 -0.265970 -0.053344 -0.181671 0.325143 0.394786 -0.249830 0.411615 -0.288736 -0.077868 -0.122576 -0.117934 -0.022147 0.344941 0.633264 0.417141 0.093333 -0.127243 -0.197379 0.602238 -0.294679 -0.294383 -0.091898 -0.257107 0.076294 0.329149 -0.076412 -0.171454 0.271355 -0.332693 -0.047880 0.206235 0.298113 0.039517 -0.481733 0.005599 0.356745 -0.370625 0.268202 -0.023553 -0.507136 0.219338 
centerleftpolitics 0.149755 -0.102625 0.055436 -0.002243 0.265120 0.039185 0.040565 -0.027228 0.076012 0.031860 -0.036132 -0.086998 0.017338 0.002486 0.019589 -0.007257 -0.074044 0.076194 -0.017084 0.104275 0.120695 0.015486 0.060317 0.013972 -0.036599 0.062607 -0.096514 -0.035863 -0.067146 -0.167479 -0.100806 0.061788 -0.004863 0.032966 0.386023 0.168912 -0.127857 -0.159161 -0.104963 -0.089742 0.319688 -0.038098 0.806274 0.491131 -0.792656 -0.202346 -0.000935 -0.463873 -0.207949 -0.360956 0.548210 0.133372 -0.479070 0.329771 0.177008 -0.675723 -0.508500 -0.286222 -0.301559 0.112371 -0.583712 0.424752 -0.556832 -0.130075 -0.249838 -0.092175 -0.151863 -0.103912 0.123892 -0.417047 0.055274 -0.077420 0.000371 0.549481 -0.194053 -0.567859 0.065821 0.022949 -0.542556 -0.086660 0.362722 0.566987 0.236076 0.248864 -0.247429 0.285655 -0.901228 0.399264 0.433765 0.129569 -0.957389 0.356090 0.009630 -0.371398 0.052663 0.454601 0.330779 0.286639 -0.479259 -0.542720 -0.029529 0.215901 0.376385 0.219686 -0.214790 -0.035454 -0.033634 0.410066 -0.621842 -0.308030 -0.047629 0.122332 0.005913 0.163234 -0.042756 0.401273 0.292138 0.540671 0.076163 -0.018657 -0.001267 0.311060 0.030252 -0.057436 1.073738 -0.554952 0.809824 -0.449899 0.376108 0.060169 -0.315343 0.180731 0.155047 -0.153959 0.460304 -0.330846 0.143446 -0.093048 -0.318430 -0.196208 -0.267874 -0.266829 -0.378238 0.110116 -0.435053 -0.088717 0.453974 -0.059731 -0.032194 0.220025 -0.038550 0.015658 0.130277 -0.017595 -0.086169 -0.126006 0.012028 0.119411 -0.251446 -0.112486 0.002994 -0.124573 0.260733 0.240028 -0.159311 0.219609 -0.142176 -0.030654 -0.056971 -0.047447 -0.170932 0.406941 0.465250 0.330632 0.004536 -0.165134 -0.199858 0.617440 -0.247816 -0.295257 -0.185624 -0.215988 0.001545 0.240400 -0.042339 -0.157125 0.357009 -0.415612 -0.075502 0.203156 0.366698 0.039163 -0.458542 -0.034233 0.357299 -0.369227 0.212422 0.023913 -0.527652 0.277260 
Pete_Buttigieg 0.021878 -0.160353 0.064320 -0.050104 0.245562 0.007250 0.203942 0.296698 -0.009116 -0.329628 -0.141733 0.379328 -0.008289 0.416732 -0.264577 0.101665 -0.126572 0.234004 -0.024362 0.283520 0.329408 0.133827 0.170052 -0.095747 -0.043507 0.035198 -0.075562 -0.051691 -0.108070 -0.194325 -0.165445 0.040947 0.023792 0.050298 0.369534 0.165729 -0.102484 -0.124022 -0.116905 -0.129455 0.376346 -0.036880 0.867694 0.507195 -0.847439 -0.228205 -0.009023 -0.467512 -0.304723 -0.418644 0.673865 0.245724 -0.517197 0.374854 0.189691 -0.855545 -0.330656 -0.210381 -0.200977 0.116668 -0.408340 0.281758 -0.364658 -0.115321 -0.182045 -0.044193 -0.078655 -0.063375 0.086104 -0.325166 0.088633 -0.064007 0.002568 0.309634 -0.109515 -0.348326 0.048126 -0.006544 -0.307506 -0.052321 0.237778 0.381861 0.156180 0.168335 -0.191361 0.206215 -0.600099 0.267361 0.320687 0.089129 -0.652748 0.272105 -0.012407 -0.235779 0.031633 0.316456 0.245403 0.233257 -0.321102 -0.402863 -0.004424 0.130939 0.255833 0.135847 -0.229992 -0.030351 -0.027873 0.422340 -0.616236 -0.290021 -0.082030 0.097484 0.032033 0.193343 -0.051778 0.401799 0.323331 0.551132 0.085458 -0.044204 -0.006334 0.259226 0.015118 -0.098056 0.867302 -0.431282 0.667311 -0.354395 0.355555 -0.009468 -0.246717 0.195053 0.079675 -0.138995 0.436051 -0.351646 0.236538 -0.126848 -0.449516 -0.346563 -0.387023 -0.340593 -0.541292 0.181066 -0.490487 -0.105853 0.537917 -0.075948 -0.082487 0.224367 -0.081080 0.100476 0.148835 -0.056319 -0.187455 -0.231782 0.076811 0.179390 -0.391785 -0.235715 -0.038451 -0.144233 0.299150 0.284029 -0.232201 0.290233 -0.195115 -0.091653 -0.050008 -0.030749 -0.108246 0.244060 0.310502 0.200458 -0.021710 -0.123498 -0.081442 0.280761 -0.090970 -0.128524 -0.094260 -0.079044 0.004147 0.106881 -0.082685 -0.157415 0.220928 -0.265054 -0.123174 0.235173 0.317519 0.038024 -0.307194 -0.063665 0.214269 -0.260670 0.230905 0.031257 -0.304674 0.128092 
moderatepolitics 0.122387 -0.065588 -0.012496 0.012367 0.136032 0.008237 0.230531 0.212468 0.001909 -0.234787 -0.091384 0.263742 -0.025959 0.267413 -0.174695 0.058332 -0.194261 0.326372 -0.049727 0.433091 0.518925 0.196765 0.301085 -0.172232 -0.083303 0.041845 -0.137805 -0.076057 -0.205768 -0.408029 -0.376018 0.130629 0.047878 0.040125 0.453391 0.197196 -0.132519 -0.156694 -0.151099 -0.146663 0.207679 -0.017546 0.480890 0.301725 -0.446653 -0.105776 -0.017630 -0.281356 -0.126628 -0.204394 0.297407 0.115513 -0.249810 0.190176 0.084791 -0.354430 -0.337757 -0.232259 -0.246049 0.098663 -0.421695 0.257138 -0.375114 -0.105155 -0.154974 -0.040382 -0.084713 -0.077654 0.156429 -0.371865 0.116113 -0.048199 -0.024158 0.434389 -0.146147 -0.492837 0.041911 -0.001983 -0.401468 -0.032702 0.248995 0.451255 0.192486 0.141839 -0.236516 0.244109 -0.684057 0.303682 0.504068 0.091439 -0.894666 0.383535 0.034384 -0.371524 0.049375 0.427683 0.401512 0.441614 -0.521991 -0.646109 -0.056274 0.214872 0.344322 0.250264 -0.199635 0.007329 -0.030155 0.373156 -0.606392 -0.219088 -0.069167 0.107036 0.084457 0.206174 -0.047561 0.374152 0.234660 0.425074 0.096047 -0.073890 0.002381 0.164036 0.042643 -0.050445 0.565516 -0.261018 0.405122 -0.182450 0.212419 0.002051 -0.133421 0.103968 0.064828 -0.050559 0.256519 -0.220697 0.235493 -0.161341 -0.456190 -0.349073 -0.371109 -0.341341 -0.504579 0.161934 -0.546222 -0.134143 0.576203 -0.043736 -0.037013 0.177106 -0.143139 0.122690 0.142468 -0.118937 -0.274500 -0.336967 0.146701 0.265745 -0.545725 -0.324039 -0.058084 -0.245564 0.471428 0.505688 -0.373034 0.508435 -0.363061 -0.125794 -0.060768 -0.069623 -0.069880 0.251849 0.410981 0.283824 0.050112 -0.119844 -0.152480 0.428056 -0.200447 -0.211183 -0.065678 -0.154581 0.043323 0.213006 -0.082100 -0.130085 0.252331 -0.248274 -0.028845 0.227338 0.265249 0.054711 -0.278726 0.005352 0.248171 -0.257157 0.172679 0.003948 -0.350471 0.147370 
ElizabethWarren 0.139025 -0.213301 0.179804 0.018890 0.798960 -0.013123 0.210460 -0.023335 -0.013660 -0.260160 -0.093102 0.231307 0.006597 0.310819 -0.179417 0.075791 -0.097064 0.157986 -0.037821 0.189066 0.223749 0.075116 0.102916 -0.056638 -0.052979 -0.004234 -0.071573 -0.057833 -0.117078 -0.213506 -0.190290 0.070340 0.026885 0.099497 0.485821 0.217383 -0.131083 -0.153792 -0.192541 -0.151137 0.246886 -0.037978 0.551454 0.310045 -0.541184 -0.157271 -0.025727 -0.280625 -0.160047 -0.231142 0.373084 0.124715 -0.266831 0.207257 0.155694 -0.433337 -0.469803 -0.315576 -0.313706 0.116661 -0.558579 0.376628 -0.538719 -0.121648 -0.252590 -0.071074 -0.128851 -0.135062 0.205390 -0.490487 0.129280 -0.052232 -0.075984 0.300451 -0.040854 -0.365690 0.023057 -0.008176 -0.318927 -0.011671 0.227512 0.475932 0.141712 0.096089 -0.237006 0.204012 -0.635252 0.294599 0.303399 0.094897 -0.641149 0.229023 0.029197 -0.271433 0.035097 0.304118 0.218224 0.213502 -0.312036 -0.347404 -0.017092 0.141331 0.235147 0.168687 -0.147513 -0.022336 -0.057795 0.335589 -0.502678 -0.233659 -0.066939 0.080857 0.039895 0.194108 -0.043699 0.395469 0.279045 0.499393 0.092010 -0.052573 -0.019885 0.287968 0.025154 -0.115459 0.992147 -0.473371 0.725430 -0.361461 0.385464 -0.015062 -0.239539 0.239241 0.064601 -0.140534 0.480528 -0.392242 0.195757 -0.127382 -0.407613 -0.282682 -0.307617 -0.301281 -0.428279 0.107990 -0.414304 -0.107177 0.431010 -0.033682 -0.012056 0.157459 -0.111597 0.069021 0.159696 -0.122526 -0.236188 -0.310591 0.120931 0.259725 -0.516715 -0.280224 -0.028935 -0.209306 0.382396 0.425691 -0.301001 0.405780 -0.278382 -0.068778 -0.060427 -0.058219 -0.070970 0.291510 0.412365 0.287532 0.040646 -0.126588 -0.171940 0.453437 -0.209631 -0.216419 -0.096990 -0.168007 0.021256 0.198287 -0.076646 -0.155741 0.280531 -0.325216 -0.054092 0.225361 0.309260 0.049232 -0.286646 -0.008226 0.274835 -0.303113 0.188208 -0.015122 -0.460429 0.190076 
progressive 0.047841 -0.168682 0.001416 -0.257277 0.328695 0.056913 0.213468 0.071167 0.076816 -0.409940 -0.266575 0.450257 -0.021416 0.579670 -0.356521 0.081665 -0.119664 0.179271 0.008467 0.233474 0.257957 0.085654 0.151680 -0.076533 -0.026042 0.090709 -0.166588 -0.046053 -0.133300 -0.266766 -0.181151 0.094750 -0.016190 -0.014587 0.403389 0.191261 -0.138624 -0.176032 -0.045318 -0.103463 0.181457 -0.000451 0.593418 0.375145 -0.571265 -0.099898 0.065378 -0.394128 -0.151572 -0.269615 0.436507 0.071599 -0.393808 0.280870 0.071827 -0.572902 -0.491200 -0.263420 -0.239669 0.153408 -0.568565 0.416353 -0.497956 -0.143097 -0.284125 -0.073453 -0.150645 -0.066344 0.064872 -0.364268 0.033068 -0.108595 0.096316 0.407546 -0.241456 -0.341648 0.086446 0.052753 -0.379659 -0.107549 0.293886 0.313359 0.198457 0.269606 -0.118360 0.197817 -0.633186 0.261226 0.097150 0.004776 -0.354478 0.131498 0.018282 -0.062212 0.043644 0.126582 0.157500 0.089385 -0.272429 -0.296219 -0.085304 0.142289 0.241178 0.069633 -0.345758 -0.021716 0.086825 0.455884 -0.720949 -0.315165 0.012781 0.222011 -0.006529 0.130249 -0.048923 0.500453 0.341187 0.609759 0.133042 0.028302 0.060855 0.220174 0.047818 0.025197 0.645997 -0.370098 0.523402 -0.348182 0.253818 0.083912 -0.262728 0.032390 0.169257 -0.111439 0.250814 -0.154830 0.311969 -0.100303 -0.550393 -0.421891 -0.467521 -0.440421 -0.710614 0.292257 -0.637681 -0.131883 0.682030 -0.137639 -0.169556 0.396991 -0.011528 0.137538 0.295419 -0.032747 -0.217000 -0.209751 -0.001484 0.199160 -0.498900 -0.275547 -0.086411 -0.166307 0.421885 0.296191 -0.312371 0.352208 -0.174005 -0.141932 -0.056415 0.014009 -0.148303 0.189230 0.193850 0.068990 -0.124637 -0.138982 -0.039489 0.171822 0.009294 -0.054966 -0.174492 0.020229 -0.042000 0.025876 -0.095875 -0.204446 0.234557 -0.327090 -0.233820 0.275958 0.412393 0.033427 -0.404389 -0.133207 0.208904 -0.255498 0.360560 0.073890 -0.351156 0.166233 
JoeBiden 0.199295 -0.227330 -0.010442 -0.165006 0.506737 0.069097 0.231038 -0.040750 0.163759 0.072286 -0.116469 -0.135970 0.012363 -0.014056 0.040099 -0.083814 -0.022402 -0.072294 0.043073 -0.055275 -0.069607 -0.090208 0.008803 0.069908 -0.018552 0.130806 -0.159160 0.001477 -0.056577 -0.174288 -0.061752 0.093015 -0.024191 -0.088019 0.292574 0.165701 -0.157293 -0.200221 0.023008 -0.071998 0.299714 -0.022786 0.911589 0.570569 -0.872501 -0.164327 0.051800 -0.579162 -0.224844 -0.403426 0.615318 0.116904 -0.554930 0.436634 0.133139 -0.768023 -0.431830 -0.215862 -0.218765 0.093353 -0.477427 0.372220 -0.449143 -0.104909 -0.250850 -0.134339 -0.170526 -0.042908 0.013539 -0.272198 -0.035682 -0.132251 0.092853 0.676127 -0.299752 -0.653484 0.111440 0.086939 -0.636632 -0.161773 0.414157 0.613689 0.313857 0.327451 -0.276565 0.331077 -1.030286 0.498197 0.224301 0.030652 -0.772685 0.245143 0.098004 -0.173029 0.121810 0.269151 0.196633 0.127409 -0.407636 -0.359608 -0.151317 0.239534 0.373524 0.108053 -0.126455 0.007303 0.137428 -0.014510 -0.050222 -0.092778 0.154196 0.183932 -0.107519 -0.069963 -0.006879 0.179820 0.064409 0.134914 0.094777 0.151544 0.083961 0.272460 0.114286 0.082707 0.914065 -0.532843 0.704203 -0.396249 0.339414 0.138369 -0.387922 0.050437 0.248403 -0.148659 0.392739 -0.235742 0.233643 -0.045530 -0.442455 -0.284978 -0.355888 -0.351649 -0.550548 0.178743 -0.524010 -0.100732 0.557062 -0.127354 -0.112786 0.371731 -0.001281 0.068779 0.305903 -0.008290 -0.113457 -0.092274 -0.068086 0.110363 -0.334952 -0.167514 -0.054957 -0.174782 0.408126 0.296565 -0.331468 0.326081 -0.140198 -0.102430 -0.088154 -0.023203 -0.227402 0.433050 0.483595 0.297318 -0.083695 -0.230605 -0.198674 0.600782 -0.187371 -0.265851 -0.274805 -0.154735 -0.016923 0.199304 -0.120393 -0.250408 0.360145 -0.481258 -0.220840 0.309876 0.516215 0.050495 -0.615195 -0.105452 0.409156 -0.501669 0.425833 0.055013 -0.748319 0.351964 
Kamala 0.160742 -0.067583 -0.014369 -0.064200 0.132713 0.052380 0.127751 -0.028793 0.151046 0.124857 -0.051181 -0.183736 0.018458 -0.099789 0.096433 -0.073064 0.011169 -0.116756 0.026321 -0.102878 -0.113177 -0.109390 -0.034957 0.109281 -0.010666 0.111742 -0.116371 0.001615 -0.001036 -0.056625 0.043528 0.054906 -0.031017 -0.071486 0.247367 0.134337 -0.132245 -0.162733 -0.001082 -0.050754 0.301480 -0.017625 0.833351 0.525498 -0.828057 -0.184531 0.014462 -0.524668 -0.216893 -0.395235 0.569855 0.139365 -0.544698 0.389290 0.149523 -0.719695 -0.392157 -0.176080 -0.204008 0.067821 -0.423870 0.338582 -0.414103 -0.083512 -0.212686 -0.131341 -0.156693 -0.042036 0.003930 -0.228630 -0.056283 -0.096957 0.073036 0.543439 -0.226254 -0.528402 0.085769 0.066950 -0.539654 -0.146566 0.358565 0.527432 0.248726 0.289285 -0.223548 0.281094 -0.871644 0.427989 0.223997 0.057253 -0.725211 0.231265 0.045079 -0.190863 0.096430 0.289741 0.200409 0.146156 -0.377512 -0.365127 -0.080792 0.210287 0.352920 0.133461 -0.230001 -0.013211 0.066452 0.280575 -0.456476 -0.263568 0.042533 0.197835 -0.065965 0.071734 -0.037121 0.368990 0.226122 0.421333 0.118777 0.085271 0.063965 0.281079 0.095022 0.057378 0.993920 -0.559580 0.744718 -0.412225 0.355876 0.146105 -0.393145 0.079985 0.227731 -0.147977 0.436198 -0.265143 0.203256 -0.072178 -0.438650 -0.270611 -0.359879 -0.342450 -0.541010 0.170895 -0.485344 -0.097356 0.521258 -0.111750 -0.087878 0.309025 -0.005276 0.033672 0.271062 -0.023314 -0.141344 -0.136997 -0.029314 0.150354 -0.391969 -0.186717 -0.040531 -0.166567 0.399735 0.293065 -0.296138 0.315209 -0.157737 -0.091175 -0.105457 -0.067105 -0.261993 0.584556 0.708808 0.463141 -0.042576 -0.289015 -0.320583 0.936161 -0.347525 -0.424626 -0.317250 -0.272121 0.015717 0.359778 -0.119633 -0.295745 0.482857 -0.599023 -0.219003 0.401684 0.628284 0.069090 -0.907417 -0.112738 0.654719 -0.762873 0.590229 0.063949 -1.058183 0.485299 
SocialDemocracy 0.132629 -0.148277 0.110089 -0.052890 0.364320 -0.003029 0.193285 -0.033932 0.037941 -0.086815 -0.073518 0.035767 0.010197 0.151546 -0.080316 0.028674 -0.101159 0.160656 -0.019791 0.182066 0.208499 0.075218 0.087310 -0.048111 -0.077406 0.029852 -0.169617 -0.089356 -0.214778 -0.426390 -0.374963 0.145867 0.015584 0.098871 0.649253 0.285264 -0.179521 -0.226413 -0.203005 -0.169227 0.268952 -0.041208 0.706985 0.411294 -0.669967 -0.163709 0.014683 -0.402912 -0.188930 -0.317859 0.524820 0.121888 -0.401326 0.301570 0.192176 -0.613423 -0.362479 -0.221761 -0.206191 0.080605 -0.410216 0.307146 -0.387766 -0.093011 -0.196513 -0.048602 -0.108421 -0.096649 0.101919 -0.305421 0.036844 -0.041181 -0.012305 0.403667 -0.128103 -0.402987 0.060714 0.009971 -0.395859 -0.043650 0.302792 0.436757 0.170048 0.192322 -0.168832 0.213267 -0.719374 0.287213 0.333129 0.111342 -0.751500 0.262820 0.015706 -0.315890 0.026147 0.360606 0.276780 0.207139 -0.371404 -0.408993 -0.013517 0.149014 0.273952 0.182273 -0.179895 -0.032162 -0.054309 0.396486 -0.582160 -0.266847 -0.055012 0.086582 0.038626 0.172744 -0.036035 0.390447 0.285674 0.532533 0.050213 -0.050479 -0.013978 0.290240 0.007679 -0.066202 0.919233 -0.474183 0.704883 -0.398835 0.343925 0.003736 -0.258538 0.189139 0.103836 -0.154078 0.383022 -0.301276 0.207714 -0.122706 -0.412789 -0.263803 -0.334086 -0.349272 -0.458386 0.135834 -0.518889 -0.120117 0.528848 -0.046400 -0.019933 0.248083 -0.081018 0.055913 0.147032 -0.024469 -0.078975 -0.121146 -0.005323 0.116351 -0.228017 -0.106929 -0.000208 -0.126077 0.237793 0.230889 -0.165610 0.209884 -0.132757 -0.036330 -0.077602 -0.094948 -0.145274 0.478790 0.614811 0.439306 0.037749 -0.190750 -0.237820 0.693009 -0.301957 -0.322788 -0.176929 -0.275245 0.030673 0.310620 -0.092698 -0.229677 0.438633 -0.523065 -0.101814 0.298838 0.476445 0.072321 -0.505944 -0.051632 0.427615 -0.479139 0.316339 -0.001798 -0.584268 0.287998 
demsocialist 0.084300 -0.086250 0.028404 -0.048160 0.159128 0.029155 0.094899 -0.025511 0.044804 -0.197739 -0.129051 0.181600 -0.000356 0.280739 -0.156995 0.044877 -0.145238 0.224133 -0.026245 0.286848 0.336493 0.108814 0.176172 -0.090798 -0.069137 0.044933 -0.150779 -0.068852 -0.169358 -0.351784 -0.294328 0.118464 0.012366 0.047081 0.474439 0.213377 -0.148975 -0.177648 -0.129123 -0.124172 0.233142 -0.030893 0.610887 0.366538 -0.586462 -0.138843 0.008034 -0.360877 -0.165114 -0.281196 0.444706 0.116597 -0.363903 0.265985 0.142151 -0.529428 -0.392073 -0.234979 -0.233312 0.101897 -0.456548 0.326726 -0.423475 -0.104940 -0.203923 -0.055714 -0.112362 -0.091000 0.100950 -0.326194 0.048273 -0.050956 0.014362 0.372174 -0.136172 -0.367643 0.057503 0.018844 -0.359714 -0.062152 0.257613 0.363826 0.156361 0.183116 -0.149005 0.191679 -0.610941 0.264059 0.312854 0.082825 -0.708697 0.262865 0.023581 -0.267475 0.042374 0.323832 0.264320 0.227445 -0.379894 -0.422768 -0.035076 0.165134 0.282178 0.170830 -0.187192 -0.023579 -0.016759 0.349581 -0.526002 -0.232604 -0.037024 0.104556 0.028813 0.146221 -0.042215 0.349915 0.250069 0.454248 0.070827 -0.031024 0.001212 0.223791 0.021473 -0.042861 0.724151 -0.365650 0.545986 -0.303008 0.260224 0.021981 -0.206345 0.129800 0.090097 -0.104808 0.297183 -0.229208 0.213898 -0.134258 -0.421743 -0.287754 -0.349359 -0.343323 -0.478154 0.152229 -0.547498 -0.126837 0.566532 -0.049298 -0.033219 0.231077 -0.098725 0.077730 0.165867 -0.054987 -0.148215 -0.200964 0.038757 0.170594 -0.363938 -0.190586 -0.024039 -0.169551 0.329632 0.317541 -0.237780 0.304495 -0.200491 -0.070891 -0.056992 -0.061258 -0.122459 0.342960 0.436246 0.308037 0.008252 -0.149157 -0.181925 0.522396 -0.218506 -0.236054 -0.137943 -0.189495 0.021885 0.227491 -0.101917 -0.227280 0.401837 -0.470295 -0.108412 0.311437 0.457526 0.067890 -0.500585 -0.056263 0.401779 -0.446447 0.325545 0.016837 -0.568593 0.266234 
BetoORourke 0.063610 -0.110571 0.091788 -0.042332 0.287072 0.012616 0.128719 0.006370 0.021465 -0.069254 -0.049952 0.050065 0.010022 0.116877 -0.058585 0.024728 -0.090347 0.152983 -0.019534 0.190886 0.213224 0.077095 0.097799 -0.056294 -0.055222 0.015041 -0.104810 -0.059112 -0.139030 -0.267043 -0.235316 0.085925 0.011916 0.058261 0.354624 0.156676 -0.099576 -0.116576 -0.115463 -0.093230 0.275810 -0.039667 0.658235 0.375778 -0.633304 -0.168218 -0.001540 -0.356037 -0.211479 -0.318156 0.506643 0.159459 -0.384608 0.280642 0.180423 -0.616035 -0.464871 -0.298023 -0.281203 0.122900 -0.543378 0.376121 -0.516637 -0.130905 -0.237065 -0.047370 -0.114064 -0.124466 0.162076 -0.435522 0.103890 -0.043613 -0.022902 0.388221 -0.120543 -0.402213 0.049036 -0.007486 -0.383271 -0.045258 0.279186 0.431097 0.156298 0.169008 -0.198805 0.213662 -0.679850 0.286458 0.356379 0.112210 -0.726933 0.274812 -0.001967 -0.312502 0.017979 0.368141 0.305366 0.283221 -0.393437 -0.485499 0.002995 0.160298 0.282684 0.206614 -0.223638 -0.038236 -0.071943 0.482220 -0.700550 -0.290727 -0.108843 0.084521 0.067840 0.224221 -0.054375 0.420824 0.325782 0.583702 0.061765 -0.080486 -0.020824 0.315189 0.003515 -0.115364 1.017118 -0.497720 0.757131 -0.408946 0.366879 -0.015228 -0.232986 0.218589 0.066044 -0.141002 0.435286 -0.363701 0.214757 -0.142800 -0.439677 -0.303665 -0.362514 -0.337762 -0.485292 0.150282 -0.483426 -0.122253 0.507438 -0.041012 -0.032330 0.186226 -0.105934 0.073665 0.150431 -0.095955 -0.217909 -0.294767 0.103171 0.246118 -0.477821 -0.264931 -0.032553 -0.183413 0.353095 0.375169 -0.256177 0.367477 -0.263895 -0.076056 -0.070731 -0.086889 -0.090647 0.369190 0.527510 0.371922 0.050923 -0.143149 -0.196983 0.557058 -0.256231 -0.268979 -0.104212 -0.228334 0.042444 0.268805 -0.075744 -0.195152 0.347073 -0.405241 -0.068545 0.257530 0.371109 0.054866 -0.419671 -0.026326 0.367133 -0.382699 0.261936 -0.008151 -0.509177 0.230355 
ConservativeDemocrat 0.005441 -0.048581 -0.025724 -0.088508 0.144556 0.024843 0.022696 0.045477 0.029172 -0.197555 -0.101903 0.205495 -0.006385 0.255218 -0.166665 0.045808 -0.097115 0.146869 -0.017149 0.204203 0.234338 0.077826 0.128253 -0.054439 -0.057414 0.064024 -0.123964 -0.072946 -0.159483 -0.301621 -0.242839 0.092862 0.026553 0.045037 0.499023 0.222958 -0.142561 -0.172829 -0.146981 -0.159148 0.368205 -0.029773 0.848943 0.507961 -0.830376 -0.211622 -0.005993 -0.480217 -0.248072 -0.380318 0.574130 0.194472 -0.476910 0.344323 0.170766 -0.722246 -0.421297 -0.256893 -0.256966 0.118374 -0.512230 0.336103 -0.459544 -0.120612 -0.187509 -0.057440 -0.095678 -0.063200 0.096778 -0.315123 0.065801 -0.056433 -0.009563 0.422307 -0.161254 -0.460091 0.043174 -0.001403 -0.420332 -0.058630 0.271817 0.452482 0.191304 0.179394 -0.236663 0.245719 -0.699640 0.318196 0.333848 0.066085 -0.716871 0.287173 0.015455 -0.249312 0.060473 0.323259 0.271955 0.263040 -0.398314 -0.471570 -0.054966 0.184252 0.317444 0.172801 -0.215948 -0.021917 -0.000255 0.344425 -0.539673 -0.244070 -0.042935 0.117079 0.021362 0.149563 -0.041248 0.361632 0.252936 0.456281 0.090327 -0.011619 0.017091 0.266429 0.049303 -0.052757 0.906430 -0.460046 0.689813 -0.375661 0.333693 0.045669 -0.268678 0.143778 0.135348 -0.108866 0.400560 -0.295186 0.229954 -0.136016 -0.447172 -0.333937 -0.380796 -0.351854 -0.542241 0.183982 -0.501541 -0.107011 0.538073 -0.076654 -0.073503 0.229925 -0.068287 0.079640 0.182149 -0.053423 -0.197886 -0.230159 0.063637 0.190983 -0.440205 -0.242625 -0.045850 -0.173729 0.379724 0.339189 -0.272499 0.350728 -0.216695 -0.096385 -0.032501 0.006142 -0.105846 0.144124 0.151701 0.088384 -0.041882 -0.083409 -0.069349 0.260217 -0.077617 -0.120136 -0.113877 -0.056496 -0.014191 0.080642 -0.059358 -0.124642 0.223485 -0.256151 -0.098740 0.186980 0.284932 0.027721 -0.376260 -0.050101 0.262154 -0.292878 0.238460 0.044131 -0.411166 0.196147 
