15 200
BaemyKlobaechar 0.058458 -0.291815 0.035222 -0.174737 0.209340 0.043064 0.025104 0.148246 0.147335 -0.205598 -0.296481 0.226292 -0.038441 0.431238 -0.242231 0.036349 -0.100585 0.147171 0.028340 0.174896 0.160630 0.065618 0.111665 -0.077816 0.004755 0.062929 -0.305953 -0.005862 -0.221746 -0.386940 -0.376264 0.186006 -0.028582 -0.038736 0.774059 0.330033 -0.259746 -0.326646 -0.099247 -0.177084 0.001187 0.037143 0.199408 0.210391 -0.214120 -0.009323 0.079672 -0.247974 0.023371 -0.049874 0.114419 -0.142290 -0.171463 0.111457 -0.066135 -0.208733 -0.370130 -0.122503 -0.069981 0.116694 -0.340995 0.281435 -0.273817 -0.127723 -0.187114 0.010920 -0.133645 -0.019669 -0.019653 -0.204019 -0.020325 -0.129856 0.064462 0.256187 -0.231572 -0.089041 0.071700 0.048534 -0.201632 -0.051405 0.262990 0.156259 0.146422 0.248550 -0.000986 0.075719 -0.446829 0.101088 0.137117 0.007370 -0.425945 0.170904 0.074256 -0.103520 0.033489 0.184816 0.092221 -0.031048 -0.276671 -0.267231 -0.178343 0.177428 0.197313 -0.016392 -0.171015 0.023079 0.144740 0.088589 -0.217962 -0.086821 0.152485 0.167265 -0.061737 -0.086636 -0.002035 0.205235 0.093442 0.192701 0.063614 0.090205 0.034095 -0.015249 -0.008022 0.075720 -0.055455 0.001733 -0.036451 -0.059260 0.013058 0.080579 -0.059794 -0.043145 0.102658 -0.039154 -0.009363 0.060680 0.072332 0.029744 -0.046483 -0.031733 -0.028434 -0.111694 -0.102331 0.121218 -0.134684 -0.036189 0.105991 -0.041238 -0.067517 0.181352 0.092631 0.006329 0.232536 0.051570 -0.079654 -0.068150 -0.112186 0.098979 -0.234619 -0.068628 -0.039060 -0.085873 0.238990 0.133071 -0.094612 0.135741 -0.036663 -0.066974 -0.011576 0.041730 -0.063050 0.056406 -0.015468 -0.036699 -0.092442 -0.041937 -0.001725 -0.015942 0.032734 0.022420 -0.074526 0.049829 -0.072907 -0.065850 0.010963 -0.034579 0.034351 -0.084917 -0.128880 0.039304 0.109714 -0.002122 -0.000745 -0.126401 0.009530 -0.029965 0.159448 0.011676 -0.082589 0.078717 
politics 0.364937 -0.426115 0.051106 -0.022339 0.412296 -0.030089 0.112032 0.114010 -0.047534 -0.330390 -0.167561 0.488951 -0.029840 0.524284 -0.343088 0.127083 -0.077669 0.237667 -0.020158 0.367830 0.375080 0.179388 0.200627 -0.177049 0.010586 0.012636 -0.055485 -0.013919 -0.119418 -0.210566 -0.230474 0.077544 0.048057 0.029407 0.545741 0.220181 -0.104327 -0.171826 -0.102317 -0.153585 0.245700 -0.009920 0.593726 0.386465 -0.482380 -0.097396 0.091130 -0.447334 -0.221145 -0.321726 0.580832 0.070444 -0.381610 0.400166 0.079601 -0.801092 -0.556069 -0.343922 -0.168824 0.167672 -0.549683 0.413563 -0.439254 -0.220855 -0.263159 0.045042 -0.133960 -0.082999 0.158552 -0.480643 0.132025 -0.106392 -0.017634 0.323364 -0.244429 -0.211386 0.078844 -0.021244 -0.217108 -0.000945 0.331431 0.375438 0.237051 0.241411 -0.141701 0.181432 -0.692317 0.193639 0.224099 0.016633 -0.406209 0.196065 0.046434 -0.170945 0.018027 0.227787 0.158676 0.117543 -0.261124 -0.330149 -0.113887 0.103277 0.157673 0.056994 -0.073368 0.009379 0.003531 0.104415 -0.161625 -0.025589 -0.013051 -0.009392 0.075198 0.055064 -0.025974 0.176321 0.138888 0.208075 0.024117 -0.016442 0.043390 0.251043 0.059511 0.012688 0.595914 -0.362591 0.547832 -0.302868 0.262059 -0.025573 -0.140742 0.049118 0.134263 -0.145314 0.151206 -0.171197 0.193065 -0.124840 -0.266463 -0.214878 -0.225205 -0.291960 -0.263529 0.152801 -0.347075 -0.122935 0.352300 0.000898 -0.058541 0.179437 -0.084838 0.130285 0.087323 -0.052716 -0.171021 -0.244888 0.040088 0.236820 -0.311540 -0.177897 -0.040803 -0.123736 0.195801 0.232336 -0.145075 0.266083 -0.195150 -0.093070 -0.190057 -0.152533 0.041583 0.373365 0.722747 0.406675 -0.054376 -0.170953 -0.077755 0.363660 -0.144592 -0.106922 -0.114997 -0.136587 0.013549 0.307808 -0.089065 -0.227006 0.261963 -0.419053 -0.242964 0.290146 0.425524 0.065505 -0.355361 -0.172301 0.363526 -0.345325 0.423469 -0.112832 -0.647581 0.331446 
YangForPresidentHQ 0.136742 -0.266300 0.134750 -0.058469 0.335156 -0.020373 0.042274 0.111073 0.045756 -0.464648 -0.377579 0.558282 -0.039729 0.827211 -0.495461 0.121317 -0.178071 0.338181 0.009853 0.522942 0.498569 0.189455 0.307203 -0.247690 0.020075 0.009054 -0.074517 0.004011 -0.100420 -0.182785 -0.203413 0.086052 0.019732 0.015113 0.421496 0.176297 -0.094560 -0.143195 -0.077887 -0.107085 0.158324 -0.008932 0.401724 0.263305 -0.319292 -0.053529 0.070011 -0.312699 -0.105458 -0.156770 0.278455 0.040079 -0.165698 0.193214 0.057207 -0.364474 -0.369266 -0.242142 -0.114053 0.100407 -0.357532 0.263187 -0.290241 -0.144315 -0.101765 0.023039 -0.055190 -0.046442 0.070747 -0.169471 0.040627 -0.040922 -0.012103 0.108993 -0.075252 -0.065473 0.022185 -0.018277 -0.066207 0.009483 0.159921 0.186375 0.116497 0.091592 -0.064155 0.083856 -0.345711 0.093803 0.146027 0.018794 -0.262886 0.111265 0.026327 -0.130709 0.009781 0.156575 0.142063 0.108208 -0.210022 -0.256919 -0.071993 0.077251 0.118774 0.059355 -0.150771 0.041984 0.031123 0.196861 -0.338982 -0.072523 0.021714 0.052973 0.078300 0.076948 -0.031310 0.204468 0.129750 0.223998 0.019489 -0.017219 0.015863 0.230824 0.045316 0.006360 0.539195 -0.330223 0.480510 -0.244831 0.228646 -0.047892 -0.104220 0.059953 0.093933 -0.117380 0.129864 -0.175200 0.135673 -0.087234 -0.200315 -0.139328 -0.159052 -0.197313 -0.162071 0.086495 -0.201190 -0.083928 0.196079 0.013337 -0.006947 0.081365 -0.075828 0.085307 0.064706 -0.041898 -0.113787 -0.147016 0.018576 0.157878 -0.184062 -0.115166 -0.044930 -0.123487 0.233587 0.237615 -0.167806 0.278348 -0.189911 -0.096544 -0.042825 -0.050223 0.029958 0.069964 0.178109 0.114691 0.029930 -0.018574 -0.040104 0.156437 -0.074964 -0.066682 -0.041546 -0.080509 0.016476 0.148856 -0.070285 -0.184211 0.228426 -0.357918 -0.204696 0.226958 0.355541 0.059454 -0.230782 -0.120580 0.254387 -0.267348 0.334184 -0.087204 -0.453235 0.254073 
SandersForPresident 0.010449 0.045185 0.019739 -0.028465 0.553308 -0.049524 0.661764 0.106802 0.046543 -0.402570 -0.308636 0.535712 -0.044796 0.699666 -0.425116 0.129834 -0.167955 0.366328 0.007575 0.534507 0.533342 0.236139 0.305777 -0.244598 -0.027613 -0.022281 -0.075004 -0.061376 -0.179291 -0.250050 -0.312704 0.088765 0.063078 0.041099 0.453636 0.192691 -0.068445 -0.103024 -0.156925 -0.167731 0.245322 0.011514 0.476060 0.286775 -0.427755 -0.125281 0.024427 -0.347347 -0.155653 -0.208231 0.351309 0.120045 -0.239659 0.220262 0.079234 -0.489951 -0.464030 -0.319980 -0.184757 0.148460 -0.473240 0.316605 -0.394381 -0.212410 -0.127459 0.021885 -0.043527 -0.046315 0.111434 -0.318508 0.108869 -0.027327 -0.024301 0.353552 -0.229781 -0.285607 0.069763 -0.030333 -0.239609 0.006372 0.261906 0.316851 0.169911 0.183532 -0.158932 0.191678 -0.566290 0.162263 0.173262 0.009092 -0.193162 0.114989 -0.004207 -0.097363 0.011745 0.154762 0.047996 0.133439 -0.008547 -0.093941 0.039093 -0.005505 -0.009289 0.037894 -0.291001 0.091162 0.035577 0.415379 -0.642340 -0.156203 -0.045569 0.080544 0.157019 0.193957 -0.059214 0.498425 0.301294 0.532535 0.052646 -0.032920 -0.014654 0.118742 0.012948 -0.064193 0.301813 -0.156398 0.259286 -0.085133 0.110758 -0.072949 -0.009894 0.061957 -0.035822 -0.024335 0.091186 -0.133535 0.126809 -0.074180 -0.170736 -0.147223 -0.157167 -0.197361 -0.201604 0.131154 -0.178744 -0.066093 0.196905 -0.008651 -0.048636 0.086410 -0.037096 0.069678 0.051899 -0.007895 -0.086335 -0.113480 0.012194 0.100780 -0.155726 -0.082284 -0.040697 -0.088839 0.176196 0.162798 -0.098529 0.184662 -0.128662 -0.086037 -0.058830 -0.038459 0.000274 0.116615 0.219755 0.120292 -0.035769 -0.063603 -0.029051 0.142994 -0.047334 -0.035672 -0.057382 -0.035472 -0.006243 0.102792 0.010239 0.001792 -0.009750 0.012953 0.000149 -0.001125 -0.004720 -0.007451 -0.009751 -0.004219 0.011991 -0.006179 0.017342 0.005943 -0.030843 0.006883 
centerleftpolitics -0.059947 -0.218428 -0.023301 -0.180436 -0.021958 0.066285 -0.089540 0.142511 0.189085 -0.099847 -0.271526 0.070611 -0.032541 0.273672 -0.142477 -0.009761 -0.080240 0.073191 0.043993 0.050470 0.028256 0.007842 0.038931 -0.018344 0.011683 0.092686 -0.421681 0.004129 -0.279057 -0.489498 -0.461041 0.245062 -0.050939 -0.059897 1.059429 0.450898 -0.369573 -0.456151 -0.118003 -0.235071 -0.030456 0.060464 0.231187 0.274020 -0.263846 0.002764 0.113651 -0.319688 0.084379 0.003871 0.035849 -0.238297 -0.156524 0.077321 -0.119727 -0.122156 -0.281586 -0.022686 -0.014443 0.086060 -0.241873 0.225053 -0.190881 -0.077901 -0.209915 0.005855 -0.166020 -0.006381 -0.065345 -0.181408 -0.059938 -0.166427 0.096039 0.318524 -0.299540 -0.086026 0.089866 0.068684 -0.253904 -0.076436 0.319206 0.158152 0.171386 0.316612 0.022548 0.075519 -0.521035 0.112573 0.261573 0.011923 -0.762542 0.312716 0.124260 -0.194586 0.054206 0.340584 0.156302 -0.043534 -0.464704 -0.459105 -0.295305 0.293303 0.328396 -0.020770 -0.246975 0.026298 0.214661 0.112379 -0.300286 -0.123704 0.233072 0.253870 -0.095965 -0.133775 -0.003769 0.320261 0.144367 0.298757 0.099642 0.142005 0.061696 0.006767 -0.006113 0.121327 -0.018678 -0.038825 0.007461 -0.131613 0.028661 0.125066 -0.097854 -0.063799 0.171201 -0.067471 -0.007785 0.088257 0.128381 0.051417 -0.080057 -0.058364 -0.048670 -0.200760 -0.184141 0.221155 -0.324046 -0.089870 0.274061 -0.082249 -0.147944 0.389398 0.164373 0.034721 0.414895 0.092491 -0.150156 -0.132514 -0.199757 0.184120 -0.428023 -0.130707 -0.077403 -0.176367 0.466308 0.275080 -0.193953 0.281380 -0.091098 -0.139058 -0.085954 0.042909 -0.124903 0.240209 0.200502 0.055391 -0.227174 -0.153148 -0.042288 0.159520 0.000011 -0.000368 -0.228332 0.042801 -0.155594 0.014564 0.012892 -0.100109 0.111537 -0.221647 -0.279215 0.128772 0.276824 0.013099 -0.036242 -0.231764 0.035056 -0.057965 0.294656 0.018854 -0.185831 0.160874 
Pete_Buttigieg 0.226199 -0.587803 0.044817 -0.205915 0.348189 0.043397 -0.114001 0.125174 0.139861 -0.252083 -0.322490 0.284030 -0.042182 0.493001 -0.288804 0.048941 -0.082719 0.108820 0.019442 0.115355 0.099327 0.041024 0.076117 -0.055466 0.008329 0.065877 -0.321709 -0.005273 -0.252670 -0.443509 -0.432340 0.207624 -0.011158 -0.025690 0.969551 0.403161 -0.303446 -0.389061 -0.133230 -0.230435 0.069208 0.038343 0.352728 0.312621 -0.339519 -0.038160 0.097363 -0.353285 -0.062667 -0.168439 0.330782 -0.119166 -0.316787 0.254489 -0.041593 -0.516022 -0.380356 -0.129123 -0.074267 0.120286 -0.357037 0.299102 -0.282542 -0.126866 -0.224736 0.022731 -0.155807 -0.031149 0.018307 -0.291061 0.013911 -0.145588 0.044589 0.077924 -0.105474 0.025875 0.031907 0.041572 -0.075657 -0.039386 0.134496 0.061919 0.080750 0.142446 0.024294 0.008759 -0.208296 0.044541 0.313483 0.020026 -0.740803 0.324545 0.107596 -0.231174 0.042181 0.359999 0.178052 0.039758 -0.432153 -0.467362 -0.248066 0.247414 0.286957 0.015287 -0.100990 -0.001895 0.097623 0.033927 -0.110952 -0.048924 0.110239 0.111792 -0.056243 -0.084461 0.004215 0.113219 0.056476 0.111948 0.047265 0.063436 0.049534 0.061223 0.009522 0.065359 0.135842 -0.103036 0.135255 -0.153262 0.077308 0.071176 -0.086995 -0.022923 0.128841 -0.073056 0.036815 0.010985 0.163216 -0.027659 -0.169345 -0.139144 -0.132724 -0.253801 -0.242850 0.212492 -0.336578 -0.101564 0.309723 -0.050639 -0.118808 0.305208 0.069583 0.069696 0.300500 0.041156 -0.149876 -0.166064 -0.115522 0.195020 -0.392155 -0.143162 -0.055000 -0.135677 0.323303 0.218934 -0.141902 0.222422 -0.086611 -0.094129 -0.150934 -0.043399 -0.062780 0.347020 0.487718 0.230858 -0.181628 -0.186659 -0.065015 0.264123 -0.066466 -0.045980 -0.196679 -0.030685 -0.098523 0.138655 -0.012332 -0.114289 0.127394 -0.230416 -0.237098 0.154253 0.271550 0.022265 -0.109475 -0.200792 0.114399 -0.117204 0.294829 -0.015496 -0.272528 0.174627 
moderatepolitics 0.056662 -0.001938 0.025877 -0.035881 0.443776 -0.034241 0.214480 0.004320 -0.009566 -0.166366 -0.093000 0.223978 -0.013084 0.274762 -0.175280 0.062550 -0.070036 0.163489 -0.004290 0.252358 0.246407 0.110992 0.140214 -0.109471 -0.007219 0.001695 -0.038715 -0.029372 -0.090956 -0.133007 -0.161254 0.043662 0.030771 0.031233 0.350401 0.142256 -0.056577 -0.092214 -0.099071 -0.108972 0.102133 -0.006402 0.178928 0.105648 -0.154181 -0.045533 0.012895 -0.122445 -0.069872 -0.091188 0.140316 0.050940 -0.088079 0.092793 0.039859 -0.194481 -0.199571 -0.151876 -0.079321 0.050445 -0.207706 0.129703 -0.172649 -0.088154 -0.111088 0.024850 -0.040997 -0.047719 0.106293 -0.270367 0.095939 -0.026640 -0.034000 0.402958 -0.267709 -0.312399 0.073984 -0.040615 -0.277038 0.008852 0.312572 0.377367 0.210206 0.214228 -0.172423 0.210099 -0.675016 0.190544 0.219386 0.021952 -0.325638 0.162925 0.013533 -0.158426 0.015701 0.217287 0.109498 0.141330 -0.121313 -0.203262 -0.010250 0.035461 0.063260 0.060152 -0.242591 0.068632 0.028917 0.345215 -0.547796 -0.132215 -0.020870 0.059868 0.145570 0.162874 -0.057646 0.464316 0.293825 0.510988 0.050580 -0.025891 0.001781 0.209497 0.034665 -0.032462 0.519702 -0.301810 0.459398 -0.210178 0.184905 -0.059932 -0.068689 0.065810 0.033153 -0.078864 0.125401 -0.166594 0.112387 -0.088395 -0.170357 -0.136370 -0.149996 -0.174042 -0.165145 0.088526 -0.290065 -0.105918 0.298733 -0.003755 -0.046939 0.139705 -0.067293 0.104097 -0.028196 -0.030109 -0.061856 -0.084833 0.051408 0.076233 -0.076055 -0.059993 -0.027464 -0.081797 0.148499 0.164174 -0.100020 0.192557 -0.153713 -0.071373 -0.065072 -0.058622 0.011554 0.130389 0.269721 0.159509 -0.000174 -0.058324 -0.050021 0.228834 -0.087432 -0.077322 -0.075353 -0.077222 0.002232 0.180070 -0.016398 -0.060489 0.086034 -0.122768 -0.076252 0.092293 0.132403 0.018785 -0.081745 -0.033700 0.060698 -0.032050 0.047522 -0.006893 -0.093206 0.050701 
ElizabethWarren -0.006085 -0.135084 -0.003592 -0.158643 0.261590 0.015513 0.144740 0.015699 0.114256 -0.206442 -0.254756 0.237602 -0.026205 0.400934 -0.235498 0.044066 -0.120282 0.210527 0.023684 0.274929 0.256339 0.109904 0.150612 -0.117002 -0.006278 0.035793 -0.199474 -0.024033 -0.177908 -0.288272 -0.279075 0.122582 0.002245 0.002332 0.666578 0.280888 -0.192240 -0.241837 -0.109795 -0.167331 0.023934 0.022763 0.139330 0.133829 -0.163609 -0.023741 0.042078 -0.150142 0.008514 -0.022108 0.040495 -0.075854 -0.086425 0.045105 -0.043106 -0.100492 -0.153695 -0.038838 -0.019827 0.044846 -0.142818 0.113544 -0.124180 -0.047900 -0.120641 0.007020 -0.070610 -0.014889 0.010507 -0.163555 0.021620 -0.069294 0.025939 0.351879 -0.278500 -0.194642 0.079349 0.009057 -0.262659 -0.039616 0.292611 0.251550 0.172119 0.251985 -0.085488 0.133870 -0.550957 0.148574 0.145838 0.008855 -0.391021 0.171210 0.053684 -0.104315 0.024162 0.183286 0.087258 -0.003788 -0.242836 -0.265852 -0.143241 0.148180 0.175238 0.004218 -0.118012 -0.001421 0.084370 0.066761 -0.146359 -0.054010 0.086740 0.091614 -0.022300 -0.045940 -0.011904 0.173722 0.104788 0.189991 0.040718 0.057650 0.018653 -0.015050 -0.010762 0.038643 -0.046086 0.005571 -0.014157 -0.059700 -0.089865 0.062678 0.012365 -0.027188 0.021496 0.029029 -0.053163 0.105647 0.123892 0.004692 -0.102322 -0.082268 -0.080422 -0.196772 -0.186575 0.191962 -0.223518 -0.062213 0.194419 -0.051947 -0.108779 0.248466 0.099363 0.016768 0.208841 0.062159 -0.064368 -0.063331 -0.109252 0.087069 -0.227074 -0.055625 -0.045754 -0.100984 0.272746 0.150093 -0.089912 0.147883 -0.037393 -0.075241 -0.132201 -0.012032 -0.076069 0.292254 0.386250 0.173152 -0.186070 -0.159338 -0.069907 0.317496 -0.075429 -0.057703 -0.226184 -0.036290 -0.110481 0.170181 0.022982 -0.050266 0.050447 -0.105844 -0.140737 0.056406 0.129834 -0.006469 -0.057338 -0.117927 0.023844 -0.030072 0.145522 0.019629 -0.127085 0.090513 
progressive 0.049661 -0.221966 0.025512 -0.126859 0.338946 -0.000967 0.272881 0.141455 0.075227 -0.163336 -0.192448 0.197230 -0.024784 0.323555 -0.191207 0.041566 -0.100613 0.180630 0.018759 0.245231 0.237605 0.099421 0.144188 -0.110041 -0.004479 0.025539 -0.180715 -0.025659 -0.184985 -0.303606 -0.329011 0.131694 0.014738 0.000019 0.604222 0.250514 -0.160129 -0.215900 -0.108413 -0.160309 0.066450 0.022403 0.236132 0.192617 -0.222485 -0.035687 0.051029 -0.228169 -0.015701 -0.057272 0.117646 -0.049033 -0.119255 0.094603 -0.020310 -0.182907 -0.235911 -0.113004 -0.062372 0.075369 -0.226585 0.175250 -0.178693 -0.095304 -0.156128 0.019244 -0.094680 -0.030954 0.040274 -0.258611 0.038894 -0.082192 0.019822 0.150363 -0.127788 -0.072398 0.039744 0.009269 -0.106664 -0.017611 0.140137 0.106179 0.083469 0.129470 -0.021687 0.059905 -0.255479 0.059872 0.159412 0.005441 -0.373962 0.168757 0.051975 -0.111719 0.024296 0.184629 0.104988 0.032661 -0.238909 -0.265169 -0.132067 0.127575 0.158490 0.009000 -0.202278 0.040147 0.108987 0.179163 -0.334184 -0.099043 0.093597 0.128392 0.016074 -0.003366 -0.022993 0.313027 0.175912 0.313579 0.067269 0.054274 0.042175 0.177725 0.031119 0.044771 0.404251 -0.260482 0.373937 -0.238304 0.258204 0.006409 -0.155757 0.028016 0.172129 -0.157138 0.139018 -0.142050 0.106301 -0.019315 -0.106360 -0.084056 -0.084150 -0.162672 -0.140100 0.125415 -0.157025 -0.048082 0.143859 -0.023510 -0.052802 0.149621 0.033632 0.035871 0.216508 0.021974 -0.151406 -0.175857 -0.066435 0.184539 -0.322829 -0.140000 -0.058345 -0.145974 0.319712 0.246175 -0.164686 0.264912 -0.151928 -0.128057 -0.050347 -0.011980 -0.029140 0.117825 0.160585 0.078888 -0.074203 -0.072370 -0.020263 0.112327 -0.023764 -0.014051 -0.082011 -0.010180 -0.038598 0.066507 -0.016361 -0.100191 0.113952 -0.198159 -0.172810 0.130973 0.224102 0.022821 -0.110512 -0.123895 0.102753 -0.100800 0.202972 -0.017943 -0.238086 0.143328 
JoeBiden -0.031821 -0.380950 0.053927 -0.271572 0.270829 0.067619 -0.005003 0.208429 0.206764 -0.137326 -0.307260 0.103704 -0.038749 0.343949 -0.179792 0.000158 -0.108376 0.119565 0.048757 0.119507 0.098553 0.033368 0.082106 -0.046179 0.007823 0.105852 -0.554014 -0.015178 -0.417206 -0.716396 -0.715405 0.348276 -0.049353 -0.057858 1.396201 0.593399 -0.460849 -0.577377 -0.194388 -0.323571 -0.005370 0.058324 0.301310 0.328559 -0.326595 -0.006378 0.127122 -0.384293 0.072197 -0.032572 0.094226 -0.241465 -0.206493 0.119429 -0.101173 -0.195736 -0.556289 -0.172822 -0.104607 0.166606 -0.508094 0.414710 -0.409763 -0.184921 -0.320364 0.022638 -0.231572 -0.043740 -0.022411 -0.370568 -0.033575 -0.217651 0.101555 0.365299 -0.327269 -0.111431 0.097239 0.073946 -0.290886 -0.078050 0.358157 0.183017 0.188887 0.344946 0.028494 0.087720 -0.592352 0.126205 0.136843 0.009328 -0.556713 0.204492 0.102633 -0.119328 0.043035 0.219155 0.098901 -0.107824 -0.365959 -0.311837 -0.249132 0.243613 0.269562 -0.037932 -0.157742 0.003471 0.197756 -0.000158 -0.126861 -0.086913 0.242666 0.229910 -0.145537 -0.184026 0.013967 0.176496 0.050544 0.143602 0.081387 0.150270 0.044960 -0.085281 -0.025784 0.128308 -0.235761 0.089916 -0.195114 -0.023312 -0.030800 0.137053 -0.072203 -0.078596 0.151773 -0.039210 -0.047784 0.133109 0.121078 0.057703 -0.080706 -0.047258 -0.041184 -0.188753 -0.168620 0.205003 -0.314669 -0.089159 0.259000 -0.078323 -0.131296 0.378870 0.160734 0.031787 0.442161 0.084663 -0.180511 -0.162599 -0.199898 0.217746 -0.475251 -0.158458 -0.082416 -0.192934 0.501863 0.312616 -0.225494 0.325672 -0.125581 -0.154832 -0.044729 0.061547 -0.126835 0.168726 0.074137 -0.004964 -0.193481 -0.116754 -0.033165 0.094106 0.016619 0.009345 -0.194131 0.058074 -0.145929 -0.036842 0.014385 -0.089610 0.106425 -0.207088 -0.266206 0.118472 0.264138 0.014428 -0.025179 -0.226240 0.020021 -0.048263 0.279098 0.026284 -0.145324 0.145905 
Kamala -0.030294 -0.371562 0.026752 -0.235373 0.041937 0.083999 -0.283506 0.115965 0.195380 -0.023519 -0.223748 -0.045322 -0.025641 0.143523 -0.061120 -0.038096 -0.042124 -0.025074 0.043911 -0.091930 -0.116382 -0.061064 -0.044317 0.049199 0.015218 0.109737 -0.552388 -0.000652 -0.392448 -0.683389 -0.664380 0.341053 -0.053699 -0.067195 1.414590 0.596969 -0.477867 -0.593409 -0.178435 -0.319464 -0.060304 0.061856 0.200156 0.270465 -0.235371 0.020635 0.122690 -0.308325 0.096211 0.003235 0.038650 -0.271967 -0.170609 0.082811 -0.124918 -0.128916 -0.545284 -0.149758 -0.089589 0.162720 -0.490231 0.414556 -0.395201 -0.175545 -0.339501 0.027385 -0.250924 -0.040813 -0.024531 -0.394072 -0.035577 -0.233386 0.107528 0.265197 -0.267663 -0.024322 0.079711 0.082425 -0.220291 -0.083478 0.277634 0.091973 0.139291 0.291934 0.068309 0.030669 -0.418276 0.078455 0.255024 0.015593 -0.808820 0.318840 0.136082 -0.206300 0.053776 0.351153 0.171381 -0.069678 -0.529751 -0.502385 -0.337413 0.330927 0.373198 -0.022916 -0.207459 0.007590 0.227233 0.038395 -0.200800 -0.104963 0.269828 0.266599 -0.140292 -0.188218 0.005888 0.274679 0.111711 0.246465 0.104746 0.166680 0.035041 -0.198171 -0.047715 0.125479 -0.502096 0.251187 -0.432084 0.098042 -0.218077 0.164476 0.022440 -0.117178 0.073953 0.056668 -0.155877 0.263882 0.101566 0.068495 -0.054744 -0.028009 -0.018718 -0.162779 -0.146365 0.198505 -0.277373 -0.074460 0.221932 -0.081166 -0.135025 0.367684 0.176621 0.013117 0.395078 0.097753 -0.116139 -0.076928 -0.207901 0.137606 -0.360050 -0.094520 -0.063117 -0.141234 0.405013 0.217547 -0.160034 0.216509 -0.046662 -0.107291 0.004645 0.104787 -0.123409 0.049541 -0.133854 -0.127378 -0.170528 -0.055569 0.015183 -0.098522 0.084628 0.062798 -0.115059 0.114805 -0.141871 -0.177845 0.028166 -0.073708 0.088287 -0.178324 -0.267661 0.102005 0.237063 0.010131 0.013569 -0.230721 -0.009887 -0.019520 0.265897 0.031942 -0.113701 0.132147 
SocialDemocracy 0.110595 -0.353490 0.092402 -0.207388 0.610311 -0.002348 0.333791 0.148862 0.091295 -0.301415 -0.299348 0.374495 -0.037311 0.565939 -0.336237 0.083242 -0.150763 0.283987 0.020331 0.401478 0.390705 0.162699 0.232874 -0.178330 -0.006546 0.032098 -0.236627 -0.037970 -0.250853 -0.412052 -0.444719 0.176179 0.023188 0.005412 0.818667 0.342453 -0.211719 -0.286606 -0.154909 -0.218589 0.172297 0.025673 0.491438 0.363525 -0.449032 -0.084646 0.086736 -0.430664 -0.086149 -0.171177 0.312549 -0.025981 -0.265171 0.226892 0.009801 -0.458358 -0.600795 -0.326182 -0.180701 0.186300 -0.584520 0.434797 -0.474818 -0.244512 -0.276505 0.034480 -0.157446 -0.067668 0.094852 -0.472264 0.083353 -0.132145 0.023339 0.302857 -0.235441 -0.173470 0.072221 0.004578 -0.215018 -0.025202 0.278173 0.243872 0.169205 0.232211 -0.074186 0.136071 -0.532924 0.137075 0.214612 0.013274 -0.493202 0.215423 0.063086 -0.161064 0.032801 0.251676 0.162285 0.075567 -0.329266 -0.375463 -0.162672 0.167499 0.216298 0.032563 -0.221942 0.042393 0.113702 0.204985 -0.374751 -0.109334 0.096699 0.135966 0.023065 0.006475 -0.028606 0.331694 0.191963 0.341819 0.067425 0.052555 0.037676 0.145735 0.025766 0.044391 0.330444 -0.217370 0.308348 -0.204584 0.215030 0.014181 -0.139522 0.018822 0.151885 -0.134521 0.114441 -0.113131 0.283453 -0.086775 -0.331505 -0.250753 -0.269410 -0.433169 -0.390312 0.303426 -0.441201 -0.144372 0.418754 -0.043375 -0.118527 0.345917 0.023662 0.119337 0.255645 0.015911 -0.188790 -0.223770 -0.069172 0.235374 -0.401807 -0.180210 -0.073285 -0.182063 0.395523 0.312041 -0.210157 0.341241 -0.201163 -0.156497 -0.064250 -0.021953 -0.034771 0.154609 0.218668 0.111755 -0.081802 -0.088023 -0.037729 0.175698 -0.044742 -0.034442 -0.111743 -0.029380 -0.042754 0.108438 -0.019890 -0.101026 0.116911 -0.199234 -0.162169 0.127276 0.219834 0.023211 -0.130452 -0.119512 0.111053 -0.114555 0.202684 -0.018114 -0.234464 0.142060 
demsocialist 0.070132 -0.245453 0.054913 -0.161919 0.453571 0.002240 0.276612 0.129498 0.075164 -0.235059 -0.233985 0.307223 -0.033105 0.443238 -0.262881 0.071227 -0.131573 0.257238 0.018141 0.360054 0.358974 0.153042 0.209203 -0.160221 -0.009452 0.021886 -0.202138 -0.035130 -0.212846 -0.345644 -0.376591 0.149225 0.021872 -0.001083 0.670412 0.280707 -0.175507 -0.233721 -0.130325 -0.181958 0.114251 0.024795 0.333144 0.249489 -0.310255 -0.060841 0.056155 -0.298188 -0.047349 -0.104161 0.193921 -0.023298 -0.177593 0.138843 -0.001797 -0.291698 -0.511498 -0.280530 -0.158467 0.161621 -0.496898 0.369065 -0.405231 -0.213020 -0.227175 0.029522 -0.129222 -0.054590 0.077366 -0.398645 0.069398 -0.105854 0.019950 0.325163 -0.243405 -0.197028 0.077010 0.002193 -0.226537 -0.023094 0.270790 0.243374 0.160922 0.224109 -0.080432 0.141453 -0.521669 0.134526 0.193437 0.011846 -0.409613 0.182868 0.045388 -0.139393 0.026168 0.222143 0.120893 0.078286 -0.234470 -0.280446 -0.105552 0.118196 0.150559 0.028247 -0.159495 0.034605 0.074772 0.161377 -0.278274 -0.080096 0.054414 0.092348 0.020339 0.017357 -0.022128 0.231650 0.135002 0.240666 0.043162 0.031175 0.026047 0.110537 0.017857 0.026353 0.248993 -0.161923 0.230345 -0.146141 0.177588 0.003003 -0.109664 0.017261 0.111047 -0.109099 0.095171 -0.102136 0.170658 -0.047594 -0.195383 -0.148498 -0.163138 -0.265921 -0.240409 0.195812 -0.262649 -0.082818 0.250736 -0.029461 -0.078402 0.217219 0.027505 0.067195 0.153008 0.018863 -0.094693 -0.110392 -0.052982 0.117995 -0.214099 -0.091288 -0.043235 -0.100926 0.224860 0.165246 -0.114222 0.179452 -0.100413 -0.092020 -0.053303 -0.019352 -0.033994 0.140127 0.189275 0.094637 -0.082550 -0.082713 -0.037771 0.168956 -0.041213 -0.027183 -0.107494 -0.025482 -0.038332 0.103825 -0.009847 -0.078998 0.086797 -0.149261 -0.127534 0.102531 0.171981 0.018917 -0.104519 -0.089226 0.086064 -0.082984 0.152996 -0.009982 -0.173316 0.103352 
BetoORourke 0.018535 -0.161473 0.035771 -0.096512 0.221105 0.012261 0.169458 0.117125 0.097054 -0.253018 -0.273687 0.317054 -0.038049 0.482855 -0.277961 0.067556 -0.140764 0.257199 0.021220 0.350757 0.347347 0.145752 0.212302 -0.159813 -0.005524 0.024824 -0.181175 -0.012202 -0.158066 -0.270105 -0.284380 0.123384 0.002839 -0.012895 0.512242 0.217643 -0.156956 -0.199376 -0.083565 -0.129153 0.118047 0.027161 0.386913 0.299951 -0.359529 -0.062637 0.072354 -0.356787 -0.048197 -0.117444 0.225770 -0.047471 -0.206637 0.168723 -0.010493 -0.336855 -0.385905 -0.190176 -0.110532 0.122525 -0.368616 0.286242 -0.302411 -0.153880 -0.177656 0.017173 -0.113111 -0.038826 0.034833 -0.277442 0.029409 -0.099361 0.029596 0.342609 -0.256937 -0.196275 0.085629 0.015749 -0.241441 -0.029236 0.288633 0.246557 0.169008 0.239894 -0.068715 0.133795 -0.546924 0.139246 0.181733 0.012864 -0.417090 0.180288 0.061010 -0.132837 0.027219 0.209751 0.115304 0.051973 -0.245791 -0.272755 -0.126167 0.134158 0.156718 0.015653 -0.246980 0.056178 0.119593 0.240426 -0.434590 -0.124131 0.098968 0.156803 0.029837 0.019963 -0.030408 0.356868 0.197928 0.358909 0.072337 0.046150 0.035376 0.127212 0.022802 0.042193 0.292966 -0.189729 0.262946 -0.171839 0.208622 0.012305 -0.130231 0.019233 0.139023 -0.131985 0.115077 -0.117189 0.105094 -0.013290 -0.111751 -0.082367 -0.085791 -0.157518 -0.142668 0.122032 -0.154132 -0.047594 0.140602 -0.024311 -0.051049 0.147488 0.033390 0.034596 0.185416 0.015421 -0.114680 -0.130217 -0.061322 0.142308 -0.256616 -0.108555 -0.042887 -0.109751 0.243251 0.182047 -0.126721 0.192631 -0.106404 -0.090185 -0.034472 -0.004930 -0.032760 0.103529 0.118611 0.056725 -0.067588 -0.062524 -0.030741 0.105766 -0.021762 -0.015773 -0.081677 -0.010749 -0.038366 0.055157 -0.009903 -0.058345 0.062248 -0.112659 -0.104662 0.074102 0.128035 0.014364 -0.068061 -0.082481 0.063822 -0.069650 0.138190 -0.012584 -0.136148 0.084459 
ConservativeDemocrat 0.079014 -0.175180 0.039768 -0.094683 0.296656 -0.001425 0.143510 0.074736 0.054383 -0.205829 -0.193597 0.263211 -0.028708 0.381151 -0.228648 0.059267 -0.097304 0.189063 0.009304 0.270064 0.261544 0.116126 0.157375 -0.122946 -0.003255 0.015511 -0.130675 -0.022593 -0.142265 -0.229803 -0.248843 0.099508 0.014630 0.006743 0.468681 0.196028 -0.118439 -0.160791 -0.092705 -0.128727 0.105581 0.016099 0.284633 0.205228 -0.258604 -0.051021 0.047844 -0.244819 -0.054941 -0.104711 0.190446 -0.010719 -0.155669 0.136015 0.009293 -0.279061 -0.340192 -0.189717 -0.105773 0.104159 -0.334913 0.246062 -0.271878 -0.140100 -0.160960 0.022880 -0.089071 -0.040639 0.065931 -0.286474 0.056849 -0.072789 0.007568 0.254562 -0.189221 -0.163057 0.057420 -0.001736 -0.182003 -0.010995 0.219937 0.210087 0.138373 0.172076 -0.073389 0.116412 -0.433565 0.111750 0.170817 0.011959 -0.342237 0.153169 0.040230 -0.127618 0.021899 0.186433 0.112141 0.074840 -0.199254 -0.246652 -0.091225 0.099400 0.125487 0.031887 -0.183307 0.042519 0.070260 0.194199 -0.339867 -0.090918 0.050338 0.096773 0.046068 0.040673 -0.024449 0.288170 0.166016 0.302156 0.048332 0.021169 0.024902 0.131737 0.021374 0.020658 0.307878 -0.192701 0.278583 -0.167233 0.189052 -0.007064 -0.108508 0.029818 0.103449 -0.107310 0.107748 -0.119319 0.195218 -0.069386 -0.236764 -0.180784 -0.194134 -0.296810 -0.272544 0.200641 -0.315171 -0.106533 0.304362 -0.028270 -0.081361 0.232588 0.000919 0.092742 0.192170 -0.000781 -0.166335 -0.198611 -0.036448 0.206565 -0.337122 -0.158941 -0.061250 -0.150728 0.318724 0.266187 -0.174255 0.296216 -0.183345 -0.126474 -0.092152 -0.054604 -0.021178 0.214098 0.346215 0.185912 -0.076989 -0.115000 -0.062773 0.264245 -0.083364 -0.068302 -0.134720 -0.067105 -0.033040 0.180766 -0.023587 -0.101655 0.123039 -0.199580 -0.146476 0.134375 0.214998 0.027910 -0.144012 -0.097126 0.127630 -0.122261 0.195729 -0.028277 -0.242966 0.137770 
