15 200
BaemyKlobaechar 0.422383 -0.124541 0.133287 0.105176 0.628170 0.081417 0.050807 -0.067771 0.060728 -0.061907 -0.210559 0.042426 0.020565 0.270302 -0.071139 -0.075152 -0.006551 -0.034928 0.042742 0.002647 -0.017189 -0.055972 0.024042 -0.004062 0.073394 -0.134696 -0.049733 0.096493 -0.081904 -0.304414 -0.389125 0.287652 0.158482 -0.130634 0.718471 0.488005 -0.173075 -0.256397 -0.149939 -0.241403 -0.008765 -0.058059 0.338910 0.100704 -0.139842 0.076497 0.156860 -0.344964 -0.039325 -0.128918 0.335745 0.094276 -0.061078 0.265517 0.107121 -0.247874 -0.235892 -0.217477 0.015830 0.071694 -0.114216 0.199647 -0.107174 -0.109021 -0.180343 -0.018183 -0.095563 -0.074230 -0.026746 -0.024271 -0.132506 -0.037269 0.180168 0.435748 -0.255413 -0.140908 0.258076 0.099592 -0.189353 -0.069500 0.465905 0.190694 0.155148 0.273002 0.027667 0.144155 -0.706219 0.184251 0.109074 0.024479 -0.654621 0.028781 0.230618 -0.250344 0.114118 0.275159 0.236949 0.150398 -0.280096 -0.127502 -0.091129 0.092557 0.114521 0.158989 -0.294670 0.159933 0.235033 0.232526 -0.353073 -0.010620 0.200420 0.269937 0.098480 0.075485 -0.085526 0.369698 0.170499 0.294602 0.078934 0.065277 0.076961 0.411170 0.255724 0.198921 0.766974 -0.567031 0.565205 -0.050446 0.734733 -0.351941 -0.495686 0.017915 -0.088954 -0.382756 0.172100 -0.746242 0.372173 0.065312 -0.586709 -0.105845 -0.406470 -0.455528 -0.243700 0.059673 -0.325447 -0.190353 0.279301 0.029295 0.066680 0.333253 -0.188685 0.308523 0.540873 -0.444849 -0.209175 -0.365202 -0.165499 0.618003 -0.465923 -0.441682 -0.199797 -0.243947 0.262943 0.313850 -0.591807 0.625765 -0.405994 -0.247574 0.071423 -0.460873 0.095872 0.398961 0.586257 0.433165 0.022081 -0.206361 -0.279542 0.309729 -0.034221 -0.029888 -0.287300 -0.178441 0.196975 0.331843 -0.579685 -0.778210 0.155800 -0.810555 -0.305502 0.333155 0.515427 0.292168 -0.598458 0.124997 0.788169 -0.856409 0.691386 -0.461119 -0.496129 0.260836 
politics 0.108432 0.015973 0.117779 0.173215 0.625929 -0.027538 0.301635 0.291233 -0.185692 -0.347032 -0.168171 0.420781 0.040045 0.750174 -0.338199 0.040698 -0.148000 0.321576 -0.064237 0.747593 0.750132 0.139668 0.435521 -0.398511 0.004239 -0.106633 0.098728 -0.044368 -0.133085 -0.247826 -0.340305 0.077974 0.123377 0.101452 0.316188 0.142099 0.041861 0.000288 -0.168582 -0.122944 0.255838 -0.137080 0.477722 0.103412 -0.231733 -0.048403 0.050911 -0.227939 -0.211298 -0.216459 0.386692 0.309563 -0.036895 0.201561 0.214257 -0.366239 -0.548986 -0.684281 -0.221038 0.171177 -0.486083 0.403065 -0.443582 -0.253160 -0.203094 0.091739 -0.004873 -0.252576 0.348915 -0.389483 0.154304 0.115940 -0.012581 0.403164 -0.128601 -0.320619 0.185675 -0.029586 -0.167069 0.046155 0.413205 0.445800 0.178721 0.104457 -0.203369 0.246713 -0.813674 0.255393 0.329567 0.071832 -0.653467 0.148599 0.184575 -0.534243 0.077907 0.516602 0.274097 0.338612 -0.224146 -0.257567 0.031616 0.007372 0.061521 0.201580 -0.276116 0.152355 0.014807 0.541079 -0.718576 -0.032683 -0.069260 0.052055 0.441561 0.479294 -0.194147 0.603812 0.444181 0.684050 0.043517 -0.213876 -0.021260 0.334285 0.161991 -0.010797 0.708659 -0.428616 0.517908 -0.020332 0.348255 -0.235409 -0.152583 0.089589 -0.123006 -0.151736 0.127987 -0.423317 0.368438 -0.117459 -0.636076 -0.247415 -0.487956 -0.481107 -0.321347 0.061680 -0.316886 -0.165702 0.296642 0.089146 0.113753 0.107454 -0.280609 0.266566 0.108340 -0.317215 -0.198679 -0.379549 0.093516 0.457054 -0.347398 -0.332750 -0.126508 -0.226235 0.186363 0.387670 -0.443050 0.604114 -0.481720 -0.178028 0.020457 -0.391279 0.167307 0.278623 0.577733 0.437704 0.177098 -0.077492 -0.292852 0.433025 -0.180480 -0.136484 -0.125284 -0.327778 0.294768 0.509208 -0.301788 -0.395887 0.140914 -0.435535 -0.044332 0.191838 0.238447 0.146528 -0.464649 0.159838 0.580124 -0.421071 0.239603 -0.234128 -0.344534 0.148030 
YangForPresidentHQ 0.259949 -0.068508 0.211714 0.089317 0.570365 0.068039 0.455994 0.067211 -0.091557 -0.266558 -0.198769 0.305839 0.023269 0.568294 -0.243914 -0.008018 -0.179229 0.283626 -0.029101 0.755122 0.782266 0.072581 0.468210 -0.400185 0.063112 -0.156463 0.044070 0.052293 -0.117058 -0.374045 -0.483680 0.258863 0.174740 -0.026241 0.619645 0.368684 -0.088050 -0.154826 -0.174280 -0.204559 0.255496 -0.208718 0.824509 0.198179 -0.336580 0.043691 0.187189 -0.544590 -0.215138 -0.310484 0.654784 0.375235 -0.082198 0.398394 0.322393 -0.507516 -0.335212 -0.385757 -0.101493 0.125852 -0.245158 0.287581 -0.220540 -0.165000 -0.231419 0.056576 -0.087260 -0.210540 0.177886 -0.261655 -0.023072 0.045188 0.077091 0.343099 -0.129703 -0.217381 0.171222 0.015054 -0.136667 -0.019100 0.318065 0.246583 0.117195 0.128883 -0.085454 0.178055 -0.566629 0.187633 0.211614 0.041117 -0.550389 0.098605 0.153467 -0.379745 0.075119 0.369871 0.263426 0.293449 -0.255715 -0.204751 0.013581 0.022709 0.076408 0.194788 -0.276782 0.152850 0.065620 0.489715 -0.660573 -0.029690 -0.001612 0.111633 0.276621 0.305040 -0.144271 0.424367 0.303692 0.464313 0.055933 -0.122071 0.011514 0.393974 0.219420 0.053975 0.808984 -0.510003 0.584640 -0.018257 0.575979 -0.337630 -0.330575 0.071506 -0.139352 -0.276911 0.164427 -0.659617 0.413773 -0.057749 -0.699905 -0.220418 -0.522919 -0.530955 -0.322467 0.071216 -0.376619 -0.181559 0.343302 0.080631 0.119297 0.238239 -0.281587 0.335899 0.230835 -0.308278 -0.160363 -0.306286 -0.012352 0.426722 -0.315021 -0.317743 -0.121032 -0.188147 0.164209 0.273660 -0.402319 0.468882 -0.351081 -0.171309 0.042403 -0.324021 0.102759 0.246653 0.432352 0.333699 0.098715 -0.094496 -0.243088 0.321042 -0.106256 -0.073719 -0.139274 -0.236527 0.229668 0.380428 -0.231430 -0.298427 0.071690 -0.290129 -0.081781 0.154618 0.183827 0.127010 -0.256120 0.050837 0.318791 -0.344408 0.258221 -0.183808 -0.190656 0.085873 
SandersForPresident 0.088962 -0.035876 0.253503 0.193864 0.564677 -0.010621 0.239760 0.044208 -0.100905 -0.310804 -0.201819 0.333270 0.026497 0.559443 -0.249687 0.012495 -0.125781 0.230041 -0.020192 0.553322 0.552306 0.084700 0.328079 -0.293835 0.045672 -0.179385 0.044045 0.020450 -0.178851 -0.414435 -0.549024 0.261452 0.170500 0.037688 0.665417 0.378058 -0.075718 -0.141729 -0.239554 -0.233522 0.202776 -0.120773 0.480264 0.123354 -0.237941 -0.015038 0.078831 -0.281077 -0.178453 -0.220346 0.411456 0.265494 -0.055775 0.238975 0.233047 -0.353908 -0.546950 -0.636411 -0.205145 0.153867 -0.468526 0.389750 -0.431696 -0.233941 -0.220116 0.076088 -0.038868 -0.241601 0.303640 -0.351372 0.093203 0.093334 -0.021445 0.321192 -0.099132 -0.248233 0.122104 -0.031000 -0.156494 0.036832 0.307144 0.342544 0.130997 0.068297 -0.154933 0.180051 -0.621660 0.196829 0.285035 0.073642 -0.532347 0.121431 0.100399 -0.373267 0.025801 0.346833 0.346217 0.371059 -0.290808 -0.320630 0.034632 0.018914 0.077658 0.264361 -0.228281 0.114283 -0.041440 0.515633 -0.714153 -0.052443 -0.092143 0.019444 0.347358 0.389566 -0.131220 0.430876 0.327781 0.521989 0.005246 -0.205996 -0.057553 0.227859 0.076109 -0.062797 0.508057 -0.282154 0.383603 -0.049090 0.205604 -0.157935 -0.045870 0.132096 -0.076906 -0.064247 0.118864 -0.264171 0.259837 -0.140935 -0.464294 -0.213316 -0.343924 -0.353323 -0.255730 0.049966 -0.310634 -0.167597 0.276525 0.094073 0.124594 0.048850 -0.279847 0.209455 -0.009396 -0.130174 -0.110143 -0.186534 0.088847 0.195597 -0.173731 -0.144363 -0.038909 -0.091309 0.083868 0.195689 -0.159728 0.266540 -0.225371 -0.050265 -0.011727 -0.151297 0.089339 0.106056 0.269252 0.209232 0.111884 -0.006380 -0.208301 0.339784 -0.173810 -0.134025 -0.068488 -0.263663 0.197107 0.374260 -0.144752 -0.185822 0.133655 -0.249966 0.013769 0.101985 0.131688 0.079683 -0.215572 0.086714 0.265400 -0.301323 0.144611 -0.158178 -0.266444 0.129809 
centerleftpolitics 0.081377 -0.061572 -0.057108 0.004262 0.343736 0.032228 -0.046822 0.057333 0.027585 -0.106586 -0.160848 0.092623 0.016333 0.279013 -0.107750 -0.026733 -0.031498 0.031369 0.008394 0.088355 0.067723 -0.002795 0.061254 -0.039893 0.068496 -0.158082 0.005700 0.054863 -0.143030 -0.392781 -0.504122 0.298022 0.185815 -0.036547 0.819285 0.493089 -0.129508 -0.239300 -0.217280 -0.268168 0.161675 -0.130489 0.621711 0.171875 -0.285236 0.027945 0.163513 -0.450851 -0.135561 -0.215477 0.480207 0.203063 -0.070104 0.324799 0.219028 -0.390291 -0.222456 -0.232507 -0.024565 0.038251 -0.156588 0.179913 -0.137627 -0.089829 -0.151077 -0.003592 -0.056197 -0.090068 0.083784 -0.105399 -0.030350 0.016545 0.062150 0.435738 -0.205134 -0.233746 0.218347 0.023946 -0.213551 -0.004872 0.460551 0.354779 0.197436 0.197396 -0.070824 0.191193 -0.814879 0.234646 0.252350 0.067069 -0.813961 0.092956 0.228608 -0.440392 0.102573 0.426183 0.380358 0.300777 -0.374390 -0.282459 -0.048848 0.061958 0.144908 0.298076 -0.259833 0.136205 0.114147 0.312325 -0.459688 -0.026934 0.101208 0.153750 0.145293 0.113310 -0.062735 0.300436 0.172038 0.289514 0.030985 -0.000077 0.010604 0.370085 0.197011 0.081704 0.730998 -0.500835 0.580462 -0.076216 0.555211 -0.305043 -0.333637 0.096810 -0.085200 -0.276606 0.158173 -0.568868 0.315502 -0.058580 -0.511926 -0.157683 -0.356311 -0.424211 -0.238712 0.045053 -0.275408 -0.153568 0.238810 0.053842 0.088021 0.172620 -0.209343 0.206854 0.331446 -0.362248 -0.204572 -0.353685 -0.050052 0.540220 -0.404468 -0.367017 -0.168541 -0.288537 0.285652 0.435558 -0.612325 0.737178 -0.512251 -0.222418 0.020406 -0.323967 0.096306 0.271013 0.451258 0.331563 0.072182 -0.111981 -0.405513 0.579496 -0.175220 -0.152844 -0.334446 -0.406380 0.340810 0.643787 -0.430382 -0.542766 0.175302 -0.633719 -0.194805 0.229091 0.371826 0.228437 -0.674488 0.123917 0.652970 -0.739669 0.516410 -0.411357 -0.431769 0.250214 
Pete_Buttigieg 0.291677 -0.046098 0.329685 0.267029 0.816781 -0.016008 0.157397 0.000227 -0.163215 -0.286150 -0.118092 0.308913 0.028838 0.535702 -0.253614 0.006632 -0.094458 0.194974 -0.028903 0.455720 0.466735 0.076345 0.268110 -0.265793 0.001337 -0.081154 0.017037 0.005830 -0.063153 -0.130041 -0.173402 0.063439 0.068402 0.016711 0.178586 0.110636 -0.032901 -0.022409 -0.096219 -0.085148 0.155811 -0.097643 0.358479 0.085047 -0.174883 -0.008429 0.054489 -0.194930 -0.154220 -0.168576 0.331946 0.244548 -0.031458 0.172414 0.169088 -0.288350 -0.506516 -0.597019 -0.182761 0.182547 -0.429945 0.360291 -0.387055 -0.223379 -0.245212 0.095519 -0.047866 -0.251123 0.295986 -0.345912 0.088007 0.069676 0.041257 0.336456 -0.126432 -0.211372 0.156737 0.013805 -0.137802 0.009617 0.352864 0.309664 0.126732 0.109270 -0.142246 0.182104 -0.654142 0.203739 0.277262 0.054379 -0.562069 0.118896 0.175538 -0.401270 0.044463 0.377838 0.298170 0.335283 -0.269831 -0.253065 -0.010332 0.041181 0.043830 0.198644 -0.202164 0.106674 0.057401 0.361588 -0.510177 -0.008833 -0.011799 0.093249 0.264780 0.294026 -0.125211 0.391351 0.266065 0.408084 0.051741 -0.149259 -0.009856 0.396261 0.195324 -0.005824 0.811634 -0.479144 0.580803 -0.044722 0.492411 -0.311010 -0.205418 0.123093 -0.132085 -0.204822 0.177337 -0.574044 0.419410 -0.111952 -0.706816 -0.281477 -0.517689 -0.526362 -0.361025 0.082863 -0.400793 -0.214856 0.341206 0.118869 0.145214 0.153764 -0.333752 0.334807 0.101856 -0.239470 -0.126753 -0.266514 0.062033 0.300762 -0.266538 -0.239152 -0.062237 -0.077378 0.053145 0.149772 -0.143674 0.209091 -0.161800 -0.057664 -0.005316 -0.315968 0.159527 0.234947 0.501887 0.364082 0.128112 -0.059279 -0.154147 0.207421 -0.127705 -0.064579 -0.018847 -0.163918 0.133990 0.234505 -0.380150 -0.506792 0.184848 -0.540268 -0.059313 0.254246 0.319718 0.178014 -0.441257 0.174285 0.611344 -0.610879 0.394192 -0.321416 -0.459331 0.195795 
moderatepolitics 0.292122 -0.023267 0.121403 0.121184 0.433721 0.010521 0.208812 0.097324 -0.145954 -0.377360 -0.267858 0.382650 0.060020 0.802849 -0.355760 -0.016131 -0.151013 0.274246 -0.020318 0.758042 0.726875 0.082809 0.435569 -0.396138 0.076461 -0.175205 0.039956 0.044422 -0.144056 -0.349684 -0.491770 0.272853 0.172728 -0.007726 0.672231 0.400945 -0.066778 -0.150999 -0.208703 -0.230938 0.201613 -0.139702 0.567546 0.118860 -0.234233 0.020857 0.137467 -0.371768 -0.145799 -0.197217 0.402532 0.231639 -0.026226 0.255067 0.232364 -0.322063 -0.128259 -0.158551 -0.015440 0.011768 -0.080322 0.074586 -0.075665 -0.062775 -0.098698 0.041933 -0.009273 -0.111442 0.135981 -0.133720 0.017803 0.066725 0.015245 0.247327 -0.101852 -0.138166 0.111286 -0.014332 -0.104544 0.014619 0.256557 0.206150 0.097977 0.084121 -0.057964 0.123739 -0.461468 0.124852 0.213250 0.054369 -0.617285 0.063392 0.161729 -0.363868 0.068487 0.354213 0.290057 0.258109 -0.262704 -0.213669 -0.007770 0.026071 0.079867 0.231641 -0.269915 0.161881 0.073814 0.406768 -0.570643 -0.011500 0.046777 0.129883 0.252320 0.250294 -0.111130 0.406017 0.240900 0.405901 0.020062 -0.065882 -0.008732 0.303185 0.147631 0.058297 0.567066 -0.391672 0.429192 -0.013431 0.375400 -0.241564 -0.202351 0.069239 -0.092473 -0.182569 0.088160 -0.411016 0.309798 -0.064134 -0.529228 -0.148933 -0.377154 -0.412617 -0.219836 0.036359 -0.260864 -0.169779 0.227649 0.076451 0.112938 0.126661 -0.247581 0.230158 0.195035 -0.274817 -0.164190 -0.272220 -0.012656 0.401095 -0.265382 -0.269884 -0.167184 -0.261134 0.229020 0.420576 -0.577949 0.727454 -0.553467 -0.225061 0.039476 -0.304941 0.115068 0.198620 0.386591 0.311156 0.100815 -0.075714 -0.347574 0.472138 -0.163768 -0.131735 -0.231868 -0.367096 0.329958 0.570322 -0.262435 -0.349212 0.110877 -0.395182 -0.089755 0.140219 0.216069 0.158997 -0.458712 0.090089 0.361656 -0.417730 0.279663 -0.259339 -0.254338 0.150798 
ElizabethWarren 0.134682 -0.121298 0.288967 0.198748 0.891909 0.043279 0.253595 0.101893 0.000898 -0.098074 -0.035332 0.110811 0.010347 0.203016 -0.088512 0.011834 -0.062152 0.102867 -0.016122 0.227944 0.251356 0.040276 0.138021 -0.096227 0.016939 -0.151444 -0.025461 0.017056 -0.167275 -0.433506 -0.502651 0.277530 0.194886 -0.034965 0.786501 0.488378 -0.158128 -0.217549 -0.243510 -0.281600 0.116172 -0.081028 0.424227 0.115737 -0.252632 -0.003555 0.080527 -0.275976 -0.135749 -0.208090 0.406531 0.228479 -0.113837 0.249019 0.180582 -0.348820 -0.704014 -0.749738 -0.250263 0.243370 -0.565644 0.564788 -0.552405 -0.303958 -0.324873 0.030837 -0.121806 -0.257464 0.210719 -0.363291 -0.021599 0.039094 0.074225 0.349135 -0.132327 -0.237153 0.147935 0.037903 -0.219016 -0.049737 0.346311 0.294206 0.127571 0.154060 -0.114302 0.179623 -0.635460 0.236176 0.240441 0.065814 -0.732778 0.112050 0.181891 -0.398641 0.094822 0.399603 0.237166 0.218404 -0.261991 -0.213123 -0.017345 0.082319 0.137105 0.188827 -0.183544 0.050266 0.062318 0.248275 -0.347941 -0.074177 0.030515 0.134411 0.120914 0.175466 -0.086254 0.334219 0.209588 0.361689 0.060382 -0.025519 0.045718 0.399981 0.209197 0.093167 0.881568 -0.552993 0.598222 -0.076674 0.598122 -0.266541 -0.398146 0.063165 -0.120830 -0.278890 0.244211 -0.666303 0.304854 0.003921 -0.572693 -0.174359 -0.438345 -0.384764 -0.343430 0.069706 -0.399018 -0.178993 0.391107 0.014137 0.049067 0.267524 -0.212620 0.278619 0.463598 -0.515497 -0.281289 -0.483141 -0.030160 0.685171 -0.608785 -0.547677 -0.128398 -0.154128 0.208871 0.226227 -0.376244 0.402114 -0.268241 -0.145384 0.048802 -0.290301 0.005224 0.326657 0.462298 0.341009 0.038441 -0.159800 -0.099028 0.127151 -0.012537 -0.043856 -0.082444 -0.013742 0.035614 0.018508 -0.346135 -0.503776 0.158489 -0.521005 -0.160119 0.270875 0.359953 0.176417 -0.268109 0.093434 0.559595 -0.461478 0.379753 -0.170025 -0.353420 0.149936 
progressive 0.163673 -0.030753 0.120440 0.078833 0.455228 -0.010428 0.093917 0.057547 -0.167565 -0.284997 -0.060002 0.284470 0.055884 0.441419 -0.249769 0.033788 -0.115338 0.234459 -0.051000 0.600996 0.572549 0.091755 0.315910 -0.275171 0.036826 -0.132157 0.036617 -0.008784 -0.178220 -0.395086 -0.490135 0.226678 0.157082 0.033308 0.618773 0.346884 -0.053814 -0.119592 -0.199885 -0.211430 0.179368 -0.102745 0.419975 0.101227 -0.220789 -0.016222 0.076577 -0.242621 -0.143599 -0.183200 0.313380 0.210055 -0.064741 0.192751 0.166329 -0.288885 -0.262050 -0.293349 -0.089578 0.063203 -0.229111 0.185127 -0.216507 -0.111856 -0.093689 0.022877 -0.000372 -0.099657 0.137330 -0.164766 0.057916 0.059415 -0.006227 0.238765 -0.084630 -0.189290 0.078771 -0.039915 -0.134130 0.000847 0.232338 0.261107 0.110729 0.062899 -0.127934 0.151764 -0.474164 0.178030 0.242231 0.062156 -0.580405 0.106519 0.087588 -0.328045 0.055754 0.321645 0.255862 0.261567 -0.223589 -0.244989 0.036028 0.011247 0.100166 0.223603 -0.280354 0.123592 0.009624 0.499108 -0.685553 -0.049360 -0.036443 0.060258 0.327242 0.353584 -0.149571 0.467295 0.343068 0.548122 0.019515 -0.127358 -0.040016 0.300397 0.129907 -0.008976 0.662406 -0.402800 0.499758 -0.061560 0.417165 -0.246403 -0.221562 0.136127 -0.107509 -0.159032 0.184223 -0.489446 0.305974 -0.093559 -0.554860 -0.197855 -0.424851 -0.402751 -0.304837 0.063439 -0.367967 -0.187242 0.349966 0.060606 0.099766 0.127754 -0.280256 0.248148 0.128989 -0.241883 -0.179114 -0.274945 0.050024 0.359726 -0.310548 -0.279257 -0.086896 -0.143716 0.178475 0.255980 -0.320243 0.425075 -0.331123 -0.113379 -0.019120 -0.065386 -0.005471 0.074961 0.181792 0.139141 0.065496 -0.013890 -0.138079 0.260562 -0.104309 -0.123308 -0.073968 -0.161212 0.121044 0.239509 -0.205292 -0.273177 0.152708 -0.332606 -0.034363 0.136090 0.190615 0.100480 -0.283783 0.078097 0.280831 -0.295351 0.164889 -0.120581 -0.281077 0.148478 
JoeBiden 0.471725 -0.159235 0.198069 0.173514 1.041127 0.099478 0.144797 -0.027533 0.025282 -0.128240 -0.231015 0.101461 0.034554 0.387072 -0.133980 -0.063554 -0.029298 0.006441 0.032233 0.113334 0.081223 -0.043531 0.074655 -0.047073 0.107639 -0.240032 -0.033870 0.119989 -0.172680 -0.549589 -0.708177 0.454842 0.262735 -0.127506 1.152122 0.741012 -0.232987 -0.360488 -0.281930 -0.377868 0.012099 -0.078226 0.415162 0.124971 -0.179872 0.079134 0.178447 -0.407840 -0.052636 -0.163530 0.395095 0.117099 -0.079920 0.306821 0.140045 -0.294399 -0.106654 -0.038168 0.072295 0.025761 0.004874 0.106084 -0.006677 -0.048907 -0.068415 -0.050513 -0.078758 0.036181 -0.178588 0.139578 -0.180789 -0.079933 0.172515 0.369297 -0.228496 -0.093825 0.220536 0.095507 -0.166664 -0.077369 0.398457 0.120770 0.118046 0.255756 0.056195 0.104185 -0.569149 0.140983 0.066181 0.020627 -0.576815 0.015688 0.199417 -0.188023 0.104440 0.221331 0.211423 0.118912 -0.269440 -0.114959 -0.086996 0.099797 0.119135 0.141554 -0.220418 0.115844 0.212865 0.115982 -0.185310 -0.008526 0.198552 0.234158 0.008535 -0.018640 -0.050737 0.250232 0.094417 0.181615 0.061669 0.105829 0.076132 0.404535 0.241717 0.209846 0.754832 -0.565733 0.558788 -0.065601 0.820447 -0.389878 -0.551365 0.036519 -0.097730 -0.432143 0.200546 -0.834120 0.344728 0.073942 -0.542024 -0.078506 -0.373697 -0.428103 -0.221033 0.061999 -0.321892 -0.186466 0.274890 0.021249 0.060069 0.339628 -0.164902 0.284224 0.601946 -0.481478 -0.235746 -0.403583 -0.190629 0.689032 -0.521253 -0.483897 -0.204825 -0.263826 0.297330 0.337963 -0.629092 0.665986 -0.436050 -0.261328 0.087188 -0.521733 0.101070 0.461376 0.667598 0.505280 0.037066 -0.230170 -0.313925 0.354286 -0.042550 -0.042865 -0.321138 -0.206710 0.212746 0.374637 -0.565451 -0.767646 0.158740 -0.809521 -0.321512 0.326969 0.516869 0.293918 -0.505683 0.086552 0.706543 -0.788748 0.665165 -0.424540 -0.456167 0.253209 
Kamala 0.718773 -0.178889 0.091461 0.060587 0.702855 0.100897 -0.089650 -0.148130 0.108895 -0.107409 -0.321291 0.037793 0.033256 0.258211 -0.064916 -0.109890 0.016036 -0.115019 0.073374 -0.160169 -0.217590 -0.110120 -0.078986 0.098618 0.128434 -0.183313 -0.058308 0.146364 -0.147395 -0.500443 -0.629703 0.450775 0.212658 -0.148878 1.075758 0.700300 -0.238407 -0.377963 -0.205030 -0.339823 -0.079876 -0.042602 0.296661 0.114036 -0.111062 0.119614 0.198513 -0.363628 0.001671 -0.109828 0.305533 -0.001915 -0.062242 0.298794 0.075821 -0.206207 -0.029672 0.042489 0.124930 -0.035580 0.063616 0.038467 0.062716 0.003436 -0.103651 -0.076596 -0.086888 0.033843 -0.139397 0.134902 -0.171584 -0.080298 0.192757 0.442189 -0.264505 -0.140388 0.240475 0.095160 -0.220901 -0.099889 0.436840 0.171934 0.159819 0.276420 0.041885 0.129792 -0.667624 0.201135 0.061385 0.020087 -0.640763 0.009587 0.178437 -0.114715 0.099863 0.142400 0.225623 0.097108 -0.287797 -0.113909 -0.101474 0.094881 0.141457 0.168267 -0.356178 0.173552 0.248781 0.300524 -0.475460 -0.028065 0.238590 0.306412 0.073936 0.036879 -0.083304 0.379752 0.170316 0.303112 0.084187 0.108420 0.080350 0.421045 0.271380 0.233451 0.780227 -0.605028 0.612085 -0.090474 0.861601 -0.402919 -0.597752 0.051174 -0.065195 -0.451640 0.212967 -0.852787 0.424703 0.057757 -0.657471 -0.117558 -0.435102 -0.534675 -0.274874 0.065787 -0.391110 -0.226237 0.328558 0.027626 0.076477 0.394974 -0.222012 0.325107 0.598991 -0.411570 -0.189767 -0.314124 -0.228046 0.607005 -0.451807 -0.408639 -0.184910 -0.246785 0.293499 0.297133 -0.599779 0.606796 -0.351492 -0.227701 0.045443 -0.404339 0.050497 0.403130 0.536826 0.374983 -0.033352 -0.216021 -0.266586 0.318282 -0.001918 -0.030141 -0.377550 -0.158705 0.143927 0.310988 -0.651049 -0.852284 0.209759 -0.945683 -0.381825 0.351880 0.595898 0.332342 -0.684949 0.109981 0.826305 -1.025822 0.803163 -0.549530 -0.581338 0.342977 
SocialDemocracy 0.395691 -0.108362 0.193651 0.174583 0.875807 0.050693 0.221486 0.153922 -0.067118 -0.367966 -0.370699 0.363433 0.059926 0.810090 -0.327842 -0.053671 -0.104722 0.158929 0.013070 0.474740 0.450058 0.019800 0.280626 -0.242812 0.078304 -0.159875 -0.003426 0.067142 -0.128535 -0.366479 -0.482558 0.302732 0.171506 -0.062611 0.766572 0.482486 -0.128698 -0.227157 -0.184328 -0.252087 0.001422 -0.035093 0.206903 0.052624 -0.085494 0.044756 0.101531 -0.203992 -0.030673 -0.083850 0.212056 0.053153 -0.031141 0.175695 0.082709 -0.156804 -0.216108 -0.227294 -0.007258 0.049751 -0.129412 0.167758 -0.118595 -0.096885 -0.136339 -0.006790 -0.051095 -0.070251 0.031813 -0.056493 -0.061065 0.009540 0.092799 0.344991 -0.178233 -0.149680 0.183875 0.037126 -0.164410 -0.035241 0.369846 0.222081 0.132387 0.188170 -0.030269 0.144912 -0.608409 0.175764 0.116096 0.030288 -0.549045 0.033869 0.146929 -0.201744 0.075876 0.216940 0.157441 0.084014 -0.177780 -0.093163 -0.048622 0.046975 0.086444 0.124258 -0.280493 0.144799 0.151107 0.310465 -0.442341 -0.018603 0.122619 0.187792 0.188437 0.169289 -0.102311 0.413218 0.232039 0.385995 0.048633 0.003697 0.038792 0.324296 0.182989 0.129233 0.591707 -0.438414 0.461794 -0.054990 0.545119 -0.280784 -0.359660 0.046976 -0.073246 -0.280377 0.128426 -0.543032 0.410666 -0.014409 -0.669631 -0.162985 -0.472718 -0.536316 -0.301517 0.061179 -0.395493 -0.227120 0.347098 0.065339 0.111421 0.291230 -0.280699 0.323332 0.503421 -0.510242 -0.265422 -0.471375 -0.104767 0.728845 -0.544960 -0.508195 -0.211798 -0.313878 0.312840 0.448245 -0.702834 0.808855 -0.557323 -0.274123 0.043404 -0.357738 0.082577 0.305894 0.470457 0.353718 0.036307 -0.148243 -0.280566 0.373047 -0.077305 -0.069616 -0.273870 -0.238425 0.224761 0.401985 -0.499261 -0.668222 0.172166 -0.737512 -0.247338 0.276522 0.447817 0.261994 -0.601984 0.129387 0.750336 -0.789836 0.578990 -0.412326 -0.466771 0.259575 
demsocialist 0.261839 -0.068266 0.159597 0.124237 0.652947 0.030244 0.278520 0.151522 -0.103281 -0.343500 -0.301492 0.322821 0.064549 0.747034 -0.316025 -0.035528 -0.137412 0.222539 -0.005200 0.612151 0.585927 0.041711 0.355790 -0.316429 0.059093 -0.106944 0.014763 0.044240 -0.077217 -0.236109 -0.320068 0.189413 0.101726 -0.020149 0.491823 0.301499 -0.068126 -0.142626 -0.108060 -0.145021 0.077915 -0.088355 0.333277 0.073611 -0.132082 0.031699 0.109346 -0.247149 -0.074695 -0.121996 0.283803 0.114196 -0.019938 0.201548 0.144915 -0.208360 0.022709 0.026063 0.047951 -0.023950 0.043956 -0.015324 0.041516 0.009123 -0.024244 -0.006265 -0.005431 -0.007437 -0.017342 0.026233 -0.028571 0.003954 0.046153 0.302576 -0.135631 -0.152615 0.157384 -0.000591 -0.131061 -0.001041 0.337064 0.245353 0.129048 0.141337 -0.051770 0.145084 -0.589316 0.167613 0.109261 0.034952 -0.420264 0.033313 0.106144 -0.196971 0.046089 0.192579 0.178051 0.112876 -0.163560 -0.111879 -0.011724 0.009399 0.062723 0.137275 -0.268856 0.143690 0.090256 0.386022 -0.544412 -0.017722 0.068781 0.122233 0.255005 0.233669 -0.113914 0.415119 0.265556 0.424493 0.026972 -0.063397 0.001538 0.298223 0.150904 0.064373 0.549022 -0.383056 0.441023 -0.049498 0.411499 -0.246657 -0.241329 0.076000 -0.073492 -0.208808 0.096376 -0.420586 0.280136 -0.039959 -0.440986 -0.114982 -0.311743 -0.376072 -0.188612 0.033940 -0.259674 -0.147572 0.216739 0.064287 0.099276 0.170168 -0.200250 0.201428 0.390074 -0.472156 -0.249919 -0.471028 -0.043706 0.677926 -0.496068 -0.465908 -0.204225 -0.344897 0.309620 0.519919 -0.727084 0.876812 -0.635158 -0.274420 0.043411 -0.454596 0.156404 0.352655 0.609553 0.475187 0.125463 -0.130718 -0.408447 0.572350 -0.187656 -0.142121 -0.295393 -0.420917 0.363154 0.653074 -0.392298 -0.510051 0.153448 -0.583575 -0.157647 0.201476 0.333925 0.205767 -0.542408 0.111180 0.577530 -0.631501 0.425579 -0.350312 -0.394691 0.220490 
BetoORourke 0.174441 -0.052944 0.188504 0.125320 0.543143 0.032917 0.212083 0.033118 -0.040798 -0.194877 -0.194320 0.213579 0.025259 0.482941 -0.181157 -0.023880 -0.091499 0.141915 -0.006317 0.387246 0.396141 0.028301 0.243884 -0.209568 0.041074 -0.139698 0.015936 0.046784 -0.094424 -0.288809 -0.380013 0.216968 0.144855 -0.033146 0.534363 0.336697 -0.093318 -0.146648 -0.156119 -0.184902 0.130658 -0.113348 0.457991 0.106208 -0.199945 0.021155 0.107599 -0.318096 -0.124924 -0.183164 0.393198 0.218094 -0.049535 0.247076 0.190333 -0.306147 -0.362115 -0.413171 -0.106457 0.119809 -0.267347 0.289724 -0.255253 -0.167699 -0.211595 0.041736 -0.072189 -0.189477 0.163699 -0.227333 -0.015292 0.045279 0.054104 0.283074 -0.112417 -0.161518 0.144779 0.023098 -0.127424 -0.013204 0.296200 0.221214 0.103154 0.121884 -0.062685 0.135246 -0.515459 0.158393 0.210746 0.052772 -0.623789 0.080176 0.190856 -0.375830 0.080279 0.364593 0.259262 0.243905 -0.254209 -0.189374 -0.016233 0.045274 0.078499 0.195251 -0.247160 0.133506 0.089659 0.362497 -0.505170 -0.024929 0.050527 0.143717 0.217960 0.227389 -0.112825 0.389921 0.241470 0.390766 0.052109 -0.067729 0.015236 0.400252 0.213600 0.076071 0.814208 -0.520070 0.578958 -0.025713 0.509502 -0.287468 -0.295114 0.072046 -0.122231 -0.245007 0.153037 -0.572004 0.421802 -0.058622 -0.719281 -0.222782 -0.519640 -0.537333 -0.338487 0.061075 -0.395543 -0.214090 0.354046 0.081600 0.129780 0.228713 -0.309839 0.335390 0.326035 -0.402187 -0.207419 -0.372875 -0.031176 0.539358 -0.411552 -0.395731 -0.163501 -0.247971 0.229049 0.370606 -0.546826 0.637446 -0.467626 -0.209513 0.053747 -0.370992 0.110953 0.293044 0.494263 0.385597 0.096506 -0.125405 -0.282900 0.356701 -0.112578 -0.086040 -0.177749 -0.251364 0.242046 0.396375 -0.318751 -0.421902 0.116419 -0.445280 -0.118509 0.197779 0.268373 0.167913 -0.431152 0.102652 0.496091 -0.500138 0.357612 -0.270844 -0.320491 0.151888 
ConservativeDemocrat 0.228714 -0.095303 0.169531 0.114971 0.569297 0.055089 0.070613 0.016049 -0.012523 -0.216485 -0.244834 0.225777 0.023573 0.506273 -0.194825 -0.043268 -0.070852 0.088909 0.008457 0.279478 0.275971 0.008114 0.183840 -0.147566 0.070048 -0.171393 -0.002228 0.068931 -0.139702 -0.406081 -0.519295 0.320647 0.191677 -0.064052 0.781999 0.491846 -0.142343 -0.228811 -0.209065 -0.271352 0.084429 -0.083593 0.430942 0.114414 -0.191238 0.042475 0.129621 -0.337683 -0.098937 -0.175767 0.392556 0.173851 -0.063911 0.270704 0.167994 -0.306579 -0.418572 -0.457445 -0.098904 0.124113 -0.304832 0.335227 -0.280053 -0.187779 -0.249667 0.022036 -0.094354 -0.180467 0.151184 -0.219869 -0.047296 0.033047 0.102263 0.410383 -0.192162 -0.215301 0.211049 0.051465 -0.199869 -0.033481 0.421154 0.285383 0.158014 0.196427 -0.061952 0.182117 -0.716698 0.214880 0.246474 0.056447 -0.794320 0.094359 0.228435 -0.417934 0.106614 0.414192 0.301307 0.261841 -0.311666 -0.222985 -0.046624 0.072980 0.118252 0.228515 -0.236927 0.118812 0.122721 0.273064 -0.393693 -0.030096 0.090226 0.175435 0.143679 0.148309 -0.082400 0.343669 0.191590 0.326668 0.058557 -0.008752 0.037616 0.310763 0.178252 0.104975 0.624047 -0.425049 0.453621 -0.044118 0.498044 -0.246097 -0.326983 0.043414 -0.078087 -0.244030 0.145906 -0.525777 0.421798 -0.036200 -0.713277 -0.209400 -0.509931 -0.538479 -0.342363 0.065794 -0.411954 -0.222331 0.372203 0.063249 0.111736 0.272643 -0.298992 0.342795 0.373193 -0.363070 -0.188007 -0.314831 -0.078865 0.500082 -0.388501 -0.366282 -0.149261 -0.204426 0.217394 0.287960 -0.474801 0.530363 -0.356631 -0.183762 0.042739 -0.324265 0.068830 0.281269 0.440281 0.325961 0.045808 -0.140360 -0.242520 0.311580 -0.069527 -0.069597 -0.214779 -0.194703 0.189220 0.321306 -0.418176 -0.549834 0.153144 -0.595024 -0.192186 0.253855 0.370625 0.220515 -0.532401 0.118934 0.628939 -0.658795 0.490209 -0.343223 -0.394054 0.203704 
