15 200
BaemyKlobaechar 0.065053 -0.079676 0.049077 -0.032334 0.603375 -0.085469 0.397673 0.319383 0.037731 -0.358758 -0.210322 0.317409 -0.006059 0.580206 -0.336666 0.124346 -0.163625 0.342030 -0.024867 0.475164 0.420255 0.233812 0.234337 -0.171789 -0.106177 -0.030853 -0.203389 -0.208264 -0.450528 -0.632763 -0.744217 0.186959 0.022143 0.371310 1.214466 0.472031 -0.151788 -0.265823 -0.518419 -0.345291 0.162728 -0.003336 0.314807 0.221182 -0.352138 -0.117192 0.021033 -0.260837 -0.050530 -0.131693 0.229733 -0.058819 -0.163297 0.183070 0.121146 -0.278236 -0.631625 -0.441731 -0.311127 0.097108 -0.704290 0.389971 -0.646233 -0.211435 -0.198531 0.020563 -0.051875 -0.143354 0.247259 -0.509304 0.207269 -0.004033 -0.130461 0.218489 -0.095548 -0.214579 0.007459 -0.052617 -0.246515 0.078633 0.254662 0.372793 0.136111 0.104952 -0.136780 0.127200 -0.590048 0.130561 0.351156 0.112394 -0.554535 0.223920 0.018150 -0.333225 -0.004130 0.351461 0.247690 0.103308 -0.256231 -0.370221 -0.040023 0.107739 0.163849 0.140740 -0.199436 0.028342 -0.126278 0.399480 -0.674312 -0.240151 -0.074317 -0.008019 0.219541 0.276079 -0.011142 0.594600 0.331140 0.715798 -0.034771 -0.112709 -0.090772 0.274933 -0.094387 -0.100263 0.736549 -0.403441 0.682527 -0.445911 0.374044 -0.081872 -0.146262 0.264671 0.134705 -0.171282 0.300113 -0.235656 0.335791 -0.241512 -0.477105 -0.358754 -0.353582 -0.547760 -0.528945 0.221596 -0.605440 -0.246600 0.571284 -0.000659 0.013101 0.206005 -0.159997 0.076936 0.262822 0.056314 -0.137600 -0.136546 -0.099319 0.160615 -0.282048 -0.068338 0.010148 -0.128808 0.289561 0.215009 -0.102726 0.182152 -0.085978 -0.050482 -0.055784 -0.003571 -0.043143 0.175614 0.197604 0.140546 -0.039429 -0.092734 -0.056854 0.295312 -0.108626 -0.122452 -0.158389 -0.098923 -0.082014 0.149786 0.017064 0.007279 -0.002030 -0.106679 -0.205667 -0.006682 0.143869 0.001781 0.071050 -0.177919 -0.043777 -0.041892 0.195335 -0.005690 -0.074473 0.091028 
politics 0.073655 -0.291734 0.515320 0.084878 0.627446 -0.128253 0.367863 0.364794 -0.113307 -0.418331 -0.043470 0.507196 -0.021212 0.495083 -0.353596 0.181351 -0.153105 0.377062 -0.056585 0.564751 0.569469 0.286288 0.300798 -0.211209 -0.066508 -0.043698 -0.027033 -0.137596 -0.290635 -0.388040 -0.471167 0.090068 0.078484 0.067953 0.253358 0.083531 -0.002339 -0.003021 -0.153229 -0.114904 0.298359 -0.021794 0.350734 0.176612 -0.334390 -0.150062 -0.070418 -0.103680 -0.211159 -0.222228 0.259288 0.241349 -0.167409 0.106078 0.156231 -0.373921 -0.457308 -0.377755 -0.300873 0.075282 -0.532985 0.256057 -0.504614 -0.171820 -0.027147 0.033097 0.017322 -0.075495 0.209781 -0.336163 0.178883 0.049472 -0.165152 0.296329 -0.061243 -0.384383 -0.041124 -0.124687 -0.247566 0.074010 0.192142 0.552189 0.153743 -0.002015 -0.343208 0.265048 -0.669493 0.239524 0.399488 0.094414 -0.497932 0.245983 -0.053396 -0.308415 -0.023635 0.364233 0.248457 0.285085 -0.258195 -0.434626 0.011341 0.085450 0.146233 0.149967 -0.124153 0.016439 -0.150989 0.339088 -0.541822 -0.178168 -0.150952 -0.037494 0.259894 0.438498 -0.053952 0.581555 0.389856 0.771743 -0.039065 -0.191790 -0.059475 0.138629 -0.032227 -0.091781 0.416643 -0.224632 0.343615 -0.152919 0.195088 -0.083637 -0.031804 0.140086 0.024823 -0.064643 0.206310 -0.222453 0.312701 -0.326450 -0.596906 -0.467155 -0.489536 -0.512019 -0.606867 0.236697 -0.507507 -0.215361 0.541232 0.014775 -0.005925 0.036876 -0.232819 0.103990 0.042296 -0.083829 -0.393890 -0.455693 0.203912 0.391840 -0.578773 -0.339128 -0.036335 -0.195073 0.423281 0.519219 -0.252346 0.547025 -0.471846 -0.134813 -0.162996 -0.165228 0.057971 0.329835 0.847679 0.609762 0.259026 -0.070381 -0.096823 0.492563 -0.293098 -0.312761 0.030404 -0.251441 0.071298 0.356852 -0.013645 -0.123493 0.363108 -0.309843 0.107092 0.222711 0.240862 0.045673 -0.406020 0.109605 0.398323 -0.405032 0.147668 -0.060323 -0.671893 0.312033 
YangForPresidentHQ 0.034115 -0.014235 -0.013874 -0.030937 0.593780 -0.084366 0.254315 0.049031 -0.138950 -0.483280 -0.050480 0.529934 0.004362 0.573178 -0.384328 0.197458 -0.155618 0.407671 -0.112325 0.614467 0.612088 0.302055 0.272482 -0.223705 -0.089232 -0.045749 -0.063893 -0.172217 -0.338566 -0.500772 -0.572733 0.114446 0.070911 0.232583 0.678081 0.245730 -0.057080 -0.109953 -0.322902 -0.210278 0.159600 -0.023738 0.249650 0.147649 -0.235771 -0.092068 -0.021955 -0.115493 -0.156702 -0.189717 0.287193 0.127788 -0.157539 0.141712 0.169112 -0.349243 -0.408239 -0.323328 -0.251658 0.073108 -0.489218 0.258983 -0.450115 -0.131146 -0.136867 0.031157 -0.019695 -0.139761 0.280640 -0.476042 0.235598 0.030572 -0.175003 0.277921 -0.059928 -0.377816 -0.035022 -0.117713 -0.280313 0.077311 0.167559 0.417944 0.134596 0.019792 -0.233054 0.176420 -0.530287 0.187315 0.358996 0.098143 -0.481707 0.236287 -0.055816 -0.292024 -0.020599 0.321306 0.321240 0.347183 -0.326515 -0.524435 0.044033 0.085737 0.200548 0.221034 -0.087672 -0.016591 -0.138547 0.306789 -0.470466 -0.154186 -0.141152 -0.064164 0.146698 0.237708 -0.033801 0.304551 0.236309 0.437056 -0.015660 -0.128585 -0.078201 0.144288 -0.053664 -0.143968 0.456971 -0.203670 0.376365 -0.201322 0.212108 -0.091417 -0.029457 0.203868 -0.002341 -0.064631 0.237936 -0.231438 0.157330 -0.164043 -0.282959 -0.223912 -0.224508 -0.263766 -0.288304 0.108062 -0.339269 -0.125592 0.334183 0.028365 0.025622 0.033306 -0.141948 0.048922 0.022844 -0.087419 -0.269027 -0.366659 0.166569 0.312033 -0.460635 -0.243089 0.001128 -0.177420 0.322869 0.417517 -0.169113 0.392006 -0.329794 -0.059378 -0.105446 -0.116706 0.060255 0.254301 0.565398 0.417590 0.186645 -0.035755 -0.133749 0.555200 -0.341728 -0.322307 0.027483 -0.304585 0.053421 0.383804 -0.011640 -0.108757 0.436839 -0.421644 0.071645 0.216218 0.292014 0.063012 -0.320037 0.047957 0.360874 -0.350719 0.144910 -0.069010 -0.507408 0.249327 
SandersForPresident -0.003142 -0.047414 0.210872 0.073424 0.593724 -0.147033 0.375307 0.296950 -0.101744 -0.360983 -0.037595 0.387918 0.001431 0.433397 -0.297152 0.144257 -0.112194 0.268168 -0.050614 0.406215 0.389564 0.194643 0.196521 -0.143011 -0.065201 -0.018208 -0.069419 -0.125814 -0.248476 -0.345040 -0.395445 0.081825 0.046756 0.191116 0.595995 0.230650 -0.056614 -0.091808 -0.280455 -0.189973 0.243050 -0.030373 0.307025 0.165441 -0.333018 -0.140990 -0.037882 -0.148318 -0.125406 -0.163476 0.205092 0.111942 -0.139559 0.117756 0.120747 -0.272739 -0.353094 -0.284088 -0.215472 0.067123 -0.425076 0.199848 -0.398540 -0.118759 -0.084455 0.037313 0.018666 -0.112417 0.241452 -0.368748 0.213086 0.059156 -0.131012 0.184980 -0.026577 -0.261124 -0.032462 -0.085622 -0.195460 0.050661 0.124029 0.314684 0.079987 -0.000432 -0.199802 0.137553 -0.380476 0.145021 0.302132 0.084436 -0.387719 0.186889 -0.035905 -0.256952 -0.013114 0.271328 0.234212 0.265671 -0.232064 -0.392373 0.045905 0.076334 0.127656 0.182832 -0.138289 -0.023727 -0.222845 0.466195 -0.684312 -0.214097 -0.237241 -0.110435 0.210226 0.318919 -0.052087 0.361238 0.278933 0.541042 -0.039661 -0.173799 -0.141493 0.259136 -0.100679 -0.230980 0.826990 -0.368681 0.668114 -0.354750 0.381703 -0.142074 -0.071259 0.365561 -0.013812 -0.092515 0.424578 -0.405772 0.301583 -0.332684 -0.562822 -0.436380 -0.467517 -0.481230 -0.581918 0.206638 -0.547116 -0.227018 0.559666 0.033164 0.030997 -0.014641 -0.263736 0.093395 0.022960 -0.070109 -0.243389 -0.307286 0.138788 0.269559 -0.411771 -0.208906 -0.007919 -0.120397 0.254931 0.290070 -0.114376 0.291466 -0.246253 -0.041350 -0.116648 -0.125461 0.048876 0.263248 0.618630 0.458285 0.205791 -0.043075 -0.141697 0.538189 -0.318519 -0.318702 0.014818 -0.281448 0.056458 0.369572 -0.016731 -0.108328 0.361313 -0.364422 0.037374 0.185552 0.266219 0.036674 -0.412274 0.045594 0.434260 -0.432768 0.212542 -0.063716 -0.674407 0.336786 
centerleftpolitics 0.037540 -0.019746 -0.106551 -0.038176 0.347994 -0.048698 0.266280 0.312097 0.048467 -0.271595 -0.183982 0.241949 -0.005561 0.469842 -0.265605 0.103949 -0.112363 0.252866 -0.005490 0.352497 0.295978 0.177171 0.154231 -0.127059 -0.063244 -0.025913 -0.168073 -0.116202 -0.280777 -0.375513 -0.473813 0.128519 -0.022904 0.237187 0.788039 0.305675 -0.117647 -0.192465 -0.324210 -0.206013 0.067161 0.014828 0.158490 0.151453 -0.205741 -0.067064 0.026587 -0.201718 -0.012564 -0.079326 0.153838 -0.093853 -0.122684 0.142420 0.073794 -0.193545 -0.746091 -0.526845 -0.375926 0.122908 -0.829836 0.445283 -0.763470 -0.259942 -0.225634 0.046365 -0.043859 -0.188830 0.359735 -0.707328 0.319332 0.017682 -0.218955 0.293176 -0.092302 -0.332265 -0.010108 -0.106149 -0.308455 0.116827 0.294510 0.536593 0.159787 0.084544 -0.257089 0.195481 -0.747712 0.193285 0.441503 0.132795 -0.650376 0.283191 0.014201 -0.400581 -0.016075 0.429963 0.320164 0.190513 -0.337465 -0.513945 -0.035328 0.133874 0.196401 0.191602 -0.212923 0.037630 -0.113562 0.399694 -0.682870 -0.241216 -0.065516 -0.004896 0.239681 0.300320 -0.020254 0.653295 0.371521 0.779957 -0.031804 -0.115789 -0.071955 0.250837 -0.080063 -0.066216 0.656653 -0.375883 0.626663 -0.412010 0.318585 -0.050020 -0.135838 0.192435 0.165377 -0.170453 0.225201 -0.164813 0.336420 -0.252318 -0.478297 -0.366001 -0.356626 -0.553463 -0.529125 0.243172 -0.611067 -0.253578 0.582550 0.000560 0.002836 0.196035 -0.163286 0.078608 0.295445 0.043936 -0.301111 -0.320759 -0.038782 0.322876 -0.527968 -0.199878 0.000172 -0.228264 0.508694 0.449238 -0.211922 0.416615 -0.288492 -0.121236 -0.125021 -0.058937 -0.027696 0.319043 0.527860 0.375094 0.035267 -0.133174 -0.088355 0.485913 -0.213322 -0.223331 -0.160033 -0.178847 -0.079560 0.288701 0.030289 0.005554 0.016180 -0.119558 -0.224064 0.020953 0.172976 0.005868 0.002672 -0.189394 0.031853 -0.119382 0.244983 -0.015467 -0.231627 0.168250 
Pete_Buttigieg 0.110846 -0.282501 0.303075 -0.045370 0.513947 -0.060707 0.242601 -0.026779 0.015685 -0.341920 -0.160906 0.357620 -0.015773 0.501191 -0.318900 0.117809 -0.163262 0.318954 -0.040317 0.470091 0.447515 0.215719 0.261398 -0.160808 -0.077455 0.020716 -0.121619 -0.193645 -0.409474 -0.612093 -0.654890 0.152884 0.054587 0.187831 0.762568 0.285853 -0.081587 -0.167986 -0.286968 -0.222862 0.059701 0.004620 0.240474 0.181312 -0.205451 -0.015980 0.060945 -0.178466 -0.025254 -0.088022 0.133719 -0.055874 -0.128501 0.116118 0.032823 -0.182033 -0.470239 -0.332006 -0.246665 0.051333 -0.537318 0.311660 -0.494516 -0.147013 -0.159107 -0.008909 -0.044418 -0.116042 0.246052 -0.464343 0.194118 -0.004019 -0.125192 0.340941 -0.119297 -0.401928 -0.036684 -0.117773 -0.334018 0.042280 0.169541 0.320459 0.144959 0.063348 -0.138186 0.150633 -0.485404 0.160116 0.288512 0.088781 -0.493137 0.204385 -0.052774 -0.255585 0.008696 0.305058 0.258313 0.209448 -0.284535 -0.417095 0.005002 0.092595 0.225990 0.157002 -0.108924 0.006156 -0.071297 0.209321 -0.383887 -0.158989 -0.024095 0.010633 0.091595 0.159280 -0.005292 0.359407 0.212091 0.457576 -0.014989 -0.038781 -0.074384 0.168167 -0.061064 -0.082816 0.500819 -0.290902 0.469011 -0.296830 0.338105 -0.095793 -0.124990 0.269487 0.084446 -0.130021 0.343420 -0.300664 0.206069 -0.150233 -0.319546 -0.246220 -0.251102 -0.343626 -0.355215 0.148838 -0.328735 -0.109926 0.323879 -0.026844 -0.024004 0.168844 -0.046707 0.036061 0.141754 -0.057177 -0.386687 -0.461765 0.157903 0.418746 -0.648562 -0.331444 -0.011230 -0.233912 0.512248 0.555872 -0.259391 0.555489 -0.427756 -0.104770 -0.109078 -0.048593 -0.037534 0.259540 0.451018 0.306992 0.066952 -0.086412 -0.045437 0.338123 -0.146070 -0.194067 -0.123487 -0.138131 -0.052567 0.182805 -0.017627 -0.115531 0.446328 -0.468349 -0.042931 0.228150 0.391621 0.051351 -0.271001 -0.025526 0.193054 -0.243848 0.169070 -0.024239 -0.404794 0.236779 
moderatepolitics 0.036786 -0.101004 0.204147 0.065469 0.527823 -0.146596 0.367313 0.172845 -0.065948 -0.248932 -0.013940 0.283469 -0.010441 0.284722 -0.213767 0.094865 -0.101115 0.233307 -0.043078 0.383844 0.377930 0.177180 0.200167 -0.132354 -0.081574 -0.015423 -0.050916 -0.197433 -0.386851 -0.548385 -0.605421 0.117815 0.101413 0.220963 0.697917 0.257522 -0.034968 -0.075456 -0.346919 -0.242694 0.243195 -0.027019 0.338887 0.186318 -0.321796 -0.107933 -0.021147 -0.130124 -0.152654 -0.195037 0.219420 0.150634 -0.164516 0.113579 0.131400 -0.305011 -0.468236 -0.369028 -0.287274 0.060946 -0.557498 0.267994 -0.521012 -0.150544 -0.098562 0.023542 0.010439 -0.126850 0.304169 -0.470674 0.249918 0.053851 -0.184074 0.333460 -0.057246 -0.470387 -0.081895 -0.165551 -0.328441 0.060843 0.145585 0.453886 0.132885 -0.025930 -0.306340 0.228887 -0.548769 0.233799 0.462218 0.122274 -0.620007 0.293498 -0.104022 -0.372213 -0.011198 0.431587 0.393128 0.462767 -0.393653 -0.663559 0.077800 0.117646 0.262660 0.286110 -0.102200 -0.022073 -0.193913 0.359148 -0.559951 -0.196947 -0.191729 -0.077935 0.169466 0.326328 -0.048561 0.358501 0.265026 0.537169 -0.042503 -0.141362 -0.123574 0.204880 -0.079077 -0.170931 0.691454 -0.355144 0.573530 -0.305366 0.354542 -0.112583 -0.096115 0.306568 0.043037 -0.086718 0.423013 -0.395799 0.157154 -0.165301 -0.323541 -0.249132 -0.274640 -0.253435 -0.336116 0.133233 -0.281825 -0.111426 0.303137 -0.011182 -0.018821 0.029509 -0.102401 0.048708 0.030912 -0.074053 -0.377820 -0.423434 0.213778 0.362790 -0.563985 -0.339260 -0.033816 -0.117445 0.316133 0.349670 -0.191917 0.390638 -0.322971 -0.102098 -0.122540 -0.081907 -0.025770 0.255757 0.576683 0.399372 0.135143 -0.077728 -0.086448 0.477102 -0.260929 -0.310810 -0.036662 -0.216365 0.020376 0.301922 -0.010122 -0.076102 0.273248 -0.228510 0.042797 0.159553 0.206485 0.033667 -0.273445 0.056729 0.241661 -0.258157 0.111702 -0.010394 -0.419618 0.219846 
ElizabethWarren 0.043378 -0.020096 -0.107795 -0.038491 0.653950 -0.074592 0.366603 0.260848 0.042283 -0.294794 -0.196450 0.237689 -0.007574 0.473265 -0.262582 0.099316 -0.137526 0.279574 -0.006816 0.337599 0.303882 0.182447 0.172238 -0.139720 -0.050806 -0.038446 -0.154892 -0.070177 -0.207152 -0.284611 -0.378801 0.115937 -0.040737 0.203353 0.658323 0.257020 -0.123421 -0.197124 -0.267865 -0.165515 0.083794 0.004460 0.181134 0.143856 -0.214977 -0.081031 0.004518 -0.171644 -0.042804 -0.086561 0.199571 -0.055177 -0.105435 0.147946 0.113365 -0.220015 -0.444128 -0.306444 -0.222749 0.081681 -0.486126 0.274677 -0.444153 -0.150336 -0.145007 0.019867 -0.057885 -0.095959 0.143273 -0.342512 0.122640 -0.030570 -0.106415 0.145734 -0.074902 -0.110626 0.036843 -0.003923 -0.159973 0.084656 0.254650 0.391599 0.137354 0.109530 -0.135364 0.117090 -0.602449 0.120771 0.262119 0.084789 -0.403426 0.158888 0.059624 -0.255518 -0.024000 0.245351 0.192216 0.042555 -0.201386 -0.262959 -0.064324 0.081606 0.093234 0.092454 -0.151455 0.030636 -0.100646 0.332941 -0.562563 -0.184007 -0.060369 0.001488 0.208817 0.253666 -0.008581 0.525072 0.290795 0.601483 -0.015354 -0.127782 -0.077724 0.247871 -0.073381 -0.120556 0.658586 -0.331525 0.580232 -0.352747 0.291705 -0.088776 -0.077995 0.217569 0.081614 -0.140336 0.229163 -0.193742 0.367426 -0.305873 -0.578179 -0.437465 -0.427605 -0.605155 -0.609269 0.234686 -0.672113 -0.273083 0.640539 0.030747 0.039739 0.158767 -0.235818 0.092525 0.188440 0.000086 -0.168332 -0.207097 -0.021035 0.201896 -0.325827 -0.116296 0.007880 -0.166325 0.312857 0.324254 -0.148486 0.281210 -0.194988 -0.059332 -0.057222 -0.032112 0.007460 0.182457 0.256006 0.192819 0.008079 -0.073364 -0.054557 0.216782 -0.098909 -0.071049 -0.097825 -0.086884 -0.057413 0.119692 0.009664 -0.049624 0.181020 -0.271651 -0.143002 0.099693 0.250287 0.034448 -0.102140 -0.129509 0.168188 -0.234231 0.251901 -0.053104 -0.350208 0.206866 
progressive 0.053762 -0.208419 0.325210 0.064755 0.538648 -0.094116 0.288244 0.288679 -0.111852 -0.417026 -0.027667 0.503226 -0.007341 0.496059 -0.343993 0.194420 -0.085641 0.240418 -0.040201 0.366465 0.358181 0.194706 0.163625 -0.124869 -0.088914 -0.061611 -0.053228 -0.160946 -0.304281 -0.386997 -0.474813 0.093736 0.097712 0.225567 0.646341 0.238074 -0.035495 -0.055263 -0.349057 -0.236221 0.424946 -0.030618 0.496417 0.247097 -0.531786 -0.255105 -0.103045 -0.186954 -0.255600 -0.283871 0.358260 0.260415 -0.218652 0.162186 0.240745 -0.489169 -0.593420 -0.483590 -0.380492 0.098776 -0.696911 0.334685 -0.669816 -0.214854 -0.075357 0.054844 0.031216 -0.137648 0.311196 -0.499327 0.273392 0.101885 -0.229168 0.197278 0.031480 -0.310705 -0.040160 -0.126806 -0.201872 0.108425 0.129389 0.413435 0.044167 -0.048186 -0.267763 0.166457 -0.430332 0.140577 0.388887 0.113008 -0.436033 0.213182 -0.029015 -0.337704 -0.046843 0.342495 0.208340 0.232248 -0.184550 -0.348669 0.043712 0.062217 0.065677 0.170648 -0.113302 0.000447 -0.209439 0.401726 -0.576156 -0.179400 -0.206716 -0.090482 0.275202 0.389254 -0.032711 0.498283 0.334581 0.679647 -0.067029 -0.214754 -0.045711 0.101275 -0.058175 -0.067524 0.269241 -0.122905 0.212075 -0.115444 0.043419 -0.025641 0.001875 0.044956 -0.009737 -0.031890 0.024490 -0.026848 0.221398 -0.247903 -0.414147 -0.305220 -0.332437 -0.385550 -0.426959 0.152652 -0.378198 -0.169787 0.388964 0.019930 0.021587 0.023102 -0.174993 0.045852 0.059328 -0.042641 -0.218734 -0.261538 0.085416 0.240955 -0.356089 -0.166991 -0.000311 -0.151416 0.307311 0.352463 -0.132524 0.344838 -0.298091 -0.054204 -0.067306 -0.093658 0.054199 0.170118 0.415065 0.328644 0.154024 -0.026182 -0.078291 0.326668 -0.190181 -0.186584 0.011652 -0.186373 0.037722 0.235028 0.028236 -0.011226 0.084540 -0.091538 0.008425 0.023254 0.042589 0.015162 -0.186180 0.033109 0.247951 -0.230194 0.103157 -0.049432 -0.324299 0.163533 
JoeBiden 0.122080 -0.145322 -0.128609 -0.126097 0.374554 -0.037094 0.382156 0.286995 0.234099 -0.282336 -0.420032 0.176912 -0.031210 0.646223 -0.343220 0.055473 -0.233885 0.402884 0.034775 0.524971 0.443957 0.249687 0.305656 -0.193882 -0.088654 0.032267 -0.324226 -0.202183 -0.515423 -0.745062 -0.867235 0.252757 -0.046704 0.361181 1.437816 0.563841 -0.232528 -0.407328 -0.510551 -0.370538 -0.194832 0.070330 0.045470 0.178586 -0.062414 0.092815 0.171755 -0.312323 0.218074 0.092128 -0.006435 -0.444748 -0.082403 0.156093 -0.094415 0.040099 -0.799416 -0.491592 -0.332417 0.109824 -0.852423 0.520350 -0.747628 -0.271987 -0.313291 -0.018497 -0.145703 -0.142875 0.224211 -0.650240 0.180658 -0.111433 -0.219643 0.493261 -0.229556 -0.494319 0.003221 -0.119751 -0.512012 0.124452 0.459085 0.672485 0.286754 0.218455 -0.241624 0.261643 -1.102476 0.264331 0.331463 0.106155 -0.662489 0.238609 0.058797 -0.333873 0.021408 0.371578 0.273656 -0.028096 -0.316357 -0.384286 -0.129244 0.143860 0.238843 0.098960 -0.263475 0.091246 0.052183 0.221299 -0.556642 -0.244312 0.181788 0.158716 0.148662 0.143172 0.029148 0.764398 0.319772 0.765741 0.009296 0.032802 -0.090981 0.398699 -0.102201 -0.050517 1.014184 -0.626386 1.012529 -0.693265 0.581799 -0.085168 -0.284325 0.333046 0.334697 -0.301543 0.425091 -0.303842 0.366492 -0.137865 -0.387586 -0.291776 -0.245224 -0.591326 -0.474287 0.257358 -0.579605 -0.216411 0.508221 -0.057544 -0.038390 0.441735 0.004178 0.061023 0.535668 0.174159 -0.169604 -0.107115 -0.280519 0.166802 -0.347794 -0.057490 0.011214 -0.169622 0.424432 0.222990 -0.170107 0.170420 0.006746 -0.114076 -0.082415 0.072252 -0.168683 0.264180 0.145210 0.067078 -0.229180 -0.207797 -0.005174 0.271621 -0.005175 -0.054433 -0.370227 0.004602 -0.226480 0.063718 0.014152 0.012430 -0.006175 -0.177549 -0.415732 0.016880 0.305478 0.010559 0.129093 -0.349125 -0.148438 -0.037234 0.350812 0.018347 -0.106891 0.162516 
Kamala 0.118464 -0.174680 -0.062644 -0.090682 0.578725 -0.079840 0.471671 0.288292 0.155059 -0.375984 -0.361235 0.294490 -0.034615 0.694076 -0.392191 0.104332 -0.259387 0.495769 -0.015786 0.658697 0.598026 0.331533 0.369005 -0.252979 -0.083124 -0.003273 -0.249648 -0.193950 -0.480291 -0.694559 -0.816512 0.229142 -0.027037 0.322002 1.185418 0.455172 -0.178447 -0.326399 -0.448364 -0.310330 -0.161129 0.053827 0.031467 0.130184 -0.023005 0.080282 0.130902 -0.222135 0.171129 0.080280 0.005403 -0.347009 -0.038777 0.109655 -0.044495 0.043764 -0.727942 -0.478433 -0.343341 0.096301 -0.795887 0.470908 -0.708766 -0.238354 -0.293136 0.007871 -0.115801 -0.183563 0.328777 -0.729541 0.255335 -0.055300 -0.207022 0.429064 -0.180408 -0.442468 -0.002327 -0.104903 -0.451773 0.124550 0.363017 0.511836 0.226429 0.168564 -0.146550 0.182625 -0.861131 0.181390 0.320794 0.110084 -0.595837 0.208395 0.043812 -0.334988 0.000783 0.345278 0.277629 0.029663 -0.297561 -0.373426 -0.091588 0.120785 0.205795 0.124964 -0.232392 0.066892 -0.073869 0.359912 -0.715751 -0.274650 0.039879 0.074619 0.235707 0.290679 0.014972 0.794098 0.385754 0.877979 -0.021751 -0.088973 -0.133337 0.415157 -0.128598 -0.146154 1.106497 -0.625627 1.040072 -0.671939 0.591135 -0.142892 -0.227248 0.406347 0.234470 -0.276595 0.480726 -0.388778 0.406143 -0.244600 -0.540725 -0.408126 -0.374418 -0.668282 -0.600759 0.267343 -0.671348 -0.258215 0.614878 -0.022774 -0.003088 0.353646 -0.107832 0.081250 0.412237 0.105034 -0.173500 -0.149126 -0.179335 0.188900 -0.337636 -0.079671 0.016658 -0.145570 0.326935 0.213483 -0.139129 0.161411 -0.015573 -0.076973 -0.055509 0.049529 -0.097467 0.190553 0.086202 0.038293 -0.161021 -0.145330 -0.005414 0.203581 -0.020144 -0.042699 -0.277660 -0.019165 -0.170947 0.052577 0.005446 -0.028019 0.156790 -0.287633 -0.256731 0.083619 0.318734 0.035562 -0.058124 -0.202887 0.080402 -0.212423 0.319389 -0.041864 -0.320404 0.231532 
SocialDemocracy 0.062405 -0.139897 0.141737 -0.008361 0.800564 -0.115931 0.411038 0.232112 0.004233 -0.374979 -0.166116 0.362469 -0.005515 0.570472 -0.351878 0.147505 -0.158794 0.349363 -0.034704 0.506828 0.453298 0.249482 0.239470 -0.172024 -0.083368 -0.028921 -0.144628 -0.184843 -0.379835 -0.520215 -0.613246 0.143239 0.042050 0.345257 1.054204 0.398481 -0.101089 -0.191795 -0.465914 -0.304698 0.319664 -0.021778 0.471778 0.287272 -0.509874 -0.198583 -0.020147 -0.280422 -0.142929 -0.221829 0.318555 0.053318 -0.215331 0.205804 0.195381 -0.410449 -0.500128 -0.347448 -0.242142 0.058519 -0.552808 0.299135 -0.512248 -0.168941 -0.154795 0.025085 -0.030535 -0.129677 0.237235 -0.471226 0.202281 0.015808 -0.138607 0.249670 -0.095380 -0.256617 -0.017775 -0.088516 -0.267276 0.074910 0.204830 0.273819 0.103048 0.089241 -0.085806 0.102851 -0.466695 0.088844 0.535756 0.162948 -0.785652 0.346317 -0.052560 -0.472853 -0.017527 0.526310 0.434819 0.346853 -0.444648 -0.707015 0.019672 0.157519 0.286751 0.282185 -0.212935 0.006943 -0.236793 0.539931 -0.874255 -0.313766 -0.178744 -0.069231 0.243347 0.339705 -0.018137 0.629956 0.367894 0.804839 -0.062461 -0.144494 -0.084018 0.218969 -0.101158 -0.072618 0.577209 -0.332164 0.554416 -0.382754 0.343979 -0.081363 -0.127680 0.262366 0.128991 -0.159636 0.291966 -0.229331 0.219864 -0.147417 -0.285522 -0.211382 -0.206098 -0.370319 -0.330249 0.153413 -0.382939 -0.160932 0.353683 -0.011038 0.000998 0.171467 -0.068684 0.029128 0.202701 0.002859 -0.314589 -0.358210 0.048134 0.336750 -0.534913 -0.227001 0.005484 -0.195788 0.440472 0.424103 -0.174839 0.399108 -0.298010 -0.084783 -0.056486 0.006468 -0.051581 0.159397 0.190772 0.139088 -0.036300 -0.086488 -0.031978 0.271923 -0.104089 -0.131238 -0.135184 -0.098866 -0.079618 0.141221 0.037983 0.062918 -0.130051 0.052174 -0.201929 -0.081117 0.029123 -0.009293 0.229814 -0.178340 -0.227809 0.136464 0.080427 0.030241 0.199538 -0.037220 
demsocialist 0.063670 -0.161254 0.198159 -0.031538 0.639970 -0.090828 0.369668 0.199454 0.011516 -0.308854 -0.141032 0.312017 -0.002569 0.469010 -0.288553 0.123471 -0.120857 0.259695 -0.025598 0.373735 0.340347 0.181295 0.175661 -0.117249 -0.063437 0.002618 -0.134793 -0.131386 -0.270079 -0.384028 -0.441037 0.111149 0.012146 0.222978 0.783858 0.297849 -0.097629 -0.174227 -0.310515 -0.213067 0.269326 -0.010862 0.431345 0.275627 -0.467347 -0.174239 -0.013642 -0.281066 -0.105482 -0.189221 0.276817 0.023904 -0.216446 0.190607 0.143121 -0.360236 -0.677404 -0.500116 -0.369979 0.104008 -0.776759 0.416675 -0.719518 -0.233821 -0.171834 0.026917 -0.022618 -0.156112 0.303091 -0.569934 0.261464 0.044624 -0.159446 0.283038 -0.089415 -0.334167 -0.018526 -0.102343 -0.296588 0.069075 0.224239 0.404858 0.131780 0.081816 -0.191753 0.172921 -0.577519 0.167129 0.455427 0.132325 -0.669573 0.304445 -0.047631 -0.391082 -0.007615 0.445528 0.342152 0.294358 -0.365122 -0.574932 0.019033 0.130534 0.240015 0.228996 -0.155725 0.007327 -0.126630 0.346783 -0.554898 -0.210927 -0.096180 -0.028898 0.143746 0.203451 -0.014641 0.423374 0.253282 0.538143 -0.027323 -0.073184 -0.057344 0.155871 -0.065310 -0.058710 0.427713 -0.234721 0.403140 -0.265723 0.231869 -0.048403 -0.096103 0.175026 0.080357 -0.105356 0.199054 -0.154215 0.209974 -0.175729 -0.312079 -0.239811 -0.248015 -0.354139 -0.356225 0.152123 -0.402298 -0.157375 0.395458 -0.003826 0.001890 0.114920 -0.110702 0.042816 0.134143 -0.014612 -0.243675 -0.292255 0.055939 0.270875 -0.430492 -0.184880 0.005736 -0.153073 0.330575 0.314611 -0.128788 0.295113 -0.225879 -0.060258 -0.061561 -0.036378 -0.017096 0.172026 0.285219 0.215899 0.038180 -0.064541 -0.063809 0.333376 -0.152902 -0.166245 -0.077650 -0.142677 -0.024554 0.200691 0.019094 -0.014353 0.104638 -0.157532 -0.099534 0.037887 0.143406 0.010990 -0.057176 -0.096912 0.066012 -0.113418 0.140285 -0.005057 -0.179794 0.125903 
BetoORourke 0.074753 -0.191067 0.258686 -0.001102 0.850351 -0.126164 0.434359 0.260959 -0.070304 -0.581536 -0.166835 0.614632 -0.011510 0.773946 -0.495156 0.232144 -0.208841 0.453982 -0.069209 0.648097 0.626142 0.317713 0.327213 -0.226488 -0.062410 -0.004769 -0.135193 -0.113063 -0.264915 -0.389416 -0.454154 0.119581 0.014128 0.203502 0.739111 0.277106 -0.108778 -0.179388 -0.296333 -0.200647 0.171218 -0.004186 0.313233 0.219859 -0.328589 -0.111507 -0.001954 -0.219754 -0.067006 -0.133096 0.210303 -0.008415 -0.160445 0.147109 0.103728 -0.262955 -0.540793 -0.384744 -0.297416 0.081168 -0.612650 0.339471 -0.567956 -0.182258 -0.138787 0.017778 -0.042740 -0.120386 0.217687 -0.439607 0.179475 0.005876 -0.137915 0.301324 -0.107239 -0.334580 -0.008201 -0.080958 -0.299543 0.063410 0.234161 0.413073 0.152127 0.094721 -0.178270 0.170038 -0.610145 0.172775 0.395126 0.118302 -0.598739 0.264696 -0.027496 -0.343505 -0.011564 0.383490 0.297501 0.236166 -0.329550 -0.485964 -0.003477 0.119828 0.208261 0.182818 -0.157811 0.006835 -0.155385 0.393963 -0.642539 -0.231571 -0.118089 -0.029659 0.157523 0.234342 -0.019280 0.451851 0.269754 0.567263 -0.018951 -0.097890 -0.068870 0.178853 -0.068778 -0.081970 0.512619 -0.268034 0.454618 -0.283423 0.277800 -0.072399 -0.089922 0.223746 0.075561 -0.122378 0.259384 -0.221845 0.240064 -0.200739 -0.381421 -0.286278 -0.287680 -0.398760 -0.406736 0.164093 -0.425316 -0.165624 0.409360 0.002556 0.013045 0.125695 -0.122144 0.048139 0.140913 -0.027766 -0.256013 -0.302482 0.062423 0.282814 -0.445751 -0.197459 0.008615 -0.183898 0.379924 0.398213 -0.171322 0.368264 -0.289249 -0.063555 -0.082988 -0.071076 0.001601 0.243786 0.443533 0.335534 0.105942 -0.069869 -0.090931 0.385812 -0.201059 -0.208914 -0.060459 -0.182791 -0.017663 0.236188 0.004674 -0.051681 0.241455 -0.273576 -0.067517 0.122044 0.231961 0.038247 -0.140653 -0.071252 0.162711 -0.214862 0.181986 -0.030505 -0.326922 0.192072 
ConservativeDemocrat 0.032884 -0.072498 0.118719 0.016610 0.495838 -0.089902 0.267337 0.195284 -0.083255 -0.413693 -0.082778 0.439474 0.000684 0.535321 -0.350163 0.165823 -0.136618 0.329723 -0.061187 0.491354 0.466080 0.243111 0.230819 -0.173958 -0.075491 -0.032878 -0.084955 -0.145809 -0.285030 -0.394929 -0.464346 0.100807 0.045490 0.238790 0.707807 0.272226 -0.064794 -0.119160 -0.328938 -0.220042 0.220475 -0.021520 0.298938 0.164674 -0.323554 -0.136463 -0.029514 -0.159062 -0.138626 -0.182841 0.258091 0.103200 -0.157642 0.150661 0.157502 -0.326871 -0.347128 -0.267508 -0.196364 0.057442 -0.407193 0.208139 -0.375727 -0.120234 -0.107618 0.022577 -0.005327 -0.103630 0.207825 -0.367726 0.183039 0.032571 -0.172770 0.213475 -0.033043 -0.300434 -0.028608 -0.101420 -0.234812 0.083076 0.162641 0.366637 0.097835 0.017466 -0.204966 0.148651 -0.467015 0.146500 0.308058 0.087593 -0.406477 0.190529 -0.020904 -0.265589 -0.012937 0.277601 0.241868 0.224257 -0.227354 -0.383801 0.024932 0.072937 0.130494 0.170872 -0.118770 -0.003305 -0.158037 0.344392 -0.525660 -0.173610 -0.149752 -0.066783 0.160171 0.217273 -0.017120 0.333509 0.211596 0.438487 -0.029803 -0.110984 -0.087117 0.187946 -0.074437 -0.135155 0.556734 -0.263816 0.477300 -0.276775 0.266972 -0.092101 -0.065934 0.238696 0.023965 -0.085098 0.267515 -0.239196 0.211886 -0.194832 -0.341432 -0.266307 -0.271822 -0.343100 -0.370160 0.137056 -0.372151 -0.149768 0.367496 0.010347 0.016530 0.062284 -0.139172 0.053761 0.081977 -0.030223 -0.202759 -0.249853 0.074542 0.221557 -0.349965 -0.162981 -0.000738 -0.131286 0.271397 0.287796 -0.119211 0.275297 -0.216281 -0.049392 -0.064784 -0.053736 0.009488 0.161164 0.313980 0.235502 0.075031 -0.048514 -0.068392 0.306097 -0.157164 -0.162004 -0.043719 -0.146595 -0.002221 0.194035 0.000708 -0.035562 0.148691 -0.188721 -0.055010 0.067620 0.155171 0.017469 -0.136079 -0.042131 0.155446 -0.183132 0.144101 -0.029429 -0.281073 0.158419 
