15 200
BaemyKlobaechar 0.018396 -0.145974 0.066750 -0.018225 -0.080379 -0.005908 0.227639 0.154252 0.021332 -0.528826 -0.146837 0.434949 -0.083234 0.588831 -0.355122 0.203956 -0.220622 0.302869 -0.095541 0.333613 0.417446 0.204213 0.197831 -0.103267 -0.078581 -0.067536 -0.166124 -0.048530 -0.124338 -0.279677 -0.314102 0.128010 -0.110441 0.270099 0.508547 0.154781 -0.177702 -0.156091 -0.309550 -0.044855 0.300868 -0.045137 0.412490 0.304582 -0.487914 -0.223154 -0.137382 -0.235273 -0.103140 -0.265988 0.412798 0.084238 -0.267922 0.141459 0.388221 -0.343417 -0.553479 -0.359065 -0.510495 0.087716 -0.734759 0.342513 -0.690910 -0.100904 -0.132230 0.127471 -0.086530 -0.315070 0.403503 -0.635936 0.230411 0.100978 -0.261656 0.278559 0.110860 -0.383417 -0.060018 -0.051719 -0.382101 0.153018 0.207919 0.365368 0.016026 0.007301 -0.061207 0.083804 -0.501967 0.088411 0.372008 0.191388 -0.599166 0.206363 0.010232 -0.431598 -0.091587 0.300810 0.315408 0.169152 -0.387839 -0.374236 0.038735 0.167099 0.119710 0.221150 0.013810 -0.027513 -0.340292 0.547119 -0.886965 -0.331170 -0.165392 0.002645 0.194834 0.357404 0.019936 0.603942 0.272991 0.762581 0.000958 -0.347220 -0.120986 0.213137 -0.170272 -0.143016 0.672987 -0.199258 0.389209 -0.285518 0.282086 -0.080916 0.001349 0.365985 -0.020499 -0.123896 0.301468 -0.281080 0.250659 -0.269148 -0.486643 -0.346825 -0.292920 -0.440070 -0.491030 0.129325 -0.442886 -0.140386 0.351389 0.036350 0.126767 0.090767 -0.090218 -0.030497 0.074156 -0.022234 -0.153144 -0.141461 0.080633 0.091009 -0.297177 -0.080426 0.091114 -0.086024 0.207544 0.245546 -0.017595 0.095917 -0.100695 0.103492 0.033220 -0.096912 0.010956 0.315237 0.413368 0.450229 0.279831 -0.040232 -0.182383 0.357737 -0.298329 -0.250263 0.052068 -0.232869 -0.040726 0.114629 0.029715 -0.021696 0.568440 -0.445633 0.168521 0.232199 0.286378 0.134291 -0.304871 0.030793 0.567678 -0.584380 0.287685 -0.106152 -0.534890 0.269987 
politics 0.000724 -0.158832 0.419225 0.173574 0.832733 -0.088766 0.514249 0.226507 -0.071895 -0.462790 -0.116970 0.465758 -0.034577 0.623142 -0.344932 0.197743 -0.127641 0.265250 -0.085608 0.380915 0.425738 0.177008 0.171254 -0.149999 -0.117888 -0.226090 -0.102401 -0.160754 -0.280300 -0.511177 -0.627083 0.179006 0.010805 0.409450 0.945270 0.347851 -0.148827 -0.166498 -0.535320 -0.183394 0.297858 -0.063646 0.407968 0.191891 -0.411042 -0.205156 -0.081116 -0.223535 -0.129001 -0.215082 0.358720 0.171026 -0.172930 0.105843 0.297067 -0.351523 -0.270898 -0.218090 -0.161725 0.077501 -0.301220 0.173548 -0.283892 -0.078623 -0.082283 0.057846 -0.035539 -0.106740 0.097584 -0.143086 0.027410 0.031061 -0.158196 0.232772 0.027453 -0.237152 0.028140 -0.022193 -0.231790 0.096605 0.238698 0.361086 0.001987 0.012106 -0.141612 0.111162 -0.486835 0.085251 0.448660 0.185736 -0.654132 0.234957 0.034849 -0.497858 -0.087196 0.414850 0.384842 0.317420 -0.405637 -0.484911 0.060280 0.142189 0.096148 0.271808 -0.061895 0.022876 -0.170095 0.466402 -0.653158 -0.174385 -0.125711 -0.007560 0.182282 0.248707 -0.018847 0.394897 0.231309 0.520079 -0.017161 -0.235384 -0.059591 0.188715 -0.069194 -0.093915 0.458278 -0.174917 0.290311 -0.153294 0.227026 -0.109317 -0.017850 0.185382 -0.082560 -0.111703 0.148236 -0.226606 0.223311 -0.220506 -0.416068 -0.252710 -0.300589 -0.392868 -0.353590 0.114534 -0.411840 -0.166688 0.338144 0.095255 0.137517 0.056234 -0.171040 0.063810 0.089427 -0.170562 -0.222006 -0.382313 0.129090 0.356417 -0.502879 -0.211304 0.034086 -0.235489 0.312981 0.462067 -0.152681 0.377306 -0.337058 0.006331 0.015605 -0.151110 0.091932 0.216641 0.343482 0.316886 0.173451 -0.016724 -0.211104 0.407736 -0.288298 -0.181988 0.043162 -0.286639 0.087557 0.298236 -0.045956 -0.158786 0.498484 -0.541377 0.121365 0.244200 0.302319 0.133274 -0.343891 0.033295 0.540245 -0.482969 0.267427 -0.165368 -0.459483 0.212968 
YangForPresidentHQ 0.047759 -0.112806 0.230046 0.107676 0.450357 -0.058328 0.224714 0.193132 -0.242076 -0.715141 -0.105883 0.717406 0.009784 0.889972 -0.514032 0.292358 -0.242518 0.530973 -0.190137 0.700559 0.766169 0.330968 0.351243 -0.294281 -0.072772 -0.118115 0.030916 -0.112344 -0.166720 -0.308763 -0.363613 0.073741 0.079019 0.213442 0.498255 0.183172 -0.022455 -0.077192 -0.257848 -0.124966 0.220574 -0.075509 0.354337 0.125860 -0.285494 -0.146138 -0.050778 -0.127829 -0.170764 -0.186428 0.351904 0.195517 -0.102816 0.129076 0.236467 -0.351715 -0.356444 -0.352288 -0.295361 0.072128 -0.446984 0.266950 -0.434579 -0.099224 -0.144992 0.131033 0.048961 -0.320221 0.518617 -0.667032 0.387344 0.222330 -0.507376 0.293005 0.172477 -0.567583 -0.026122 -0.219357 -0.379769 0.290980 0.331036 0.778929 0.112367 -0.049285 -0.351389 0.231025 -0.885130 0.232328 0.459443 0.165578 -0.575274 0.243367 0.008490 -0.465518 -0.078656 0.400101 0.397557 0.397811 -0.332075 -0.507502 0.092994 0.051488 0.098024 0.300979 -0.046640 -0.015644 -0.121694 0.297532 -0.348792 -0.067001 -0.151864 -0.083391 0.139263 0.159327 -0.020494 0.113812 0.156037 0.234264 -0.040149 -0.148321 -0.109106 0.276889 -0.096410 -0.243405 0.732584 -0.264148 0.518406 -0.251861 0.345328 -0.218636 -0.004225 0.347354 -0.156349 -0.158020 0.293660 -0.381102 0.271793 -0.321556 -0.545151 -0.367994 -0.423557 -0.491245 -0.475792 0.112109 -0.444823 -0.166222 0.402275 0.120581 0.143328 0.002450 -0.254521 0.068062 -0.016688 -0.201011 -0.197812 -0.418355 0.203948 0.369167 -0.455070 -0.240551 0.011870 -0.203835 0.217174 0.418045 -0.146768 0.364433 -0.311810 -0.005985 -0.034076 -0.235288 0.191291 0.317443 0.594162 0.489658 0.297109 0.017048 -0.145353 0.368728 -0.261175 -0.174579 0.061673 -0.285066 0.103385 0.300716 -0.028637 -0.114134 0.293604 -0.330001 0.110445 0.123902 0.152333 0.053405 -0.280092 0.095438 0.395350 -0.301315 0.097368 -0.139733 -0.419736 0.176166 
SandersForPresident 0.022877 -0.089525 0.287249 0.117668 0.555116 -0.057038 0.335434 0.217146 -0.172461 -0.490171 -0.100666 0.508563 -0.003413 0.652825 -0.360813 0.197562 -0.186130 0.409992 -0.124665 0.532567 0.596831 0.252379 0.283296 -0.246502 -0.081360 -0.198973 -0.012399 -0.118110 -0.205950 -0.425020 -0.520581 0.116548 0.082696 0.252885 0.695503 0.272484 -0.083512 -0.128627 -0.371726 -0.161584 0.412833 -0.125055 0.594649 0.225404 -0.511477 -0.257917 -0.094941 -0.242309 -0.238591 -0.287611 0.517891 0.313414 -0.179365 0.175037 0.364941 -0.518127 -0.456109 -0.454129 -0.341258 0.133375 -0.554985 0.317658 -0.531524 -0.149783 -0.123057 0.085491 -0.004660 -0.204871 0.263499 -0.351689 0.155781 0.096336 -0.159036 0.219499 0.030759 -0.289207 0.048996 -0.047280 -0.194204 0.107360 0.230794 0.365627 0.069760 0.038922 -0.127581 0.128088 -0.505871 0.123467 0.278842 0.113271 -0.461146 0.152008 0.046598 -0.319988 -0.019024 0.288915 0.244827 0.223492 -0.236756 -0.261730 0.043471 0.054794 0.072041 0.155376 -0.098180 0.038889 -0.180149 0.553397 -0.749001 -0.191575 -0.168742 -0.059610 0.269620 0.348077 -0.041547 0.469410 0.332646 0.643208 -0.011559 -0.306839 -0.092051 0.247820 -0.059355 -0.167291 0.638329 -0.243003 0.448717 -0.196537 0.313717 -0.182071 -0.034539 0.273555 -0.116984 -0.138830 0.227002 -0.326878 0.288264 -0.269883 -0.504202 -0.332799 -0.377423 -0.474738 -0.424595 0.097553 -0.510051 -0.182575 0.439254 0.128634 0.185828 0.041521 -0.252797 0.099485 0.047244 -0.266578 -0.307040 -0.595093 0.265969 0.500786 -0.681859 -0.339159 0.046597 -0.338696 0.394202 0.687910 -0.235247 0.560724 -0.516184 -0.003603 0.019000 -0.206050 0.123034 0.279406 0.456428 0.429297 0.263676 -0.004628 -0.248236 0.508404 -0.363972 -0.242685 0.083367 -0.377843 0.137064 0.372451 -0.063442 -0.136610 0.305911 -0.363066 0.116386 0.137809 0.190677 0.067408 -0.339327 0.066508 0.480370 -0.510723 0.180943 -0.143708 -0.441664 0.188278 
centerleftpolitics -0.012885 -0.171986 0.073734 -0.021067 -0.230145 0.004593 0.319227 0.172509 0.076886 -0.534497 -0.139410 0.449393 -0.127846 0.562185 -0.352687 0.224237 -0.218772 0.267852 -0.080555 0.272968 0.374292 0.205597 0.155045 -0.067184 -0.101475 -0.115204 -0.243926 -0.071355 -0.174097 -0.341913 -0.384131 0.166125 -0.151889 0.356903 0.630920 0.180460 -0.236315 -0.159510 -0.422140 -0.050499 0.352753 -0.020068 0.431492 0.346693 -0.564755 -0.266720 -0.180337 -0.240507 -0.086129 -0.279144 0.395647 0.070199 -0.308396 0.080904 0.429091 -0.336262 -0.723205 -0.433307 -0.677093 0.115027 -0.957758 0.416399 -0.913093 -0.128473 -0.119470 0.170488 -0.131307 -0.354921 0.424519 -0.710644 0.205926 0.101931 -0.282169 0.365451 0.126415 -0.448942 -0.085940 -0.042848 -0.475046 0.165354 0.235781 0.414365 -0.029432 -0.021505 -0.092254 0.103595 -0.568052 0.081780 0.339976 0.193655 -0.550288 0.181429 -0.019027 -0.397758 -0.124716 0.261942 0.266212 0.112379 -0.392058 -0.349656 0.026233 0.221521 0.101218 0.179973 0.068972 -0.054694 -0.394297 0.545577 -0.914657 -0.361551 -0.175839 0.044377 0.125881 0.344319 0.041743 0.613155 0.222734 0.776802 -0.004396 -0.355903 -0.103037 0.157811 -0.216484 -0.080794 0.539136 -0.137258 0.212910 -0.248068 0.220228 -0.013500 0.035313 0.326010 0.005368 -0.110620 0.283425 -0.248314 0.189762 -0.236852 -0.438248 -0.308546 -0.242477 -0.360028 -0.470807 0.146561 -0.361727 -0.110594 0.265613 0.000650 0.089757 0.089740 0.011355 -0.090819 0.096680 0.030651 -0.162001 -0.069022 0.060684 0.011895 -0.280955 -0.053860 0.104351 -0.035089 0.208124 0.209214 0.038105 0.026546 -0.058438 0.139759 0.072940 -0.022412 -0.072144 0.311846 0.320003 0.414882 0.257165 -0.056356 -0.197995 0.324869 -0.332447 -0.292263 0.080302 -0.223165 -0.111556 0.006773 0.086421 -0.005476 0.813590 -0.577533 0.252166 0.347328 0.393330 0.206313 -0.311622 0.030339 0.676610 -0.653343 0.365225 -0.096787 -0.586197 0.310909 
Pete_Buttigieg 0.019089 -0.138882 0.087375 0.056702 0.537001 -0.130147 0.344439 0.211138 -0.065338 -0.587731 -0.107759 0.447428 -0.049543 0.594853 -0.389767 0.211395 -0.229542 0.353057 -0.099382 0.365329 0.411603 0.239302 0.200051 -0.131338 -0.027789 0.021784 -0.094308 0.020062 -0.016838 -0.072647 -0.072841 0.032951 -0.109168 0.130218 0.119847 0.015740 -0.102863 -0.093936 -0.073871 0.017823 0.307396 -0.066776 0.380586 0.266886 -0.453456 -0.215960 -0.139515 -0.139301 -0.161589 -0.267822 0.447575 0.100876 -0.211498 0.191458 0.399963 -0.367731 -0.334540 -0.230975 -0.338643 0.048286 -0.497997 0.214420 -0.453104 -0.043669 -0.143473 0.087473 -0.054407 -0.265721 0.387633 -0.586628 0.279599 0.060227 -0.293140 0.198958 0.133514 -0.362799 -0.086283 -0.091542 -0.331203 0.181445 0.176729 0.446514 0.060042 -0.047512 -0.126708 0.095938 -0.556848 0.118699 0.359072 0.167555 -0.470854 0.196309 -0.009238 -0.378033 -0.096563 0.228041 0.342963 0.178596 -0.314103 -0.375191 0.052562 0.080492 0.100249 0.236703 0.012441 -0.052043 -0.371827 0.513091 -0.861222 -0.305636 -0.201585 -0.072357 0.267289 0.390890 0.027639 0.571040 0.284533 0.728494 -0.025695 -0.373350 -0.124595 0.182410 -0.157837 -0.193504 0.559353 -0.143467 0.394285 -0.307219 0.221004 -0.105708 0.033743 0.366170 0.000905 -0.064481 0.274932 -0.200422 0.383918 -0.344230 -0.642384 -0.453734 -0.401593 -0.631905 -0.603112 0.143142 -0.654238 -0.213280 0.524991 0.097259 0.207881 0.157703 -0.220737 0.045234 0.084819 -0.118128 -0.202372 -0.316424 0.136677 0.250427 -0.443061 -0.163255 0.086968 -0.190253 0.271722 0.401939 -0.103153 0.249898 -0.214534 0.082327 -0.003289 -0.079723 0.041459 0.224626 0.324909 0.342616 0.212116 -0.016103 -0.191161 0.413700 -0.319858 -0.241321 0.050512 -0.287288 0.008195 0.209040 -0.011375 -0.035974 0.426804 -0.384113 0.113596 0.149369 0.231163 0.091091 -0.193871 0.009644 0.359294 -0.419961 0.203758 -0.083767 -0.370583 0.191172 
moderatepolitics -0.050290 -0.057320 0.339564 0.196547 0.740152 -0.109182 0.111338 0.080647 -0.234864 -0.357947 0.065623 0.451205 0.036586 0.442508 -0.279608 0.193160 -0.058875 0.303442 -0.107488 0.487081 0.484645 0.235282 0.155791 -0.196848 -0.088598 -0.171531 0.044805 -0.179784 -0.253266 -0.337522 -0.443357 0.060163 0.114227 0.252630 0.536872 0.208650 0.030488 0.010446 -0.327054 -0.179503 0.312459 -0.063777 0.312414 0.050497 -0.299201 -0.196656 -0.079736 -0.062221 -0.245132 -0.225693 0.352985 0.326811 -0.101215 0.093637 0.269013 -0.424824 -0.301726 -0.341463 -0.182634 0.099335 -0.344871 0.168032 -0.342461 -0.130268 -0.077175 0.116327 0.080298 -0.173623 0.303362 -0.363346 0.246790 0.172545 -0.250171 0.154471 0.067974 -0.275965 -0.013841 -0.139612 -0.148561 0.135402 0.193257 0.505198 0.014455 -0.082259 -0.337737 0.194037 -0.525566 0.143410 0.521003 0.166103 -0.582303 0.269447 -0.021577 -0.492721 -0.089279 0.459442 0.392661 0.460480 -0.323945 -0.559275 0.118178 0.064521 0.070485 0.303278 -0.078333 0.002454 -0.186052 0.451475 -0.522265 -0.089870 -0.254316 -0.144423 0.235079 0.284405 -0.042487 0.222046 0.230455 0.394352 -0.078027 -0.230694 -0.106357 0.241580 -0.092887 -0.232634 0.599962 -0.216214 0.434065 -0.190298 0.270139 -0.199320 0.023212 0.266775 -0.166739 -0.092026 0.220304 -0.316215 0.185311 -0.224542 -0.353945 -0.222717 -0.303995 -0.334575 -0.286354 0.099285 -0.336949 -0.160998 0.315122 0.112150 0.109519 -0.043438 -0.233659 0.093520 0.002971 -0.181847 -0.214422 -0.398040 0.153677 0.379568 -0.446354 -0.219093 -0.001545 -0.219439 0.259819 0.413572 -0.150045 0.396189 -0.360846 -0.046341 -0.029198 -0.201244 0.168336 0.193238 0.447705 0.358940 0.200758 0.004232 -0.202780 0.470221 -0.313128 -0.189099 0.076472 -0.330352 0.154435 0.421028 -0.050322 -0.165996 0.398045 -0.463892 0.107210 0.212916 0.237379 0.103990 -0.367080 0.065443 0.521602 -0.407908 0.204301 -0.175021 -0.492818 0.212446 
ElizabethWarren 0.015605 -0.111729 0.196206 0.062912 0.271752 -0.039722 0.218648 0.156838 -0.076130 -0.506456 -0.105693 0.452937 -0.035296 0.591001 -0.350352 0.197079 -0.193949 0.337654 -0.104231 0.414952 0.470876 0.223046 0.222451 -0.157376 -0.050275 -0.071165 -0.065136 -0.040229 -0.096585 -0.212594 -0.255620 0.084644 -0.022754 0.185882 0.411067 0.144206 -0.099716 -0.112693 -0.227887 -0.069294 0.311699 -0.074780 0.426349 0.216120 -0.426332 -0.209367 -0.105138 -0.186206 -0.174476 -0.262901 0.441371 0.189279 -0.196598 0.167251 0.360798 -0.405610 -0.400454 -0.344904 -0.336279 0.078190 -0.512967 0.265298 -0.490803 -0.103856 -0.106109 0.063229 -0.040154 -0.198534 0.260679 -0.386340 0.149932 0.072112 -0.137758 0.179353 0.049830 -0.235927 0.003693 -0.025981 -0.203476 0.084449 0.149079 0.259838 0.028308 0.011776 -0.064576 0.074927 -0.351841 0.076895 0.321762 0.145146 -0.503677 0.174087 0.026082 -0.368742 -0.046631 0.288141 0.279381 0.200196 -0.281523 -0.311312 0.049883 0.080889 0.094424 0.200510 -0.058278 0.007751 -0.306482 0.611011 -0.907902 -0.287837 -0.202386 -0.062376 0.318906 0.441920 -0.013573 0.641679 0.375024 0.836658 -0.016992 -0.391481 -0.100221 0.192269 -0.091917 -0.146458 0.563468 -0.188042 0.392475 -0.215044 0.262705 -0.131442 -0.018798 0.311159 -0.057885 -0.104632 0.245736 -0.259412 0.226601 -0.211216 -0.382868 -0.269217 -0.249576 -0.368844 -0.355848 0.066073 -0.358310 -0.122377 0.305278 0.053005 0.118401 0.052698 -0.152867 0.027969 0.040743 -0.160036 -0.238341 -0.395059 0.187613 0.322408 -0.491049 -0.216166 0.062822 -0.201682 0.270398 0.430409 -0.122276 0.318209 -0.299105 0.042113 0.004818 -0.087787 0.045879 0.158649 0.264318 0.274483 0.181184 -0.006515 -0.087341 0.209104 -0.150476 -0.131305 0.033694 -0.147727 0.025468 0.113541 -0.026571 -0.051767 0.281086 -0.279115 0.089014 0.102780 0.152552 0.059784 -0.212873 0.035775 0.321498 -0.395260 0.137763 -0.087089 -0.335625 0.155391 
progressive -0.011207 -0.072627 0.005411 -0.034418 0.045513 -0.016116 0.044686 0.060825 -0.080292 -0.637117 -0.150932 0.565158 -0.065121 0.727861 -0.449600 0.247573 -0.215539 0.359222 -0.109596 0.407685 0.480054 0.237594 0.229893 -0.165899 -0.070079 -0.116265 -0.078538 -0.066476 -0.156330 -0.322606 -0.401793 0.118811 -0.026263 0.323026 0.677119 0.215598 -0.141628 -0.167563 -0.380578 -0.117797 0.312064 -0.058233 0.430456 0.279807 -0.440129 -0.212338 -0.124515 -0.206066 -0.142899 -0.243564 0.430574 0.123799 -0.204548 0.162567 0.347678 -0.375527 -0.497902 -0.395252 -0.431565 0.111815 -0.652604 0.335002 -0.590075 -0.120067 -0.155673 0.134201 -0.057417 -0.298563 0.436814 -0.643619 0.284591 0.103774 -0.287956 0.260342 0.092230 -0.381073 -0.028286 -0.067849 -0.326110 0.184644 0.231901 0.496665 0.067914 -0.018170 -0.150712 0.126597 -0.620290 0.118363 0.473164 0.184444 -0.621606 0.260204 0.016909 -0.488532 -0.102934 0.361822 0.408660 0.301233 -0.405268 -0.492260 0.046615 0.108235 0.105890 0.278249 -0.022723 -0.001088 -0.177439 0.329041 -0.546557 -0.172792 -0.090460 -0.014454 0.129421 0.166246 0.019488 0.313864 0.151296 0.364702 0.010112 -0.170828 -0.087324 0.184298 -0.097933 -0.159950 0.517635 -0.157035 0.372717 -0.235807 0.265729 -0.141965 0.017051 0.313361 -0.035837 -0.111675 0.238648 -0.248123 0.201775 -0.194066 -0.325920 -0.245858 -0.209134 -0.344323 -0.306578 0.088072 -0.281926 -0.086734 0.223855 0.044881 0.085469 0.090211 -0.091152 0.028029 0.055851 -0.138502 -0.210974 -0.356416 0.144047 0.304056 -0.448785 -0.184706 0.054307 -0.187639 0.238478 0.373722 -0.106989 0.267756 -0.231882 0.028138 -0.016863 -0.141287 0.113307 0.216613 0.393130 0.360300 0.219465 -0.004782 -0.131461 0.312155 -0.236108 -0.153131 0.053344 -0.221087 0.043495 0.218534 -0.033953 -0.099665 0.484141 -0.476361 0.140076 0.215738 0.269446 0.117988 -0.327633 0.046267 0.531197 -0.469484 0.228006 -0.156978 -0.493214 0.225230 
JoeBiden 0.016225 -0.240040 0.027199 -0.086833 -0.390952 0.024388 0.366856 0.221667 0.170511 -0.656434 -0.239179 0.472761 -0.167513 0.668581 -0.414519 0.241989 -0.317961 0.320173 -0.095138 0.265978 0.407081 0.217213 0.211739 -0.043977 -0.126797 -0.090971 -0.318566 -0.050201 -0.174891 -0.427012 -0.463554 0.214889 -0.224937 0.461001 0.822390 0.226275 -0.338002 -0.275322 -0.519080 -0.044056 0.264211 -0.005119 0.380821 0.412645 -0.543145 -0.224608 -0.179931 -0.267770 -0.016912 -0.273588 0.389155 -0.059544 -0.358426 0.117123 0.438808 -0.263891 -0.648588 -0.314257 -0.685626 0.054159 -0.910191 0.375233 -0.861202 -0.067214 -0.099594 0.125382 -0.164149 -0.349835 0.411436 -0.726160 0.197903 0.062355 -0.326986 0.398449 0.165461 -0.516481 -0.116453 -0.032867 -0.571983 0.189780 0.231933 0.387204 -0.010112 0.012153 0.014773 0.060233 -0.572082 0.076671 0.318270 0.216356 -0.603475 0.184138 -0.006927 -0.406300 -0.121888 0.224814 0.271895 0.027734 -0.433657 -0.310770 0.006776 0.240792 0.143911 0.179350 0.101020 -0.071595 -0.462950 0.573118 -1.045464 -0.458972 -0.151963 0.066592 0.136702 0.385148 0.062476 0.752579 0.256877 0.910735 0.028277 -0.403350 -0.126470 0.156720 -0.233797 -0.090474 0.623276 -0.145661 0.274294 -0.304353 0.280679 -0.017299 0.021819 0.446233 0.040052 -0.134019 0.376536 -0.287028 0.161107 -0.208626 -0.372789 -0.302483 -0.161487 -0.298437 -0.460726 0.111660 -0.276977 -0.050965 0.190000 -0.055996 0.052498 0.101342 0.085302 -0.155009 0.068161 0.045588 -0.182270 -0.085663 0.114564 -0.020220 -0.307589 -0.055325 0.143637 -0.008170 0.191598 0.196632 0.075084 -0.038717 -0.007874 0.193423 0.059011 0.038614 -0.116334 0.283049 0.266804 0.392261 0.267500 -0.045374 -0.041035 0.050426 -0.144783 -0.199376 0.051528 -0.021829 -0.206894 -0.243396 0.126348 0.129951 0.538358 -0.254599 0.189855 0.170762 0.215841 0.111564 -0.095953 0.002199 0.370281 -0.500957 0.214673 0.014339 -0.370167 0.221857 
Kamala 0.006599 -0.195563 -0.156347 -0.249001 -1.035696 0.106321 0.048523 0.073876 0.227156 -0.641596 -0.276059 0.432105 -0.176071 0.670123 -0.410299 0.226265 -0.287056 0.235121 -0.070067 0.172672 0.297467 0.161444 0.153322 0.005539 -0.155868 -0.126493 -0.374989 -0.072799 -0.229612 -0.540949 -0.608007 0.277000 -0.265992 0.564750 1.057747 0.312815 -0.400016 -0.347435 -0.631987 -0.073858 0.413379 -0.033812 0.593941 0.552924 -0.773834 -0.333896 -0.230242 -0.423470 -0.063355 -0.388748 0.599739 -0.023689 -0.465707 0.216715 0.601581 -0.438127 -0.725409 -0.324824 -0.728701 0.072916 -0.991561 0.437168 -0.912495 -0.077959 -0.115096 0.108172 -0.241287 -0.318161 0.321266 -0.651719 0.091735 -0.006794 -0.105869 0.252085 0.076119 -0.219222 -0.084069 0.090018 -0.400487 0.057894 0.081187 -0.000825 -0.061650 0.059346 0.215522 -0.080915 -0.122559 -0.049991 0.412304 0.255335 -0.761698 0.242124 0.027832 -0.524899 -0.136430 0.299303 0.350098 0.050874 -0.543577 -0.409253 -0.005213 0.290561 0.165676 0.246399 0.101655 -0.063150 -0.422551 0.510283 -0.996369 -0.455354 -0.076172 0.124056 0.138358 0.361074 0.071914 0.830012 0.251060 0.951453 0.052989 -0.400152 -0.142430 0.227085 -0.264301 -0.105108 0.808643 -0.190777 0.391788 -0.395352 0.301666 0.009847 0.013563 0.472407 0.076189 -0.144705 0.371550 -0.257492 0.285531 -0.307460 -0.557510 -0.419660 -0.258302 -0.507793 -0.630001 0.178513 -0.511329 -0.145167 0.360349 -0.015681 0.126096 0.170802 0.019396 -0.133362 0.138415 0.127229 -0.094401 0.101543 -0.021927 -0.152938 -0.165414 0.073733 0.161868 0.038520 0.159520 0.048252 0.133522 -0.198495 0.159856 0.229414 0.063631 -0.003186 -0.095881 0.376902 0.368245 0.486310 0.294792 -0.081017 -0.207921 0.357760 -0.342335 -0.311008 0.036429 -0.200168 -0.184883 -0.040982 0.079136 -0.007031 1.077922 -0.821592 0.288280 0.440582 0.546212 0.262415 -0.440197 0.002699 0.915819 -0.978685 0.533907 -0.153104 -0.844027 0.443435 
SocialDemocracy 0.007918 -0.157973 0.180391 0.001045 0.065750 -0.000754 0.219058 0.110915 0.047758 -0.367113 -0.142213 0.304066 -0.059888 0.449082 -0.256248 0.138801 -0.157261 0.205562 -0.064271 0.243444 0.305562 0.129411 0.146148 -0.067759 -0.114608 -0.147775 -0.140799 -0.119321 -0.225824 -0.455382 -0.541079 0.170025 -0.049327 0.382534 0.835643 0.287729 -0.180399 -0.195587 -0.467476 -0.134759 0.323265 -0.063410 0.459255 0.282181 -0.494013 -0.232243 -0.117821 -0.266926 -0.125461 -0.269625 0.435615 0.132633 -0.253515 0.163102 0.369450 -0.385519 -0.465063 -0.327803 -0.386139 0.084091 -0.583984 0.297597 -0.548669 -0.105895 -0.100694 0.079824 -0.069017 -0.208784 0.242910 -0.398172 0.118260 0.068247 -0.177106 0.240099 0.056054 -0.284128 -0.008790 -0.023688 -0.286370 0.099980 0.190200 0.273283 0.007154 0.039559 -0.041011 0.072992 -0.394197 0.068690 0.507969 0.227987 -0.804406 0.285884 0.036514 -0.576868 -0.086677 0.458114 0.434078 0.311062 -0.490929 -0.528193 0.063964 0.174600 0.153108 0.310346 -0.040987 0.003421 -0.273726 0.557755 -0.843352 -0.289084 -0.154234 -0.012186 0.219692 0.336407 -0.005116 0.570206 0.298275 0.725921 0.001463 -0.310824 -0.120117 0.256359 -0.136395 -0.161842 0.741743 -0.245056 0.476985 -0.282526 0.348468 -0.138239 -0.026663 0.383654 -0.068845 -0.152536 0.307661 -0.336833 0.223799 -0.232680 -0.400585 -0.281800 -0.261265 -0.386275 -0.396214 0.105497 -0.389469 -0.136027 0.323687 0.047897 0.113498 0.057658 -0.123930 0.004068 0.065544 -0.112142 -0.229462 -0.334874 0.148259 0.270444 -0.476187 -0.178523 0.070665 -0.160795 0.266713 0.355967 -0.071310 0.231434 -0.223457 0.058119 0.011026 -0.056207 0.009056 0.162321 0.235843 0.257814 0.153243 -0.021306 -0.096552 0.217712 -0.162403 -0.138361 0.028096 -0.131125 -0.010531 0.087506 0.027383 0.002647 0.232402 -0.186260 0.057922 0.078310 0.119010 0.044800 -0.107887 -0.010734 0.203998 -0.246288 0.117393 -0.019607 -0.201483 0.110929 
demsocialist 0.013587 -0.140420 0.233478 0.070854 0.341903 -0.032638 0.380114 0.184050 0.028219 -0.315251 -0.122931 0.269694 -0.054110 0.381766 -0.214841 0.117775 -0.143168 0.174013 -0.062242 0.197176 0.267163 0.097995 0.143387 -0.061715 -0.093098 -0.140416 -0.097269 -0.088714 -0.182269 -0.409285 -0.487908 0.155720 -0.016822 0.323914 0.736441 0.243401 -0.156760 -0.178110 -0.413418 -0.117049 0.307956 -0.069393 0.464501 0.284446 -0.454511 -0.212099 -0.115999 -0.253962 -0.126043 -0.254262 0.425566 0.140698 -0.230195 0.153982 0.345787 -0.368187 -0.366517 -0.264431 -0.323729 0.064487 -0.462334 0.257688 -0.431380 -0.078696 -0.077560 0.057764 -0.075353 -0.169617 0.198267 -0.319992 0.079060 0.043229 -0.190425 0.250594 0.069081 -0.320711 0.002549 -0.023325 -0.281054 0.113261 0.187183 0.324622 0.038770 0.027747 -0.050596 0.085060 -0.433007 0.087674 0.373128 0.169441 -0.608398 0.214881 0.030596 -0.429088 -0.064307 0.333036 0.322306 0.237026 -0.380353 -0.380685 0.040212 0.126031 0.120150 0.225012 -0.026742 0.010237 -0.201029 0.429441 -0.664522 -0.229310 -0.101211 0.008454 0.136234 0.226724 -0.001497 0.411957 0.219191 0.515164 0.028188 -0.218617 -0.115629 0.254569 -0.112637 -0.175404 0.759022 -0.256639 0.487024 -0.254587 0.377211 -0.171466 -0.023675 0.394654 -0.087578 -0.180678 0.330952 -0.395519 0.255658 -0.276182 -0.488579 -0.346117 -0.328754 -0.448011 -0.449343 0.113908 -0.420907 -0.127982 0.357744 0.064426 0.130010 0.071100 -0.146627 0.024200 0.044186 -0.128174 -0.209616 -0.318977 0.152804 0.265653 -0.425604 -0.187262 0.069883 -0.197773 0.273542 0.422466 -0.129431 0.295667 -0.278059 0.040734 0.017897 -0.175528 0.086845 0.329654 0.500701 0.483333 0.296722 -0.028673 -0.196555 0.417512 -0.312577 -0.232796 0.064618 -0.288488 0.046097 0.246591 -0.017645 -0.063842 0.420703 -0.367444 0.128428 0.198287 0.223349 0.107497 -0.280345 0.045498 0.463931 -0.460857 0.193480 -0.111878 -0.431702 0.197637 
BetoORourke -0.004398 -0.148325 0.224264 0.080162 0.349233 -0.057713 0.358258 0.216770 -0.079814 -0.576466 -0.112095 0.548084 -0.060845 0.663357 -0.399189 0.243113 -0.217038 0.381456 -0.120657 0.452368 0.532235 0.259527 0.236937 -0.173236 -0.113873 -0.173624 -0.118491 -0.123179 -0.232759 -0.443610 -0.525198 0.144991 -0.016555 0.369650 0.770051 0.256569 -0.161944 -0.154243 -0.456455 -0.136904 0.367281 -0.067714 0.487455 0.279812 -0.516965 -0.256334 -0.140112 -0.212898 -0.173810 -0.280944 0.454861 0.185544 -0.237922 0.131114 0.385141 -0.434101 -0.527247 -0.394901 -0.465276 0.107043 -0.686781 0.333291 -0.658516 -0.121810 -0.127058 0.135623 -0.048479 -0.298606 0.403925 -0.610201 0.253324 0.120578 -0.234234 0.242669 0.089863 -0.341457 -0.036777 -0.067047 -0.297719 0.136551 0.189244 0.381129 0.019194 -0.017884 -0.133991 0.108225 -0.481325 0.100286 0.273517 0.129264 -0.400159 0.152057 -0.005174 -0.291896 -0.075107 0.219183 0.227245 0.161320 -0.266656 -0.293461 0.033822 0.110393 0.073786 0.150604 0.004252 -0.026276 -0.236040 0.395504 -0.608546 -0.209079 -0.142736 -0.015604 0.135950 0.249280 0.006246 0.374227 0.195686 0.505797 -0.010155 -0.248024 -0.115111 0.231819 -0.155914 -0.183449 0.680882 -0.213477 0.408436 -0.263010 0.309628 -0.137818 0.017478 0.365251 -0.082010 -0.140344 0.313457 -0.345335 0.206901 -0.245203 -0.421316 -0.307135 -0.288974 -0.366872 -0.418090 0.113259 -0.354638 -0.115097 0.296865 0.051783 0.099442 0.034840 -0.106015 -0.008419 0.034795 -0.137963 -0.255098 -0.387854 0.204611 0.295420 -0.519363 -0.224596 0.068898 -0.196707 0.299697 0.471654 -0.101375 0.320486 -0.310373 0.060363 0.013957 -0.125304 0.062315 0.289661 0.440347 0.437097 0.267037 -0.013540 -0.179853 0.378577 -0.319537 -0.245710 0.094852 -0.281856 0.019243 0.190687 0.007401 -0.087620 0.581253 -0.503681 0.193446 0.251561 0.299845 0.131168 -0.348777 0.067385 0.608107 -0.581429 0.252501 -0.140106 -0.573895 0.269006 
ConservativeDemocrat -0.005283 -0.117704 0.293727 0.139674 0.623663 -0.095199 0.308354 0.176840 -0.147197 -0.474220 -0.047458 0.487087 -0.013881 0.576949 -0.349576 0.208359 -0.142752 0.339867 -0.105959 0.458890 0.491621 0.243405 0.198766 -0.187999 -0.085109 -0.154347 -0.042707 -0.133085 -0.215343 -0.350029 -0.431134 0.094582 0.032903 0.280279 0.600807 0.221894 -0.066402 -0.077299 -0.348561 -0.143371 0.382441 -0.078616 0.468992 0.191546 -0.473324 -0.251833 -0.112309 -0.173729 -0.214459 -0.268721 0.442991 0.257116 -0.179625 0.135902 0.355580 -0.457817 -0.465995 -0.418396 -0.353775 0.120425 -0.581753 0.289344 -0.556076 -0.142535 -0.134501 0.133847 0.012320 -0.261153 0.381221 -0.527195 0.265666 0.150492 -0.253482 0.219881 0.074210 -0.334334 -0.018980 -0.104736 -0.254409 0.151273 0.230111 0.474457 0.033516 -0.033805 -0.234100 0.161883 -0.576735 0.131434 0.416541 0.155808 -0.536289 0.217994 -0.000695 -0.423725 -0.076656 0.360852 0.347458 0.319491 -0.316397 -0.450223 0.076209 0.090220 0.082156 0.248181 -0.047879 -0.005450 -0.215477 0.442538 -0.604858 -0.162088 -0.192373 -0.074130 0.209803 0.288340 -0.014827 0.347104 0.228398 0.499871 -0.045869 -0.255269 -0.093144 0.205321 -0.108783 -0.169312 0.530838 -0.180112 0.358368 -0.205526 0.247446 -0.143901 0.009592 0.268642 -0.100637 -0.089942 0.218936 -0.266964 0.203703 -0.216016 -0.372576 -0.247167 -0.283222 -0.350382 -0.338333 0.097141 -0.366130 -0.148453 0.317042 0.083236 0.115647 0.014293 -0.175077 0.053340 0.034581 -0.150469 -0.217327 -0.371277 0.161786 0.317353 -0.457578 -0.207606 0.024288 -0.184637 0.252518 0.391828 -0.108524 0.323877 -0.298630 0.006149 -0.003278 -0.109916 0.075128 0.149983 0.287747 0.263272 0.152789 -0.001281 -0.146925 0.325712 -0.238561 -0.167237 0.059891 -0.238445 0.074375 0.235062 -0.012192 -0.092976 0.321251 -0.336935 0.097004 0.137512 0.181612 0.070847 -0.240121 0.040108 0.363043 -0.321725 0.157371 -0.099066 -0.335341 0.157918 
