15 200
BaemyKlobaechar 0.051576 -0.187346 0.107618 0.017078 0.640567 -0.048434 0.409734 0.136883 0.199724 0.074711 -0.193348 -0.130097 -0.051370 -0.045298 0.070097 -0.066843 -0.170817 0.248873 -0.014931 0.200881 0.206336 0.098019 0.144382 -0.142018 0.025941 -0.154861 -0.058998 -0.002619 -0.114854 -0.314471 -0.413010 0.118820 -0.044201 0.203456 0.622884 0.229344 -0.122590 -0.231609 -0.157436 -0.044109 0.154605 -0.086508 0.439016 0.246369 -0.314829 -0.086107 0.063143 -0.284976 -0.067534 -0.122582 0.394139 -0.040147 -0.076754 0.185650 0.216184 -0.345257 -0.405722 -0.313119 -0.173597 0.113225 -0.435685 0.332183 -0.368605 -0.118343 -0.184633 0.070727 -0.112873 -0.132818 0.077703 -0.205273 0.013658 -0.070672 -0.413610 0.408158 -0.068443 -0.380646 0.101365 -0.193876 -0.358216 0.358889 0.650923 0.828618 0.287111 0.140860 -0.164174 0.194766 -1.373826 0.160558 0.569881 0.259274 -0.999183 0.302424 0.165989 -0.786394 -0.124204 0.595509 0.395894 0.002370 -0.378313 -0.310985 -0.086519 0.046449 0.111900 0.152090 -0.169152 0.074510 0.037886 0.356729 -0.643471 -0.115733 0.180022 0.108532 0.184489 0.070638 0.015309 0.539017 0.302766 0.595965 0.018306 -0.146867 -0.120890 0.426164 -0.110175 -0.166570 0.758966 -0.371763 0.729524 -0.482538 0.623765 -0.403977 -0.065274 0.498338 -0.008538 -0.375990 0.249076 -0.457881 0.506523 -0.307758 -0.601066 -0.358739 -0.384309 -0.817954 -0.441566 0.180587 -0.629680 -0.247190 0.405051 0.210278 0.261376 0.315369 -0.207294 0.118791 0.299054 -0.057342 -0.032943 -0.217486 -0.100455 0.225774 -0.299426 -0.073350 0.043384 -0.257814 0.266523 0.396870 -0.140198 0.254891 -0.129009 0.013382 -0.014950 -0.117523 0.100417 0.299797 0.239115 0.201894 0.015141 -0.024998 -0.224159 0.509296 -0.341283 -0.147255 -0.121301 -0.447897 -0.004264 0.450077 -0.109297 -0.183509 0.388676 -0.615039 -0.048770 0.100338 0.329210 0.103479 -0.018736 -0.114821 0.183855 -0.211227 0.214673 -0.143312 -0.155715 0.116002 
politics 0.011126 0.020356 0.099465 0.027555 0.179047 -0.136755 0.055021 0.114753 -0.242829 -0.484637 -0.098817 0.445440 0.064022 0.811843 -0.475455 0.195144 -0.095983 0.293087 -0.059550 0.550353 0.458433 0.203543 0.234921 -0.225749 -0.002749 -0.100050 0.077750 -0.120816 -0.212865 -0.274503 -0.451188 0.087799 0.057089 0.211291 0.464971 0.183526 0.089222 -0.014395 -0.237028 -0.138421 0.397258 -0.119047 0.443237 0.110861 -0.348609 -0.192694 -0.030811 -0.186336 -0.267466 -0.303382 0.478498 0.292724 -0.084020 0.279589 0.404986 -0.474609 -0.595195 -0.717301 -0.313873 0.051826 -0.656021 0.306843 -0.597747 -0.258183 -0.121632 0.184423 0.168100 -0.360503 0.654650 -0.703017 0.496403 0.306917 -0.358804 0.136016 0.075482 -0.348718 -0.078719 -0.255145 -0.142698 0.222303 0.174662 0.547450 0.107896 -0.136627 -0.328669 0.207508 -0.597618 0.137061 0.452763 0.147550 -0.389280 0.184498 -0.047775 -0.474650 -0.041992 0.426155 0.566377 0.531223 -0.293059 -0.665220 0.213311 -0.074309 0.049685 0.450878 -0.094908 0.067107 -0.427894 0.616645 -0.886327 -0.129762 -0.350051 -0.375685 0.569224 0.545132 -0.057389 0.524192 0.350664 0.714953 -0.209171 -0.362538 -0.207053 0.293257 -0.110924 -0.247521 0.613777 -0.293345 0.628822 -0.281888 0.416965 -0.356416 0.000701 0.443399 -0.101598 -0.142750 0.252762 -0.384310 0.359632 -0.346812 -0.507633 -0.317772 -0.382425 -0.580737 -0.360714 0.092583 -0.430311 -0.263628 0.373877 0.151270 0.205005 -0.066314 -0.373706 0.125795 -0.039994 -0.192315 -0.397594 -0.626435 0.241936 0.595698 -0.562024 -0.308320 0.029677 -0.230604 0.302128 0.517896 -0.163719 0.550051 -0.527285 -0.069050 -0.095693 -0.274121 0.287762 0.152847 0.627423 0.569413 0.416767 0.087827 -0.069432 0.383494 -0.243999 -0.228600 0.054094 -0.314257 0.135665 0.429149 -0.019233 -0.028497 0.187492 -0.248946 0.063929 -0.001182 0.093268 0.031452 -0.324922 0.076346 0.408896 -0.446349 0.131242 -0.196888 -0.513461 0.309914 
YangForPresidentHQ -0.038530 -0.128718 0.409540 0.059113 0.511245 -0.051466 0.227121 0.054170 -0.186668 -0.483913 -0.130529 0.395441 0.008144 0.661179 -0.397476 0.183276 -0.159414 0.376911 -0.088064 0.470471 0.423204 0.236284 0.197745 -0.249486 -0.003754 -0.217630 0.032656 -0.058731 -0.212562 -0.373628 -0.540806 0.089612 0.033423 0.388316 0.788008 0.277673 -0.046359 -0.134131 -0.350894 -0.139905 0.420284 -0.158208 0.563679 0.264124 -0.456107 -0.221669 -0.033251 -0.253323 -0.246841 -0.256571 0.522029 0.185931 -0.066324 0.239966 0.365775 -0.500332 -0.689541 -0.653090 -0.367959 0.172580 -0.790456 0.438528 -0.683545 -0.227713 -0.188743 0.200567 -0.015896 -0.291894 0.424876 -0.547784 0.324831 0.056652 -0.220701 0.209665 -0.041615 -0.148314 0.066732 -0.070778 -0.177756 0.205550 0.326733 0.386792 0.142426 0.077058 -0.043055 0.046149 -0.662776 0.063716 0.491305 0.198142 -0.703111 0.250289 0.140638 -0.628698 -0.113721 0.431088 0.468562 0.180115 -0.369333 -0.432370 -0.015433 0.007107 0.031899 0.276434 -0.109838 0.064165 -0.090277 0.375896 -0.623019 -0.055791 0.013126 -0.051184 0.444647 0.307680 -0.030188 0.534053 0.355614 0.662058 -0.062416 -0.338105 -0.118791 0.261149 -0.068614 -0.196395 0.501977 -0.177259 0.453062 -0.250980 0.415182 -0.331305 0.043350 0.422348 -0.115925 -0.176799 0.194529 -0.362312 0.293512 -0.237437 -0.385207 -0.270304 -0.247811 -0.450409 -0.287163 0.097399 -0.315336 -0.135638 0.201752 0.133218 0.145544 0.053761 -0.179159 0.071454 0.013120 -0.223787 -0.208440 -0.501726 0.172069 0.472134 -0.490835 -0.221416 0.042778 -0.293345 0.271471 0.562793 -0.147272 0.480458 -0.398338 0.027919 -0.099660 -0.199329 0.265184 0.208410 0.504585 0.400186 0.241318 0.076147 -0.216370 0.539180 -0.418211 -0.225560 0.046160 -0.480650 0.088588 0.550715 -0.121221 -0.197368 0.438527 -0.596680 0.113022 0.122345 0.243857 0.091138 -0.241132 0.081854 0.465270 -0.456569 0.181204 -0.269487 -0.530604 0.273963 
SandersForPresident 0.039461 -0.157196 0.384118 0.135453 0.719506 -0.139928 0.317906 0.148386 -0.170781 -0.401742 -0.121198 0.368951 0.046370 0.678474 -0.379661 0.142298 -0.146070 0.366510 -0.076565 0.640293 0.557329 0.222623 0.277541 -0.283401 -0.011058 -0.133169 0.018156 -0.087741 -0.217849 -0.359825 -0.517713 0.123799 0.048999 0.327125 0.825855 0.326978 -0.009342 -0.140898 -0.340347 -0.181080 0.344117 -0.130966 0.528154 0.192546 -0.389623 -0.161115 0.020837 -0.283622 -0.223279 -0.274450 0.517063 0.201762 -0.094068 0.284309 0.363940 -0.494569 -0.611498 -0.642051 -0.280143 0.097361 -0.642978 0.378293 -0.581416 -0.238778 -0.172001 0.143757 0.046252 -0.286128 0.436069 -0.525128 0.299252 0.167859 -0.294372 0.264192 -0.024600 -0.313709 0.032420 -0.180525 -0.218539 0.211192 0.321699 0.512790 0.153361 0.033518 -0.182404 0.166171 -0.744370 0.137712 0.164652 0.066917 -0.344788 0.095386 0.039845 -0.237116 -0.008304 0.221173 0.057300 0.001094 -0.087040 -0.055413 -0.021220 0.014416 0.063181 0.025828 -0.163739 0.079990 -0.146014 0.490841 -0.707755 -0.108108 -0.090752 -0.118208 0.349579 0.299688 -0.051381 0.487140 0.356640 0.629999 -0.070506 -0.209691 -0.135976 0.276928 -0.058499 -0.174293 0.569751 -0.286112 0.549630 -0.243478 0.386434 -0.298712 -0.039284 0.341870 -0.080282 -0.191311 0.197638 -0.355358 0.281306 -0.215193 -0.378513 -0.212703 -0.271946 -0.463772 -0.260234 0.083677 -0.337922 -0.157883 0.262189 0.112204 0.145109 0.083996 -0.194802 0.082031 0.110137 -0.074935 -0.104034 -0.228332 0.005110 0.243200 -0.236637 -0.107187 0.028961 -0.226211 0.249964 0.401073 -0.162536 0.373251 -0.308738 -0.037344 -0.047878 -0.173915 0.166390 0.182031 0.388361 0.345798 0.192253 0.030766 -0.113921 0.344466 -0.215301 -0.146080 -0.019326 -0.285057 0.070574 0.348778 -0.065936 -0.128557 0.299872 -0.439405 0.049825 0.051546 0.183465 0.071821 -0.218773 0.035938 0.322669 -0.335914 0.132611 -0.163438 -0.341372 0.208999 
centerleftpolitics 0.067348 -0.130743 0.300230 0.128118 0.960428 -0.169077 0.405766 0.112540 0.046088 -0.014651 -0.099663 0.019462 -0.004722 0.088505 -0.027920 -0.027740 -0.126770 0.206828 -0.030243 0.276247 0.266258 0.087756 0.167620 -0.149476 0.021875 -0.133038 0.004913 -0.035722 -0.148460 -0.330709 -0.437220 0.123397 0.028378 0.179321 0.597303 0.231045 -0.053610 -0.166417 -0.163466 -0.094213 0.225987 -0.101805 0.465014 0.181247 -0.289549 -0.089603 0.053790 -0.250671 -0.154944 -0.190102 0.435433 0.119725 -0.064538 0.219712 0.255458 -0.408618 -0.202940 -0.188455 -0.067800 0.053270 -0.198538 0.198397 -0.163188 -0.075522 -0.132427 0.039849 -0.048862 -0.105343 0.117350 -0.194278 0.046106 0.009787 -0.330339 0.351160 -0.069151 -0.350360 0.096766 -0.193111 -0.273214 0.283198 0.514146 0.679416 0.251043 0.107891 -0.167755 0.202901 -1.104458 0.157243 0.487536 0.199556 -0.866309 0.257675 0.114990 -0.673361 -0.075772 0.549234 0.312043 0.073657 -0.284058 -0.257191 -0.041587 0.004516 0.108579 0.140933 -0.170611 0.062947 -0.020456 0.387244 -0.610916 -0.071824 0.050206 0.024148 0.194983 0.131950 -0.025862 0.412846 0.274880 0.498390 -0.007306 -0.128976 -0.130684 0.392226 -0.071897 -0.174881 0.738241 -0.374354 0.688039 -0.371329 0.556248 -0.387718 -0.063202 0.441255 -0.061938 -0.295590 0.247248 -0.480092 0.429151 -0.274759 -0.556665 -0.315055 -0.383332 -0.679431 -0.383863 0.154474 -0.529698 -0.231966 0.371167 0.180219 0.210030 0.205335 -0.244938 0.139243 0.214997 -0.148566 -0.167505 -0.401326 0.012218 0.416379 -0.444444 -0.199778 0.014894 -0.289734 0.313487 0.499299 -0.208831 0.439893 -0.309639 -0.030180 -0.057913 -0.200309 0.179583 0.287770 0.427905 0.342377 0.143496 0.005287 -0.219106 0.604055 -0.382659 -0.222958 -0.088486 -0.522080 0.080803 0.600437 -0.176291 -0.270038 0.583924 -0.872567 0.040980 0.134111 0.398055 0.148367 -0.289007 0.013317 0.490924 -0.513096 0.257800 -0.293668 -0.523496 0.317546 
Pete_Buttigieg -0.037096 -0.060482 0.293631 0.111828 0.497630 -0.096879 0.265850 0.152667 -0.220134 -0.501057 -0.107320 0.425704 0.013194 0.718627 -0.421409 0.205136 -0.188979 0.458749 -0.113743 0.636453 0.568089 0.295786 0.276083 -0.317326 -0.030461 -0.140912 0.001433 -0.049692 -0.133203 -0.213570 -0.326138 0.043735 -0.004414 0.301506 0.499567 0.167519 -0.032203 -0.074216 -0.286868 -0.084218 0.245970 -0.091604 0.294372 0.135499 -0.251677 -0.140794 -0.042028 -0.112357 -0.143627 -0.157024 0.303524 0.123181 -0.039804 0.112015 0.252116 -0.282836 -0.460420 -0.461110 -0.270800 0.092531 -0.536188 0.272795 -0.483600 -0.150777 -0.100111 0.160158 0.033464 -0.243691 0.365479 -0.419084 0.272253 0.105917 -0.438638 0.261551 0.055347 -0.360089 -0.004918 -0.223050 -0.251282 0.330251 0.373635 0.656333 0.152436 -0.049670 -0.237557 0.150416 -0.897738 0.123678 0.459357 0.194974 -0.591577 0.211147 0.061887 -0.570714 -0.107055 0.422644 0.448365 0.272463 -0.321861 -0.442688 0.066694 -0.006022 0.028487 0.287786 -0.066186 0.047146 -0.181270 0.422361 -0.660160 -0.086798 -0.075030 -0.114192 0.377520 0.312052 -0.023963 0.463506 0.314646 0.616187 -0.088146 -0.318942 -0.189980 0.322789 -0.129677 -0.266193 0.660008 -0.261601 0.588898 -0.312032 0.484215 -0.399693 0.051163 0.508313 -0.142785 -0.215985 0.262602 -0.465346 0.221620 -0.194874 -0.308481 -0.207519 -0.199206 -0.359015 -0.221804 0.070986 -0.287488 -0.118337 0.184468 0.122100 0.151468 0.049894 -0.145218 0.050446 0.041226 -0.175680 -0.194770 -0.435421 0.138434 0.408374 -0.433896 -0.193923 0.051523 -0.244200 0.240129 0.479984 -0.116817 0.387286 -0.331810 0.027341 -0.033469 -0.138096 0.165192 0.176546 0.311432 0.273215 0.174507 0.048171 -0.160045 0.356384 -0.292143 -0.155475 0.031363 -0.335735 0.038971 0.344434 -0.080023 -0.130788 0.388373 -0.495199 0.104735 0.096966 0.207512 0.086202 -0.162207 0.038987 0.360031 -0.340113 0.144409 -0.189734 -0.355414 0.193090 
moderatepolitics -0.003961 -0.029301 0.376681 0.132340 0.613102 -0.183287 0.284476 0.194940 -0.205152 -0.356914 -0.072359 0.348284 0.042332 0.593111 -0.351084 0.151020 -0.153170 0.417228 -0.078404 0.659632 0.571662 0.264618 0.296245 -0.310132 0.010058 -0.107331 0.070543 -0.084603 -0.156590 -0.242490 -0.365621 0.051969 0.060492 0.147745 0.366643 0.133599 0.052779 -0.026615 -0.153802 -0.086366 0.365708 -0.127479 0.478062 0.137635 -0.334227 -0.167476 -0.007915 -0.183468 -0.238687 -0.251219 0.436945 0.258178 -0.069724 0.217501 0.323986 -0.447653 -0.448719 -0.532346 -0.234868 0.063135 -0.498445 0.267251 -0.450403 -0.190196 -0.125540 0.142768 0.096928 -0.278790 0.478578 -0.540952 0.359721 0.194215 -0.273901 0.166024 0.019045 -0.275554 -0.016973 -0.201708 -0.130620 0.199310 0.250808 0.503379 0.134037 -0.055982 -0.249119 0.181598 -0.666621 0.121953 0.300614 0.109883 -0.299776 0.118244 -0.013780 -0.337421 -0.046219 0.296752 0.342445 0.294834 -0.185061 -0.378749 0.112014 -0.036226 0.023516 0.244385 -0.064466 0.043348 -0.202194 0.370635 -0.536724 -0.070154 -0.150079 -0.166703 0.329665 0.312136 -0.032382 0.344189 0.235538 0.474760 -0.122797 -0.235133 -0.141152 0.244611 -0.085907 -0.176423 0.482397 -0.234086 0.470210 -0.234083 0.331369 -0.265541 -0.001601 0.312686 -0.072181 -0.140657 0.176912 -0.301752 0.237416 -0.209138 -0.346017 -0.212963 -0.265815 -0.386732 -0.239586 0.079926 -0.305267 -0.160529 0.247656 0.114842 0.133538 0.015036 -0.212209 0.090288 0.025494 -0.147425 -0.253269 -0.450443 0.146984 0.430395 -0.416816 -0.232838 0.008816 -0.179775 0.211726 0.385261 -0.138001 0.387586 -0.345159 -0.054408 -0.022098 -0.105705 0.089075 0.087474 0.210166 0.173782 0.117697 0.019145 -0.078726 0.304558 -0.200517 -0.147455 0.005660 -0.269925 0.084233 0.336252 -0.107681 -0.145826 0.360352 -0.507419 0.073547 0.082759 0.229350 0.080562 -0.237265 0.049945 0.335289 -0.335059 0.123112 -0.183386 -0.412287 0.233871 
ElizabethWarren 0.079023 -0.271602 0.251937 0.102825 0.855031 -0.159052 0.466897 0.164118 -0.021584 -0.292873 -0.228400 0.226364 0.026341 0.581300 -0.292521 0.068757 -0.174923 0.368540 -0.056379 0.612803 0.530370 0.198151 0.279226 -0.284736 0.009922 -0.253980 0.021496 -0.125441 -0.340107 -0.572594 -0.827197 0.214413 0.041814 0.441260 1.132385 0.457322 -0.031030 -0.214252 -0.430569 -0.226948 0.385149 -0.148021 0.617569 0.218620 -0.462267 -0.182757 0.041498 -0.337804 -0.220231 -0.276587 0.556031 0.168163 -0.084759 0.316687 0.394789 -0.518951 -0.524196 -0.528668 -0.217197 0.085682 -0.540997 0.336624 -0.488865 -0.198330 -0.168480 0.105731 0.010134 -0.218907 0.298531 -0.383584 0.190804 0.108208 -0.471525 0.298651 0.024826 -0.424955 -0.007163 -0.289403 -0.275761 0.325788 0.394842 0.722660 0.172491 -0.051344 -0.333223 0.221095 -0.967961 0.179278 0.437657 0.155361 -0.597698 0.207117 0.039285 -0.539199 -0.051470 0.462184 0.393238 0.281497 -0.267058 -0.433024 0.074572 -0.024074 0.074521 0.286976 -0.112026 0.029641 -0.098828 0.299833 -0.432602 -0.053846 -0.062177 -0.073228 0.211553 0.175821 -0.032504 0.282781 0.202262 0.372286 -0.054113 -0.120566 -0.073077 0.224157 -0.038152 -0.085388 0.421236 -0.231989 0.412550 -0.220789 0.344746 -0.238476 -0.062865 0.283153 -0.039069 -0.177011 0.165700 -0.289815 0.368503 -0.241856 -0.466683 -0.256057 -0.319126 -0.584814 -0.338288 0.114446 -0.441039 -0.213336 0.321914 0.133401 0.172578 0.143837 -0.225318 0.098078 0.173074 -0.118311 -0.168014 -0.360718 0.022411 0.368159 -0.401085 -0.165276 0.022596 -0.232330 0.275773 0.402489 -0.157325 0.362545 -0.262552 -0.013848 -0.070283 -0.178620 0.171347 0.237149 0.430911 0.370757 0.171011 0.016528 -0.113872 0.325000 -0.179332 -0.118613 -0.084300 -0.256865 0.028261 0.288697 -0.077155 -0.163716 0.382066 -0.597243 0.012002 0.038152 0.258961 0.080982 -0.288162 0.011268 0.434722 -0.488549 0.236091 -0.236610 -0.474376 0.305232 
progressive -0.048971 -0.169609 0.566676 0.181817 0.896129 -0.202519 0.463036 0.146248 -0.143464 -0.376209 -0.104296 0.290303 0.033541 0.588290 -0.326993 0.169273 -0.138270 0.382804 -0.070094 0.546446 0.450920 0.244409 0.180959 -0.249289 -0.003874 -0.215607 0.004977 -0.091978 -0.216352 -0.342595 -0.526315 0.092120 -0.011448 0.345976 0.699340 0.254869 -0.023944 -0.113697 -0.294080 -0.093003 0.459479 -0.167445 0.558634 0.200474 -0.478332 -0.255465 -0.031980 -0.238652 -0.259964 -0.284163 0.525869 0.215317 -0.068313 0.242417 0.443598 -0.513425 -0.499649 -0.479035 -0.237604 0.089531 -0.539649 0.278948 -0.505519 -0.170880 -0.115699 0.158374 0.038099 -0.240349 0.312935 -0.386291 0.241948 0.109572 -0.296145 0.197290 0.014356 -0.198279 0.012099 -0.169197 -0.179182 0.229076 0.327792 0.460013 0.094346 0.008935 -0.146938 0.104681 -0.707117 0.072784 0.368699 0.177333 -0.551530 0.165727 0.057642 -0.504182 -0.099078 0.400442 0.346955 0.148212 -0.260484 -0.338607 0.046118 0.003366 0.039508 0.212657 -0.062060 0.029711 -0.150799 0.332274 -0.489007 -0.059061 -0.060763 -0.099169 0.362094 0.297794 -0.030965 0.444592 0.292310 0.594373 -0.130070 -0.272549 -0.195744 0.303336 -0.163318 -0.245862 0.580397 -0.239606 0.529261 -0.301641 0.486380 -0.407896 0.067123 0.553239 -0.170911 -0.196432 0.282715 -0.456081 0.271987 -0.252472 -0.381991 -0.222284 -0.261496 -0.441975 -0.281731 0.096691 -0.364543 -0.228356 0.256124 0.153037 0.177908 -0.037074 -0.256064 0.052480 -0.010226 -0.165832 -0.256390 -0.493866 0.176864 0.452759 -0.494397 -0.198696 0.042624 -0.187187 0.232318 0.429102 -0.039918 0.367932 -0.352390 0.037718 -0.052934 -0.122248 0.179496 0.098793 0.320476 0.299671 0.213947 0.079974 -0.081214 0.227126 -0.198116 -0.126412 0.069150 -0.216625 0.037746 0.227174 0.004931 -0.070531 0.273233 -0.351535 0.113305 0.008648 0.102686 0.026047 -0.085604 0.058352 0.167688 -0.165085 0.020633 -0.072378 -0.199556 0.107738 
JoeBiden 0.069488 -0.343932 0.214486 0.047896 1.186265 -0.149948 0.793306 0.255888 0.212025 -0.118927 -0.338977 -0.014630 -0.067391 0.235165 -0.078090 -0.015078 -0.251183 0.373890 -0.033103 0.272846 0.278341 0.160732 0.186759 -0.200266 0.001735 -0.190370 -0.124368 0.006348 -0.145682 -0.396157 -0.508026 0.143871 -0.094306 0.331703 0.874176 0.322811 -0.208589 -0.336241 -0.256712 -0.069567 0.126768 -0.082484 0.456588 0.319813 -0.380595 -0.101672 0.062695 -0.331917 -0.022518 -0.088931 0.395006 -0.155082 -0.092996 0.190497 0.187552 -0.330768 -0.587318 -0.423969 -0.274900 0.175266 -0.660123 0.467739 -0.559983 -0.155403 -0.256252 0.094113 -0.175326 -0.168425 0.079425 -0.269005 0.020549 -0.140043 -0.569086 0.483734 -0.047631 -0.484539 0.095506 -0.241129 -0.464052 0.466657 0.724220 0.948544 0.308241 0.141244 -0.196367 0.184183 -1.535386 0.181039 0.734175 0.326335 -1.191868 0.391105 0.213947 -0.969751 -0.168236 0.700111 0.659651 0.141686 -0.569881 -0.587397 -0.069644 0.056884 0.125023 0.326722 -0.159669 0.049426 0.142823 0.230085 -0.520265 -0.116822 0.311541 0.226798 0.057891 -0.087152 0.049090 0.484906 0.234789 0.481094 0.091077 -0.085209 -0.042972 0.376043 -0.091828 -0.090359 0.637199 -0.295269 0.607096 -0.499546 0.559509 -0.301400 -0.079829 0.419685 0.068516 -0.382195 0.199491 -0.338650 0.649103 -0.385911 -0.741674 -0.468491 -0.455997 -1.031914 -0.578234 0.235335 -0.821647 -0.308735 0.511834 0.267603 0.333412 0.419433 -0.242874 0.136750 0.372882 -0.002352 0.090315 -0.077885 -0.185112 0.069642 -0.217231 0.023533 0.061043 -0.247109 0.242158 0.327005 -0.083620 0.099902 0.046757 0.073898 -0.029024 -0.095464 0.095621 0.388772 0.245007 0.199574 -0.043306 -0.044866 -0.284804 0.585386 -0.402573 -0.138348 -0.164270 -0.500458 -0.068396 0.458651 -0.084798 -0.154681 0.301934 -0.510472 -0.116870 0.091699 0.311703 0.073283 0.136280 -0.201633 0.024515 -0.065212 0.216484 -0.068893 0.021499 0.011502 
Kamala 0.061195 -0.272560 0.179692 0.106870 1.193759 -0.156544 0.753448 0.224097 0.185631 -0.012969 -0.249975 -0.066695 -0.039414 0.125735 -0.007617 -0.042111 -0.211133 0.362820 -0.031189 0.399870 0.361629 0.166078 0.204463 -0.237723 0.015267 -0.169792 -0.108482 0.009371 -0.112949 -0.297248 -0.377160 0.125184 -0.069259 0.230005 0.677617 0.266568 -0.165890 -0.254356 -0.175353 -0.046834 0.094791 -0.070552 0.377195 0.214351 -0.279038 -0.059385 0.082995 -0.261559 -0.020571 -0.066078 0.304439 -0.105133 -0.048388 0.134411 0.153617 -0.262783 -0.366023 -0.243168 -0.120271 0.110849 -0.365795 0.307535 -0.325232 -0.096880 -0.181404 0.050580 -0.136308 -0.085382 -0.035644 -0.084765 -0.076016 -0.107687 -0.535769 0.506482 -0.075019 -0.473948 0.109264 -0.275959 -0.437651 0.444019 0.765627 0.981115 0.313897 0.138196 -0.241666 0.236965 -1.610720 0.199105 0.537896 0.256756 -1.021919 0.285705 0.180957 -0.779540 -0.128624 0.597071 0.331271 -0.074065 -0.353286 -0.242874 -0.117137 0.066645 0.113781 0.102721 -0.160370 0.045137 0.171392 0.178159 -0.376044 -0.074122 0.289966 0.232777 -0.018339 -0.119162 0.031638 0.366711 0.188187 0.368096 0.075126 -0.003770 -0.104307 0.428569 -0.114200 -0.145200 0.748062 -0.375738 0.703437 -0.486797 0.645801 -0.411038 -0.069473 0.515733 -0.021204 -0.393888 0.267108 -0.485922 0.626573 -0.395235 -0.766592 -0.443209 -0.501297 -0.999359 -0.558572 0.221031 -0.783962 -0.345353 0.511918 0.271567 0.326551 0.321276 -0.314423 0.154186 0.336576 -0.067368 -0.028937 -0.241205 -0.116001 0.252512 -0.347755 -0.073702 0.044855 -0.310108 0.333346 0.500267 -0.150714 0.341658 -0.189693 0.034079 -0.061219 -0.206109 0.214670 0.401705 0.475038 0.400237 0.120732 0.009285 -0.310552 0.723347 -0.494850 -0.244574 -0.126470 -0.640744 0.021957 0.657448 -0.118068 -0.251471 0.536897 -0.838918 -0.017892 0.103593 0.401255 0.121080 -0.074053 -0.089843 0.287178 -0.321915 0.261972 -0.200314 -0.267053 0.185542 
SocialDemocracy 0.034455 -0.237841 0.188146 -0.027645 0.255925 -0.006825 0.204282 0.072679 0.104186 -0.152207 -0.207477 0.063976 -0.007294 0.314421 -0.138610 0.048759 -0.123874 0.196775 -0.001163 0.194743 0.170810 0.089505 0.088245 -0.081776 -0.003595 -0.066409 -0.110128 -0.001323 -0.054447 -0.153181 -0.204243 0.076164 -0.092555 0.154078 0.438175 0.159599 -0.115153 -0.190004 -0.100421 -0.005524 0.053241 -0.026900 0.210779 0.152907 -0.207975 -0.065453 0.029709 -0.178445 -0.003211 -0.064301 0.216661 -0.105315 -0.076739 0.122695 0.148980 -0.179890 -0.567636 -0.501087 -0.265334 0.089409 -0.603978 0.374779 -0.552164 -0.189462 -0.187316 0.124506 -0.025452 -0.255772 0.303206 -0.450882 0.199781 0.076749 -0.389314 0.321403 -0.015354 -0.335782 0.041778 -0.197560 -0.310461 0.299707 0.487079 0.672713 0.186374 0.083729 -0.159387 0.162434 -1.058412 0.124667 0.397596 0.201084 -0.705818 0.208832 0.095696 -0.557688 -0.094300 0.437958 0.345306 0.020906 -0.318808 -0.316604 -0.025956 0.045179 0.108697 0.169602 -0.138942 0.061984 -0.130784 0.431405 -0.718708 -0.158115 0.035308 -0.036263 0.337478 0.236258 0.005576 0.645098 0.358200 0.752778 -0.080731 -0.228209 -0.182252 0.434576 -0.177560 -0.222150 0.797359 -0.382271 0.792894 -0.517218 0.647558 -0.451310 -0.039417 0.615618 -0.045940 -0.364781 0.312338 -0.477657 0.447221 -0.312995 -0.534785 -0.313884 -0.343383 -0.755824 -0.420661 0.156208 -0.593505 -0.260191 0.410491 0.182601 0.244533 0.233030 -0.224202 0.063817 0.242671 -0.082859 -0.179224 -0.411226 -0.005595 0.385364 -0.468864 -0.145572 0.079131 -0.316256 0.374892 0.563778 -0.145552 0.412293 -0.324735 0.007076 -0.060671 -0.207728 0.221323 0.324254 0.507552 0.482667 0.232682 0.030128 -0.147596 0.438185 -0.290361 -0.161250 -0.052307 -0.369419 0.005251 0.373344 0.007450 -0.055321 0.238291 -0.362226 -0.039569 0.017485 0.196735 0.046273 -0.083991 -0.089739 0.203374 -0.260553 0.163720 -0.111607 -0.227251 0.163770 
demsocialist 0.039735 -0.179428 0.343965 0.079189 0.614715 -0.097241 0.283875 0.106389 0.039175 -0.101036 -0.139241 0.072515 0.000848 0.235211 -0.105640 0.026546 -0.119709 0.211453 -0.027180 0.282200 0.266323 0.096391 0.149824 -0.132974 0.008311 -0.137976 -0.001236 -0.048814 -0.147527 -0.303251 -0.431610 0.111740 0.005294 0.207122 0.581936 0.217271 -0.043509 -0.151294 -0.188073 -0.079429 0.283253 -0.115466 0.489248 0.198366 -0.349329 -0.143512 0.021768 -0.267671 -0.166056 -0.216309 0.464358 0.125014 -0.085057 0.240455 0.318854 -0.426601 -0.530686 -0.545916 -0.255294 0.089033 -0.565293 0.358396 -0.504401 -0.200650 -0.170544 0.133224 0.013000 -0.268599 0.377890 -0.482851 0.249445 0.129406 -0.368501 0.282668 -0.001888 -0.339485 0.038109 -0.212003 -0.240116 0.281313 0.428938 0.666192 0.187584 0.028819 -0.213754 0.192123 -0.977704 0.140595 0.464747 0.191699 -0.666104 0.223854 0.066797 -0.595735 -0.078954 0.482845 0.453031 0.241575 -0.329955 -0.454659 0.059898 -0.011972 0.074392 0.290239 -0.104590 0.054956 -0.139721 0.379023 -0.582741 -0.092143 -0.047553 -0.091604 0.316652 0.246400 -0.021849 0.448987 0.279714 0.555034 -0.079517 -0.213823 -0.097688 0.251423 -0.076739 -0.118456 0.459721 -0.225344 0.455154 -0.267811 0.367787 -0.261894 -0.034669 0.325826 -0.033200 -0.206524 0.158357 -0.278837 0.345398 -0.258332 -0.444956 -0.259869 -0.308531 -0.573335 -0.316020 0.113892 -0.428184 -0.192650 0.313728 0.147075 0.185889 0.130146 -0.215558 0.087040 0.139571 -0.140855 -0.215692 -0.451661 0.066717 0.441401 -0.453970 -0.202829 0.042695 -0.272507 0.298042 0.489098 -0.171595 0.422220 -0.348052 -0.033063 -0.044068 -0.184844 0.176444 0.222173 0.392925 0.353640 0.187306 0.023212 -0.133790 0.420883 -0.265272 -0.160292 -0.032471 -0.359841 0.069248 0.421823 -0.071840 -0.120382 0.312800 -0.466460 0.015669 0.058647 0.217561 0.079202 -0.185371 -0.013784 0.297481 -0.320467 0.147002 -0.165827 -0.324023 0.200185 
BetoORourke 0.047172 -0.167651 0.310260 0.132346 0.839579 -0.122735 0.355022 0.139090 -0.006451 -0.127998 -0.118247 0.110699 -0.003821 0.245066 -0.118181 0.021519 -0.125095 0.236614 -0.044793 0.346761 0.321933 0.118817 0.185853 -0.185129 0.018565 -0.227265 0.052419 -0.078282 -0.252974 -0.463626 -0.665775 0.158893 0.066743 0.339027 0.868619 0.332743 -0.022916 -0.160534 -0.337526 -0.169764 0.369395 -0.149842 0.587199 0.218726 -0.397902 -0.162569 0.023369 -0.284830 -0.240485 -0.270760 0.555537 0.214227 -0.066224 0.271999 0.375666 -0.525245 -0.417561 -0.424733 -0.193571 0.090720 -0.444448 0.289336 -0.391361 -0.153013 -0.131738 0.106469 -0.009441 -0.182869 0.255025 -0.319768 0.161198 0.060931 -0.340258 0.287494 -0.021341 -0.319938 0.049326 -0.192528 -0.229436 0.272791 0.421340 0.633884 0.196453 0.022558 -0.209132 0.175693 -0.951004 0.142710 0.380373 0.152009 -0.575109 0.185858 0.082885 -0.497829 -0.069835 0.384431 0.307732 0.135376 -0.241553 -0.282976 0.001121 0.000028 0.045366 0.175633 -0.094197 0.043638 -0.045879 0.269438 -0.432307 -0.038030 0.015033 -0.009465 0.227054 0.164588 -0.023776 0.333435 0.220806 0.414010 -0.031097 -0.169503 -0.102808 0.277269 -0.055721 -0.139330 0.523732 -0.249666 0.478184 -0.251896 0.414118 -0.306426 -0.021382 0.349996 -0.070427 -0.212135 0.183194 -0.369266 0.296125 -0.198015 -0.396924 -0.224959 -0.269114 -0.464204 -0.259295 0.096312 -0.348860 -0.157231 0.237067 0.133941 0.156356 0.117324 -0.181275 0.099044 0.124891 -0.158304 -0.162249 -0.371514 0.056807 0.384336 -0.383071 -0.186094 0.016315 -0.246804 0.250933 0.450532 -0.176961 0.411599 -0.318055 -0.016932 -0.036731 -0.159567 0.156158 0.192146 0.326244 0.265029 0.134967 0.025520 -0.173441 0.418070 -0.288897 -0.170256 -0.031099 -0.384318 0.076831 0.434605 -0.130075 -0.212463 0.452083 -0.655381 0.075087 0.103743 0.276073 0.117509 -0.223380 0.050648 0.393254 -0.391679 0.178486 -0.231887 -0.388129 0.229388 
ConservativeDemocrat 0.040939 -0.194536 0.427284 0.154572 0.934801 -0.157748 0.422169 0.155855 -0.020712 -0.200822 -0.141829 0.161653 0.001255 0.365797 -0.186174 0.059523 -0.130505 0.257086 -0.045595 0.358667 0.323367 0.140528 0.178176 -0.181397 0.006764 -0.154278 0.001451 -0.051426 -0.171128 -0.326355 -0.465344 0.120385 0.015621 0.256765 0.664676 0.253065 -0.043558 -0.153155 -0.242887 -0.112506 0.293729 -0.115133 0.489427 0.197321 -0.352056 -0.143437 0.020648 -0.262076 -0.171586 -0.212864 0.456180 0.128268 -0.069847 0.231578 0.309574 -0.423886 -0.407835 -0.398420 -0.190579 0.080562 -0.434202 0.285917 -0.384506 -0.147713 -0.131353 0.090795 -0.019917 -0.170561 0.222190 -0.301035 0.134594 0.054650 -0.272289 0.243792 -0.024755 -0.258674 0.050513 -0.141676 -0.207664 0.220409 0.362570 0.509958 0.162438 0.050523 -0.136570 0.135569 -0.790932 0.106079 0.396525 0.162672 -0.615051 0.195285 0.085470 -0.523515 -0.066942 0.412496 0.340032 0.144348 -0.267361 -0.323692 0.006272 0.006277 0.063624 0.200425 -0.130726 0.066688 -0.108181 0.394387 -0.618689 -0.085577 -0.017132 -0.055522 0.328887 0.247941 -0.022165 0.476822 0.305210 0.590049 -0.062818 -0.225664 -0.139330 0.333550 -0.090543 -0.186871 0.638459 -0.300975 0.608177 -0.330576 0.498002 -0.371030 -0.026675 0.446623 -0.083708 -0.251177 0.233528 -0.424674 0.448712 -0.338784 -0.589060 -0.355309 -0.409992 -0.717291 -0.415407 0.139288 -0.533167 -0.250670 0.385986 0.192144 0.237401 0.129295 -0.298991 0.132019 0.138029 -0.171074 -0.220524 -0.475284 0.084275 0.471544 -0.484447 -0.220093 0.038001 -0.305886 0.328274 0.560949 -0.190590 0.497174 -0.399278 -0.018803 -0.069942 -0.241352 0.245629 0.274915 0.529584 0.453381 0.251469 0.043394 -0.212217 0.586081 -0.392981 -0.243480 -0.031537 -0.514379 0.099392 0.589686 -0.118931 -0.196763 0.471533 -0.685697 0.059823 0.094999 0.298729 0.111184 -0.283409 0.032771 0.474547 -0.492010 0.227459 -0.269305 -0.513328 0.304649 
