15 200
BaemyKlobaechar 0.166991 -0.406171 0.081639 -0.290839 0.518671 -0.097622 0.389288 0.078287 0.109453 -0.462710 -0.406430 0.383313 0.025663 0.761148 -0.524784 0.077704 -0.264565 0.434647 0.015130 0.585042 0.438388 0.220472 0.347131 -0.184977 0.000888 0.288223 -0.238137 -0.062967 -0.262420 -0.453753 -0.373411 0.095081 -0.079675 0.081324 0.826036 0.320873 -0.178602 -0.370850 -0.027086 -0.175925 0.179980 -0.011331 0.575099 0.510580 -0.584019 -0.068436 0.172447 -0.497278 -0.116859 -0.248349 0.350952 -0.199963 -0.364259 0.442887 -0.056772 -0.551392 -0.684501 -0.365293 -0.197876 0.088378 -0.777610 0.515305 -0.614578 -0.214244 -0.336585 -0.132769 -0.165037 -0.010861 0.131190 -0.528252 0.201355 -0.244813 -0.030162 0.363028 -0.374026 -0.325735 0.004386 -0.087852 -0.379666 -0.034553 0.293422 0.441429 0.405157 0.287939 -0.150000 0.177148 -0.792320 0.297776 0.124345 0.009071 -0.385890 0.202896 -0.001792 -0.075232 0.082397 0.140921 0.117555 -0.044777 -0.203725 -0.264039 -0.106664 0.081814 0.248031 0.047907 -0.220993 -0.010424 0.072704 0.089584 -0.331290 -0.176006 0.140200 0.065287 0.015460 -0.041410 -0.011486 0.344986 0.204680 0.376591 0.062394 0.134290 -0.001592 0.086509 0.028084 0.047350 0.317358 -0.253997 0.478691 -0.392701 0.255650 0.070728 -0.233472 0.128369 0.335685 -0.111695 0.221549 -0.047244 0.213185 -0.066156 -0.151339 -0.189457 -0.108583 -0.295317 -0.292059 0.201663 -0.353960 -0.083211 0.334823 -0.107441 -0.131152 0.295300 0.066320 0.016793 0.299724 0.108827 -0.266603 -0.280320 -0.051805 0.287659 -0.545799 -0.209117 -0.008879 -0.238910 0.615403 0.423570 -0.258251 0.418999 -0.175055 -0.116655 -0.253375 0.091219 -0.181229 0.300343 0.431902 0.175133 -0.150621 -0.158234 0.018053 0.393485 -0.054096 -0.175424 -0.331328 -0.004057 -0.229216 0.147171 -0.063155 -0.067556 0.267286 -0.387606 -0.310194 0.113605 0.395644 -0.041103 -0.154385 -0.241878 -0.031998 -0.131436 0.244651 0.075994 -0.492286 0.356586 
politics 0.172290 -0.413545 0.336148 -0.348949 0.871038 -0.236254 0.591074 0.170377 -0.033486 -0.402052 -0.270158 0.340707 0.050109 0.640604 -0.442453 0.092918 -0.169519 0.340594 -0.011509 0.441231 0.337528 0.186404 0.240433 -0.169568 -0.005510 0.170165 -0.106474 -0.103209 -0.272284 -0.451737 -0.451607 0.060561 -0.013481 0.181225 0.836899 0.313993 -0.083062 -0.296130 -0.098676 -0.193668 0.185292 -0.048928 0.422325 0.289520 -0.378209 -0.081149 0.093460 -0.278860 -0.137536 -0.181052 0.321009 -0.040764 -0.181889 0.304890 0.048529 -0.425251 -0.440841 -0.340452 -0.153171 0.066837 -0.522530 0.330931 -0.408626 -0.160576 -0.213230 -0.046617 -0.047639 -0.059958 0.187252 -0.412457 0.226163 -0.091033 -0.148319 0.345571 -0.348105 -0.402322 0.001762 -0.197189 -0.359372 0.057627 0.330545 0.614539 0.467028 0.246959 -0.263659 0.243986 -0.973290 0.341822 0.244557 0.035346 -0.477084 0.270555 -0.020057 -0.180375 0.061466 0.229330 0.350205 0.103167 -0.329294 -0.536356 -0.078473 0.006807 0.356699 0.183062 -0.340697 -0.029899 0.020011 0.277750 -0.625740 -0.245078 0.077976 -0.061311 0.190690 0.079902 -0.029725 0.509504 0.406872 0.638817 0.028218 0.059572 -0.039178 0.134217 0.018161 -0.068387 0.353595 -0.247880 0.565331 -0.408818 0.304419 -0.070522 -0.179529 0.216491 0.235615 -0.119141 0.232431 -0.118703 0.423600 -0.249480 -0.354557 -0.407225 -0.310895 -0.620101 -0.527752 0.274751 -0.598327 -0.134927 0.564421 -0.052767 -0.088888 0.363902 -0.058557 0.066570 0.192842 0.025963 -0.288676 -0.470051 0.071003 0.400600 -0.585579 -0.274490 0.002807 -0.287658 0.535860 0.515450 -0.254889 0.487689 -0.271872 -0.127068 -0.271197 -0.008769 -0.027852 0.288672 0.543190 0.290491 -0.023662 -0.075818 0.039920 0.494238 -0.143706 -0.202124 -0.261080 -0.161748 -0.143609 0.323351 -0.133101 -0.122815 0.345865 -0.548686 -0.232965 0.074928 0.429201 -0.045127 -0.246699 -0.170662 0.118402 -0.275820 0.188477 -0.030530 -0.654941 0.425609 
YangForPresidentHQ 0.174222 -0.256953 0.178760 -0.221118 0.456696 -0.104742 0.290036 0.084699 -0.042341 -0.350450 -0.230322 0.293754 0.063465 0.567930 -0.385548 0.069425 -0.185384 0.356124 -0.014663 0.481295 0.374672 0.171335 0.266206 -0.189030 0.001540 0.112535 -0.034975 -0.091554 -0.236665 -0.412329 -0.414298 0.050921 0.041048 0.159282 0.721530 0.273459 -0.042548 -0.231687 -0.081117 -0.172258 0.227851 -0.088970 0.605785 0.377871 -0.479872 -0.077067 0.150107 -0.358819 -0.208059 -0.247408 0.452674 -0.024319 -0.223804 0.411086 0.056083 -0.588540 -0.647617 -0.529888 -0.213173 0.095131 -0.755295 0.522375 -0.609335 -0.230198 -0.339876 -0.085116 -0.072388 -0.107565 0.302392 -0.622976 0.340891 -0.119907 -0.096120 0.158621 -0.155093 -0.201735 0.013637 -0.130160 -0.143677 0.045211 0.176843 0.366378 0.254099 0.103127 -0.176818 0.142787 -0.543493 0.197145 0.292335 0.052103 -0.589830 0.314599 -0.026804 -0.239564 0.060852 0.296912 0.458146 0.171272 -0.408860 -0.668748 -0.067831 -0.023769 0.438063 0.252055 -0.362906 -0.042581 0.017359 0.328723 -0.664905 -0.231997 0.059384 -0.083873 0.231540 0.112100 -0.054307 0.527035 0.485386 0.710175 0.022698 0.042946 -0.039670 0.173889 0.048723 -0.078209 0.455765 -0.339823 0.724045 -0.500152 0.389782 -0.098191 -0.256803 0.259332 0.293839 -0.173359 0.299745 -0.180456 0.341653 -0.215917 -0.321670 -0.336419 -0.295951 -0.507836 -0.431863 0.201819 -0.480149 -0.102352 0.462912 -0.020723 -0.058718 0.274428 -0.084742 0.060869 0.120212 -0.017408 -0.201873 -0.379805 0.078461 0.323188 -0.429723 -0.232531 -0.009959 -0.201391 0.324366 0.358961 -0.198530 0.354855 -0.204334 -0.094201 -0.207132 -0.027169 0.004900 0.225635 0.439200 0.230844 -0.012067 -0.040568 0.027590 0.330080 -0.105756 -0.130998 -0.151060 -0.148220 -0.057646 0.247294 -0.119797 -0.130881 0.246216 -0.428497 -0.153714 0.043318 0.308496 -0.038412 -0.213378 -0.077146 0.133552 -0.231488 0.096834 -0.057852 -0.493317 0.300786 
SandersForPresident 0.240367 -0.415092 0.264136 -0.417829 0.912254 -0.194055 0.537062 0.137035 -0.043980 -0.444884 -0.284346 0.382652 0.061578 0.668721 -0.462925 0.089634 -0.230536 0.406699 -0.025562 0.542319 0.438104 0.191584 0.318536 -0.187429 -0.014823 0.193921 -0.066784 -0.121121 -0.276694 -0.506263 -0.464898 0.050597 0.030958 0.174293 0.858626 0.322193 -0.071531 -0.298895 -0.080471 -0.202347 0.156940 -0.062144 0.427694 0.278279 -0.352785 -0.054799 0.097325 -0.245793 -0.151115 -0.193290 0.329092 -0.013581 -0.198678 0.307522 0.028573 -0.429986 -0.393870 -0.333057 -0.157236 0.053415 -0.491740 0.333268 -0.393862 -0.133914 -0.203889 -0.075260 -0.040038 -0.065752 0.193622 -0.389046 0.218232 -0.068570 -0.084569 0.199439 -0.194644 -0.273176 0.001243 -0.136417 -0.209080 0.022913 0.208687 0.454980 0.338601 0.156454 -0.213748 0.191410 -0.679791 0.274268 0.227174 0.048954 -0.399880 0.228883 -0.052914 -0.170973 0.033829 0.213637 0.335525 0.179025 -0.260478 -0.459037 0.005964 -0.043680 0.281444 0.186689 -0.215811 -0.049824 -0.044270 0.266491 -0.468948 -0.175560 -0.038725 -0.132264 0.169615 0.123654 -0.037239 0.293475 0.327063 0.458332 -0.011224 -0.021487 -0.056525 0.113335 0.015974 -0.109632 0.316946 -0.219899 0.510849 -0.340829 0.260718 -0.100439 -0.155524 0.208795 0.156419 -0.102562 0.222258 -0.144290 0.264021 -0.192772 -0.263107 -0.288899 -0.256559 -0.399383 -0.366277 0.151768 -0.413043 -0.072073 0.410325 -0.019818 -0.040652 0.207023 -0.075663 0.043576 0.170108 0.021148 -0.237691 -0.370611 0.064568 0.318965 -0.493345 -0.256597 -0.002538 -0.240269 0.463863 0.426055 -0.265605 0.416604 -0.216546 -0.115206 -0.320784 0.029119 -0.124177 0.376408 0.622783 0.301347 -0.077900 -0.125857 0.041544 0.534503 -0.122348 -0.233238 -0.319738 -0.135379 -0.169081 0.295981 -0.123205 -0.109490 0.284829 -0.429620 -0.213586 0.087974 0.371124 -0.044299 -0.236955 -0.147269 0.067683 -0.215940 0.145818 0.022841 -0.570014 0.364280 
centerleftpolitics 0.197342 -0.489521 -0.066677 -0.341605 0.520467 -0.048321 0.412169 0.045382 0.254063 -0.324910 -0.419943 0.269089 -0.040691 0.589269 -0.401039 0.029783 -0.257485 0.337343 0.049892 0.490175 0.353791 0.162338 0.311544 -0.129604 0.026477 0.361804 -0.366993 0.020422 -0.204174 -0.377444 -0.250553 0.139088 -0.160484 -0.029068 0.730352 0.287201 -0.276784 -0.409066 0.051376 -0.121883 0.078806 0.054572 0.411742 0.514453 -0.494099 -0.012688 0.169783 -0.528054 0.003045 -0.184129 0.170537 -0.314945 -0.376950 0.353583 -0.147526 -0.364953 -0.685056 -0.206469 -0.153921 0.079992 -0.724481 0.495892 -0.561301 -0.196481 -0.320246 -0.142455 -0.260058 0.058655 -0.023325 -0.424613 0.047283 -0.342916 0.081407 0.432972 -0.438046 -0.262535 0.016165 0.017930 -0.421420 -0.117635 0.314428 0.324299 0.389683 0.369011 -0.041140 0.132254 -0.728687 0.273084 0.053026 -0.013736 -0.384219 0.188409 0.027333 -0.018184 0.104874 0.096707 -0.065387 -0.193283 -0.148825 -0.081013 -0.164663 0.166492 0.178230 -0.064104 -0.156349 0.015985 0.131121 -0.052371 -0.157174 -0.127340 0.235009 0.194080 -0.112796 -0.153850 -0.002742 0.275165 0.055725 0.212543 0.103078 0.203010 0.033118 0.023563 0.014989 0.159657 0.188740 -0.166530 0.219783 -0.240334 0.123891 0.186360 -0.177573 0.000257 0.323525 -0.073121 0.110659 0.035833 0.117151 0.046980 -0.039747 -0.060178 0.024083 -0.133823 -0.152882 0.199537 -0.238918 -0.071634 0.208195 -0.148779 -0.168818 0.295930 0.163999 -0.008631 0.459349 0.195113 -0.318681 -0.201743 -0.179297 0.282264 -0.641964 -0.200172 -0.015358 -0.262259 0.818582 0.452641 -0.307739 0.458448 -0.151716 -0.130192 -0.349561 0.180817 -0.335455 0.434709 0.558810 0.194551 -0.296277 -0.275328 0.004810 0.534701 -0.035125 -0.237415 -0.540204 0.071541 -0.400951 0.147690 -0.072208 -0.085433 0.402469 -0.545073 -0.537128 0.211783 0.607935 -0.040781 -0.193721 -0.434222 -0.115089 -0.149887 0.436358 0.155366 -0.708739 0.552325 
Pete_Buttigieg 0.223044 -0.627075 0.224809 -0.331402 0.636246 -0.138881 0.418259 0.099730 0.071082 -0.326108 -0.264043 0.260008 0.030873 0.558200 -0.384134 0.063432 -0.185528 0.335680 0.017494 0.501543 0.352784 0.184582 0.253143 -0.143312 -0.001871 0.216616 -0.201913 -0.060176 -0.208856 -0.319620 -0.268854 0.074076 -0.087578 0.073312 0.611980 0.248534 -0.128854 -0.256377 -0.038212 -0.129024 0.205069 -0.018322 0.543418 0.470173 -0.584748 -0.085900 0.161597 -0.475746 -0.124109 -0.260056 0.335537 -0.175186 -0.356043 0.437167 -0.025180 -0.533775 -0.638451 -0.339451 -0.171010 0.067625 -0.712075 0.446396 -0.571910 -0.202278 -0.280123 -0.109497 -0.125548 -0.012675 0.107395 -0.442809 0.171833 -0.193453 -0.060044 0.378558 -0.379322 -0.353590 -0.015577 -0.124220 -0.410034 -0.024415 0.270165 0.392869 0.348743 0.254361 -0.148084 0.164608 -0.716142 0.268069 0.038255 -0.001392 -0.219945 0.102632 -0.001840 -0.022511 0.070199 0.076335 0.087114 -0.060888 -0.172567 -0.229041 -0.085453 0.088959 0.222982 0.048481 -0.221920 -0.013535 0.052807 0.084623 -0.325868 -0.176389 0.131624 0.051779 0.014604 -0.028393 -0.014418 0.302664 0.151107 0.324985 0.034190 0.129869 -0.022321 0.109772 0.011763 0.046582 0.374402 -0.297547 0.562505 -0.463841 0.301842 0.068026 -0.262046 0.179369 0.364712 -0.111305 0.264882 -0.065588 0.232498 -0.072117 -0.158319 -0.185385 -0.113897 -0.316292 -0.314827 0.224576 -0.390321 -0.122591 0.365201 -0.117399 -0.137683 0.285811 0.055574 0.013015 0.257806 0.103481 -0.260651 -0.265331 -0.038824 0.270434 -0.508566 -0.184700 -0.007663 -0.213995 0.588139 0.399346 -0.216570 0.406976 -0.194662 -0.103484 -0.232653 0.080544 -0.161903 0.258524 0.374898 0.177283 -0.102618 -0.123964 0.009876 0.365777 -0.062218 -0.178960 -0.282234 -0.015504 -0.195724 0.146626 -0.040082 -0.058542 0.270119 -0.392885 -0.270785 0.075616 0.365590 -0.046139 -0.157686 -0.214188 -0.009729 -0.145975 0.228308 0.072313 -0.467413 0.354227 
moderatepolitics 0.167482 -0.459389 0.197234 -0.253253 0.580635 -0.127489 0.386898 0.108551 0.037013 -0.356711 -0.286327 0.301124 0.025122 0.605366 -0.417895 0.071367 -0.205398 0.376965 0.007958 0.520961 0.382693 0.205875 0.288581 -0.186380 0.011068 0.186385 -0.144995 -0.072576 -0.245835 -0.396646 -0.378341 0.077017 -0.039405 0.124807 0.753352 0.286955 -0.103366 -0.285784 -0.068990 -0.170063 0.176389 -0.024496 0.461697 0.366370 -0.437438 -0.065096 0.129358 -0.363476 -0.118378 -0.200058 0.308296 -0.107791 -0.243138 0.341196 0.005628 -0.451739 -0.665404 -0.425625 -0.197394 0.085302 -0.754771 0.492845 -0.595736 -0.224101 -0.307680 -0.087742 -0.115204 -0.047616 0.196297 -0.536618 0.244202 -0.178422 -0.061973 0.291509 -0.300105 -0.274006 -0.001110 -0.102812 -0.298073 0.009519 0.248046 0.383485 0.334088 0.211949 -0.135109 0.151738 -0.672915 0.226484 0.165336 0.022840 -0.370961 0.197642 -0.010578 -0.126712 0.056785 0.175641 0.214465 0.025217 -0.238683 -0.366282 -0.083364 0.042157 0.260170 0.103438 -0.205059 -0.000522 0.030243 0.130872 -0.364236 -0.146466 0.091028 0.004243 0.084804 0.016068 -0.011843 0.340795 0.219233 0.394597 0.020651 0.073242 -0.021354 0.084822 0.002380 0.007642 0.237321 -0.189342 0.361224 -0.286225 0.217495 -0.001630 -0.143974 0.124887 0.214325 -0.093645 0.159560 -0.071974 0.254259 -0.123986 -0.200689 -0.225224 -0.161071 -0.367433 -0.312764 0.202979 -0.366455 -0.106585 0.335219 -0.056456 -0.083786 0.247713 0.005391 0.035008 0.227498 0.068793 -0.254147 -0.316295 -0.008330 0.308954 -0.496305 -0.206552 -0.010522 -0.223525 0.522887 0.414787 -0.218916 0.416588 -0.209922 -0.111644 -0.232798 0.044817 -0.102102 0.259281 0.399147 0.184084 -0.085101 -0.102306 0.018457 0.322729 -0.070145 -0.146074 -0.239543 -0.044534 -0.164304 0.165578 -0.062651 -0.077869 0.272575 -0.408309 -0.250473 0.085891 0.365478 -0.036559 -0.141827 -0.172118 0.030328 -0.150875 0.198915 0.019921 -0.447290 0.320352 
ElizabethWarren 0.122852 -0.083054 -0.106528 -0.045582 0.178937 0.034408 0.149133 0.001091 0.144068 -0.372951 -0.383458 0.331605 -0.001805 0.620252 -0.420066 0.043476 -0.260765 0.367390 0.015969 0.492143 0.393145 0.160866 0.337277 -0.159277 0.015967 0.287075 -0.218895 -0.018951 -0.221148 -0.439995 -0.339697 0.114940 -0.041889 0.018219 0.771342 0.292731 -0.193797 -0.375607 0.020598 -0.161800 0.135102 -0.009323 0.598265 0.529554 -0.534771 -0.023660 0.189818 -0.511213 -0.104594 -0.229882 0.346537 -0.201903 -0.347546 0.425652 -0.089309 -0.530835 -0.737218 -0.396489 -0.215415 0.095705 -0.821766 0.604912 -0.649714 -0.229851 -0.401445 -0.168108 -0.226686 -0.013951 0.156395 -0.627618 0.208096 -0.294562 0.046435 0.306455 -0.309253 -0.227118 0.038617 -0.012733 -0.275083 -0.076431 0.262982 0.393585 0.387613 0.282482 -0.112974 0.160393 -0.708408 0.288398 0.245377 0.026076 -0.669706 0.348297 -0.006622 -0.172753 0.109960 0.269461 0.249389 0.023702 -0.347463 -0.465279 -0.140720 0.073380 0.395887 0.118114 -0.298975 -0.020636 0.093029 0.174693 -0.466609 -0.211396 0.149339 0.067994 0.057316 -0.022737 -0.035540 0.462541 0.355902 0.552004 0.097539 0.149307 0.011692 0.116150 0.073261 0.035226 0.425737 -0.336206 0.622127 -0.454535 0.316772 0.054923 -0.298527 0.140682 0.388935 -0.163718 0.277339 -0.103434 0.206133 -0.077660 -0.192775 -0.212220 -0.153198 -0.294675 -0.299663 0.183657 -0.340200 -0.052037 0.343043 -0.097815 -0.133980 0.299346 0.045926 0.028254 0.335435 0.094855 -0.274077 -0.287120 -0.065388 0.314996 -0.572044 -0.252213 -0.022901 -0.246284 0.605424 0.416517 -0.317459 0.428628 -0.162295 -0.133460 -0.208140 0.087089 -0.182658 0.276213 0.358748 0.109971 -0.179636 -0.164522 0.010633 0.304984 -0.012443 -0.127050 -0.310771 0.025247 -0.204687 0.098869 -0.093873 -0.093863 0.257240 -0.370729 -0.343596 0.158300 0.404816 -0.019765 -0.165675 -0.232946 -0.032695 -0.120679 0.235675 0.061995 -0.482930 0.336150 
progressive 0.121437 -0.488316 0.252657 -0.392143 0.755783 -0.207499 0.512264 0.143075 -0.019322 -0.403151 -0.298575 0.322604 0.065029 0.667538 -0.455678 0.086386 -0.188236 0.359606 0.000490 0.471956 0.351954 0.174615 0.241269 -0.167787 -0.013323 0.229844 -0.144977 -0.132547 -0.333809 -0.571286 -0.540665 0.057242 -0.023933 0.222509 1.029037 0.394718 -0.115498 -0.365722 -0.091376 -0.220799 0.210250 -0.070068 0.500284 0.356102 -0.471823 -0.090887 0.127250 -0.339814 -0.162589 -0.221013 0.371004 -0.067371 -0.234774 0.370909 0.035524 -0.505389 -0.484559 -0.367177 -0.152886 0.082787 -0.579178 0.360475 -0.459368 -0.171481 -0.248171 -0.052623 -0.042231 -0.072185 0.188152 -0.440079 0.256616 -0.102674 -0.104851 0.146178 -0.147740 -0.180422 -0.009510 -0.133192 -0.154455 0.049931 0.146208 0.261555 0.170917 0.088401 -0.133812 0.102917 -0.415809 0.136212 0.095331 0.013608 -0.223344 0.131722 -0.008795 -0.067455 0.028744 0.091612 0.094956 -0.000149 -0.093622 -0.141887 -0.019853 -0.000258 0.094113 0.046158 -0.177078 -0.027566 0.029057 0.118847 -0.295448 -0.120726 0.070995 -0.019183 0.085881 0.014784 -0.024425 0.257428 0.200245 0.317403 0.017808 0.044583 -0.025629 0.094408 0.007385 -0.028663 0.226642 -0.161341 0.385953 -0.303604 0.211782 -0.034681 -0.134179 0.157795 0.191665 -0.086392 0.150919 -0.061334 0.293204 -0.147426 -0.213472 -0.252728 -0.185423 -0.419032 -0.347223 0.203182 -0.435038 -0.092805 0.397989 -0.048688 -0.072473 0.289511 -0.010435 0.033182 0.212072 0.043357 -0.266757 -0.445886 0.046109 0.370811 -0.579987 -0.258055 0.005760 -0.281179 0.541877 0.488923 -0.242550 0.449516 -0.239126 -0.117151 -0.368027 0.023394 -0.085364 0.396892 0.733242 0.381351 -0.087289 -0.122044 0.050728 0.629718 -0.163519 -0.249401 -0.357367 -0.178675 -0.208322 0.376883 -0.131649 -0.137874 0.352223 -0.578277 -0.274275 0.063742 0.462046 -0.067268 -0.278801 -0.242452 0.088309 -0.298211 0.226072 0.010518 -0.760658 0.508157 
JoeBiden 0.137753 -0.314375 -0.187753 -0.163946 0.230034 0.030578 0.232256 -0.010586 0.303444 -0.275578 -0.419806 0.228706 -0.063486 0.520387 -0.354722 0.014555 -0.247662 0.298467 0.064020 0.432203 0.310572 0.143598 0.290725 -0.103431 0.031393 0.369819 -0.400829 0.054804 -0.155503 -0.297342 -0.158287 0.144658 -0.188298 -0.091323 0.588482 0.233877 -0.297609 -0.388678 0.084807 -0.084811 0.102670 0.067025 0.529816 0.643002 -0.625265 -0.019973 0.210174 -0.654841 -0.010448 -0.239392 0.243715 -0.385326 -0.481661 0.461863 -0.179219 -0.490800 -0.867043 -0.283850 -0.205852 0.106354 -0.927896 0.633906 -0.716977 -0.252841 -0.406130 -0.183094 -0.318997 0.070896 -0.016089 -0.547455 0.074125 -0.423351 0.107989 0.502418 -0.512227 -0.300102 0.020729 0.034608 -0.490742 -0.144557 0.361219 0.365059 0.452949 0.438226 -0.038086 0.152663 -0.836241 0.315736 0.031613 -0.026340 -0.388625 0.189746 0.036989 0.010612 0.118387 0.078458 -0.125031 -0.245461 -0.133980 -0.026168 -0.193464 0.198515 0.168023 -0.105224 -0.171683 0.025243 0.167993 -0.089113 -0.146733 -0.142837 0.287080 0.252387 -0.157969 -0.198634 0.003398 0.306444 0.035481 0.206297 0.132550 0.251799 0.041856 0.052401 0.030891 0.186601 0.297128 -0.252721 0.375923 -0.369677 0.213041 0.222520 -0.265728 0.034222 0.456983 -0.113401 0.187835 0.025700 0.141085 0.058293 -0.044028 -0.077619 0.030830 -0.162144 -0.190570 0.242983 -0.289929 -0.083287 0.255688 -0.182057 -0.208381 0.363366 0.201416 -0.008820 0.576936 0.242158 -0.411044 -0.286486 -0.210502 0.370930 -0.829932 -0.267908 -0.020388 -0.345539 1.039351 0.597234 -0.399492 0.599076 -0.205376 -0.175481 -0.402304 0.213912 -0.394248 0.501565 0.620670 0.210118 -0.349480 -0.322696 0.003217 0.559958 -0.025429 -0.245462 -0.592581 0.107785 -0.449320 0.130756 -0.056062 -0.074334 0.404430 -0.534387 -0.574407 0.233964 0.632231 -0.038606 -0.165202 -0.467540 -0.150118 -0.115737 0.467097 0.180732 -0.675910 0.541273 
Kamala 0.197831 -0.487424 -0.051865 -0.387545 0.622816 -0.039408 0.454420 0.031601 0.298294 -0.370023 -0.481285 0.314895 -0.054224 0.652978 -0.440160 0.033962 -0.289456 0.349795 0.047218 0.507189 0.385285 0.158653 0.348568 -0.123171 0.032283 0.371752 -0.375090 0.048033 -0.159322 -0.335711 -0.195262 0.150419 -0.166808 -0.076017 0.649647 0.249411 -0.287671 -0.404325 0.078939 -0.091265 0.075848 0.059144 0.478920 0.588675 -0.543858 -0.004906 0.191038 -0.606445 0.012586 -0.206914 0.202647 -0.351487 -0.430895 0.399559 -0.164763 -0.404362 -0.680648 -0.178737 -0.157470 0.070023 -0.710945 0.510225 -0.545421 -0.190449 -0.326545 -0.160193 -0.295300 0.065757 -0.043546 -0.427135 0.010017 -0.363294 0.112209 0.459103 -0.453075 -0.272209 0.031039 0.047624 -0.437063 -0.140565 0.366385 0.401370 0.468509 0.432754 -0.040945 0.164962 -0.863984 0.328031 0.072776 -0.015217 -0.519503 0.247106 0.031081 -0.036240 0.140331 0.134748 -0.101212 -0.226642 -0.163955 -0.046610 -0.188844 0.188312 0.205047 -0.085213 -0.197578 0.022752 0.165183 -0.045731 -0.207496 -0.172022 0.287003 0.241665 -0.129014 -0.184933 -0.009073 0.400437 0.143303 0.348240 0.153838 0.269578 0.039134 0.049362 0.048428 0.181420 0.326426 -0.272288 0.410553 -0.365495 0.209850 0.219363 -0.285392 0.028175 0.453508 -0.122896 0.189566 0.013863 0.156552 0.039018 -0.080384 -0.102797 0.001198 -0.194588 -0.212221 0.238556 -0.314168 -0.069656 0.289018 -0.186524 -0.205723 0.390171 0.193481 -0.004184 0.484680 0.201102 -0.322122 -0.180017 -0.203088 0.284653 -0.637985 -0.200493 -0.008153 -0.263284 0.821823 0.440139 -0.325844 0.448392 -0.143667 -0.134194 -0.309032 0.181510 -0.353949 0.419993 0.483218 0.152434 -0.298780 -0.282872 -0.004544 0.486050 -0.009337 -0.215429 -0.533383 0.099700 -0.394883 0.111830 -0.050129 -0.045825 0.341197 -0.420542 -0.484816 0.214797 0.515475 -0.010227 -0.144339 -0.408046 -0.132720 -0.094503 0.404330 0.157484 -0.566484 0.465173 
SocialDemocracy 0.234223 -0.557892 0.167008 -0.478265 0.672980 -0.132441 0.448173 0.107678 0.070731 -0.404835 -0.341096 0.344722 0.031422 0.657174 -0.456181 0.072121 -0.230109 0.388296 0.016171 0.528870 0.401600 0.191309 0.294134 -0.167866 -0.008594 0.265215 -0.214856 -0.077718 -0.269295 -0.465537 -0.388329 0.080019 -0.057568 0.105046 0.851515 0.333057 -0.170362 -0.353824 -0.033259 -0.184825 0.147682 -0.011867 0.450533 0.399426 -0.469860 -0.056662 0.132859 -0.383530 -0.102500 -0.202872 0.279789 -0.145844 -0.295946 0.348356 -0.051036 -0.445081 -0.547294 -0.289106 -0.158750 0.082837 -0.626924 0.412497 -0.495804 -0.174867 -0.275201 -0.106026 -0.132196 -0.006982 0.093425 -0.431564 0.165311 -0.198579 -0.038795 0.365940 -0.369887 -0.337420 0.003455 -0.113216 -0.372832 -0.036363 0.267999 0.414152 0.362645 0.263194 -0.171103 0.180331 -0.733197 0.290899 0.122216 0.006162 -0.348327 0.196001 -0.012336 -0.062759 0.063641 0.128578 0.165521 -0.002695 -0.240815 -0.338802 -0.093577 0.070404 0.273360 0.077319 -0.236440 -0.032653 0.061484 0.127126 -0.363899 -0.176349 0.111140 0.040675 0.029291 -0.017521 -0.024966 0.301808 0.203296 0.351067 0.050430 0.101470 -0.008594 0.103886 0.019415 0.012589 0.329628 -0.242792 0.486693 -0.392281 0.248554 0.039660 -0.204021 0.145140 0.291065 -0.100985 0.218061 -0.066676 0.227308 -0.091055 -0.169307 -0.209504 -0.144344 -0.314654 -0.321648 0.210827 -0.379223 -0.086966 0.362882 -0.090178 -0.122826 0.271433 0.038908 0.018637 0.353543 0.114240 -0.349276 -0.426276 -0.023322 0.393987 -0.734366 -0.306512 -0.018249 -0.324903 0.779667 0.573480 -0.343647 0.559857 -0.252250 -0.159389 -0.383069 0.104064 -0.224574 0.442470 0.671060 0.299346 -0.192542 -0.204229 0.032785 0.622083 -0.111558 -0.262669 -0.450543 -0.065141 -0.294972 0.278343 -0.107756 -0.126724 0.377803 -0.562356 -0.396021 0.146357 0.543217 -0.061735 -0.243661 -0.300759 -0.002320 -0.212930 0.295329 0.088497 -0.699071 0.487165 
demsocialist 0.161550 -0.437789 0.111269 -0.271260 0.500401 -0.098743 0.379493 0.080357 0.108769 -0.381625 -0.361705 0.318907 0.014386 0.648656 -0.447160 0.061245 -0.242410 0.389510 0.022621 0.537755 0.403665 0.193069 0.313218 -0.173414 0.013187 0.253700 -0.213590 -0.045249 -0.230526 -0.405880 -0.344094 0.095214 -0.071677 0.074395 0.759366 0.290731 -0.161548 -0.333281 -0.016505 -0.153580 0.127936 -0.001541 0.422692 0.390941 -0.425522 -0.040218 0.136155 -0.393754 -0.071409 -0.181538 0.254773 -0.167368 -0.273446 0.330431 -0.045726 -0.397153 -0.601471 -0.321134 -0.166546 0.079136 -0.670173 0.451661 -0.520929 -0.195393 -0.291787 -0.103309 -0.153384 -0.010788 0.107001 -0.462619 0.161378 -0.212863 -0.011191 0.306268 -0.312381 -0.245787 0.009667 -0.061790 -0.301574 -0.033042 0.249134 0.341928 0.325670 0.249989 -0.101336 0.143359 -0.642563 0.230858 0.152502 0.008798 -0.456224 0.240685 -0.003842 -0.104081 0.086641 0.175681 0.155956 -0.038130 -0.249013 -0.323814 -0.116923 0.075860 0.283052 0.069450 -0.202897 -0.003096 0.075920 0.075393 -0.298908 -0.149408 0.145519 0.073323 0.020266 -0.045966 -0.015542 0.345027 0.200640 0.367330 0.065639 0.132852 -0.002158 0.092411 0.027824 0.045093 0.303049 -0.237353 0.449816 -0.358214 0.240167 0.052587 -0.209204 0.117833 0.308622 -0.110957 0.188605 -0.052108 0.250657 -0.090163 -0.180081 -0.213854 -0.133599 -0.353388 -0.317970 0.227112 -0.393231 -0.091410 0.366723 -0.099408 -0.128219 0.321895 0.057181 0.024682 0.330147 0.108262 -0.305171 -0.349214 -0.053738 0.351892 -0.618068 -0.249904 -0.009203 -0.278969 0.671977 0.484911 -0.293887 0.479150 -0.215199 -0.138779 -0.345075 0.086446 -0.195935 0.403274 0.608526 0.269948 -0.175084 -0.187487 0.032241 0.546373 -0.092267 -0.227268 -0.422482 -0.057475 -0.275824 0.260211 -0.126384 -0.131722 0.420582 -0.627521 -0.422626 0.152483 0.583889 -0.050502 -0.265719 -0.321407 0.019029 -0.251648 0.324239 0.063400 -0.770387 0.546851 
BetoORourke 0.203510 -0.507126 0.200238 -0.413806 0.744264 -0.157861 0.498444 0.123041 0.048003 -0.465222 -0.387436 0.386745 0.047313 0.778459 -0.526379 0.085791 -0.256161 0.435650 0.005039 0.591821 0.441606 0.210509 0.335109 -0.200554 -0.001769 0.252278 -0.185317 -0.079904 -0.282366 -0.500059 -0.445340 0.081986 -0.043689 0.138150 0.903118 0.347104 -0.151482 -0.364633 -0.045012 -0.189272 0.185289 -0.042262 0.538684 0.437219 -0.513484 -0.069081 0.154047 -0.425160 -0.139336 -0.235246 0.361965 -0.139771 -0.294783 0.411558 -0.019213 -0.527763 -0.608266 -0.372187 -0.178733 0.082434 -0.695171 0.467622 -0.554329 -0.201069 -0.302432 -0.101020 -0.124385 -0.041280 0.156533 -0.503204 0.222069 -0.191585 -0.056370 0.283630 -0.284445 -0.268249 0.007126 -0.106007 -0.282838 -0.005049 0.248127 0.396153 0.331709 0.216364 -0.154630 0.155612 -0.680133 0.250999 0.152658 0.024286 -0.382305 0.208763 -0.005893 -0.111378 0.057617 0.160068 0.200677 0.017014 -0.234332 -0.343056 -0.074676 0.037728 0.252907 0.097216 -0.224967 -0.022429 0.038952 0.141706 -0.374822 -0.157485 0.101078 0.002616 0.082381 0.005012 -0.026054 0.323967 0.239370 0.394840 0.032083 0.072573 -0.018180 0.086291 0.011762 0.001219 0.257327 -0.192193 0.399273 -0.311600 0.217905 0.000797 -0.158072 0.142624 0.226564 -0.101563 0.172603 -0.070253 0.243077 -0.111820 -0.187167 -0.211999 -0.152410 -0.341006 -0.295504 0.182308 -0.363247 -0.085031 0.336630 -0.060075 -0.082816 0.255504 0.007051 0.026973 0.260555 0.071957 -0.264624 -0.348402 -0.013318 0.328534 -0.551286 -0.232757 -0.000841 -0.254009 0.566628 0.441773 -0.252923 0.422717 -0.202664 -0.109986 -0.325105 0.066389 -0.153491 0.375718 0.593617 0.276648 -0.135491 -0.153869 0.028660 0.519342 -0.099632 -0.218831 -0.368549 -0.088166 -0.236354 0.265572 -0.116572 -0.117334 0.342677 -0.526962 -0.332771 0.110437 0.466757 -0.048169 -0.228479 -0.254725 0.030061 -0.226581 0.252936 0.035693 -0.661841 0.458025 
ConservativeDemocrat 0.183468 -0.457078 0.181995 -0.366652 0.686197 -0.151890 0.470839 0.121853 0.033666 -0.479268 -0.374080 0.404576 0.050077 0.779879 -0.540114 0.087166 -0.256196 0.449030 0.000956 0.608450 0.458571 0.225934 0.342427 -0.209606 -0.002340 0.243041 -0.167882 -0.095565 -0.292692 -0.504200 -0.448214 0.079910 -0.029631 0.145176 0.901235 0.346468 -0.132885 -0.348598 -0.056264 -0.202743 0.190627 -0.038060 0.540296 0.419711 -0.507465 -0.069853 0.150366 -0.403986 -0.142692 -0.228393 0.358718 -0.120351 -0.282484 0.395158 -0.014030 -0.521700 -0.617999 -0.397221 -0.189299 0.088051 -0.718800 0.478186 -0.568753 -0.205963 -0.315469 -0.104035 -0.115762 -0.042050 0.183507 -0.530837 0.246181 -0.180656 -0.067639 0.293361 -0.302445 -0.297497 0.003983 -0.123014 -0.302994 0.001453 0.257260 0.436162 0.361714 0.220528 -0.183430 0.178400 -0.728927 0.273118 0.178183 0.021704 -0.413078 0.228260 -0.015885 -0.125966 0.063088 0.179131 0.218452 0.037057 -0.239643 -0.371183 -0.074923 0.031991 0.270137 0.112741 -0.244478 -0.028677 0.036882 0.162825 -0.406231 -0.170874 0.086423 -0.004909 0.093784 0.019521 -0.023864 0.350222 0.268584 0.436510 0.034185 0.075621 -0.018013 0.106778 0.021335 -0.013870 0.313578 -0.234248 0.488857 -0.375906 0.263329 -0.007173 -0.196092 0.166181 0.260000 -0.110193 0.214264 -0.089182 0.262757 -0.132203 -0.211685 -0.246074 -0.184175 -0.374380 -0.343809 0.198503 -0.400598 -0.089382 0.381500 -0.066602 -0.096860 0.271375 -0.000756 0.033151 0.234727 0.063273 -0.254451 -0.341106 0.005513 0.313888 -0.530342 -0.231887 -0.010228 -0.240997 0.538298 0.427257 -0.244002 0.419555 -0.198613 -0.110686 -0.293207 0.054708 -0.130808 0.327420 0.534635 0.244723 -0.115318 -0.133341 0.031545 0.464845 -0.092955 -0.199261 -0.322310 -0.081907 -0.199648 0.236303 -0.103411 -0.108800 0.307808 -0.474508 -0.292656 0.097503 0.421702 -0.048477 -0.217433 -0.214871 0.033109 -0.205722 0.222322 0.034632 -0.600986 0.410681 
