15 200
BaemyKlobaechar 0.081356 -0.255096 0.442536 0.117212 0.403275 -0.010840 0.183525 0.048038 -0.101043 -0.319639 -0.059916 0.307263 0.062921 0.468539 -0.250421 0.083909 -0.073209 0.210519 -0.124938 0.514222 0.445448 0.111535 0.140091 -0.162069 -0.034607 -0.117935 -0.026924 -0.118247 -0.216133 -0.355033 -0.327967 0.154113 0.075532 0.183762 0.650738 0.308872 -0.044132 -0.065077 -0.229918 -0.144705 0.178104 -0.064874 0.260530 0.078218 -0.243978 -0.107050 0.004784 -0.162033 -0.091994 -0.137462 0.173764 0.103378 -0.066177 0.077762 0.137510 -0.198867 -0.396446 -0.316943 -0.088778 0.079508 -0.347140 0.279942 -0.371982 -0.102216 -0.181913 0.101226 -0.001710 -0.192481 0.260482 -0.254926 0.120810 0.170175 -0.249926 0.238375 -0.003771 -0.225583 0.061901 -0.097807 -0.250655 0.066067 0.268351 0.433458 0.037799 0.013518 -0.225200 0.094479 -0.470415 0.179358 0.380888 0.168544 -0.785694 0.202677 0.110730 -0.610019 0.010036 0.552822 0.256391 0.242180 -0.316714 -0.436153 0.061492 0.112537 0.153946 0.396937 -0.275942 -0.022510 -0.091241 0.618255 -0.683012 -0.061614 -0.133837 -0.081352 0.380016 0.293282 -0.131004 0.394679 0.467106 0.752177 -0.089771 -0.222865 -0.039332 0.195266 -0.014298 -0.045725 0.472724 -0.232264 0.355946 -0.192923 0.268927 -0.078332 -0.133468 0.201275 -0.103676 -0.119722 0.158572 -0.234605 0.129903 -0.129431 -0.275418 -0.086275 -0.204467 -0.240680 -0.195896 0.079162 -0.232930 -0.149007 0.192541 0.049984 0.044296 -0.008679 -0.142698 0.025472 0.054321 -0.159948 -0.099593 -0.203379 0.021139 0.331092 -0.353684 -0.117765 -0.030250 -0.140974 0.235266 0.233893 -0.090728 0.316071 -0.216922 0.032571 -0.075710 -0.176480 0.143039 0.208350 0.451767 0.294200 0.148748 0.043390 -0.217712 0.449470 -0.214123 -0.190725 -0.100539 -0.285742 0.098436 0.395106 -0.033009 -0.244210 0.321237 -0.547594 -0.029746 0.054990 0.140840 0.042489 -0.369947 0.076549 0.479517 -0.408191 0.206261 -0.180822 -0.434133 0.265226 
politics 0.043474 -0.134045 0.336987 0.113896 0.587310 -0.076259 0.276423 0.103107 -0.137950 -0.295330 -0.045197 0.295765 0.079820 0.439410 -0.242875 0.073908 -0.064711 0.186550 -0.089187 0.423794 0.369429 0.094807 0.142785 -0.143310 -0.052331 -0.141598 0.032633 -0.180150 -0.316381 -0.509073 -0.514402 0.180677 0.158155 0.253915 0.894304 0.423578 -0.009051 -0.091155 -0.299542 -0.244796 0.430448 -0.170669 0.679224 0.157782 -0.546522 -0.225797 0.034883 -0.320590 -0.312720 -0.338827 0.519856 0.316176 -0.115891 0.299497 0.318896 -0.586281 -0.446160 -0.446735 -0.128400 0.083254 -0.419665 0.331518 -0.433856 -0.145314 -0.179172 0.060739 0.023702 -0.182251 0.290146 -0.304804 0.173189 0.169939 -0.186078 0.165139 -0.007170 -0.197623 0.048432 -0.105320 -0.158978 0.057182 0.181365 0.350666 0.066848 0.003199 -0.202696 0.106839 -0.382763 0.160575 0.283516 0.107127 -0.551054 0.156710 0.062305 -0.418150 0.018384 0.392030 0.238112 0.236187 -0.230655 -0.360784 0.062462 0.037274 0.132109 0.312022 -0.151459 -0.009415 -0.052826 0.322196 -0.358492 -0.038315 -0.086024 -0.064394 0.214778 0.174262 -0.072604 0.204616 0.259618 0.386269 -0.041717 -0.112445 -0.055807 0.235994 0.012868 -0.100330 0.561233 -0.290474 0.490821 -0.218875 0.328255 -0.158589 -0.156650 0.256138 -0.130630 -0.128174 0.210741 -0.305780 0.361784 -0.339078 -0.655160 -0.303187 -0.540251 -0.606911 -0.513550 0.144243 -0.513913 -0.296423 0.491225 0.106188 0.084182 -0.026391 -0.397506 0.112362 0.029763 -0.246331 -0.185877 -0.398560 0.111195 0.505977 -0.511823 -0.240597 -0.054788 -0.229747 0.318208 0.391268 -0.198569 0.520397 -0.373586 -0.014898 -0.128686 -0.222939 0.185565 0.240451 0.595025 0.386235 0.190286 0.044348 -0.196621 0.531504 -0.233214 -0.223761 -0.107524 -0.346537 0.148399 0.492396 -0.071297 -0.212850 0.246442 -0.453462 -0.027102 0.038556 0.132376 0.027303 -0.425666 0.093042 0.469099 -0.434541 0.170322 -0.190012 -0.494651 0.279677 
YangForPresidentHQ 0.103626 -0.329083 0.599166 0.164365 0.781294 -0.070467 0.356522 0.109077 -0.146745 -0.421410 -0.086070 0.400868 0.093057 0.613097 -0.329505 0.105693 -0.089648 0.217966 -0.124674 0.498729 0.445185 0.102920 0.155769 -0.154666 -0.047680 -0.118912 -0.002219 -0.142450 -0.252147 -0.431493 -0.412824 0.164952 0.104450 0.210730 0.746816 0.349590 -0.037624 -0.091373 -0.247088 -0.176932 0.264498 -0.109670 0.425554 0.119866 -0.358878 -0.149363 0.015042 -0.226106 -0.180724 -0.221448 0.327932 0.181554 -0.094756 0.183455 0.208941 -0.361086 -0.477271 -0.437536 -0.135879 0.089785 -0.445021 0.356976 -0.465567 -0.139111 -0.188835 0.071530 0.003353 -0.195278 0.282329 -0.297480 0.152535 0.166035 -0.173742 0.162283 0.003147 -0.175941 0.047724 -0.072765 -0.170223 0.046375 0.199464 0.353396 0.050725 0.014825 -0.177476 0.086423 -0.382654 0.154147 0.329820 0.139874 -0.674270 0.185674 0.087658 -0.509403 0.015686 0.464412 0.239974 0.224186 -0.271793 -0.378874 0.058991 0.071198 0.145451 0.338441 -0.158338 -0.015345 -0.054627 0.360463 -0.402647 -0.050275 -0.075476 -0.051464 0.250193 0.195266 -0.086600 0.260294 0.317710 0.492212 -0.047228 -0.143376 -0.040715 0.174449 0.002602 -0.062343 0.439265 -0.216089 0.359578 -0.172464 0.293968 -0.117087 -0.146034 0.232398 -0.112616 -0.124318 0.188611 -0.265361 0.335726 -0.316226 -0.620061 -0.275655 -0.495700 -0.572405 -0.483269 0.143076 -0.506753 -0.288124 0.467842 0.101626 0.087526 -0.011853 -0.361448 0.092531 0.050069 -0.240581 -0.171181 -0.368667 0.087249 0.493979 -0.516630 -0.217583 -0.040601 -0.232421 0.334203 0.387396 -0.182466 0.495461 -0.350532 0.011280 -0.113515 -0.217343 0.173946 0.261276 0.579924 0.380234 0.188575 0.042380 -0.242198 0.586189 -0.264333 -0.245682 -0.123492 -0.373504 0.139574 0.519780 -0.077514 -0.282134 0.358121 -0.628999 -0.038111 0.063420 0.181936 0.041436 -0.469592 0.091026 0.551112 -0.498027 0.220628 -0.217847 -0.566635 0.324205 
SandersForPresident 0.053114 -0.097950 0.199442 0.083950 0.600081 -0.087935 0.267819 0.085493 -0.168322 -0.310532 -0.041164 0.319556 0.098401 0.502049 -0.274088 0.084697 -0.066925 0.240473 -0.092712 0.521909 0.427874 0.138186 0.174510 -0.192746 -0.030453 -0.070485 0.022058 -0.094748 -0.171153 -0.253814 -0.268035 0.075559 0.084875 0.124898 0.420024 0.205338 0.004031 -0.040253 -0.144217 -0.132505 0.274507 -0.104646 0.422052 0.088274 -0.345290 -0.143908 0.024873 -0.182469 -0.209870 -0.207251 0.319875 0.202121 -0.060201 0.190169 0.188087 -0.379841 -0.405981 -0.415388 -0.115022 0.076901 -0.389612 0.289955 -0.410264 -0.141554 -0.182337 0.056290 0.044962 -0.179013 0.301286 -0.329860 0.212998 0.161205 -0.227760 0.191427 -0.021856 -0.240998 0.047129 -0.142380 -0.187402 0.076650 0.227271 0.444432 0.089910 -0.005796 -0.290716 0.138999 -0.498272 0.203269 0.233655 0.080873 -0.400606 0.122249 0.044648 -0.309200 0.014468 0.302311 0.195475 0.199326 -0.150765 -0.294036 0.049447 0.020614 0.091909 0.225615 -0.222678 -0.008596 -0.080353 0.429870 -0.486207 -0.044751 -0.134127 -0.101753 0.313159 0.253873 -0.090260 0.287834 0.343217 0.525708 -0.082960 -0.156473 -0.055901 0.244090 0.001049 -0.106973 0.560677 -0.301874 0.510935 -0.244876 0.340391 -0.169267 -0.147644 0.268216 -0.126957 -0.126858 0.230910 -0.310993 0.267105 -0.239614 -0.463639 -0.225464 -0.392251 -0.432475 -0.379211 0.104704 -0.387891 -0.234163 0.377484 0.077344 0.053196 -0.028492 -0.309066 0.092003 0.028975 -0.219881 -0.193497 -0.400518 0.118867 0.479837 -0.502453 -0.236329 -0.060697 -0.211213 0.310030 0.380050 -0.176181 0.502272 -0.363637 -0.021874 -0.129070 -0.185380 0.167690 0.202567 0.535852 0.345727 0.162985 0.039389 -0.168097 0.493472 -0.217607 -0.218203 -0.094293 -0.323862 0.132246 0.456649 -0.064398 -0.225260 0.242260 -0.479669 -0.043871 0.023799 0.147905 0.008662 -0.403175 0.081331 0.434229 -0.413451 0.173529 -0.184844 -0.507752 0.283235 
centerleftpolitics 0.070131 -0.276628 0.485329 0.139430 0.437984 -0.002662 0.145598 0.043115 -0.096407 -0.325523 -0.053805 0.321503 0.063841 0.473773 -0.249370 0.091654 -0.062137 0.181531 -0.129547 0.465501 0.417279 0.096384 0.112231 -0.132465 -0.053286 -0.151864 -0.030604 -0.157761 -0.264636 -0.437513 -0.400978 0.191261 0.095334 0.221460 0.788725 0.376240 -0.051345 -0.074255 -0.279953 -0.175495 0.293153 -0.103257 0.428517 0.112357 -0.397343 -0.182676 0.000251 -0.256285 -0.167626 -0.231548 0.312716 0.192684 -0.108270 0.147371 0.232953 -0.353995 -0.423817 -0.337728 -0.094033 0.090979 -0.365857 0.307447 -0.394965 -0.109853 -0.191679 0.109367 -0.005585 -0.202757 0.261668 -0.252323 0.107209 0.196198 -0.302358 0.276148 0.005289 -0.268454 0.081722 -0.114139 -0.292983 0.078468 0.326021 0.530220 0.036872 0.020978 -0.278218 0.120817 -0.561618 0.216882 0.385475 0.170188 -0.808770 0.208913 0.118839 -0.622855 0.013952 0.566348 0.242304 0.238117 -0.320632 -0.430638 0.061638 0.123283 0.154031 0.402587 -0.336763 -0.025448 -0.102211 0.748523 -0.806189 -0.074871 -0.168003 -0.097554 0.470705 0.359982 -0.160681 0.482424 0.580094 0.923959 -0.107871 -0.274156 -0.036528 0.214327 -0.014147 -0.051908 0.522883 -0.244526 0.383209 -0.201529 0.303183 -0.087394 -0.156131 0.227031 -0.138416 -0.133369 0.175223 -0.260899 0.172649 -0.180130 -0.363632 -0.118798 -0.279017 -0.324727 -0.267697 0.100190 -0.307970 -0.196080 0.266532 0.066785 0.057660 -0.021028 -0.203484 0.038447 0.059473 -0.200927 -0.112687 -0.247055 0.025799 0.400674 -0.425991 -0.137748 -0.037934 -0.177673 0.282034 0.278365 -0.106848 0.378928 -0.261631 0.036748 -0.094212 -0.232183 0.189417 0.257640 0.573539 0.374946 0.187595 0.049668 -0.273956 0.578767 -0.266325 -0.231515 -0.122080 -0.362678 0.144227 0.513715 -0.026590 -0.254492 0.326819 -0.564560 -0.031139 0.059756 0.134910 0.046634 -0.345708 0.065073 0.480019 -0.392549 0.207417 -0.170756 -0.396444 0.238850 
Pete_Buttigieg 0.050624 -0.164315 0.314375 0.118414 0.293813 -0.010984 0.176533 0.041304 -0.096327 -0.262506 -0.037334 0.256798 0.050424 0.388115 -0.211855 0.069869 -0.080349 0.248600 -0.131780 0.605206 0.515773 0.137954 0.169255 -0.208704 -0.028571 -0.149564 -0.006254 -0.124611 -0.244153 -0.384222 -0.375690 0.172902 0.100547 0.208260 0.700210 0.329509 -0.032292 -0.053306 -0.256581 -0.168922 0.276560 -0.099198 0.405112 0.098503 -0.342203 -0.147683 0.012522 -0.207267 -0.148084 -0.181059 0.251587 0.159938 -0.056021 0.111925 0.196353 -0.281019 -0.439577 -0.376513 -0.106157 0.084999 -0.384843 0.304545 -0.413846 -0.120387 -0.194926 0.120521 0.008625 -0.217316 0.316446 -0.307248 0.155939 0.200649 -0.315717 0.285219 -0.003820 -0.282787 0.070252 -0.145815 -0.283360 0.096891 0.307449 0.535920 0.056542 -0.010603 -0.302176 0.129882 -0.578176 0.219325 0.453776 0.187907 -0.880346 0.229752 0.119015 -0.703858 0.001390 0.635949 0.316499 0.307879 -0.349868 -0.518446 0.075557 0.104487 0.162830 0.464014 -0.306597 -0.024003 -0.123595 0.688082 -0.771094 -0.054803 -0.170151 -0.106032 0.411628 0.324972 -0.132200 0.405613 0.474504 0.762602 -0.101245 -0.240935 -0.050543 0.235306 -0.014800 -0.072553 0.545616 -0.271373 0.420753 -0.213345 0.291600 -0.116389 -0.122719 0.229033 -0.123398 -0.126266 0.175002 -0.275643 0.150584 -0.148867 -0.316829 -0.108565 -0.235474 -0.269320 -0.217810 0.078611 -0.247110 -0.165757 0.207802 0.063033 0.052223 -0.020981 -0.181420 0.036797 0.037479 -0.167250 -0.107124 -0.213535 0.037712 0.330211 -0.336908 -0.127921 -0.033815 -0.134155 0.209440 0.239828 -0.095724 0.325212 -0.228377 0.030715 -0.070288 -0.160108 0.144936 0.171226 0.405153 0.265879 0.142510 0.049276 -0.173011 0.350362 -0.181690 -0.158313 -0.067640 -0.247306 0.085933 0.323119 -0.032293 -0.220343 0.290996 -0.487020 -0.015142 0.047390 0.119346 0.047245 -0.387132 0.101900 0.477185 -0.418838 0.190665 -0.197584 -0.438943 0.266919 
moderatepolitics 0.034017 -0.112474 0.225584 0.120327 0.646248 -0.109667 0.338039 0.118876 -0.196304 -0.415355 -0.054642 0.444179 0.123891 0.680562 -0.368344 0.130775 -0.071498 0.291433 -0.128802 0.663204 0.559336 0.173876 0.199801 -0.224826 -0.062026 -0.151002 0.020914 -0.190602 -0.325297 -0.469398 -0.501570 0.165716 0.147146 0.228012 0.808340 0.387907 0.004444 -0.066089 -0.292575 -0.239476 0.470156 -0.158948 0.692760 0.151979 -0.591133 -0.267194 0.020631 -0.337739 -0.339977 -0.359299 0.536305 0.347307 -0.127908 0.305708 0.338131 -0.641764 -0.405192 -0.402003 -0.103288 0.077315 -0.366419 0.278363 -0.389457 -0.149056 -0.151926 0.063517 0.046831 -0.157106 0.264473 -0.287794 0.178805 0.171875 -0.255046 0.212687 -0.023238 -0.249945 0.058710 -0.143150 -0.201373 0.082183 0.259395 0.487873 0.076743 0.007462 -0.306969 0.150245 -0.527734 0.206786 0.210736 0.069282 -0.358680 0.111376 0.041280 -0.277519 0.015451 0.289323 0.136379 0.164971 -0.124127 -0.242906 0.038807 0.030732 0.073338 0.181978 -0.195083 0.004197 -0.063165 0.393327 -0.416651 -0.038632 -0.126696 -0.090395 0.290087 0.232415 -0.085818 0.272413 0.326531 0.498667 -0.081386 -0.142510 -0.047946 0.208881 -0.004438 -0.092335 0.477983 -0.253169 0.423361 -0.189520 0.299830 -0.148256 -0.124935 0.227768 -0.134578 -0.116237 0.190206 -0.269816 0.265175 -0.260441 -0.479716 -0.221334 -0.406217 -0.456510 -0.385332 0.118984 -0.392755 -0.253050 0.387196 0.085887 0.054952 -0.047686 -0.323999 0.091583 0.020066 -0.187020 -0.169083 -0.341576 0.089647 0.425601 -0.433915 -0.191858 -0.055736 -0.184931 0.274208 0.321853 -0.140330 0.437851 -0.326294 -0.030993 -0.106255 -0.182617 0.169344 0.174994 0.486129 0.315858 0.150244 0.035062 -0.156157 0.454778 -0.198349 -0.184375 -0.076279 -0.288673 0.135610 0.435905 -0.016359 -0.135952 0.139366 -0.290218 -0.029225 0.019862 0.082590 0.006302 -0.194131 0.029701 0.224444 -0.191236 0.089146 -0.088047 -0.243727 0.128518 
ElizabethWarren 0.057807 -0.192634 0.356013 0.089486 0.331643 -0.003282 0.195829 0.050586 -0.068063 -0.284454 -0.075737 0.253248 0.044620 0.400495 -0.212085 0.061829 -0.091009 0.210015 -0.122405 0.498009 0.442164 0.094796 0.140201 -0.162606 -0.023879 -0.115713 -0.018097 -0.092377 -0.186366 -0.327907 -0.301660 0.147312 0.070519 0.169773 0.595966 0.276632 -0.050296 -0.069439 -0.197708 -0.123816 0.168596 -0.071206 0.276278 0.085524 -0.232582 -0.091832 0.013388 -0.156052 -0.089728 -0.124957 0.182773 0.089435 -0.049805 0.081363 0.134200 -0.190888 -0.295765 -0.229779 -0.070666 0.062837 -0.258854 0.220482 -0.273717 -0.068141 -0.160047 0.087860 -0.018889 -0.166114 0.217038 -0.218807 0.091713 0.129993 -0.215339 0.210464 -0.004097 -0.189804 0.058677 -0.087593 -0.210368 0.061220 0.233518 0.379828 0.040717 0.010475 -0.190626 0.081108 -0.422918 0.157494 0.407307 0.175946 -0.835391 0.218191 0.119415 -0.647587 0.002037 0.578509 0.297906 0.265164 -0.348731 -0.479163 0.061131 0.103531 0.166008 0.432225 -0.282887 -0.025478 -0.091531 0.619949 -0.702339 -0.057166 -0.125984 -0.078063 0.378422 0.287122 -0.127457 0.394535 0.460216 0.730239 -0.080399 -0.220020 -0.040589 0.227564 -0.005903 -0.060585 0.530026 -0.261462 0.413587 -0.217708 0.273416 -0.096032 -0.127755 0.208246 -0.097642 -0.127834 0.157468 -0.243242 0.231595 -0.210787 -0.443251 -0.170951 -0.335693 -0.402177 -0.325486 0.112718 -0.359031 -0.215254 0.306626 0.081267 0.067461 0.003595 -0.240490 0.053985 0.067121 -0.224133 -0.141458 -0.312087 0.050757 0.452025 -0.473428 -0.181761 -0.041561 -0.204212 0.301193 0.344361 -0.149236 0.443662 -0.302659 0.031277 -0.092707 -0.186604 0.162808 0.227799 0.490300 0.317279 0.152116 0.048327 -0.211010 0.443058 -0.217357 -0.183886 -0.101097 -0.298305 0.094580 0.395378 -0.054836 -0.270545 0.345657 -0.595240 -0.035994 0.058887 0.161769 0.050673 -0.437848 0.095504 0.551283 -0.493470 0.228652 -0.227102 -0.524736 0.315243 
progressive 0.079719 -0.264171 0.476346 0.125545 0.679156 -0.069404 0.339623 0.104683 -0.170115 -0.452387 -0.090264 0.447448 0.111770 0.679590 -0.370483 0.117866 -0.089821 0.257691 -0.133778 0.595553 0.513165 0.130071 0.174392 -0.188787 -0.047705 -0.122417 -0.005622 -0.154247 -0.272880 -0.445427 -0.425075 0.167563 0.114073 0.213990 0.785402 0.368757 -0.034103 -0.087653 -0.251465 -0.191189 0.281017 -0.108245 0.442252 0.123370 -0.381224 -0.160061 0.021285 -0.240203 -0.198821 -0.236372 0.341966 0.194750 -0.101326 0.191972 0.211368 -0.398661 -0.387236 -0.335604 -0.090809 0.076927 -0.349309 0.288965 -0.365292 -0.112528 -0.158923 0.064431 -0.001501 -0.152052 0.216417 -0.231737 0.115109 0.133895 -0.180956 0.173108 -0.014805 -0.170811 0.051542 -0.081794 -0.173753 0.042525 0.204355 0.350339 0.048534 0.023312 -0.187754 0.086846 -0.377380 0.154305 0.254963 0.107881 -0.541422 0.151602 0.070780 -0.401739 0.014040 0.375267 0.172788 0.162796 -0.220643 -0.304989 0.039268 0.067372 0.121852 0.267037 -0.147548 -0.017182 -0.031420 0.309568 -0.334218 -0.035189 -0.057332 -0.041664 0.207061 0.148827 -0.079082 0.216282 0.278416 0.424187 -0.041542 -0.110750 -0.023749 0.131301 0.001842 -0.036614 0.326941 -0.163113 0.267426 -0.138370 0.207213 -0.064583 -0.113563 0.154605 -0.072373 -0.094114 0.125327 -0.176386 0.222694 -0.216149 -0.416855 -0.173890 -0.335570 -0.390973 -0.325973 0.113714 -0.352256 -0.205747 0.322839 0.069072 0.049396 -0.008309 -0.240788 0.055027 0.042076 -0.157899 -0.111464 -0.242718 0.040540 0.345247 -0.363686 -0.140218 -0.032762 -0.158947 0.244228 0.255307 -0.114519 0.337022 -0.232722 0.007441 -0.097558 -0.167644 0.137679 0.206731 0.462497 0.292678 0.130933 0.034498 -0.189872 0.464126 -0.202925 -0.186135 -0.107262 -0.286928 0.103068 0.416597 -0.046615 -0.232075 0.286300 -0.511457 -0.045182 0.047924 0.142702 0.029214 -0.355423 0.059801 0.428331 -0.375508 0.174692 -0.163712 -0.434392 0.255767 
JoeBiden 0.081511 -0.309430 0.487340 0.117423 0.221957 0.074313 -0.051634 -0.030820 -0.026225 -0.220192 -0.041995 0.199000 0.016331 0.271473 -0.140149 0.048981 -0.045771 0.090104 -0.102942 0.289182 0.277257 0.038679 0.048227 -0.068105 -0.030861 -0.112022 -0.062948 -0.088431 -0.153415 -0.294603 -0.222441 0.159696 0.036526 0.158862 0.575931 0.277733 -0.080651 -0.057051 -0.204920 -0.093574 0.198284 -0.074545 0.285547 0.088866 -0.287979 -0.127280 -0.005801 -0.203646 -0.079141 -0.160858 0.187893 0.113367 -0.090412 0.062210 0.172073 -0.193664 -0.478112 -0.347121 -0.103585 0.109828 -0.410351 0.346091 -0.441907 -0.104402 -0.242568 0.146688 -0.028056 -0.254955 0.309127 -0.289243 0.104819 0.226458 -0.340175 0.335038 0.011956 -0.301379 0.093127 -0.113343 -0.360740 0.081423 0.371991 0.571434 0.023128 0.022758 -0.285272 0.116336 -0.613129 0.237964 0.476235 0.218798 -1.035080 0.257154 0.158091 -0.796505 0.011752 0.701441 0.308038 0.285554 -0.426600 -0.536657 0.073363 0.170612 0.193947 0.522162 -0.454852 -0.044300 -0.140541 1.018337 -1.120856 -0.100366 -0.212101 -0.111729 0.627488 0.483536 -0.220581 0.656324 0.772870 1.246629 -0.133640 -0.375927 -0.038987 0.260033 -0.016726 -0.043952 0.641143 -0.290375 0.440609 -0.246663 0.348905 -0.076264 -0.187421 0.260707 -0.147869 -0.152495 0.200519 -0.302034 0.063824 -0.070962 -0.191983 -0.014788 -0.118472 -0.142138 -0.117840 0.065462 -0.156437 -0.101289 0.099187 0.031155 0.040327 0.001399 -0.054614 -0.007863 0.071543 -0.148796 -0.039783 -0.096391 -0.029634 0.252865 -0.290615 -0.057087 -0.017583 -0.112838 0.203593 0.157592 -0.050195 0.220470 -0.136047 0.074373 -0.077993 -0.232961 0.174803 0.276995 0.565609 0.372457 0.187103 0.050514 -0.316027 0.580339 -0.277859 -0.235000 -0.133392 -0.360590 0.130356 0.491623 -0.029558 -0.287984 0.388866 -0.633965 -0.023852 0.079101 0.146004 0.066301 -0.382160 0.079225 0.550873 -0.446651 0.249336 -0.186032 -0.405662 0.258689 
Kamala 0.101743 -0.350139 0.546043 0.121237 0.276061 0.056729 0.055592 0.000451 -0.039617 -0.308708 -0.074622 0.283458 0.035617 0.420270 -0.217852 0.073426 -0.076002 0.186176 -0.146766 0.504294 0.456609 0.091788 0.111589 -0.139697 -0.039076 -0.140450 -0.071264 -0.120025 -0.221196 -0.386671 -0.321040 0.201001 0.059826 0.202697 0.757594 0.362335 -0.088221 -0.082314 -0.265768 -0.143551 0.158901 -0.051682 0.231348 0.087222 -0.249349 -0.111339 -0.005507 -0.192294 -0.048523 -0.128620 0.139821 0.070412 -0.084916 0.041176 0.137552 -0.150348 -0.421240 -0.276000 -0.077715 0.096548 -0.346687 0.302623 -0.376072 -0.086063 -0.219714 0.136976 -0.037871 -0.221462 0.261770 -0.244356 0.073965 0.195916 -0.356979 0.357697 -0.003465 -0.308360 0.103086 -0.111960 -0.381172 0.084490 0.399946 0.606969 0.031718 0.036404 -0.294478 0.117295 -0.654109 0.246957 0.577726 0.257424 -1.229481 0.310703 0.190285 -0.947098 0.016279 0.848726 0.363694 0.337911 -0.495095 -0.645908 0.075582 0.196972 0.233339 0.608328 -0.512517 -0.038223 -0.142892 1.113901 -1.228288 -0.107549 -0.226003 -0.120678 0.686780 0.519411 -0.236195 0.728172 0.846196 1.361240 -0.149576 -0.396194 -0.038214 0.285639 -0.015409 -0.042655 0.691110 -0.326747 0.490938 -0.276166 0.377075 -0.080378 -0.200006 0.269588 -0.146229 -0.172066 0.209458 -0.312857 0.083044 -0.085852 -0.224237 -0.024956 -0.138306 -0.182262 -0.141893 0.083135 -0.193833 -0.135471 0.132132 0.038292 0.036617 0.007863 -0.080946 -0.001866 0.088530 -0.168286 -0.066017 -0.140755 -0.032511 0.322690 -0.359219 -0.077643 -0.028665 -0.140175 0.253127 0.207144 -0.067819 0.290518 -0.179269 0.068728 -0.094425 -0.242492 0.196028 0.290956 0.605845 0.387777 0.187460 0.054309 -0.324633 0.615744 -0.292841 -0.246539 -0.151068 -0.380203 0.129204 0.529886 -0.029101 -0.332855 0.436112 -0.738195 -0.048889 0.084732 0.179859 0.067797 -0.418698 0.080745 0.604435 -0.495579 0.282646 -0.220148 -0.488737 0.307084 
SocialDemocracy 0.049877 -0.193429 0.345121 0.096942 0.339073 -0.023187 0.216770 0.068693 -0.115608 -0.340607 -0.064655 0.348226 0.076394 0.525017 -0.283461 0.098694 -0.077480 0.246647 -0.135174 0.599030 0.524202 0.132653 0.160172 -0.187338 -0.054001 -0.174524 -0.013555 -0.188277 -0.326220 -0.518673 -0.505789 0.212930 0.135520 0.267400 0.964359 0.455570 -0.038682 -0.087258 -0.333093 -0.232988 0.341209 -0.119294 0.505472 0.129370 -0.446197 -0.198615 0.013149 -0.286230 -0.195667 -0.249661 0.351199 0.216629 -0.110230 0.175636 0.245349 -0.403588 -0.381841 -0.312855 -0.079420 0.083827 -0.325791 0.270920 -0.342425 -0.110479 -0.175839 0.104145 0.001286 -0.183186 0.244599 -0.248582 0.110152 0.179628 -0.265566 0.252642 -0.011236 -0.236452 0.074076 -0.113884 -0.250087 0.071257 0.281747 0.447542 0.035924 0.028092 -0.237970 0.112782 -0.486230 0.182563 0.398497 0.164732 -0.816310 0.219539 0.110393 -0.624868 0.013754 0.584289 0.269142 0.266595 -0.334492 -0.472459 0.065781 0.111081 0.164158 0.416514 -0.308892 -0.017414 -0.086054 0.674025 -0.725776 -0.061376 -0.152358 -0.094541 0.403412 0.307070 -0.141778 0.416236 0.499504 0.787798 -0.094387 -0.226119 -0.044367 0.243073 -0.010303 -0.067200 0.563027 -0.276909 0.439973 -0.220401 0.310982 -0.108360 -0.150197 0.224068 -0.131011 -0.137844 0.169357 -0.268924 0.183921 -0.186586 -0.365186 -0.126216 -0.289426 -0.341734 -0.267905 0.109616 -0.306636 -0.194961 0.269984 0.071723 0.054146 -0.017300 -0.208079 0.046621 0.057381 -0.195157 -0.130145 -0.277532 0.031889 0.417210 -0.432639 -0.156329 -0.046033 -0.181991 0.283787 0.291310 -0.120166 0.399886 -0.283207 0.009444 -0.099895 -0.223947 0.187073 0.240736 0.560045 0.365853 0.170310 0.047218 -0.231198 0.517145 -0.237624 -0.199744 -0.106962 -0.328147 0.133409 0.477830 -0.033897 -0.272926 0.336623 -0.596089 -0.039202 0.057792 0.154903 0.045528 -0.417459 0.076249 0.545047 -0.461085 0.225660 -0.203399 -0.501163 0.301184 
demsocialist 0.064103 -0.233499 0.393991 0.094712 0.405543 -0.021681 0.235376 0.077292 -0.118868 -0.356462 -0.073690 0.350465 0.082503 0.533356 -0.286479 0.092873 -0.080940 0.232453 -0.131693 0.557089 0.491276 0.115403 0.151432 -0.171087 -0.051643 -0.145757 -0.016350 -0.165277 -0.283061 -0.470244 -0.440341 0.188609 0.117257 0.237366 0.866494 0.411843 -0.046086 -0.090009 -0.287128 -0.202481 0.268889 -0.103666 0.414520 0.110744 -0.368309 -0.158784 0.013486 -0.239176 -0.163664 -0.214899 0.303631 0.179088 -0.099939 0.154977 0.205190 -0.341865 -0.360262 -0.294484 -0.077040 0.081476 -0.313820 0.267238 -0.329726 -0.097228 -0.169413 0.084969 -0.008492 -0.167374 0.213400 -0.216763 0.091371 0.153183 -0.201998 0.198377 -0.004486 -0.180010 0.063296 -0.078355 -0.202941 0.046410 0.227795 0.351715 0.025366 0.030973 -0.177670 0.082440 -0.381588 0.150223 0.339853 0.146014 -0.728821 0.194036 0.102108 -0.546861 0.015382 0.504620 0.232347 0.219813 -0.300289 -0.402849 0.055866 0.099848 0.151943 0.366512 -0.248046 -0.021904 -0.057479 0.538257 -0.577177 -0.053071 -0.107790 -0.064463 0.326554 0.243867 -0.121769 0.341826 0.421059 0.656691 -0.067885 -0.185240 -0.030627 0.195436 -0.001232 -0.047891 0.463500 -0.223925 0.359124 -0.184769 0.256301 -0.077346 -0.138394 0.184348 -0.103828 -0.114539 0.141398 -0.215832 0.152012 -0.150694 -0.303174 -0.102085 -0.238410 -0.281596 -0.226209 0.089291 -0.260347 -0.154207 0.226042 0.055583 0.045086 -0.003658 -0.162906 0.033199 0.053091 -0.161675 -0.088776 -0.210469 0.017882 0.328181 -0.347662 -0.119194 -0.032861 -0.150956 0.231297 0.228162 -0.099204 0.309435 -0.211184 0.018242 -0.073132 -0.172258 0.133469 0.200179 0.427646 0.277426 0.125166 0.033609 -0.198346 0.421026 -0.188258 -0.156576 -0.096316 -0.259076 0.103187 0.375416 -0.028340 -0.198604 0.244527 -0.428001 -0.028829 0.044761 0.107822 0.034312 -0.272008 0.043621 0.370718 -0.306845 0.154992 -0.128058 -0.318463 0.194848 
BetoORourke 0.053746 -0.151156 0.266201 0.087921 0.401115 -0.037453 0.191483 0.055799 -0.115563 -0.283960 -0.048200 0.285813 0.070915 0.442221 -0.233745 0.080376 -0.067679 0.209412 -0.106092 0.485165 0.413973 0.114106 0.144967 -0.162045 -0.035664 -0.099168 -0.003930 -0.101813 -0.182177 -0.292044 -0.288473 0.115055 0.077250 0.149759 0.517129 0.247455 -0.023386 -0.050089 -0.181993 -0.128799 0.237388 -0.089110 0.356019 0.086663 -0.308512 -0.136263 0.009289 -0.185765 -0.154025 -0.179925 0.260112 0.159112 -0.067188 0.139185 0.174347 -0.298500 -0.361026 -0.326992 -0.093041 0.070265 -0.326244 0.259574 -0.350956 -0.110905 -0.160611 0.074888 0.015501 -0.171247 0.247476 -0.260824 0.141009 0.155173 -0.221734 0.199651 -0.004242 -0.213466 0.054862 -0.106590 -0.199751 0.065485 0.227404 0.396481 0.048368 0.005749 -0.227682 0.103469 -0.433293 0.169058 0.302002 0.124324 -0.588572 0.161142 0.081554 -0.455003 0.010823 0.422295 0.219740 0.217049 -0.235553 -0.359363 0.054934 0.070142 0.117336 0.308352 -0.258131 -0.014076 -0.090118 0.548505 -0.606917 -0.054183 -0.138145 -0.091916 0.361242 0.281907 -0.115630 0.356198 0.420953 0.663865 -0.087708 -0.199808 -0.047026 0.222649 -0.008683 -0.076605 0.526559 -0.264950 0.431923 -0.212095 0.297675 -0.122759 -0.134345 0.233551 -0.122687 -0.124830 0.188691 -0.270701 0.199116 -0.186350 -0.372502 -0.154447 -0.297632 -0.338877 -0.285333 0.089935 -0.306796 -0.190653 0.281817 0.065005 0.052170 -0.019987 -0.227845 0.057568 0.041379 -0.190072 -0.140587 -0.292271 0.064099 0.396591 -0.415233 -0.169063 -0.040404 -0.176994 0.266460 0.301769 -0.130161 0.396369 -0.285928 0.009202 -0.097957 -0.190292 0.163569 0.212739 0.503870 0.332390 0.162968 0.041083 -0.201073 0.473388 -0.217053 -0.200923 -0.092666 -0.308984 0.119897 0.430486 -0.045637 -0.227088 0.274469 -0.496900 -0.034652 0.042588 0.134627 0.030720 -0.371560 0.073814 0.450919 -0.401350 0.186500 -0.181774 -0.452032 0.260464 
ConservativeDemocrat 0.052365 -0.127053 0.259050 0.098267 0.515472 -0.072871 0.266343 0.083840 -0.168704 -0.351310 -0.046551 0.359097 0.098145 0.554843 -0.304483 0.097144 -0.073869 0.258993 -0.116932 0.590999 0.491388 0.150333 0.180559 -0.208498 -0.036093 -0.106550 0.013051 -0.125552 -0.223770 -0.334037 -0.342610 0.119512 0.102568 0.176512 0.592515 0.284272 -0.004303 -0.048791 -0.208805 -0.168798 0.315483 -0.112479 0.470827 0.102178 -0.395202 -0.170141 0.021527 -0.220042 -0.218538 -0.231454 0.345868 0.217651 -0.073101 0.193276 0.220062 -0.407360 -0.423219 -0.410220 -0.112204 0.081211 -0.395267 0.298454 -0.416286 -0.140805 -0.187347 0.078907 0.038002 -0.190075 0.308844 -0.327361 0.198888 0.182299 -0.246760 0.209320 -0.016077 -0.243447 0.052016 -0.137975 -0.209776 0.080407 0.241592 0.449793 0.073686 -0.004793 -0.281229 0.131618 -0.494450 0.195343 0.291519 0.107888 -0.527888 0.151341 0.064152 -0.415522 0.012056 0.392247 0.221213 0.224446 -0.203704 -0.354276 0.055429 0.048158 0.110023 0.291519 -0.229317 -0.012813 -0.085391 0.468330 -0.521046 -0.043296 -0.135758 -0.095008 0.326573 0.260032 -0.096366 0.306754 0.364758 0.572883 -0.086108 -0.173279 -0.051984 0.233948 -0.007030 -0.094458 0.537973 -0.280517 0.467456 -0.229755 0.320138 -0.149437 -0.138844 0.252117 -0.127611 -0.122249 0.208668 -0.292382 0.233437 -0.218555 -0.420580 -0.191735 -0.349829 -0.388638 -0.336064 0.099994 -0.339831 -0.211164 0.323418 0.070908 0.050011 -0.029709 -0.266753 0.073554 0.029977 -0.203372 -0.169168 -0.346199 0.095049 0.437876 -0.457499 -0.203293 -0.053890 -0.190496 0.286241 0.339992 -0.147744 0.453957 -0.326555 -0.006071 -0.112935 -0.182567 0.164231 0.194637 0.505962 0.327236 0.159884 0.042426 -0.169314 0.454534 -0.206440 -0.200586 -0.086646 -0.301711 0.120630 0.420067 -0.045982 -0.202884 0.235902 -0.441879 -0.032931 0.026843 0.124703 0.018075 -0.350240 0.074783 0.396157 -0.363268 0.159790 -0.164944 -0.428260 0.245787 
