15 200
BaemyKlobaechar 0.030159 -0.071930 0.061574 -0.000616 0.642557 0.001377 0.255978 0.147008 0.009783 -0.112379 -0.037568 0.127239 -0.019306 0.119377 -0.079545 0.041481 -0.059877 0.091508 -0.033584 0.103948 0.136349 0.055212 0.067714 -0.029240 -0.071912 -0.012149 -0.092469 -0.089605 -0.178276 -0.320619 -0.285798 0.088489 0.047286 0.100307 0.451675 0.175469 -0.107031 -0.108184 -0.198167 -0.132975 0.186669 -0.016089 0.329305 0.197745 -0.334442 -0.119507 -0.039002 -0.155585 -0.122792 -0.173717 0.240772 0.118446 -0.193320 0.093083 0.110696 -0.314080 -0.355386 -0.226897 -0.247263 0.093495 -0.439095 0.264205 -0.420443 -0.088967 -0.144700 0.012193 -0.060458 -0.117892 0.205398 -0.386093 0.145255 0.010956 -0.137214 0.361212 -0.050574 -0.454573 0.000739 -0.048374 -0.378899 0.021406 0.226973 0.505911 0.129255 0.056626 -0.278366 0.213337 -0.632360 0.267818 0.384764 0.114756 -0.626389 0.265419 -0.014570 -0.330543 -0.012738 0.345171 0.279286 0.319573 -0.367434 -0.481451 0.006927 0.161886 0.221616 0.208911 -0.086045 -0.029503 -0.062662 0.259227 -0.376952 -0.149599 -0.078525 0.033118 0.026982 0.121166 -0.022192 0.208936 0.170135 0.320060 0.038946 -0.074957 -0.007278 0.075882 -0.017377 -0.038898 0.301679 -0.130114 0.193957 -0.123315 0.104037 0.025422 -0.065150 0.062911 0.022997 -0.045785 0.144648 -0.115784 0.104335 -0.111675 -0.254156 -0.189089 -0.211302 -0.181771 -0.283244 0.099715 -0.251134 -0.058293 0.257502 -0.012581 -0.013751 0.066939 -0.044471 0.023130 0.053794 -0.057673 -0.126756 -0.158039 0.076982 0.142999 -0.285082 -0.146167 -0.011240 -0.098152 0.206327 0.216808 -0.117904 0.202004 -0.148688 -0.021264 -0.017146 -0.032131 -0.040563 0.155532 0.205774 0.137194 0.031647 -0.049088 -0.083641 0.201876 -0.108023 -0.110564 -0.021889 -0.080212 0.000061 0.081628 -0.009737 -0.056666 0.169298 -0.142380 -0.004127 0.128441 0.132569 0.030142 -0.151752 -0.001840 0.160430 -0.138292 0.098207 0.005730 -0.200293 0.088010 
politics 0.055362 -0.117700 0.152091 -0.007615 0.546255 -0.009536 0.231411 0.188481 -0.120831 -0.696544 -0.124747 0.741901 -0.020437 0.747307 -0.483041 0.232453 -0.229977 0.438640 -0.126126 0.592991 0.667182 0.280755 0.333946 -0.212912 -0.076232 -0.001073 -0.076832 -0.078415 -0.163750 -0.304238 -0.269606 0.079970 0.050066 0.103458 0.425316 0.166241 -0.105114 -0.112874 -0.183490 -0.131748 0.156119 -0.019931 0.257535 0.152178 -0.263023 -0.101694 -0.043537 -0.105307 -0.141058 -0.171511 0.245739 0.132529 -0.167526 0.110560 0.119698 -0.307671 -0.376358 -0.268043 -0.278954 0.093008 -0.473820 0.280474 -0.459374 -0.094941 -0.122663 -0.004583 -0.051059 -0.103551 0.189962 -0.346821 0.144127 0.004665 -0.031921 0.096024 -0.005677 -0.131005 0.004358 0.001391 -0.111108 -0.007581 0.068548 0.192338 0.053642 0.021927 -0.097191 0.068161 -0.219649 0.110961 0.364713 0.108627 -0.574508 0.249641 -0.005747 -0.311073 -0.014506 0.312264 0.272332 0.307614 -0.341890 -0.451642 0.009896 0.135777 0.202953 0.207643 -0.128861 -0.049072 -0.105731 0.372855 -0.553083 -0.217205 -0.123338 0.031306 0.059594 0.173308 -0.030822 0.283596 0.236752 0.418760 0.061094 -0.106874 -0.023589 0.143309 -0.015779 -0.105762 0.560098 -0.229040 0.388617 -0.214796 0.203096 0.000766 -0.097628 0.167555 0.018000 -0.066062 0.292360 -0.230581 0.243051 -0.246723 -0.540772 -0.412474 -0.433519 -0.394064 -0.589155 0.173191 -0.487515 -0.131930 0.509117 -0.015775 -0.013430 0.092551 -0.156042 0.060817 0.059283 -0.156694 -0.278989 -0.380452 0.208222 0.324085 -0.586967 -0.315795 -0.015239 -0.201062 0.367203 0.443133 -0.241370 0.413767 -0.310989 -0.032238 -0.046907 -0.037633 -0.042888 0.207801 0.299746 0.196184 0.053410 -0.063594 -0.153631 0.417109 -0.224475 -0.229396 -0.031402 -0.186228 0.025487 0.197990 -0.063230 -0.169933 0.423996 -0.412780 0.013579 0.290044 0.332340 0.067961 -0.371502 0.035862 0.342007 -0.332873 0.185582 -0.022222 -0.451804 0.187413 
YangForPresidentHQ 0.057587 -0.105972 0.218744 0.076407 0.375884 -0.095213 0.268097 0.077463 -0.131741 -0.429256 -0.041211 0.484873 0.002022 0.499525 -0.317388 0.154294 -0.126627 0.312859 -0.070155 0.479796 0.505509 0.222173 0.245026 -0.194302 -0.080251 -0.066580 -0.048016 -0.118960 -0.244217 -0.359955 -0.411188 0.104680 0.084890 0.145316 0.506470 0.217367 -0.062721 -0.076984 -0.271486 -0.196677 0.256417 -0.038624 0.369551 0.159669 -0.353895 -0.144389 -0.050469 -0.142680 -0.153242 -0.166786 0.244060 0.174364 -0.119741 0.114218 0.149637 -0.292864 -0.247963 -0.236493 -0.168475 0.062601 -0.292430 0.141750 -0.282716 -0.091857 -0.101928 0.028945 0.008171 -0.121571 0.240789 -0.368271 0.191295 0.060587 -0.115980 0.201498 -0.015478 -0.274696 -0.006656 -0.063382 -0.192069 0.048439 0.134842 0.324690 0.071445 0.002748 -0.206055 0.149189 -0.401443 0.157256 0.356399 0.091556 -0.492286 0.210862 -0.007440 -0.302105 -0.011570 0.317587 0.253071 0.314545 -0.252875 -0.395159 0.034924 0.086538 0.130284 0.193261 -0.104617 0.003649 -0.119773 0.334000 -0.466598 -0.130408 -0.158099 -0.028300 0.154374 0.253932 -0.040344 0.282966 0.202492 0.378854 -0.004406 -0.138568 -0.049740 0.169445 -0.020823 -0.121717 0.514471 -0.225145 0.366888 -0.157913 0.214604 -0.084890 -0.049450 0.174510 -0.047887 -0.049866 0.241988 -0.253144 0.105605 -0.099924 -0.212307 -0.151656 -0.174198 -0.162183 -0.204579 0.057160 -0.285146 -0.113848 0.298624 0.019294 0.019361 0.007892 -0.151611 0.072006 0.010918 -0.120890 -0.217496 -0.304732 0.163804 0.254022 -0.391523 -0.228374 -0.033760 -0.166218 0.289334 0.392965 -0.203895 0.406467 -0.337239 -0.064711 -0.089237 -0.160078 0.058837 0.295619 0.636870 0.469393 0.205253 -0.064700 -0.155483 0.448140 -0.266465 -0.244542 0.020086 -0.244584 0.098134 0.299663 -0.033841 -0.106318 0.212072 -0.232448 0.033035 0.147902 0.181501 0.038282 -0.256397 0.050405 0.308196 -0.258633 0.127856 -0.053239 -0.358881 0.150112 
SandersForPresident 0.043477 -0.086749 0.140691 0.040360 0.467300 -0.030296 0.298122 0.151191 -0.082027 -0.353816 -0.053726 0.397274 -0.010247 0.407587 -0.259102 0.126146 -0.120342 0.257464 -0.067502 0.375894 0.411135 0.173163 0.196854 -0.148398 -0.067789 -0.045557 -0.060562 -0.088722 -0.187644 -0.310569 -0.318069 0.092808 0.062341 0.119815 0.447237 0.181043 -0.082417 -0.086126 -0.218080 -0.148449 0.258156 -0.036948 0.417598 0.213045 -0.403927 -0.152825 -0.051211 -0.177388 -0.186770 -0.229633 0.334932 0.191427 -0.203738 0.143888 0.182646 -0.407312 -0.355104 -0.268902 -0.246974 0.093075 -0.429296 0.246786 -0.414303 -0.100862 -0.132241 0.025760 -0.037193 -0.129403 0.232389 -0.390820 0.167266 0.036070 -0.123953 0.263504 -0.024793 -0.336906 0.001637 -0.049376 -0.266576 0.035586 0.166725 0.382522 0.088889 0.022805 -0.216519 0.158597 -0.470931 0.191701 0.290323 0.083921 -0.437828 0.181874 -0.000927 -0.259132 -0.015169 0.258862 0.211935 0.245957 -0.247926 -0.341391 0.015020 0.096442 0.132063 0.164866 -0.081103 -0.008677 -0.086371 0.267228 -0.380614 -0.114109 -0.104259 -0.000269 0.088797 0.157831 -0.026082 0.200780 0.149391 0.279294 0.010738 -0.097629 -0.019357 0.088865 -0.011379 -0.056168 0.278983 -0.117640 0.186603 -0.089400 0.112963 -0.030550 -0.031886 0.087624 -0.017296 -0.036689 0.128164 -0.133219 0.132470 -0.128341 -0.282801 -0.196025 -0.223063 -0.213385 -0.274259 0.083433 -0.227736 -0.084268 0.228093 0.015929 0.017021 0.022494 -0.101858 0.045911 0.019939 -0.073956 -0.122168 -0.172065 0.085736 0.151919 -0.239757 -0.131809 -0.013684 -0.090835 0.155454 0.206958 -0.104548 0.205103 -0.166637 -0.024229 -0.049674 -0.103390 0.033612 0.209651 0.409154 0.301264 0.127839 -0.043609 -0.135339 0.354930 -0.215855 -0.192439 0.010286 -0.195550 0.062543 0.226834 -0.031831 -0.112436 0.255679 -0.266908 0.034505 0.164213 0.192092 0.049528 -0.292181 0.052537 0.317213 -0.308367 0.155829 -0.063761 -0.393720 0.169108 
centerleftpolitics 0.051899 -0.127859 0.111946 0.022152 1.032708 -0.007181 0.451538 0.199090 0.037902 -0.025485 -0.036093 0.031719 -0.019717 0.034469 -0.019107 0.006254 -0.048538 0.051241 -0.029389 0.054929 0.083685 0.022941 0.039686 -0.010146 -0.082656 -0.025045 -0.111136 -0.106486 -0.215851 -0.397552 -0.349231 0.119126 0.068131 0.136760 0.614962 0.243039 -0.142021 -0.143089 -0.261490 -0.178286 0.222620 -0.022362 0.399454 0.225284 -0.391232 -0.137697 -0.040147 -0.188046 -0.135395 -0.193068 0.275396 0.133300 -0.205982 0.101993 0.131252 -0.349971 -0.470786 -0.312120 -0.319593 0.121738 -0.572823 0.353654 -0.552237 -0.119538 -0.200598 0.022150 -0.079887 -0.167196 0.285659 -0.519060 0.192010 0.029162 -0.183255 0.473842 -0.062468 -0.589799 0.008011 -0.066315 -0.494451 0.031277 0.311457 0.678213 0.169252 0.070418 -0.372981 0.284646 -0.849956 0.356303 0.528234 0.158908 -0.868286 0.354481 -0.010806 -0.474520 -0.017267 0.485371 0.373102 0.420770 -0.480685 -0.631645 0.011933 0.208370 0.285016 0.289615 -0.114311 -0.035640 -0.077281 0.331553 -0.474532 -0.175934 -0.093578 0.046743 0.048270 0.158312 -0.030571 0.268001 0.220266 0.415547 0.043821 -0.100105 -0.009365 0.115812 -0.021007 -0.049840 0.423570 -0.186588 0.271508 -0.165640 0.150447 0.020859 -0.094067 0.091156 0.017260 -0.068125 0.192112 -0.171191 0.122232 -0.125875 -0.302950 -0.209138 -0.250788 -0.214498 -0.323308 0.111987 -0.274436 -0.062196 0.278268 -0.013394 -0.013411 0.084598 -0.045268 0.024213 0.069584 -0.062876 -0.114192 -0.140030 0.059809 0.142873 -0.277412 -0.142258 -0.013343 -0.093277 0.196787 0.197195 -0.115401 0.190201 -0.132711 -0.013061 -0.006882 -0.031181 -0.050042 0.157803 0.181948 0.116849 0.019246 -0.049245 -0.095011 0.204606 -0.104040 -0.112602 -0.037117 -0.087444 -0.000085 0.080054 -0.012883 -0.062473 0.173766 -0.147469 -0.013855 0.129129 0.128267 0.037983 -0.162069 -0.000506 0.189984 -0.161230 0.110109 -0.000143 -0.206709 0.097045 
Pete_Buttigieg 0.027122 -0.135488 0.064552 -0.033608 0.958199 0.008408 0.356201 0.187857 -0.002416 -0.316849 -0.085333 0.332962 -0.023815 0.319385 -0.217022 0.099434 -0.136857 0.212185 -0.073805 0.251905 0.307481 0.124136 0.154128 -0.069474 -0.090428 0.018843 -0.127251 -0.102431 -0.201010 -0.387969 -0.301384 0.102346 0.046365 0.102684 0.515587 0.195895 -0.144527 -0.146776 -0.192638 -0.141405 0.159585 -0.008800 0.333914 0.221331 -0.345580 -0.109864 -0.030485 -0.160644 -0.128835 -0.191760 0.267098 0.098670 -0.236046 0.108808 0.099291 -0.356018 -0.383505 -0.213588 -0.273033 0.099078 -0.488104 0.314943 -0.468450 -0.078684 -0.176919 -0.014342 -0.095145 -0.111693 0.196836 -0.412606 0.136767 -0.016682 -0.142359 0.415021 -0.063262 -0.521515 0.004486 -0.043239 -0.449750 0.002694 0.256720 0.592811 0.160815 0.076254 -0.322108 0.243528 -0.730177 0.329341 0.423048 0.128683 -0.735240 0.311256 -0.018250 -0.361948 -0.008999 0.377704 0.313396 0.345071 -0.441445 -0.560115 -0.006639 0.200075 0.290717 0.241952 -0.161502 -0.066003 -0.109809 0.442149 -0.648447 -0.264642 -0.134301 0.059031 0.044297 0.197431 -0.036409 0.349059 0.294825 0.538931 0.072242 -0.113629 -0.007434 0.133994 -0.021150 -0.073313 0.552041 -0.239393 0.371675 -0.238613 0.190722 0.049554 -0.132929 0.131156 0.049703 -0.075912 0.286257 -0.208504 0.157240 -0.168226 -0.392321 -0.297762 -0.325615 -0.274027 -0.457956 0.152164 -0.404707 -0.082697 0.422556 -0.037387 -0.041226 0.122825 -0.063419 0.022653 0.076609 -0.057844 -0.128714 -0.155179 0.078150 0.142905 -0.330125 -0.162953 -0.006800 -0.103170 0.231172 0.216247 -0.128903 0.189627 -0.115352 -0.004703 -0.021447 0.009352 -0.089201 0.164436 0.153314 0.078563 -0.018283 -0.061054 -0.077276 0.195852 -0.086604 -0.109157 -0.054681 -0.053598 -0.035548 0.034812 -0.014891 -0.069440 0.222146 -0.180729 -0.027832 0.161907 0.170251 0.032079 -0.159121 -0.018850 0.126812 -0.121191 0.099473 0.035020 -0.190899 0.085887 
moderatepolitics 0.064942 -0.120513 0.160992 0.033638 0.506965 -0.057340 0.288552 0.145515 -0.078809 -0.361949 -0.046204 0.413149 -0.006312 0.412495 -0.272686 0.133863 -0.102099 0.223133 -0.058965 0.331063 0.357143 0.158638 0.179442 -0.113080 -0.063216 -0.005897 -0.059018 -0.095944 -0.179005 -0.281798 -0.284217 0.075193 0.058175 0.098903 0.424536 0.170976 -0.064538 -0.083562 -0.196502 -0.149749 0.231889 -0.020045 0.371021 0.197795 -0.371186 -0.139485 -0.044172 -0.168725 -0.147254 -0.190698 0.258939 0.149707 -0.188982 0.127094 0.127042 -0.336676 -0.339528 -0.258305 -0.233356 0.076459 -0.417366 0.234884 -0.396138 -0.105167 -0.132292 0.000406 -0.028928 -0.113743 0.233866 -0.412092 0.181671 0.035803 -0.113988 0.273561 -0.044265 -0.368028 -0.006322 -0.056772 -0.283206 0.023298 0.156650 0.379849 0.105361 0.038010 -0.223059 0.176951 -0.467193 0.202162 0.356085 0.092826 -0.542919 0.238808 -0.024007 -0.290312 0.003533 0.322697 0.258817 0.319628 -0.306774 -0.448038 0.021410 0.124877 0.198734 0.197997 -0.142727 -0.021152 -0.131019 0.408615 -0.581075 -0.213768 -0.172844 -0.005290 0.115678 0.256707 -0.040428 0.342164 0.265458 0.493859 0.026632 -0.126733 -0.037227 0.132858 -0.020894 -0.095282 0.482660 -0.217318 0.349377 -0.172927 0.177103 -0.022872 -0.081081 0.132981 -0.001590 -0.046274 0.231058 -0.202368 0.167024 -0.178263 -0.374324 -0.284193 -0.317623 -0.277597 -0.408842 0.128376 -0.355808 -0.105159 0.386366 -0.015249 -0.015974 0.054422 -0.121443 0.056815 0.041257 -0.100126 -0.235942 -0.295174 0.158121 0.254649 -0.443185 -0.248935 -0.026120 -0.154243 0.314000 0.354968 -0.198934 0.363251 -0.286173 -0.061282 -0.052968 -0.072274 -0.021893 0.203270 0.373433 0.260473 0.093045 -0.065595 -0.131636 0.416788 -0.219155 -0.233348 -0.018231 -0.188276 0.053027 0.235438 -0.036055 -0.126908 0.333280 -0.323137 0.010927 0.229642 0.270970 0.051880 -0.347214 0.034248 0.350092 -0.302217 0.171247 -0.019472 -0.448179 0.196995 
ElizabethWarren 0.011480 -0.031235 0.025570 -0.023158 0.329877 0.018642 0.083057 0.149660 0.006713 -0.100267 -0.037255 0.103977 -0.008239 0.101723 -0.071997 0.026709 -0.066505 0.095788 -0.034014 0.121061 0.143541 0.048487 0.065161 -0.034359 -0.091239 -0.026557 -0.097604 -0.117475 -0.241537 -0.420373 -0.387872 0.115977 0.074492 0.156044 0.612301 0.244563 -0.127946 -0.132168 -0.262900 -0.188708 0.209963 -0.030616 0.352785 0.193305 -0.350050 -0.125507 -0.037815 -0.149102 -0.167888 -0.211646 0.299672 0.156944 -0.199631 0.127931 0.150184 -0.375740 -0.438457 -0.309727 -0.300555 0.110256 -0.539594 0.320206 -0.520951 -0.113458 -0.152992 0.012829 -0.054108 -0.128529 0.229605 -0.409385 0.169185 0.021769 -0.114451 0.263964 -0.030782 -0.335863 -0.000921 -0.050153 -0.278272 0.017662 0.174315 0.410593 0.102331 0.032683 -0.235785 0.168336 -0.500077 0.221620 0.257308 0.078514 -0.425210 0.179910 -0.009443 -0.231789 -0.012631 0.230856 0.185670 0.198743 -0.238450 -0.314185 0.008777 0.093443 0.143684 0.149523 -0.120557 -0.043638 -0.109167 0.353929 -0.510760 -0.175954 -0.125349 0.010109 0.094232 0.194118 -0.038817 0.277414 0.233206 0.421994 0.030328 -0.118296 -0.031607 0.138959 -0.023145 -0.094367 0.475088 -0.201346 0.334737 -0.184253 0.196036 -0.029585 -0.078938 0.164936 -0.003493 -0.061108 0.248863 -0.225046 0.144222 -0.145896 -0.309501 -0.223098 -0.250738 -0.233015 -0.323938 0.100696 -0.235643 -0.071264 0.238489 0.001746 0.000815 0.036468 -0.082498 0.026716 0.024904 -0.073397 -0.129445 -0.182288 0.093050 0.160109 -0.273455 -0.145901 -0.009088 -0.092202 0.170170 0.206547 -0.102787 0.198919 -0.152984 -0.011824 -0.051025 -0.063633 -0.000299 0.184755 0.328856 0.232077 0.084009 -0.038802 -0.110812 0.303001 -0.173871 -0.168653 -0.010223 -0.157669 0.030763 0.172501 -0.042609 -0.142896 0.345421 -0.351655 0.025219 0.205686 0.250572 0.055296 -0.312179 0.045071 0.290507 -0.326736 0.166450 -0.047454 -0.440332 0.199830 
progressive 0.071792 -0.105014 0.222073 0.110346 0.599985 -0.090551 0.386499 0.152358 -0.127164 -0.406260 -0.054547 0.481664 -0.008716 0.524148 -0.320958 0.162972 -0.122930 0.317906 -0.062982 0.497017 0.522722 0.229863 0.246536 -0.211527 -0.077486 -0.112373 -0.048718 -0.127014 -0.266458 -0.390790 -0.483682 0.124621 0.101280 0.192488 0.659950 0.274939 -0.076421 -0.091900 -0.354316 -0.234727 0.319534 -0.046947 0.451445 0.195883 -0.421240 -0.179720 -0.061576 -0.196351 -0.191770 -0.222098 0.338693 0.230183 -0.160340 0.142002 0.218202 -0.394572 -0.340717 -0.315771 -0.219937 0.090642 -0.386558 0.194369 -0.366869 -0.133812 -0.103970 0.064785 0.011103 -0.149233 0.264852 -0.406590 0.200412 0.081401 -0.141181 0.235182 -0.018972 -0.298334 -0.000156 -0.078160 -0.205481 0.074882 0.175876 0.355574 0.068502 0.009966 -0.211938 0.166326 -0.465972 0.147714 0.350583 0.090633 -0.456982 0.193321 -0.001263 -0.309327 -0.023106 0.321781 0.241407 0.293162 -0.226868 -0.359346 0.038100 0.069395 0.083900 0.170023 -0.097877 0.028593 -0.126339 0.351820 -0.484822 -0.109834 -0.159446 -0.040264 0.188868 0.275790 -0.042626 0.311849 0.206197 0.402227 -0.023457 -0.163880 -0.060063 0.181251 -0.034452 -0.119178 0.472540 -0.206410 0.333382 -0.127634 0.227077 -0.126741 -0.018861 0.177149 -0.071935 -0.068460 0.201246 -0.266410 0.140670 -0.128232 -0.258285 -0.168452 -0.207748 -0.223704 -0.216643 0.075490 -0.206856 -0.102668 0.200625 0.046339 0.047678 -0.005328 -0.130934 0.072190 0.011493 -0.092336 -0.167709 -0.246221 0.106904 0.211290 -0.276308 -0.162945 -0.023501 -0.111799 0.168206 0.258509 -0.117311 0.270805 -0.249075 -0.059828 -0.043696 -0.146811 0.085320 0.191677 0.448592 0.354763 0.165752 -0.032758 -0.121611 0.322359 -0.210100 -0.162996 0.041510 -0.206636 0.097644 0.262591 -0.024036 -0.097639 0.192092 -0.220416 0.043513 0.126212 0.154519 0.049234 -0.236022 0.047129 0.340059 -0.293145 0.141386 -0.084971 -0.360565 0.158778 
JoeBiden 0.016233 -0.128750 0.100441 -0.004089 1.040696 0.017155 0.370241 0.171340 0.067389 -0.016563 -0.049533 0.017543 -0.031907 0.004266 -0.006993 0.002630 -0.089347 0.106385 -0.047582 0.111148 0.164385 0.050503 0.067842 -0.023909 -0.117159 -0.035617 -0.160676 -0.141720 -0.292134 -0.541307 -0.470496 0.159052 0.070660 0.165740 0.727499 0.281259 -0.186920 -0.172220 -0.305675 -0.197963 0.314860 -0.033539 0.559402 0.330573 -0.562488 -0.197810 -0.063232 -0.261885 -0.199979 -0.285989 0.402409 0.191282 -0.309467 0.144312 0.194168 -0.510495 -0.538469 -0.326480 -0.369303 0.148176 -0.659427 0.409588 -0.633830 -0.125452 -0.238698 0.034066 -0.111456 -0.196161 0.317948 -0.604572 0.211023 0.019525 -0.201994 0.537151 -0.067570 -0.652587 0.006764 -0.068027 -0.560935 0.026222 0.346927 0.748209 0.177340 0.084988 -0.407808 0.308905 -0.935985 0.397017 0.477961 0.150263 -0.828936 0.341918 -0.012398 -0.430313 -0.025831 0.435017 0.327831 0.356878 -0.475585 -0.579431 -0.003982 0.217949 0.278522 0.253725 -0.097917 -0.053429 -0.054474 0.297318 -0.431919 -0.169953 -0.058968 0.071455 0.002668 0.105166 -0.029122 0.234910 0.202176 0.380799 0.061593 -0.083841 -0.003029 0.121146 -0.028403 -0.047652 0.452149 -0.186100 0.273918 -0.187687 0.151769 0.044781 -0.098073 0.094678 0.033647 -0.076465 0.203523 -0.171885 0.040004 -0.048603 -0.134621 -0.088983 -0.110783 -0.087734 -0.161955 0.078854 -0.203943 -0.026893 0.192551 -0.015187 -0.018461 0.089631 0.014455 -0.007388 0.063516 0.000629 0.004344 0.016497 -0.028474 0.004250 -0.081315 -0.019019 0.002430 -0.039833 0.102822 0.065536 -0.034442 0.035520 -0.007261 0.017765 0.006061 -0.009332 -0.064999 0.148775 0.122067 0.075591 -0.013525 -0.046763 -0.039474 0.007424 -0.000440 0.005012 -0.030038 0.020082 -0.048549 -0.055981 0.012665 -0.014078 0.083630 -0.033545 -0.018244 0.069986 0.040562 0.025695 -0.048339 -0.030293 0.067549 -0.063582 0.069674 0.023463 -0.081860 0.043537 
Kamala 0.014579 -0.101359 0.007534 -0.037761 1.055485 0.052216 0.315384 0.147273 0.127860 0.153026 -0.038463 -0.173854 -0.032005 -0.201438 0.123633 -0.061884 -0.034062 -0.037617 -0.014956 -0.119731 -0.070032 -0.055112 -0.041763 0.072102 -0.105888 -0.003056 -0.160375 -0.115940 -0.233764 -0.470761 -0.366593 0.135770 0.057522 0.128169 0.651290 0.246881 -0.192281 -0.177722 -0.248751 -0.165637 0.209973 -0.015321 0.435480 0.283733 -0.442812 -0.142166 -0.042726 -0.216409 -0.127919 -0.208976 0.294440 0.106265 -0.266993 0.097537 0.113693 -0.383137 -0.535031 -0.304150 -0.373617 0.148483 -0.662745 0.427688 -0.637379 -0.115707 -0.249531 0.014809 -0.131382 -0.184048 0.295524 -0.596243 0.190716 0.000852 -0.212660 0.605551 -0.081767 -0.737228 0.013609 -0.065025 -0.637185 0.015593 0.392164 0.855978 0.211348 0.107710 -0.462392 0.353999 -1.067714 0.463214 0.520635 0.163466 -0.921226 0.379976 -0.014282 -0.464013 -0.022533 0.474487 0.365641 0.398193 -0.537120 -0.652484 -0.009492 0.247334 0.329264 0.283991 -0.100942 -0.063472 -0.034799 0.279203 -0.407475 -0.181428 -0.040214 0.091614 -0.033324 0.073454 -0.024574 0.219725 0.200817 0.367967 0.078943 -0.060802 0.020955 0.074768 -0.014519 -0.010323 0.340924 -0.140146 0.193552 -0.157879 0.089751 0.090091 -0.104935 0.033049 0.061068 -0.065858 0.149976 -0.097113 0.048790 -0.060773 -0.173571 -0.123683 -0.145874 -0.109467 -0.220866 0.095138 -0.218668 -0.011424 0.215808 -0.032824 -0.036985 0.118375 0.036704 -0.017281 0.082375 0.000633 0.002496 0.019116 -0.029346 0.003346 -0.107721 -0.032662 0.003591 -0.045947 0.120438 0.067514 -0.050680 0.031356 0.008892 0.018620 0.017880 0.026382 -0.099878 0.123656 0.023857 -0.007614 -0.063723 -0.051846 -0.028138 -0.015939 0.027852 0.019739 -0.051139 0.049719 -0.067513 -0.096105 0.007671 -0.019561 0.100106 -0.043393 -0.035922 0.093223 0.065217 0.026241 -0.027831 -0.044680 0.032127 -0.026421 0.055716 0.046908 -0.038248 0.021009 
SocialDemocracy 0.019136 -0.069037 0.050970 -0.017754 0.479605 0.002282 0.135609 0.096877 -0.017036 -0.197147 -0.046904 0.216411 -0.010326 0.207421 -0.140077 0.065109 -0.083805 0.138438 -0.045565 0.173478 0.207762 0.081055 0.098833 -0.052306 -0.072620 -0.008479 -0.078870 -0.091493 -0.173534 -0.315928 -0.275930 0.081009 0.053838 0.104224 0.444922 0.174395 -0.099659 -0.104363 -0.180526 -0.132580 0.192966 -0.022895 0.335548 0.186327 -0.334454 -0.120647 -0.038407 -0.143678 -0.140918 -0.182887 0.262441 0.134465 -0.188178 0.108444 0.121030 -0.333431 -0.377715 -0.260549 -0.266715 0.099198 -0.473556 0.288350 -0.453917 -0.097575 -0.162692 0.005020 -0.059635 -0.129148 0.231134 -0.429205 0.170728 0.019747 -0.143121 0.352589 -0.043424 -0.456672 0.002079 -0.060436 -0.371435 0.021247 0.218339 0.509347 0.129667 0.051071 -0.291040 0.218391 -0.625242 0.275466 0.350662 0.101641 -0.580740 0.249237 -0.016008 -0.299891 -0.009823 0.313006 0.266067 0.300335 -0.343735 -0.456288 0.010064 0.141858 0.214390 0.204507 -0.148482 -0.048905 -0.118631 0.426757 -0.608672 -0.224441 -0.150504 0.025241 0.089855 0.226474 -0.042566 0.335999 0.282045 0.510690 0.047842 -0.133244 -0.030563 0.174249 -0.026325 -0.113183 0.617521 -0.263795 0.427406 -0.235865 0.227564 -0.014176 -0.109936 0.174421 0.003651 -0.075303 0.299765 -0.261023 0.167535 -0.174758 -0.382539 -0.283536 -0.320005 -0.279684 -0.419792 0.132193 -0.392422 -0.103102 0.409239 -0.009945 -0.011577 0.078672 -0.115212 0.046662 0.046720 -0.082609 -0.153408 -0.210134 0.108875 0.180198 -0.340103 -0.184186 -0.016334 -0.132341 0.252614 0.287061 -0.158882 0.273790 -0.204464 -0.028143 -0.048486 -0.066973 -0.029582 0.229752 0.366029 0.252732 0.077025 -0.063905 -0.117528 0.321144 -0.171169 -0.173062 -0.021830 -0.148667 0.026958 0.160203 -0.027340 -0.089889 0.227352 -0.213561 0.000779 0.151779 0.171010 0.036554 -0.228532 0.013247 0.233476 -0.214115 0.120495 -0.008267 -0.300448 0.132281 
demsocialist 0.018999 -0.050539 0.019673 -0.032875 0.369548 0.008830 0.109828 0.095798 -0.006458 -0.150258 -0.040655 0.168965 -0.010123 0.155931 -0.110311 0.051447 -0.066388 0.100909 -0.035433 0.112589 0.142516 0.056006 0.068414 -0.028512 -0.064586 0.000580 -0.070463 -0.083055 -0.152416 -0.282204 -0.240100 0.067857 0.046728 0.089759 0.390235 0.148393 -0.087223 -0.094800 -0.149902 -0.112962 0.222608 -0.024740 0.389433 0.219610 -0.387534 -0.139613 -0.043819 -0.167455 -0.160348 -0.208242 0.299982 0.148832 -0.217336 0.126853 0.134292 -0.383360 -0.415770 -0.288494 -0.295170 0.107937 -0.524066 0.318262 -0.499750 -0.109042 -0.173439 0.002777 -0.063462 -0.135297 0.249144 -0.465384 0.187509 0.019616 -0.130706 0.325084 -0.043184 -0.425239 0.001683 -0.055953 -0.344556 0.017417 0.201738 0.478624 0.126694 0.052352 -0.271431 0.206069 -0.584270 0.259196 0.334939 0.095662 -0.553556 0.243771 -0.020551 -0.280373 -0.009272 0.295739 0.250682 0.281996 -0.327660 -0.436194 0.007407 0.133585 0.209483 0.189899 -0.148879 -0.050996 -0.120415 0.426828 -0.609450 -0.229379 -0.153577 0.020516 0.087459 0.224723 -0.040516 0.335756 0.285801 0.513799 0.048861 -0.131489 -0.029092 0.163680 -0.025836 -0.112434 0.592614 -0.252671 0.416226 -0.232248 0.218992 -0.010802 -0.108456 0.168298 0.009672 -0.073156 0.293401 -0.249700 0.168515 -0.181016 -0.382319 -0.291284 -0.323260 -0.283904 -0.426444 0.135852 -0.379201 -0.093859 0.399000 -0.012533 -0.015954 0.078994 -0.106137 0.042321 0.048814 -0.088028 -0.176016 -0.239974 0.125096 0.203072 -0.381677 -0.208172 -0.016113 -0.139535 0.267048 0.301662 -0.165938 0.285751 -0.213203 -0.033562 -0.054601 -0.068476 -0.031764 0.240760 0.386599 0.264271 0.079059 -0.068238 -0.125725 0.364712 -0.193816 -0.196624 -0.022988 -0.168033 0.030049 0.185618 -0.034441 -0.111404 0.288064 -0.273192 0.004151 0.192057 0.220416 0.045349 -0.278487 0.018662 0.279043 -0.259656 0.143506 -0.013490 -0.374468 0.164753 
BetoORourke 0.048394 -0.098069 0.137220 0.030105 0.572714 -0.036933 0.292396 0.158962 -0.062404 -0.318596 -0.054705 0.358323 -0.009482 0.363105 -0.231604 0.114012 -0.107411 0.215718 -0.058309 0.307965 0.337252 0.142646 0.166651 -0.112018 -0.077381 -0.031160 -0.074576 -0.098428 -0.203281 -0.338963 -0.336454 0.094826 0.067816 0.126626 0.502237 0.202669 -0.096993 -0.104086 -0.232322 -0.165229 0.240101 -0.030642 0.390731 0.208007 -0.385461 -0.145170 -0.048183 -0.170012 -0.169628 -0.211586 0.300211 0.167489 -0.197792 0.133353 0.153158 -0.377689 -0.383106 -0.281669 -0.265492 0.093911 -0.466773 0.271482 -0.452776 -0.109833 -0.143184 0.013506 -0.042476 -0.131830 0.240914 -0.426893 0.181855 0.029446 -0.133640 0.309195 -0.036876 -0.398470 -0.000413 -0.058620 -0.314222 0.029835 0.191184 0.445030 0.109850 0.035150 -0.256617 0.190407 -0.549426 0.232201 0.347657 0.099916 -0.536771 0.229652 -0.010067 -0.298000 -0.011498 0.311283 0.256317 0.300164 -0.307913 -0.429490 0.017458 0.124543 0.178471 0.194417 -0.117593 -0.024190 -0.110829 0.350671 -0.504364 -0.173676 -0.133845 0.006653 0.099529 0.207988 -0.036671 0.286529 0.224238 0.415525 0.025228 -0.119019 -0.031261 0.134079 -0.023204 -0.088490 0.466748 -0.202007 0.322956 -0.166047 0.181343 -0.026829 -0.070493 0.143474 -0.006581 -0.058780 0.232027 -0.213252 0.164403 -0.164559 -0.361410 -0.263226 -0.294420 -0.266000 -0.377327 0.117467 -0.326920 -0.102297 0.340653 -0.001609 -0.001514 0.050412 -0.117138 0.050665 0.042447 -0.106089 -0.208323 -0.275219 0.141729 0.239418 -0.409851 -0.225512 -0.019531 -0.147492 0.279147 0.335813 -0.178571 0.329888 -0.262550 -0.040095 -0.053073 -0.085157 -0.002139 0.227166 0.407580 0.292481 0.109393 -0.058948 -0.138399 0.379926 -0.214071 -0.212066 -0.007420 -0.190011 0.047439 0.218556 -0.031401 -0.108996 0.268271 -0.264769 0.013665 0.180909 0.208491 0.046926 -0.273587 0.031900 0.289964 -0.270097 0.147246 -0.034598 -0.371551 0.161859 
ConservativeDemocrat 0.045323 -0.092657 0.116625 0.024681 0.498294 -0.029334 0.237805 0.137407 -0.057685 -0.280756 -0.044943 0.315236 -0.009941 0.319431 -0.208070 0.096220 -0.095511 0.192345 -0.054100 0.279489 0.304510 0.131361 0.150662 -0.104981 -0.068225 -0.029712 -0.067189 -0.094549 -0.192238 -0.318237 -0.314082 0.092129 0.063039 0.121690 0.473610 0.192618 -0.086429 -0.095118 -0.218460 -0.159069 0.217259 -0.024760 0.351043 0.179914 -0.342483 -0.127638 -0.040643 -0.150945 -0.147881 -0.185098 0.267239 0.148861 -0.170008 0.117659 0.137759 -0.332014 -0.363389 -0.273265 -0.252970 0.091379 -0.448248 0.258249 -0.428232 -0.105129 -0.141381 0.013993 -0.039001 -0.124113 0.235750 -0.408759 0.175068 0.032358 -0.118036 0.272482 -0.034439 -0.356105 -0.000632 -0.051508 -0.283249 0.029198 0.170782 0.394624 0.101716 0.029246 -0.228806 0.171909 -0.489694 0.205235 0.322713 0.088354 -0.494107 0.209579 -0.008482 -0.279530 -0.007317 0.286093 0.241877 0.281372 -0.281067 -0.399262 0.015312 0.112425 0.164975 0.187651 -0.123168 -0.023102 -0.113547 0.357842 -0.515865 -0.173653 -0.139415 0.007811 0.107524 0.216364 -0.033894 0.292000 0.223677 0.421294 0.024572 -0.122726 -0.034271 0.151683 -0.022618 -0.099488 0.510544 -0.221176 0.356525 -0.182146 0.204123 -0.038721 -0.079403 0.159567 -0.013554 -0.058008 0.251317 -0.236556 0.156406 -0.154450 -0.339299 -0.247015 -0.278231 -0.250010 -0.354448 0.106559 -0.297770 -0.093819 0.310953 -0.002017 -0.000941 0.044932 -0.111200 0.051396 0.035037 -0.094160 -0.178517 -0.234947 0.125338 0.205073 -0.350464 -0.195724 -0.021004 -0.126933 0.240863 0.291104 -0.155948 0.293764 -0.228149 -0.033464 -0.048912 -0.077401 0.000697 0.191342 0.355947 0.251957 0.097934 -0.050026 -0.123824 0.346369 -0.193456 -0.195399 -0.011541 -0.176335 0.048591 0.200951 -0.035453 -0.106784 0.258113 -0.258791 0.015054 0.168372 0.198529 0.045412 -0.265117 0.037498 0.278336 -0.263205 0.143366 -0.036460 -0.354982 0.157098 
