15 200
BaemyKlobaechar 0.337844 -0.555701 0.232725 -0.123175 0.778088 0.086124 0.621067 0.182924 0.095308 -0.461874 -0.441857 0.347669 0.005259 0.801716 -0.405026 0.036135 -0.313542 0.353167 -0.084169 0.522640 0.570269 0.068437 0.359643 -0.193436 0.001050 0.070969 -0.136686 0.028146 -0.025477 -0.344890 -0.224522 0.140200 -0.042682 0.046062 0.610368 0.270188 -0.214017 -0.307509 -0.018403 -0.028227 0.063821 -0.088008 0.399485 0.256207 -0.299285 -0.018742 0.090038 -0.341719 -0.005575 -0.172409 0.366299 -0.071158 -0.223526 0.268662 0.089437 -0.293966 -0.543025 -0.348804 -0.210249 0.146047 -0.584837 0.581521 -0.463268 -0.127125 -0.447104 -0.044202 -0.285108 -0.243752 0.137173 -0.418674 -0.047900 -0.123846 0.028793 0.407429 -0.183756 -0.291152 0.179874 0.056476 -0.369769 -0.043424 0.476871 0.439640 0.262413 0.331890 0.018389 0.146909 -0.875244 0.280758 0.098225 0.072357 -0.574670 0.148684 0.114244 -0.236572 0.057081 0.179539 0.189866 -0.025402 -0.307778 -0.163461 -0.057563 0.084929 0.201905 0.124717 -0.073581 -0.016171 0.043191 0.100419 -0.175200 -0.072580 0.091776 0.076932 -0.009993 -0.033341 -0.003379 0.070281 0.051572 0.113708 0.030482 -0.016072 0.011760 0.066700 0.003448 0.027233 0.195783 -0.079964 0.154527 -0.132165 0.093674 0.031047 -0.100112 0.054263 0.059667 -0.070621 0.051279 -0.034502 0.278356 -0.073166 -0.347947 -0.175924 -0.240224 -0.409675 -0.303110 0.123394 -0.430505 -0.051197 0.347651 -0.015163 0.040949 0.367031 0.009752 0.071940 0.246177 -0.071049 -0.038105 -0.118008 -0.084658 0.175340 -0.280050 -0.108953 0.017547 -0.205831 0.297910 0.243320 -0.223866 0.206509 -0.079317 -0.009771 -0.022706 -0.080830 -0.171524 0.422176 0.288928 0.182774 -0.101285 -0.178261 -0.220913 0.419444 -0.079832 -0.083248 -0.317682 -0.130013 -0.052869 0.195749 -0.140195 -0.134848 0.208980 -0.315213 -0.129021 0.120249 0.225042 0.059542 -0.185664 -0.125788 0.181441 -0.219177 0.218714 -0.024508 -0.196777 0.145488 
politics -0.105954 -0.020446 0.061550 -0.052896 0.361416 0.047246 0.246294 0.172389 0.033888 -0.450205 -0.379143 0.357690 0.017446 0.739283 -0.385240 0.022790 -0.301536 0.354980 -0.069974 0.536543 0.600255 0.073094 0.405163 -0.220260 0.008810 0.091586 -0.096208 0.023630 -0.069867 -0.475101 -0.365500 0.182326 0.022467 0.035852 0.845856 0.382940 -0.240897 -0.408315 -0.055860 -0.112018 0.065907 -0.084746 0.380381 0.202964 -0.235649 0.005049 0.073302 -0.240018 -0.054490 -0.138919 0.294950 0.030373 -0.145641 0.202586 0.082830 -0.239354 -0.244583 -0.216694 -0.147098 0.066072 -0.301403 0.273392 -0.242739 -0.054595 -0.233283 -0.054969 -0.128289 -0.136276 0.133622 -0.269443 0.026095 -0.056395 0.029851 0.130154 -0.050571 -0.118263 0.047421 0.019602 -0.125251 -0.024822 0.186976 0.210736 0.141437 0.127191 -0.008291 0.084740 -0.401820 0.153433 0.145961 0.071096 -0.708846 0.182460 0.106489 -0.280477 0.083495 0.243831 0.268448 0.065605 -0.376430 -0.233478 -0.058409 0.068333 0.284200 0.170043 -0.247640 0.024402 0.119128 0.330818 -0.566251 -0.202128 0.165298 0.175099 0.066469 0.064292 -0.090426 0.519892 0.405623 0.622379 0.191572 0.019681 0.024735 0.184141 0.132067 0.054867 0.526304 -0.311627 0.475148 -0.217411 0.237456 -0.011000 -0.258534 0.047245 0.133425 -0.148663 0.124550 -0.164788 0.315483 -0.098168 -0.459714 -0.251882 -0.342031 -0.464323 -0.369604 0.116476 -0.468935 -0.050510 0.423422 -0.018057 0.035753 0.381380 -0.052081 0.131382 0.186349 -0.099306 -0.077399 -0.154282 -0.019372 0.197590 -0.244486 -0.173836 -0.018414 -0.202569 0.267696 0.270811 -0.335574 0.305596 -0.152648 -0.087166 -0.031170 -0.072089 -0.103705 0.258496 0.232369 0.128726 -0.042456 -0.110808 -0.124988 0.308233 -0.057237 -0.084688 -0.230682 -0.101792 0.006507 0.176894 -0.277479 -0.251844 0.275117 -0.453229 -0.211819 0.226657 0.382660 0.112747 -0.316031 -0.092276 0.227514 -0.303043 0.228119 -0.048776 -0.296257 0.199376 
YangForPresidentHQ -0.188010 0.080067 0.004518 0.071829 0.322718 0.001681 0.224710 0.102660 -0.006088 -0.232186 -0.196946 0.215696 0.014370 0.396470 -0.198677 0.032807 -0.209491 0.286675 -0.058096 0.409607 0.469208 0.080324 0.288933 -0.171766 -0.024508 0.036751 -0.066479 -0.004042 -0.064013 -0.377301 -0.342587 0.130537 0.030344 0.058942 0.760682 0.347436 -0.195808 -0.341657 -0.084792 -0.117531 0.112592 -0.086418 0.385095 0.197625 -0.269556 -0.047188 0.047791 -0.295385 -0.070388 -0.148229 0.326059 0.067599 -0.150613 0.236894 0.091837 -0.279194 -0.464059 -0.412093 -0.229529 0.153613 -0.525610 0.476576 -0.404514 -0.159500 -0.359576 -0.050855 -0.182648 -0.208111 0.178454 -0.434321 0.053400 -0.072503 0.008330 0.433347 -0.192152 -0.378578 0.203548 0.032048 -0.353363 -0.017034 0.622100 0.657750 0.391323 0.435553 -0.058195 0.271950 -1.234113 0.415843 0.266338 0.085924 -0.938824 0.291585 0.172940 -0.391768 0.117551 0.364110 0.432468 0.157931 -0.574723 -0.412419 -0.086834 0.091726 0.386840 0.266379 -0.337142 0.067944 0.155690 0.451369 -0.712957 -0.218562 0.165694 0.166525 0.125540 0.085684 -0.081186 0.436441 0.335671 0.490363 0.143387 -0.022473 0.021238 0.235532 0.138293 0.011118 0.613815 -0.322256 0.570166 -0.235230 0.255291 -0.057060 -0.205881 0.082451 0.080022 -0.138555 0.112425 -0.163416 0.232461 -0.092905 -0.288386 -0.184652 -0.220769 -0.335933 -0.249222 0.088333 -0.323203 -0.044362 0.291117 0.008172 0.039831 0.226171 -0.062103 0.104462 0.203766 -0.119064 -0.089221 -0.230634 -0.024842 0.249699 -0.316670 -0.180320 -0.006315 -0.233234 0.275279 0.285275 -0.280508 0.279033 -0.162186 -0.086064 -0.016727 -0.056735 0.011057 0.082609 0.128308 0.099154 0.015230 -0.039015 -0.096921 0.232938 -0.057722 -0.029336 -0.101863 -0.079814 0.037192 0.165239 -0.135244 -0.131025 0.128680 -0.236987 -0.073552 0.106246 0.175867 0.040319 -0.227831 -0.064366 0.164598 -0.163121 0.123158 -0.036181 -0.193325 0.095193 
SandersForPresident -0.118687 -0.010726 0.061778 -0.067049 0.319429 0.034659 0.317480 0.133662 -0.004849 -0.211888 -0.178952 0.177133 0.012985 0.352378 -0.175410 0.005567 -0.143981 0.181683 -0.038021 0.278845 0.314405 0.039030 0.208153 -0.125804 0.007962 0.062313 -0.082068 0.024826 -0.059860 -0.405776 -0.331542 0.160461 0.024552 0.024587 0.697268 0.323886 -0.194155 -0.327025 -0.046396 -0.096748 0.121666 -0.147601 0.682786 0.382174 -0.435115 -0.001217 0.154780 -0.528792 -0.063857 -0.220759 0.480428 0.014586 -0.240202 0.352907 0.113659 -0.398357 -0.292907 -0.243349 -0.125846 0.092863 -0.319205 0.312003 -0.247185 -0.085978 -0.244204 -0.031319 -0.135200 -0.136126 0.108564 -0.253322 0.007384 -0.059010 0.034294 0.268505 -0.126914 -0.211838 0.129123 0.034156 -0.216109 -0.029150 0.393602 0.392437 0.251092 0.273749 -0.019075 0.158211 -0.767651 0.266986 0.161865 0.058456 -0.660411 0.185052 0.128799 -0.273062 0.084576 0.240946 0.284736 0.091737 -0.383193 -0.249259 -0.065208 0.062104 0.259025 0.176251 -0.309306 0.055267 0.157317 0.396870 -0.649543 -0.194235 0.184386 0.183370 0.117409 0.075465 -0.104135 0.533642 0.414020 0.618963 0.187943 -0.000764 0.027182 0.204265 0.136981 0.047304 0.535501 -0.306822 0.491808 -0.209753 0.245070 -0.036343 -0.230798 0.054010 0.102465 -0.145225 0.103769 -0.166186 0.319060 -0.083706 -0.408420 -0.220824 -0.296958 -0.449478 -0.319108 0.112360 -0.394694 -0.044797 0.338922 -0.000870 0.046892 0.334135 -0.046353 0.131864 0.303913 -0.144010 -0.080996 -0.222368 -0.078481 0.287705 -0.356478 -0.210378 -0.016657 -0.299774 0.369325 0.355057 -0.412468 0.372432 -0.182666 -0.103727 -0.023074 -0.096877 -0.092570 0.290676 0.243318 0.152231 -0.060209 -0.133909 -0.174191 0.342171 -0.058138 -0.049351 -0.246114 -0.113597 0.015254 0.209431 -0.197243 -0.175519 0.157261 -0.296338 -0.121755 0.135082 0.230519 0.064484 -0.193264 -0.062013 0.158881 -0.209833 0.152408 -0.045731 -0.180550 0.102645 
centerleftpolitics 0.676634 -0.970545 0.389467 -0.208345 1.317886 0.153106 1.117190 0.219699 0.157285 -0.443479 -0.488608 0.303249 -0.004758 0.817301 -0.403161 0.028959 -0.320083 0.324109 -0.082668 0.484181 0.518876 0.038252 0.316097 -0.163807 0.024826 0.089090 -0.197085 0.063301 0.012377 -0.355901 -0.182996 0.174514 -0.093225 0.039739 0.706063 0.305418 -0.278916 -0.377180 0.027627 0.018895 0.014393 -0.070728 0.315136 0.237087 -0.253095 -0.005218 0.096185 -0.326985 0.057665 -0.123127 0.277733 -0.159994 -0.197999 0.210127 0.059352 -0.197945 -0.772013 -0.451528 -0.253558 0.193087 -0.792205 0.831025 -0.624196 -0.172374 -0.637285 -0.050619 -0.432433 -0.334745 0.151011 -0.543914 -0.129288 -0.183600 0.013332 0.210410 -0.091598 -0.080755 0.098135 0.049537 -0.214433 -0.032449 0.204317 0.102047 0.048138 0.144353 0.087330 -0.011096 -0.268371 0.050193 0.047220 0.087320 -0.660871 0.142199 0.143154 -0.267512 0.060405 0.186526 0.149670 -0.142427 -0.327825 -0.113428 -0.082247 0.113116 0.213843 0.110207 0.023046 -0.046822 0.022283 -0.050051 0.059188 -0.002412 0.101184 0.057945 -0.075365 -0.121488 0.032043 -0.090244 -0.075804 -0.054070 -0.022301 0.002263 0.016530 0.018854 -0.053152 0.054380 0.056168 0.005223 0.014724 -0.121809 0.050230 0.078615 -0.084242 0.047952 0.074024 -0.076188 0.011721 0.027295 0.285490 -0.053757 -0.339112 -0.135906 -0.214599 -0.434874 -0.291993 0.145505 -0.456926 -0.053545 0.341675 -0.023893 0.038596 0.436819 0.064743 0.037320 0.295442 -0.041100 -0.002627 -0.054440 -0.152144 0.150301 -0.265373 -0.057680 0.035221 -0.182023 0.293127 0.190232 -0.152512 0.130726 -0.014968 0.037630 -0.015291 -0.087979 -0.253624 0.573667 0.327995 0.199458 -0.178911 -0.241826 -0.311418 0.554103 -0.083720 -0.090943 -0.484197 -0.162747 -0.112164 0.241810 -0.191227 -0.190472 0.308441 -0.465178 -0.224893 0.169580 0.326662 0.099990 -0.216647 -0.206041 0.229981 -0.278940 0.322534 -0.032215 -0.223761 0.204705 
Pete_Buttigieg 0.130099 -0.321328 0.054403 -0.080131 0.383863 0.050317 0.271492 0.106584 0.070196 -0.258557 -0.282635 0.201352 0.003029 0.479882 -0.239425 0.011084 -0.148258 0.163617 -0.031254 0.250299 0.273947 0.023261 0.174822 -0.093406 0.019008 0.069173 -0.110394 0.038731 -0.018302 -0.276776 -0.187851 0.126873 -0.022595 -0.000902 0.540713 0.243938 -0.182735 -0.275915 0.001862 -0.035640 0.066918 -0.105074 0.517318 0.327078 -0.351401 0.002929 0.133555 -0.448729 -0.005282 -0.158951 0.345622 -0.061124 -0.213004 0.263966 0.062236 -0.284629 -0.386484 -0.245729 -0.118051 0.106429 -0.385065 0.407179 -0.295781 -0.102033 -0.335398 -0.032536 -0.218119 -0.167276 0.083233 -0.294181 -0.055421 -0.101656 0.065857 0.461875 -0.245226 -0.300711 0.215971 0.066573 -0.372691 -0.064809 0.566194 0.503042 0.332037 0.418683 0.026785 0.189382 -1.036725 0.338158 0.050479 0.036819 -0.409914 0.101943 0.090868 -0.152827 0.053212 0.133146 0.118080 -0.031959 -0.225486 -0.105714 -0.058002 0.061919 0.153798 0.074892 -0.103695 0.008033 0.074377 0.110814 -0.182656 -0.056800 0.096306 0.078945 0.019374 -0.021349 -0.034241 0.172551 0.130069 0.206454 0.063633 0.011476 0.017178 0.073910 0.026604 0.033495 0.184266 -0.094781 0.163355 -0.107462 0.100335 0.016118 -0.098860 0.029093 0.059994 -0.070562 0.036882 -0.039336 0.151333 -0.024326 -0.164719 -0.079412 -0.111497 -0.214313 -0.145023 0.073136 -0.260766 -0.035152 0.209009 -0.009276 0.019059 0.235859 0.009164 0.056876 0.253997 -0.069825 -0.047538 -0.133141 -0.095268 0.189082 -0.277198 -0.119684 0.000176 -0.208784 0.295315 0.238132 -0.244650 0.223355 -0.094332 -0.048053 -0.038728 -0.106469 -0.175065 0.457119 0.348158 0.215090 -0.126076 -0.210414 -0.248724 0.504765 -0.079479 -0.077800 -0.388829 -0.142913 -0.035829 0.270897 -0.135521 -0.136189 0.160866 -0.276275 -0.129889 0.113361 0.215068 0.046608 -0.139135 -0.094853 0.138624 -0.167940 0.174544 -0.016594 -0.168527 0.111776 
moderatepolitics -0.142695 -0.139327 0.073589 -0.047124 0.447547 0.058013 0.315697 0.117770 0.043959 -0.253100 -0.213402 0.215659 -0.011434 0.398312 -0.206194 0.033443 -0.143466 0.174882 -0.042165 0.214203 0.260521 0.055618 0.165271 -0.087534 -0.009435 0.056154 -0.115403 0.013867 -0.042802 -0.331303 -0.236424 0.130627 -0.013837 0.030164 0.619245 0.273747 -0.209756 -0.310233 -0.043624 -0.063623 0.084095 -0.086780 0.509526 0.314197 -0.362671 -0.020334 0.100404 -0.403576 -0.022403 -0.171440 0.378467 -0.041031 -0.232190 0.264849 0.084596 -0.323419 -0.343703 -0.230822 -0.165439 0.104949 -0.389631 0.369377 -0.310369 -0.085613 -0.293695 -0.040158 -0.183072 -0.152205 0.108487 -0.315756 -0.007701 -0.085285 0.027686 0.279139 -0.123950 -0.221850 0.115709 0.046414 -0.256867 -0.029492 0.327981 0.326895 0.197401 0.233361 -0.003887 0.123745 -0.634489 0.207688 0.132448 0.060847 -0.555988 0.158348 0.089795 -0.218482 0.053799 0.188276 0.175269 0.033651 -0.267535 -0.173782 -0.054238 0.077498 0.185492 0.101187 -0.213225 0.019566 0.108573 0.283784 -0.480462 -0.181023 0.144526 0.169596 0.032925 0.026528 -0.058430 0.440025 0.322975 0.522525 0.162263 0.012535 0.034030 0.176149 0.091444 0.054614 0.498494 -0.277152 0.431642 -0.234863 0.252229 0.016735 -0.263402 0.053927 0.149733 -0.168633 0.132762 -0.148501 0.285566 -0.093130 -0.408758 -0.231930 -0.303908 -0.433916 -0.361469 0.135489 -0.504008 -0.061147 0.448956 -0.025661 0.021353 0.412218 -0.020258 0.114907 0.189063 -0.065886 -0.074502 -0.134850 -0.030359 0.169254 -0.261444 -0.141297 -0.011675 -0.157170 0.240356 0.220274 -0.219188 0.222909 -0.108193 -0.053572 -0.026226 -0.056774 -0.098337 0.257027 0.222396 0.123126 -0.054986 -0.112581 -0.128583 0.300720 -0.064936 -0.078356 -0.212282 -0.089676 -0.018351 0.150043 -0.290660 -0.286382 0.344657 -0.549971 -0.267883 0.280591 0.463988 0.129015 -0.380048 -0.162612 0.305007 -0.369387 0.340232 -0.053627 -0.373133 0.246078 
ElizabethWarren 0.253105 -0.207927 0.175266 -0.168961 0.340061 0.001850 0.190919 0.055777 0.110383 -0.597930 -0.600531 0.466828 0.031577 1.095664 -0.567118 0.026220 -0.440222 0.520415 -0.074637 0.832874 0.878612 0.098114 0.591479 -0.324258 0.033365 0.092088 -0.083041 0.029331 -0.061603 -0.344077 -0.286753 0.152155 0.002790 0.004597 0.584321 0.263011 -0.144268 -0.282581 -0.011146 -0.074693 0.065926 -0.096169 0.488035 0.287944 -0.297516 0.023741 0.143303 -0.401818 -0.038738 -0.171454 0.360146 -0.035067 -0.193661 0.306805 0.077202 -0.307224 -0.439689 -0.337335 -0.143337 0.088794 -0.438643 0.434386 -0.341721 -0.129575 -0.288754 -0.057265 -0.169729 -0.139941 0.112973 -0.292506 -0.011278 -0.083328 0.027006 0.198054 -0.120907 -0.141418 0.087796 0.007383 -0.153910 -0.023504 0.175452 0.173491 0.134423 0.132414 0.000736 0.070824 -0.357139 0.123294 0.034833 0.020541 -0.280610 0.062396 0.052220 -0.106871 0.050443 0.104567 0.114745 0.000256 -0.150308 -0.093823 -0.029181 0.011228 0.131806 0.074240 -0.239824 0.045289 0.120361 0.259890 -0.455080 -0.146017 0.161140 0.122364 0.069158 0.033544 -0.054641 0.291087 0.219570 0.325949 0.078888 0.039740 0.009601 0.144415 0.098597 0.052235 0.368065 -0.247480 0.390278 -0.184485 0.216015 -0.024360 -0.219252 0.056830 0.133685 -0.135970 0.090630 -0.117329 0.139091 -0.010606 -0.146462 -0.067613 -0.086690 -0.191980 -0.116163 0.037562 -0.172344 -0.015074 0.135677 -0.016318 0.017750 0.188856 0.008128 0.035881 0.310708 -0.088460 -0.062755 -0.155463 -0.110279 0.228374 -0.296633 -0.156396 0.003731 -0.233200 0.311474 0.270550 -0.322163 0.271778 -0.110440 -0.066021 -0.034233 -0.077357 -0.164529 0.378167 0.260225 0.158816 -0.110254 -0.179491 -0.165024 0.358119 -0.040464 -0.060099 -0.312204 -0.104025 -0.034485 0.188659 -0.108886 -0.079753 0.093414 -0.181679 -0.093378 0.049021 0.140620 0.029241 -0.074318 -0.067715 0.072244 -0.121393 0.123242 -0.017477 -0.116663 0.082173 
progressive 0.320233 -0.416509 0.247395 -0.160965 0.882446 0.083726 0.736617 0.136013 0.076110 -0.411128 -0.412522 0.332335 0.010363 0.751769 -0.383368 0.024652 -0.260211 0.294232 -0.057290 0.470365 0.517613 0.046562 0.334012 -0.180933 0.017139 0.056320 -0.072252 0.023719 -0.030055 -0.301341 -0.232250 0.125817 0.004335 0.016705 0.541259 0.238713 -0.150197 -0.253157 -0.018828 -0.048472 0.061404 -0.085454 0.389946 0.227821 -0.239942 0.006816 0.097184 -0.323823 -0.019396 -0.128673 0.271634 -0.007584 -0.149643 0.199792 0.065173 -0.218538 -0.353257 -0.263592 -0.132320 0.093752 -0.365638 0.374663 -0.279643 -0.099260 -0.265858 -0.026597 -0.164990 -0.151303 0.100677 -0.264398 -0.025588 -0.061167 0.023749 0.127169 -0.062581 -0.082871 0.060386 0.015339 -0.093528 -0.019891 0.147391 0.128698 0.086807 0.108629 0.013502 0.055028 -0.268470 0.088047 0.108640 0.052974 -0.604935 0.157017 0.107583 -0.239853 0.078060 0.219152 0.224693 0.031598 -0.351152 -0.199169 -0.063813 0.064393 0.246044 0.141227 -0.201548 0.033991 0.120526 0.253307 -0.415349 -0.132116 0.158009 0.134643 0.042085 0.009616 -0.065367 0.317283 0.256965 0.386268 0.116340 0.023292 0.025321 0.206661 0.130820 0.077000 0.547305 -0.330453 0.508907 -0.237056 0.289471 -0.011034 -0.306017 0.047131 0.165775 -0.206720 0.100072 -0.177212 0.300268 -0.075220 -0.392468 -0.187675 -0.280070 -0.449792 -0.295586 0.128228 -0.428209 -0.036429 0.357718 -0.011389 0.041807 0.400283 0.001226 0.106074 0.244390 -0.082775 -0.042811 -0.118449 -0.096020 0.195764 -0.237977 -0.133311 -0.001575 -0.200909 0.263765 0.223343 -0.276104 0.231882 -0.103879 -0.064020 0.011510 -0.029743 -0.058792 0.118741 0.052374 0.030965 -0.042180 -0.054394 -0.068509 0.109539 -0.004722 -0.004392 -0.109983 -0.029100 -0.010841 0.060564 -0.231518 -0.209639 0.240781 -0.396218 -0.198053 0.191683 0.315842 0.106168 -0.282864 -0.143185 0.235940 -0.274964 0.263936 -0.049376 -0.254320 0.188159 
JoeBiden 0.656003 -0.965527 0.393643 -0.146995 1.170607 0.126388 0.912154 0.230530 0.147102 -0.576063 -0.565547 0.406163 0.003809 1.000789 -0.492927 0.048691 -0.390381 0.418855 -0.113894 0.604907 0.666950 0.070916 0.402724 -0.208254 -0.012065 0.070800 -0.182283 0.037912 0.007580 -0.350858 -0.193854 0.149348 -0.091762 0.075712 0.649193 0.285440 -0.264781 -0.346319 -0.004861 0.013610 -0.015921 -0.015479 -0.028594 0.019747 -0.054975 -0.036952 -0.019409 -0.032954 0.058887 -0.052750 0.124506 -0.116010 -0.102658 0.084297 0.050093 -0.053299 -0.704695 -0.427463 -0.277362 0.190188 -0.763813 0.773782 -0.606815 -0.152837 -0.608875 -0.055426 -0.403656 -0.339097 0.154893 -0.540001 -0.099660 -0.165909 -0.003406 0.318801 -0.105429 -0.213673 0.146518 0.060910 -0.331221 -0.026543 0.398133 0.327634 0.159628 0.268596 0.058032 0.076384 -0.667489 0.190789 0.126224 0.116304 -0.868775 0.213608 0.184902 -0.361214 0.080464 0.256451 0.282125 -0.084025 -0.481011 -0.226690 -0.092053 0.140267 0.305243 0.193323 -0.027787 -0.043125 0.032899 0.043010 -0.088202 -0.060626 0.120729 0.090219 -0.055631 -0.094741 0.030154 -0.049196 -0.054083 -0.013345 -0.002403 -0.028913 0.006513 -0.014844 -0.081766 0.015575 -0.015208 0.083145 -0.070689 -0.074300 -0.033492 0.072142 0.013408 0.058384 0.002554 -0.005201 -0.005963 0.073191 0.201616 -0.044005 -0.228495 -0.095284 -0.135013 -0.303398 -0.216444 0.092699 -0.298275 -0.030720 0.207866 -0.012347 0.045473 0.266622 0.052521 -0.003813 0.240015 -0.045466 0.013367 -0.046132 -0.114299 0.105095 -0.227040 -0.033547 0.052311 -0.173468 0.254911 0.177632 -0.118621 0.086174 0.000794 0.063783 -0.003292 -0.085540 -0.238546 0.547603 0.308139 0.209973 -0.143349 -0.230758 -0.314422 0.541193 -0.100762 -0.094065 -0.425287 -0.167220 -0.093904 0.222498 -0.156073 -0.147868 0.272748 -0.394663 -0.157625 0.133570 0.259137 0.078929 -0.248624 -0.210829 0.247871 -0.298431 0.320712 -0.029616 -0.230941 0.189977 
Kamala 0.896714 -1.097162 0.455335 -0.238022 1.203174 0.129954 0.894831 0.196860 0.176690 -0.632104 -0.641159 0.463062 0.001546 1.119089 -0.561876 0.045686 -0.445652 0.483921 -0.114078 0.723273 0.785390 0.080313 0.487185 -0.258381 0.009118 0.068862 -0.169430 0.045989 0.006723 -0.285608 -0.136838 0.140170 -0.080673 0.035311 0.490837 0.209462 -0.213948 -0.269635 0.019363 0.025526 0.011748 -0.050122 0.244113 0.190595 -0.213530 -0.015695 0.065310 -0.252180 0.044175 -0.117797 0.262927 -0.139032 -0.189050 0.192529 0.059294 -0.195121 -0.757839 -0.445184 -0.263292 0.195106 -0.784858 0.815766 -0.624366 -0.167082 -0.615827 -0.050771 -0.416813 -0.324026 0.153816 -0.538934 -0.113472 -0.175622 0.024197 0.412836 -0.182157 -0.249891 0.189850 0.075849 -0.386639 -0.050789 0.448986 0.370396 0.206503 0.316883 0.064202 0.091923 -0.759648 0.224468 0.055693 0.082426 -0.602520 0.134928 0.135594 -0.246259 0.048993 0.168441 0.140062 -0.124568 -0.310839 -0.112851 -0.081923 0.113838 0.199543 0.106070 0.123432 -0.064895 -0.029854 -0.170374 0.264944 0.061041 0.024747 -0.001293 -0.111570 -0.134050 0.069165 -0.287049 -0.225048 -0.291451 -0.082818 -0.008814 0.022159 0.023841 -0.044669 0.051497 0.071144 -0.003828 0.026983 -0.123715 0.039982 0.078247 -0.072750 0.040619 0.064348 -0.069713 0.011386 0.033536 0.184294 -0.025651 -0.210808 -0.073162 -0.118047 -0.287372 -0.192819 0.100494 -0.291458 -0.029745 0.199094 -0.017471 0.026069 0.296780 0.072651 -0.005836 0.300936 -0.047404 0.009151 -0.049778 -0.155656 0.143881 -0.262687 -0.052015 0.037723 -0.189135 0.288136 0.193053 -0.157251 0.123057 -0.001715 0.043092 -0.019950 -0.100559 -0.263377 0.625742 0.367721 0.223016 -0.189998 -0.267188 -0.324349 0.570136 -0.092918 -0.087290 -0.481861 -0.167503 -0.107247 0.243219 -0.170169 -0.171923 0.281333 -0.425912 -0.199702 0.155060 0.293596 0.087412 -0.231137 -0.214908 0.250445 -0.306675 0.343616 -0.038158 -0.243851 0.199438 
SocialDemocracy 0.511373 -0.733704 0.360012 -0.203127 1.180367 0.122168 1.014979 0.222622 0.112344 -0.494744 -0.481605 0.386728 0.003937 0.872405 -0.448014 0.049364 -0.331783 0.374921 -0.083976 0.553998 0.606159 0.071526 0.370967 -0.198390 0.008653 0.082225 -0.155744 0.028428 -0.036187 -0.420633 -0.282168 0.171269 -0.038708 0.051383 0.744256 0.318927 -0.242843 -0.360177 -0.016821 -0.035102 0.071661 -0.092575 0.453466 0.290880 -0.330100 -0.019467 0.104113 -0.386952 -0.002635 -0.172349 0.369907 -0.076140 -0.231654 0.261829 0.089139 -0.303443 -0.583957 -0.375506 -0.222991 0.154934 -0.622460 0.625423 -0.491712 -0.142097 -0.454402 -0.037944 -0.292172 -0.249897 0.141071 -0.440633 -0.050058 -0.116584 0.004510 0.217112 -0.089001 -0.141158 0.092145 0.025554 -0.205240 -0.022985 0.218826 0.185370 0.092724 0.152719 0.023409 0.052164 -0.371534 0.106854 0.107147 0.077072 -0.653209 0.172961 0.113120 -0.261025 0.059516 0.214141 0.195445 -0.032490 -0.339806 -0.185794 -0.063801 0.092048 0.227774 0.126793 -0.095599 -0.020121 0.060858 0.131977 -0.217636 -0.092052 0.116288 0.095352 -0.018993 -0.046736 -0.016908 0.143700 0.122689 0.218557 0.055446 0.002393 0.019798 0.126463 0.031220 0.050547 0.345914 -0.177076 0.298463 -0.209691 0.196530 0.032235 -0.215098 0.065659 0.130767 -0.158363 0.082662 -0.094141 0.285773 -0.084288 -0.368826 -0.179636 -0.262623 -0.442987 -0.316853 0.144075 -0.455930 -0.046053 0.372132 -0.014724 0.036424 0.400691 0.024870 0.063842 0.199223 -0.040283 -0.023083 -0.080032 -0.082511 0.133146 -0.215392 -0.077571 0.019262 -0.152306 0.229840 0.175674 -0.151002 0.138483 -0.049366 -0.002735 -0.007736 -0.051669 -0.138618 0.322772 0.196381 0.123234 -0.090852 -0.129654 -0.154937 0.294328 -0.053571 -0.052266 -0.233318 -0.092349 -0.055308 0.129884 -0.267976 -0.261865 0.361588 -0.559166 -0.260723 0.242180 0.427000 0.127389 -0.358559 -0.215947 0.322161 -0.381669 0.371683 -0.052639 -0.361486 0.270417 
demsocialist 0.455309 -0.441097 0.257469 -0.185443 0.826696 0.086550 0.645270 0.125211 0.101813 -0.407096 -0.415733 0.314833 0.004484 0.737729 -0.378591 0.025497 -0.249088 0.267160 -0.057919 0.413952 0.452737 0.038905 0.285569 -0.148153 0.024428 0.081819 -0.122878 0.034310 -0.025990 -0.348450 -0.228814 0.152952 -0.025050 0.015951 0.597870 0.259410 -0.192148 -0.295140 0.002927 -0.029840 0.062207 -0.098593 0.501189 0.314031 -0.332755 0.008403 0.134531 -0.426881 -0.001186 -0.176398 0.378544 -0.074136 -0.234015 0.280441 0.079634 -0.308432 -0.393872 -0.249021 -0.137527 0.099380 -0.409743 0.426401 -0.319323 -0.093552 -0.314875 -0.029784 -0.207341 -0.165683 0.090183 -0.286646 -0.052792 -0.082489 0.033291 0.210160 -0.107099 -0.122565 0.091788 0.030375 -0.183859 -0.036867 0.164922 0.123394 0.080154 0.124049 0.033155 0.039364 -0.273378 0.081219 0.097632 0.071273 -0.702966 0.173070 0.119535 -0.272024 0.078233 0.233324 0.203236 -0.034512 -0.361580 -0.185963 -0.075652 0.091510 0.260992 0.133303 -0.241724 0.012277 0.146971 0.290201 -0.490025 -0.174337 0.212862 0.186290 0.021308 -0.019342 -0.068837 0.394834 0.315858 0.502670 0.144271 0.036765 0.023017 0.129691 0.060030 0.069096 0.351583 -0.209976 0.318746 -0.197700 0.230226 0.026641 -0.266051 0.045433 0.159472 -0.177423 0.088983 -0.121549 0.190418 -0.051432 -0.258308 -0.113606 -0.189588 -0.302650 -0.210855 0.104068 -0.311007 -0.031192 0.260167 -0.017654 0.012656 0.286771 0.023376 0.045369 0.240992 -0.049080 -0.041574 -0.090032 -0.103963 0.172768 -0.235775 -0.112012 0.000451 -0.139932 0.224766 0.159814 -0.183556 0.166001 -0.061302 -0.033615 -0.021273 -0.066927 -0.162373 0.358280 0.239608 0.132549 -0.113694 -0.155015 -0.151730 0.317255 -0.039261 -0.058613 -0.282930 -0.089085 -0.048654 0.157251 -0.291288 -0.280839 0.353395 -0.568234 -0.289783 0.252857 0.450703 0.133916 -0.379224 -0.209862 0.321182 -0.391754 0.384657 -0.055020 -0.379739 0.290052 
BetoORourke 0.331592 -0.373946 0.213093 -0.143447 0.756361 0.071590 0.573206 0.150929 0.075738 -0.401434 -0.390806 0.321965 0.005952 0.710718 -0.360850 0.028789 -0.251329 0.285971 -0.059049 0.433448 0.476880 0.053407 0.309909 -0.168043 0.013575 0.064497 -0.101392 0.032489 -0.032885 -0.333613 -0.243588 0.142122 -0.006494 0.019078 0.586499 0.258895 -0.183957 -0.288112 -0.017927 -0.048884 0.070033 -0.097038 0.479616 0.292522 -0.313390 0.001667 0.115847 -0.393267 -0.022411 -0.168207 0.362703 -0.039120 -0.206728 0.266915 0.080652 -0.300286 -0.382493 -0.263405 -0.148038 0.099571 -0.401409 0.409577 -0.317606 -0.098211 -0.307242 -0.034970 -0.197610 -0.167929 0.107574 -0.305727 -0.029440 -0.084291 0.034259 0.274667 -0.132592 -0.187496 0.123039 0.037915 -0.227549 -0.036153 0.303990 0.282028 0.179082 0.217594 0.015086 0.101708 -0.565580 0.183844 0.123214 0.068857 -0.678137 0.175893 0.123068 -0.270420 0.076835 0.235900 0.231559 0.013252 -0.370720 -0.211531 -0.074545 0.083675 0.258582 0.144965 -0.166553 0.016185 0.093228 0.209007 -0.351688 -0.118732 0.133481 0.123444 0.029434 0.003624 -0.049374 0.280922 0.221021 0.345925 0.102501 0.012954 0.026202 0.175503 0.098042 0.064588 0.479099 -0.279264 0.434248 -0.224309 0.262679 0.001894 -0.273192 0.058680 0.153130 -0.186495 0.113513 -0.158024 0.275430 -0.074105 -0.367087 -0.185320 -0.262009 -0.411312 -0.295354 0.122004 -0.412026 -0.046188 0.350323 -0.015938 0.028837 0.365728 -0.006254 0.092898 0.304026 -0.099964 -0.073194 -0.168464 -0.101559 0.252165 -0.334248 -0.175465 -0.003258 -0.240905 0.335912 0.290155 -0.321578 0.292833 -0.132886 -0.067705 -0.028234 -0.092936 -0.159117 0.404851 0.300131 0.176434 -0.105989 -0.178938 -0.200985 0.412908 -0.065273 -0.076294 -0.328452 -0.125989 -0.032603 0.223179 -0.294028 -0.277732 0.328896 -0.541559 -0.263264 0.250736 0.430611 0.126788 -0.367763 -0.183209 0.314781 -0.378398 0.357697 -0.067130 -0.373909 0.259506 
ConservativeDemocrat 0.255679 -0.335868 0.168144 -0.123910 0.683658 0.063156 0.524859 0.139749 0.069323 -0.361291 -0.353650 0.287753 0.006412 0.649687 -0.335746 0.022231 -0.216441 0.246316 -0.048804 0.387666 0.416613 0.048825 0.271298 -0.148962 0.018253 0.066986 -0.095907 0.023910 -0.040885 -0.320877 -0.236541 0.137988 -0.008322 0.021848 0.571078 0.253062 -0.166985 -0.272116 -0.017987 -0.053894 0.073671 -0.090137 0.464643 0.277447 -0.304763 0.002802 0.117103 -0.381284 -0.020624 -0.158113 0.336094 -0.037564 -0.191405 0.253034 0.076633 -0.280086 -0.361692 -0.256176 -0.136917 0.090997 -0.383130 0.379103 -0.298476 -0.097038 -0.279103 -0.032593 -0.171726 -0.147355 0.102940 -0.279879 -0.020241 -0.070166 0.030627 0.256688 -0.131091 -0.183270 0.110756 0.027458 -0.217803 -0.030505 0.283558 0.266055 0.175281 0.201324 0.005293 0.104166 -0.535476 0.174370 0.110237 0.055384 -0.582678 0.151783 0.101258 -0.235925 0.071414 0.206566 0.200998 0.016406 -0.305676 -0.185614 -0.059303 0.065158 0.219602 0.129700 -0.179121 0.020231 0.092233 0.217765 -0.368419 -0.122234 0.130547 0.119747 0.043217 0.015399 -0.050120 0.300248 0.229995 0.366931 0.100543 0.015110 0.018189 0.146514 0.078458 0.050883 0.393232 -0.230876 0.363503 -0.190164 0.221027 -0.003568 -0.228431 0.054617 0.125249 -0.146693 0.095602 -0.132044 0.275555 -0.074369 -0.360191 -0.183924 -0.260244 -0.406957 -0.294510 0.117664 -0.414190 -0.047957 0.353916 -0.018666 0.029110 0.364387 -0.010621 0.097570 0.268444 -0.086869 -0.069647 -0.150399 -0.085676 0.223022 -0.297465 -0.158229 -0.005680 -0.213423 0.303712 0.259607 -0.287806 0.270294 -0.122530 -0.061191 -0.027167 -0.077933 -0.136009 0.332522 0.253160 0.148412 -0.085598 -0.149357 -0.164427 0.351039 -0.052575 -0.071029 -0.283984 -0.108456 -0.025976 0.189828 -0.237268 -0.219570 0.266442 -0.437379 -0.212546 0.193507 0.345476 0.100900 -0.282179 -0.137135 0.234134 -0.292200 0.274874 -0.047804 -0.283115 0.204182 
